144 128
111 -0.10124106 -0.061509497 -0.083377644 0.015951825 0.026787264 -0.053067975 -0.09435877 0.011501638 -0.014911245 -0.031847376 0.20291911 0.106493205 -0.2957583 0.12842563 0.14443086 -0.14442897 0.21391486 -0.04425149 -0.27552554 0.1451997 0.0638998 -0.11283312 0.20102793 0.102211796 0.24053627 -0.13516393 0.27585313 -0.027350012 0.25601748 0.056503978 -0.056607638 -0.17595097 -0.13693777 0.112606026 0.18578449 0.07445428 -0.0821325 0.10975976 0.12143731 -0.023082858 0.28306046 0.017480817 0.009427916 0.26297143 -0.17463411 0.058170706 0.11141656 -0.15384822 -0.15929507 -0.18028526 -0.025531009 -0.060613964 0.20050137 -0.1837475 0.0006765609 -0.07535901 -0.10511325 -0.026957037 0.2899621 0.13180365 0.06384192 0.35163045 0.011316032 -0.14595473 0.12691058 -0.05780188 0.14132069 0.007900432 -0.12350425 -0.108642004 -0.17697173 0.15332423 -0.121390015 -0.13492544 0.08824124 0.09905615 -0.22899865 -0.055693183 0.10930678 0.24799171 0.06501802 -0.10568106 -0.12971722 0.059462752 -0.191301 0.20392288 0.11363706 -0.043393847 -0.0008967729 -0.19937165 0.0695254 -0.066318944 -0.24612892 0.21958816 0.06968811 0.22410707 -0.006426126 0.14266501 0.011035285 -0.10757858 -0.113227695 0.35223755 0.023048991 0.121294156 -0.22476763 -0.09134234 0.23425657 0.12708117 0.06480523 0.0717708 -0.019670306 -0.25467247 0.054066133 -0.16202018 0.10763905 0.099223755 0.074558735 -0.102625884 -0.034514338 -0.0051509365 0.09796433 0.058029708 0.023761097 -0.09305699 0.0228107 -0.029772757 0.15580454 0.06539769
110 -0.117736146 -0.09183616 -0.1511316 0.013736271 -0.034388408 0.06029832 -0.08078497 0.113974445 -0.059195217 -0.18383302 0.03832486 -0.022162955 -0.0619793 0.26852456 0.018323911 0.08407501 0.04482526 -0.08431785 -0.18535239 0.23649009 0.15583496 -0.19749998 0.0467242 -0.112633295 0.13980526 0.0877871 0.027527967 -0.10176118 -0.0009025917 0.12726705 -0.018186398 -0.124511585 -0.108901665 0.23368809 0.09110915 -0.17125925 -0.04306793 0.15338649 -0.048976798 -0.030952346 0.030009504 0.15280072 0.063544504 0.093617685 -0.03407458 -0.16826111 0.33643556 0.060658503 -0.12469913 -0.09962821 -0.067503855 -0.06140413 0.07276994 -0.020931557 -0.09872237 -0.07764829 -0.007693454 0.016435198 0.27840915 0.066189855 -0.07161988 -0.27042717 0.16774023 -0.26424828 0.052663326 0.05495474 -0.12096402 -0.035073895 0.043633003 -0.096027665 -0.026019614 0.053354338 -0.10707802 0.11587212 -0.1408882 -0.061540563 0.0013955071 -0.098161235 -0.09119013 0.3634264 -0.15195271 0.16645208 -0.10852949 -0.0014851657 -0.029517198 -0.039216746 -0.31955668 0.0627297 0.049037147 0.11610949 -0.05156403 0.0770313 0.041139685 0.18168229 0.045859735 0.07461549 0.022305531 -0.20711973 -0.026965763 -0.13483852 -0.2648199 0.07029908 0.0028732177 -0.17118396 -0.06693401 -0.083366 0.08619353 0.23697524 -0.016210925 0.035387024 0.047288973 -0.16624007 0.057532396 0.06781918 0.11921584 -0.21935178 0.09897495 -0.11047202 0.12791532 0.12029961 -0.06094306 -0.063180305 -0.04069423 -0.009376565 -0.061624307 -0.21753874 -0.1733263 -0.02410404
131 0.06814765 -0.12361605 -0.10057399 0.19368981 0.13035753 0.039307922 -0.06282511 -0.109326884 0.06232334 -0.12446645 0.24411197 0.05529506 0.1417244 0.08122148 0.30916458 0.09207889 0.106949106 0.06511885 -0.111061715 -0.11575134 0.18741387 0.088899985 -0.016188685 -0.124301 0.041567992 -0.10542171 0.052419245 -0.014450638 -0.1465662 -0.021352548 0.15803494 0.07097728 -0.049368527 -0.19217476 0.003476173 -0.34461787 0.05676543 -0.00023710076 0.12025257 -0.0029387604 -0.05893448 -0.21822095 0.19529255 0.03549659 -0.069965646 -0.05777274 0.111941 -0.087690495 -0.0073498487 -0.08077262 0.08692754 -0.07555533 -0.09491686 -0.016289525 0.22707534 -0.04756641 0.1298457 -0.25307643 0.007969846 -0.064842254 0.027639866 0.12324175 0.09115983 0.07340553 0.048156615 0.064629816 -0.05719145 -0.097774036 0.03504134 -0.09073922 -0.082763836 -0.04922788 -0.04240522 -0.03291857 0.14369617 0.065083824 0.060377564 -0.10645149 -0.062265553 0.32023233 -0.25696 -0.08893982 -0.06587977 -0.04483426 0.022473872 0.07732914 -0.14645842 -0.16401894 0.08983086 0.11017183 0.1306031 0.14160678 -0.019115876 0.060231023 0.1768493 0.24059984 0.017845165 -0.17314611 -0.13522428 -0.19343622 0.14772174 0.03172982 0.052987795 -0.09987993 0.16663451 -0.31038323 -0.001516933 0.14126873 -0.10069174 -0.06733724 0.12354776 -0.057993434 0.16991597 0.13788645 -0.068613715 -0.15879056 -0.19924219 -0.0980775 -0.05274826 -0.06718108 0.17498858 -0.079995126 0.13618204 -0.006299347 0.1309467 -0.16427487 -0.09373271 -0.070638984
116 0.0067479745 -0.15200648 -0.009777062 -0.032098256 0.06238713 0.11811635 0.094720006 -0.058311038 0.036296643 0.09654213 -0.038272243 0.19566272 -0.18985026 0.2328371 0.05348453 0.062290963 0.11449687 0.0002093861 -0.082485765 0.0019186864 0.22553393 0.002097023 0.009878974 0.026874756 0.10841266 0.018943371 0.18576905 -0.1652698 0.15824649 -0.10766794 0.22676875 -0.08445848 -0.36350286 -0.025108209 0.09176632 -0.075788185 0.014008846 -0.1514794 0.11126517 0.015184798 0.14562072 0.10015354 -0.13789953 0.14499244 -0.055654276 -0.07098373 -0.014225951 0.018088818 0.09710962 0.11880805 0.14033918 -0.013759082 -0.095105276 -0.192043 0.006325222 -0.023089817 -0.015731985 -0.19311857 -0.11799394 0.23988894 0.027450906 0.027670765 0.06112607 -0.16354822 -0.06754082 -0.12066287 -0.1260583 -0.19354193 -0.108957626 -0.087857366 -0.12302872 -0.20295928 -0.057740543 -0.06583196 -0.10715818 0.0256817 -0.23332453 -0.18861866 0.13560875 0.18944284 0.0064646783 0.11793127 -0.15471137 0.05160776 -0.027210178 -0.0909492 -0.07957187 -0.017770205 0.054480862 -0.13957308 0.003952838 0.056151755 0.005809484 -0.013282281 0.096355855 0.034979977 0.096388504 -0.14579764 -0.100045465 0.040069286 -0.11661566 0.15345909 -0.2570807 -0.26982304 0.09235579 -0.013843896 0.047839016 0.010833252 -0.16509853 0.13187692 -0.08636205 -0.053226583 -0.2658192 0.102114856 -0.16317576 -0.15201484 0.05394821 -0.2019257 -0.13334742 -0.11967224 0.07209433 -0.01791253 -0.15691681 -0.02249115 0.052460197 -0.08590034 -0.21041624 -0.4003786
120 0.020582145 -0.017395452 0.11696475 -0.015187315 0.028004281 0.029009568 0.08719228 -0.031203559 0.084140465 -0.021480182 0.14849557 0.09945393 -0.1094175 0.1165647 0.06869216 0.058716763 0.095372625 -0.068617694 0.07604869 0.118150786 0.12002571 -0.17592432 0.055944085 -0.11742356 -0.18902573 -0.12716667 0.16811857 -0.12527014 0.049449623 0.064899914 0.2004848 -0.12191658 -0.1803662 0.003830772 0.07688381 0.004741122 0.027018188 -0.057461977 -0.036005832 -0.0074483044 0.11062795 -0.11968336 -0.0532536 0.33149058 -0.19885471 -0.2585965 0.040220834 0.08714422 -0.04175504 0.037934784 0.18683386 0.12985647 -0.09181937 -0.09952727 -0.04398331 0.15010135 0.11909396 -0.25614142 -0.03713917 0.21859218 0.08004101 0.006839944 0.08856802 -0.12336333 -0.105976045 0.11870073 0.06528652 -0.045217093 -0.17078759 -0.12903629 -0.12835951 -0.19671124 -0.030877668 -0.29116705 -0.08048693 -0.057517342 -0.19056721 -0.09445043 0.11162576 0.20002821 0.0067024617 0.18700898 -0.13033883 -0.087731585 0.061879516 -0.073676385 0.023712529 -0.058264595 -0.049368948 -0.055754717 0.2120471 0.049917053 -0.19619979 0.15595254 0.17124794 0.09709678 0.15456282 -0.072593465 -0.15097475 0.0051558036 -0.23778336 0.11674421 -0.31607038 -0.3109183 -0.012030735 0.022580022 0.11054438 -0.0132141 -0.3041601 0.16280493 -0.043445937 0.037336387 -0.05787332 0.034613345 -0.10551243 -0.26891598 0.0830039 -0.19335055 -0.14430109 -0.080511145 0.06631401 -0.26170707 -0.1805762 0.0307861 -8.905658e-05 -0.020629814 -0.106407866 -0.06865398
124 0.08531008 -0.025300637 0.0697992 0.37246746 0.13140455 0.21645105 -0.015098162 -0.04348256 0.26930606 -0.015231819 0.058552876 0.07028052 0.14328463 0.05243726 0.08353898 -0.083689645 0.13617396 0.04240955 -0.16476262 -0.019964026 0.11067243 0.13668515 -0.16318928 0.07407254 0.024433522 -0.013104281 0.011743017 -0.021581033 -0.1685404 -0.071998574 0.14506687 -0.06221642 0.07623058 0.13264747 0.11981522 -0.27097866 0.027597515 -0.0061335657 -0.10300019 -0.16837583 -0.035874214 -0.17557202 0.18121248 0.087585926 -0.09037685 -0.03680823 0.15412416 -0.13773777 -0.040005196 -0.039401844 0.09742478 -0.019811288 0.039844964 0.06743369 -0.08246448 -0.23105969 -0.100562125 0.023272952 0.08577469 0.052644785 0.13176662 0.15346144 0.131089 0.01071503 -0.02677718 0.22676685 -0.025253477 -0.13443857 -0.13786596 -0.33259815 -0.10664143 -0.036560055 0.015362633 0.10016313 -0.16829889 -0.052221823 0.011895545 0.071117945 0.012807147 0.13185324 -0.21464095 -0.012356314 -0.13564807 -0.061697654 -0.18323772 0.11705708 -0.09881214 0.0048111286 0.29421294 -0.00044265462 -0.013503254 0.18036047 -0.033055782 0.17057984 0.2865756 -0.0546918 -0.047470104 -0.15844773 -0.13524711 0.04019133 0.078771114 -0.027426137 0.17162552 -0.22520916 0.10555304 -0.20173086 0.04598382 0.07970412 -0.20330603 -0.040838256 -0.016564066 0.022450475 0.12202946 0.23138045 0.08923661 -0.1412438 0.093985796 -0.013599985 -0.03718495 -0.09833597 0.19353405 0.14259684 -0.19779968 -0.12253085 -0.11207181 0.0027453029 -0.17713197 -0.026335621
123 -0.0297454 -0.112498865 0.22527102 0.13302879 0.0015514902 0.12266191 -0.045877915 0.031695273 0.09242437 0.049497776 0.0790814 -0.0021168983 -0.14319737 0.117684655 -0.031473782 -0.14622456 0.10057553 0.08282629 -0.2048922 -0.19032812 0.19652973 0.097074576 0.065475285 0.050698303 0.18028511 -0.19057387 0.03727296 -0.2684519 0.107640244 -0.017728245 0.003841283 -0.19039862 -0.1944845 0.059512414 0.37913764 -0.18058226 0.0205583 -0.017298259 0.077194564 -0.0010258362 0.08128728 -0.17852475 -0.08505572 0.2060838 0.025632685 -0.023620501 -0.06736606 0.06279212 0.018291257 0.2111932 0.22419289 -0.073491804 0.12872769 -0.025164422 -0.13433257 0.044865083 0.21856716 -0.14003019 -0.026917335 0.1011153 -0.026557567 0.03229898 0.11252045 -0.1410228 0.06695337 0.028504547 -0.055033352 -0.11619097 -0.17025696 -0.03223358 0.06806846 -0.36775813 -0.05285275 -0.1260137 -0.07160492 -0.079536036 -0.019679815 -0.21340787 -0.11352298 0.29929465 0.036050577 0.0025311958 0.025451526 0.060231853 0.0009885636 0.18719512 -0.0685137 -0.10400222 0.09166201 -0.069339424 0.0673413 0.12663428 0.10686364 -0.05877949 0.13266183 -0.0687742 0.0043049636 -0.09315669 -0.15282409 -0.111234404 -0.2090334 -0.047336888 0.0075932276 -0.16942894 0.17322835 0.18217506 0.05688071 0.13314565 -0.21448587 -0.066484846 0.12618765 -0.046698585 -0.09642771 0.016463183 -0.11266413 0.010573083 0.0127368495 -0.06266344 0.017641475 0.026426436 0.03420674 -0.10914364 -0.21279551 -0.07729181 0.16972296 -0.12350906 -0.055468705 -0.076670066
119 0.044378936 -0.16990031 -0.014297257 0.07287979 0.050812796 0.11164068 -0.1064548 -0.08878333 0.011692624 0.033994902 0.2560596 -0.05657514 0.045325637 0.020271039 -0.023402253 0.11055479 0.06119377 -0.049679965 -0.13896227 -0.13855307 0.15340677 -0.013712507 -0.094907 -0.08309514 -0.0065230792 -0.020610273 -0.0028581165 -0.19759576 0.12817505 0.08060709 0.040364217 -0.35220504 -0.17096628 0.07851071 0.34694672 -0.18138093 -0.051417015 -0.021840028 0.11607816 0.11644658 0.09827189 -0.10279009 0.016730035 0.05820651 -0.12035368 -0.21987805 0.044193164 0.01225687 -0.11945447 0.104803294 0.0847905 0.1211198 0.01611696 0.0063900747 -0.14425255 -0.059192583 0.110737525 -0.0796615 -0.11493923 0.2121137 0.1925057 0.050477296 0.028644908 -0.18459994 -0.017470943 0.21447426 -0.12004093 0.044893105 0.047974516 0.06664827 -0.1255309 -0.16518296 -0.033608466 -0.20681027 -0.13955887 -0.03500183 -0.29144493 -0.17922373 0.039531037 0.3392719 0.05530266 0.23420043 0.04494291 0.057528015 -0.061853338 0.15065709 0.041113637 -0.09414628 0.07011667 -0.011116715 -0.0074679055 -0.04943675 -0.014379892 -0.0089664785 0.014208529 0.10094145 0.08594883 0.026956316 -0.13443689 0.031908497 -0.17464817 0.05543691 -0.21204703 -0.15553404 0.15441622 0.15902261 0.08412951 0.073193304 -0.38006046 0.13997921 0.094186686 -0.124334306 -0.14688556 0.04571245 -0.009201811 -0.19682114 0.051007923 -0.07272223 -0.20277949 0.006009942 0.053578667 -0.09587948 -0.21016711 -0.11065615 0.10185798 -0.006918219 -0.060086213 0.0442818
15 0.10811211 -0.036853563 -0.040800627 -0.021989021 0.02600817 -0.009684163 -0.030028889 -0.12727092 0.025971223 0.12857598 0.050784495 0.028967932 -0.11986255 0.08856338 -0.24083936 -0.010635325 0.032840345 -0.20622486 -0.11288142 0.05039864 0.12338734 -0.0008377707 -0.006190721 0.09029828 -0.059261575 0.025629854 0.06773444 -0.13514368 0.21464044 -0.004236381 0.044267848 -0.19422999 -0.06133895 -0.19874848 0.022082733 -0.06978388 -0.02113668 0.13869433 -0.08914499 -0.013433437 -0.03926977 -0.1089232 -0.097073406 0.24102518 -0.0048971465 -0.07184127 0.048581745 -0.13906986 -0.056121968 0.07494795 0.01281943 0.021631608 0.00063419563 -0.09546793 -0.14596105 -0.026006354 0.11505613 0.010251419 0.029608583 -0.10457056 -0.010562517 0.112263985 0.15073794 -0.11855374 0.1665524 0.0688346 0.02203744 -0.14469327 -0.11414129 -0.11687085 -0.0070561483 -0.21092336 0.07487761 -0.011120317 -0.034370065 0.028501313 -0.0710431 -0.028278977 0.04736788 0.2519345 -0.04266939 0.056613766 -0.13882427 0.06103435 0.021100106 -0.07464708 -0.10927106 -0.062040836 0.026901824 0.025541345 0.04006534 0.040136606 0.065746024 -0.03445693 0.06266358 -0.023634966 -0.020880265 -0.1868622 -0.19968307 0.058532134 -0.012964337 0.055205934 -0.06715761 -0.16310547 0.1108206 -0.14681542 -0.028004635 -0.040450703 -0.093908064 0.061539322 0.049264926 -0.030701393 -0.09733625 0.019303022 0.031287268 -0.023911923 -0.084778085 -0.14407364 0.006510292 -0.0014082404 0.03566698 -0.08868744 -0.093452126 -0.0075590177 0.052854516 -0.24290796 -0.054927908 0.09282684
128 -0.074934326 -0.07980132 0.20431612 0.2686632 0.10968501 0.19966254 -0.074142896 0.052998316 0.05535195 0.05719717 0.07695588 0.04967088 0.013095023 0.19615522 -0.16594207 -0.04863253 -0.0053816303 0.036564235 -0.08306379 0.025239604 0.10371214 0.015122299 0.072755545 -0.0703351 0.07248498 -0.06638245 -0.0795834 -0.26265126 0.08245807 -0.034625042 0.00044065024 -0.019318575 -0.23784252 0.02845479 0.37296218 -0.16931784 0.10883545 0.005954575 0.07157509 0.2312084 0.12419041 -0.14972474 -0.0012083356 0.34405264 -0.09526957 -0.10862216 -0.0076728254 -0.016829189 -0.15122116 0.105857894 0.18491444 -0.025857564 0.071129896 -0.020948302 -0.02603863 0.05475467 0.083627865 -0.0742407 -0.033093803 0.13584392 -0.029835146 -0.16176441 0.14765717 0.021886325 -0.05276698 0.078913115 -0.026309846 -0.023332125 -0.20216058 -0.08940973 0.027137617 -0.34708226 0.043973364 -0.055487063 -0.12621945 -0.11387936 -0.013018144 -0.15961662 -0.037510432 0.27615228 0.043589674 0.020949094 0.007718811 -0.00090773555 -0.06307897 -0.06486254 -0.113331124 -0.03805837 0.035254497 0.025516627 0.055825822 0.06106995 -0.021203665 -0.20615159 0.21175222 -0.05860056 0.0531403 0.07310119 -0.05269624 0.08386832 -0.26369488 0.21521561 0.088867664 -0.25554127 0.0010034032 0.09493148 -0.10010217 0.16621742 -0.25955743 -0.020789387 0.047587868 -0.042857092 -0.18289459 -0.032231316 -0.08463903 0.09620718 -0.0652835 -0.27878466 -0.13717939 0.1377044 0.07626661 -0.07510399 -0.14057596 -0.15719359 0.15504083 -0.19776005 0.091750816 -0.043526113
105 0.095252484 0.016929148 -0.041453782 0.044176705 0.06277807 0.06548756 -0.023294361 0.032373972 0.07776918 0.06770908 0.18330768 0.024759127 -0.061509464 0.121133775 -0.06660347 -0.09386417 0.017645597 -0.12629503 -0.11191707 -0.11470092 0.05690863 -0.15488695 0.057983786 0.09032336 0.04472395 0.092033915 0.08088115 -0.09736951 0.045565017 0.036447745 -0.041972872 -0.043669716 -0.10749962 -0.08538818 0.08860625 -0.008139811 0.012177169 0.08226651 -0.075409666 -0.07550118 -0.15504414 -0.11256005 -0.0081841275 0.1304099 -0.10352473 -0.11241597 0.05017662 -0.023480197 -0.104137406 -0.03201202 0.13418941 0.05016408 -0.022320908 0.017022815 -0.11664332 0.014549094 0.10234125 0.02252974 0.030398209 0.011341447 0.03477481 -0.0047065313 0.11351476 -0.16068815 0.055267338 0.014619954 -0.035649095 -0.24554053 -0.059688594 0.008516742 0.011900237 -0.12531865 0.034835484 0.008597114 -0.1292245 0.033026267 -0.08229741 0.013466126 -0.0040586684 0.2383507 0.087575756 0.08569457 -0.18700089 0.017881675 0.05239178 -0.1543668 -0.07685883 -0.11917443 0.1298057 -0.024166564 -0.04859879 -0.025775759 -0.17743959 -0.0728472 0.01819537 -0.027240163 0.067851454 -0.02632616 -0.14126302 -0.051458526 -0.09093358 0.13291799 -0.097522154 -0.045920484 0.135392 -0.09368531 -0.057627317 -0.09191831 -0.13334332 -0.0109542385 0.09241253 0.05807741 -0.03785545 -0.015994959 -0.04700495 -0.06889764 -0.08423036 -0.13315676 0.025771286 0.1173604 -0.001757821 -0.062470265 -0.20588559 0.0118692685 -0.07152794 -0.16474801 -0.24406566 -0.060519233
61 0.12379831 -0.10993581 -0.019960366 0.14226675 -0.006266432 0.023251299 0.006065491 -0.015040333 0.08400011 0.062049527 0.101399966 0.03689846 -0.13442433 0.08268633 -0.06360519 -0.0701648 0.14767219 -0.14746979 -0.23967709 -0.072767265 0.057479914 -0.015914356 0.027069107 0.042752396 0.0017387118 0.008939869 0.17553204 -0.17941108 0.009105379 0.034430187 -0.20091371 0.009109454 -0.07980959 -0.14581136 0.18051115 0.0042719524 -0.026124913 0.067528345 -0.029734608 -0.10358578 -0.082446925 -0.117537685 0.016667811 0.07703461 -0.16375588 -0.122834526 0.14092639 -0.040839635 -0.07891822 0.033913225 -0.014415572 0.10213295 -0.09690958 -0.11470234 0.0017675173 0.04184988 0.010879252 -0.006010178 -0.005286875 0.00065814867 0.0536166 0.0055709193 0.052251067 -0.20220871 0.122125715 0.045987144 -0.054511454 -0.2402119 -0.16495875 -0.012637108 -0.010544315 -0.121841095 -0.025880314 -0.037317775 -0.057661712 -0.032803163 0.006771223 -0.014042108 0.05203439 0.20339474 0.037295673 0.1376164 -0.097186595 0.052274786 0.044484805 -0.04459507 -0.14646998 -0.04285618 0.064474225 -0.0540469 -0.08987987 0.0450875 -0.023132754 -0.15243772 0.05649579 -0.01409821 0.031968355 -0.026578873 -0.14973852 -0.086556755 -0.06382126 0.1051492 -0.1415168 -0.06576368 0.11013363 -0.022685496 -0.15691312 0.038007013 -0.11617567 -0.044264376 0.0988324 0.11040519 -0.07896562 0.033448886 -0.03957423 -0.096067935 -0.00085437176 -0.16479464 -0.00018140598 0.12353 -0.008725105 -0.015228735 -0.14781435 -0.0092181815 0.01388231 -0.044164814 -0.068327114 0.009913983
118 0.041284245 -0.020752762 -0.11354762 0.13202572 0.04964569 0.054962937 -0.21618694 0.05712022 0.1410996 0.13012782 0.015325443 0.03213967 -0.15198125 0.068947315 -0.076503925 -0.115001 0.13353904 -0.03944582 -0.06803779 -0.06593969 0.123975 0.023906086 -0.15445851 0.051811375 0.14951237 -0.047047555 0.045269612 -0.23784807 0.22305384 0.0009986223 0.13837805 -0.09253404 -0.3072485 -0.025518797 0.14575729 -0.006362591 0.04578695 -0.06039932 0.06659801 0.088022485 -0.1063797 -0.23266046 -0.028323026 0.3113865 -0.047258012 -0.11852884 -0.007499402 0.12250843 -0.074615195 -0.15016124 0.044100795 0.17384991 -0.013888699 -0.18767343 -0.10761538 -0.076350175 0.114843145 -0.07871281 0.095010996 0.2792634 0.31376472 -0.10000451 0.11849764 -0.072147444 -0.06612918 0.049977843 -0.20830578 0.09558216 0.037846703 -0.010018608 -0.215862 -0.2827741 -0.08609315 -0.13113667 -0.11629527 -0.23514941 -0.1079732 0.032317657 0.014969221 0.1684555 0.07984785 -0.0014079079 -0.08485547 0.041973125 0.011456244 0.02203996 -0.13687363 -0.025661113 0.108095326 0.026149305 -0.00092790887 0.11841061 0.009399257 -0.11785872 0.0153332995 -0.04065562 0.03316116 -0.043794494 -0.09609814 -0.08769463 -0.15711333 0.079653345 -0.31227598 -0.12677135 -0.05838105 0.16408245 0.001669305 0.050509207 -0.18872179 0.0231971 -0.08455412 -0.13419385 0.049878538 0.1371179 -0.047666315 -0.10292016 -0.00032050046 -0.2019082 -0.2359232 0.053332172 0.366425 -0.053922582 -0.020331347 -0.0075455476 0.02494357 -0.14940177 -0.15984793 -0.19261973
71 0.19511504 -0.0009203512 0.01849412 0.06788477 0.003230154 -0.0021407595 -0.10496081 -0.03732629 0.027745452 0.026615841 0.10239932 -0.03890519 0.042928413 0.19886045 -0.023117797 0.0100987 0.022760823 -0.100364126 -0.15528084 -0.027123474 0.0631543 0.05564132 -0.023237294 0.03605098 -0.014700356 0.14109445 0.04452749 -0.06520454 0.08978262 -0.1010423 -0.018081741 -0.1008109 -0.023039237 -0.13784102 0.07985945 -0.102600664 -0.005316045 0.1575517 0.007759692 -0.09449326 -0.10171192 -0.15372318 -0.028115803 0.08987026 -0.01535458 -0.041465744 -0.0027656807 -0.07236056 -0.10431907 -0.009439624 -0.019837398 -0.019227657 -0.05045808 -0.045287795 -0.010733121 -0.040486783 0.057878196 0.025754107 0.022426147 0.06558168 0.14244972 0.07413546 0.095795274 -0.12357168 0.22192502 0.035956625 0.039525375 -0.13068435 -0.099018715 -0.042730715 -0.12134426 -0.20103422 0.1557296 -0.06376234 -0.07442357 0.0682056 -0.14101914 -0.05245478 0.051390857 0.108883634 -0.01941432 0.12109453 -0.015479201 0.05266884 -0.103567556 -0.14231746 -0.16300154 -0.0047536637 0.13773866 -0.061356936 0.12370617 0.13720298 -0.030838255 -0.106195375 -0.059564482 0.032508086 0.090534195 0.029065125 -0.27367592 -0.11342343 -0.032198783 -0.015636178 -0.03555547 -0.13435024 0.16258313 -0.022763742 -0.05676465 -0.020976657 -0.19540651 0.027808268 0.017759725 0.0875359 -0.07937425 -0.003051873 0.057972517 -0.14505982 -0.062813565 -0.25080344 -0.12734362 0.14561239 0.020210816 -0.16152556 -0.078785956 0.082220264 0.031001804 -0.14489374 -0.17731078 -0.013163724
133 -0.055913493 0.03336896 0.041791666 0.067330845 0.0616046 0.016338354 0.020063955 0.004079918 0.1482968 0.06884831 0.04116085 0.01533254 -0.047032632 0.19955108 0.008424597 -0.00063562894 0.14237954 0.109366 -0.11205676 0.007737727 -0.050655846 -0.116613954 0.17703968 0.18882938 -0.05263658 0.18203884 0.115521386 -0.32169038 0.07200248 -0.07007882 0.17779483 -0.010815969 -0.042908244 -0.089455985 0.10305888 -0.06175094 0.04329723 0.36106095 0.08991245 -0.026035804 0.050409 -0.115177535 0.1839007 -0.015756719 -0.13280384 0.02502169 -0.06723221 0.1974427 -0.030225933 0.041536048 -0.108033866 -0.12086206 -0.053021602 0.032374837 -0.023375481 -0.17467247 0.35629073 0.12699401 -0.123495944 0.062133152 0.06251011 -0.030709332 -0.00451871 0.014756641 0.059173383 0.17546411 0.013185514 -0.114064045 0.092464685 -0.11547454 -0.2011686 -0.026358794 0.039896365 0.106531985 -0.042392727 0.026796004 0.1016346 0.19515033 0.05754197 0.27439323 -0.07653305 0.14648968 -0.0456375 0.14536755 -0.06295667 0.084104285 -0.031873863 0.09726346 -0.061469942 0.021108057 -0.04231289 0.07324162 0.047686283 0.12712485 0.28667274 -0.01048649 0.23690017 -0.2061707 0.061242484 -0.057947632 -0.2726045 -0.021384852 -0.003987814 -0.10553067 0.2412888 -0.046935663 0.11864904 0.10009324 -0.022175258 -0.07340059 0.08071033 -0.10709792 -0.04166337 0.027708175 -0.28173515 -0.18629844 -0.14842431 -0.088761665 -0.13730761 0.20052598 0.09841652 -0.26801968 -0.13123798 0.13120353 0.027324168 -0.029287972 -0.064036496 0.053753
36 0.09847492 0.06545654 -0.0012362598 0.053283792 -0.025497917 0.027752222 -0.053121224 -0.040620383 0.017962504 0.13627209 0.09531129 -0.013034237 -0.09384544 0.040657476 -0.17310253 0.08010665 -0.06767179 -0.11673599 -0.23706213 -0.15206173 -0.022619242 -0.14170952 -0.016493917 0.10248117 0.07707088 0.061789 0.11439417 -0.10696172 -0.020862896 -0.0497543 -0.024640005 -0.19473352 -0.19088909 0.0009783823 0.13303047 -0.09682582 0.0719231 0.13439918 -0.07101696 0.02914613 0.10746763 -0.124804005 -0.058320567 0.17433402 0.102750935 -0.07764044 0.0536194 -0.034452125 0.034118246 -0.0026821375 0.008059343 -0.005118801 -0.011495141 0.028632069 -0.08860964 0.014124998 -0.025691118 0.008228279 -0.023293203 0.00981998 -0.02671315 0.06596813 0.16410992 -0.13094561 0.07409572 0.15924224 -0.021695048 -0.20476069 -0.021421375 0.13259572 -0.09204752 -0.09925305 -0.083504386 -0.074533135 -0.10776561 0.074279204 0.0031243232 -0.026934462 0.09395027 0.2887246 -0.022478517 -0.026632052 -0.1628799 0.02938666 0.09576252 -0.13209979 -0.11170415 -0.05021261 0.08992396 -0.060540963 0.029051332 0.04142328 -0.18074037 -0.049076892 0.0091737835 0.03928448 0.029660592 -0.0886394 -0.11100976 -0.118869334 -0.012551546 -0.06838402 -0.038987685 -0.11683026 0.10667987 -0.12557085 -0.147046 0.003215389 -0.121857546 0.04130654 0.057422936 -0.047135867 -0.045348037 -0.028970538 -0.033368047 -0.0039065382 -0.082729265 -0.26003435 -0.08019341 -0.08117403 0.17335701 0.06076288 -0.13340893 -0.05966931 -0.098692335 -0.13177946 -0.20158911 0.112553954
125 -0.128155 -0.17688778 -0.065337025 -0.025447354 -0.061469503 0.14061387 0.018718082 -0.061369047 0.04091955 0.17667478 0.072408125 0.051991135 -0.05408715 0.16070111 0.11321981 -0.1411606 0.108896494 -0.15116815 -0.20701073 -0.04630997 -0.085250735 -0.33227602 -0.0077905967 0.031179333 -0.11575192 -0.0065102167 0.017218648 -0.3202125 0.18515103 -0.0037950065 0.29411316 0.06564359 -0.092672646 0.107118905 0.16721791 -0.16268814 0.28343767 0.23545721 0.18852445 -0.16468969 -0.2715792 -0.05132477 0.0124007845 0.20509209 0.022968784 0.033213742 -0.0058620027 0.071175486 0.03898824 0.053963155 -0.15297875 -0.029580832 0.035268888 -0.07275002 0.033072617 0.04024095 0.2649632 0.009462929 -0.07089956 0.09798758 -0.07235918 0.12457971 0.033016134 0.12299562 0.08992479 0.123578764 0.14412959 -0.03105369 0.100739166 -0.051065147 -0.1955816 -0.050687972 0.26411417 0.18466939 0.007972885 0.03704863 0.016432563 0.0703288 -0.16662428 0.2985416 -0.0684194 0.0051937234 -0.11423232 -0.015748058 0.08923618 0.057456836 -0.046068445 -0.16284007 -0.03858655 -0.020062182 -0.12454158 0.06398482 0.22153172 -0.07551413 -0.01191375 -0.04268297 0.102686994 0.010152936 -0.03611725 0.06605679 0.0009474661 0.0035215067 -0.024727555 -0.033286817 0.17879032 -0.1030014 0.09150715 0.021355186 -0.1021585 -0.013060148 0.08771852 -0.11442593 -0.19718932 -0.00081705017 -0.12976308 -0.27310523 0.05537318 -0.17547682 -0.099995166 0.27958232 0.15715009 0.063762955 -0.11364711 0.052662384 -0.029288525 -0.12221457 -0.18562476 0.17263639
117 0.18731996 0.100443624 -0.04259532 0.07763409 -0.049413625 0.057984874 -0.0033415223 -0.029181676 0.20424573 0.031511348 -0.037076592 0.053896777 -0.0023999705 0.124264635 -0.12909594 0.0384677 0.08965578 -0.04873612 -0.1627102 0.021995006 0.09632755 0.018867055 -0.012405183 -0.26237842 0.050702382 -0.21243562 0.1575163 -0.130434 0.061442073 -0.06289141 0.0053595337 -0.15412939 -0.38807845 -0.07285507 0.010377471 0.036084898 0.020277318 0.091632985 0.18426663 0.12679295 -0.043093674 -0.0842268 0.10358082 0.15661858 -0.029940195 -0.12167993 -0.011790444 -0.19820888 -0.070659846 0.1358308 0.03273769 0.045517053 0.00612469 0.046773016 -0.111121096 -0.05987952 -0.10146382 0.010512439 -0.008415869 0.09143506 0.036803234 -0.03940992 0.18019211 0.092627436 -0.007894603 0.13764372 -0.1598204 -0.08453278 -0.07220733 0.011546546 -0.33395076 -0.1413772 0.039786287 -0.022785267 -0.18784559 -0.065928 -0.24729528 -0.034224905 -0.056118526 0.08953178 0.05731421 0.33323276 -0.18262796 0.059188396 0.004101774 0.1812895 0.0021885405 -0.1310051 0.093964905 0.005009455 0.02086746 -0.035928223 0.0069291997 -0.07260645 0.20367661 -0.053583328 0.1424524 -0.034241986 -0.048584532 -0.07920391 -0.16468981 0.029367939 -0.16980097 -0.17280014 0.058130037 -0.013897127 -0.049046155 0.09256379 -0.27136317 0.2308724 0.018335875 -0.009310768 -0.059880763 0.27244556 -0.037118 -0.11229774 -0.124890745 -0.2790804 -0.1652296 0.06706614 0.14851472 -0.14445992 -0.25436845 -0.06718699 0.027929563 -0.22651401 -0.17874505 -0.17162894
112 0.0880399 0.05050662 0.13214348 0.05576669 0.15580414 0.08466799 0.03200791 -0.14129864 0.18234478 0.016600095 0.06219974 -0.18590337 -0.14377742 -0.0094373785 -0.20078552 0.057109375 -0.1230314 -0.08824777 -0.110858336 0.027953196 0.19419041 -0.060718995 -0.28137648 0.096214324 0.1327926 0.06310974 0.011582005 -0.20140938 0.2731164 -0.24566835 0.01979498 0.23649406 -0.020956114 0.18145391 0.0913425 0.06998475 0.18792327 0.04712873 -0.007986888 0.19318303 0.10942508 0.19481598 0.39021754 0.036269806 -0.15400538 -0.1477656 0.07416723 -0.08923124 0.036074955 0.028801076 -0.16578388 -0.030435978 -0.0673155 -0.08232445 -0.2823696 -0.06564565 -0.07232366 -0.1368967 0.10461867 0.028334193 0.12362597 0.02694311 0.046572812 -0.14844778 -0.04248023 -0.035379224 0.0962085 -0.1938582 -0.1756909 0.0827329 -0.17100579 0.07043623 0.027310707 -0.13242066 -0.12903342 -0.04532948 -0.3755482 -0.18313546 0.029287338 0.099489845 -0.01122367 0.4246501 -0.11031485 -0.01762664 0.26124477 -0.0064763217 -0.09067233 -0.108891055 0.11395173 0.122842304 0.19353537 0.27505922 0.15047051 -0.029888352 0.12645236 0.16092464 0.117904834 -0.0063860114 -0.31018284 -0.07028677 -0.07240756 0.26749364 -0.12568574 0.16077478 0.003085779 -0.16223192 -0.06804388 0.16663525 -0.011048953 0.078072436 0.19153033 0.14014395 0.22699189 -0.08088217 0.051444337 -0.23823689 -0.02080093 -0.1341234 -0.045531273 -0.13127673 0.22346322 0.018103123 -0.03840518 0.3523146 -0.016963586 -0.14472237 0.054923244 -0.053688623
122 -0.13959624 -0.07643152 0.25362575 0.115617685 0.014440714 0.08696225 -0.25884336 -0.2151852 0.10894066 -0.24070877 -0.038101643 -0.12569022 -0.12487193 -0.011428037 -0.093963854 0.13986737 0.018374804 0.0377342 -0.2908346 -0.122503504 -0.036817133 -0.13020934 -0.012818855 -0.12097861 -0.045340806 -0.1351241 0.10888696 -0.0640901 0.22074066 0.023174401 0.11517902 0.12744993 -0.2180742 -0.1692405 0.067369685 -0.28439096 -0.15222315 0.12845892 0.07449564 -0.12340088 0.103836074 -0.11609658 0.35968146 -0.03737603 0.14144489 0.091442026 -0.10648277 -0.046061285 0.021207908 -0.18068457 0.038597163 -0.12920791 -0.07078608 0.011362634 0.024622597 -0.08046139 0.0022514795 0.007732689 -0.05400502 -0.03877153 0.05095904 0.035642248 0.20906945 -0.12217288 0.13378008 0.031476706 -0.18307564 -0.121122666 -0.35192886 -0.029201124 0.057618335 0.16991845 0.12323412 -0.24532701 0.055861235 0.11170852 0.11855188 0.06679673 0.010275844 0.25391418 -0.18972002 0.35740894 -0.14760295 -0.016484678 0.12975265 -0.28723225 0.24429065 0.053755514 -0.11243978 0.20856532 0.11192853 0.20713396 -0.21643907 0.002741653 0.09703715 0.15790541 0.02077749 0.19780572 -0.014358183 -0.13727522 -0.11468636 -0.05293644 -0.17379746 0.16136211 0.1314279 -0.024042765 -0.11563408 -0.037901744 -0.1978307 -0.33814287 -0.22565486 -0.18316235 -0.043126453 -0.023429258 -0.1011712 -0.28043562 -0.08279632 -0.08596811 0.310635 0.34485176 0.31118712 0.090244584 -0.032683436 -0.09456728 -0.0069757723 0.022664042 -0.05923347 -0.00021783632
134 -0.10659573 -0.06705601 -0.13531573 -0.10377839 0.09787644 0.06696531 0.0956715 -0.14601693 -0.10977843 0.08171041 -0.013992085 -0.17856815 -0.1526751 0.025637288 -0.09788388 -0.017008914 0.22838058 -0.065247 -0.14657663 -0.12510288 -0.005288863 -0.2555024 0.16474268 0.11185749 -0.12647977 0.17700443 0.018445052 -0.28349316 0.19765829 0.07206188 0.2574167 0.11951226 -0.08403175 0.0034262782 0.2990869 0.049691357 0.14478453 0.28204918 0.17434524 -0.18620174 -0.021229457 -0.1741794 0.0414179 0.09968915 -0.14589946 -0.0876213 -0.087597355 0.065065876 -0.05667325 -0.05922781 0.0928358 -0.11644651 0.038306627 0.1321041 0.059170637 0.04584688 0.18590546 0.11461887 -0.16697975 0.022031141 -0.12367307 -0.00062158756 0.0964439 0.073054515 0.002400595 0.1004561 -0.13503006 -0.06667507 0.09341488 -0.11538052 -0.31735882 0.035767827 0.20020403 -0.004177602 -0.10247245 0.05758696 0.14387873 0.07020008 0.022621546 0.10783982 0.03445692 0.088815264 0.041425448 0.122179225 -0.052988153 -0.011102074 -0.08660749 -0.14884481 -0.158776 -0.07223251 0.25599927 0.0821327 0.20616099 0.080609776 0.28528115 0.053120684 0.25781164 -0.0916448 0.014964015 0.01140953 -0.00014444356 -0.029826446 -0.092898645 0.023457482 0.13549925 -0.18843673 -0.09184706 0.10201036 -0.18127629 -0.0013902113 -0.071952574 -0.021985156 -0.117849305 -0.06856201 -0.070357226 -0.2827019 -0.044106465 -0.15858501 0.018984172 0.14479421 0.23671216 -0.15756449 -0.12372332 0.1614778 0.10981112 -0.18720002 -0.09901688 0.07685423
109 -0.011932947 -0.028149249 0.09974914 -0.0011739007 -0.20230012 0.23329033 0.2913822 -0.00382782 -0.0011009513 -0.17277062 0.06507992 -0.11031139 -0.019893842 0.09480207 0.07636706 -0.052012548 0.26693308 -0.1338518 -0.19271342 -0.034291543 0.21543862 -0.07505007 0.037232775 -0.081920534 0.13754195 0.060755998 0.21050692 -0.24907883 -0.043618027 0.101077266 -0.020366404 0.34336042 0.030229986 -0.048253756 0.14091966 -0.026093187 -0.020422073 -0.047329627 -0.06708537 0.1406053 0.020172922 -0.028593544 0.16948472 -0.039657913 0.057313234 -0.10527138 -0.009418939 0.060386013 0.043320727 -0.17944033 -0.012993719 0.03784759 -0.069819264 -0.24160114 -0.043254197 -0.06281695 0.042315573 -0.026700974 0.19842926 -0.14250278 3.8385395e-05 -0.29449898 0.09330974 -0.10208586 -0.15113883 0.1455208 0.14598374 -0.013855038 -0.07290622 -0.18592343 -0.026114665 -0.39079803 -0.02723798 0.18746862 -0.05042605 0.10160746 0.055301655 0.06757724 0.15652409 0.4342778 0.08398806 -0.029930847 -0.12666267 0.07810167 -0.09064389 -0.01924554 -0.22572806 -0.20802268 0.32786912 -0.019398699 -0.15786318 -0.09121853 0.08156139 0.025353294 0.0009136831 0.2909644 0.0036222006 -0.011826612 -0.04216987 0.003862227 -0.13211773 0.10547137 0.07742895 -0.14026634 0.03818758 0.032050867 0.06238342 0.24326104 -0.06590497 0.19050094 0.04964294 -0.32260293 -0.100186825 0.1399183 0.22805426 -0.0931199 0.044665102 -0.19413297 -0.0027382418 0.17184596 0.38487104 -0.0991625 -0.18761705 0.019769944 0.16670518 -0.010723376 -0.10960892 0.07400892
11 0.022179633 -0.05005874 -0.036817476 0.088364325 0.022934966 0.016282115 0.086482465 -0.030603953 0.18678862 0.15032986 0.25688043 0.09867304 -0.093852594 0.052242283 -0.18520609 -0.055273123 -0.018213967 -0.112617426 -0.17646986 -0.07658625 -0.07164211 -0.111541845 0.13262272 0.11598913 -0.04159994 0.056559145 0.005459746 -0.1166595 -0.00011209183 -0.13585345 -0.14408036 -0.08475996 -0.23486173 -0.057405382 0.13542603 -0.0051181056 -0.012269515 0.05766812 -0.0931981 0.028834758 0.07653199 -0.125318 -0.036324292 0.07194341 0.07968153 -0.07411371 0.013351844 -0.09732091 -0.015077343 -0.1345258 0.12493912 -0.03806688 0.062679544 0.06610167 -0.01710324 -0.033907622 0.058609907 0.037475094 0.08164216 0.0483982 0.14064847 -0.07876026 0.15929727 -0.05867339 -0.08379794 0.025698895 -0.04785625 -0.14635576 -0.06304773 -0.10105279 0.007122215 -0.0907466 -0.005172998 -0.2424032 -0.12701216 -0.03622207 0.03536277 0.084643304 0.0011190167 0.35304424 -0.021675782 0.050848804 -0.12826 -0.050030213 0.15315041 -0.033731125 -0.1675288 -0.12178571 0.046448953 -0.08076942 -0.08159348 -0.030142125 -0.03664478 0.036176655 0.071607575 0.09163959 0.020817969 -0.14152502 -0.0968526 -0.047356255 -0.021316005 0.0482238 -0.012735635 -0.11075116 0.11250387 -0.21520948 -0.024687367 -0.067513786 -0.0764435 0.016529365 0.056827493 -0.061369553 -0.11655824 0.06515699 -0.007685866 -0.17207903 -0.053315714 -0.1472227 -0.04905644 0.042086132 0.19344383 -0.09851167 -0.06990942 -0.023300111 -0.011397684 -0.10440154 -0.06698122 0.0047129053
62 0.123504356 -0.11432797 -0.12719642 0.08763369 0.05813434 0.04615965 -0.05777809 -0.08208033 0.04394522 -0.09459258 0.055690695 0.08926831 -0.03550742 0.16763192 0.06679498 -0.07023909 0.0066119484 0.03620317 -0.17471665 -0.12127359 0.04094269 0.043085005 0.02929781 0.12123912 -0.05362227 0.06229793 0.2236695 -0.06384525 -0.026264105 -0.063266166 0.05489122 -0.24812013 -0.09394266 -0.012081563 0.034150463 -0.0732412 -0.08299341 0.10390843 -0.027798379 -0.04082035 0.08420452 -0.10634473 -0.08300657 0.19390184 0.00068442995 -0.0317031 0.016911546 -0.09133068 0.015316458 0.06240048 -0.043597173 0.08113472 -0.10549807 -0.06760194 0.017712487 -0.07371438 -0.0501288 -0.04340899 0.058568414 -0.16172846 0.12693569 0.046015464 0.120487794 -0.10924315 0.23943035 0.00043748706 0.035054397 -0.15826814 -0.11873596 -0.034725606 -0.23485516 -0.25788617 -0.06769178 0.0126604885 -0.1741529 0.014438948 -0.05907916 -0.0826168 0.04712378 0.14321418 -0.053425897 0.12013937 0.032018185 0.018667206 -0.05937025 0.045354817 -0.124870755 -0.07602393 0.069124825 0.033996265 0.10940431 0.15121013 0.011104949 -0.056005318 -0.048958015 0.06602515 0.009862812 -0.023530092 -0.16570805 -0.06845433 -0.020582337 0.07240701 -0.050098706 -0.18184988 0.044156518 0.040055554 -0.106653064 0.11095534 -0.25818065 0.054876465 -0.020114759 0.09745357 -0.053019922 0.00213159 0.18499555 -0.09758085 0.13967746 -0.35824323 -0.12663302 0.127078 0.031024752 -0.054509804 -0.0992372 0.0575254 -0.03231548 -0.076348774 -0.07521189 0.14078265
127 0.11856763 -0.22487749 0.046833575 0.012866847 -0.008452292 -0.07192977 -0.22774073 0.060073823 -0.055338006 0.025529318 0.11704841 0.02153561 0.0065246616 -0.016743641 0.02881477 0.0005986431 -0.15148903 0.008933061 -0.19390193 -0.017342241 0.18948522 0.03244919 0.05986425 0.004467257 -0.10832259 -0.17134477 0.011635205 -0.24416524 -0.050606135 -0.20716323 0.04959245 -0.21155289 -0.14699796 0.105835035 0.2312127 -0.012219323 -0.06374804 0.042077202 -0.09146777 -0.14185214 -0.020410648 -0.1687498 0.12891847 0.1355969 -0.14881666 -0.24931812 -0.014503217 -0.207129 -0.114866234 0.11275109 0.22951418 0.017075965 -0.23112422 -0.074927695 -0.07985657 0.04453254 -0.019829515 -0.048967533 -0.04525282 0.121683866 -0.013258713 0.058066573 0.099601425 -0.06884229 0.14556088 0.09836907 -0.090339325 0.06298631 0.10945643 0.076097615 -0.04835325 -0.10024978 -0.112648174 -0.057334833 -0.09291372 -0.080745764 -0.044824474 -0.09497903 0.15026312 0.27187908 0.11568517 0.40601736 -0.07986882 0.06619682 -0.09904987 -0.006997296 0.03942435 -0.22076687 0.17533779 -0.14028263 -0.0949769 -0.0691833 -0.033817895 0.03678867 0.074285045 0.080195494 0.17471217 -0.11992546 -0.12556271 -0.033378713 -0.14728156 0.006917905 -0.065905295 0.0033369584 0.21464093 -0.18553214 0.06744572 0.091587454 -0.17183726 0.13022625 -0.19114283 -0.1975571 0.050779574 0.117129214 0.008772876 -0.13046414 -0.047495417 -0.20040666 -0.17761572 0.24014609 0.20564559 -0.33073473 -0.32383978 0.08216542 0.050931904 0.019718092 0.048652787 -0.010742705
56 -0.006001342 -0.045924287 -0.13431805 -0.0041077263 0.09011443 0.14086786 0.031175565 -0.035245758 0.06580917 0.10240712 0.13272993 0.08589895 -0.119629644 0.055349402 0.05819806 0.084650554 0.013061068 -0.09359607 -0.07517021 -0.03693987 0.13623545 -0.0030150812 -0.030533427 -0.009062914 -0.06880168 -0.0024913154 0.07836632 -0.121692725 -0.039754603 0.0334635 -0.008727512 -0.18705161 -0.06499175 0.085861444 0.025387421 -0.0051526604 -0.016217971 0.06714202 -0.01643553 -0.041003063 0.04459201 0.04052353 0.09676452 0.14495645 -0.067062 -0.08270405 -0.09761083 0.028878901 -0.07800757 0.13788496 0.1252897 -0.029594986 0.03388016 0.06545788 0.06703145 0.073959276 0.2186726 -0.06682696 0.20973273 0.00450297 0.050368413 -0.06912923 0.08589742 -0.05067862 0.09306225 0.04189842 0.04077566 -0.13459773 -0.20872618 -0.14035366 -0.15641914 -0.25228462 -0.04410768 -0.11079657 -0.11455326 -0.1258174 -0.034709897 -0.049238827 -0.06863121 0.3567819 -0.02273518 0.04224599 -0.10079611 -0.0014697667 -0.08868706 -0.045579612 -0.019810295 -0.110559665 -0.059220728 -0.020226939 -0.13579649 0.17575295 0.053989314 -0.0458517 0.16633052 0.063109696 0.06539748 -0.06288684 0.059289776 -0.16494161 0.083308004 0.17216876 -0.052335564 -0.05770433 -0.030150257 -0.08117699 -0.18597457 -0.060765456 -0.1920305 0.025264898 -0.03450267 -0.18312718 -0.07934637 0.07919199 -0.0032217312 0.001984692 0.011018701 -0.10048396 -0.12626326 -0.008667243 0.13279828 -0.18099613 -0.11580728 0.027878832 -0.085013345 -0.12906522 -0.074569054 -0.054227244
114 0.040108673 -0.016457763 0.05899406 0.1251505 0.22371605 0.13996817 -0.028935371 -0.15411626 7.787793e-05 0.11567546 -0.1862472 0.051991045 0.18811806 0.061886013 0.16174626 0.107037835 0.37427497 0.060146246 -0.32648826 0.060053576 0.12805921 -0.0004674095 -0.060107782 -0.16772439 0.16461205 0.25245467 0.0072067366 -0.03326506 0.1974137 -0.13145433 0.19542514 -0.080460876 -0.01882739 0.23268051 -0.00735728 -0.17765546 0.04520226 0.13156189 -0.16306269 -0.20869197 0.04536724 -0.121679164 0.1631863 0.32113543 0.12395378 -0.20481098 0.05291864 -0.0759491 -0.2067979 -0.08873177 -0.02339244 0.11524583 0.027983123 -0.1349642 -0.00785947 0.14852236 0.21294427 -0.027106352 0.069684535 0.2927318 -0.11337476 0.28361946 0.09335487 0.056397974 -0.18861584 0.15037683 0.13108744 -0.16091904 0.12093189 -0.07631644 -0.111547805 -0.20260319 0.028308392 0.002324344 -0.19000883 0.20213816 0.059243795 -0.16987704 -0.29243183 0.3267499 -0.09641892 -0.11859347 -0.06691465 0.26787883 0.1704655 0.25608745 -0.1903141 -0.018971285 -0.21913171 0.22442746 -0.0710138 0.06780866 0.25211784 0.20671962 0.0048096785 0.054134365 0.040857475 -0.031806212 -0.24005742 -0.24583305 0.20262173 -0.033656083 0.027675176 -0.032303452 0.015357676 0.013430124 0.07712737 -0.27135742 -0.0825661 -0.23066352 0.08546813 0.10031632 -0.29557732 -0.0065743597 0.02936514 0.1472634 -0.076677665 -0.24591322 -0.11785513 0.23760445 0.04193063 -0.20092055 -0.08728641 0.21051021 -0.10656072 0.09311741 0.021593828 -0.191091
140 -0.15940121 0.16075985 -0.24492617 0.16968289 0.10081229 -0.010819508 -0.11093243 0.08670009 -0.12529653 0.13045703 0.24367167 -0.12624785 -0.31430566 0.13407533 -0.008035352 -0.26708937 0.18638837 0.10088459 0.0061996086 -0.09284188 0.03619343 0.0644257 -0.09426162 0.069273435 -0.0044288416 0.14605594 0.09786836 0.048717298 -0.06126188 -0.2087203 0.15800205 0.060658652 0.0970491 0.006194821 0.046805765 -0.35794517 -0.064881094 0.16651532 -0.08672416 -0.004703819 0.0064015216 0.005799625 -0.0049867895 -0.09186739 -0.073855974 -0.07485644 -0.0873249 0.01828497 -0.002231964 0.08243595 0.005264284 -0.029539512 0.089977175 0.116841 0.08014872 -0.23797143 -0.12083829 0.16135542 -0.110692404 0.1807198 0.16124749 0.09334131 0.10135125 -0.06916956 0.3247744 0.25803453 -0.28879234 -0.21293925 -0.17499593 -0.11614173 0.1990273 -0.09345703 -0.15118416 0.14331476 -0.111540236 -0.12790921 0.052064102 -0.11406114 -0.15781265 0.12972887 -0.14076504 0.046061154 -0.27080977 0.16542101 0.14011365 -0.15980521 -0.1742686 -0.032083023 0.07834181 0.06428138 -0.009994052 0.094694 -0.30744353 -0.13373499 0.20205222 0.16530308 -0.074090675 -0.22301637 -0.20929067 -0.18743663 -0.12715882 -0.0038583474 0.078013614 -0.11073633 0.16151293 -0.0511074 0.049136646 0.05882449 -0.24851984 0.22410229 -0.08022336 0.18313019 -0.11667485 0.1142712 0.073600106 -0.2545991 0.04106344 -0.07998061 -0.18742333 0.14190884 0.2299988 0.0180513 0.120200865 0.047619153 0.018267922 0.008326017 0.091303915 -0.037494913
23 0.13734807 -0.038294856 -0.00082888734 0.1363113 -0.1662278 -0.05453136 -0.0879161 -0.11692196 0.1551029 0.0001751967 0.18792003 0.115027435 -0.08324428 0.094216354 -0.21034276 -0.05585411 0.1533839 -0.25527647 -0.15692353 -0.06844873 -0.08053237 0.10791373 0.00040496868 0.05960021 -0.04996404 0.0356402 0.04556641 -0.12220136 0.12911573 -0.15625635 -0.026225537 -0.17072208 -0.23835328 -0.00416887 0.1899733 0.071892254 0.09598888 0.09544642 0.08366193 -0.047685545 -0.029818194 -0.016095124 -0.020476943 0.12159701 -0.0057607396 -0.011755222 0.0089336075 -0.052236892 0.021875467 -0.009268562 0.060782753 0.05470016 -0.12362011 -0.07030071 -0.09113483 -0.061072014 -0.02879702 -0.09087635 -0.04979655 0.17047201 -5.4158412e-05 0.025367865 0.04288024 -0.093334295 0.033234563 -0.065140724 0.075855784 -0.17088202 -0.04531613 -0.041319914 0.025695002 -0.18269615 0.06365583 -0.08455276 -0.07108587 -0.018989677 -0.13908109 0.053815104 0.055218063 0.19687594 -0.029649174 0.066915624 -0.029642792 0.18045683 -0.06011685 -0.100948386 -0.22165938 0.038979612 0.18765004 0.06817441 0.15240727 0.18423963 0.028162036 -0.1528094 0.09170694 0.08431219 0.16409421 -0.18396182 -0.31792945 -0.025235854 0.045959264 -0.014775999 -0.084625445 -0.011377251 0.0010907188 -0.14276905 -0.04326345 0.020022124 -0.16619687 -0.02026625 -0.026761588 -0.007177332 -0.18422765 0.050221216 -0.082603544 -0.19283557 -0.06559732 -0.23583992 -0.09410966 0.12835999 0.04673128 -0.09139561 -0.11875506 -0.015531781 0.054442123 -0.048762195 -0.14453952 0.12756376
5 0.072540656 0.18856458 -0.12078084 -0.08317625 -0.0031094763 0.09823912 -0.1123813 -0.20825697 0.16642325 -0.002896343 0.21462192 0.054380674 -0.035132967 0.13343504 -0.119457066 -0.18843773 0.05273036 -0.044147443 -0.1940037 0.018121056 0.02934412 -0.0035887985 0.16063082 0.0119068045 0.023856917 0.16206443 -0.18249404 -0.14337163 0.004953739 -0.11483279 0.040190253 -0.10037203 -0.06691686 0.07605222 0.07844932 -0.0067537464 0.096873164 0.16194117 0.00953349 0.001816979 0.04254608 -0.12508334 -0.022897802 0.15230885 0.017648965 0.004673363 -0.12245998 -0.04189151 0.008094976 -0.046177294 0.1720302 0.012169359 -0.05301591 0.079421684 -0.1008023 0.025039427 0.1348794 -0.04323209 0.08523571 0.067323364 -0.06852925 0.15302011 0.15663365 -0.08607511 0.005078623 -0.15096357 0.070078894 -0.173208 0.054408714 -0.14962712 -0.07480117 -0.039525803 -0.039976336 -0.16205743 -0.12711275 -0.024463074 -0.14628504 -0.03954942 -0.084896386 0.25363278 0.042422347 0.1337644 -0.10761634 -0.13195236 -0.00793928 -0.08543333 -0.00062506367 -0.16327439 0.13989696 0.01088476 -0.024501633 0.16549666 -0.029216126 -0.10047023 0.12160334 0.012488656 0.07558135 -0.053966604 0.06656726 -0.021092825 0.08838994 0.07793642 -0.027770082 -0.023483038 0.077844866 -0.08689943 -0.16387935 -0.028214568 -0.24018976 -0.041674085 0.0096814325 -0.14164121 0.01143574 -0.014019937 0.073765315 -0.2039686 -0.17089395 -0.123628065 -0.045517728 -0.06792932 0.18837501 -0.14247699 -0.24506359 -0.1370021 0.03301263 -0.025520185 -0.038463723 -0.16904956
22 0.014152553 0.0133877 0.023979044 0.081713594 -0.065518886 -0.024983961 0.051619556 -0.21058312 0.15328893 -0.042368613 0.08321893 0.0130293695 -0.21191059 0.09348547 -0.06567682 -0.08816791 -0.0596088 -0.048980273 -0.16373262 -0.14472975 0.06303513 -0.2769682 0.014672938 -0.039784003 0.10031755 0.08017024 -0.0016192077 -0.16263072 0.1767719 -0.06812036 -0.053824082 -0.1524209 -0.20578407 0.034716643 0.11971554 -0.027776716 -0.040924367 -0.008209204 -0.07225512 0.022869682 -0.13282576 -0.06583535 -0.017329913 0.1428861 0.0537503 -0.11937636 -0.04874999 -0.02284482 -0.2182056 0.0151738105 -0.031606607 0.24109542 -0.024200324 -0.16835427 -0.19340882 0.027787825 -0.021607695 0.009047961 0.11861843 0.013140513 -0.036202222 0.045055293 0.11954165 -0.08980984 0.001978336 0.11953681 -0.016359221 -0.16985029 -0.09513505 -0.040908985 0.0017146698 -0.14276108 -0.08405001 -0.007304592 -0.05326399 0.021035528 -0.1309772 0.023552876 0.1197763 0.3130165 0.008150952 -0.06066106 -0.11772049 0.22385733 0.028376427 -0.034822304 0.049330663 -0.14167902 0.01961732 0.0943026 0.10336533 0.052229863 0.00993642 0.0010397772 0.23953189 -0.107777975 -0.0838611 -0.20916432 -0.20988646 0.042878244 -0.099471234 0.013722515 0.04358981 -0.24197407 0.07544302 -0.03711904 0.0070132613 -0.025211424 -0.019113367 0.025950361 0.14622542 -0.14071466 0.054311402 -0.029127592 -0.023957318 -0.040817834 -0.062435728 -0.12813228 0.09533644 0.13974565 0.11491738 0.012787168 -0.018544696 0.047452547 0.09023746 -0.32021126 -0.106890246 -0.10685343
130 0.057665963 -0.06521715 0.0012521041 0.14568481 -0.041806377 0.051414702 -0.13817829 0.23421773 0.01796892 0.027957018 0.046990905 0.043869894 -0.02688979 -0.0653474 -0.18578932 -0.3420167 -0.0948003 -0.03445235 -0.21149689 -0.011874 0.0900243 0.06915905 0.1009314 -0.08846111 -0.14083011 -0.038941074 0.10945618 -0.3745476 0.15497777 -0.121681534 0.15881862 -0.0016507278 -0.1540911 0.115831055 0.074671574 0.09814369 -0.020895412 -0.03799147 0.15385191 -0.01988487 -0.061906327 -0.0999806 0.1611322 0.21067336 0.07824224 -0.08343633 0.082658745 0.100397035 -0.109014176 0.07420173 0.105809085 0.0661328 0.052054472 -0.12688757 -0.13789143 -0.0047853035 0.027888529 0.020075262 0.12558874 -0.006745984 0.16137753 0.10731692 0.13412155 -0.18414187 0.11779705 0.058990065 -0.14920147 -0.0020929817 -0.07666508 -0.0744367 -0.040845662 -0.2894257 -0.25160116 0.15120356 -0.2277104 -0.0677701 0.010505742 -0.11103215 0.15957655 0.10040669 0.19575562 -0.041791096 -0.16269495 0.02370636 -0.0881695 -0.13797468 -0.21593699 -0.13791269 0.030941665 -0.08307994 -0.009821861 0.19480863 -0.0007272905 0.0010675999 -0.11533945 0.16123562 0.16146192 -0.05003826 -0.053731125 -0.112993814 -0.35083935 -0.01782868 -0.08585041 -0.19366409 -0.008092854 -0.22761655 0.040475354 -0.014011569 0.022589078 -0.11428362 -0.11576447 -0.13312575 0.046803407 0.27133793 -0.0022167491 -0.22949569 -0.09006684 -0.3196648 0.0022932836 0.040853173 0.26059332 -0.082840785 -0.11711377 0.09721342 -0.09813557 -0.17904198 0.02530714 -0.13354117
129 0.21563551 -0.0072650057 -0.043049946 0.26777232 -0.07422358 -0.062477447 -0.16490047 -0.1624471 0.06086135 0.2397106 -0.04662242 0.1256894 -0.01084963 -0.0843836 0.09066578 -0.23393771 0.08534618 -0.034102287 -0.23846446 -0.022622943 -0.024187488 -0.009973597 -0.0669602 -0.07162458 -0.18447351 -0.021400418 0.096622005 -0.22020325 -0.03183087 -0.27001542 -0.011715813 0.113811456 -0.023983655 0.10714398 0.02641541 0.097446784 0.047786523 0.08836552 -0.0710389 -0.054444566 -0.15615797 0.016322833 -0.07842468 0.1959106 0.027029285 -0.14942183 -0.1844778 -0.13492495 -0.12136269 -0.070833325 -0.2129497 0.031108407 0.10790822 0.06530157 -0.14481604 0.17186606 0.12281029 -0.25436464 -0.17816626 -0.19467308 0.019491762 0.033484653 0.2938402 -0.26251003 0.045564614 0.0433941 -0.055660736 -0.11625855 -0.09270318 -0.11904535 -0.24322121 -0.2445923 -0.0013191118 -0.22194906 -0.027762372 -0.060863897 0.011927134 -0.053826544 -0.055114046 0.32491672 0.20653963 -0.12158032 -0.22191109 0.08484667 0.0853472 -0.16503224 -0.2085368 -0.16534021 0.1980607 -0.04084615 0.053849325 0.124629125 -0.24130066 0.08562437 0.17210563 0.17326175 0.21546593 -0.14984395 -0.11215868 0.012114337 -0.4114475 -0.12714575 -0.2516495 -0.19856717 0.024685476 0.035383414 0.009938692 0.035861637 -0.03526976 0.12263518 0.293599 -0.039441597 -0.15737204 -0.026463222 0.21632873 -0.174274 0.11626363 0.056517918 -0.07069826 0.077969864 0.07472147 -0.2206717 -0.101572946 0.13130295 0.008977924 -0.035385627 -0.036545258 0.011997874
135 -0.07221425 0.1085448 -0.083668664 0.16441686 -0.07887552 0.23563461 -0.07570767 -0.1772569 0.10142753 0.14319417 0.0023568445 0.04958601 -0.024858842 0.04761424 -0.02391025 -0.1527972 0.04716101 -0.012711026 -0.20822304 0.052918162 0.12175499 -0.044801522 -0.22059947 0.10681323 -0.28994003 -0.16640726 0.1477062 -0.14525455 -0.016052576 -0.04107515 -0.062275104 0.05353919 -0.19738162 -0.021068493 0.04128291 -0.11607371 0.14786467 0.29810157 -0.37060198 0.17199855 0.043729056 -0.12980859 -0.058615338 0.3516479 0.013868634 -0.05528944 -0.22355063 -0.13927016 -0.029738722 -0.01949187 0.154806 0.09868343 -0.09414612 0.22563367 0.13987346 0.00086420664 -0.206554 -0.059281707 -0.33113155 0.09864764 0.07362696 0.16746378 0.16165799 -0.10158562 0.10665479 0.0757694 0.06736018 0.07148804 -0.1645713 -0.097254 -0.06128641 0.011923224 0.07642006 -0.10929117 -0.06748401 -0.03583424 0.0141082145 -0.100144036 0.05017662 0.1388562 0.038783386 -0.11145462 -0.10473863 0.2744895 -0.10590976 -0.05305902 -0.4004616 0.046031803 -0.021030197 -0.1457818 -0.04023848 -0.034129474 0.111684255 -0.16643964 -0.06394068 0.06881781 0.100315064 0.1227363 -0.47732893 -0.13758999 -0.008455367 0.06683276 -0.13324144 -0.023058828 0.08560756 -0.070478216 -0.0561117 -0.07730381 0.012292606 -0.0417098 0.08846069 -0.0669591 -0.071724564 0.071318865 0.0040928302 -0.09105479 -0.15796322 0.02376297 0.2987051 0.09269535 0.22998296 -0.16474934 -0.2322979 0.0074900794 0.08465178 -0.15124705 -0.12009865 0.09983648
98 0.028525753 -0.053554226 -0.0041664867 -0.022273285 -0.04584924 0.10852703 -0.052785825 -0.035258148 0.088428356 0.20020266 0.036169793 0.020136239 0.00507815 0.046994798 -0.02860544 -0.08135991 -0.099280745 -0.18692477 -0.11916845 -0.028952379 0.015827408 0.048449945 -0.05395926 0.12380083 -0.046157636 -0.045569677 0.212591 -0.20230457 0.058097508 0.046056457 -0.04112642 -0.1709615 -0.022597985 -0.05740851 0.05849626 -0.1418866 -0.062632054 0.16967851 -0.027159529 -0.010713723 0.018198553 0.044645075 0.11030143 0.089980684 -0.0768424 -0.0713479 0.07870069 -0.15760732 -0.068921156 0.03212532 0.07977372 -0.011692987 0.11020426 0.09308107 -0.07584469 -0.01783167 0.020353774 -0.019817475 0.09061709 0.05042015 -0.042491987 -0.105302274 0.054762553 -0.019518785 -0.0009788144 0.13496836 0.205686 -0.031840246 -0.06691953 -0.14132546 -0.038426228 -0.27261144 3.1791704e-05 -0.08847993 -0.21624926 -0.10832979 -0.025134552 0.052583758 -0.057120398 0.37368035 -0.13878967 -0.18786554 -0.14735192 0.13004176 0.13706471 -0.09866911 -0.06452491 -0.022425164 -0.03129782 -0.16217056 0.0951921 0.030493634 0.18291722 0.08142589 0.16820821 0.034564316 -0.076249644 0.11049085 -0.0035743099 -0.095643625 0.053313445 0.14439014 -0.08646567 -0.11114292 0.09043602 -0.18655083 -0.0736224 -0.1303944 -0.12705201 -0.03935699 0.05264384 -0.02002661 -0.111410655 0.021071777 0.0005587962 0.06675386 -0.07268841 -0.047795713 -0.0054619634 0.117580585 0.100883774 -0.15098889 0.03384219 -0.04669986 -0.017568892 -0.12789664 -0.14543146 -0.05676359
92 -0.0046694307 0.01959585 0.0013074394 0.06744654 -0.092082255 -0.07600699 0.06419722 -0.033303965 0.15359733 -0.013008268 0.24817108 0.07008519 -0.14714082 0.1825785 -0.01863851 -0.0874657 0.03273184 -0.062153466 -0.20709066 -0.06366513 0.042470515 -0.09392749 0.10394197 0.04555296 -0.044923097 0.06280217 0.056098476 -0.23724882 0.04616969 -0.10641546 -0.032456506 -0.26005828 -0.22724208 0.027369693 0.1223922 0.024976002 0.102302276 0.023502318 0.04787399 -0.014968659 -0.10540786 0.018245013 0.07888012 0.13379715 0.037389927 -0.107168436 -0.022771545 0.038192723 -0.0084978305 -0.0073355967 0.0907034 0.08177201 -0.09904259 0.033902053 -0.14143379 -0.005591862 0.119680196 -0.01594533 0.10685259 0.020421695 0.013651425 -0.030289035 0.11286455 0.0085717095 -0.0120547 -0.057949103 -0.024584472 -0.1646863 -0.033926543 -0.07255656 -0.045872185 -0.16335592 0.0056237956 -0.052361593 -0.034397017 -0.03634274 -0.16046949 0.13159132 -0.037903495 0.27541566 0.15494177 0.046358507 -0.11947046 0.051343944 -0.0900687 0.01265592 -0.11502884 -0.048722442 0.06829872 0.123378456 0.1219632 0.17396133 -0.020782163 -0.11042378 0.13061957 0.062195145 0.21381919 -0.13424985 -0.071350634 -0.004685431 -0.02756102 0.0018178746 -0.04555394 -0.10240613 0.065214366 -0.071224354 0.048652604 0.07825678 -0.2297712 -0.008573848 0.033667363 -0.018320037 -0.08671832 0.008738111 0.0056928955 -0.16002508 0.014525097 -0.18557566 0.013527562 0.13770938 0.19448446 -0.10020747 -0.15314043 0.00028449149 0.07949656 -0.11442054 -0.2602104 -0.079909265
101 0.045591313 -0.03636938 -0.052131105 0.10270918 0.14482208 -0.00807134 0.067736804 -0.06767569 0.0055142185 -0.007979359 0.18157557 -0.024329746 -0.023947498 0.1723419 0.121951796 -0.1515039 -0.005237357 -0.020389521 -0.13478108 -0.17428772 -0.04892693 -0.13016398 0.02717593 0.049585707 0.14747213 -0.023819026 0.19150347 -0.20801084 -0.043859642 0.04588168 -0.015014954 -0.13328499 -0.16041234 -0.14949478 0.13570438 -0.08288579 0.026132787 -0.026484713 -0.08914987 0.011744418 0.117459595 -0.084865496 0.030581143 0.14361845 -0.067494646 -0.09217849 -0.016660215 0.058527514 -0.24008773 0.17691565 0.0071937866 0.19603199 -0.09831673 0.07994335 -0.12442068 -0.019937003 -0.08398229 0.018876275 0.13771626 0.033147566 0.14214937 -0.10063391 0.1477445 -0.22295408 0.04984312 0.14880797 -0.12956813 -0.19068384 -0.0728999 0.024459608 -0.04702271 -0.16980247 -0.12274057 0.029525789 -0.111543715 0.03084626 -0.020772584 -0.052714188 0.037567668 0.22864185 -0.06341372 0.009275789 -0.1931526 0.017750943 -0.035159085 0.08442952 0.12914361 0.076778494 0.11387789 -0.09268223 0.027577179 -0.044888612 -0.0719281 -0.068042755 0.04649061 0.015600211 0.084918186 0.061432496 -0.03299316 -0.17050685 0.023955708 0.04653353 -0.075847246 -0.24141255 -0.014028793 -0.11194216 0.014541245 -0.01806479 -0.14686023 -0.023956988 0.0516329 -0.03620002 0.05662415 0.06710797 -0.03303781 -0.0747947 0.05741591 -0.23907875 -0.07519822 0.1004008 0.086130835 -0.0004184776 -0.10427579 0.07904422 -0.09527931 -0.21075717 -0.15977849 -0.0043439
115 0.15455827 0.10730843 -0.16782768 0.2521253 0.020914745 0.18882765 0.16092566 0.08099861 0.028484264 0.122240864 0.0105277 -7.385147e-05 -0.13943967 0.17465895 -0.09248574 -0.21187608 -0.1267344 0.11940336 -0.19056356 -0.012699273 0.21358576 -0.12529661 0.07351594 -0.02736856 -0.07852746 0.12283622 0.19265425 -0.14898676 0.19075555 -0.08574338 0.06710347 -0.1253776 -0.27177724 -0.181076 -0.0027723892 -0.15247457 0.033257775 0.067816906 0.012165605 0.16129437 -0.24222328 -0.27115527 -0.04012521 0.21776052 0.17393866 -0.005049097 -0.035533268 -0.18371071 -0.042807616 0.04458386 0.053865816 0.09621293 0.20431466 -0.08477198 -0.16456646 0.02432254 0.04786418 0.043950323 0.11913936 0.19661403 0.06671409 -0.090591885 -0.027681762 -0.03642257 0.078309104 0.15655418 -0.07550948 -0.05218064 -0.080559134 -0.068701185 -0.35337695 -0.19744903 -0.055600647 -0.16489959 -0.07256117 -0.12405584 -0.33954453 -0.015249709 -0.0918209 0.22728461 0.037962135 0.16759852 0.09504881 0.037909094 0.10886446 -0.022974538 0.15943646 -0.05876493 0.14611848 -0.20090087 0.032745697 0.1175314 0.07496053 -0.017671978 -0.0038833905 0.11026513 0.16784073 -0.32022893 -0.104999915 -0.15686134 -0.07033169 -0.19554505 -0.30305076 -0.10145395 -0.19108789 -0.16012399 0.02718097 0.05262368 -0.2583707 0.008682032 0.07734637 -0.16411723 -0.024545753 -0.05143235 -0.001006362 -0.17561154 -0.3386512 -0.105266586 -0.09420625 0.112133645 -0.024016071 0.0697398 -0.2540018 -0.040980645 0.057060756 0.060849853 -0.29144278 -0.2669996
136 0.015484471 -0.06952374 0.002969883 0.16928993 -0.09372085 0.052220076 -0.050432432 0.04077322 0.10771174 0.09151232 -0.06534841 0.22726704 0.012804246 0.007055253 -0.07260486 -0.100759126 0.10135479 -0.13412759 -0.009470163 0.0851946 0.33621597 -0.1529481 -0.17424762 0.13345645 -0.17411102 -0.1868462 0.08886657 -0.05652062 -0.026413849 0.011230628 0.046532698 -0.0332097 -0.18980305 -0.13230884 0.040256213 0.03183996 0.0942495 0.26296386 -0.19301936 0.19512072 0.05256832 -0.22437252 0.01838571 0.19543698 -0.124979466 -0.16491051 -0.16704647 -0.10892598 0.18320288 -0.14669666 0.077167146 0.115504 -0.13408378 0.2134537 -0.10171407 -0.044458795 -0.20711467 -0.075160764 -0.4145054 0.08547533 0.12536731 -0.087560095 0.29793584 -0.23610838 0.37300125 0.33099627 0.050684974 -0.14124466 -0.074844986 -0.23732544 -0.061094306 -0.17579718 0.08812777 -0.19052328 -0.1275127 -0.012777005 -0.12416932 -0.028010428 -0.04136854 0.17372705 -0.13908188 -0.06767248 -0.16903166 0.11535846 -0.04748406 -0.08661954 -0.25656018 0.15596558 -0.15573113 -0.12584859 -0.13822266 0.20816144 0.07162685 -0.041182213 -0.167302 0.009192591 0.113837786 0.17208529 -0.3051553 -0.15096931 -0.06958538 -0.031678926 0.00920707 0.21081352 0.12671575 -0.061529018 -0.10478842 -0.13709463 0.07642958 0.027071703 0.18196473 -0.13438208 -0.10025406 0.0427845 0.07431001 -0.1690886 -0.17476381 -0.24025579 0.14407945 -0.015727237 0.13590272 0.08326699 -0.041297045 0.021365987 0.2651942 -0.15122192 -0.07862412 0.04649816
21 -0.030337952 -0.02789947 -0.061305404 0.05666464 -0.09244689 0.072376624 0.06963763 -0.00025424038 0.13798442 -0.05007242 0.09842901 0.012812983 -0.02217462 0.07762515 0.19406843 -0.017906947 0.04088497 0.042920407 -0.1663919 -0.07240541 0.065404326 -0.13229872 -0.034612264 0.16253561 -0.02999183 -0.017666422 0.08276782 -0.055604596 0.05266852 -0.03562085 0.14444715 -0.06974623 -0.15001315 0.086394325 -0.0045293393 -0.18914944 -0.019987574 0.11443132 0.11302629 -0.063260406 0.02177831 0.10331021 0.0149287535 0.1277735 -0.005950568 -0.15067853 0.010068093 -0.019950654 -0.17064485 0.010978231 0.097881004 -0.026958251 -0.0764215 -0.09033761 -0.0042059263 0.025870215 0.06764735 -0.06998199 0.10399084 0.06688886 0.07143787 0.029144958 0.14488818 0.036190834 0.015376872 0.056905974 0.07408739 -0.060546044 0.015251754 -0.15166928 -0.12168702 -0.19560155 -0.18612519 -0.039828755 -0.21401998 -0.113431096 -0.09602169 -0.06118347 0.015346945 0.27283224 -0.015861508 0.037659213 -0.05341795 0.029416064 -0.08754759 0.041982364 -0.0058948984 -0.102971725 -0.06411499 0.06464425 0.046629097 0.18488824 0.04702868 -0.02118605 0.10079988 0.14879276 0.060235877 0.021600721 -0.08030266 -0.0049588233 -0.077527866 0.063363284 0.07423379 -0.117151834 0.033027045 -0.03512584 -0.123185396 -0.12523277 -0.22111458 -0.015035244 -0.11883316 -0.10841598 0.012147149 -0.063710235 -0.094601035 0.05470299 0.057053134 -0.0742066 -0.094006985 0.1819297 0.022299357 -0.17530753 -0.15314032 -0.043877773 0.021033982 -0.17919566 -0.25778893 -0.106828295
126 -0.069729395 0.07622085 -0.2814468 0.21808757 0.1363649 -0.013612152 -0.1871394 -0.21726744 0.33087972 0.25184825 0.054709498 -0.13678433 -0.03877751 -0.05215663 -0.29428673 -0.14011739 -0.0026900768 0.046898168 -0.23588756 0.116846204 0.19248872 0.016290564 -0.027042478 0.21869336 -0.12526757 -0.07117682 0.1938689 -0.11949012 0.13253084 0.11169564 -0.15643035 0.1816694 -0.03280585 -0.085945755 0.03475137 0.1150372 -0.025880674 0.076628156 0.042903073 -0.15074229 0.013791694 0.005411788 0.043679 0.21141128 -0.18674797 -0.17545868 -0.31917256 -0.08028823 0.107986346 -0.01712409 0.23922399 -0.19085966 -0.07067455 0.052235138 0.0025046382 -0.1552036 -0.036680017 -0.12950386 -0.12345984 -0.013871663 -0.0052253897 0.077004544 0.059818957 -0.071526796 0.09522649 0.20573962 0.2556217 0.020230034 -0.032586306 0.13935494 0.23114672 0.0073330733 0.12500447 0.061644047 0.01354436 0.053093903 0.13316774 -0.2968956 0.03485305 0.22040516 -0.048022185 -0.023865297 -0.026169045 -0.12033925 0.13336112 -0.06622943 0.059033476 -0.029123459 -0.09403373 -0.0821038 -0.033311725 -0.0036596842 0.11898681 -0.041525867 0.20366007 0.057128128 0.1435059 -0.15063676 -0.17110652 -0.29754272 0.0448594 0.20005678 0.032063175 -0.11779056 -0.17911999 0.0059700953 0.04247153 0.07259687 -0.014164955 0.016440185 0.15165937 -0.121763885 0.11439105 -0.013042289 0.09137676 -0.14718254 -0.14530428 -0.31440288 0.18157409 0.14737827 0.16110407 -0.20808509 -0.18331209 -0.18294074 -0.004774816 -0.064068265 -0.20340599 0.012606124
102 -0.08103671 -0.15331829 -0.07625608 -0.110374235 0.020986136 0.107448794 -0.04746619 0.11453872 0.30952942 0.06390083 0.17191242 -0.008685201 0.113175 -0.11665732 -0.10374056 0.03890523 0.07819413 -0.3699669 -0.22168563 0.08841705 0.19427815 -0.21010104 0.08196623 -0.082567066 -0.021440815 0.075946115 0.06304666 -0.0020352115 0.2286234 -0.07412015 -0.06365758 -0.13781893 -0.22975375 -0.13299607 0.18141086 -0.011970277 -0.10643815 0.1504126 0.06304718 0.028524788 -0.10243376 -0.050062057 -0.074860804 0.28085807 -0.10731772 0.033977114 0.06176409 0.0043814634 0.071446896 0.30178747 -0.020346917 0.017367292 -0.11696999 -0.07828715 -0.015895598 0.019189242 0.13934368 -0.012591005 -0.123731464 0.16447113 -0.06676798 0.07717633 -0.12924212 -0.11245425 0.18188226 0.17756672 -0.18763657 -0.13771732 -0.15048039 -0.023062523 -0.059910286 -0.14620739 0.010529074 -0.20090741 0.11264762 -0.21283752 -0.123407535 -0.10794635 -0.080206424 0.32118198 0.18504187 -0.021825453 -0.12442713 0.077209875 -0.043938372 -0.049817834 -0.20976672 -0.04430965 0.22694618 0.048035026 -0.021270545 0.052276067 0.09056244 0.0038088607 0.15584864 -0.05591196 -0.02948073 -0.08954434 -0.21853985 -0.044933688 -0.090025365 0.108859174 -0.076344825 -0.12695432 0.111533 -0.18293215 -0.276711 -0.022031937 -0.07868087 0.1106214 -0.02583756 -0.049909815 -0.1411611 0.007064903 -0.07039739 0.024915583 0.093796685 -0.110004164 -0.03542664 0.10642532 0.18498088 -0.058103777 -0.022397542 -0.19551231 -0.11512577 -0.120656215 -0.011681561 0.054034855
88 0.01486622 0.02704358 0.011738493 0.0034072043 -0.011091642 0.059541453 0.012153352 0.08653088 0.018264394 0.18338549 0.005966794 0.1400943 0.002519112 -0.07339574 -0.15909651 -0.04146449 0.089057855 -0.19578035 -0.122070305 -0.020128265 0.18810062 -0.10905756 -0.004754673 0.029717088 -0.058946624 -0.007719743 -0.087971926 0.04562297 0.2564509 -0.14762501 -0.03287386 -0.08083564 -0.017707568 -0.1353009 0.1039483 -0.23529585 0.04344607 0.23941703 -0.12421141 -0.21217763 -0.022799559 -0.016490456 -0.02391804 -0.038046382 0.062432945 -0.08351064 0.05059832 0.0030974748 0.029531727 0.046166964 0.09751832 0.00036371103 0.10618699 0.06928528 -0.14885938 0.027395833 0.22047354 0.03151178 0.13137746 -0.039085925 -0.08236598 0.13630243 0.013496401 -0.043217342 -0.049958445 0.18454888 0.07468319 -0.12293229 -0.113485135 0.11803312 -0.13204956 0.0013297343 0.024644332 -0.2202076 0.046040233 0.044632927 -0.016695015 -0.15926151 0.11503289 0.3365639 0.008021221 0.020836838 -0.12787122 0.15650699 0.1652573 0.01004822 -0.19755276 -0.12433949 0.019320032 -0.030506443 -0.2295481 -0.083001785 -0.02672955 0.11877007 0.2047417 0.062793575 -0.0063310266 0.047548093 0.005170094 0.019733177 -0.04863154 0.09717083 0.063802026 -0.10411378 0.065612175 -0.11962308 -0.16777006 -0.11192312 -0.13852096 -0.031085301 0.032831658 0.041225992 -0.10609233 0.012689503 -0.10553012 0.030581338 -0.04302632 -0.15286994 0.024238592 0.099358685 0.2378378 -0.15498577 -0.022859901 -0.21616398 0.05751466 -0.26988938 -0.03492031 -0.05050456
113 0.047091715 -0.06097007 0.123740226 -0.14604098 0.1510813 -0.22177407 -0.11263491 -0.17682688 0.10224388 0.018490452 -0.0060039614 -0.181175 -0.027337646 -0.11992454 -0.10948423 -0.010705012 0.10093347 -0.27774337 -0.38960287 -0.035883274 0.047161896 -0.0499401 0.058270384 0.20819183 -0.06056097 -0.054993097 -0.09347389 -0.12770791 0.2601034 -0.13573617 0.09844861 -0.04062054 0.06462103 -0.08679858 0.14697526 -0.14149247 -0.14635605 -0.02892138 0.21683893 0.20838942 0.047212023 -0.056160815 0.04039783 0.1449298 -0.1186417 -0.15985405 -0.08309489 -0.5396426 0.02704202 0.18465398 -0.12894711 0.108365655 -0.08835758 0.108688936 -0.008538189 0.0070934985 0.06072776 -0.026174774 -0.019737808 0.18093802 0.17401436 -0.025219081 -0.081647106 -0.19009396 0.0837253 -0.21688761 0.24312462 -0.23136412 0.12613066 -0.0868986 -0.14321013 -0.004056094 -0.08459028 0.020623164 0.015177832 -0.12940393 -0.07881479 -0.078162074 0.10220892 0.21484873 -0.15582545 0.15985928 0.10353741 0.079246365 -0.19142292 -0.18140408 -0.18468753 -0.03075632 0.16029336 0.33939776 -0.28910154 0.10522584 0.013846086 -0.19713098 0.27461916 0.020456223 0.027918002 0.1676893 -0.20084396 -0.34436047 -0.32052186 0.11757107 -0.15802556 -0.11265698 -0.33763924 -0.13689174 -0.18321991 0.14865847 -0.109304875 0.12888557 0.05577025 0.19904429 -0.27165654 0.3241303 -0.07186055 -0.4153717 0.28580296 -0.12203653 -0.14734712 -0.23956703 -0.050661888 0.1722143 -0.029517146 0.14000396 0.2166032 -0.10505006 -0.14242747 -0.0019030317
41 -0.07520704 -0.14799583 -0.0302504 0.16575067 -0.007131559 0.0703714 0.0097102905 -0.06843522 0.019766347 0.02678728 0.14252289 0.060752183 -0.116901875 0.09316702 0.09490847 -0.03291391 0.022568604 0.008426862 -0.1324984 -0.17982534 0.058256783 -0.15003274 0.10310319 0.13695559 -0.025293482 0.12111906 0.16536595 -0.08645879 0.037677594 -0.077448025 0.033910174 -0.21425903 -0.2624913 0.008548342 0.07639895 -0.035020538 0.08593852 0.06656383 0.14961061 0.02198247 0.0036573869 0.038992226 0.16399127 0.043972857 -0.06528201 -0.0006702376 -0.036213703 -0.017427504 -0.02008526 0.0013404514 0.052057717 0.11431067 -0.07888786 -0.02021956 -0.15594707 -0.0023896117 -0.02861157 -0.007425352 0.16172102 0.046621908 -0.013435515 -0.13028881 -0.013442075 0.09599631 0.05473372 -0.020788435 -0.0906096 -0.08028817 -0.09333454 -0.0869654 -0.012168815 -0.21494727 -0.10883976 -0.02245334 -0.096122935 -0.06377565 -0.054070428 -0.018028572 -0.047925156 0.15339755 -0.03150495 0.02910152 -0.086494386 0.05667331 -0.10068899 0.08610213 -0.08295046 -0.24314493 0.058423985 0.10046128 0.055337276 0.21998043 -0.017627219 -0.012858933 0.14986761 0.133251 0.200269 -0.042829152 -0.14129743 0.08280833 -0.058877382 0.048896864 -0.01676501 -0.20604843 0.059230074 -0.056408394 -0.010241546 -0.011879238 -0.16439995 -0.02215666 -0.10840696 -0.042544354 -0.0808042 0.08102509 -0.082503356 0.03457004 0.05212885 -0.24782708 -0.038447317 0.14417125 0.1627173 -0.045671813 -0.023336908 -0.02887531 -0.11085275 -0.14127332 -0.20753625 0.12242077
12 0.14367692 -0.1379613 -0.013851013 -0.011587641 0.103714354 0.08802806 0.05583376 0.08684683 -0.020985479 0.0496084 0.30116418 0.09806438 -0.065353006 0.28767812 -0.07225693 -0.14800254 0.23300515 -0.18906647 -0.26838377 -0.070735656 0.13246657 0.12787253 -0.09092794 -0.025580665 -0.065158166 -0.099194415 0.23774458 -0.07080406 0.13056922 0.0777312 -0.17101057 0.011724161 -0.0873147 -0.11254416 0.11591901 -0.026888937 0.11856754 -0.017116062 -0.01339904 -0.0519227 -0.08541681 -0.006529697 -0.07721832 0.09223767 -0.046891388 -0.26860467 0.08725537 -0.05671162 -0.113932915 0.1020164 -0.06454399 0.09839771 -0.21363491 -0.15356079 -0.16282837 0.10960354 0.068095274 -0.07637232 0.017873744 -0.19407235 0.054644987 0.11815929 0.21008322 -0.17649382 0.20254067 0.0688432 -0.012179116 -0.116249576 -0.04594651 -0.13834982 -0.057368543 -0.09864199 -0.07078446 -0.06225088 -0.19507463 0.04535746 0.002722145 -0.09579279 -0.1365464 0.10962548 0.09141842 0.1521764 -0.2260023 0.06000728 -0.11372556 0.01926698 -0.10205271 0.0010675746 0.09174256 0.031532582 -0.08880463 -0.043877747 0.026152607 -0.096165836 0.12494092 0.076447025 0.25054336 -0.11610155 -0.27104047 -0.07446489 -0.09734788 0.13352118 -0.09312496 -0.13962322 0.0139317615 0.106748715 -0.26922083 -0.042686436 -0.30867648 0.015473853 -0.07295319 0.081079654 -0.12397744 -0.07959766 -0.06527108 -0.123512834 -0.083006896 -0.019176472 -0.019202827 0.19322464 0.061821964 -0.09880168 -0.05630063 -0.1442866 0.20790216 -0.1568748 -0.14930905 -0.07744814
94 0.076154396 -0.14196922 -0.14045003 -0.09843205 0.037899427 0.019016713 -0.09836667 -0.104795635 -0.005977832 0.18198043 0.0031887281 -0.20910253 -0.22062652 -0.019953325 -0.14451793 0.04543882 0.03785875 0.046992626 -0.29383647 -0.083655156 0.0134481555 0.13005264 0.0687949 0.017725933 0.076304466 -0.000507237 0.1515771 -0.15225278 -0.07531778 0.14265232 0.059437826 -0.09243076 0.0073948666 -0.17673475 -0.0053270096 -0.08420855 0.002552443 -0.038145974 -0.18573704 0.13202544 0.009458505 -0.15591389 0.07771817 0.11212432 -0.20151727 -0.11014173 -0.023413533 0.022153385 -0.08994198 0.08778568 0.049802594 -0.08292298 -0.03006921 0.009929336 0.12229392 -0.09825036 -0.2468299 0.026073173 -0.032735907 0.014268769 0.03363252 0.056069843 0.20105423 -0.15816024 0.15448119 0.07849478 0.034481067 -0.18350327 -0.112154275 -0.07397222 -0.009262391 -0.04571979 -0.12508431 0.10599178 -0.13209699 0.09057723 -0.13086502 0.02683591 -0.22734357 0.27122653 0.0033201326 0.017492883 -0.29145163 -0.11220048 0.19847515 -0.087512724 0.009775313 -0.008903369 0.08341656 0.061045446 -0.015968913 0.13621037 -0.07329958 -0.064893484 -0.02121777 -0.16324015 -0.059668206 0.040187236 0.07130172 -0.17810075 -0.050873876 0.20632333 -0.22909717 -0.11603301 0.08446953 -0.07603334 -0.112180986 -0.07153832 -0.101754606 0.033454306 0.082965985 -0.06237219 0.045245793 0.013626732 0.11446853 0.06946884 -0.03552471 -0.19075249 0.002618442 -0.045520965 0.019778725 -0.05099723 -0.16031852 -0.030531162 -0.12971544 -0.08741619 -0.034085378 0.07493079
132 -0.07741321 0.008565952 -0.035265733 -0.08748878 0.0817078 0.13962081 -0.10479534 -0.14477016 0.012310955 0.15504684 0.09075088 -0.25379372 0.054150496 0.05855731 -0.08692971 -0.19615927 0.036246866 0.04805624 -0.05107543 0.052706152 0.27743724 -0.03923557 -0.047506113 0.18615668 0.011747002 -0.22370167 -0.0007394733 0.06943341 -0.058023307 -0.25003588 -0.054944437 -0.060017496 -0.1289239 -0.071395025 0.109413244 -0.046622846 0.11810959 0.06944049 0.09442553 0.08618457 -0.28476825 -0.10927137 0.019263443 0.14615168 -0.056367114 -0.0995843 -0.058629934 -0.077389896 0.07943992 -0.1604509 0.27373785 -0.025141342 0.012699924 0.09841701 -0.061965965 0.09894571 -0.069232754 -0.17848344 -0.1359874 0.17544718 -0.06206687 0.13675356 0.14417219 -0.06529081 0.22598666 0.09439997 0.17566389 -0.24109021 0.05440121 -0.18712632 -0.23519263 -0.2529448 -0.009777298 -0.077687226 0.02332816 0.019262511 0.19707084 0.053712443 -0.18876092 0.27859703 -0.07390175 -0.05448975 -0.050197873 0.06263359 0.2796419 -0.016152054 -0.1346965 0.20872404 -0.13035938 -0.0066604507 -0.10439607 -0.03913148 0.1415302 -0.048714966 0.1460857 -0.108991444 -0.11440717 -0.108667105 -0.082759894 -0.23957191 0.041735016 0.06000341 0.20429507 -0.22897127 -0.057399917 -0.07734512 -0.090986155 0.14106227 -0.24671993 0.17098881 -0.11317557 -0.015584681 -0.011030541 0.15827155 0.0035595095 -0.28508592 -0.08434908 -0.31129286 0.10195777 0.07802013 0.10046639 -0.14197485 -0.15308943 -0.22245432 -0.2278138 -0.10754117 0.03945174 0.14580034
54 0.1888084 -0.03515109 -0.02169483 0.053849157 0.18472372 -0.1515637 0.06807152 -0.0680323 -0.05829119 0.01899567 0.05964593 -0.15848227 -0.09372215 0.2658637 0.011651085 0.19867693 0.011630918 -0.11686943 -0.10236876 0.053023353 0.17552349 -0.050180502 0.11059625 0.03610143 0.0812084 -0.0195956 -0.003923199 -0.10264221 0.19641514 -0.0011685978 0.12917659 -0.12128888 -0.000987053 -0.16619293 -0.12064172 -0.2875359 -0.01923897 0.042436995 -0.090659946 0.095042124 -0.15508027 -0.08501115 -0.09306195 0.29415455 0.0795163 -0.18011667 0.052576043 0.076518655 -0.28163666 0.31411785 -0.11114961 0.06397273 -0.08625876 -0.2322303 -0.19273908 0.063783966 0.12278353 0.08968922 0.07009307 0.069439575 0.008846863 0.15383029 0.3791359 -0.07534268 0.18164417 0.19715379 0.01359115 -0.15505162 0.013495285 0.009162683 -0.047319096 -0.09893296 0.03411736 -0.077446476 -0.11064761 0.02890138 -0.18312475 -0.28778824 -0.056956172 0.15999475 0.09157727 -0.06661028 -0.14111552 0.0023851166 -0.1188246 -0.107815124 -0.12409043 -0.0010517123 0.0095582465 0.02532539 0.028014157 0.12668875 -0.035800934 0.006052101 0.034788128 0.032355703 0.112476006 -0.15262233 -0.12982075 -0.057875223 -0.11687109 0.0008856492 0.014545634 -0.21556458 0.11058997 0.04734927 -0.1130688 -0.0008123523 -0.351631 0.0840451 -0.011477874 -0.06314297 -0.096241035 8.559036e-06 0.08297671 0.09449047 0.017456641 -0.16411108 -0.04540221 0.10115648 0.19770584 -0.07501614 -0.2088212 -0.14096963 0.1515626 -0.29588312 -0.11920279 -0.08214514
83 0.20919015 -0.019283831 -0.070061415 0.00551131 0.11593899 -0.014697 -0.19977622 -0.059644263 0.10249597 0.19487098 0.06702038 0.019177806 -0.22568694 -0.02933125 -0.15034685 0.14121053 -0.046516202 -0.09886607 -0.20323813 0.19058748 -0.017203124 0.16111982 -0.16202919 -0.021104723 -0.0889971 0.0551411 0.20657349 -0.133781 -0.02208749 0.10931787 -0.012065486 -0.06574012 0.092701286 -0.26114973 0.04898589 -0.075611815 -0.03648404 0.013317693 -0.12000451 -0.062927045 -0.10543361 -0.11112779 0.098597266 0.1074317 -0.038968444 -0.03490454 0.06204308 -0.15859662 0.038983528 0.047156326 -0.053380422 -0.17464465 -0.033759527 0.0118414415 0.0608911 -0.20769653 -0.14489938 -0.05097925 -0.07738998 -0.12279078 -0.013023055 0.13996188 0.12613696 -0.10867776 0.24363485 0.032588888 0.0676287 -0.07147537 0.05823888 -0.17619257 -0.10534853 -0.35655543 0.008691452 0.0062591326 -0.1936652 -0.02114599 -0.039177664 -0.06767518 0.038088217 0.2065031 -0.064635 0.12634367 -0.038811848 -0.008090754 0.09474431 -0.17659633 -0.21614242 0.010768588 0.0070588063 -0.10967778 -0.15876968 0.11734033 0.18200415 -0.116101734 0.06845447 0.09798835 -0.1881347 0.028328743 -0.29479423 0.00056468527 -0.099368215 0.051005896 -0.0670512 -0.22353232 0.032308716 -0.01861223 -0.2120996 -0.03998058 -0.24507108 0.031273983 0.034877237 0.043427248 -0.0880297 -0.20506676 0.13745889 -0.042955756 -0.09247055 -0.21551917 0.051768515 -0.094513156 0.06966597 -0.11263555 -0.1399122 0.09634752 0.11353328 -0.048849456 -0.19667785 0.1282808
121 0.01541595 0.093743585 -0.07613801 -0.18646285 0.157365 -0.07957763 -0.2677036 -0.0023512596 -0.034655914 0.11529639 0.14310355 0.005130321 -0.0766209 0.08976231 -0.24765918 -0.06548136 0.13999663 -0.0746587 -0.0726695 -0.017895034 0.18643954 0.11722271 -0.055371158 -0.03612937 0.029467024 -0.036761917 0.28002092 -0.19409233 0.05570583 -0.018019428 0.049337875 -0.051988896 -0.2042371 -0.08819958 -0.088246286 -0.13509643 0.029526424 -0.14612679 -0.14925012 -0.06391365 -0.03611165 0.08462382 -0.22366318 0.25235337 -0.04791827 -0.13670902 -0.13676389 -0.11334354 0.11492385 0.16258399 0.06724468 0.17422056 -0.06733868 -0.17783388 0.024957607 0.01636302 -0.05120433 -0.2727493 -0.16279998 0.15401064 0.2565142 -0.18424214 -0.1641806 -0.14696501 0.19239482 0.14838299 0.11019016 -0.3492639 0.079423085 -0.26157066 0.0019946264 -0.08217308 -0.055477012 0.2558551 0.019954769 0.13298787 0.07511888 0.0064262426 0.016580964 0.15946123 -0.13395669 -0.061413184 0.0053331046 -0.23780991 0.12511139 0.09762566 -0.012372165 -0.12618843 -0.0643709 -0.18494284 -0.011419291 0.24698125 -0.048899546 0.115165114 0.07901922 0.09230132 0.046365604 0.10443023 0.02159601 -0.24529853 -0.23751718 0.020037426 0.1567361 -0.28163975 0.057306964 -0.19268765 -0.1006359 -0.03152287 -0.2871419 0.07822735 0.2071394 0.07097997 0.06861726 0.1230108 -0.10254712 -0.16027774 -0.21630764 -0.19348183 0.049514435 0.086374484 0.22457892 -0.05448313 -0.09466309 0.05121423 -0.06281034 -0.12108191 -0.055697974 0.115571044
106 0.007175062 0.06764194 0.12179563 0.08140133 -0.035200395 0.0028874797 0.044695225 -0.0041921255 0.099941716 0.045170005 0.1779537 -0.07528137 -0.090260565 0.081591144 0.042369485 -0.015739895 0.016716514 -0.094455086 -0.09238323 0.019720603 0.1888922 -0.04174011 0.0011072082 0.03478818 -0.096366964 0.07572099 0.119903974 -0.22822799 0.1497694 -0.1204569 0.004071408 -0.21251197 -0.07216298 0.075321965 0.045627877 -0.011822107 -0.059515353 0.057937097 0.08325917 -0.03707844 -0.028527819 0.095148884 0.065236196 0.066054165 0.062327977 -0.08752338 0.07230846 0.009879296 -0.059107665 0.07066861 0.01362594 0.119291544 -0.14401858 -0.100535095 0.027389986 0.09254929 0.25274336 0.021497058 0.040763147 0.09531906 -0.076645084 -0.15979375 0.08781084 0.029170707 -0.06058879 0.034831807 0.05364751 -0.07356214 -0.18327071 -0.15776192 -0.20217827 -0.12649246 0.0503085 -0.087311 -0.06688945 -0.12520683 -0.1153326 0.021931965 -0.07410043 0.34179136 0.10693783 -0.119129166 -0.23420973 0.1158765 -0.20690195 -0.04431684 -0.09388895 -0.093971364 -0.04208428 0.06767117 0.17298244 0.08307166 0.0658389 -0.0409713 0.08513708 0.0012293706 0.13554253 -0.16541985 0.016439676 -0.10786672 0.052059416 0.11264449 -0.065010995 -0.10707852 0.04062682 -0.052723907 -0.018562838 -0.008774558 -0.30374354 0.07106068 0.085188426 -0.02477889 -0.14350082 -0.027957838 -0.05724163 -0.0062364493 0.06025791 -0.21911435 -0.058680627 0.22283962 0.22726649 -0.15147944 0.019998472 0.007061491 0.08058233 -0.12728679 -0.06700169 -0.15676694
137 0.12789269 0.08496357 0.19983256 -0.07448349 0.2247795 0.16944471 -0.19219053 -0.04359592 0.03632989 0.2484892 -0.063979104 0.12612623 -0.24417588 0.017421307 0.046189275 -0.24372484 -0.063779935 -0.41778558 -0.11057797 0.09677676 0.15733059 0.23365942 -0.069141 -0.08516693 -0.30520344 -0.097315654 0.37100112 0.15478423 0.08140154 0.20481937 -0.0864159 -0.21909374 -0.32102767 0.034287136 0.11358548 -0.05346266 -0.04336943 0.27508277 -0.26029062 0.15828633 -0.13249117 -0.008446747 -0.14798687 0.39673415 -0.21185307 0.08133418 0.077907465 -0.6381766 -0.10652672 0.1397891 -0.13746749 0.1157092 -0.24984272 0.0036710582 0.08806503 0.010757427 -0.1300824 -0.20538741 -0.12899922 -0.01601347 0.074705765 -0.015972622 0.1807077 -0.40415153 -0.05206153 -0.12340647 0.1274229 -0.09262255 -0.023146175 -0.05857717 -0.23069319 -0.10828959 0.028559461 0.012470742 -0.067773454 -0.01122685 0.16378133 0.18606204 0.35677698 0.09489688 -0.120070234 -0.06016994 0.112309724 0.0050332407 -0.14637172 0.046378404 -0.222422 0.23475866 0.053152386 0.007899458 -0.04530863 0.3845067 -0.17597978 -0.039771874 0.037978113 0.06394056 0.051166352 0.031326555 -0.24826175 -0.03999012 -0.33316776 -0.0056489073 -0.11858532 0.107215285 0.28355613 -0.034994602 0.039598953 -0.14896363 -0.24157491 0.21308495 -0.016921474 0.22133353 -0.37079424 -0.013121673 0.007736424 -0.0814101 -0.20965582 -0.21326388 0.123903625 0.0040665595 0.19613539 -0.05691547 -0.1839746 0.28403586 0.2700738 -0.059732497 -0.26079905 -0.09142527
139 -0.0088026915 -0.15644047 0.092663 -0.04350752 0.29302794 0.1649512 -0.14060828 -0.15225054 -0.036049776 -0.037649225 0.14440924 -0.0903298 0.077595174 0.11926307 -0.24161808 0.09459155 -0.008447487 -0.018768316 -0.21005978 -0.12469934 0.302233 -0.0955313 -0.026241217 -0.21365105 -0.055016853 0.09157277 0.17145024 -0.16108908 0.13148348 -0.013369766 0.16116159 -0.077254295 -0.12951471 -0.09721844 0.235277 -0.08728823 0.0138430605 -0.28434452 -0.16497506 0.05469617 0.019512158 0.00047126206 0.06879188 0.15399982 -0.010836233 -0.1128068 -0.13697484 -0.13280496 -0.21521363 -0.01880637 -0.09402737 -0.041008636 0.056696583 -0.11228573 -0.09066905 0.0069754887 -0.18426304 -0.19723806 0.2622398 -0.12092321 -0.081824236 -0.102495044 0.09439816 -0.10375506 0.16929206 0.013485338 -0.14129694 -0.30591166 0.0022277413 -0.043143187 -0.018615117 -0.048402183 -0.20386666 -0.11188991 -0.23659112 -0.30168116 -0.07827582 -0.19852632 -0.13204624 -0.0493779 -0.17874004 -0.080274776 -0.34734666 0.14436339 -0.08689138 -0.07052356 0.11498897 0.020597821 0.09963487 -0.21820551 -0.095960766 0.10828492 -0.17262204 -0.16590846 0.02054361 0.13035205 0.053849414 -0.3028042 0.07613228 -0.21855183 -0.16270167 0.05764054 0.01470868 -0.25053838 0.05442874 -0.048458982 0.0033156676 -0.09161243 0.19091226 0.21641497 0.18414064 0.091579646 -0.26516536 -0.050954465 -0.050649144 -0.15946494 -0.11133835 -0.38409516 0.13787991 0.21414758 -0.060990967 0.08212627 -0.46491325 -0.28701544 0.3060143 -0.39011553 -0.026903601 -0.031733103
37 0.10331533 -0.056786623 -0.08893585 0.07675736 0.03816152 0.061256986 -0.068850026 -0.18369149 0.15232678 -0.13938023 0.22811562 0.10387601 0.0506446 0.18426503 0.02838537 -0.20438364 0.050175644 -0.07085332 -0.16535762 -0.062814735 0.05717516 -0.07427475 0.018102705 0.09396488 -0.057725236 0.113852456 -0.08925679 -0.081684805 -0.044494156 -0.10745794 -0.10339222 -0.21699649 -0.16585858 0.06492535 0.06377975 -0.06113931 0.065009564 0.032465506 0.044694636 0.011928711 0.03341982 -0.11449191 -0.026740355 0.097969756 0.08258206 0.03914015 -0.044564117 -0.058292713 -0.11213279 -0.036155906 0.13369855 0.07933855 -0.148903 -0.083740406 -0.20058249 -0.03176028 0.06780499 0.004007104 0.0069933287 0.101644084 0.2823329 -0.004028359 0.19460842 -0.10145843 0.08508512 -0.1018287 -0.114875555 -0.15008706 -0.083761655 -0.18790676 0.041455097 -0.25264996 -0.00437817 -0.046624906 -0.1317852 -0.07782433 -0.08766781 -0.14327425 -0.0060234778 0.24469067 0.107295275 -0.009434057 -0.022918286 0.046856157 -0.104932174 -0.00068828906 -0.03556649 -0.11703735 0.20625603 -0.027393594 0.053249046 0.113299094 -0.038129672 -0.008770924 0.07928908 0.044470415 0.16360895 -0.094946995 -0.12460335 -0.07764204 0.0075011645 0.09070933 -0.091801465 -0.10169249 0.073300995 -0.049458727 0.075410224 -0.08959309 -0.22719695 -0.03195616 0.09776601 -0.1072888 -0.004892592 0.027659649 0.079454325 -0.28330106 -0.06458787 -0.19972225 -0.074395366 0.059370734 0.21443437 -0.16395544 -0.12680641 0.09952122 -0.00069015764 -0.051359665 -0.2034624 -0.17467803
142 -0.021544976 0.08419444 0.0995573 0.117100514 0.25243932 -0.0057738204 -0.02005046 0.017698621 -0.03939809 0.20640895 0.387467 0.011158278 -0.11854202 0.069012895 -0.014174233 -0.19833188 0.16437313 -0.21633516 -0.29981542 -0.112330966 0.013300894 0.2397477 0.08120205 0.029672034 -0.07530068 0.052919105 0.16731392 0.00017837489 0.20180188 -0.07265387 0.11658249 -0.00857796 -0.15901084 -0.047265515 -0.36110494 -0.14110321 0.079684 0.0063629276 0.007787349 -0.0032225095 -0.041822884 0.042104267 0.027408108 0.33688375 -0.08888487 -0.14326224 -0.0046586697 0.05644942 -0.08851674 0.006371891 -0.09005412 0.053024672 0.17854975 0.027112216 -0.023260089 -0.04062325 -0.15921894 -0.10002103 -0.32383773 -0.068409696 -0.036245782 -0.108615994 0.09308871 -0.110718705 0.1713542 0.21946494 -0.29727542 -0.344597 -0.055518836 0.03211635 -0.09359228 -0.055379592 -0.2006636 -0.14506274 0.11328323 0.1749578 0.06359111 -0.14940618 -0.08907736 0.08067615 0.06790073 0.2834385 -0.008882684 -0.033438463 0.0046176068 -0.46980977 -0.012751467 -0.3197584 0.06958658 0.07393149 -0.13399343 0.19092052 0.1069315 -0.0077284416 0.047873415 0.0081057865 -0.076166146 0.011681179 -0.24956535 -0.17419977 -0.16955411 0.02346419 0.10100154 -0.13630933 0.16809979 0.17707647 0.012025949 -0.028709218 -0.15839092 0.23582308 0.34577575 0.098724715 -0.08364129 0.03579533 0.37333894 -0.0474697 -0.009003128 -0.119956866 -0.12583111 0.09928242 0.1457704 -0.049861755 -0.3462128 -0.09417066 0.12734748 -0.2929251 -0.013211225 0.07062913
138 -0.10722006 0.0134421745 0.1863839 0.18487126 0.13529038 -0.05225942 -0.04277444 -0.10022145 0.17940122 0.38650215 0.12704852 -0.07769933 -0.11034276 -0.11481062 0.032071512 -0.24902944 0.101534374 0.22119434 -0.2511653 0.17613234 0.046630573 -0.27742374 0.12995595 -0.08822906 -0.014050689 0.19135335 -0.04212967 -0.0340633 0.1263569 -0.16867782 0.03088405 -0.046474297 -0.2939348 -0.14825734 0.1185563 -0.13296032 0.0003673158 0.054030772 -0.07473905 -0.13722205 -0.30844608 0.0056638005 -0.35925367 0.21952367 0.2344623 -0.056223623 0.053880513 -0.17167647 0.045838155 0.0036638894 0.08426478 0.064690635 0.02910119 -0.16528566 -0.062214307 0.05090959 -0.07746419 -0.098273635 -0.13082385 -0.048921734 0.020523554 0.12094212 0.25890136 -0.009767728 0.020619666 0.10429582 -0.15574513 -0.19235572 -0.047157824 -0.1548678 0.21769997 -0.24038754 0.23606135 -0.09615308 -0.18670148 -0.17272088 0.08203066 -0.042851023 0.13195743 0.21953167 -0.011493427 0.45543927 -0.19750935 0.29958737 -0.0063304896 -0.20524766 -0.23545894 -0.17848863 0.06250529 0.09597662 -0.017938165 0.12231007 -0.1285033 0.07328572 0.09656366 0.08827779 -0.025069064 0.070752695 0.048848573 -0.25451905 -0.2213837 0.18895905 -0.14233916 0.12950283 -0.096843876 -0.17201926 -0.17416283 0.30825764 0.07279665 0.1537802 0.4179675 -0.09844573 -0.32724744 -0.18234414 0.13257878 -0.14178841 0.13383858 0.120503105 -0.09495809 0.08882777 -0.055120535 0.033627406 -0.04320398 -0.17266431 -0.14136869 -0.42643955 0.01837432 0.075518884
75 0.06711919 -0.20104149 -0.06532127 0.1206294 -0.016896505 -0.0063237576 0.079391606 0.054619413 0.033406716 0.021927824 0.08908522 0.063326545 0.004407809 0.13731387 0.048899334 -0.04956621 0.025115592 -0.15915558 -0.14939758 -0.094774835 0.20931043 -0.2244693 0.13980238 0.15757248 -0.0810715 -0.01146272 0.05920774 -0.1835809 0.17136973 -0.093522385 -0.034503594 -0.2065034 -0.2882448 -0.0057644793 0.052169036 0.010403328 0.044085253 0.057082973 0.019732736 -0.051423475 0.13337043 0.02286045 0.01903478 0.18605937 -0.074206166 -0.027951902 0.060176 -0.05735077 -0.023252485 0.077680826 0.08781235 0.0031884685 -0.21469352 -0.09225282 -0.08406281 -0.13710158 -0.03385182 -0.05806372 0.2144368 0.03413062 0.08734918 -0.04089827 0.13849159 0.1283657 0.080593795 0.0484744 -0.060284976 -0.2060226 -0.18285963 -0.039786715 -0.04594191 -0.1901041 -0.23109849 -0.10534931 -0.10430386 -0.08505599 -0.11650916 -0.18292336 0.11319152 0.20122047 0.15591432 0.05399154 0.03161474 0.099065036 -0.05181132 0.16340695 0.0038498451 -0.004863094 0.08811272 0.039288864 0.09185144 0.14773628 -0.11090251 -0.04974487 0.13326563 0.1566537 0.14446919 -0.016471641 0.01230428 -0.18571307 -0.13784288 0.12892509 0.033317357 -0.12297907 0.14495678 0.05105179 -0.10355953 -0.008003282 -0.2136821 0.049460046 0.0077010426 -0.072320566 0.07141921 0.102870665 0.0576612 -0.14583607 0.11077799 -0.1589158 -0.085195266 0.09546065 0.0964064 -0.03363979 -0.17226863 0.02798936 -0.06450755 -0.13259882 -0.075711265 0.025982402
91 -0.19078596 -0.029437581 -0.22175321 -0.023726063 0.060784485 0.04494338 -0.184511 -0.13398422 0.12475663 0.10805464 -0.04667706 -0.027182188 0.06163043 0.08732869 -0.029976502 -0.36255953 0.061369352 -0.077704884 -0.26530886 0.0030322266 -0.023265995 -0.027529057 -0.03944351 0.1391597 -0.004376774 -0.007994651 0.057427827 -0.14267874 0.00192496 -0.02542553 0.08421272 -0.12918653 0.009157387 -0.086431585 0.03952564 -0.09556245 -0.0750232 -0.0060441536 0.08216253 -0.08471832 0.07001512 0.0071252673 0.071835175 0.065027766 -0.0597697 0.06415177 -0.024945734 -0.11814677 0.05115444 0.11043993 0.18061921 0.082429655 0.0722415 0.104485475 0.19866149 -0.05270366 0.120839484 -0.052550342 0.009150439 -0.07720729 0.092255235 -0.017547209 -0.15304083 -0.169174 0.15780695 0.091022566 0.06322778 -0.09888005 0.144542 -0.035379272 -0.15345442 -0.22518004 -0.0784972 -0.0534173 -0.009975411 -0.018667707 -0.027655499 0.02245004 -0.0134616485 0.25550905 -0.33128765 0.1296964 -0.13470377 -0.10516329 0.12072933 -0.015177184 0.0095844185 0.050143342 0.12652464 0.101935536 -0.09352795 0.06846059 0.0050900253 -0.065269925 -0.038735624 0.002754166 -0.11493319 0.042581588 0.077163 0.01920464 -0.06400005 0.13496345 -0.084536634 -0.11556413 0.0059049553 -0.2949241 -0.06583237 -0.06580678 -0.17231606 0.0884607 0.00909598 -0.0707116 0.06905747 -0.054967742 0.10071448 0.015839312 0.093820214 -0.2791809 -0.085204415 -0.10646666 0.051589895 -0.12213487 -0.19084688 0.025711922 0.013674836 -0.101193994 0.003456808 0.16460967
27 0.11322035 -0.17059232 0.016386976 0.07903555 -0.03835198 0.018095735 0.054841913 -0.0733888 -0.05584442 0.06675755 0.0414329 -0.03515838 0.025472077 0.10302015 -0.1845088 -0.1223668 0.055181906 -0.093584195 -0.3346068 -0.12212671 0.23232707 -0.1085121 0.03223459 0.08160391 -0.04342965 -0.028937314 -0.0088451365 -0.12707354 0.117106855 0.13489094 -0.07580769 -0.11299096 -0.32849163 -0.036354974 0.22015515 0.04286361 0.18567704 0.07103162 0.092451975 0.100168735 0.18288447 -0.1222747 -0.036225714 0.095896676 0.08696021 -0.27703926 0.12571771 0.03953525 -0.13965695 0.095386155 -0.0015673545 0.03897801 -0.15769894 -0.042843852 -0.070923254 -0.12187633 -0.16179575 -0.029716734 0.03984506 0.047782928 0.11104037 0.04261352 0.12701693 0.0073137945 0.06106684 0.08500944 -0.051361978 -0.19849616 -0.1996489 -0.18097411 -0.03773086 -0.14484458 -0.22156711 -0.08100917 -0.007858396 -0.057772554 -0.0053625912 -0.13042687 0.016174894 0.19396742 0.06663402 0.10820755 -0.16112931 0.10232219 0.002255835 -0.012087082 0.17826785 -0.041373715 0.06427402 0.11823936 -0.036766436 0.21860564 -0.2523456 -0.13459866 0.0048247515 0.027590578 0.24136756 -0.14288454 -0.048394796 -0.1925469 -0.08248357 -0.036824048 -0.045283787 -0.21931183 0.15570496 0.12824544 -0.10707195 -0.027016837 -0.20677295 -0.06465357 -0.12759185 -0.11846262 -0.10285926 -0.0036783235 -0.09816091 -0.14553995 0.06897537 -0.16344883 -0.15411769 0.14028229 0.18465668 -0.23051912 -0.12285142 -0.008757902 -0.0486414 -0.21290888 -0.0936023 -0.12347511
32 0.0017629147 -0.336073 -0.03444479 0.07897212 -0.08389118 -0.017173687 0.10971893 0.104883105 0.041080706 0.17385218 0.24360557 0.03733572 -0.059055563 0.11197664 0.06890862 -0.036867455 0.008035328 -0.099674925 -0.24160504 0.019385422 0.14478476 -0.10997961 0.0643984 0.1961257 0.03017885 0.0075271036 0.18256617 -0.19123185 0.095748134 -0.09193379 -0.065712914 -0.13410626 -0.18729989 0.008924163 0.119629376 0.099080026 0.035423856 -0.04319533 0.008469437 -0.09731726 0.13250118 -0.0068695447 0.09807138 0.14384422 0.04478578 -0.13301176 0.12136975 -0.080133975 -0.027355747 0.041608673 0.077902034 0.01704609 -0.10432594 -0.1236989 -0.13432874 -0.055976663 -0.06999407 -0.0731544 0.23282515 0.0010689308 0.14938994 -0.10033234 0.102015615 0.026611231 0.03402546 -0.020340946 -0.12346937 -0.046094775 -0.053925715 -0.11926917 -0.053495374 -0.24563666 -0.14613612 -0.16633411 -0.026910404 -0.13899131 -0.064061426 -0.0775655 0.062260386 0.2584823 0.10556162 0.0012626831 -0.04035966 0.034132723 -0.049459904 0.16115017 -0.0077159326 -0.009804933 -0.008473121 0.055514045 0.0675718 0.16259615 -0.10867886 -0.06691508 0.15718856 0.15502378 0.12813361 -0.09110796 -0.09361437 -0.04979646 -0.09808608 0.029133355 0.064650245 -0.17796895 -0.0005015052 0.029248286 -0.044873934 -0.0027227025 -0.15384044 -0.036525495 0.12283538 0.012859859 0.04464021 0.06967661 -0.0029265317 -0.15261436 0.09864215 -0.2192283 -0.03431171 0.17256333 0.115135506 -0.14736201 -0.03648263 0.037426613 0.0029982533 -0.13552366 -0.12609588 -0.074512094
39 -0.0565664 -0.067711 0.002232248 0.0679222 -0.10431935 0.028874258 0.025927426 -0.14203471 0.10676534 -0.008716405 0.14431067 -0.05658334 0.0033712694 0.06129102 0.10108073 -0.15741953 0.00068969186 -0.009553113 -0.091130786 -0.06127485 0.09681113 -0.026664628 -0.112732716 0.09140382 0.15285453 -0.058444437 0.13149415 -0.1629395 0.048873328 -0.059278663 0.110770054 -0.19404209 -0.11973359 0.027846364 0.080237344 -0.108341195 0.026013298 0.12944889 0.02242757 -0.025723966 0.031566072 -0.054060925 0.13062236 -0.03030042 -0.09477627 -0.031183183 -0.01674935 0.029668644 -0.1579234 0.17956819 -0.0013712222 -0.0027330616 0.015376197 -0.027893847 -0.050281353 0.010804362 -0.09541938 -0.02662123 0.10800384 0.07165521 0.003912508 0.0005370104 -0.0019394608 -0.0042178812 -0.03150192 0.14158125 0.007912513 0.027644707 0.042067178 -0.18793455 -0.17215765 -0.24029465 -0.09627071 -0.15377332 -0.19085577 -0.116522126 -0.114451386 0.0083072595 0.042293716 0.28045383 -0.019284282 -0.14351276 0.0039762286 0.0655714 -0.019236902 -0.12373898 -0.01599457 -0.2076126 0.027150534 0.036758754 0.10107839 0.016512476 0.2085477 0.011989383 0.22031215 0.12753285 0.02421065 0.15305163 0.10615315 -0.11939957 0.060936265 0.079992376 0.053331997 -0.13734862 0.014518217 -0.10156033 -0.0046347296 -0.081362486 -0.17964354 -0.10823517 0.108667485 -0.07494775 -0.12769876 -0.033591237 -0.075987495 -0.041560676 0.13126773 -0.12156901 -0.10052407 0.2746197 0.122158885 -0.19943239 0.09011618 -0.06190277 0.13450648 -0.08181105 -0.14104545 -0.18589826
20 0.03783501 0.10099641 0.045863196 0.1713494 0.045168526 0.09459224 0.013886722 -0.035521045 0.13859387 -0.14607362 0.034624558 0.07130767 -0.10910532 -0.09927204 0.056736108 0.086947195 0.13408016 -0.099121734 -0.09920216 -0.16946933 0.10641072 -0.16701317 0.061004568 0.026798178 -0.05135279 0.06011252 0.034812048 -0.10795599 0.034541894 -0.12974279 0.04666315 -0.16527301 -0.12515375 0.019921502 0.027938817 -0.09346555 0.08047944 0.064816386 -0.10815598 0.014848342 0.086274244 0.039656375 0.058478188 0.2918374 -0.1219175 -0.078235015 0.037320286 0.1278297 -0.15329038 0.14698227 0.02818732 0.025410047 -0.17319518 0.03159229 0.0096700825 0.01768848 0.055718686 -0.07013252 0.13893956 0.0787279 -0.057036392 0.0037601283 0.16055569 -0.016208634 0.04489131 -0.0060310755 -0.07282988 -0.18993858 -0.017082062 -0.1244763 -0.14592959 -0.22574838 -0.13747282 0.15194933 -0.1777078 -0.26341662 -0.18789338 -0.21149689 0.04925331 0.16989286 0.059861764 0.042620856 -0.00077382376 0.06730473 -0.014969956 0.04168406 0.094290584 -0.038038086 0.21476012 0.035260763 0.07751496 0.10656555 0.11835148 0.0409178 0.0354674 0.17439367 0.018341932 -0.15064315 -0.09775424 -0.14234859 -0.11265254 0.15461512 -0.035540603 -0.08844304 0.027970864 0.05202405 -0.2712478 0.053213764 -0.5014434 0.07181692 -0.093285725 -0.15579714 -0.019443039 -0.07258539 -0.064189814 -0.16884437 -0.10772397 -0.078137904 0.044579025 -0.015785096 0.089293554 0.025933761 -0.11583936 0.047304682 -0.04304256 -0.13441241 -0.18005918 -0.14588234
141 -0.14220324 0.12652807 -0.0016828593 0.05439369 0.15071921 0.18650104 0.09066756 0.16558267 0.03387134 -0.08166523 0.11733818 -0.06599841 -0.06362929 0.064217016 0.12283223 -0.22490452 0.094814174 -0.238385 -0.15153573 0.083436094 0.11679069 0.20362246 -0.11375654 0.29041296 -0.05607735 0.086055234 0.28855255 -0.30194527 0.21502922 -0.052736845 0.15634485 0.0060759215 -0.1292218 -0.19643077 -0.055852413 -0.30772364 0.1291537 0.13571577 -0.008871093 0.031458613 -0.20341446 -0.23754638 -0.11691472 0.18218005 -0.073960714 -0.07418901 0.057855655 -0.21973272 -0.17565279 0.22169898 0.080949225 0.124087736 0.08092961 0.08056818 -0.053664237 0.094305895 0.084585294 0.091422014 0.07596297 0.048156276 -0.3893853 0.07530227 0.16558132 0.03573999 -0.047768872 0.12721096 -0.36488464 -0.24073838 -0.02444251 0.02272304 0.22373106 -0.053802717 0.17142823 -0.28258327 -0.28144547 0.24336572 0.04950791 -0.28204435 -0.1407324 0.11669002 0.28157717 0.337648 -0.17083327 0.03654481 0.051965456 0.042441428 -0.24831182 0.050781634 0.062294573 -0.031844255 -0.06907633 0.18259391 0.093288094 -0.074501194 0.14988789 0.23677073 -0.17165591 0.10099792 -0.19499342 -0.28081155 -0.0369084 -0.03308757 -0.03284306 -0.17037588 0.13848174 0.23451938 0.028447783 -0.25095844 -0.10993925 0.30808115 0.10778368 -0.029603537 0.0069763022 0.04826597 0.046774667 -0.1154509 0.15906234 -0.20629832 -0.003100132 0.008364142 -0.05422719 -0.09733117 -0.046972424 -0.03658821 0.115130834 -0.37220594 0.0370614 0.16354555
96 -0.13589323 0.025381085 0.02471444 0.009036029 0.14178106 -0.013923957 0.019348122 -0.014783609 0.01894287 0.07498399 0.027301524 0.14016205 0.113649406 -0.06431413 -0.08827562 -0.2210309 -0.064995594 -0.058255885 -0.18256252 -0.1780378 -0.065387204 0.17589796 -0.18280748 -0.1547349 -0.059930544 0.28458497 -0.011387048 -0.11451166 0.09259082 -0.089686394 0.061949067 -0.122944124 -0.001972472 0.094132826 0.06562844 -0.13635908 0.04300774 0.24384749 -0.19065116 -0.18683337 -0.046957858 -0.12948804 0.13700862 -0.14106077 -0.070590265 -0.050420936 -0.15845592 0.012866121 0.045562275 0.120755136 0.29649195 0.009556211 0.050626412 0.088555016 0.08464603 0.04306535 0.1487349 -0.016071964 -0.15905438 0.048215833 0.04036264 0.03152872 0.090239756 0.0300363 0.096102245 0.08950724 0.10529403 -0.091129474 0.084642805 -0.03078098 -0.30305272 -0.10755609 0.13357125 -0.19642751 -0.059330594 -0.03576755 0.08976478 -0.20910399 -0.07869253 0.3190482 -0.21651907 -0.06110314 -0.2945754 0.1651597 0.04683296 0.010012958 -0.19160675 -0.006815581 0.01920583 -0.105024695 -0.096334785 0.07627826 0.09887128 -0.020846402 0.06033217 0.00817452 -0.059587676 -0.17828368 -0.016488055 0.0004364376 -0.006341574 0.28666544 0.038923614 -0.11243304 -0.2464822 -0.11977298 0.09270932 -0.07551586 -0.19584446 -0.0072027403 -0.16934067 -0.07398099 -0.1023016 -0.10651168 -0.019835256 -0.058418833 -0.07469619 -0.17348216 0.017876752 -0.045606647 0.21970591 -0.16514994 -0.009929567 -0.052486848 -0.002597221 -0.10692887 -0.2173097 0.099908166
