1013 128
986 0.03149691 0.062230516 -0.020448115 0.03533231 -0.106784396 -0.17528374 -0.07980018 -0.19126657 0.04048309 0.10360278 -0.16740589 0.16029534 0.047502205 0.22785234 -0.10148936 -0.31722543 -0.16314529 -0.024251163 -0.051349897 0.16047086 -0.032084454 -0.107614726 0.017816683 -0.03536184 -0.06508456 -0.25226638 0.11544071 0.20043455 -0.07207694 0.22205713 -0.01895762 -0.15986931 0.2178184 0.13768215 -0.010642601 0.020646138 -0.014531421 -0.07311449 -0.12096139 -0.04372933 0.048925597 -0.108898 -0.096915886 0.08627519 -0.010641465 -0.0058884746 0.047260623 0.022468336 0.014807021 0.14453655 0.0715717 -0.30081517 -0.055411104 -0.010580964 -0.0621746 0.06967481 0.06485962 -0.062462106 0.23681508 0.073273 0.030163545 -0.06679621 -0.25728673 0.017997501 0.15770026 0.056115333 -0.14022289 0.23639533 0.058768842 -0.05057535 0.16674279 0.14827946 0.040215597 0.076213025 0.08742755 0.12942676 0.07357668 -0.06309854 0.2030786 -0.055199556 0.09083201 0.22868398 0.08648918 0.00028047757 0.027237209 -0.11353425 -0.061938833 0.10034257 0.082065 0.009311644 0.14424895 -0.05159983 -0.18801528 -0.032364704 -0.1490427 -0.060599342 0.008308048 -0.0011770271 -0.10772232 0.085904546 0.25331956 -0.25375208 -0.009908132 0.0019216418 0.0017195025 0.22213858 -0.12740086 0.02458119 0.030350048 -0.09176274 -0.019521289 0.021719234 0.037231013 -0.03238117 -0.052854493 -0.03141105 0.100220814 0.22193995 0.0025715537 -0.07450283 0.09538206 -0.030317614 0.021571277 0.18687561 0.027139682 -0.06888799 0.09599905 -0.13011065
988 -0.041893195 0.06104729 0.3648743 0.075232804 -0.11372186 -0.019006196 0.07105085 -0.02747482 -0.14499712 0.04907618 0.030121008 -0.24876702 0.23214279 -0.0123509085 -0.047985576 -0.20263888 -0.078381 -0.019461056 -0.038580727 0.10685226 0.08503141 -0.07414674 0.020701844 -0.12010917 -0.07474936 0.08542995 -0.1278711 0.29334685 0.07810219 0.13543676 0.056202956 0.15026365 0.18313907 -0.101291925 0.044222143 -0.117413774 -0.22224553 -0.10634981 -0.12136762 -0.021179982 -0.22651418 0.29439685 -0.006138307 0.07281152 0.07350271 0.35707247 0.049684513 -0.23940362 0.103564784 0.023086933 -0.14344975 -0.28888133 -0.10126762 0.051169362 0.055123005 0.13090345 0.13130614 0.016738797 0.020350957 0.07275783 -0.073417425 -0.038494553 -0.08170167 0.17227207 -0.0119702155 0.13208772 0.1082609 0.21780089 -0.14624366 -0.0783065 -0.12564726 -0.14955093 -0.06927896 0.058085695 -0.054494064 0.0349513 -0.05612484 0.041305333 0.06400973 -0.11706106 -0.0031074092 0.12519425 -0.111419536 -0.29930955 0.18322584 -0.10899865 -0.03290447 0.08826852 0.12913384 -0.0010030826 0.11887823 0.029826125 -0.23793212 -0.19702454 0.14607483 0.22884347 -0.2537803 -0.1642023 -0.06922492 -0.16676548 -0.00419134 -0.21049108 0.141534 0.27495703 -0.034073304 -0.044510458 0.06394714 0.073707364 -0.028089942 -0.237364 0.006512719 0.0471698 0.044826586 -0.08448574 -0.022608047 -0.16129951 0.23470972 0.09961274 0.22523683 0.1384646 0.03265104 0.037202638 0.09827007 -0.06754459 -0.03515992 -0.036400154 -0.16184853 -0.038768172
989 0.019341568 0.1224366 0.059305087 0.121903695 -0.1410053 0.01043241 0.122046016 -0.1367681 -0.18087421 0.10139885 -0.19742532 0.00902213 0.07187206 -0.0069790925 -0.4198671 -0.30878878 0.1516031 0.0781428 -0.0096707465 0.06751269 0.12439347 0.2989035 0.06659114 -0.20418991 -0.04173868 0.05666571 -0.21021448 0.0500294 0.29665786 -0.1233231 0.13448814 -0.03772481 0.1014073 0.034831777 -0.0033409488 -0.10637808 0.11594009 0.0046422468 -0.13630576 0.08857426 -0.035402283 0.09070585 0.021416109 0.11533122 -0.14079645 -0.022177389 -0.14891559 -0.12280262 0.17947413 0.08831856 0.04435079 0.15027645 -0.04183362 0.05210243 0.26157728 -0.03126688 0.070879914 -0.14002416 0.012178913 0.045713376 0.17107488 0.07685673 0.05040127 0.050687257 -0.07839288 0.07451148 -0.0020086821 -0.041238517 -0.12460736 0.051124167 -0.109124 -0.024607763 -0.35951665 -0.014572258 0.13701634 -0.055242326 0.0025163095 0.024812194 -0.13282515 -0.1537579 0.0057283924 0.268526 -0.018067146 0.12542716 0.03834532 -0.39563492 -0.23400699 -0.0087977145 0.06918773 0.1212643 0.07562592 0.21000287 -0.1694015 -0.055611387 -0.039039884 0.13454996 -0.24340716 -0.010602786 0.18809845 -0.0934876 0.14253975 -0.24641363 0.026289973 0.01706577 -0.04804937 -0.034617677 0.080816425 0.19057128 -0.11242879 -0.009999882 -0.06266784 0.044827458 0.162118 -0.18972884 -0.37903094 0.047509313 -0.21208799 0.33579785 -0.019495485 -0.11522508 0.11014183 0.10044669 -0.10077884 0.14010228 -0.008142893 -0.033683673 -0.119740374 -0.07549089
990 -0.022988074 0.22874582 -0.11525415 0.25198427 0.047074556 -0.13940315 0.03785247 0.07077091 -0.25911972 -0.13519728 0.10638035 -0.17171508 -0.2195469 0.12600403 -0.08062101 -0.123358786 -0.15519731 -0.10241156 0.026313955 0.18989114 -0.14641826 0.24302025 0.2488316 -0.18408205 0.15493536 0.0012667105 -0.003195063 -0.0090579465 0.101095445 -0.0810639 0.01901072 -0.07323491 0.111586615 0.1460778 -0.060471743 0.14494066 -0.08261138 0.022142904 -0.21021509 0.20410304 -0.02122218 -0.021770962 -0.38075277 0.20217589 -0.03134097 0.07837157 0.06288379 -0.22804496 -0.13862978 0.14607291 0.1564025 -0.23905644 -0.14126879 -0.21996173 0.3554779 0.24424362 0.3676007 -0.2437591 -0.025529062 -0.01142337 -0.13941151 0.08936315 0.046546947 -0.13125017 0.057903852 0.10415471 -0.1600739 0.031976182 0.05440035 0.13806152 -0.0875996 0.0670714 -0.030790042 0.14305605 -0.07548878 0.14428324 -0.2974894 -0.07658821 -0.2192489 0.19642644 -0.07190955 0.060726497 0.004122427 -0.13243496 0.06289411 -0.14301062 -0.052899767 -0.032877754 -0.0026011725 0.118429415 0.18842192 0.24934351 0.028504461 -0.07637424 0.09228972 0.17554761 -0.27223352 0.05160809 0.052059606 -0.05189417 -0.013714762 -0.32158074 0.017194228 0.10053565 -0.05063008 -0.14693664 0.055614144 -0.055502456 -0.06192607 -0.082259566 0.25523585 -0.047902077 0.048385866 -0.059309144 0.103349425 -0.0064373384 -0.18541788 0.27048266 0.16510916 0.06771433 0.12559915 0.079393916 0.08889433 -0.14344709 -0.13195053 0.29087666 0.16353723 -0.072858326
987 0.22605984 0.06988388 -0.07228027 0.30031294 -0.21114385 -0.19346747 -0.16168773 0.059782974 -0.1992657 0.032211516 -0.023386545 0.18582678 -0.076663576 -0.10861177 0.20315395 0.00042735515 -0.16669445 -0.05457623 -0.20376201 0.043895546 0.030355193 0.10948556 0.14583226 -0.17746495 -0.047860935 -0.030803997 -0.232232 -0.18934573 -0.06347905 -0.14926508 -0.0004029455 0.003134857 0.18376033 -0.2874754 0.13446419 -0.029222662 0.2604791 -0.24828918 0.16431609 0.09404642 0.041003887 -0.24378927 0.14935319 0.23021175 0.042208478 0.24992706 -0.030327823 -0.016754517 -0.23450002 -0.048289437 0.010154022 -0.11394732 -0.14454894 -0.25015825 0.06871549 0.010510559 0.15763053 0.23975813 0.40317953 0.13499515 -0.057712708 0.11149251 0.054801222 -0.14647922 0.25724527 0.038332593 0.26731908 0.06382097 -0.13548873 -0.03848886 0.04913622 -0.037074227 -0.18872768 0.13757116 -0.10015118 0.15948933 0.24343958 -0.015899727 0.24794357 -0.27078676 0.13924474 -0.25308833 0.00684851 -0.17098369 0.046051275 -0.31232235 -0.04308792 0.09889291 0.0033099588 0.084345296 0.18104789 0.08354485 -0.046358317 -0.09798639 -0.09091929 -0.054183573 0.1326589 -0.10421838 -0.11555712 0.08996105 -0.0084909145 -0.28159496 -0.27369675 0.2688351 -0.018615449 -0.032947436 0.08730114 0.068846405 -0.24480036 0.010963292 0.05736095 -0.21808274 -0.07826172 -0.17455135 -0.07215371 0.21294676 0.05343231 0.19363323 -0.005234575 -0.23317231 -0.004566011 0.047563344 0.114432864 0.0829345 0.1505092 0.13914163 -0.10704741 0.04194623
997 -0.069538385 0.18836664 0.10452861 -0.16527918 -0.13281251 -0.1255734 -0.2092192 -0.2761505 -0.06914571 -0.062584355 -0.055571776 0.18175888 -0.1858935 0.34278053 0.08666866 -0.16759032 0.0037195727 -0.0074545923 -0.2550843 -0.205909 -0.1267566 0.18805385 0.03395256 0.044829804 -0.66393054 0.2440765 0.031299457 0.12113959 0.19992708 0.046825707 -0.2517992 -0.00870642 0.15988426 -0.038189825 0.16258852 -0.02719354 -0.11300682 -0.06709787 0.19368127 -0.031837877 0.020480355 -0.1582916 -0.107496485 -0.07106464 -0.06441277 0.092260264 -0.029502489 0.11051684 -0.2801293 -0.0005814634 -0.07442797 -0.078526735 -0.20076692 -0.12211352 0.058904417 0.101609245 -0.12576103 -0.2869639 -0.040553115 0.25845432 -0.23319103 0.25595012 -0.20881107 -0.1853966 0.012624106 0.05930971 -0.13241123 -0.25354797 -0.0008531893 0.024366792 -0.2445257 0.35568738 -0.09450904 -0.11200988 -0.16631053 -0.34288713 -0.13581857 -0.24418975 0.0059078434 -0.147797 -0.029974226 0.27549297 0.16708347 0.04247387 -0.06959362 -0.050208103 -0.09817243 0.21293437 0.30560577 -0.031195598 0.20871201 -0.06421744 -0.13787912 0.15210745 -0.114074975 -0.059839275 -0.06720856 -0.22450376 -0.008458489 0.16556865 -0.13473639 -0.17392313 0.01912813 0.208836 -0.14793816 0.06944037 0.033325296 -0.123851575 0.16379659 -0.20811518 -0.2636542 0.15097815 -0.14553596 -0.08782714 0.15755086 0.08964323 0.105430536 0.056864496 0.13915217 -0.21619038 0.28932786 -0.20671448 0.0496602 -0.35676697 0.3356684 -0.034185655 0.014356865 -0.077344
995 0.028059643 0.41179034 0.029080804 0.1840701 -0.043041974 0.05855698 0.17181812 -0.18700889 0.040030688 -0.20067576 -0.16134128 0.046961267 0.0034929072 0.09742619 0.11069432 -0.2777932 0.3164087 -0.40077683 -0.11166095 0.15555096 -0.08886746 0.24389535 -0.014749095 0.161479 -0.23759979 -0.1951492 -0.38542014 0.11653594 -0.063108504 0.19383112 0.24357872 0.1641502 0.24960823 -0.017165858 0.21834086 -0.0029092617 -0.031936754 -0.01232591 0.036351625 -0.028951393 -0.19095923 -0.10642495 0.071803585 0.25621793 -0.07143614 0.23132315 0.11654712 -0.09174144 0.054671273 0.116198264 -0.06702525 -0.21997078 -0.10473796 -0.070177875 -0.157932 -0.02230086 0.30809036 -0.06161301 0.13213232 -0.035520285 0.07104388 -0.30571896 -0.088963285 0.15334818 -0.0725566 -0.07322217 -0.24636723 0.07827534 0.08674329 -0.026603825 0.21281949 0.065868124 -0.30098712 -0.009057319 0.1814496 -0.15673801 0.015349619 0.3483218 -0.14598651 0.031309143 -0.03536883 0.14069036 -0.06159546 -0.046479993 0.116705894 -0.08131434 0.19026154 0.10918284 0.031349014 0.20356892 -0.04372246 0.089746244 -0.04811317 -0.14680478 0.06747025 0.21705809 0.037753828 0.22383943 -0.028893987 0.124252334 -0.21887334 0.034853797 0.09123268 0.10564346 -0.03277768 0.014869306 -0.14086036 -0.3178776 -0.13452302 -0.13324437 -0.021958824 0.105679095 -0.0042596594 -0.035228025 0.014942361 -0.085715756 -0.12334572 0.3742043 0.26335585 -0.17456663 0.36605904 0.10378082 0.17880155 0.3014964 0.054195806 0.44492814 -0.10716437 -0.19945242
1004 0.34306517 0.12639686 -0.0676352 -0.006098998 0.08069263 -0.12144804 -0.11738194 0.10612945 -0.18917091 -0.21699017 0.08201304 -0.10668784 -0.18579814 -0.12210104 0.104864456 -0.09663896 -0.38806546 -0.08981824 -0.096750915 0.24683815 -0.04315987 0.05139046 -0.09629348 0.120377 0.1388157 0.19416997 -0.11323616 0.2866792 0.10784149 -0.15092884 0.0723769 0.24718344 0.26785326 -0.19538088 0.078362025 -0.12472361 0.041970063 0.16456544 0.2770399 0.23002335 0.042107757 0.10447875 0.16901077 0.047691453 0.050598565 -0.16582972 0.09995342 0.19514772 0.20320375 0.4313339 0.38237315 0.18548292 -0.09021651 0.099628314 0.09485861 0.21783997 0.107339196 0.1378114 0.2644805 0.28985205 -0.20271961 -0.11500553 -0.19993682 -0.030950852 0.15038769 0.04562356 -0.31003407 0.09889433 0.03852283 0.21317685 0.18799874 0.056172587 -0.10496763 0.0909304 0.17340207 -0.023531765 0.13663201 0.16986461 0.23129433 -0.3603135 -0.040700722 0.17737897 -0.10403967 -0.028615203 0.0693603 -0.18211094 -0.100303665 0.059318844 -0.08773251 0.27968383 0.1185555 -0.033180967 -0.17482722 0.07184562 0.08812379 -0.021973373 -0.077564575 -0.10265933 -0.10244094 0.14167239 -0.08223168 -0.08236803 0.13236085 -0.018000573 -0.10993508 -0.44432682 0.15471849 -0.1693774 0.16037458 -0.21372268 0.16414933 -0.024642572 0.22400717 0.011965167 -0.22632164 -0.3037383 0.056141227 0.061619874 -0.25789136 -0.337102 0.1524421 -0.01764333 0.038715854 -0.17389594 0.12316888 0.03208031 0.18686962 -0.027693573
1002 0.17619196 -0.07163655 -0.23081115 0.20081346 0.13117953 -0.12578142 -0.07634401 -0.25988945 0.0056161657 0.20810345 -0.14099082 0.04026804 -0.33332723 0.13023975 0.16309312 -0.26150993 0.051488906 -0.08406653 -0.2302645 0.22443286 0.027295103 0.027556382 0.079971544 0.104532726 -0.20125882 -0.18850546 -0.19323 0.16379763 0.13533027 0.27460515 0.23717946 0.11480144 -0.097060345 -0.24839619 0.08701458 -0.057396952 0.20067689 -0.23630051 -0.0499458 0.07425158 0.12619418 0.08880306 0.04701572 -0.077458926 0.11871883 0.10490964 0.030602515 -0.033586863 0.08449768 0.2888768 0.14977911 -0.074183546 -0.019212319 0.2518996 0.10545191 -0.0969615 0.06014601 0.015700277 0.098489545 -0.011522481 0.11114856 -0.16086984 -0.11927049 -0.22773199 0.22896512 0.054422006 -0.23421305 -0.091567814 -0.3053704 -0.12219979 0.06915211 0.12370071 0.032367542 -0.09124454 -0.06637809 -0.169823 -0.1997582 0.11824122 -0.022233007 -0.08256794 -0.37198314 0.3030812 -0.26894212 -0.22800279 -0.064758934 -0.14755782 0.036124848 -0.27510884 0.240632 -0.14775848 0.29003015 -0.007532305 -0.25483134 0.18468308 0.20580882 -0.08451901 0.0018736207 -0.29140067 0.2230176 -0.30660814 0.020884624 -0.2043056 0.06783501 0.036520515 0.2180307 0.1532562 -0.23071787 0.14793164 0.20309873 -0.017260592 -0.0009864168 0.12312635 0.18093704 -0.19159734 0.18532127 0.1817101 -0.12751587 -0.0031069617 -0.17795467 0.12580632 -0.31713 -0.4880936 0.32493708 0.10028856 0.29244855 0.27741423 -0.2292572 0.1024874
998 0.15883164 -0.095670186 -0.073311776 -0.060284052 0.27129075 -0.5515775 -0.1640113 -0.13947077 0.049851272 -0.006395461 -0.43340603 -0.5786503 -0.011529243 -0.15423436 0.123781785 -0.13431822 0.10980168 0.26282975 -0.08717849 0.047239296 -0.16072 0.20531702 0.00275199 -0.018143931 -0.13415965 -0.29610038 -0.042922154 0.21921076 0.05192784 0.15671715 -0.2585591 0.1654438 0.17805253 -0.21635832 0.1279766 0.3472177 -0.067512475 -0.047850862 0.21298929 0.09008265 -0.007478433 0.1497177 -0.15586904 0.086370066 -0.21561204 -0.14449844 -0.06512587 0.03974636 -0.11611708 0.077794656 -0.08189626 -0.09971065 -0.17220671 -0.02674489 -0.29668546 -0.02273228 -0.060775157 0.26714045 0.15399085 -0.10332527 0.101501375 0.3167435 -0.23907651 0.12001753 -0.13340817 0.13737324 0.016059669 -0.07866174 0.11576511 -0.02484698 -0.25787157 -0.1275595 0.059804644 0.15744075 0.031947136 0.10438676 0.10506349 -0.07239169 -0.18129379 0.33221772 0.20627795 -0.1861989 -0.003122795 0.061841853 0.12147737 -0.4037405 0.10041806 0.05015546 0.11029962 0.3492373 -0.059899576 -0.21761127 -0.33156225 -0.15602131 -0.0864609 0.078278005 0.026415491 -0.2956902 -0.14693497 0.24085309 0.0022215797 -0.26903218 -0.11196274 0.11015027 0.015005234 -0.12328649 -0.19961925 0.19741173 0.13055256 -0.07243892 -0.034546163 0.07210593 0.47931623 -0.07138073 0.017967341 -0.010279377 -0.23705141 0.16630898 0.015554622 0.21779455 0.2998244 0.31160414 0.1473018 -0.15075134 0.23930608 0.19230929 -0.15320988 0.068414755
996 0.246707 -0.033019926 -0.118263796 0.17967957 -0.12254213 -0.1295057 -0.22988689 0.18841445 -0.18676941 -0.27259076 -0.14148845 -0.12747352 0.28241095 0.42985055 -0.17305253 0.14389354 0.053473186 -0.019690624 -0.08544967 -0.05186766 0.06714032 0.024843644 0.35685351 -0.05996304 -0.44060683 0.14392968 -0.08532894 0.098762386 0.04197423 -0.027437689 -0.15943809 0.36595574 0.12527964 0.075082235 -0.0350506 0.13921244 0.024740234 -0.10454655 0.1786696 -0.30387458 0.066376336 -0.09115763 -0.0077701863 0.5122996 -0.18906727 0.074994095 -0.08443967 0.020371787 0.089859635 0.13124976 0.20062299 -0.44192523 0.3165829 0.023459712 -0.037220325 0.16058128 0.009211669 0.18148708 -0.027267884 0.33028847 0.028391412 0.38976336 -0.28737855 -0.05961155 0.22493377 0.019938052 -0.11347733 -0.18028587 -0.043300968 0.07834274 -0.123724476 0.29150224 0.05379791 0.11788705 0.07696527 -0.46130097 -0.1205475 0.27347475 -0.05451185 0.098087616 -0.038325988 -0.0591906 -0.018910736 0.15015797 0.20652556 -0.1957727 -0.19003285 -0.35448265 0.21684372 -0.025497362 0.041058928 -0.25019836 -0.18425614 -0.32841194 0.0014962599 0.033154644 -0.1040731 0.091538794 -0.12742697 -0.0506774 0.15209052 -0.14949243 0.10020607 -0.091399856 -0.4141431 0.22306752 0.13631347 0.16926013 0.14814776 0.197436 0.114832364 0.03675887 -0.051290188 -0.26181462 0.18596809 -0.0024171604 0.17724694 -0.07295606 -0.083923824 -0.12458781 0.0038892578 -0.120842 0.20476215 0.35016438 -0.107031375 0.07190689 0.30152327 0.17950287
992 -0.028781367 0.44400528 -0.1405558 -0.10294416 0.0107322745 -0.40155452 0.2024864 -0.25990036 0.07382504 -0.1728626 -0.3627393 0.18240646 0.086394385 -0.06376904 0.07040598 -0.3363548 0.025875594 -0.1673421 0.024024514 0.17807408 0.085946314 0.23575304 0.1253207 0.2669144 0.013487932 0.12828152 -0.4648031 0.0116494885 -0.079734124 0.2755882 0.14787044 0.24912304 0.29197395 0.0530716 0.06558973 0.16289535 -0.2986557 0.20952474 0.22911416 0.15484993 -0.2518047 0.05467579 0.2955881 0.06876465 -0.02777309 0.11591142 0.11109304 -0.12780352 0.0066924463 -0.20790094 0.39832178 -0.22832392 -0.19910246 -0.023315687 0.15059638 0.32681572 0.22112103 0.052992195 0.037832938 -0.11601614 0.04701394 0.20379165 0.099450134 0.08350817 0.0917443 -0.055624027 -0.09657766 0.2686697 0.053319104 0.011525788 0.063056946 0.08779917 -0.29569322 0.25100923 0.18047996 -0.091518074 -0.14678349 0.031520978 0.121913925 0.07601547 0.03352163 0.1902287 -0.10471181 -0.03503278 -0.019959137 -0.30162847 0.186681 -0.10269328 0.044126857 0.20300785 -0.09269299 0.08607462 -0.031013163 0.117640495 -0.1117065 0.3709393 -0.026389524 -0.25277853 0.40967673 -0.007942038 0.09189528 -0.16430831 -0.118372805 0.22135727 -0.20837098 0.11823469 -0.00080142735 -0.2789577 -0.0267564 -0.052075256 -0.010344546 -0.12407649 0.008126977 0.13064781 0.054449197 0.33073607 0.18248366 0.09031271 0.15606278 -0.028971788 -0.11614544 -0.113352224 0.08560918 0.175631 0.049937792 0.09310335 -0.11865637 -0.06746656
991 0.064851195 0.33621603 -0.08953415 0.04392807 0.12157342 -0.26283473 0.037527643 -0.35433742 0.11475776 -0.15620172 -0.10110916 -0.015794214 0.13755165 -0.09228134 0.04380997 -0.32121477 0.23234504 -0.3695842 -0.0919195 0.35647488 0.17594296 0.36227834 -0.063674025 0.15182845 -0.24084498 0.007772754 -0.39903715 0.045845788 -0.13646811 0.042108476 0.19673976 0.2210658 0.18933731 -0.02040513 0.26954827 -0.049887132 -0.07330523 0.113534026 0.15737903 -0.101089016 -0.15199201 0.060354445 -0.11770774 0.17305674 0.00503333 0.12302554 0.05043867 -0.10946419 0.19894554 -0.15719761 0.30371964 -0.29623678 -0.4042402 0.0052446485 0.25276798 0.35006985 0.15628403 0.14253652 0.24762008 -0.1426342 -0.18136458 0.14139655 -0.13644885 0.06259767 0.27976504 0.21364954 -0.115780994 0.19361794 0.08949954 0.16921934 -0.039587762 -0.09638305 -0.014451036 0.037967674 0.17462821 0.09673108 -0.036097158 0.1511072 -0.045772843 -0.24922252 -0.03309148 0.11707406 0.049265284 -0.17075549 -0.1543159 -0.12395982 0.14158936 -0.10451155 -0.0762815 0.23446943 0.18448532 0.06761544 0.19967662 0.0684553 0.016511332 0.4805061 -0.069521986 -0.20338887 0.11546778 0.12525447 -0.057036355 -0.13443926 -0.004277866 -0.14192562 -0.23855595 0.20594046 -0.055791847 -0.3215817 0.14017293 0.117847145 -0.02656805 -0.06860445 -0.0070656026 0.017573146 0.08711528 0.2821647 0.067169085 0.13816404 0.32529885 0.10016772 0.030024625 -0.15287584 -0.36306015 0.35357106 0.20415199 -0.13556841 -0.19403395 0.04290092
993 -0.021719877 0.06876133 -0.13354276 -0.0076424023 0.087121196 -0.29982576 0.31519118 -0.18122597 -0.0310409 -0.3743859 -0.068445034 0.21269652 -0.13583821 0.06557518 -0.031627633 -0.18493599 -0.121272676 -0.5665642 0.0036890185 0.12518202 0.16477704 0.2965876 -0.024370061 0.1713042 -0.102237515 -0.11086659 -0.25459528 0.12810247 -0.052408315 0.114681825 0.08994429 0.25395638 0.21797223 0.11144232 0.27977213 0.16684614 0.118950225 0.016147327 0.05181061 0.112140834 -0.30157813 0.19967458 0.12759703 0.22457334 0.066179775 0.24553025 0.11891858 0.0051035467 -0.07339233 -0.093968585 0.42560914 -0.333459 -0.2308573 -0.032118816 -0.10479309 -0.043524686 0.19200839 0.21017052 0.024825701 -0.28711152 -0.05399861 0.27538157 -0.110681854 0.06958417 -0.049155854 0.05563791 0.03615197 0.26251823 -0.21084024 -0.009877465 0.1218221 -0.014021754 -0.056262277 0.08512041 0.2355637 -0.160493 -0.1283389 0.20410107 0.0046402737 -0.11764345 -0.12136111 0.32048476 -0.27529815 -0.08547137 -0.1551408 -0.23284528 0.14735655 -0.07296753 0.040843576 0.16418469 -0.24649465 0.1502454 -0.101855546 0.18072914 -0.06835496 0.36107802 -0.32106718 0.0053970236 -0.016133036 0.017192258 0.12875085 -0.46763074 0.072101526 0.16142182 -0.09122525 0.09402729 0.20076293 -0.22766554 -0.023106396 0.1530268 0.03983328 -0.0059908917 -0.03249798 -0.12993239 -0.004167909 0.111430176 -0.070560485 -0.11634317 0.32087716 -0.038172297 0.19459091 0.0496188 -0.15199624 -0.026775898 0.38845944 0.045184698 -0.15453553 -0.28593448
994 0.2896097 0.07407635 -0.16358972 0.10182707 0.11180711 -0.26298133 0.29661366 -0.13310513 0.26075965 0.18969592 -0.059645586 0.054722637 0.14466767 0.16015176 0.07559141 -0.2702498 -0.14409663 -0.28848973 0.23295537 0.058481447 0.193503 -0.04224944 -0.2767645 -0.018454965 0.06192471 0.09469408 -0.1537187 -0.23281994 0.06388444 -0.030158816 -0.062146932 -0.19628562 0.3129743 0.0045684655 0.13463949 0.23995548 -0.029359657 -0.18475182 0.046400223 0.4466425 0.2238389 -0.13558154 0.009137478 0.14944541 0.19856924 -0.18351772 -0.10351722 -0.20401663 0.15960024 0.028706059 -0.056592442 -0.31492805 -0.15093896 0.08112396 -0.22266756 0.5560863 0.16765298 -0.026710734 -0.09880093 -0.009776916 -0.2866805 0.42973354 -0.1778562 0.07789197 0.35945237 -0.029388372 -0.055901024 -0.1736219 -0.20563515 -0.1052452 -0.16471864 0.18730453 -0.38508862 0.23212597 -0.02055015 -0.20500447 0.22703676 0.25518417 -0.29174712 -0.16866808 -0.27740863 0.09467283 0.16776896 -0.27418143 0.0033470425 0.10787938 -0.24895912 0.07844404 0.04493081 -0.11151416 -0.21006618 0.031607028 -0.30054623 -0.27633652 0.41304174 0.08499691 -0.144552 -0.021425148 0.15789114 -0.065846324 0.13745105 -0.09140183 0.21848793 0.052975524 0.040373094 -0.19485934 -0.15915796 -0.08809567 -0.0006758522 -0.27155048 0.18525293 -0.1521568 -0.07929537 0.35418364 -0.08159106 0.30091247 0.014033896 0.09881305 -0.04950843 -0.16324493 -0.0056979 -0.14862396 -0.0994998 -0.10773444 0.33254135 0.11105866 -0.23440236 -0.18138248
1003 -0.13140675 -0.047090232 0.11915264 0.0398724 -0.39354602 -0.22469503 -0.16417946 -0.31295383 -0.3258437 -0.22335713 -0.096952714 0.26615494 0.04422067 -0.08956217 0.11472278 -0.04744492 -0.01286664 -0.36789823 0.09871609 -0.023525419 0.12741962 0.02602863 0.13802649 -0.11496348 0.086491376 -0.021934202 -0.0118023995 0.019909907 -0.04116986 -0.024789108 -0.2771148 -0.009572629 0.3669945 -0.13535808 0.33190385 0.18469603 -0.0064599593 -0.0436194 0.12824464 0.21152422 0.24889016 -0.14534841 0.014512951 0.04508828 0.11423145 0.15588446 0.05796961 0.046009187 0.0078031775 0.3592521 0.27598715 0.117501624 0.13047045 -0.326253 0.13977295 0.14531466 0.32665712 0.22282718 0.077837266 -0.17027774 0.24471317 0.23988572 -0.40461603 0.26292098 0.151114 0.022209352 -0.41328904 -0.1297081 -0.0063085495 0.31933066 -0.22142193 -0.38640076 -0.007067404 -0.13378118 0.03520429 0.21991965 0.43847364 0.17119847 -0.1716255 -0.19345668 -0.4148057 0.022781117 -0.2983968 -0.0622838 0.33787662 -0.12913354 0.13201214 -0.06537609 0.17493115 0.21927527 0.25989518 -0.17299199 -0.015975779 0.14784183 0.045008592 0.066902764 -0.038195476 -0.057008058 0.22777829 -0.08391597 0.14828391 0.040690813 0.23437299 -0.0075474316 0.063602515 0.20548342 0.13248405 -0.009873226 0.09309121 -0.024648167 -0.13092138 -0.14593785 -0.22947855 0.37829924 0.16955575 0.2023319 -0.061546605 0.28938168 -0.17199823 -0.03615986 0.09495981 0.1051409 0.4153908 -0.18136954 -0.0027939444 0.088469125 -0.22227073 -0.16703486
999 -0.096700385 -0.092847995 0.083935075 0.07392462 0.17144972 0.07836023 0.012851497 -0.18542 0.0660237 -0.15432402 -0.21631037 0.589633 -0.09772057 -0.43221062 0.21174455 -0.44466177 -0.018469706 -0.110637255 -0.07636203 0.30511257 -0.22757429 0.16330326 -0.028714014 0.078201026 0.0562139 0.2740355 0.048579365 -0.1364172 -0.066450976 -0.100913204 0.2995669 -0.13221297 0.26558825 -0.046275157 0.17459744 0.1994404 0.114303336 -0.18055806 0.1458966 -0.054549865 -0.18227574 0.3764212 -0.072591744 0.43532497 0.076968074 -0.12850334 -0.10781267 -0.42479682 -0.1903843 0.28928503 0.14031594 -0.13985975 -0.058361605 0.22421344 -0.18991797 0.40002885 -0.15337342 -0.1639988 0.052075423 0.17786728 -0.1937232 0.043860488 -0.09715333 -0.12999816 -0.025081348 -0.09759994 -0.26098436 0.18905836 0.04516935 -0.19843498 0.14470388 -0.13975291 -0.34171596 0.15586235 -0.19178677 0.036140285 -0.3625133 -0.13999385 0.02798676 -0.11006956 0.04799324 -0.05523286 -0.056747474 0.27835992 0.4643531 0.015632356 0.08000343 -0.009952817 0.06293205 -0.03200637 0.20443702 -0.020227727 -0.13957523 -0.14887282 -0.08277877 0.86748636 -0.013869739 -0.25392625 0.21903913 0.012576754 0.03807576 -0.26636496 0.07030281 0.14206438 -0.09701549 -0.1371053 -0.01438187 -0.03367583 0.2663788 0.40995407 0.033928674 -0.14217018 -0.18788509 0.001100856 0.23665333 0.3709644 -0.028391805 0.06394665 -0.45972928 -0.022563199 0.53755516 -0.048289035 0.1725588 0.1966798 0.12651637 -0.18308233 -0.16520932 -0.09463881
1000 -0.09466813 0.13678166 -0.1391239 0.10549526 -0.20625794 0.14377698 -0.20588931 -0.28367636 -0.08565013 0.04219942 -0.30957893 0.30097368 -0.36992726 -0.33253458 0.20802857 -0.12975965 -0.056970775 0.027050871 0.22317728 0.27167135 0.07570965 0.69715595 0.10590385 0.16602026 0.08089674 0.12134505 -0.101217 0.27527007 -0.32778603 -0.29509884 0.14378475 -0.114730924 0.3391497 0.0060215634 -0.073136434 0.39552018 0.052723184 -0.04939462 0.07772941 0.1669957 -0.21170071 0.20113237 0.15979892 0.24513479 -0.0031253875 -0.08418243 -0.20032318 -0.22408538 -0.1639253 0.093663104 -0.0124863265 -0.2312269 -0.029418565 0.34769747 -0.35731018 0.2107085 0.14935748 -0.10107178 0.034724817 0.08708764 -0.26345566 0.2148112 -0.15396947 -0.020330088 0.20959395 -0.009089063 -0.07696896 -0.061306003 -0.21625495 0.0834757 -0.11369325 -0.048351187 -0.2628431 0.3531823 0.03909685 -0.2526581 -0.20884389 -0.15827496 -0.042316608 -0.14010482 0.49358138 0.33304316 -0.10705662 -0.17332718 0.3494822 0.28537667 0.21928573 0.2949849 0.10451384 -0.19329357 0.1353378 0.05133796 0.18265218 -0.09602905 0.04580043 0.80163246 0.029614033 -0.099415086 0.10996862 -0.15276074 0.019171203 -0.060624205 0.20008318 0.18766457 0.19209588 -0.18676676 -0.025407635 -0.00763933 0.18312953 0.15021794 -0.11477679 -0.07688748 0.101633325 -0.0127435485 0.26150405 0.04204107 0.036562417 0.18179117 -0.52123237 0.01767277 0.26023856 -0.0171272 -0.031603232 0.21765067 0.1603892 -0.16450949 -0.17658702 0.09279656
1001 0.020560613 -0.3398831 -0.19253139 0.22554167 -0.21516217 0.68174636 0.07596043 -0.59840935 -0.26866066 -0.035675824 -0.2924463 -0.094899796 0.38175467 0.20224543 0.14192396 -0.15842065 0.22286032 -0.35850844 -0.08960372 0.26583058 0.1564815 0.26689398 -0.1511894 -0.18951082 -0.32768813 -0.07142661 -0.036076047 -0.036707863 -0.09505504 0.20925574 0.14011031 0.07865425 -0.026907476 0.102246456 -0.39621958 0.49727607 -0.33427706 -0.008210342 0.23211531 0.24884911 0.11636069 -0.061975338 -0.16547759 0.08053049 0.01421643 0.055476718 0.09183797 0.020616945 0.027028369 0.086933956 0.31787863 0.075542994 -0.030089032 0.059421357 0.14717315 -0.08668159 0.09638702 0.2907009 -0.14463171 0.06431629 -0.09812988 0.040541656 0.10214911 -0.19373316 0.2949989 0.34920403 -0.6106497 0.12202623 0.016010648 -0.16808362 0.11119748 -0.22964858 -0.05985665 -0.16147856 0.047588784 -0.11091955 -0.21680659 -0.028999472 0.23755601 -0.005267444 0.2467821 0.29572394 0.056669757 -0.00895374 -0.0054401075 0.087864645 -0.40570852 0.32201013 -0.008849123 -0.098298945 -0.07843583 0.3293423 0.10982902 -0.18904725 -0.29980588 0.22030874 -0.37167886 -0.016261011 0.052894685 0.20772845 0.1798096 -0.59412867 0.12542424 0.22268508 -0.16455375 -0.447078 0.023971537 0.093339756 0.03775239 0.25926036 0.08952135 -0.054340728 0.17201808 0.17150375 -0.049882874 0.15636382 0.5682293 0.013131281 -0.23534624 -0.09961066 -0.046582747 0.20016286 0.36873922 0.029256804 0.24924342 0.36305398 -0.5670322 0.4375632
789 0.24017958 0.15058485 -0.09037037 0.2018774 -0.00825368 -0.21530357 0.0066850395 -0.28808814 -0.17910014 0.0033672468 -0.09615741 0.20425716 0.0864164 0.15255032 -0.096821636 -0.17772947 0.2189859 0.24129425 0.16483763 0.106221594 -0.13830104 0.024019701 0.3074226 -0.08259725 -0.1401972 0.12779573 0.06685698 0.028387023 0.11287403 -0.11479407 -0.010281978 0.039538622 0.029420791 0.11903283 0.39294285 0.124674805 0.19182423 -0.05596092 0.15071933 0.14616579 -0.14613973 -0.092675574 0.18776688 0.19384658 -0.15601167 0.10459854 -0.020885015 -0.16471736 0.051464777 0.103297934 0.17061746 -0.21141583 0.14301455 0.094594724 -0.121193424 0.22507545 0.074366696 -0.11563898 0.0014776943 -0.042280514 -0.114466235 0.11496296 0.075316265 0.020130247 0.23373207 0.12609182 -0.24535191 -0.046374448 0.10229562 -0.026583098 0.08505985 0.13934886 -0.10631397 0.073575184 0.29985633 -0.015919454 -0.21429309 -0.04841632 0.10903265 -0.14940923 0.06650629 -0.07058342 -0.29002836 -0.2593855 0.17020756 -0.22286636 0.07753956 0.30773067 0.068389446 0.27369785 -0.1187085 -0.23731701 0.050684713 -0.03070208 0.08616353 0.41320208 0.3998598 -0.15258433 -0.26510918 0.010927069 -0.17440857 0.12833183 -0.12482357 -0.11622978 0.031056209 -0.05265058 0.13294546 0.19778368 0.18635292 0.1736952 0.06615678 -0.08932391 0.04592085 -0.026070498 -0.15016802 0.18473068 0.21686122 0.3777595 0.18071367 0.20388263 0.050030876 -0.28193662 0.22025058 -0.35554278 0.3769907 -0.019001879 -0.14527766 0.008613875
704 0.2696678 0.043802638 0.06313959 0.18159516 0.001136344 0.058325015 -0.014945655 -0.19789428 -0.15888754 -0.054287355 -0.05867974 0.0577199 -0.04941691 0.12773511 0.14925136 -0.10339934 -0.026585137 -0.042342935 -0.10291738 0.28467074 -0.008976507 0.12876503 -0.03300587 0.07177298 0.10445842 0.14422859 -0.01312632 0.154443 -0.14101493 0.064061776 0.06972598 -0.0058862953 0.21020554 0.034331024 -0.005718334 0.12829682 0.15517735 0.09686532 0.044860795 0.026107717 -0.13397238 0.038668603 0.034795824 0.07019388 -0.070133686 -0.11483649 0.024415923 -0.09028542 -0.06699308 -0.06819089 0.21224014 -0.2349473 -0.010107749 0.08268789 -0.0035317945 0.10440814 0.08479799 -0.02587425 -0.06621894 0.04824801 -0.0527884 0.13001923 -0.1479566 -0.055835254 0.11068602 -0.013694645 -0.08530305 0.100543775 0.08565788 -0.006056034 -0.048597243 -0.12722264 -0.19588228 0.12148413 0.065406136 -0.14854184 -0.07471642 0.043902993 -0.10160047 -0.18569776 -0.024901671 0.20476422 -0.11597208 -0.074764654 0.00628944 -0.07741904 -0.05612035 -0.102927156 -0.139667 0.04611466 -0.028914973 -0.09138608 0.00658887 -0.058874805 -0.17125082 0.01736961 -0.13499303 -0.011479663 0.018121887 -0.057818294 0.014574689 -0.12181868 0.08879883 0.28580782 -0.13734125 0.021202903 -0.1187488 0.08086108 -0.00013541146 0.07910943 0.04696414 0.017373627 0.004201858 -0.15827507 0.059483882 0.19910744 0.05097053 0.15244253 -0.049562994 0.01955867 0.12981997 -0.07781777 0.110039786 0.033580616 0.11985743 0.114633836 -0.3315822 -0.01507254
129 0.104808286 0.16138826 0.132654 0.13765086 -0.10969791 0.06250014 -0.02516801 -0.1828364 -0.119630024 -0.07276625 -0.015499398 -0.00014605686 -0.005643144 0.09362684 0.11026164 -0.1807473 0.006385076 -0.12521383 -0.05436653 0.12245744 0.0922501 0.083070755 0.008279877 0.031434394 -0.1071321 0.069852136 0.027304739 0.137177 -0.14850755 0.16311702 0.07651886 0.08482464 0.108316675 0.00070169044 0.081859104 0.08332382 0.16520782 -0.014571226 -0.053842954 0.16731645 -0.20909847 -0.04510027 0.036886018 0.03756856 0.0008128683 -0.076057784 -0.016880399 -0.057776377 -0.09116614 -0.040148497 0.080874935 -0.051931046 -0.089559115 0.11689994 0.07035771 0.17540225 0.23191471 -0.042365313 -0.066179305 0.09991674 -0.066308305 0.13850442 -0.10177863 -0.14046174 0.17220582 -0.016126225 -0.0017529043 0.06894412 0.13462669 0.0020774046 -0.032323502 -0.0019906242 -0.1930807 0.1996334 0.03705873 -0.12809283 -0.0883204 -0.045652546 0.022735856 -0.11961617 0.12559186 0.16508026 -0.10068497 0.037455987 -0.07952618 -0.06423747 0.011473988 -0.11433229 0.035368085 0.21595997 -0.005912662 -0.04377479 -0.003388389 0.03784501 -0.13254307 0.23950014 -0.1587707 -0.06957684 -0.00195745 0.045948505 0.055409975 -0.17267548 0.060333848 0.20546176 -0.062122002 0.085942835 -0.100851 -0.14583819 0.029360726 0.09768714 0.21165991 -0.007585343 0.09230457 0.059690114 0.095459916 0.049568154 0.024236882 0.19385086 -0.13989908 -0.06245309 0.18359551 0.028174568 0.04785896 0.04401889 0.1685471 -0.0052519594 -0.37200734 0.063935615
470 0.18951514 0.124217376 -0.06449758 0.20085718 -0.10670983 -0.06345126 -0.026147345 -0.17894363 -0.14448471 0.048408624 -0.06424272 0.064269565 -0.04478398 0.06723447 0.0827974 -0.15654777 0.039218694 -0.19979201 0.12375333 0.14087561 -0.031878345 0.032679286 -0.006997037 -0.029655842 -0.07289099 0.12474942 -0.027102817 0.17483103 -0.1337557 0.05703495 0.06079715 -0.028447937 0.16267751 -0.104897924 0.0929239 0.07144539 0.04579103 0.067787394 0.014734311 0.122115105 -0.24538891 -0.008456056 0.009426337 0.13789518 0.014609863 -0.025178201 0.0022870442 0.07572621 0.0076916995 -0.03337726 0.20567317 0.0036810886 -0.10097285 0.13608895 0.060099196 0.055691928 0.20908654 -0.11877834 -0.041877046 0.028987685 -0.09345013 0.08128783 -0.070362344 -0.08551554 0.10708505 -0.060462393 -0.017472293 0.0034504556 0.030483294 -0.0976632 -0.023351487 -0.11535387 -0.16428868 0.048697256 -0.08840444 -0.03786557 0.005521012 0.021223499 -0.19426104 -0.093219385 0.11276461 0.15636988 -0.1391789 -0.13300796 0.123305045 -0.13156912 -0.12543614 -0.13334768 -0.075997785 -0.035221204 -0.003316338 -0.025930494 0.042372335 -0.09337487 -0.1877277 0.3482684 0.035151727 -0.0787624 -0.04883745 0.053919975 0.14997484 -0.20992178 -0.0048054093 0.097350895 -0.07821735 -0.009523274 0.021411521 -0.09205609 0.033816066 0.03272687 0.110867344 -0.04564817 0.03325046 0.013599559 0.07816537 0.15988591 0.08125235 0.14481261 -0.071950965 0.050104633 0.14406389 -0.1411849 0.17026046 0.06314856 0.08932859 0.04476112 -0.4031542 -0.13543715
928 0.089840606 0.054666884 0.047609407 -0.023093963 0.038134307 -0.08909231 0.18236105 -0.25095993 -0.06321868 -0.06796471 -0.049826853 0.06679912 -0.16514596 0.105718784 0.118631534 -0.07878396 0.00607539 -0.04325466 -0.029915152 0.06701947 0.004347038 0.119723216 -0.036429305 -0.15670682 -0.061197978 0.13335131 -0.117661096 0.16273288 -0.04063828 0.02238051 0.11728708 -0.056553755 0.20274013 0.070492215 0.07015681 0.05567685 0.061962616 0.098016374 0.07902238 0.005021036 -0.15491985 0.03407427 0.097445995 0.10663915 -0.08889465 -0.00014141259 -0.049369726 -0.109208204 0.031659517 0.15454258 0.08288131 -0.16970377 -0.14923547 0.11112968 0.07718035 0.105920084 0.16349022 -0.039300207 -0.014396848 0.1280191 0.048512653 0.08960401 -0.23203917 -0.14921848 0.13608292 -0.07980826 -0.16022146 0.06780095 -0.0550519 0.052937273 -0.02177054 -0.08048585 -0.15720348 0.10100471 0.038173597 -0.09903847 -0.010066852 -0.034420744 -0.11925776 -0.10580091 0.020948146 0.13039105 -0.02422192 -0.12268542 0.042541075 -0.088595815 -0.017086204 0.011447841 -0.029943597 0.2154297 -0.033165827 -0.07512373 0.052228518 -0.0059318068 0.074608974 0.23596783 -0.11256146 -0.047883123 0.03582463 0.19077107 0.11332937 -0.09887602 -0.015817657 0.07637716 0.05959062 0.10592014 0.014540762 -0.10946135 0.095372416 0.029230963 0.111366004 -0.1468993 -0.07424891 -0.0033188919 0.16477433 0.119839154 -0.015112507 0.06259647 -0.0724777 -0.035844143 0.06225971 -0.11447366 0.09114808 0.009450641 0.11739748 -0.058928434 -0.36746535 -0.0355303
623 0.166081 0.03815463 -0.017713826 -0.044435825 -0.060338728 -0.14989626 0.08495384 -0.22962718 -0.089758664 -0.083224 -0.11172328 0.024803048 -0.02502864 0.11353504 0.15120567 -0.026581291 -0.0017528164 0.020340994 -0.116228856 0.08722557 0.1032799 0.23296504 0.12197062 -0.08237489 0.15554306 0.06835746 0.024200574 0.10685465 0.0048849825 -0.094466545 0.18259634 -0.015429955 0.23346342 -0.020137798 0.18182349 0.17718272 0.18868494 0.06801633 0.055069625 -0.02202853 -0.06543144 0.091831066 0.07511721 0.09608231 -0.1383825 -0.04962688 0.0037292584 -0.12153397 -0.01911434 0.020059388 0.24307276 -0.19461203 -0.06601575 0.07526871 -0.064339444 0.12757386 0.110725224 0.06282421 0.013037096 -0.0025237377 -0.19327939 0.18040206 -0.12825756 -0.041862823 -0.005209502 -0.07489231 -0.13769393 0.093481354 0.043578677 0.009151194 -0.037140753 -0.1338396 -0.26640826 0.1487887 0.1010985 -0.11870889 0.041042034 0.056178853 -0.095004246 -0.034135178 -0.108823486 0.13076738 0.025003346 -0.09712223 0.09142861 -0.14257978 0.0019317975 0.10306021 -0.1155954 0.056433287 -0.0024976183 -0.054501444 0.013238848 -0.05574687 -0.10250869 0.033820976 -0.10116041 -0.0029837019 0.012404374 0.1673661 0.045723114 -0.03080826 0.031356316 0.026900806 -0.15889522 0.0108410325 -0.09833511 0.039377026 0.08021856 -0.15031548 -0.0001999053 -0.011967825 -0.04556924 -0.20152186 0.1520713 0.18655755 0.025705941 0.1641642 -0.069903135 0.048225336 0.1208158 -0.026691789 0.26370966 0.04665656 0.032988835 -0.048799425 -0.25185403 -0.013807527
288 0.1856544 0.094852 -0.167195 0.054194417 0.024169732 -0.081841804 0.0074620405 -0.071352325 -0.042353716 0.009430497 -0.08857336 0.0036429374 -0.10549208 0.14286946 0.17262992 -0.20312174 -0.10341347 -0.120857015 -0.043011524 0.109731115 0.051758397 0.052023932 -0.102064595 -0.13469417 -0.02398244 -0.019661283 -0.115519956 0.17259021 0.06435677 -0.0077625434 0.08126911 -0.024400577 0.237692 -0.06294578 0.15897113 0.14085862 0.06074504 0.05785101 0.14305332 0.08729006 -0.16258535 0.022818837 0.0952863 0.10677123 0.040491145 0.051355775 -0.111782864 -0.093112335 0.090708785 0.06003685 0.17420146 -0.12034106 -0.008831472 0.04319795 0.076178744 0.020333664 0.30927294 -0.019156843 -0.02558369 0.15752071 0.0880815 -0.095822886 -0.07686664 0.066133365 0.1741964 -0.13161597 -0.0977773 -0.047728375 0.014449297 0.10864626 -0.08396244 -0.10403581 -0.19100691 -0.010177643 0.030666156 -0.03456909 0.01084059 -0.048086 -0.19722265 -0.00784656 -0.003494193 0.16122639 0.008056926 -0.26871827 0.016986545 -0.05053938 -0.037062287 -0.019690666 -0.046745095 0.070880935 0.0042519113 -0.024202857 0.098819606 -0.07666394 -0.090683006 0.24363562 -0.04091171 -0.057107788 0.029928884 0.043874197 0.009336235 -0.14956422 -0.09077903 0.07148626 0.05977581 0.083414756 0.08139639 -0.05696709 0.11099859 0.027799916 0.020629436 -0.24887754 0.022378746 -0.053844005 0.10464714 0.031153724 0.02270253 0.110293895 -0.013755425 -0.07968846 0.07828673 -0.12772176 0.13223906 0.013464791 0.037311025 -0.079312265 -0.21850246 -0.19625898
65 0.16564524 0.086097844 -0.10794645 0.152851 -0.010178004 -0.004475569 0.020880751 -0.06336025 -0.11222136 -0.016565658 -0.069374226 0.042719245 -0.09888619 -0.0023227418 0.086042866 -0.28480673 0.07180405 -0.1011457 -0.041593023 0.13347006 0.0016359051 0.025617944 0.01880204 -0.05608505 -0.04990276 0.049660217 -0.04926373 0.19981164 0.03809428 -0.038235433 0.11363188 0.008739574 0.14551595 -0.012026088 0.122973256 0.17087506 0.06158995 0.13047437 -0.032324728 -0.034521297 -0.24168833 -0.07334248 0.114560686 0.07554787 0.047540154 0.043122776 -0.07136887 -0.10570812 -0.003970374 0.030266779 0.1698339 -0.09169132 -0.09806073 0.087206155 0.026081562 0.025958363 0.2533987 -0.06391548 0.047615644 0.036264036 -0.057608627 0.04148818 -0.11420622 -0.06870941 0.04866281 -0.11408014 -0.15695353 0.055437747 -0.031655893 0.016196901 -0.009382733 -0.107083164 -0.27093452 0.13713868 0.08298057 -0.056459334 0.00046327023 -0.035503406 -0.09146533 -0.043608844 0.0503393 0.16440828 -0.09931464 -0.16569364 0.09708136 -0.05866301 -0.03307818 -0.06711736 0.03041705 0.06392973 0.1176106 -0.030703584 0.05434024 -0.0076942695 -0.036458585 0.29093376 -0.08256407 -0.250272 -0.09412322 0.14854921 0.04948783 -0.12712906 -0.05499213 0.048572443 0.07972118 0.074556075 0.06244738 -0.11827547 0.05876735 0.033451673 0.09048469 -0.13790247 -0.046967767 -0.001257206 0.10279916 0.043481745 -0.0361731 0.04183608 -0.052559093 -0.07915764 0.1602656 -0.044163596 0.1515676 0.07306017 0.021919625 -0.048971012 -0.34671447 -0.03679232
379 0.117580764 -0.014700201 0.07212669 0.062091824 0.12080537 -0.102975085 -0.14185572 -0.1642972 -0.09781841 -0.13823844 -0.12507899 0.07074402 -0.021552064 0.039223444 -0.0131497355 0.0049851327 0.014450409 -0.08666788 0.0051101386 0.03845241 0.04142739 0.093904406 0.040593237 -0.12843241 -0.0826072 0.029996382 -0.15857735 0.06955632 -0.04820239 0.043590352 -0.012707563 0.06907181 -0.03372915 0.10798668 0.12948477 0.15899855 -0.029885322 -0.024896383 0.13692239 -0.06378755 -0.027260993 -0.0005401724 0.013700503 0.21367833 -0.06705309 0.19199513 -0.054223355 0.12611419 -0.00038684005 0.07603702 0.18665592 0.010797002 -0.041170057 0.026192244 0.025727127 0.14700654 0.112125196 0.007927836 0.056909423 -0.02062559 -0.019486582 0.12121917 -0.04859092 -0.030906558 0.22746627 0.018644372 -0.12199147 0.10561434 -0.041857917 -0.14124711 0.00036966146 -0.031319007 -0.22044928 0.004502653 0.06365973 -0.07764552 -0.052566122 0.17838238 -0.10148045 0.025801152 0.035320133 -0.031556334 -0.005750024 -0.20721366 0.0043733343 -0.23226802 -0.012077158 0.027297191 0.1800498 0.16395083 0.044065803 -0.04454475 -0.12715645 -0.12391148 0.020866584 0.046755947 -0.15570353 -0.06429248 0.114770316 0.18903895 0.03726328 -0.13460186 -0.09848611 0.0021699858 -0.034840725 0.14945677 -0.021576531 -0.060395803 -0.020843131 -0.053986844 -0.051761575 -0.030814273 0.07721201 -0.20719892 0.14182597 0.09858154 0.040974285 0.09857987 -0.009114012 0.05794086 0.0034929262 -0.08114258 0.035015494 0.05279454 0.092769794 -0.054349437 -0.09236852 -0.21530186
877 0.1793258 0.06620816 0.023115076 0.07966793 -0.15018573 -0.12556213 0.113343544 -0.23513572 0.020511704 -0.06658641 0.004022469 0.0726799 -0.25098148 0.18025954 0.040088702 -0.06803863 0.11092329 -0.024370778 -0.095927276 0.0918447 -0.03696798 0.1310695 0.004611766 0.0044897613 0.05726073 0.08240136 -0.05123108 0.107283175 -0.009938451 0.062508225 0.08277873 -0.0359432 0.19526769 0.075561635 0.1885741 -0.059568185 -0.04879041 0.02960621 0.034126837 -0.13978101 -0.046514314 0.0774623 0.11158845 0.059163228 -0.0617631 -0.07276783 0.03362586 -0.10377035 0.040900532 0.040514287 0.12346575 -0.0468694 -0.16252205 0.0096185235 -0.089039646 0.18020172 0.02907995 0.09141576 0.12651694 0.012152836 -0.036313746 0.13452636 -0.16927744 -0.20321713 0.034773037 -0.0163808 -0.16291721 0.16422576 0.04863641 0.02285457 -0.048331536 -0.025671752 -0.2703555 0.061384313 -0.026272114 -0.12596168 0.15638019 0.036764033 -0.03848037 -0.12908575 -0.046004087 0.12793514 -0.0745316 -0.11505422 0.11368396 -0.16161676 0.01972789 0.08143397 0.067513034 0.2189141 0.011913005 -0.008069769 -0.010862165 -0.027441787 0.20153105 0.09816758 -0.13949353 -0.09573028 0.0044072364 0.08629301 0.060716353 -0.16999735 -0.025061317 0.056133278 -0.057108693 -0.008108139 0.13740668 -0.05451103 -0.032960333 0.069382496 0.17597702 0.09640154 -0.057956744 0.02744663 0.10986192 0.16951595 -0.058046862 0.07861027 -0.13614614 0.015248287 0.05264363 -0.100921676 0.1328613 0.06231032 0.092106394 0.06561889 -0.31828752 -0.09618805
199 0.33069074 -0.12155182 -0.025386242 0.012199157 -0.1015824 -0.03082124 -0.1010983 -0.11521477 0.016810453 -0.03504778 -0.09365116 -0.051895835 0.03576333 0.14075594 0.13691665 -0.12588404 -0.027420742 -0.078751296 -0.07537414 0.008383037 0.063536115 0.14021358 0.09027604 0.13550252 -0.004143376 0.016671287 -0.059853606 0.14016768 -0.14614512 0.14308514 -0.086162865 -0.0034312746 -0.09101955 -0.0470047 0.07913108 0.13759817 0.03471067 0.121939205 0.030599061 -0.037976917 -0.19326156 -0.0012933317 -0.030612865 -0.005528115 -0.017100291 -0.0013852993 0.1231331 0.16622265 0.018018056 0.06856133 0.21372493 0.08750668 -0.15533327 0.017031873 -0.10606717 0.094039425 0.2041381 0.19377811 -0.06373181 0.10797387 0.0036647425 0.039171 0.016705148 -0.025931405 0.21571293 0.03300382 -0.12688054 0.12681514 0.10299784 0.010413435 -0.061523825 -0.19801396 -0.20020516 0.07010493 0.06828578 0.005767337 0.026923355 0.0627722 -0.11017211 -0.0799123 0.14797202 0.097676106 -0.20915234 -0.14288992 0.022777535 -0.21659161 -0.019332068 -0.016950835 0.030020144 0.059533216 0.084489316 0.06789029 -0.13940944 -0.060741153 -0.02912035 0.11211063 -0.18873538 -0.004419017 0.062237468 -0.078380056 0.040079303 -0.32326674 0.0069966433 0.1683138 -0.106163755 -0.09182403 -0.07947453 -0.035147626 -0.17152104 0.016441653 0.03309109 0.09602821 0.03365117 0.017224433 0.15038554 0.20765227 0.023339475 0.2544762 -0.02743635 -0.04272133 0.046714086 -0.059573293 0.14889872 0.047719758 0.19987921 -0.019512143 -0.20821257 -0.25335008
922 0.10926541 0.08806342 0.015450439 0.08248138 0.115054995 -0.086661234 0.14515032 -0.17132095 -0.11154487 -0.21841976 -0.21392636 0.106683746 0.01669139 0.051400445 0.1094129 -0.18156782 0.0623414 -0.003930276 -0.18438365 0.19684854 0.13199022 0.067446955 0.050711136 -0.057874564 0.08667044 -0.027006282 0.034102466 0.15279251 -0.071055345 0.05905952 0.16806276 -0.024523 0.17589241 0.016597215 0.1700908 0.12232947 0.053567875 0.07336501 0.051697798 0.07483599 -0.22078303 -0.20684287 -0.10036837 0.07395695 -0.042414926 0.008407564 0.01716972 -0.14413789 -0.09598136 0.2262905 0.19940846 -0.10932331 -0.25635514 0.14527701 -0.03077604 -0.01793931 0.19444002 0.028809784 -0.032747876 0.038190816 -0.08968731 0.13294587 -0.03608129 -0.068886496 0.073581904 -0.11294396 -0.043610953 0.034114797 -0.0301921 0.019933062 -0.13337134 -0.11257895 -0.21763867 0.095013194 0.21103694 -0.0068284282 -0.046833735 0.0033792912 -0.10550351 -0.13888045 0.19100831 0.11290437 -0.058183126 -0.110186964 0.054863323 -0.13088486 0.05401893 -0.14511357 -0.023674767 -0.06879802 0.006159258 -0.11858952 -0.10947166 0.037062567 -0.061231565 0.14483988 -0.12206993 -0.20312928 -0.12264438 0.07906357 -0.09005525 -0.06259475 -0.041849047 0.039353512 0.09173252 -0.048620045 -0.10045093 -0.12088074 0.074005194 0.06470905 0.029337432 -0.085663944 -0.022091048 -0.19690761 0.1380652 0.12061879 -0.078980364 0.16683714 -0.06465584 0.03997297 0.2734745 -0.07284041 0.13106887 0.10948771 0.099872254 -0.027946739 -0.16280323 0.09635952
846 0.07565733 0.07600915 0.0073073297 0.008429706 0.012954461 -0.09791176 -0.089879796 -0.10475729 -0.023355678 -0.12789461 -0.084363796 -0.09720945 -0.0319256 -0.009228361 0.08100915 -0.094960324 -0.026253045 -0.049026314 -0.0035573246 -0.025667202 0.19239715 0.058927815 0.16613373 -0.06454764 -0.04993893 -0.10047365 -0.11270764 0.09433571 -0.01144665 0.084469646 0.17735791 0.063536614 0.063826285 0.07786557 0.27417213 0.038646303 0.017663682 0.030338833 0.062193472 -0.01737761 -0.096730955 0.0043350603 0.021420704 0.103137664 0.06443662 0.11911872 -0.017895855 0.0256688 0.00076232216 0.12744896 0.19836794 -0.077805415 -0.19960904 0.0014456691 0.027628554 0.063387 0.22065827 0.08501671 -0.056169588 0.021320356 0.073059544 0.17257912 -0.07137436 -0.051266253 0.11357677 -0.07257908 -0.09716547 0.049894184 0.0937761 -0.004735219 -0.047580153 -0.15783551 -0.2134844 0.083393596 0.10845997 -0.03280708 0.054226793 0.04613041 -0.052929208 -0.013264286 0.0023042108 0.03246768 0.04997054 -0.13897811 -0.044802845 -0.19014996 -0.009574752 0.067522995 0.09982839 0.18674816 0.06298119 0.048128787 -0.04704665 -0.042402856 -0.03226428 0.20233646 -0.20091261 -0.083249405 0.06899092 0.08363909 -0.010099906 -0.100627646 -0.12928303 -0.027257686 -0.023944953 -0.07022422 0.036822997 -0.024834493 -0.16096893 -0.16866031 0.05261396 -0.050552133 0.07369507 -0.108002804 0.10142996 0.105279036 0.050405927 0.12665604 0.021107659 -0.044489544 0.12241806 -0.02426474 0.11170898 0.04587689 0.10737036 -0.08044032 -0.13377474 -0.22912127
82 0.19954133 0.054759294 0.030803377 0.13812882 -0.06330412 -0.070399836 0.13532415 -0.18300281 -0.015884504 -0.004826005 -0.05876561 0.08044668 -0.23229249 0.09086167 0.13070205 -0.009293817 0.13831645 0.061559025 -0.0013963144 0.17623651 -0.16113581 0.06337411 0.061788756 -0.045571852 0.0830758 0.041386954 -0.109082915 0.099807255 -0.05214644 0.060793687 0.12446577 -0.048769172 0.20371106 0.113263614 0.1324683 0.01286299 -0.019299999 0.10733499 -0.030784966 -0.046526674 -0.14615728 0.012720233 0.077453166 0.05697409 -0.15096484 -0.064519525 -0.058057405 -0.06076644 0.054675575 0.015933488 0.22926435 -0.12952593 -0.18002504 0.021600556 -0.02959788 0.16160572 0.0578193 0.031093506 0.09910552 0.02079701 -0.01091373 0.14761765 -0.1588874 -0.1685184 0.012777929 -0.102263294 -0.16659136 0.18022075 0.044881348 -0.0092381155 -0.12260069 -0.12974894 -0.1286948 0.085377686 0.009780913 -0.1123685 0.12774244 0.06218321 -0.021710884 -0.14082511 -0.013252011 0.073163666 -0.12173885 -0.17246741 0.046175133 -0.120831944 -0.04296302 -0.028264059 0.086070456 0.107689336 0.067041785 0.040530305 -0.07705037 -0.029405091 0.076583855 0.05892758 -0.19881406 -0.10018283 0.0722968 0.042969044 0.07263369 -0.15072437 -0.084608465 0.03949757 -0.0448719 -0.07343607 0.11538541 0.017390162 -0.05200013 -0.007492942 0.12725668 0.011014403 -0.13135763 0.044108376 0.1312614 0.22007428 0.030516164 0.07773535 -0.104256235 -0.01262208 0.046120174 -0.07529342 0.117713004 -0.0052592396 0.09671749 0.05210313 -0.2949076 -0.19057444
712 0.18356898 0.036280468 0.09708843 0.19505957 -0.072889924 -0.023832347 -0.041489724 -0.17493567 -0.026150296 -0.04844985 -0.067847446 -0.05288055 -0.10254906 0.07092409 0.086346276 -0.08932813 -0.03692256 -0.20382974 -0.07945018 0.27120057 0.08593295 0.029370598 0.022134965 0.060479976 -0.10919089 -0.03995973 -0.13977246 0.12043053 -0.105553836 0.19363609 -0.0034258724 0.039352126 0.047939666 0.06096539 0.07781881 0.13849768 -0.019772308 -0.052064743 -0.01977592 0.09943829 -0.26343337 -0.14707975 -0.027437052 0.19508524 -0.016092274 0.06097322 0.13334 0.15389179 0.025002832 0.010700777 0.14471029 -0.028107608 -0.11918389 -0.0208377 0.04028724 0.10640238 0.083107926 -0.05150941 -0.07075038 -0.0013364898 0.07979388 0.07354264 0.065419376 0.004530191 0.26402247 0.010912963 -0.016838342 0.10435441 0.12677217 -0.022471026 0.014076613 -0.0315104 -0.15107825 0.038057376 -0.002492884 -0.068391435 -0.045293473 0.091501124 -0.05651828 -0.16517484 0.18778339 0.1053772 -0.17154743 -0.081049085 -0.031065973 -0.13121694 -0.17480356 -0.23694107 0.022933079 0.098127015 0.057167575 0.09368148 -0.039662328 -0.076651014 -0.09710571 0.19016765 -0.11870024 -0.07336879 0.10615574 -0.118134156 -0.052236736 -0.31072322 0.036126237 0.064077675 -0.04886176 0.05265748 -0.09361731 -0.12911807 -0.059348438 0.108472735 0.029840717 0.063478746 0.076218724 -0.0065211314 0.07730131 0.08220523 0.10767857 0.20805651 -0.01803454 0.01150047 0.08880307 -0.046241973 -0.048242502 0.018392611 0.13527793 0.12564391 -0.337934 -0.22735482
687 0.04282285 0.13244185 -0.05382839 0.04477614 -0.13910261 -0.051642586 0.03711494 -0.14783286 -0.0884871 -0.113236144 -0.054560736 0.0522585 -0.057504408 0.06529837 0.101194866 -0.23016548 0.017334014 -0.083586 -0.053462565 0.04287639 -0.017431572 0.14014113 -0.027688231 -0.108200915 -0.10981811 0.14431271 0.033118166 0.11961698 -0.010326593 0.018007787 0.10327513 0.02253145 0.1640483 -0.02155449 0.1849289 0.13989973 0.04302277 -0.012193862 0.01935339 -0.029931398 -0.13299689 0.047422525 0.2326179 0.051140055 0.03778738 0.1036285 -0.079691835 -0.09207898 0.030703876 0.0016554821 0.0919125 -0.076946795 -0.13396563 0.18621159 0.1066213 0.16366883 0.19094294 -0.08029862 0.16452219 -0.016690716 -0.10585472 0.11091319 -0.12940687 -0.12142133 0.067712314 -0.05402249 -0.10781826 -0.0016399991 0.035435215 -0.044250764 -0.00236695 -0.06057937 -0.34115198 0.11358233 -0.06856247 -0.06415177 -0.04785403 -0.010158989 -0.06557798 0.10911875 0.091252595 0.14904611 -0.111794494 -0.06690497 0.14723173 -0.08319669 0.06154558 -0.015686527 0.06725674 0.0835975 -0.003573344 -0.005055818 0.12594956 0.040737994 -0.053581204 0.3158231 0.04365505 -0.19555101 -0.15390868 0.19799992 0.10517387 -0.106258735 -0.10723541 0.12908754 -0.038935773 0.25503087 0.046262663 -0.09980849 0.015121585 -0.06259617 0.12401443 -0.05947628 -0.09434665 0.05852352 0.15718903 0.014190229 -0.045372676 0.17540208 -0.14278696 0.0330499 0.16170835 0.033138905 0.10485901 0.092442974 0.048984475 -0.15410165 -0.3192493 -0.048833385
224 0.165857 0.047957063 0.07945932 0.009467509 0.015318709 0.02879392 -0.047248203 -0.101282395 -0.11095578 -0.11536596 0.0023018136 0.008274997 -0.07792984 0.0839517 0.02081619 -0.16399483 -0.03655305 -0.036344264 -0.10671506 0.1612499 0.15019503 0.08570669 0.05070056 0.025371375 0.042661615 0.00028469792 -0.046829756 0.11664008 0.07984834 0.076891616 0.03797049 0.12717229 0.09697653 0.1986194 0.079635665 0.11082122 0.0064219674 -0.0704779 0.049446244 -0.0038320443 -0.058109846 0.012267534 0.10157944 0.14598863 -0.07388365 0.1045485 -0.04453876 -0.17920667 -0.019258518 -0.052779883 0.14210664 -0.08560704 -0.022847872 -0.24246387 -0.015170964 0.11769866 0.05429785 0.062015533 0.054683316 0.08479257 -0.04366943 0.18596981 0.00015581306 -0.12149304 0.17403886 0.10094821 -0.07124222 0.067516565 0.18162331 0.04069055 -0.061037198 0.047598694 -0.1490094 0.04526361 0.07337751 -0.16541766 -0.06233399 0.14355847 0.06086806 0.023576928 -0.16875729 0.14966093 -0.01582115 -0.030354878 -0.10439305 -0.14539397 0.02927589 0.093907125 0.042965986 0.22030142 0.08472445 -0.07291123 -0.025674596 -0.0145252235 0.019821659 0.050000437 -0.1784689 -0.06536499 0.114718616 0.07729988 -0.043090504 -0.08678219 0.0067116055 0.109276935 -0.13893774 0.13322923 -0.023448786 -0.001450799 0.0033025183 -0.08503307 0.04491707 0.08354487 0.105246305 -0.18159486 0.01728948 0.015280781 0.07588388 0.12345182 -0.057892486 -0.016427577 0.116457604 0.018623646 0.084774785 0.078961864 0.114684686 -0.01988308 -0.04962286 -0.14131632
317 0.08585606 0.10464738 0.049395315 0.096136495 -0.053906024 -0.16556178 0.112674676 -0.17160377 -0.0069211856 -0.1160872 -0.053121578 0.0047515733 -0.11340006 0.04429837 0.08156179 -0.05582318 -0.028992843 -0.15396321 0.03135817 0.21440248 0.10754209 0.07037338 -0.028101908 -0.088033855 -0.062395163 -0.14181237 -0.15023199 0.08050691 0.06349264 0.063154995 0.12170675 -0.062627874 0.15806183 -0.0032588593 0.2019491 -0.030817376 -0.084820285 0.038887106 -0.026248757 0.050707396 -0.124282405 -0.07884917 -0.10477851 0.30319005 0.08142435 0.06393854 0.05833857 0.12242765 0.10468582 0.047193136 0.08292111 -0.014731242 -0.28662047 -0.08789332 -0.03449465 0.07139416 0.09058368 0.03144238 -0.032851942 -0.014113232 0.07792719 0.13386776 -0.075509675 -0.05729942 0.13717961 -0.0022594805 -0.13987212 0.10058223 -0.12363922 -0.017107468 -0.1133953 -0.060236327 -0.12515998 -0.032663673 -0.023468025 -0.03702299 0.013282137 0.08371053 -0.1273797 -0.095048554 -0.017885372 0.15612942 -0.0402903 -0.19299741 0.052093416 -0.120261826 0.03470711 -0.12090345 0.02549569 0.13834442 0.00090706424 0.05126619 -0.043604463 -0.15683484 0.019921895 0.12136726 -0.056089498 -0.021294132 -0.0017559052 0.040573012 -0.011367312 -0.15062259 -0.09565529 -0.06765705 0.01838941 0.04308742 0.104839094 -0.04735211 0.0036994615 -0.055010397 0.0008447207 -0.16787882 0.018550899 -0.1382587 -0.03795785 0.09361952 0.07602411 0.03415142 -0.08856319 -0.005236337 0.07001055 -0.2737521 0.0350515 -0.014901118 0.0112772975 0.066335164 -0.18330204 -0.2945852
949 0.2023985 0.20615631 0.024609089 0.05667921 0.014145337 -0.01971459 0.01339208 -0.16980284 0.0790029 -0.13610286 0.08793029 -0.06814103 -0.06356862 0.124092005 0.06494251 -0.12929663 -0.1411365 -0.08363081 -0.0471634 0.13079311 0.20407386 0.07105378 -0.0126075335 -0.00019922554 0.04159079 -0.10528752 -0.23845983 0.08706799 0.0073891357 0.085744604 0.1776301 0.14306211 0.331077 0.06598393 0.18087368 -0.019145466 -0.0782216 -0.034361556 -0.018905073 -0.003564543 -0.18151006 0.023550931 0.12130337 0.1885567 0.081570596 -0.07961371 -0.07217115 -0.079482056 0.024437409 -0.0020566727 0.15522628 -0.11732866 -0.14922057 -0.19686599 0.012952871 0.14519589 0.16521053 0.049668316 -0.00726827 0.006991159 0.0976683 0.11995774 0.014860771 -0.07648383 0.11287329 -0.10721924 -0.05360214 0.048142042 0.05542713 0.0049819746 -0.18148422 0.0058401325 -0.16742937 0.0073390617 0.08356181 -0.07320026 0.026252827 -0.056729224 0.015343018 -0.08664021 -0.095087 0.07775657 -0.010986233 -0.15200634 -0.123580374 -0.04739111 -0.023795003 0.026107093 -0.037623987 0.23005651 -0.052603353 0.03570938 -0.073660925 -0.041434802 0.03727272 0.2193342 -0.14524627 -0.073904686 0.11502189 0.0025184152 -0.06181261 -0.15578213 0.004613035 -0.0009635435 -0.05938762 -0.08862429 0.0694722 -0.06391878 -0.007754707 -0.016541667 0.12223425 -0.11406299 0.13126272 -0.14310876 0.017496308 0.15465735 0.0881492 0.19909775 -0.023331098 -0.05532983 0.17950468 -0.022657067 0.13093668 0.036793347 0.1142327 -0.003501649 -0.15893273 -0.1715343
551 0.06725957 0.08367394 0.05220383 0.104901955 -0.09706693 -0.11580321 0.041297127 -0.056772407 -0.13504393 -0.29057524 -0.19080025 -0.055639725 0.082098804 0.075071886 0.0037359733 -0.043515794 0.0052029756 -0.13744102 0.013326929 0.17682706 0.057830464 0.034241963 0.02046973 -0.100293525 -0.04658098 -0.0034698711 -0.08854209 0.084014766 0.084726185 0.08990754 0.044523407 -0.0054152673 0.07585455 0.020150224 0.21944387 -0.03055574 0.07290375 -0.04280114 0.024468668 -0.1094204 -0.048287876 -0.09097711 0.016477782 0.27013987 0.051871892 0.06878091 0.035676517 0.16107629 0.09786511 0.09551281 0.16407904 -0.045306504 -0.26007822 -0.08759237 -0.028930051 -0.033444002 0.096075036 0.103927284 -0.041248463 -0.07252023 -0.008457933 0.18031116 -0.05541172 0.024413891 0.27338693 0.08060737 -0.112292945 0.061670158 -0.13721535 -0.049785636 0.0017563025 -0.016637327 -0.2639224 0.006230537 0.02631281 -0.111499965 -0.080601975 0.15678279 -0.08148013 -0.12298478 -0.0073536225 0.040616114 0.06482026 -0.16563882 0.07883358 -0.09143705 0.07543547 -0.014139195 0.22447458 0.099426545 0.12259495 -0.08036345 0.028599223 -0.110473 0.012838201 0.084345356 -0.04693493 -0.1253446 0.04377764 0.09549922 -0.002043132 -0.09019591 -0.14341812 -0.012593415 -0.031159515 0.19792423 -0.0031434451 0.011414001 0.025015693 -0.01368653 -0.094045036 -0.10631828 0.104804665 -0.19303478 0.09948864 0.05887105 0.09633483 0.07099509 -0.0831223 0.0597391 -0.011898608 -0.12897038 0.014023274 0.12672894 0.016499976 0.16231301 -0.113559194 -0.32915032
473 0.16185752 0.16438773 0.009705816 -0.23178457 0.11692971 -0.06568808 0.01813201 -0.3034784 -0.09914167 -0.15504923 -0.17875531 0.006583549 -0.064067475 0.100022204 0.06574241 -0.014724199 -0.08135502 -0.10111893 -0.0036764832 -0.01506431 0.12009523 0.12372063 -0.061719716 -0.08101997 -0.17321883 0.15683451 -0.091704175 0.105014674 -0.19889493 0.028675025 0.2647179 0.06909008 0.22886457 0.04387773 0.06934885 0.11094739 -0.11194323 0.032730293 0.09944044 -0.035322856 -0.11919785 0.18284118 0.030513572 0.07155649 -0.04494448 0.031404957 -0.0060080835 -0.13445026 -0.1066308 0.13230972 0.03086828 -0.23796652 -0.26980606 0.21092854 -0.0035657103 0.3205005 0.013253616 -0.060712848 0.15961754 -0.010728616 -0.046335015 0.2228535 -0.11026192 -0.17717694 0.0942047 -0.14262569 -0.055545866 0.119663075 -0.13324653 -0.090578236 -0.07398666 0.01095486 -0.1165421 0.10959741 0.09372288 -0.099673145 -0.058809757 -0.11685135 -0.1411942 -0.08206715 0.031443395 0.12005524 -0.058861617 -0.032993294 0.1433297 -0.18095422 -0.0011862054 0.089418024 -0.01472681 0.06880582 -0.1281633 -0.06413658 -0.018318547 -0.03198896 -0.01115823 0.20636787 -0.1061881 0.029908603 -0.07518813 0.14653237 0.048176933 -0.067055054 0.09106129 0.07990214 -0.014277485 0.11830567 -0.12037582 -0.10649867 0.11463217 0.036799897 0.09338213 -0.15717643 -0.008836456 -0.042961393 0.19138443 0.17230178 -0.11007287 0.33628884 0.0012364249 0.1236302 0.14164098 -0.055819765 0.048987407 -0.0251327 0.20821586 -0.12947597 -0.32325733 0.14294073
27 0.073660105 0.00079897157 0.006310929 0.058975 0.11505424 -0.086328864 -0.105923444 -0.083141826 -0.15588959 -0.4319841 -0.13945334 -0.11988926 0.16777924 0.011528729 0.09985486 -0.04290108 0.03260604 0.02160656 0.025607685 0.0777136 0.107226714 0.044397205 0.11379323 0.008312354 -0.044236552 -0.03436477 0.00896059 0.1830013 0.054895688 0.054800835 0.06537581 0.088573076 0.06358683 0.04956241 0.1666371 -0.059359413 0.11853855 0.0900148 0.096242346 -0.1305689 0.02135609 -0.16005091 0.03664082 0.26592678 0.047970317 0.03679619 0.23277576 0.190976 -0.006016673 0.15799849 0.18828604 -0.049306497 -0.19544512 -0.006114894 -0.12946157 0.11456943 0.13900891 0.14435698 -0.0034890568 -0.11130163 0.028525392 0.083413415 -0.15581954 0.105184235 0.18798636 0.006876102 -0.0922836 0.07278125 -0.08998526 -0.021805268 -0.05561182 0.009113901 -0.2418626 -0.075995155 0.1342006 -0.025247756 0.000793121 0.16593972 -0.12711877 -0.15027204 -0.011851366 0.05810559 0.057341322 -0.2981013 0.0041927616 -0.24207376 0.10501927 0.014327798 0.11786924 0.059325445 0.034064688 -0.062371537 -0.064588375 -0.09632566 0.07728195 0.14250298 -0.08791631 -0.1729927 0.051333122 0.12943327 0.061079137 -0.206022 -0.06161708 0.10152456 0.010372731 0.014032258 -0.111156285 -0.0035851235 -0.014129794 -0.016730685 0.016879635 -0.13754915 0.07657039 -0.26664236 0.19828272 0.12247854 0.018385898 0.08356804 0.011034398 0.014352005 0.011662135 -0.007597272 0.18868306 0.007863065 0.12512365 0.04704186 0.012949558 -0.21870543
345 0.24209967 0.03620143 0.12894753 0.049466804 0.14433753 -0.036275886 -0.026552696 -0.059135746 -0.19750799 -0.117388345 -0.064160846 0.1054906 -0.09127751 0.08962732 0.062113125 -0.06756099 0.03043472 0.04634968 0.015143621 0.120412596 0.0013660794 0.2384665 -0.025035854 -0.053643886 0.045458548 0.06735012 -0.09253043 0.0673169 0.12557063 0.018869996 -0.21798162 0.0117042 0.2460734 0.07049023 0.013090587 -0.06113664 -0.0040970757 -0.037869707 0.11671825 0.05194928 0.02907827 0.024790436 0.022526817 0.19787875 -0.06999292 0.047653135 -0.091876954 -0.055975318 -0.033755034 -0.0066446755 0.05712215 -0.15151201 0.0094389655 -0.160631 0.07062044 0.11321572 -0.059240095 0.036441166 0.15694255 0.038407467 0.08649387 0.035757802 -0.19094454 -0.07124269 0.024107883 0.07629574 -0.04377267 -0.039590552 -0.04295228 0.025283337 -0.02821878 0.12535155 -0.11435776 -0.08898853 0.07913048 -0.118133426 -0.07246122 0.11284253 -0.027151039 -0.12498157 -0.1110009 0.075752944 0.081617884 -0.11094929 -0.06108272 -0.120020635 -0.071961835 0.05341786 -0.06154359 0.042357188 0.0040455204 0.010868889 -0.040535644 -0.11871442 0.03190718 0.014526328 -0.1065889 -0.02967143 0.01940937 -0.01633734 0.03627024 -0.105404876 0.059746984 0.082161926 0.018537998 0.026004227 -0.041175686 -0.014431473 0.09749748 -0.015028931 0.12497815 -0.00892206 0.10048248 -0.17912203 0.051750634 0.13125889 0.07577573 0.1143003 -0.04048717 -0.053260792 0.016565489 -0.182246 0.10794239 -0.007855925 0.027059197 0.027307361 -0.07520576 -0.103538185
77 0.11763815 0.021766096 0.03763924 0.04099488 -0.20146243 -0.07967609 0.07027961 -0.311954 -0.20796637 -0.1197645 0.01614173 0.18071693 0.11158283 0.028075714 0.18593708 -0.033169176 0.014501242 -0.22753777 -0.04380868 0.06805358 0.016298883 0.19884865 -0.0018065248 0.03340095 -0.15308574 0.1259 -0.007560214 0.08890895 -0.23668098 0.21793577 0.11003275 0.042657208 -0.057655618 -0.035796933 0.054152057 0.17619011 0.120688505 -0.03967113 -0.03090081 0.08132721 -0.18264562 0.08018475 -0.008431779 -0.020050181 -0.06767097 -0.0013550315 0.025232794 0.11111185 -0.083653234 -0.04085435 0.1173599 -0.027574873 -0.17449845 0.22760676 0.10063296 0.20620537 0.32292995 -0.11568445 0.001730758 0.16393153 -0.19390363 0.30020043 -0.16437009 -0.13415416 0.2030027 -0.033212267 -0.01388756 0.058793575 -0.032263834 -0.029134985 0.04148922 -0.07417499 -0.25683504 0.113833584 -0.14067394 -0.15749638 -0.050140604 -0.033788703 -0.045440335 -0.10469629 0.12275179 0.15836152 -0.17951009 -0.008685606 0.1682144 -0.16361082 0.054223526 -0.120527744 0.09708911 0.19289519 -0.04569525 -0.09336764 0.07944525 -0.015607452 -0.18287165 0.3115919 -0.03704592 -0.1120336 -0.06370847 0.23014772 0.16683045 -0.2581174 0.047254708 0.16595197 -0.06698348 0.17002401 -0.10716752 -0.19846529 -0.035470426 0.16242705 0.06569121 -0.020334624 -0.03613933 0.07449479 0.1156557 0.064346224 0.057526663 0.2655665 -0.25507817 0.031314775 0.13419817 0.030176515 0.05920494 -0.05232324 0.2669681 -0.08800625 -0.40017712 -0.10695205
269 0.010816949 0.13788341 0.04425938 0.15199947 0.009074764 0.02865701 -0.09730382 -0.08051172 -0.13549186 -0.11175942 -0.07568602 0.0029519426 0.027156986 0.05162794 -0.020996328 -0.08399246 -0.062493347 -0.09542058 -0.067696966 0.19167656 0.102041945 -0.014124194 0.08666876 -0.055545554 -0.007073793 -0.051146816 -0.049912233 0.079660185 0.042114176 0.13314667 0.15243647 0.25400174 0.18866788 0.07574877 0.12184394 0.101959325 0.011891987 -0.016139813 0.0005690638 0.04368674 -0.048829705 -0.091253266 0.10690973 0.28754225 -0.040676642 0.1521097 -0.039428044 -0.036168955 0.04807169 -0.07647341 0.24919547 -0.18076316 -0.10320759 -0.06741482 0.041686594 0.05798621 0.07528625 -0.002990695 0.04795003 -0.0730636 -0.007325078 0.25662115 0.079390034 0.0393535 0.19693425 0.021207163 -0.06826794 0.08733766 0.038506392 -0.06151777 -0.072040744 0.030191522 -0.25606498 0.082013085 0.04661782 -0.08657794 -0.029810783 0.0896093 -0.035427682 -0.0449602 -0.057548393 0.05180129 -0.009587972 -0.057428196 -0.15425228 -0.15616664 -0.0053272685 0.040732414 0.08637039 0.119415976 0.05619957 -0.0068996535 -0.021183437 -0.053965427 -0.03900126 0.09069144 -0.08508221 -0.11047282 0.08175386 0.064419806 -0.029875278 -0.11504263 -0.0069453344 -0.0021030975 -0.17002605 0.24596415 -0.10159972 0.011390295 0.019956386 -0.1363558 0.019777233 -0.031355884 0.14144698 -0.22925502 0.09203023 0.078840934 0.08127219 0.06211197 -0.057408366 -0.01003562 0.0704558 0.044878557 -0.039559577 0.12152114 0.086006515 0.08485479 -0.12855318 -0.21964863
223 0.054776233 0.24469274 0.15154734 0.06860332 0.0039644963 -0.10948314 0.07124174 -0.17403476 0.035060227 -0.14883676 0.0143485805 0.07608348 -0.1434364 0.052209057 -0.02166883 -0.18417346 -0.11477546 -0.06067698 -0.22896314 0.09533913 0.19693938 0.14302002 0.08123399 -0.09886479 -0.011971458 -0.08887717 -0.10111289 0.09388787 0.011694173 0.1754908 0.04257002 0.20032234 0.11737892 0.15621242 0.13940647 0.14025049 -0.038598076 -0.051938277 0.037508707 -0.026132729 -0.11027807 -0.046262022 0.067028366 0.16168976 0.035190728 0.038388792 -0.016607253 -0.0936914 -0.005339234 -0.045617893 0.09157291 0.046606302 -0.13702032 -0.10255183 0.06615591 0.12826379 0.14685974 -0.013831994 0.029615983 -0.017383393 0.073401645 0.14520356 -0.079514 -0.12734137 0.20396978 -0.08938763 -0.018721186 0.07141117 0.053372275 0.037352156 0.010378519 0.07344972 -0.19587384 -0.0030951502 -0.008740063 -0.08218464 -0.014438773 0.031217178 0.052772123 0.0549079 0.006495396 0.09737238 0.041752115 -0.07997349 -0.18423021 -0.005488531 -0.068023525 0.0033124874 0.07288775 0.2955494 0.09597146 0.041352198 -0.046786077 0.04034646 0.028359741 0.16131122 -0.15628327 -0.06446721 0.042843115 0.0778028 0.013081784 -0.13114735 -0.05474854 0.11161949 -0.066082045 0.053166848 0.017598867 -0.08919871 0.010668886 -0.027743967 0.12325313 0.0015050103 0.15134202 -0.038746998 0.02813242 -0.013690366 0.06509233 0.22040318 -0.03942511 -0.10425654 0.18748453 -0.028853789 0.05560324 0.078937195 0.23948511 -0.08173628 -0.08833198 -0.052678894
600 0.11774064 0.09028501 0.043725025 -0.0011335135 0.032308374 -0.046622157 0.008707468 -0.17955072 -0.023383139 0.013988232 0.016584944 0.0070348713 -0.23531729 0.16462037 0.010005618 -0.0070678797 -0.04151875 -0.14771193 -0.096541464 -0.031132873 0.087284125 0.08744256 0.036467623 -0.06142014 -0.066871725 -0.048353642 -0.22839735 0.05500074 0.02177947 0.13250607 0.14325202 0.00066114543 0.1984194 0.105007105 0.14336945 -0.0057898876 -0.13226365 -0.09597557 0.09047453 0.06103659 -0.05215797 0.05911648 0.028708013 0.19517493 0.042665534 0.057286948 -0.060226627 -0.067512736 0.00038598067 -0.13754632 0.1109446 -0.09468714 -0.069819525 -0.15929289 0.054329935 0.24343994 0.061502025 0.0100777745 0.1386001 0.056931354 0.10603144 0.20026624 0.049095344 -0.11422471 0.16736488 -0.01249611 -0.06388875 0.109678425 0.14016151 0.017580103 -0.12229916 0.06686124 -0.18070011 0.050201092 -0.03400306 -0.07368856 0.013140702 0.05457654 -0.009608877 -0.009201586 -0.07383932 0.20138973 -0.08745425 -0.005103349 -0.041365042 -0.11597985 0.060521446 0.14518209 -0.056869492 0.19422258 -0.090504184 0.15140064 -0.08786385 -0.05565587 0.099344835 0.063953415 -0.104457125 0.081876904 0.05698262 -0.019843927 -0.076112516 -0.18804416 0.055709332 0.057618756 -0.1853666 0.08188249 0.07146077 0.020099087 -0.019139908 -0.10186181 -0.004362651 0.060072128 0.104902886 -0.101908535 0.035597023 -0.009820282 0.092302784 0.23838843 -0.08103231 -0.013229258 0.08678805 -0.13365531 -0.043799456 0.07686046 0.15383643 0.024979495 -0.21935347 -0.12230606
434 0.12433262 0.23058504 0.027155465 -0.01897378 -0.042703573 0.01229315 -0.016887993 -0.19997782 -0.081940584 -0.10548186 -0.16151176 -0.03722621 -0.10499802 0.13501698 -0.09033134 -0.06623657 -0.095738195 -0.069893554 -0.020628959 0.22562645 0.0939748 0.039724864 0.043402616 -0.12298486 -0.04438086 -0.037057016 -0.16729099 0.032239288 0.06479209 0.041143537 0.12830095 0.016456515 0.25838494 0.13511644 0.09351933 0.08379665 -0.009867198 -0.04263648 0.09796396 -0.030897327 -0.065315925 0.07756271 0.09578002 0.30903092 0.015169534 0.016464148 -0.007456638 -0.070695214 0.101217665 -0.03625097 0.23564109 -0.25924885 -0.0739099 -0.10755633 0.037204172 0.1332983 0.01928331 0.012385949 -0.022005329 -0.052601267 0.014442157 0.2152186 -0.08953971 0.025707314 0.16758996 0.01593195 -0.07361267 0.085530594 -0.04304395 -0.15871271 -0.09749926 0.022190185 -0.15758501 0.07620889 0.04169548 -0.07755838 -0.05523938 0.09600921 -0.060018156 -0.033867273 -0.11688938 0.050996836 0.021519927 -0.06242816 -0.07301315 -0.08128005 -0.100657456 0.075463444 -0.118220344 0.14852221 -0.039333593 0.0075116814 0.011000147 -0.09577771 -0.033736706 0.0747834 -0.08860956 -0.016079733 0.12875473 0.031845838 -0.005729587 0.0027379533 0.10254332 -0.060161956 -0.24501134 0.072210476 -0.018219959 0.072460964 0.07255084 -0.142785 -0.02356494 -0.023205679 0.22014004 -0.17858994 0.15519367 0.12879372 0.090893604 0.08922936 0.10755307 0.10353728 0.09530355 -0.0870394 0.038495634 0.096399926 0.028846586 0.1668662 -0.2185207 -0.25871074
294 0.15473504 0.106643245 -0.13642754 -0.003126475 0.041750927 -0.13418686 0.16763958 -0.28505135 -0.097891964 -0.040618133 -0.09579924 0.08863612 -0.1224448 0.07598271 0.057775795 0.016400456 0.066317275 -0.13629141 -0.0043826867 0.15216795 -0.06456842 0.03892125 -0.13488457 -0.08186306 -0.03213767 0.034807846 -0.03776564 0.2027278 -0.0681672 0.06053671 0.32027215 -0.037924074 0.2319373 -0.0023089864 0.022000015 0.13044745 0.063187025 0.16333665 0.097146325 -0.0016526879 -0.11203778 0.08882812 0.12187305 0.115053564 -0.08996032 -0.041530382 0.009383362 -0.11926964 -0.018791733 0.09726437 0.07992413 -0.20484388 -0.19683906 0.20206667 -0.045615826 0.14945894 0.19308002 0.008595588 0.08486746 0.09586839 0.023532858 0.14761718 -0.17567782 -4.3868567e-08 0.21945323 -0.06772782 -0.16944546 0.14499322 -0.17589004 -0.011039656 -0.15247369 -0.15608378 -0.20541096 0.0774139 -0.05822853 -0.13813542 -0.042037662 -0.04765939 -0.21567559 -0.20320292 0.038568683 0.17034751 -0.12281406 -0.17552589 0.30907902 -0.16889694 -0.015749432 -0.06532807 0.038585767 0.0670316 -0.09125639 -0.047677107 0.14380048 -0.05016914 -0.026640601 0.25323182 -0.08840948 -0.13511406 0.023692949 0.15185933 0.11397481 -0.14365107 0.049690705 0.09443245 0.030135868 0.19563237 0.022949679 -0.13031177 0.07752715 0.07476594 -0.041173972 -0.18288013 -0.12107337 0.027949631 0.22992358 0.16973965 -0.010903525 0.10206 -0.051294994 0.084708296 0.026740383 -0.17609544 0.1482489 0.006708605 0.053861808 -0.057685543 -0.40471414 -0.13494913
537 0.15533927 0.20348053 -0.050471403 0.016033048 0.053636983 -0.056444604 -0.11470479 -0.14276873 0.037483655 0.039315082 -0.1424589 -0.028499104 -0.047846638 0.10471561 -0.032270677 -0.17600216 -0.12235181 -0.11911943 -0.01667032 0.04706165 0.19517703 0.049039707 0.10124442 -0.06498657 -0.090256475 -0.07034146 -0.1546825 0.049400784 -0.039670177 0.116096444 0.08724518 0.10450861 0.28070086 -0.0062660556 0.18724674 0.16405883 -0.12815315 -0.06370195 0.19026792 -0.048748944 -0.11212402 0.060698126 -0.067314714 0.20013674 0.10607168 0.109128736 0.016331548 0.009554188 0.10517134 -0.023976028 0.17531647 -0.08354752 -0.07888906 0.013265778 -0.025784155 0.12777326 0.10926439 -0.022493135 0.06513351 -0.15551269 0.03025967 0.04752284 -0.03543834 -0.051861633 0.037580043 -0.10993902 0.04855296 -0.01681857 0.058518305 -0.05435579 -0.12720871 -0.08890182 -0.1798469 0.043480948 0.00908817 0.039617863 0.084912784 0.022612697 -0.06429028 0.012526059 -0.0037649984 0.0010018045 -0.012743496 -0.10227747 -0.027868398 -0.19278942 -0.13534246 0.021652194 -0.06876474 0.053565122 -0.08723834 0.19043782 -0.15822625 -0.11157765 -0.060929455 0.174927 -0.040330566 -0.051626254 0.04479218 0.053655777 -0.012667755 -0.08359608 0.024098143 -0.029031798 -0.025888806 -0.099662915 0.13273059 -0.080003455 -0.020437874 -0.16641119 -0.008482411 -0.13261633 0.13723232 -0.0974865 0.06826898 0.14326158 0.068308346 0.26086876 0.02710553 0.1404197 0.11379779 0.0069084307 0.0470221 0.07787629 0.045550212 -0.013840064 -0.1360471 -0.11373839
802 0.04608329 0.093029425 -0.07239453 0.0685523 -0.1102532 -0.17230643 -0.0365989 -0.083235316 -0.054242983 -0.15667464 -0.0348906 -0.0021972521 -0.0596599 0.06508738 0.14314105 -0.12154393 -0.060720053 -0.13941495 -0.048557986 0.070265725 0.15067106 0.09041895 0.11453487 -0.09638274 -0.015191513 -0.09546011 -0.08340409 0.06943283 0.0578922 0.119254984 0.15951248 0.100311756 0.10046674 0.055516448 0.19398703 0.07967417 0.08415905 -0.011025718 -0.02241217 -0.02530303 -0.16732821 0.0068292436 0.060310856 0.23395655 0.041630693 -0.0075881807 -0.057653554 -0.11001826 0.12010241 -0.016201152 0.20836346 -0.004061241 -0.18278253 -0.20294988 0.009568101 0.040464822 0.2605996 -0.012617615 -0.016780805 0.06330433 0.035975967 0.14035754 -0.010049579 -0.041967873 0.13185035 -0.09113089 -0.11552452 0.118035235 0.04523062 0.034426667 0.004790969 -0.0968628 -0.13740914 0.02213148 0.011264129 -0.0869761 0.082606226 0.030109009 -0.042699732 0.024562132 0.042363457 0.07701262 -0.0214618 -0.18246979 -0.11058386 -0.06833291 0.012018246 -0.04028229 0.099002674 0.29251108 0.0999489 0.0534319 -0.023642069 -0.020545466 0.08745264 0.20196322 -0.19983552 -0.20647343 0.10525314 0.107355855 0.018143147 -0.07729729 -0.048521817 -0.100969575 -0.06961031 -0.024392871 0.023049645 -0.08191025 -0.06282837 -0.11779699 0.055069737 -0.045365587 0.06393467 -0.0010082274 0.021468712 0.018097533 0.10883887 0.19909851 -0.05624501 -0.13902657 0.07882706 -0.059320517 0.14552665 0.033244554 0.13687298 -0.12462761 -0.12077473 -0.28682205
73 0.047029264 0.2766223 0.20786634 -0.08442345 0.055592917 0.019380076 -0.03859626 -0.16647092 -0.1650251 -0.3299341 -0.052212976 -0.0404606 -0.013669695 0.0729769 -0.0014890588 -0.15882629 -0.14605036 -0.035568345 -0.0043603126 0.19688712 0.23485394 0.0702802 0.09898046 -0.09941715 -0.14051928 0.030361032 -0.05159043 0.067487665 0.08342069 0.037458517 0.041866083 0.19573216 0.19371437 0.17185734 0.10852447 -0.009864128 0.11737929 -0.02766007 0.065057084 -0.062002618 0.06782129 -0.1020349 0.0885223 0.19011568 -0.02660915 0.11639566 0.09273481 -0.103450865 -0.058150023 0.04849994 -0.05745164 -0.11442034 -0.17586032 -0.08399438 0.020559581 0.1415576 0.053568024 0.093778014 -0.0032382351 -0.030876268 0.046854712 0.16468883 -0.16622433 -0.026088664 0.25343573 -7.630439e-05 -0.077228524 0.0567649 -0.08383901 0.0027401694 -0.0038131825 0.10459373 -0.07716078 -0.062355272 0.051219814 -0.06525641 -0.13765949 0.09248618 0.04492302 -0.087946296 -0.0258878 0.110715225 0.018578606 -0.022179827 -0.22578873 -0.11641151 0.01721451 -0.016889602 0.15742962 0.26678005 0.040543444 -0.06267297 0.043705866 0.03463956 0.07980507 0.2358718 -0.16681708 0.026065957 -0.0005243089 0.12428067 -0.0071802903 -0.06024754 0.027579935 0.08086977 -0.094457366 0.08595455 -0.16963556 -0.10125668 0.11860926 -0.037983537 0.14398207 0.06680721 0.16456878 -0.18364914 0.1563153 -0.025486058 0.03550631 0.061241146 -0.009452859 -0.1640606 0.06746611 -0.0006051304 0.06527958 0.024264839 0.20389599 0.051522627 -0.0012528592 -0.046199437
292 0.09746497 -0.091011666 0.066277765 0.19776526 -0.033205584 -0.070742816 -0.044259053 0.0044436906 -0.14080206 -0.13413872 -0.057677336 0.07023494 -0.08857197 0.015389317 0.052430212 -0.12286235 0.117353745 -0.08839444 0.04425445 0.03283281 -0.090042 0.14118022 -0.028102435 -0.19297877 -0.006953102 0.0860124 -0.12760851 0.07134482 0.07197499 0.031216491 -0.15299124 -0.11812338 0.03531319 -0.02196304 0.049045805 0.047698323 0.0051703653 -0.008350202 0.11860929 0.034170188 0.029024549 0.0012699639 -0.023306685 0.1700207 -0.05067708 0.19514915 -0.10126914 0.08526989 -0.0473486 0.043437496 0.11472502 -0.017076204 -0.027458785 -0.11077316 0.030088376 0.03994183 0.0644082 -0.028133456 0.10583826 -0.0025893077 -0.024720445 0.114087306 -0.20237777 -0.007414432 0.14272678 0.08113656 -0.19431601 -0.04179575 -0.065403335 -0.051496647 -0.001509887 0.108390115 -0.19267641 0.02168599 0.071636155 -0.09164551 -0.16005531 0.1436064 -0.020070005 0.032258183 -0.12083211 0.040216945 0.047172252 -0.1361534 0.006283204 -0.19736072 0.0122739 -0.0009824296 0.14868547 0.032327954 0.15956058 -0.018239094 0.0024798643 -0.11236889 0.012947636 0.001134044 -0.037298884 -0.07227859 0.084192336 0.10812059 0.10647516 -0.10848024 -0.14453612 0.0030872189 -0.0024491819 0.14164227 0.06458963 -0.026351528 -0.023094878 -0.07409622 -0.079572186 0.035301886 -0.014772414 -0.15004711 -0.00038546877 0.045532186 0.06452919 0.02058991 -0.070788935 0.030701527 -0.04818974 -0.07617278 0.12558548 0.051623646 0.029195582 0.0044078757 -0.077805236 -0.22315949
860 0.18363582 0.040522054 -0.0044243606 0.14513876 -0.0059149195 -0.099786505 0.0045020054 -0.033893086 0.02527331 0.05139273 -0.12376502 0.027639441 -0.12575528 0.0774358 0.10067815 -0.09361527 0.013642454 -0.046562728 0.07060825 0.07137663 -0.08335458 0.12124854 -0.0074437913 -0.16007805 -0.012318541 -0.036476165 -0.10087412 0.022806369 0.08851447 -0.0032485398 -0.064176925 -0.11451977 0.24388593 -0.12610531 0.04424247 -0.08180374 -0.0285138 0.046666227 0.02752048 0.08256791 -0.11780508 -0.013408394 0.012151693 0.12849373 0.013918552 -0.017620921 -0.0629095 0.022521613 0.10126121 0.060359005 0.10935015 -0.039462034 -0.07520668 -0.16782477 -0.019982684 0.036668375 0.0843787 0.09928952 0.0892563 0.12786186 0.050692547 -0.06892733 -0.1639822 -0.0052985083 0.068148725 -0.051767047 -0.22676677 0.03885041 -0.016301593 0.0402444 -0.1170753 -0.08804793 -0.14867198 -0.023462279 0.05471752 0.044123933 -0.05171116 0.045345336 -0.09629853 -0.15110287 -0.09036778 0.08645734 -0.024311682 -0.24734408 -0.02628199 -0.12403719 0.018120266 0.0056556426 0.056072876 0.09011633 0.12088745 0.05034236 -0.053817205 -0.059242863 0.10220648 0.08487733 -0.09371386 -0.013197834 0.06960177 -0.06904561 0.07685558 -0.22578415 -0.11528712 -0.010927589 0.0043731737 -0.13357997 0.18866953 0.00531425 -0.060461707 -0.05517509 0.098009564 -0.04376247 0.021164933 0.0071137347 0.016134717 0.105230115 0.14460686 0.06770709 -0.048033703 -0.086795084 -0.06582301 -0.15473725 0.17225055 -0.09248994 0.044584163 -0.017380383 -0.17431505 -0.1711585
854 0.16429006 0.043995284 0.103533775 0.1341631 0.033240736 -0.10469009 -0.006138698 -0.056590885 -0.16941991 -0.11123635 -0.023866933 0.0819358 0.03876191 0.059472077 -0.015163431 -0.2402518 0.040796343 -0.033421516 -0.15134786 0.07601292 0.06742536 0.18439476 0.071350046 -0.13486354 0.027260356 0.05480546 0.00031603445 0.1255182 0.17899062 0.051905368 -0.17935455 0.10681041 0.1214845 -0.007102066 0.056443788 0.0893205 -0.03665062 -0.024088258 0.116024524 0.016667286 0.00768831 -0.07244371 -0.059862718 0.18158159 0.056435816 0.036101803 0.048282444 -0.070049554 0.01619282 -0.070940554 0.078713685 -0.08914705 0.07693172 -0.18017137 -0.002929767 -0.01670647 0.0001809352 -0.011527138 0.053647097 -0.017402481 0.06828054 0.012131726 -0.18992282 -0.03993011 0.09142336 0.14688975 -0.07299377 -0.022983704 0.05066878 0.100644745 -0.0070317206 0.17873397 -0.24812306 -0.002681571 0.091224566 -0.09853838 -0.026335202 0.11893524 0.03912155 -0.044074398 -0.03380886 0.11195472 0.014524608 -0.12404355 -0.18031742 -0.06314878 0.041767124 -0.0007315994 0.036349207 0.053216126 0.11591142 0.0043275985 -0.0819296 -0.034210306 0.035220817 -0.005100368 -0.17076795 -0.10471853 0.0072666323 0.036757767 -0.030340947 -0.059863918 -0.12682341 0.15311435 -0.07395673 0.002017827 -0.08162931 -0.041369926 0.13750666 0.025264356 0.04354305 0.14432459 0.09463275 -0.24651393 0.045437917 0.058791846 -0.0038803313 0.07554655 -0.12087282 -0.15339805 0.11400186 -0.12718654 0.10794461 0.104132116 0.057466738 0.08264956 0.04651762 -0.010249004
800 0.18571854 0.15919122 0.008873795 -0.012220199 0.15936758 -0.10735951 -0.1023117 -0.18879251 0.0004243442 -0.14855629 -0.11830977 -0.046320282 -0.09021227 -0.030913569 -0.043819297 -0.121917516 -0.09418122 -0.16971613 -0.08458091 -0.012095729 0.039245985 -0.019198447 0.07476352 -0.04656418 -0.053329647 -0.12242064 -0.21520829 0.1316844 0.017840577 0.15597345 0.20238139 0.09919735 0.15551701 0.17460509 0.10315426 0.12534438 -0.11344716 0.122759394 0.15910795 -0.004670295 -0.13409966 -0.05279262 -0.151661 0.17798993 0.09026 0.1513314 0.11780951 -0.03806213 -0.0010989925 0.13055044 0.17571168 -0.21664925 -0.18203658 0.03866175 -0.14899975 0.077200726 0.041167933 0.011886671 -0.06954846 -0.09197858 0.11467992 0.11447553 0.00952228 0.022842746 0.2458308 -0.045489468 -0.10104222 0.14671041 0.03476752 -0.08356942 -0.05731536 -0.14950368 -0.16104761 0.041953392 0.05102419 0.047603074 -0.038789023 0.070867725 -0.05707417 -0.01157513 0.1222642 0.018668896 -0.15810874 -0.16100632 -0.049984828 -0.27608868 -0.12615925 -0.027062207 0.054079562 0.013862671 0.094348624 -0.045773324 -0.115545 -0.040739734 -0.0014412021 0.118590996 -0.17759727 -0.110700086 0.093590476 0.013645083 -0.08181776 -0.12187574 0.0046419287 0.05767504 0.018998565 -0.070455596 -0.00015061427 -0.17230597 0.03763064 -0.019901348 -0.11523003 0.060419 0.13719907 -0.09217468 0.1520065 0.037708674 -0.040772486 0.15208697 0.1736668 0.023502562 0.06833522 -0.07321187 -0.026160378 0.09413485 0.12809987 0.0864807 -0.14782988 -0.13594636
624 0.075609244 0.12946746 -0.09863883 0.07857672 -0.025682958 -0.098714516 -0.09551414 -0.16235378 0.057408754 0.06832829 -0.10204551 0.028361533 -0.063910544 0.110646404 -0.019279152 -0.20336927 0.0042666965 -0.24731097 -0.0063252654 0.24026626 -0.008525802 0.035303667 -0.0832473 -0.05654855 -0.0778926 0.010682041 -0.20068698 0.0829832 0.05021847 0.035997935 0.06386967 0.030841164 0.23133053 0.04257961 0.24597594 0.09848801 -0.24885793 -0.07119143 0.13966922 -0.06447776 -0.17259397 -0.02745605 0.0965691 0.18120225 0.115024224 0.082495905 -0.038689587 0.13082142 0.11481657 -0.12899238 0.18154268 -0.067651026 -0.098502874 -0.017196469 0.07223343 0.044071537 0.0719642 -0.067643315 0.17499 -0.087850094 0.16469082 0.056551136 -0.027600182 -0.025482833 0.17819463 -0.11166213 -0.016858367 0.07176265 0.03875415 -0.039410636 -0.12081824 0.031433955 -0.22530614 -0.010565499 -0.028899899 -0.09053406 0.027676202 -0.042035263 -0.10230534 -0.094351806 0.007881467 0.15646249 -0.087457925 -0.16979049 -0.019492092 -0.14080334 -0.15808341 -0.060411446 -0.0235784 0.004830793 -0.019567316 0.12604468 -0.10938602 -0.04679248 0.1030865 0.13437924 -0.033438914 -0.07631346 -0.0068058237 -0.030643672 -0.08095008 -0.14758624 -0.06227881 0.0236924 -0.0067398115 -0.012900081 0.08864459 -0.018481482 -0.0010958147 0.040655136 0.047096215 -0.23723802 0.19269636 -0.06585731 0.051043294 0.11973124 0.012677879 0.17091261 0.036218617 0.0672767 0.1276527 -0.20329751 0.044444446 0.11634911 -0.048732232 0.0024382567 -0.16502404 -0.17401037
578 0.078454405 0.25931218 0.05224875 -0.04964774 -0.07864075 -0.08316494 -0.09241467 -0.23726164 -0.09370293 -0.019469567 -0.059946407 0.077511914 -0.09821387 0.25011617 -0.08877423 -0.15382333 -0.11799425 -0.21926062 0.040581577 0.13645391 0.15433179 0.09887879 -0.054544456 -0.16384447 -0.1390558 0.1426844 -0.18653964 0.033866983 0.10352934 -0.020171339 -0.023942163 0.121459134 0.25130305 0.1379869 0.12160983 0.1129121 -0.0023193248 -0.13377894 0.18377034 -0.11900754 -0.05622529 0.07154573 -0.007833947 0.2984781 0.04004451 0.13606688 -0.026081955 -0.053999875 0.1341801 -0.093003705 0.0967544 -0.09935387 -0.039306387 -0.053275667 0.1307786 0.13140738 -0.044434667 -0.115669325 0.11216723 -0.06748738 0.053753104 0.14579967 -0.11084558 -0.05391116 0.1800458 0.00041546853 0.042418033 -0.062301572 -0.016108196 -0.0022861136 -0.026021672 0.15080315 -0.20602962 0.043682553 -0.014269857 -0.025339602 -0.1156491 0.057295486 -0.09272285 0.09105613 -0.10868248 0.0461558 0.020528572 -0.19211292 -0.09403997 -0.029782774 -0.11327757 0.1143875 0.023058726 0.28247496 -0.15051809 0.08292363 0.0027695629 -0.106446534 -0.08321383 0.12318304 -0.0657451 0.07654866 0.08003629 0.13070455 0.014761721 0.0144281965 0.066473775 -0.03843415 -0.08999114 0.122489944 -0.020505056 -0.030140461 0.1740051 -0.07640176 0.03390253 -0.025003402 0.12697984 -0.17130063 0.09937984 0.14299738 0.10420037 0.08474639 -2.4185398e-05 0.0070869145 0.21776678 -0.12493197 0.06361417 0.10216375 -0.03398869 0.117377505 -0.01970596 -0.11500359
52 0.121119484 0.2223226 -0.0383445 -0.11178349 -0.19840318 -0.16778216 0.15686303 -0.23868963 -0.005032728 0.037963156 -0.11163646 0.20744787 -0.11719392 0.14584573 0.08628423 -0.15553474 0.109339215 -0.063443616 0.10842352 0.15701695 -0.038473863 0.07671301 -0.025717443 -0.036052145 -0.16289638 0.19393872 -0.11171324 0.029906338 -0.045557532 -0.027175725 0.009666501 0.11903339 0.22229326 0.13810337 0.20545752 0.052194986 -0.08303259 -0.019267906 0.027266314 -0.14313872 -0.058464266 0.2009788 0.16312696 0.12343108 -0.061005883 -0.050443985 -0.06386997 -0.093949005 0.21531427 0.120192066 0.15538807 0.024555985 -0.06589731 0.069481306 0.10215937 0.17034706 0.04171813 -0.08722914 0.17759217 0.008250794 -0.022089276 0.07561955 -0.33088076 -0.22877306 0.032736722 -0.13173114 -0.006245689 0.031937014 -0.030306952 0.013575621 0.023528358 -0.061672352 -0.2721482 0.117588535 -0.100120366 0.0038681522 0.11779698 -0.117648795 -0.05400684 0.03080866 -0.08568612 0.048943944 0.016312515 -0.19717233 0.031734988 -0.1491272 -0.0482183 0.15061308 0.11341509 0.26079622 -0.04127594 0.026965396 0.0783656 0.0076077124 0.09050296 0.23224135 -0.16781183 -0.110824585 0.005676427 0.21763541 0.2641755 -0.052742448 -0.079867475 -0.1176904 -0.036304228 -0.00042558223 0.13450457 -0.15709916 -0.025607856 0.019286936 0.3483858 -0.04322874 -0.047794856 0.12820524 0.21843356 0.23164584 -0.006560505 0.08910102 -0.15292728 -0.028340973 0.18076168 -0.09488925 0.18488452 -0.029782614 0.15443967 -0.0629267 -0.2541159 -0.02525765
791 0.17122619 0.091161005 0.059964396 -0.06422947 0.10104757 -0.08089403 0.06739786 -0.08759672 -0.06780549 -0.0808289 -0.17590252 0.070135266 -0.13535348 0.07921838 0.15310267 -0.17289433 0.026410634 0.20448379 -0.040455174 0.120381996 0.069789365 0.13031101 0.012089997 -0.10230184 0.05101936 0.085921966 -0.015069359 0.0843288 -0.1284591 -0.062377933 0.23320718 -0.092392415 0.3979888 -0.080591336 0.10933519 0.12783675 0.014180708 0.10419002 0.11372786 -0.00939407 -0.081171 0.15112664 -0.025542418 0.005867582 -0.07250234 -0.18089452 -0.12327715 -0.27960792 -0.09727183 0.29076815 0.057071302 -0.2397773 -0.057494987 0.2293828 0.04896681 0.092410624 0.039064094 0.034752756 0.049773466 -0.0031633251 -0.10551335 0.09620408 -0.20641336 -0.16039912 -0.0820707 -0.15866211 -0.07053224 -0.029612442 -0.061109908 -0.062058043 -0.090427704 -0.12041484 -0.1044402 0.12705645 0.18372117 0.13498111 -0.07921893 -0.043641735 -0.093707636 -0.07009711 0.005020209 0.067651644 -0.050220944 -0.047922175 0.048205115 -0.0925802 0.022477238 0.05083478 -0.1255955 -0.021388778 -0.005236511 0.053496066 -0.11635172 -0.058876712 -0.1015368 0.15470722 -0.06502983 -0.000797392 -0.099718906 0.002309443 0.08811501 -0.03840987 0.13998657 0.09670045 0.036004823 -0.11189629 0.12248852 -0.0068338625 0.11083061 -0.111517616 0.19102857 -0.095209 -0.02926067 -0.0519438 -0.017604807 0.19363363 -0.036050998 0.18317224 0.0011012157 -0.026718676 0.18582031 0.03831946 0.14687026 0.0030790318 0.014800998 -0.038049437 -0.244089 0.14234251
363 0.09113527 0.104817644 -0.044233754 0.17095898 0.020375878 -0.07011823 -0.055827197 -0.13917585 0.044965837 -0.08008809 -0.08856817 0.065323986 -0.043045774 0.082900405 -0.007462904 -0.11570277 -8.250198e-05 -0.1333887 -0.16964573 0.14433198 0.05470508 0.040144913 -0.017711159 0.003419953 -0.0038902676 -0.063411705 -0.11144311 0.07520183 0.08602095 0.1264136 0.15769447 0.11460042 0.113530435 0.077585705 0.12951446 0.038281817 -0.16840144 0.012979552 0.040779736 -0.030586567 -0.21402404 -0.116384104 0.065703966 0.1747818 0.028885722 0.091808125 -0.0039601824 0.071443096 0.11366688 0.05664297 0.16843712 -0.09961275 -0.22782901 -0.007603171 0.022084102 0.068271466 0.13839239 0.07748633 0.021340106 -0.06492244 -0.030391706 0.14246368 0.096718095 -0.0010077339 0.20835891 -0.05830975 -0.059398852 0.13816819 0.06983796 -0.06674006 -0.079561986 -0.06579565 -0.2303558 0.060438983 -0.025075424 -0.10460158 -0.026018593 0.053177163 0.017866455 -0.07687479 0.1250737 0.1308635 -0.18218188 -0.0962122 -0.08554699 -0.1371475 -0.15444948 -0.12666439 0.16516909 0.084372245 0.119536236 0.011662114 -0.1066509 -0.0074585155 0.061605696 0.10459149 -0.05936349 -0.15812503 0.04425095 -0.06329536 -0.15138339 -0.18459277 -0.099442214 0.10684543 -0.0067695137 0.10619835 0.09470238 -0.05022356 -0.002332627 0.10291497 -0.006398466 -0.11309953 0.13186792 -0.070864305 0.081226386 0.05948882 0.0036567948 0.20108505 -0.019677743 0.019403499 0.07436798 -0.08799158 -0.017159501 0.13066441 -0.004660726 0.044285323 -0.1864575 -0.23167181
109 0.3148684 0.034700934 0.00011920033 0.11390474 0.07394204 0.015229034 -0.038162384 -0.022492616 -0.11850602 -0.057844587 -0.09997575 0.107932806 -0.07648651 0.09496546 0.12644348 -0.09151588 0.026207976 0.026926393 0.016767912 0.17872621 -0.07734732 0.14870477 -0.07577622 -0.020532742 0.06287053 0.04941894 -0.017963823 0.077784985 0.16649434 -0.037036214 -0.044532645 0.027202794 0.2739414 -0.049533267 0.014959095 -0.024238123 -0.08672815 -0.02193663 0.055708434 0.07084812 0.0011805214 -0.0018980729 0.0051576723 0.22537127 -0.08027806 -0.018416008 -0.11191374 -0.023935568 0.07889301 0.033507973 0.14629614 -0.21213746 0.10177964 -0.111528344 0.0650313 0.055497903 -0.033940304 0.02830632 0.06494738 -0.003922236 0.12933572 0.059717834 -0.17275348 -0.014339183 0.04923608 0.057183992 -0.021526275 0.07897482 -0.07735334 0.08401852 -0.12503667 0.07903291 -0.1439344 -0.058646657 0.14146604 -0.08317147 -0.108835556 0.13354035 -0.029235065 -0.15892656 -0.10209241 0.056612264 -0.00388156 -0.08741725 -0.1468225 -0.08264267 -0.0534281 0.08055239 0.034290817 0.058096815 0.050775744 0.04792836 -0.08786602 -0.09557685 -0.0025020407 -0.057889838 -0.11409955 0.018372282 0.06532529 -0.06751057 0.033777643 -0.06488202 -0.004358585 0.081570014 -0.024667822 -0.05103385 -0.026700923 0.06386514 0.009429863 -0.07528387 0.09950101 -0.11023446 0.039604347 -0.26494122 0.05447686 0.23843424 0.110784315 0.050935365 -0.06629302 -0.0041422383 0.019141354 -0.13238882 0.12325104 0.035109214 0.027101662 0.09105599 -0.0651417 -0.14184308
271 0.12275948 0.10078792 0.07101391 0.05720532 0.12978472 -0.02028976 -0.016025674 -0.14281522 -0.009119867 -0.028496766 0.008928301 0.09391508 -0.14739783 0.08544922 0.06375018 -0.15769081 0.012782864 -0.012252854 -0.05186086 0.018274877 -0.041965924 0.14301781 -0.107982896 -0.18378466 -0.013958383 -0.015949333 -0.14423238 0.017465303 0.11335881 0.09194661 -0.11345789 -0.017261785 0.22753976 0.00048093987 -0.0020557104 -0.09242387 -0.21903966 -0.024442649 0.17229533 0.015314798 -0.031096546 0.006867411 0.05987431 0.118279375 0.05641602 0.018841729 -0.09211193 -0.027041605 0.00065135973 0.021577792 -0.024125148 -0.08844192 -0.0024375848 -0.14316699 0.029780049 0.11301721 0.09534375 0.04414197 0.11950875 0.11740284 0.16805598 0.04369901 -0.15676047 -0.07802915 0.103388235 0.014554101 -0.040914737 -0.03338335 -0.08331553 0.094454944 -0.14854677 0.08672035 -0.059072915 -0.0546211 0.07571305 0.0078208335 -0.04916184 0.04099842 -0.03025483 -0.11046739 -0.0867457 0.15026699 -0.012905811 -0.12492371 -0.08218996 -0.14585933 -0.06971093 0.012275788 -0.035071258 0.113461554 0.09210803 0.08423285 -0.12404151 -0.029729616 0.076376095 0.04952139 -0.123090096 0.0015883715 -0.009399086 -0.06893816 0.007281854 -0.14336757 -0.074935846 0.12692697 0.10280231 -0.079967454 0.021323806 -0.0020684237 0.071611986 0.036601737 0.20561165 0.004362389 0.024236016 -0.10144301 -0.038819656 0.123842575 0.045797225 0.1135834 -0.09699869 -0.05249452 0.045413613 -0.1959946 0.115011476 -0.041201346 0.11196903 -0.0017985497 -0.15686044 -0.07520151
147 0.11395824 0.12629153 0.021169983 -0.11378933 -0.06421318 -0.1748674 0.066245005 -0.16268784 0.022447938 -0.14963646 -0.11423566 -0.117242575 -0.13894053 0.17952548 0.1013781 0.035542935 -0.0098345755 -0.005360497 0.04815733 -0.02829115 0.1774378 0.08416537 0.07558454 -0.2022415 0.05342072 -0.10690271 -0.1660263 0.02476297 -0.0483529 0.13645951 0.13858676 -0.03176163 0.20550162 0.022914736 0.26472226 -0.048413657 0.03866784 0.06256779 0.071884006 -0.00016619233 -0.025862787 0.08417529 -0.13309886 0.1631102 -0.06721836 0.044516288 0.12533076 0.034278464 -0.005535089 0.15055972 0.1144439 -0.061882634 -0.26896074 0.01614258 -0.19235432 0.13116834 0.1303137 0.14071377 -0.10428801 -0.048623644 0.08025868 0.157566 -0.071004555 -0.06078622 0.07074481 0.0071937265 -0.18108502 0.042948116 -0.11197563 0.031887885 -0.12916832 -0.13659745 -0.09602638 0.11665325 0.034995828 0.061426565 -0.004378244 0.04149307 -0.11521942 -0.025654396 -0.08038036 0.17204803 -0.015974661 -0.027371831 0.1795799 -0.16939344 0.017173136 0.07468295 -0.13227709 0.08782408 -0.020322604 0.063531354 -0.08345604 -0.07861726 0.101667106 0.117897935 -0.1296949 0.064022295 0.11086372 -0.014396126 0.06297221 -0.1491667 -0.007887353 -0.08326748 -0.101862796 -0.13335326 0.102305524 -0.00023454972 -0.013322276 -0.22085106 -0.093555756 0.05237469 0.05502587 -0.08739309 0.0645128 0.15881827 0.04560595 0.25231567 -0.05558884 -0.02804748 0.06640919 -0.09000768 0.10288218 0.03131361 0.062108215 0.042252433 -0.11577516 -0.21655253
607 0.14421795 0.09566636 0.07253805 0.027250769 0.06066936 0.045815174 -0.16570061 0.049969025 -0.13047367 -0.11958712 -0.14862917 -0.041717727 0.12847184 0.04581343 -0.0074443207 -0.23177992 0.039042335 0.054312594 -0.18317686 0.054773618 0.13938701 0.094526745 0.16384667 -0.030238232 0.029329116 -0.009126698 0.049377583 0.1416428 0.13321742 0.05447637 0.0072222813 0.15434201 0.2481138 -0.08273657 0.2029495 0.19470344 0.14019486 0.00123743 0.009400248 0.027095988 0.046050128 -0.059790604 -0.05352874 0.21818 0.0070706904 0.05208303 0.12107624 0.02782828 -0.02069668 0.052447487 0.19431625 -0.086335346 -0.031462405 -0.002339101 -0.03924222 0.045896254 -0.00580694 0.06841984 0.056384485 -0.08288363 -0.03376049 0.1312146 0.058625646 0.023217037 0.03561967 0.06691155 -0.08831231 -0.034428027 0.13899268 -0.023779519 -0.099382855 0.0043713385 -0.1325579 0.08626899 0.15918018 -0.0040086294 -0.07330269 0.184223 0.0031715964 -0.013393656 -0.062060893 0.03409388 0.03563307 -0.06641682 -0.15409738 -0.20164573 0.07801823 0.07361596 0.019020839 -0.03689445 0.04172562 -0.019071298 -0.07188259 -0.10006935 0.021403424 0.018461674 -0.12462281 -0.04738637 -0.01626825 0.023896232 0.026881741 -0.028280817 0.038305532 0.10083094 -0.06814916 -0.09935277 -0.05254728 0.0642925 -0.0063176015 -0.2049258 0.04366096 -0.013162877 0.15877631 -0.1982312 0.069135636 0.060497604 0.049967185 0.14970022 -0.061545935 -0.12940921 0.091469154 0.08678478 0.047369376 0.04339713 0.03886774 0.027855823 0.022084622 -0.010467753
14 0.07344358 0.014496985 -0.013183085 0.12938613 -0.0007543765 -0.085745096 0.030414257 -0.2087159 -0.04736184 0.111715384 -0.0799134 0.20736681 -0.2690179 0.027313694 -0.062171534 -0.20849767 0.10612875 -0.12510848 -0.11391216 0.11030187 -0.07681483 0.16380489 0.0023583882 -0.23930359 -0.02212478 0.23418532 0.04988613 0.2071014 0.028054528 0.106889434 0.11741131 -0.02412864 0.14513403 0.033933967 0.1200572 0.29198638 -0.03236145 0.05739926 0.23062697 0.046505958 -0.12841848 0.037169483 0.033687226 -0.03887619 -0.071897015 0.095132366 -0.0015947971 -0.30430582 -0.014857497 0.024191964 0.04436146 -0.19623053 0.030621814 0.08423779 0.06325204 0.06402946 0.12395456 -0.17852117 -0.0040788427 0.10600636 -0.04257921 0.07422349 -0.07143708 -0.15904865 -0.04538377 0.014417978 -0.11095658 0.11301937 0.12728143 -0.01575284 0.055954687 -0.010075352 -0.33665267 0.23303913 0.008798722 -0.089738905 -0.07935914 -0.048176967 -0.08135064 0.009308164 0.118865244 0.2245115 -0.1335375 -0.08177005 0.02984864 -0.10798838 -0.017665291 -0.028543288 -0.09120808 0.033609655 0.07628308 -0.05439556 -0.025071563 0.07769618 -0.03939099 0.13554715 -0.03918958 -0.12458387 -0.09598139 0.059571248 -0.023054201 -0.08658878 0.03641577 0.2103005 0.038684454 0.1634156 -0.055031214 -0.15619995 0.22614427 0.06328054 0.041054897 0.02971082 -0.04831839 0.00411919 0.081361644 0.09365172 -0.13126963 0.082498565 -0.061419185 -0.051369272 0.22414158 -0.17291749 -0.00031329034 0.21081348 0.026012622 0.052872866 -0.3166449 0.08775584
786 0.17771555 -0.007943905 0.017309433 0.17634358 -0.019073788 -0.16176377 -0.034516174 -0.06536929 -0.055052314 -0.057142444 -0.13435999 0.030223086 0.014697386 0.033021268 0.08514517 -0.07371671 0.0020256084 -0.10188578 0.006906663 0.15020655 -0.12266463 0.16657837 -0.09009084 -0.086846374 0.09077818 0.021021813 -0.0866136 0.025194181 0.20657991 -0.014667245 -0.13893066 -0.028269991 0.24308693 0.03358475 0.048055213 0.020260705 0.110384755 0.042427782 0.10217755 0.013407627 -0.021209255 -0.02698526 -0.0030102804 0.20123999 -0.07165208 -0.0059757987 -0.042035237 0.02842206 0.1336924 0.01222383 0.24216068 -0.0998564 0.05436665 -0.07848301 -0.06844625 0.025231939 0.07441095 0.05050125 0.033315778 0.07825931 0.0012158909 0.034352776 -0.22849613 -0.03585678 0.101079136 0.022069503 -0.21644282 -0.033998057 -0.12093891 0.03065036 -0.04293344 0.041658692 -0.1627264 -0.025618002 0.064446524 -0.042888414 0.02717212 0.10482763 -0.1313601 -0.10129927 -0.12026968 0.04786002 0.07008655 -0.21980985 -0.06564632 -0.09785715 0.017195225 -0.01517329 0.022350822 0.07516645 0.07503435 0.010835647 0.006075696 -0.12106286 -0.073686644 0.023718307 -0.08193239 -0.0010491138 0.15503857 -0.01411352 0.13955143 -0.1085341 -0.08117971 -0.0020374649 -0.0018113634 -0.09861812 0.06369626 0.08174462 0.1131702 -0.190547 0.10705581 -0.07074545 0.049725413 -0.24265468 0.07751592 0.18148878 0.13390525 -0.0025536946 -0.02558067 -0.10666216 -0.018886613 -0.12782845 0.20922072 -0.030238992 -0.018344676 0.049889766 -0.08026957 -0.15262304
