958 128
899 0.10930749 -0.08896076 0.018543553 -0.018398248 0.011100143 -0.18892984 -0.10454802 0.09086869 -0.019187244 0.28517538 0.11280362 -0.061325762 -0.10628109 0.06742462 -0.17959514 -0.07828203 -0.2180625 0.07029221 -0.033078037 -0.052537233 -0.05505677 -0.12457458 0.093633056 -0.018430533 -0.036162447 -0.09431126 -0.0006314568 0.081631444 0.04110134 -0.25390422 -0.1279841 -0.11160826 -0.014325825 0.04083354 0.050875243 0.13049088 -0.040113516 -0.10928344 -0.118266545 0.057096478 -0.033556115 -0.059297234 0.07275213 0.0514055 0.35368666 -0.17707989 -0.007979569 -0.03287843 -0.04861119 -0.0348714 -0.14031385 -0.05824073 -0.048032124 -0.08653848 0.017700262 0.104495406 0.060270194 0.26018283 0.27034232 0.047646523 -0.0537245 0.14287351 0.0073000137 0.06948596 0.08888388 0.022678351 -0.016536225 -0.09334785 -0.1468796 0.06130051 0.066783726 -0.050146855 -0.17208469 -0.17854227 0.22980493 0.15240249 0.22564177 -0.025249382 0.0087122535 0.15133995 0.09607266 -0.12163204 -0.094314724 0.0019343273 -0.08957044 0.19562663 0.17774968 0.05932827 -0.080165006 0.040026985 0.09901608 0.03753606 -0.029997503 -0.03669908 -0.1255648 0.0996657 -0.028774234 0.18903492 -0.12981838 -0.13083166 -0.07124869 -0.12850201 0.20873144 -0.06544192 -0.17565106 0.18317655 0.1257313 -0.020014485 0.010273093 0.28812158 0.26834852 0.028609432 7.474211e-05 0.12535217 -0.19037998 0.04906004 0.22638363 0.055840828 0.052386172 -0.0013842015 0.029076764 -0.22040357 -0.006236464 0.043257862 0.10842008 0.08634029 0.047129538 0.08430914
898 -0.12962149 0.10933119 0.10196046 0.292105 -0.107878864 0.012297494 0.016622948 0.03742434 -0.005962401 0.17309134 0.20180348 0.017107584 -0.16618033 -0.12342872 0.015880372 0.041063644 0.024393894 0.2960889 0.04921209 0.17890994 -0.021449056 -0.115099154 0.06495916 -0.012243837 0.17908828 -0.24471764 0.15875764 0.1579249 -0.2171297 -0.05720537 -0.15066157 -0.30336982 -0.12596275 0.034110174 -0.16231805 0.06311314 0.14266312 -0.091120765 -0.23012628 -0.1388933 -0.13783197 0.1700444 -0.1308984 -0.10018603 0.11484049 -0.21340618 0.12828982 -0.09408821 -0.083197705 -0.10326243 0.072732985 -0.04496931 -0.13283731 -0.15054153 -0.16024105 -0.15161282 -0.020772021 0.048992984 -0.11210501 0.13680604 -0.15586537 0.12771392 0.1131386 -0.07933492 -0.105011225 -0.18479162 0.12885551 0.15759273 -0.3695782 0.3739995 0.24700631 0.03796602 0.00018708965 0.23672053 0.16398035 0.06640329 0.12688366 -0.0073380657 -0.024411963 -0.014001841 0.12548919 0.0891386 -0.240326 0.16631651 0.06813805 0.08669424 -0.157214 -0.16129357 -0.12521333 0.04555029 0.22779477 0.14799938 -0.29108322 0.1124682 0.031816 -0.16984217 0.09525262 -0.0934981 0.0961823 -0.21199378 0.011279581 -0.029204348 0.014882987 -0.0017925223 -0.124333516 0.0046826783 -0.03394184 -0.056869965 0.019217728 0.1565097 0.063258804 -0.047333412 0.02545664 -0.07197472 -0.058072474 -0.32368878 0.11639141 0.22977608 0.040284928 0.19944952 -0.054698523 0.03473551 -0.13127498 -0.21917029 0.13422263 -0.0043205377 -0.11005466 -0.021105947
890 -0.025058063 0.19647415 0.2091785 0.34545565 0.093166195 -0.120234646 -0.10101371 -0.067543164 -0.060347833 0.06573058 0.09069083 -0.13576838 -0.014671503 0.115853935 0.023825802 0.13422716 -0.2176731 0.25369078 -0.18125705 0.052698065 0.004156356 -0.06384557 -0.08422095 -0.10202673 0.03384689 0.20428361 0.10484666 0.08308011 -0.05800857 -0.036999438 -0.08063408 -0.3847351 -0.15428041 -0.097504705 -0.1170667 0.108388305 0.33041638 -0.062978126 0.045041878 -0.20865996 -0.083861694 0.32411432 0.021751478 -0.26771155 -0.081264615 -0.28064996 0.11477479 0.059332006 -0.19308355 0.0829673 0.054974586 0.029610263 0.0026326126 -0.27774882 -0.076030016 0.20535812 -0.028093806 0.16519877 0.19550985 -0.02625284 -0.07780058 0.15367907 0.019079976 -0.0508335 0.18412106 -0.10376752 0.030175507 -0.12099945 -0.015759505 0.22606348 0.08025541 0.041051764 0.051781815 0.0253888 -0.0115380455 0.07590846 0.15374851 -0.054925423 0.08721591 -0.087864436 0.2954014 0.025950367 0.2920711 0.10266205 -0.020913305 0.16862679 -0.2694979 -0.20280184 0.19583441 -0.040388077 0.1235759 -0.005278609 -0.20019452 -0.25720432 0.11318793 0.1742223 0.15781364 0.20158914 -0.027615221 -0.26596427 -0.07105918 -0.14954375 0.016805863 0.038219977 0.12808992 0.09962524 -0.060134165 0.09758333 -0.15530172 0.022726651 0.10636676 0.17538032 0.007213389 -0.0854111 0.05054501 -0.16607739 -0.10657815 0.041041203 -0.10398052 -0.06838549 0.16929226 0.01869652 -0.25110245 0.3011358 0.17409559 -0.14426395 0.06990542 -0.002589256
897 0.31091332 -0.13620348 0.18077876 0.034438323 -0.07640039 0.21551448 0.112949125 0.108842745 0.20143388 0.06978273 0.29322374 0.14212023 -0.31765094 0.03471573 -0.36892724 0.0631225 0.024857398 0.21089038 0.08424672 0.042728275 0.084937125 -0.1232353 -0.02884558 0.015108611 0.2569702 -0.14558719 0.15270928 0.2352464 0.049543034 0.04182354 -0.069581084 -0.3865398 -0.07270058 0.013474707 0.07701252 0.104356006 0.28050256 0.4105297 -0.027045459 0.061945915 0.21468288 -0.11753566 -0.10127673 -0.13770026 0.101844914 -0.18083294 0.13864338 -0.13898967 -0.075405315 -0.09853152 -0.17875798 0.04970255 -0.0069998438 -0.14943603 -0.0072064297 0.18762793 0.11573632 0.26014394 0.060354605 0.09514874 0.04703037 0.08830347 -0.0032492026 -0.07715551 0.008507253 0.11198011 0.03474244 -0.05160301 -0.113617264 0.09700568 0.038942017 -0.18081397 -0.11701483 -0.19512616 0.059473425 0.04942951 -0.04936319 -0.27798352 0.18388924 -0.13099426 0.05413669 -0.063392736 -0.04025793 -0.27955997 -0.13181795 -0.1150769 -0.012030885 0.044883505 -0.09130782 -0.14649022 0.10872551 -0.03428933 0.15984868 -0.063031904 -0.079027385 -0.0049718064 -0.12744817 -0.008166556 0.21323627 -0.035980992 -0.0038456605 -0.04655993 -0.010061433 -0.0707629 -0.19008473 0.027784083 -0.08062297 0.07293305 -0.17896691 -0.010714331 0.20609182 0.02727353 0.25262353 0.23158602 0.26052624 0.18497273 -0.28228083 0.22547704 -0.28272605 0.1758265 0.06516692 -0.0027889726 -0.17098224 -0.00056446955 -0.13964917 -0.056408957 -0.020864274 -0.008179707
891 0.03536849 0.27526113 -0.27305025 0.23840526 -0.18389218 -0.013023074 -0.017526057 0.1473088 0.14217614 -0.026087416 -0.20705123 -0.22826941 0.35370827 0.029553197 -0.32629853 -0.093522914 -0.24958383 0.14517806 0.08760776 0.13087693 -0.09966299 -0.07741199 0.14080778 -0.15319218 0.06604937 0.046409924 0.1316904 0.07255521 -0.19635573 -0.0048519573 -0.11274724 -0.039046057 -0.11647465 0.015079823 0.26490185 -0.06989398 -0.15443334 0.24939875 0.21383822 0.030731082 -0.13891675 -0.014274477 0.0508345 -0.056073017 0.12121916 -0.24757704 0.10399413 -0.041428953 -0.046467345 0.038334996 -0.08951979 -0.11416154 -0.23639409 -0.337274 -0.07672763 0.24247843 -0.077558346 0.21496509 0.08129921 0.0650537 0.19692914 0.061637428 0.2122967 -0.022642236 -0.03610068 0.2471601 0.26816407 -0.2958965 0.17310447 0.038854245 -0.08015801 -0.092858985 0.2094377 0.07378735 0.1850019 -0.25332114 0.025739765 -0.1698297 0.27820563 0.0067889257 -0.27363968 0.053990226 -0.042324387 -0.094996765 -0.46997002 0.089127645 -0.08168552 -0.06543931 0.15339768 -0.2662954 0.089279935 -0.078466184 -0.18730387 0.29933107 0.04106086 -0.1506112 0.02464787 0.08898026 0.18858641 0.08242406 -0.0057612504 -0.06364208 0.05606147 0.24218297 0.087798156 0.19893043 -0.027109776 -0.041025195 0.048346113 0.1845932 -0.061944026 0.12504861 0.040815018 0.054090176 -0.075037025 -0.06870001 0.18387277 0.028983327 0.0577816 0.1270748 0.27533498 -0.02660577 -0.08218696 -0.16437368 0.44894207 0.05816604 0.030483622 -0.028339796
885 -0.0043107267 -0.09852471 0.020276645 0.11432902 0.24318093 0.0614323 0.10985395 0.14609642 -0.109483145 0.11083694 0.020843852 0.039936204 -0.31191978 -0.18725412 -0.48187754 -0.23503628 -0.3123099 0.3922513 0.03647057 -0.062205065 0.106875435 -0.18908422 -0.023828506 -0.18060383 0.23929955 -0.1779746 0.20582682 0.3690968 0.15408982 0.0031776081 0.11468168 0.13716523 0.10833981 -0.221776 -0.0031575374 0.048629742 -0.07698264 0.057417113 -0.2649836 -0.2753755 0.022060081 0.067728736 0.104081966 0.03503259 0.13070174 -0.40577522 0.03336838 -0.2072125 0.07853211 -0.10655463 0.08881782 -0.3498587 -0.09900946 0.012312148 0.13123283 0.36125758 -0.109188996 0.008812345 0.07363526 -0.0653741 -0.039725933 0.22372124 -0.1508229 0.12966456 0.08524892 -0.06898315 -0.1641181 -0.122967415 -0.100545205 -0.3438192 0.13364685 0.18486463 -0.101336725 -0.069926515 0.117459275 0.059119143 0.24818617 -0.14867778 -0.06788375 0.1716578 -0.013997739 0.28984293 0.11145781 -0.13695644 0.18587294 0.38583702 -0.0007477557 -0.23073825 -0.04803495 -0.089758344 -0.0891339 -0.05164639 0.08880306 0.05120423 -0.16320346 -0.042099744 -0.01223001 0.15474927 0.07774288 0.029962458 0.23447847 -0.13622057 -0.36249605 0.16185136 0.14392671 -0.12324059 0.027653137 -0.056272496 0.23204848 0.03654845 0.15014409 -0.16269362 -0.3207878 0.16067545 0.0050957096 0.089035004 -0.3060014 0.0633235 0.22929518 -0.1850656 -0.21374801 -0.035370614 -0.13301842 -0.13465935 0.34930527 0.0864602 0.0019765662 0.016545273
900 0.08703934 -0.12822032 0.12407043 -0.12395743 0.05624272 0.13248119 -0.18424238 0.32927677 0.39096308 0.08848612 -0.018268617 0.023776842 0.14745316 0.23427048 -0.36009932 0.054978747 -0.07662685 0.2291766 -0.035871286 0.13796026 0.04260667 -0.0092877 0.33565316 -0.050267156 0.09172235 0.06371855 -0.1084763 0.07126243 -0.030626269 -0.10618256 0.12570672 -0.2627208 0.25691792 -0.033140834 0.025826432 0.1626507 -0.14665426 0.19829375 -0.3444201 -0.04750318 -0.18081717 -0.2938444 0.18389647 -0.033161696 -0.1070264 -0.18331602 0.26497322 0.012979789 0.19365625 -0.052947458 -0.22975278 -0.024662798 -0.15634531 -0.075334735 0.077388324 0.27495435 0.14038724 0.1529261 0.16490768 -0.26527795 -0.07109105 0.015964456 0.08706312 0.1709871 -0.20129843 -0.08664575 -0.08133606 -0.033410396 -0.31459257 0.35110545 0.17075516 -0.0118291285 -0.25080788 -0.15882757 0.0710915 -0.076404154 0.10789863 -0.084029175 -0.10637595 -0.34339166 0.19833635 0.011091588 0.15267165 0.023537284 0.13622217 -0.017940633 0.12945288 0.073135406 0.022925809 0.016977442 0.075047046 0.24496159 -0.24494404 0.11018252 0.10613732 -0.1596954 -0.007467259 -0.30354974 -0.25230384 0.1845531 0.14604697 0.042238563 -0.10715282 0.20017377 0.19752178 -0.097548105 0.4593372 0.2576112 0.057832055 0.26012132 0.34541538 -0.061237734 -0.25043797 -0.130203 -0.046568926 -0.24643792 -0.3041012 -0.163924 -0.08192684 0.20286086 0.19657217 0.12629752 -0.03598933 0.07521447 0.26239 0.20907472 -0.013013662 -0.17411533
895 0.20887038 -0.076424874 0.1164333 0.099483766 0.16889839 0.0059254034 -0.12472914 0.15087794 0.26971456 0.4128466 0.0012168649 -0.27198943 -0.36187807 0.32961372 -0.51567364 0.06528815 -0.09631671 0.22219568 -0.016711563 -0.09363762 -0.2976382 -0.0398571 0.142135 0.0730059 -0.17082262 -0.2452276 0.19311485 0.50015765 0.09971906 -0.053287584 0.009549297 -0.34177232 -0.21619654 0.31229943 -0.094338626 0.1406568 0.36334243 0.16895208 -0.0027902196 -0.17275377 0.019141123 0.08119033 -0.2213645 0.051387556 0.007162987 -0.032742605 0.1644687 0.004744906 0.059957184 0.029697271 0.058378626 0.1214113 -0.06587693 -0.14390574 -0.15173423 -0.08447695 0.030706324 0.064691216 -0.118740015 0.039989065 -0.06406734 -0.21401231 -0.3320996 0.15088405 0.20768458 0.15567818 -0.008811238 -0.27177215 0.11576112 0.13588537 -0.092828706 0.16800271 -0.11547549 0.13382854 0.070823416 -0.04500329 0.22843456 -0.16225849 -0.015487257 0.15608624 0.11789809 -0.24237022 -0.03562991 -0.15979116 -0.19453515 0.44395816 -0.09653792 0.26065627 -0.10702232 -0.00989148 -0.08626062 0.06275588 -0.21209517 0.0066707223 -0.2695898 -0.23175423 -0.34949744 -0.17969899 -0.080111265 0.0027212177 0.12788576 0.061354976 -0.17714818 0.017783502 0.020300336 -0.05801729 -0.1516135 0.020781495 -0.016491659 -0.018032402 -0.0642606 0.12615062 -0.050353795 -0.050991382 0.03874756 -0.09150926 -0.124877095 0.14080934 0.08158268 -0.1138594 0.2469598 0.2960417 0.21918774 -0.11346891 0.06390192 -0.11754989 0.019796133 0.05813523
884 -0.16952832 -0.30758134 0.19325954 0.2828903 -0.16981538 0.04097064 -0.041889444 0.0712208 0.08547119 0.14416915 0.045095198 0.17170776 -0.2901364 -0.2638954 -0.40780205 0.16082309 -0.16519752 -0.05593617 -0.10357358 -0.0021683597 -0.21548982 0.0002434236 0.27063218 -0.09248554 -0.058687326 -0.26745042 -0.15623002 0.01696196 -0.019163946 -0.07530072 0.0050697797 -0.1757273 0.1838798 0.01431346 -0.024729826 -0.065393664 0.30278638 0.111472175 -0.08327739 0.020254096 0.03937219 -0.20978737 0.085698694 -0.09698001 -0.04747798 -0.15650557 0.25702694 0.31821805 0.15666468 0.47370943 0.18302934 -0.33929846 -0.24949656 0.17058934 -0.08298755 0.008030189 0.017080043 -0.12463787 -0.0060941665 0.07629624 0.13216633 0.1092348 -0.10418497 0.31345257 -0.015119466 0.12245386 -0.15121219 0.1335445 -0.18456069 0.17884022 0.274154 -0.12764618 -0.18449129 -0.0034961083 0.13231586 0.11458468 0.38783127 -0.13673976 -0.32116434 0.060092032 -0.26717687 0.13288556 -0.23330401 -0.07259206 -0.052913006 -0.06564655 -0.06752492 -0.39545926 0.39396265 -0.34733856 -0.006620556 0.010351018 0.08834139 -0.052568216 -0.122549966 -0.085466266 0.43629372 -0.10343919 0.023063501 0.07843678 0.050796676 -0.2520732 -0.1802169 -0.15058427 -0.055268876 0.31498045 -0.05096692 -0.026385946 0.00881472 0.06592311 0.3363118 0.36546192 -0.042200364 -0.014531438 0.0009855515 0.12875803 0.018000454 -0.1754838 -0.016582048 -0.26013705 0.24604657 -0.10541399 -0.27130216 -0.0002143686 0.17986675 -0.058085978 0.28950557 0.23060122
896 0.00966495 0.050015092 -0.008471497 0.33426946 -0.1251631 0.17641786 -0.34223747 0.08822667 0.06342962 0.29156893 -0.073705755 0.16600867 -0.12608047 -0.19277382 -0.013720397 0.08319669 -0.00614675 0.11220243 0.02630904 -0.36480528 0.2399869 0.003393513 0.0025985385 0.20063105 -0.08100082 -0.022390818 0.21882784 0.18372935 0.14650364 -0.22856429 0.116661936 -0.36654383 0.08817458 -0.004776144 0.06529938 0.01812479 0.15910645 0.019573484 0.15840033 -0.004312107 -0.26571852 0.20260961 0.044624902 -0.053156555 -0.37384424 -0.36607152 0.09519395 0.16332059 -0.061000768 -0.1029867 -0.29696253 -0.5149983 -0.090537906 -0.12198097 -0.37384662 -0.028610423 0.050793078 0.20973834 -0.055721905 0.18805929 0.15028252 -0.18886596 0.058026854 -0.23267242 0.27706152 0.011302087 -0.3650368 0.09032804 0.0710666 -0.04043828 0.16705921 0.22469226 -0.12036745 -0.21411097 -0.06214379 0.14136925 0.3100638 0.2077486 0.017822875 0.17738418 0.02471158 0.15166655 0.18893626 0.28239033 -0.14662498 -0.029791579 0.14347956 0.049693882 -0.16839465 -0.34608403 0.108989045 -0.40369678 -0.052180875 0.35192564 0.056416534 -0.23362584 -0.15405026 0.059522994 0.091083765 0.16049927 -0.3168742 0.04197051 0.171793 0.06075106 -0.298404 0.1291163 0.07679411 0.12590608 -0.20358361 0.10757331 0.25196043 0.030351153 -0.43168175 -0.2590206 -0.0026113354 0.24783683 0.0493171 0.1536719 -0.087184675 -0.047292527 0.10966992 -0.04534128 -0.088083684 0.1884738 0.043540545 -0.024635728 -0.26113558 -0.27825004
892 -0.19392559 -0.015077589 -0.015232633 0.37975976 -0.17527398 -0.09340701 -0.09920481 0.19271226 0.07626436 0.26521778 0.051812455 0.016474564 0.043413285 0.099704355 0.0020957207 -0.082340404 0.005291868 0.44642037 0.2036008 0.12023673 -0.22441955 -0.3669624 -0.060121074 0.050138973 -0.06394158 0.19575785 -0.07854366 -0.053902317 -0.31268743 0.116055675 0.10801411 -0.16847187 -0.37056407 -0.059137646 0.17783552 0.003054623 -0.31663665 0.19711588 0.28609002 0.15991302 0.050864983 0.2505213 -0.10825161 -0.09930785 0.09158573 -0.13816218 0.16364534 -0.09177908 -0.107813835 0.028434345 0.03429063 -0.071432546 -0.06622858 -0.05947151 -0.059766833 0.16075215 0.0056914003 0.0331463 0.08920008 -0.032556437 0.25678062 -0.04257455 0.042299744 0.028728573 0.063218266 0.12758607 0.030127637 -0.033024076 0.003385568 0.015877191 0.27799535 -0.23749064 -0.24583974 0.012066933 -0.067257576 -0.07107629 -0.21384302 -0.33540928 0.045176897 -0.01450345 -0.045975316 0.15949477 0.020879766 -0.09485896 -0.297538 0.10430103 0.01228029 -0.49775323 -0.08444592 -0.11372623 0.01466313 0.06244009 -0.06311526 -0.0010834784 -0.04195128 -0.15610327 -0.14979185 0.17838024 0.037026774 -0.041727602 -0.09358477 0.00024534474 -0.08875415 -0.041447032 0.21391597 0.098206684 0.29843944 -0.12620854 0.022556957 0.160445 -0.15370126 0.01327978 -0.09094876 -0.092024475 -0.02531645 -0.05626524 -0.11463855 -0.11732762 -0.11525471 -0.040812388 0.51966894 0.17678785 0.33177057 -0.15819281 0.20655316 0.023005838 0.037844278 -0.19795538
889 -0.042568628 0.16409238 -0.12926579 0.46335375 -0.15278625 -0.12727472 -0.026532821 0.1698753 0.12814805 0.23047213 0.24819162 -0.24399261 0.093557976 0.35587272 -0.058467306 -0.23524697 0.013192292 0.23758258 0.017142486 0.11223911 -0.20273653 0.019494573 -0.15349492 -0.18192175 -0.025708998 0.08141918 0.24157862 0.1607929 -0.17350855 -0.06794273 0.248797 -0.12047861 -0.1660907 -0.10179278 0.22874098 0.03558231 -0.36368418 0.089776486 0.31654254 0.037859574 0.033928916 -0.070404015 -0.12881812 -0.047796886 0.111959115 -0.053222414 0.094699316 -0.06908884 0.082296155 0.013203814 0.210791 -0.14332017 -0.21163864 -0.090791956 -0.18029913 0.11665634 0.22917955 0.15075736 0.23510785 0.13253489 0.26724145 0.2686706 0.017195435 -0.064968094 0.024362706 0.033694215 -0.061516203 0.056861304 -0.0010131286 0.18791747 0.25381687 -0.1743979 -0.074259624 0.14181983 -0.15931392 -0.121214956 -0.06389022 -0.0241414 0.27000806 0.04149693 -0.29548702 -0.2687952 0.27931705 -0.15967432 -0.119188145 -0.09171929 -0.22694463 -0.42218417 -0.02715027 -0.20187908 0.090880476 0.053215798 0.022282567 -0.18276393 -0.066881396 -0.10348271 -0.17831336 -0.14960404 -0.009687423 0.19810939 -0.038326804 -0.12594175 -0.07234866 -0.035492286 0.21065758 0.060353853 0.24486774 -0.24077685 0.18144546 0.10996414 -0.07373199 -0.03767134 -0.07923231 -0.18102285 -0.05939686 -0.05929166 0.135447 0.03174636 -0.07323229 0.011941443 0.2598213 0.113536894 0.10755775 -0.21451028 0.24781775 -0.072647996 -0.2035187 -0.31270024
887 -0.16541044 -0.09459799 0.05969811 0.3613149 -0.060610924 -0.1299393 -0.22858326 -0.010073193 -0.15481788 0.019731095 0.16722354 0.09925799 0.07155456 0.18400295 -0.012456925 -0.20150737 -0.016884238 0.22842377 0.07693155 0.107764095 -0.1557459 -0.18785515 -0.08188089 -0.08578509 0.055456113 -0.0061577572 0.15465792 0.098468706 -0.2732699 -0.16734792 0.38050064 -0.18469928 -0.04582115 -0.15976198 0.117553234 -0.27360564 -0.046179365 0.19682077 0.038440637 0.1873222 -0.022483932 0.2548388 0.11771422 0.052764364 0.09900014 0.054823875 0.033898223 -0.06607626 0.19001672 -0.160211 -0.04025461 -0.064865656 -0.21993662 0.09211911 -0.07582412 0.3983088 0.06277404 0.1978882 0.31016746 0.011269418 0.3391719 0.048274137 0.1779488 0.21334633 -0.15715337 0.09764236 -0.00789383 -0.2301805 0.0503588 0.20714788 0.05645717 0.055583414 -0.08828522 0.11126639 -0.272691 -0.10375093 0.036781322 -0.34891352 0.051610544 0.014060994 -0.15765356 -0.058581114 0.20948197 -0.112621754 -0.36139163 0.16087665 -0.19134575 -0.29187453 -0.040931366 -0.10008182 0.061596677 -0.3070394 -0.024044385 -0.046083335 -0.050801344 0.096383505 -0.22878942 -0.13274644 0.023644324 0.04006534 -0.3129368 0.17670591 -0.110311195 0.056643095 0.108661726 0.056150272 -0.025208915 -0.33270082 0.12710159 0.35565007 -0.20482937 0.029775223 0.028231619 -0.22507052 0.004304718 -0.068426795 0.2012446 0.10608067 -0.09731213 0.10981253 0.45351118 0.31602603 0.1711814 -0.23780192 0.2300721 0.02543781 -0.004552341 -0.13572319
894 -0.1807872 -0.20259723 -0.010162806 0.21963793 -0.34567174 0.2301561 0.10007848 0.21018323 0.12638278 0.085305855 -0.098755874 -0.20289288 -0.28295803 0.06529388 -0.32395646 0.06895714 0.034562964 0.008713846 -0.21656236 0.08308171 0.04380355 0.3069049 -0.072389886 0.25724694 -0.3516863 -0.10535082 0.2067447 -0.19444834 -0.150887 -0.008405042 -0.08566786 0.047117084 -0.4144007 -0.1925516 -0.037913747 0.36399063 0.21829349 0.087271534 0.23477007 -0.15415879 -0.24096651 -0.103443354 0.03624955 -0.3007521 -0.056429 -0.360278 0.016644273 0.039977256 0.027661657 0.27013746 -0.35686395 0.10973833 -0.32063153 -0.0425208 -0.21923596 0.13389836 -0.05745951 0.039231904 0.36422727 0.031634945 0.050893527 0.28199127 -0.2956217 0.07746 -0.023007046 -0.13275063 -0.1976046 -0.037289355 0.012703874 0.13571784 0.16937348 0.022915928 -0.16044135 0.20748971 0.035292547 0.21496214 -0.073679596 -0.388648 -0.121334925 0.19596392 -0.038117807 -0.1073531 0.099452145 -0.20046882 -0.018838089 0.3537422 0.28970015 -0.17584382 -0.011963361 0.27732757 0.3901739 -0.13918813 0.110084474 -0.087658845 -0.13142134 -0.16578151 0.18879583 0.24523637 0.13533948 0.018383179 0.21950679 0.08750149 -0.00016649737 0.017854517 0.12801054 0.040289372 0.08010821 -0.08656139 -0.04191094 0.25222242 -0.036839515 -0.423722 -0.040585898 -0.14078873 0.01843934 -0.17998704 0.06407389 0.42923766 -0.08446659 0.41328502 0.23524264 0.50630754 -0.2162777 -0.071502686 0.11542482 -0.09454291 0.09084508 -0.02684891
893 0.15949833 -0.36444268 -0.13818519 0.44976008 0.31519985 0.043134622 -0.1899334 0.22823982 0.08772748 0.20514241 0.15166558 0.013903877 -0.095150806 0.06570739 0.1270925 0.26228318 -0.03909702 0.37577534 0.035674416 0.08516033 -0.29418105 0.00039728437 0.015223661 0.39423406 0.15789029 -0.023200065 0.002320916 0.25197396 -0.15094535 -0.23540208 -0.1206342 -0.39123037 -0.04832599 -0.012252289 0.5005665 -0.0014868539 0.14120048 0.21708058 -0.06641209 -0.05596748 0.05140536 -0.14141731 -0.08433942 -0.37343815 0.23186192 -0.112658665 0.14038745 -0.05429541 -0.28275117 0.093978345 0.08579478 0.027056623 -0.100065604 -0.08171008 -0.2169295 0.21193036 -0.28677243 -0.18125676 0.14406022 -0.23268735 0.37723017 0.1048604 0.07174903 0.18098275 -0.13105243 0.23949805 -0.09986409 -0.083157346 0.11059681 0.091362216 0.07853092 -0.3318864 0.18519735 0.06969732 0.2135891 0.37965247 -0.09195988 -0.20387948 -0.045987114 0.13060862 0.22580297 -0.020457638 0.32228658 -0.17429215 0.2558355 0.04066017 -0.21899809 -0.18941487 0.3334136 0.016307691 0.08609831 -0.17403176 -0.04384684 0.460954 -0.08490393 0.10326609 -0.073362745 -0.058087487 -0.19912522 -0.13098182 -0.12775457 -0.026299482 0.059657764 0.07711309 0.3946922 -0.07549695 0.0018392368 0.14438798 0.2248125 0.16932406 0.38745838 0.15530673 -0.1753599 -0.17198022 -0.037819266 0.30568257 0.5176249 0.2611227 -0.0417089 0.16206343 0.21761711 0.22554326 0.045108613 -0.42564386 0.2665723 -0.1415817 -0.06868828 -0.416885
886 0.16307732 -0.25634935 0.00441872 0.60820657 0.37749755 -0.011727261 -0.07460182 0.1467767 0.11936651 0.33474728 -0.0765795 0.0004223243 -0.2069023 0.2035528 0.20646903 0.17853 -0.13135937 0.3660775 0.19700302 -0.0024500152 -0.09256449 -0.06215609 -0.08894709 0.36001408 0.04680704 0.11885543 -0.05786858 0.18718983 -0.20935732 -0.14320144 0.08013139 -0.42083344 -0.34096104 0.0066674193 0.11085938 0.053077515 0.06786704 0.17789064 0.099269666 0.08625581 -0.28871012 -0.2043586 -0.10120967 -0.26071808 0.11537523 -0.19376525 0.17186196 -0.31803098 -0.162752 0.012966895 -0.038931973 -0.07004881 -0.2449092 -0.08626347 -0.24733396 0.01642957 0.06074286 0.0031577975 -0.07116991 -0.42858014 0.3357157 0.17379075 -0.03396078 0.3397499 -0.22569978 0.041005764 -0.07729949 -0.025019282 0.13409977 0.22526671 -0.052493926 -0.3235993 0.25014445 0.04821997 0.19594711 0.042518444 -0.019880008 -0.38438588 0.076709755 0.1905131 -0.011655669 0.13587005 0.33645234 0.0014143975 0.33982795 0.04670522 -0.21916047 -0.2582274 0.14838286 0.36050913 -0.011671831 -0.26982102 0.013227885 0.37549022 -0.065221965 0.3610729 0.0078047146 -0.115280904 -0.15284802 0.010178226 -0.15732856 -0.051778343 0.08598674 0.045050196 0.3204861 -0.1253148 -0.24124852 -0.1045256 0.164113 0.14938584 0.6025432 0.3008579 -0.058203876 -0.0615792 0.04546216 0.25533205 0.24359654 0.24733709 -0.17115973 -0.00068220845 0.17513312 0.039155573 0.0017196761 -0.53361076 0.28249425 -0.075497545 -0.07600379 -0.09057911
888 0.21796224 -0.051842846 -0.1290001 0.46080336 0.06562737 0.3301407 -0.04423047 0.1584303 0.012461853 -0.022203794 0.19097367 0.03380128 0.07779999 0.101163924 0.08553099 -0.10884395 -0.07348678 0.32434133 -0.21078071 0.17471038 -0.032574553 -0.090103306 0.2781238 0.18212579 -0.04398925 -0.017373541 -0.05090179 0.30001348 0.032929815 -0.45577076 -0.11804441 -0.58575225 -0.42516962 0.26922822 0.56320554 -0.12251081 -0.0832781 0.08049555 -0.046104517 -0.10642001 -0.00082841644 -0.04860079 0.040678874 -0.34135497 0.1252215 -0.27730703 0.2162967 0.017770294 -0.46658453 0.055025276 0.1516797 0.08581714 -0.550046 0.06903299 -0.13272545 0.034565452 -0.17373739 -0.12676266 0.17010045 -0.25804865 0.23318669 0.19008215 0.0653335 0.23620921 -0.049287304 0.03507079 -0.16834864 0.20041934 0.026419275 -0.0028878483 -0.0073736906 -0.28069144 0.092512324 0.21286686 -0.024303664 -0.017841466 0.047880545 -0.40156272 0.015175278 0.29224673 0.25980064 -0.026335763 0.21415026 0.04473111 0.08585373 0.003755907 -0.24413991 -0.19048387 0.1714996 0.2516126 0.19011825 -0.2055638 0.19215901 0.0602702 -0.22472826 -0.03548467 -0.12126143 -0.13085814 -0.1473247 0.02185472 0.05521534 -0.10665434 -0.07595194 0.35767382 0.28641048 -0.015027767 0.05991147 -0.029619602 0.36821106 -0.015986633 0.69115114 0.37103158 -0.2042073 0.1591146 0.25938073 0.044515725 0.3271456 0.08143242 0.053717766 -0.08584563 0.2259652 0.21318705 0.39119586 -0.21018627 0.01249273 -0.2832461 -0.060756374 -0.30899873
881 0.6869476 -0.0328973 -0.5389977 0.20773335 0.0178166 0.9075172 -0.5846927 -0.09917348 -0.97279495 0.59727055 0.7867243 -0.015986782 0.46577847 -0.053443227 -0.25602263 0.7691246 1.2738388 -0.33119524 0.15437941 -0.53347296 -0.39420784 0.031905424 -0.45894393 -1.056072 -0.19503082 -0.8254546 -0.4475844 0.5508886 0.03469014 1.7372936 0.7205182 -0.5516479 0.572525 -0.02225805 -0.43407717 0.71202856 -1.3065281 0.3498992 0.946399 -0.072917335 0.57270086 -0.5431513 -0.45723048 -0.35893494 0.68638265 -1.2503413 0.67894 0.7904299 -0.1842142 -0.08653945 -0.08688686 -0.14311737 -0.054026652 -0.32093483 0.1123635 1.03557 -0.03811684 0.4450774 -0.66826814 0.8993925 -1.1755201 -0.29302242 -0.23817243 0.99832165 0.42171052 0.09119128 -1.6559585 0.3302848 -0.11001622 0.43718928 0.026643248 0.27240053 0.46957073 0.66226107 -0.060430255 -0.10531201 0.32420334 -1.3020657 -0.17699459 -0.6129664 0.11233172 0.73974264 0.4195279 0.08864703 0.00075921323 0.17540789 0.5518414 0.0032174 -0.30310896 -0.48476547 0.26442632 -0.24433334 0.8396156 0.5054469 0.21773395 0.7044715 -0.06328251 -0.35040364 0.1639257 -1.160554 -0.8916373 -0.43449295 -0.52579814 0.13556625 -0.037137106 0.5616384 0.45201614 -0.5613804 -0.048997242 2.0241606 0.34650025 -0.069950856 -0.52965945 0.49109358 -0.4243299 -1.5530725 -0.03876272 0.63578796 0.6060524 -1.6145868 -0.06283776 -0.73808616 -0.7120366 0.08506747 0.66401404 -0.5324021 -0.209075 -0.19847034
901 -0.00842558 -0.029018946 0.41989544 0.6219924 -0.013709439 0.2744526 -0.20145106 -0.0998213 0.06871728 0.23256677 0.031125821 0.122846775 -0.120280996 0.14992276 -0.44441378 0.057462662 -0.05078045 0.26697126 -0.10999165 -0.29710945 0.15249328 0.19018061 0.00039701923 -0.31934723 0.05551283 -0.05514373 -0.31462672 0.31468567 -0.18706056 -0.19308378 0.032960586 -0.5333575 0.007814896 0.28022274 0.3289626 -0.018858334 0.3485711 0.07239709 -0.3684749 -0.00727351 -0.05779503 0.009334786 0.20789246 -0.05466794 0.07599108 0.13514656 -0.06910029 -0.14389353 0.02108434 0.5071722 0.041230667 0.35636717 0.31953695 -0.1160454 -0.16235049 0.1317373 0.026918946 0.5095966 -0.39396006 0.046931043 -0.094401024 0.15866074 -0.45862472 -0.060620435 -0.29809234 0.12634957 -0.08199602 -0.050658397 0.0059541645 0.03313953 -0.2568348 -0.25857118 0.09869164 0.100134335 -0.262138 0.25630373 -0.49298552 -0.37026826 0.18400267 0.17057581 0.045315534 0.21875535 0.12411302 0.06581518 -0.24561714 0.060402583 -0.19142257 -0.5441047 -0.09728089 0.3025453 0.0844248 -0.25324887 -0.05681279 0.05982276 -0.23625857 -0.33998516 0.4661355 0.08377491 -0.034967884 0.38491204 0.086712874 0.14669305 0.004550508 0.26839602 0.052197605 0.10918941 0.5516092 0.35943615 0.24983206 0.2820944 -0.06295495 -0.24881417 -0.3436241 0.18323891 -0.05955533 0.1440942 0.3807675 0.044059597 0.024713323 0.12490042 -0.032899465 -0.26175916 0.043230888 0.101919115 0.4924263 0.0052106236 -0.2347433 0.087930076
263 -0.07715119 -0.13856168 -0.08015642 0.32783177 0.028925976 0.17358041 -0.06222277 0.041526165 0.052401695 -0.035246003 -0.06975458 0.03369147 -0.3257082 0.0039135446 -0.22569005 0.08845363 0.046603534 0.2878695 -0.13317993 -0.05008057 -0.08964153 -0.048047855 -0.014077319 -0.025691137 0.08310217 -0.09176034 -0.038468298 0.08137249 -0.14688464 -0.04505565 0.16720481 -0.22303674 -0.12761204 0.023475802 0.11763178 -0.013594443 -0.0004974749 -0.065610155 -0.094621934 -0.1757725 -0.1125729 0.10815369 -0.03993548 -0.05822399 0.09309894 -0.12002865 0.013457427 -0.051208436 0.06406022 0.27060425 0.08751397 -0.008608222 -0.08669659 0.0027040855 -0.010514038 0.094559334 0.08706297 0.007861905 -0.007928551 -0.048709504 0.11104258 0.1596372 0.0017081045 -0.0341072 0.1682572 0.26354903 -0.087478265 -0.015094295 0.0638575 0.09836359 0.019482289 -0.112429485 -0.07211374 0.060266536 0.08593858 -0.1277241 0.029302634 -0.14089178 0.059734065 -0.017661933 -0.05169711 0.0010376377 0.052710105 0.0443761 -0.08584301 0.14188941 -0.02504927 -0.11395038 0.06086863 -0.04497425 0.19015592 -0.19764869 -0.04141098 0.11787809 -0.033415034 -0.07501579 -0.12901431 -0.036080856 0.0031849148 0.07835943 -0.023501758 -0.1183037 -0.05504023 -0.03549599 0.12815256 -0.032644905 0.15338083 -0.13163958 -0.14857438 0.20812982 0.19796063 0.021411804 -0.16887112 -0.0800999 0.07371737 0.2535747 0.17896338 0.12701201 -0.0981756 -0.004387903 0.12930188 -0.034258705 -0.030073183 -0.08540641 0.10780916 0.025191884 -0.1603346 -0.07198354
738 -0.03965412 -0.09515541 -0.110063545 0.35506752 -0.06406958 0.09884266 0.055543683 -0.032258652 0.16425698 -0.032144893 0.10826079 0.017876482 -0.17246488 0.10215361 -0.09276045 0.10382082 -0.011234998 0.31749958 -0.045930836 -0.040222544 -0.06933259 -0.045969386 0.056538194 0.15619406 0.02121011 -0.08974613 0.014647493 0.12785104 0.022745283 -0.1335799 0.056679215 -0.16984011 -0.10957696 0.018569198 0.1784494 0.20867793 -0.021915909 0.16123596 -0.07415326 -0.089739524 -0.1755755 0.10227326 0.07878927 -0.11871611 0.21400118 -0.119806424 0.05216689 -0.079844385 -0.014925182 0.022762893 0.17276183 -0.0999443 -0.13908215 -0.025491066 -0.0013035928 0.10272367 -0.066846855 0.1522523 0.05017329 -0.13212223 0.12385795 0.123832494 0.0032682705 0.04967492 0.015919184 -0.009356146 0.09875932 -0.007197245 0.07123109 0.012915121 0.03909187 -0.11445142 -0.0045819897 0.016536565 0.100058936 -0.08733337 0.085115954 -0.24868803 0.068297386 0.03829004 -0.05131908 0.011782889 0.19201152 -0.008049388 0.057751477 0.05856418 -0.029664988 -0.06154193 0.03920429 -0.022869814 0.0540568 -0.05011043 -0.10166554 0.008811102 -0.038982477 -0.14159007 -0.07726864 0.038385227 -0.12861787 0.00043571947 -0.031301543 0.01587127 -0.1857807 0.08008882 0.14652899 0.023600578 0.02649047 -0.13972959 0.05375692 0.23722343 0.15888447 0.04286934 -0.0865042 -0.1276357 -0.09029245 0.0062764552 0.05557522 0.12751609 -0.066455 0.07203437 0.110514835 0.0913684 -0.053554527 -0.048680328 0.005589351 -0.06500912 -0.001666499 -0.007017995
398 0.5669821 0.54223114 0.37543213 0.5791633 0.55536807 -0.2439815 -0.47539768 0.6479598 0.24311294 0.072318524 0.0487071 0.08542375 -0.5742109 0.6469985 -0.3077361 0.63497424 -0.55818933 -0.05985855 0.012165765 0.31877622 -0.297402 -0.13845092 0.62760055 0.34169197 0.11314843 0.115188845 -0.20847948 0.10680466 0.24679188 -0.04530992 -0.4389082 -0.20047967 -0.4465783 0.75218534 0.5178968 0.8214668 0.8808372 0.4194028 0.12667134 0.20065612 0.19512747 0.31696486 0.38967535 0.08028091 0.26553914 -0.17487876 -0.30323508 0.13359766 0.18838534 -0.14311188 -0.11039506 -0.109784745 -0.76163554 -0.15919816 -0.2240213 -0.059116308 0.029203264 0.58279234 -0.3069656 0.14638032 -0.71704155 -0.6063 0.7181389 0.39577416 0.56486076 -0.37875807 0.052569896 0.04723363 -0.57150877 0.04851823 0.3310272 0.03662201 -0.12640347 0.4109106 -0.6409919 -0.13234712 -0.09400403 -0.06644881 -0.12292015 -0.29813254 -0.2641673 0.021542506 0.75028366 -0.42161915 0.118729286 0.020700766 0.4746005 0.24182238 -0.40380865 -0.33250394 0.47149292 -0.20841287 -0.124180734 -0.32349822 -0.23660515 0.35188603 -0.18159726 -0.45147067 0.49082845 0.25556114 0.6160903 -0.82035476 -0.46673578 0.37184155 0.18622945 -0.09216121 0.28284416 0.21019125 0.08687156 0.97311467 -0.117160514 -0.39281318 -0.57402295 -0.88222086 0.20419078 0.2014863 -0.39899537 0.1905676 0.42907497 0.39653507 0.9911193 -0.18943246 -0.16986407 -0.918825 0.21351118 0.28382024 0.30135748 0.3647166
778 -0.058815215 -0.13338766 0.046041142 0.46335176 -0.0033840507 0.15467417 -0.056114387 0.0029054987 0.18522123 -0.036098115 -0.01433017 0.10113537 -0.24709111 0.16542152 -0.19352861 0.13342051 -0.020652192 0.29638594 -0.073756985 -0.0076221735 0.008392005 -0.06296271 0.049769446 -0.0068334327 0.06369449 0.017436203 -0.08362084 0.042202156 -0.16008474 -0.18285318 0.04253492 -0.22145782 -0.11010861 0.025132312 0.16040795 0.08343689 -0.02488112 0.121124014 -0.037485003 -0.04326139 -0.19880714 0.03587172 -0.07688304 -0.21855305 0.12736334 -0.07897848 0.03787213 -0.029825984 -0.033373427 0.22536457 0.070298016 -0.0010285059 -0.18437591 -0.033281505 0.054986484 0.09540087 0.044047732 0.03911633 -0.06007416 -0.04599779 0.035401832 0.2843786 0.012243616 0.15509568 -0.124691345 0.17864421 0.005933217 -0.11471005 0.11494636 0.11049421 0.0031439944 -0.09578615 -0.069289476 0.17473392 0.11164036 -0.04045148 0.022015799 -0.17595786 -0.11817989 -0.038106944 -0.056576136 -0.11390417 0.19219197 0.08341129 -0.010147025 0.12485744 0.024584247 -0.18384333 0.03042715 -0.098338716 0.044636738 -0.12728894 -0.18330956 0.05035766 -0.17464563 -0.17345521 -0.07061167 0.040008817 -0.13948703 0.022884423 -0.101661935 -0.1555187 -0.14089532 0.07034785 0.19423868 -0.042840365 -0.0049720244 -0.17023401 0.08457032 0.27536497 0.15304366 0.03189267 -0.14957283 -0.14636028 0.11801822 0.07128273 0.21444227 0.06146953 -0.20391865 0.065364845 0.07667584 -0.069772586 0.06869578 -0.014928107 -0.0014786031 0.042700514 -0.118439905 -0.026789764
780 0.006482328 -0.118305326 -0.118967846 0.3646836 -0.05689534 0.0766026 0.053294238 -0.08659693 0.15637958 -0.08900405 0.06706747 -0.016944813 -0.14690475 0.13399035 -0.06273438 0.11277582 -0.092829265 0.34468386 -0.030389186 0.023497464 -0.044520255 -0.11038966 0.05139821 0.12476441 0.023324264 0.00806764 0.0880897 0.1045505 0.016426843 -0.14163989 0.064454235 -0.23494239 -0.098537765 0.05594146 0.18764949 0.20772217 0.03798315 0.14724109 -0.0048373914 -0.08959685 -0.1663862 0.07904446 0.050347213 -0.11547435 0.21681117 -0.12660731 0.084330484 -0.070337534 0.009994472 0.040915776 0.20910299 -0.08603903 -0.15039359 0.06469029 -0.033131894 0.08393206 -0.049167756 0.094418146 0.0061673997 -0.19213068 0.11332087 0.08816947 0.06469293 0.05159434 0.004217818 0.08534071 0.070748255 -0.037764825 0.08069786 0.016537776 8.911311e-05 -0.1309661 -0.023256758 0.03602091 0.09037242 -0.103766784 0.063566156 -0.20805545 0.03510959 0.051442288 -0.022477783 0.059870634 0.19439976 -0.09202513 0.018768184 0.081950784 -0.035706423 -0.05232291 0.05200367 -0.045148898 0.090423994 -0.07922489 -0.100287616 -0.076965265 -0.01825327 -0.15300724 -0.15833996 0.085053824 -0.13307592 0.029935028 -0.04429027 0.006972517 -0.12733357 0.038096394 0.18824884 0.013355051 0.045113448 -0.124461256 0.106227495 0.32306042 0.1358015 0.03201065 -0.06620698 -0.17523907 -0.08897271 -0.020529028 0.045115184 0.13643858 -0.07701845 0.044888724 0.07281649 0.1032895 -0.06815223 -0.045243364 0.093007036 -0.116070524 -0.038773295 -0.030998465
882 0.57476753 -0.24216093 0.011100474 -0.06782179 -0.29356283 0.12323216 -0.2223575 0.095572524 0.07789995 0.15472502 0.26212475 -0.20584315 -0.08942979 -0.059998285 -0.35284156 0.33685088 -0.16066176 0.077088416 0.069349624 0.30511454 -0.34665012 -0.032583784 -0.010236073 0.03943366 0.2643436 -0.038899757 -0.2642052 0.31487456 -0.40061143 0.1297208 0.2127843 -0.33447897 0.3461607 -0.39881116 -0.10749458 -0.05714095 -0.07975644 0.16560929 -0.14092138 0.23581015 -0.123374626 0.16438746 -0.04211444 -0.105699874 0.61552995 -0.33108345 0.51913595 -0.11187982 0.12766886 -0.2910841 0.28681597 -0.15516469 -0.5828787 0.14909193 -0.48995396 -0.24436802 0.077471204 0.10268027 -0.05628596 0.20416865 -0.2127914 -0.092682965 -0.25699615 0.25098252 0.28198847 -0.40147436 -0.0018159988 -0.14027108 0.076991886 -0.090940535 -0.12188814 0.3485506 -0.108515464 0.06921252 0.009985072 0.22740483 0.32850096 -0.1779322 -0.48561424 0.367924 -0.094625846 -0.263619 0.19504344 0.16714495 0.10292182 0.0700411 0.04528102 0.17713936 0.26545578 0.29677182 -0.07751871 -0.39945707 -0.042739723 -0.0050952374 0.2946739 -0.3644458 0.22375458 -0.0080088535 0.11649873 -0.10137947 0.42816895 -0.41465652 -0.053838592 0.059469935 0.1911253 0.18768921 0.48130646 0.0115120085 0.16769958 0.4226475 0.011824649 0.102616034 0.12426609 0.22027126 0.28621307 0.21362235 -0.34118706 0.15281425 -0.2221611 -0.09614196 -0.048487518 -0.1780906 -0.025158135 -0.057364516 0.061615102 0.32407236 0.09412998 -0.12409121
405 0.3673598 -0.08401152 -0.029133774 0.33200535 -0.13988031 0.02837133 -0.07055562 0.2473105 -0.15408237 0.032542463 0.12130116 0.018313216 -0.19335282 -0.09065505 -0.090560704 -0.4124912 -0.22028601 0.08962191 0.05481339 -0.014648108 -0.42965004 -0.17736714 0.20693493 -0.25098202 -0.17826709 -0.23270975 0.094355434 0.094276786 -0.35714078 -0.4656847 0.07057634 -0.14028378 -0.09164223 0.020399187 0.21119203 0.4909773 0.0033846549 0.33587116 -0.06956663 -0.35607994 -0.1123938 -0.056204807 0.22143242 0.065206 0.106321536 -0.28424728 0.44631913 0.13158436 -0.1420434 0.03459927 0.2288072 0.1020184 -0.19161169 -0.09548849 -0.18801443 -0.05841149 -0.19084868 0.06593817 -0.26763892 -0.4150994 0.19258322 -0.06185277 -0.16158728 0.3023209 0.031571694 -0.28236014 -0.3060802 -0.020087453 -0.24633747 0.12170962 0.014292283 0.39766416 -0.12110879 0.04550428 0.05855099 0.06261999 0.04453036 0.1957011 -0.16066119 0.21310504 0.094969854 -0.06814 0.15472032 0.012739466 -0.013624894 -0.06867298 -0.040940233 -0.1070477 -0.2737358 -0.3959999 -0.2664952 -0.09417158 -0.37043047 0.14827973 0.2182806 0.13641433 0.24285406 -0.079102464 0.1146685 -0.06615058 -0.10331237 -0.0042216573 -0.22356892 0.28434125 0.04747677 -0.022102889 0.1414181 -0.1628966 -0.23222846 0.13394547 0.629796 -0.039270844 -0.24476005 0.17478041 0.20437461 0.15714936 0.30019054 0.0050499146 -0.07199557 -0.112946555 -0.09182358 0.24012768 0.084048435 0.43899277 -0.110043615 -0.12994725 0.2550371 0.24221008
478 0.092825085 -0.0718103 0.007303625 0.16393104 -0.07113377 0.092621796 -0.023656702 0.10313549 0.083427556 0.079523884 0.11904646 -0.0376987 0.044311304 -0.018072344 -0.13790764 0.05526734 -0.11139792 0.076557025 0.062774554 -0.033385318 0.077840574 -0.038924593 0.0894628 -0.04879562 0.059117872 -0.12134679 0.15659948 0.13684303 -0.10651524 -0.029862043 0.055362903 -0.26082227 -0.18959105 -0.1651335 0.030811407 0.10183138 0.07124637 0.073305644 0.07010188 -0.159854 -0.09296183 0.1300852 0.070389085 0.009591468 0.06127187 -0.10182098 0.020356486 0.014728953 0.2009653 0.10763208 0.17092666 0.0074007995 -0.14499809 -0.06537402 -0.0059766886 0.09248382 0.018141646 0.0007587343 -0.04481963 -0.025891483 0.11567488 -0.011511802 0.007300103 -0.061305694 0.066759415 0.0403508 -0.1778167 -0.03360435 -0.09461617 0.17303926 0.023925237 -0.033754088 -0.13596506 -0.13088664 0.011481296 0.05209975 0.052526526 -0.06650938 0.053877544 -0.08363135 -0.065436535 0.05071318 0.071077295 -0.022261765 -0.068719834 0.09092564 0.07228591 -0.046508428 0.010332666 -0.05076313 0.026386756 -0.064000234 -0.105291896 0.05384619 -0.027979791 0.031675458 -0.002522335 -0.012776816 0.0158228 -0.07228829 -0.006079767 -0.112455 -0.118710175 0.014621511 0.012956785 0.06562381 0.1637746 -0.020123841 -0.016994787 0.14927329 0.10362594 0.095378526 -0.06041454 -0.049964003 0.04207535 0.0752226 -0.021804783 -0.013052209 0.061022826 0.010444017 0.20066744 -0.0033697963 -0.011784711 -0.17673035 0.050086953 -0.05646192 -0.24609059 0.024294008
475 -0.007956448 -0.13233408 0.021708919 0.50137097 0.015122912 -0.006748509 0.036565956 -0.067502625 0.105280295 -0.07906026 0.09838617 -0.090781994 -0.07848375 0.07852984 -0.12852843 0.077571064 0.14801931 0.28785935 -0.035913005 -0.028541561 -0.14715883 -0.045243733 0.09470382 0.103342816 -0.08100024 0.016179122 0.103339136 0.13905412 0.051544018 -0.07411277 0.0063989507 -0.12536424 -0.20530918 0.09484066 0.23771475 0.14829917 0.042724337 0.13790739 0.008739545 -0.03742246 -0.28533623 0.027454438 0.09890995 -0.11505896 0.21425986 -0.12495508 0.21539131 -0.003850567 -0.15373409 0.12192804 0.20417555 -0.123229295 -0.14007306 0.03492839 -0.08578922 0.04271131 0.008591694 0.13591637 0.052858703 -0.023192273 0.054827794 0.14928107 0.14202246 -0.030964792 -0.028554147 0.03241356 0.12180867 -0.07661433 -0.012247339 0.016056215 0.07041446 -0.12294026 -0.0061490033 0.16014336 0.13065283 0.035074286 0.02926694 -0.24858047 0.012533989 0.032195307 0.029743709 -0.042392485 0.14765151 -0.04226071 0.043090098 0.084728554 -0.10437209 -0.06661101 0.07095533 -0.01575023 0.08300998 -0.094632424 -0.12560213 0.09771028 -0.18410575 -0.14039361 -0.11284037 0.009785791 -0.16144149 -0.023761526 -0.10747625 -0.01767731 -0.039516483 -0.037817903 0.1683535 0.00884008 -0.004999067 -0.13746007 0.026321232 0.23753908 0.1623144 0.05304482 -0.012299952 -0.055394374 0.047677416 0.09975795 0.042877983 0.11441193 -0.15722334 0.08995904 0.102192 0.10807705 0.0085515175 -0.08279657 0.06055473 -0.16150717 -0.17070018 -0.050057765
668 -0.03318836 -0.19988531 0.1327515 0.42338535 0.006313574 0.1642744 -0.10766055 0.015838824 0.1893139 0.039191592 0.022058154 -0.014235164 -0.1590659 0.0040270104 -0.18528448 0.09922711 0.00797422 0.22240189 -0.06839931 0.13029563 0.15214092 -0.051014394 0.0061489902 0.02944313 0.0016873098 0.026531154 0.048290905 0.17574146 -0.111939676 0.014797917 -0.03789287 -0.10612629 -0.0976622 0.2425008 0.19689485 0.20922387 -0.06432568 0.08048334 -0.11093264 -0.046756923 -0.06398518 0.031745758 0.10134412 -0.11118017 0.2341658 -0.11825525 0.01325722 0.031483676 -0.007892177 0.23458831 -0.0322757 -0.021627055 -0.11736206 -0.03548963 -0.097996585 0.22140752 -0.08446517 0.09513574 0.01080065 -0.12457085 0.07704834 -0.027873252 0.0022498893 0.016528409 -0.20073749 -0.10491257 0.013105029 -0.09846206 0.06367916 0.08138784 0.047772948 -0.09493966 0.0025074203 0.19086224 0.124129236 -0.07762093 0.013651094 -0.26293147 -0.005361526 -0.019602321 0.06939994 -0.19434977 0.11268871 0.055738337 -0.024800891 0.056604546 -0.16494489 -0.054862406 -0.02327995 -0.068663254 0.053624477 -0.09168323 -0.13547741 -0.053847514 -0.17540012 -0.2615283 -0.06543747 0.18097472 -0.118791066 0.058557965 -0.11416664 -0.05945183 -0.13021605 -0.04589349 0.12907918 -0.058266826 -0.0051712934 -0.14404331 0.058600634 0.22986849 0.19666357 0.054982323 -0.17002168 -0.05143214 0.16915305 0.12382823 0.12081449 0.03246334 -0.07643075 0.1858744 0.07073674 -0.057290416 -0.0022800341 0.03657913 0.07869292 0.0404987 -0.057351146 -0.145712
407 -0.16829725 -0.19129653 -0.77545786 0.07433963 -0.098992914 -0.40555355 -0.015077959 0.32763547 0.29641038 0.1485703 -0.16451329 -0.43055108 0.08721468 0.11264162 0.23730803 0.2565471 0.16038121 -0.10508255 -0.13467729 -0.35280108 0.12807818 -0.50079346 -0.16845575 -0.019962873 0.32276624 -0.32596964 0.23002224 0.21727675 -0.39146492 0.29324663 -0.21579501 -0.4093483 0.13890716 -0.17697003 -0.019344442 0.022142138 -0.08421079 0.080873184 -0.44431368 0.294687 -0.4713584 0.4190397 0.05536305 -0.21095479 -0.094015196 -0.21885459 0.66336024 -0.06661579 -0.424742 0.20798236 0.47637606 -0.2071376 -0.009993678 -0.37272435 0.3013367 -0.08542651 -0.057927314 0.47802082 0.18599188 -0.13945113 0.14992304 0.2294628 0.029432971 -0.14441477 -0.25637075 0.14289638 -0.42910466 -0.28287816 -0.6372566 -0.3488882 0.088637464 0.11050435 0.24579373 -0.40662402 -0.26808354 0.21354367 0.1320605 -0.094884165 -0.20352411 0.45007315 0.62782925 -0.39689764 0.40335545 0.22280768 -0.16762085 -0.06796176 0.17817666 0.19790058 -0.14714004 -0.14483385 -0.15201809 -0.018524395 -0.099299945 0.10699567 -0.5454521 -0.21619953 0.51813436 -0.055948615 0.05172681 -0.040288523 0.15517397 0.1709458 -0.12218533 0.153114 0.14231674 -0.18074411 0.07706282 -0.6211498 -0.2523074 0.39350045 -0.2993977 0.6628117 0.079061314 0.5850272 0.25121582 -0.29562375 0.31719813 0.3074711 0.061574038 0.12795669 0.34156576 -0.19309078 -0.3517725 -0.11210395 0.5938295 -0.29523748 0.34903193 0.052049346
400 -0.6099451 -0.07328522 -0.37854835 1.6482747 0.539335 0.52103657 -0.9161132 0.94101715 0.12070227 -0.23740415 0.23033904 -0.043931328 -0.7771253 2.136658 -0.75931954 -0.17389616 0.5171186 1.8176225 -0.6739477 0.7193733 -0.8660293 -0.46736756 -1.7672908 0.24013343 -0.57646614 -0.12018267 0.7196621 0.5248623 0.18989985 1.1673931 0.08372608 -1.8220923 -0.4446132 0.32369176 1.2649077 -0.3834792 -0.37471598 0.61607563 0.548811 0.03832503 0.18252875 0.6150393 0.088065386 -0.5070042 0.7326071 0.006950277 0.033531666 0.09033484 -1.0040613 1.0127603 -0.12541348 -0.3040769 0.7304812 -1.4109111 0.079966456 0.8403661 -0.13032289 2.0321748 -0.21112384 -0.5638047 -0.08759978 0.85991067 1.3004223 1.0451437 0.028447194 0.90215105 -0.34087208 1.0696317 0.5923543 1.7948755 -0.64408547 -0.26147026 -0.14422914 -0.53139395 -0.034824934 -0.40314364 -0.0015522818 -1.4380108 -0.90371615 0.95782185 -0.94112915 0.030358423 0.31256106 -0.58295774 0.9562483 -0.10739834 0.27582872 -0.722494 0.12130008 -1.0668955 -0.00810584 -0.30082422 1.0783188 1.4487692 -1.4043334 0.1653951 0.69972426 -1.5328896 -0.50695866 0.43992916 0.4261273 -0.71481085 -0.76415366 0.11524805 -0.2343627 1.2008556 1.1870129 -1.0562675 -0.620018 2.3515708 -0.26961696 0.21195833 -0.2502367 0.09993611 1.4269388 -1.1415426 1.3578748 -0.36686227 -0.640028 0.100358024 0.7991506 -1.241415 0.7833752 -1.3496695 0.9843936 -0.4032936 0.97677827 -0.950114
476 0.0683697 -0.064350575 -0.005280476 0.12229729 -0.09592567 0.0885439 -0.009789742 0.04223652 0.12331273 0.06604322 0.056252252 -0.13934425 -0.089839146 -0.013378139 -0.12348889 0.10363252 -0.07720902 0.13661772 0.13326572 -0.0719937 -0.0026989183 -0.028812902 0.13245262 0.095678136 0.06384325 -0.10226718 0.0728628 0.15976284 -0.011116587 -0.15119165 0.109025426 -0.23496127 -0.18493336 0.010267754 -0.009392759 0.101458795 0.12910233 0.08857943 0.07915993 -0.06707755 -0.21112396 0.05181937 0.09809194 0.02255288 0.16555434 -0.23187383 0.12691504 -0.02429711 0.13134047 0.055047568 0.17753723 0.014318728 -0.087730244 0.000625986 -0.022691635 0.18214759 -0.06398385 0.06373896 0.07063842 -0.01250843 0.1356608 -0.03238671 0.027482081 -0.13017914 0.0732289 0.031342145 -0.117876455 0.07721711 -0.07716156 0.09370881 0.21226504 0.057144202 0.040774968 0.061024677 -0.020800468 -0.06480736 0.013824232 -0.13072163 0.1233775 0.009184005 0.03597127 -0.053750914 0.05179319 -0.072308 0.019026997 0.13600104 0.06969035 -0.086294055 -0.010103757 -0.02741073 0.13462144 -0.050665297 -0.070695795 -0.008854829 -0.016573 0.0155438315 -0.016693953 0.037018023 -0.07493864 -0.056127716 -0.07369982 -0.09286911 -0.16369718 0.016595736 0.030973257 0.12732702 0.08323256 -0.054622184 -0.057702053 0.16252163 0.021758951 -0.09969912 -0.11984515 -0.0811418 -0.07123519 0.08734367 -0.13341768 -0.030281203 0.09353786 -0.018462101 0.079572864 0.118538484 -0.040337827 -0.062341396 0.046651978 -0.077471405 -0.17980361 -0.044956986
385 -0.018046606 -0.08480969 0.13913977 0.20604663 0.030731913 0.1751073 -0.030061452 0.15479007 0.11297906 0.07382925 0.035847075 -0.09730174 -0.2074377 -0.07137309 -0.17591734 0.18398577 -0.02050845 0.118525244 -0.026618535 0.086212 0.10706773 -0.09956958 0.045415305 0.0067524663 0.0015141219 -0.0048887073 0.031444002 0.20043391 -0.1736507 -0.042722598 0.059523277 -0.13468654 -0.21425702 0.15747961 -0.050896805 0.07160264 -0.059345186 0.05226795 0.046205375 -0.053784754 -0.02913363 0.104357444 0.11518352 0.031596288 0.103522494 -0.24775603 0.037581276 -0.028879803 0.11241876 0.3078063 0.010435137 0.03812003 -0.035992015 -0.16850187 -0.08855087 0.15117365 0.0827601 0.13487689 0.09793562 -0.0087731 0.03290864 -0.0326176 0.0056626094 -0.07950284 -0.09437863 -0.12772815 -0.13646954 -0.008290141 -0.018499982 0.18171455 0.007980508 -0.1816262 0.07995096 0.1960668 -0.012677735 -0.055055697 0.004658392 -0.12883018 -0.022362603 -0.025721088 0.069460176 -0.03345336 0.042904317 0.012155296 -0.083282724 0.117747106 0.057057224 -0.058893263 -0.036180597 -0.10487852 0.13262494 -0.05837935 -0.13179055 -0.040450297 -0.08394646 -0.18189287 -0.024576137 0.09843385 0.039595626 0.11394696 -0.1858802 -0.033086777 0.065224014 0.006641919 0.038790397 -0.0675177 0.061765946 -0.02326167 -0.09546187 0.14596023 0.06697703 0.026457688 -0.1424356 -0.05300457 0.10571147 0.23098029 0.053539645 -0.043349374 0.035467226 0.034579583 0.12716484 0.045505974 0.007803645 -0.02289834 0.21292165 0.07761865 -0.09231537 -0.074988805
876 -0.037295103 0.026915237 0.07493992 0.1683332 -0.17038375 0.03479808 -0.059527535 0.036851082 0.06963468 0.014096885 0.06786555 0.058485094 0.0015397458 0.086642146 -0.17824946 -0.027895002 0.037342817 0.19507045 -0.015712263 0.015828282 0.050592553 -0.0069376067 0.08228067 -0.0023203043 0.0031953556 -0.013080952 0.14058879 0.16289718 -0.13850439 -0.15123166 0.04589456 -0.25601953 -0.13738444 -0.10349607 -0.120113306 0.08136246 0.10707273 0.134849 0.07256855 0.045367144 -0.14537433 -0.08383525 0.0630005 -0.0822316 0.10193441 -0.1861092 -0.14022022 -0.06428198 0.10338197 0.04651291 0.08983593 0.049683306 -0.20304823 -0.094895326 -0.006199582 0.13803793 -0.12489752 0.050229277 0.028684612 0.04124198 -0.0137000475 0.11105843 0.07022843 0.1198553 0.088872075 0.17656723 -0.09224458 -0.0026453875 -0.13143013 0.10537378 0.14348139 -0.09372343 -0.035299268 -0.04410787 -0.0051531647 0.010425457 0.047807023 -0.20172033 -0.1038757 -0.12271142 -0.11659079 -0.09224494 0.11770071 -0.06681168 -0.05256721 -0.046541754 0.04792824 -0.11341003 0.04018295 -0.047307655 0.062933564 0.015297659 -0.020906033 0.011502682 -0.006811719 -0.04125632 0.016719941 0.18547033 -0.06484855 -0.05568506 -0.055116378 -0.008668616 -0.029824113 0.08543864 0.12944861 0.0022658478 0.19550654 -0.16340533 0.041013137 0.07182104 -0.07321674 0.037677262 0.022937978 -0.06362913 0.044086117 -0.061656937 0.1394895 0.017199373 -0.16392395 -0.037359703 0.18512993 -0.009541339 0.01816324 -0.05504324 0.13427117 0.05584711 -0.14641 -0.020302914
247 0.11698898 -0.14321375 -0.11438081 0.5059933 -0.07802129 0.13074885 0.110407926 0.1676884 0.20817131 0.050904278 0.22843498 -0.100839354 -0.02261271 0.056818265 -0.033301637 0.044551764 -0.03627568 0.32010987 0.028346932 -0.04677235 0.20601474 -0.025560068 0.097952455 0.07622551 0.061012816 0.0637822 0.11767676 0.09261615 -0.016505176 -0.09915713 0.00047756787 -0.18974666 -0.051428728 0.0791338 0.17112055 0.21923694 0.057105076 0.06413239 -0.023515983 -0.12079639 0.006160501 0.102186866 0.21341185 -0.15035005 0.12363035 0.056522083 0.166595 0.08543894 -0.01413267 -0.030906597 0.05801153 -0.15429077 -0.16976309 0.029864844 -0.11878379 0.12933896 -0.07915493 0.11487626 0.124709584 -0.048723493 -0.057695698 -0.1620905 0.036442187 0.06238249 -0.08645052 -0.07460538 0.011610358 -0.19702934 0.027122732 0.12428173 -0.08128289 -0.07297503 -0.09693381 0.09755362 0.11996709 -0.044996087 -0.068785265 -0.04944044 -0.05697051 -0.0140784895 -0.08456073 -0.0867552 0.13772301 0.09861041 -0.040147685 0.06418521 -0.049041662 -0.013311534 -0.01626975 -0.10723319 0.016597962 -0.086810276 -0.1815656 0.0740927 -0.16069661 -0.057808496 -0.10106404 -0.045751452 -0.24038322 -0.0008171695 -0.03325119 -0.018974217 -0.13793561 -0.123397455 0.044686183 0.09656304 0.0076793367 0.011460424 -0.00059092836 0.1208766 0.24434884 0.09282508 -0.16465335 0.03466274 -0.13571021 0.0815871 0.04167248 0.13169533 0.02681309 0.0020309363 0.14862278 0.01067114 -0.002716825 -0.01726338 0.08076816 -0.28766006 -0.11910164 0.04772548
129 -0.052623704 -0.09133301 -0.011238499 0.16641814 0.057581265 0.123827666 -0.1608136 -0.015810305 0.11701083 0.119933285 0.08917913 -0.056058977 -0.19788654 0.08193289 -0.16067438 0.073203065 -0.055845886 0.20586707 0.0031331894 0.10978103 0.17328593 -0.06704331 -0.072717205 -0.14356005 0.07810187 0.046971895 0.09628825 0.12999691 -0.25195995 -0.04489759 0.014029839 -0.15882368 -0.10249117 0.09532861 -0.033610847 0.13279872 -0.045109145 0.07227796 -0.044180807 -0.19963817 0.018087272 0.23067276 0.068720244 -0.007895333 0.04896742 -0.064026855 0.013781077 -0.1126399 0.2592019 0.04786483 0.045343332 0.1551802 0.017783578 -0.057662614 -0.023640726 0.1005987 -0.07852951 0.12372255 0.06274771 -0.025939938 0.092160575 0.043338288 0.12931855 0.053129923 -0.08700613 0.06697627 -0.072104 -0.008085409 -0.056330677 0.09450298 0.070708096 -0.2128905 0.007923739 -0.022723632 -0.031082802 -0.0790714 0.054308742 -0.17968607 0.06915895 0.012405701 -0.10796986 0.017193934 0.11477154 0.050590646 -0.23941685 -0.031761657 0.056267634 -0.13882455 -0.017546833 -0.063962735 0.04370316 0.005472668 0.052593656 -0.10601026 -0.04716875 -0.059525937 -0.021448515 0.04741939 0.08951226 -0.055978123 -0.063695274 -0.11459249 -0.03907001 0.16495055 0.18148394 0.02031169 0.16004573 -0.036364634 0.10732193 0.18455856 0.1977886 -0.010094027 -0.11377322 -0.08103974 0.027983865 0.018458275 0.1339778 -0.032339964 0.02009346 0.00076685764 0.06809806 0.007105672 -0.060468785 -0.09649973 0.1481859 0.10678622 -0.039487403 -0.1712429
314 -0.01230301 -0.071006306 -0.17865111 0.28013003 0.006771894 -0.044165254 -0.081194766 -0.025523663 0.069139235 0.0014787175 -0.002984404 -0.048615415 -0.15604883 0.13470006 -0.069391765 0.1163797 -0.04888992 0.31918892 -0.0009189456 0.029417766 0.04192136 -0.08636122 0.069997594 0.0060473396 0.023473429 -0.025971517 -0.0069066235 0.105266325 -0.06454405 -0.121052034 0.07611881 -0.23219223 -0.10751312 0.05046865 0.09625332 0.13221547 -0.08017512 0.16128929 -0.18550798 -0.14988874 -0.13783067 0.13968706 0.10468721 -0.21190272 0.15200599 -0.12143743 0.08569682 -0.031801645 -0.041530166 0.03682756 0.27264303 -0.13083677 -0.115158476 0.05257036 0.101873755 0.052053895 0.039004777 0.076144345 0.023565823 -0.15748362 0.16883713 0.11065023 0.1581685 0.13285895 0.029010238 0.06803284 0.041265372 0.0017795792 0.15841898 0.07399362 0.20075458 -0.10719831 -0.016203897 -0.10928899 0.1242619 0.026671067 0.03829736 -0.18037395 0.04206526 0.08458162 -0.06355425 0.12884502 0.1372 0.04520758 -0.07330961 0.026742537 0.006791118 -0.14520794 0.057312768 -0.020713517 0.02196863 -0.17048208 -0.0052279206 0.053664766 -0.0014369541 -0.011491725 -0.15424362 -0.0035722044 -0.11939427 0.016110683 0.07675234 0.020463184 -0.11707242 0.08911808 0.17600468 0.10490533 0.018060306 -0.11242051 0.02399247 0.20340192 0.13335302 -0.145046 0.02387326 -0.116012156 -0.1602757 -0.20248367 0.069493696 0.1039596 0.00072222867 0.006410431 0.16966543 0.09007123 -0.06163588 -0.12624592 0.1099238 0.0445313 -0.10824123 -0.14324787
404 -0.535791 0.061563242 -0.26663926 0.67621857 -0.4290343 0.36957204 0.15582842 0.4561519 0.011701762 0.91719097 -0.11771741 0.19075596 -0.87608975 0.24362278 -0.3043186 -0.18396452 -0.02621547 -0.4212138 -0.32609826 0.018756686 0.013912024 -0.3338154 0.2754629 -0.48762032 0.56707007 -0.1556001 -0.060094364 0.063914426 0.3712909 0.039311543 -0.19838361 0.6674176 -0.15549198 -0.5080566 -0.36935368 -0.004030125 0.4997345 0.23601136 -0.11033296 0.07082173 -0.41042233 0.5381433 0.29231027 0.051908508 -0.10307918 -0.7952927 0.32780263 0.29879496 0.056785736 -0.13274358 0.14678086 -0.5861455 -0.6635293 -0.27814376 -0.23283209 0.9313109 0.024543548 -0.23754099 -0.46444345 0.107912675 0.34766737 0.35926616 -0.4881345 0.031745773 0.08430138 -0.32446495 -0.2590954 -0.05391592 -1.0982699 -0.18647389 0.30820727 -0.33185422 -0.06287066 -0.26387244 -0.379537 -0.27315128 -0.46292987 -0.08944983 0.50223964 0.38679293 0.51774514 -0.29752198 0.14981589 -1.0238923 -0.04015874 -0.000617436 0.07266608 0.21444839 0.32004812 0.4182296 0.25960138 -0.5202428 0.08930373 0.11630793 -0.24064608 -0.630583 -0.41440326 0.72110003 -0.49369642 -0.19522421 0.076305844 -0.009199367 -0.34052548 0.62054527 1.0253413 -0.59901583 0.29873243 -0.39661628 0.44537142 0.44436142 0.07551959 -0.56648237 -0.12983051 0.106007986 -0.5185884 0.23960242 0.07026949 0.3716177 -0.25079453 -0.057259653 0.5045269 0.44626737 -0.4607235 -0.3155626 0.4619344 0.093965575 0.15393972 0.1349367
669 0.094903804 -0.09085036 0.025313588 0.5065888 -0.08216925 0.055121113 0.17008226 -0.08364742 0.20822328 -0.04635921 0.11071401 0.025626326 -0.06892325 -0.016837442 -0.13307531 0.13331793 0.06598393 0.24407023 0.04620041 0.0893078 -0.031978812 0.008898212 0.13057746 0.17397697 -0.051222805 0.12245874 0.18999957 0.15220156 0.055081822 -0.114683814 -0.006172628 -0.20435348 -0.16898268 -0.0061584343 0.22403587 0.29425058 -6.23278e-05 0.23492429 0.016813472 0.025386285 -0.18900992 0.013833922 0.1922359 -0.16356412 0.12372939 -0.13582829 0.12042324 -0.0005460733 -0.0904994 0.13916776 0.29306757 -0.092691034 -0.17607825 -0.081182845 -0.031165423 0.18874751 0.015271026 0.20016974 0.13006152 -0.18816735 0.049018994 0.07521118 0.07281803 0.19482477 -0.06333451 0.1007549 0.10742118 0.049226828 -0.01767278 -0.043354392 0.02085763 -0.16563396 0.061227817 0.075738244 0.22417371 -0.049045276 -0.044094753 -0.24196741 0.045640357 0.044304203 0.011048973 -0.20727943 0.25550267 -0.06275365 0.089676194 0.017961452 -0.072197236 -0.11263318 0.053896695 -0.004884402 0.05414002 0.0048992964 -0.026627554 0.078294784 -0.09836738 -0.06829259 -0.13644454 0.13560842 -0.16068232 0.030608604 -0.06241663 0.16221908 -0.08006497 0.024830326 0.19449903 0.0062153153 -0.007608825 -0.1328976 -0.0042827455 0.22722477 0.20513941 0.008816056 -0.100637786 -0.19996749 -0.02858245 -0.038226593 0.068464145 0.07693405 -0.13595046 0.07294522 0.32888237 0.04610893 0.054088846 -0.017164152 0.12028358 -0.026802579 -0.18670727 -0.20142403
324 -0.0010346211 0.025898866 -0.020963265 0.22323947 0.018809754 0.016578354 -0.01102133 0.013417911 0.12762368 0.08916645 0.05918467 -0.12154943 -0.05632555 0.17832306 -0.10535257 0.005152758 0.08045087 0.2164187 -0.05180736 -0.014575251 0.026972175 -0.024339464 0.07374252 0.118172854 -0.0913293 -0.028754402 0.093381055 0.1482107 -0.0731358 -0.05939435 0.04629389 -0.16769846 -0.17359394 -0.022505067 -0.025889872 0.08955768 0.063396074 0.15329579 0.09844846 0.013093172 -0.12973599 0.008635 0.00967712 0.12154799 0.18029703 -0.20987052 -0.006093477 -0.030564569 0.029282568 -0.036627512 0.05334856 0.028289812 -0.06749017 -0.03525643 -0.2272775 0.10959457 -0.104970776 0.037858244 0.051187333 0.069064036 0.011003931 0.14689305 0.15830913 -0.14542498 -0.019977719 0.088110216 0.016535394 -0.039158374 -0.17419745 0.11418013 0.12194347 -0.13726693 0.032978825 0.06614139 -0.010886292 -0.019156573 0.06945293 -0.27345386 -0.03786429 -0.016175434 -0.07340435 0.026685946 0.09791132 -0.035858892 -0.12406835 0.054448783 0.008532538 -0.019342946 0.09242131 -0.06991416 0.12823434 -0.03545998 -0.08669819 -0.021483986 -0.082491584 -0.030803861 -0.027860427 0.047123045 0.03686921 -0.014908876 -0.093278 0.044095222 -0.065123685 0.014338071 0.08576828 0.064948924 -0.020459915 -0.14824 0.05276499 0.17168424 -0.13276133 0.005987007 -0.054149386 -0.047878176 0.023008078 0.060640614 -0.014241269 0.10490377 -0.16966887 0.0056779175 0.12186264 0.07639831 0.02877858 -0.062053714 0.18211931 -0.13325849 -0.043880455 -0.03249291
758 -0.013832089 -0.017950263 0.023330385 0.16979805 -0.070557326 0.019751089 0.00017068123 -0.014219137 0.09663288 0.056459166 0.068027 -0.14141545 -0.092197865 0.09033769 -0.12389231 -0.0006729846 0.06727569 0.25659254 -0.0067884093 -0.034564853 -0.030580012 -0.03397426 0.039214507 0.09410589 -0.082789585 0.035908453 0.044973284 0.10724103 -0.12785003 -0.080543876 0.065125465 -0.19521476 -0.24918811 0.06294755 0.035401978 0.04708371 -0.00493927 0.086737126 0.07871928 -0.021288002 -0.15969424 0.012129854 0.06726304 0.07265239 0.1365889 -0.25407568 -0.054169457 -0.06653639 0.07027918 0.020712318 0.096535504 0.028637843 -0.101247914 0.0039589508 -0.1913091 0.16184503 -0.15183635 0.062755086 0.077339284 0.06707101 0.050707627 0.11849588 0.12990811 -0.13904066 0.0584886 0.09070794 0.014159644 -0.0745173 -0.20297663 0.15860602 0.12498168 -0.13061254 0.05840904 0.06460896 -0.021172222 -0.007949767 0.07118938 -0.28516534 0.01108679 -0.051449805 -0.019241348 -0.08835085 0.10980635 -0.047897805 -0.18122686 0.04747717 0.10440128 0.018124167 0.06357017 -0.07658549 0.10729753 -0.014451766 -0.096197374 -0.032335203 -0.080668576 -0.098751165 -0.00052319176 0.022756455 -0.013772436 0.013016362 -0.04199144 -0.07168787 -0.021102106 0.018880006 0.1381552 -0.029514275 0.04117257 -0.20228575 0.049104992 0.14545119 -0.08926056 -0.02609304 -0.009990558 -0.07500126 0.03720155 0.07427102 -0.03264814 0.10238606 -0.17024851 0.02770252 0.12628943 0.118582204 -0.053547237 -0.06463562 0.13660619 -0.12604971 -0.025904357 -0.036412954
264 -0.031863134 0.005765052 -0.04509272 0.08512674 -0.0005316732 0.039377987 -0.09660425 0.09181084 0.12866919 0.03376517 0.08902252 -0.015078654 -0.071776874 0.031686176 -0.049917337 0.015213479 -0.15075155 0.1575369 0.14471106 -0.08722942 0.0773136 -0.12197892 0.03229531 0.14534909 0.15416278 -0.031267513 -0.04394126 0.22822873 -0.045016866 0.026056426 0.08649132 -0.18152647 -0.17567876 0.054785587 -0.03787959 0.1747904 -0.039351698 0.094605476 0.0036968307 -0.010695342 0.07587187 0.076472074 0.0851128 0.15545695 0.11552895 -0.22828479 -0.01742235 -0.010145562 0.16352744 0.04600763 0.13456099 0.0021160727 -0.10977 -0.027975034 -0.08483089 0.22482577 -0.062011078 0.16892941 0.07594525 -0.13617104 0.08876243 -0.034491625 -0.0059220684 -0.037823614 -0.0054116915 0.021631878 -0.09012231 -0.051393103 -0.008643411 0.15434006 0.07614271 -0.0030145554 -0.06427214 -0.23608309 -0.019121725 -0.09290874 0.0439563 -0.040170852 0.11438462 0.014820617 -0.056434266 0.07149319 0.14703663 -0.076235905 -0.07599992 0.15952773 0.050263178 -0.054448653 0.05996754 -0.102493934 0.036895268 -0.1412421 -0.05320756 -0.13705635 0.13969108 -0.07710895 -0.044332977 -0.021396292 0.05974001 0.04828939 -0.036997527 0.028301707 -0.053690523 0.0867132 -0.021097561 0.16542304 0.025417017 -0.0745985 0.052277956 0.17658438 0.094213985 0.11043102 -0.08821152 -0.055616617 0.0036727446 0.037866514 0.042651203 0.052624673 0.09295646 -0.037805602 0.14050819 0.18171303 -0.2344196 -0.101796046 0.15092541 -0.010063849 -0.09118666 -0.048321374
753 0.047061857 -0.037898775 -0.030024372 0.1949464 0.0025419495 0.070156775 -0.058080465 0.002783256 0.10737092 0.0761851 0.1607355 -0.14592949 -0.026969297 0.16877067 0.0370247 -0.04413099 0.12290647 0.19820724 0.05489817 -0.06417262 0.03989767 -0.009651519 0.04266904 0.058935743 -0.019950407 -0.052159775 0.018347956 0.09443916 -0.111712 -0.10453957 0.09648691 -0.20931098 -0.19465405 0.06041032 0.079266526 -0.027285898 0.049208973 0.05120789 0.09978804 -0.06127336 -0.15741877 0.1271822 0.016258936 0.10639604 0.080294386 -0.19999588 0.011181515 -0.068033755 0.038947474 -0.08057186 0.0057337666 -0.041410968 0.007395581 0.037116803 -0.17468771 0.16735625 -0.061485715 0.0341699 0.105246834 0.13131642 0.032316286 0.058228116 0.11003116 -0.07012732 0.05885265 0.04524012 -0.08146053 -0.16391169 -0.15029287 0.21547763 0.06108915 -0.20150578 -0.005093119 -0.047073662 -0.009769446 0.046433035 0.051774245 -0.049729764 0.05891139 0.010187681 -0.09042903 0.03347589 0.1545967 0.0060599507 -0.15696126 0.18899968 0.0021175116 -0.072287 0.06830161 -0.11382405 0.04885407 -0.07264697 -0.16586348 0.025662951 -0.07560602 -0.008580976 -0.055142246 -0.06347836 0.008833343 0.006580201 -0.13821861 -0.039617326 -0.050800916 0.0022366822 -0.059404492 0.1087211 0.0781946 -0.04741136 -0.116328746 0.13111974 -0.037030865 -0.019856805 -0.096126646 0.03004627 0.02852238 0.08756045 -0.029815538 0.062105253 0.0002509336 -0.086649776 0.16161841 0.18381044 -0.12580416 -0.1612497 0.16660781 -0.12692133 -0.08154797 0.009097369
402 0.06872997 0.011506408 0.08657284 0.18179329 -0.04003001 0.113958195 -0.05544576 0.17907678 0.1475171 -0.007113735 0.07527516 0.03470085 0.02678216 0.12388567 -0.12709197 -0.0032422913 -0.008405307 0.20345911 0.116897285 -0.08918034 0.020614587 -0.049902875 0.1475303 0.08675523 0.16649958 -0.038565543 0.083735034 0.08466373 -0.20080018 -0.13133651 0.036269166 -0.25444838 -0.2302087 -0.1563441 -0.032844547 0.016588008 0.005841837 0.15685526 0.18193842 -0.05985367 -0.034615863 0.014769159 0.08555218 -0.0009929467 0.043147836 -0.085083015 -0.054416366 -0.005204239 0.20448658 0.108726315 0.2369211 -0.0062695593 -0.1748812 -0.12789553 -0.056425977 0.13740173 -0.024655988 0.030223627 0.056681726 0.027833497 1.7015445e-05 0.009471545 -0.01573778 0.07614327 0.09188844 0.26916367 -0.06889837 -0.1697907 -0.032672025 0.25913754 0.046854947 -0.081660084 -0.12982306 -0.05824114 -0.020810975 -0.022148808 0.059575938 0.010930508 -0.022504438 -0.004494224 -0.13179187 0.07230508 0.2356363 -0.041264895 -0.039849136 0.008227786 0.10081463 -0.07385205 0.1018759 -0.11299224 0.0600943 -0.06910186 -0.09038399 0.009583116 -0.011696407 0.007182844 0.002001485 -0.04407319 -0.05099795 -0.03640043 -0.08130142 0.049971204 -0.11008155 0.020100735 -0.14302011 0.17035782 0.10671232 -0.086573936 -0.020124605 0.16780786 0.013138171 0.1642203 -0.22745405 -0.10071976 0.102911584 0.08612019 0.069881506 -0.0026533261 -0.043494273 -0.122133724 0.1955767 0.11324802 -0.054080024 -0.13163614 0.06183163 -0.04844298 -0.1783549 0.020011859
818 0.036512118 -0.10456157 -0.19244829 0.31277928 0.0633027 -0.008927322 -0.01782527 -0.115863875 0.04721717 -0.032251604 0.02073409 -0.054861553 -0.18247014 0.08188021 -0.083574586 0.056943152 0.061220534 0.43623465 -0.09118275 0.011183907 -0.06372976 -0.14499325 0.014646 0.0060247253 0.0002200985 0.033033524 0.09756982 0.03405178 -0.068645775 -0.118028864 0.091308445 -0.2719946 -0.1657133 0.005106999 0.14633627 0.17180409 -0.0058074654 0.091561936 -0.172853 -0.17172806 -0.096246675 0.16943899 0.011695469 -0.12260983 0.04840693 -0.18159868 0.056040213 -0.067671545 -0.026376044 0.04581248 0.31694314 -0.09441925 -0.090627 0.072170824 -0.016191 0.15256059 0.08188468 0.19008979 0.0047770115 -0.09431216 0.18165661 0.09909236 0.18233052 0.08999401 0.11775944 0.1816467 0.03667246 0.04944092 0.09340972 0.0068448507 0.11984335 -0.14567207 0.05105344 -0.1322289 0.12325779 -0.037309036 0.025143795 -0.17329986 0.1498571 0.07642865 -0.048993267 0.22467662 0.18312515 -0.044455595 -0.11894018 0.06535131 -0.21615669 -0.064384945 0.14214405 0.045704022 0.019101478 -0.14360042 0.0698588 0.019595109 0.036040053 0.054326933 -0.13600811 -0.08531855 -0.029627888 -0.057625435 0.08795798 0.15561476 -0.07149162 -0.08626087 0.19411552 0.034991555 0.073585644 -0.18312639 0.011387744 0.22542426 0.21897942 -0.039076027 0.0998428 -0.05992878 -0.14268169 -0.07438898 0.10016916 0.17399038 -0.08604255 -0.049764752 0.13547444 0.111401014 -0.09243036 -0.20897317 0.11858156 0.0012867801 -0.15271872 -0.09522535
102 0.008513033 -0.029416323 -0.05773139 0.13595882 -0.109452285 -0.014891372 -0.027811645 -0.14618473 0.103628464 0.060814958 0.048601598 -0.033604972 -0.010776117 0.0818901 -0.16481633 0.028164145 -0.014978948 0.2703526 -0.06343301 0.020454723 -0.060776766 -0.056866154 -0.017747078 0.009169603 -0.095239766 -0.031848386 0.10956043 0.17925318 -0.07650266 -0.011179387 0.13025498 -0.112268716 -0.09587976 -0.03954061 -0.05265205 0.11840448 0.08027631 0.093525454 0.023365822 -0.13489577 -0.12073008 0.036319587 -0.02467894 0.06100635 0.09142865 -0.2002165 -0.022308175 -0.098467715 0.0821303 0.021567207 0.029231211 -0.01014488 -0.047765914 0.04854177 -0.120096885 0.1878991 -0.16659683 0.11417354 0.11214703 0.030863812 0.15590268 0.1544114 0.11037204 -0.08680956 0.13639015 0.10811705 0.007503898 0.10872178 -0.124210246 -0.02637124 0.21120517 -0.15138175 0.12668754 -0.087007925 0.007086242 -0.04173214 0.07727825 -0.2244424 0.039180167 -0.00018017688 -0.07121986 0.03829215 0.07377957 -0.065236345 -0.13834219 0.05202367 -0.027943285 -0.1078686 0.043973304 -0.019006332 0.20874846 -0.08697044 0.07178633 -0.085031234 0.011269358 -0.071666405 -0.039075546 0.094331995 0.02083198 -0.10884566 0.040758222 -0.024882706 -0.00126874 0.10465663 0.13385005 -0.08111267 0.12980632 -0.16586134 0.045057934 0.15087618 0.017336017 2.74828e-05 -0.010388119 -0.060543768 -0.03436112 -0.014142128 0.008843634 0.12614854 -0.067527935 -0.051410224 0.12566239 0.06965818 -0.0060350546 -0.11749539 0.20110655 -0.10985614 -0.04109896 -0.03298964
22 -0.056133166 -0.1377759 -0.0486865 0.24673182 0.09237737 0.023912156 -0.07710511 0.0035549526 0.15155911 -0.03335954 0.10861504 0.02420162 -0.17550085 0.18214579 -0.0011612274 0.103368044 -0.14424154 0.4082389 -0.049511362 -0.06980736 -0.25543657 -0.13698338 0.004666525 0.126649 0.0046992474 -0.102897 -0.075323656 0.123191476 -0.0020993948 -0.028522018 0.12346673 -0.105221264 -0.17420086 0.07236225 0.39629412 0.20228086 -0.15004769 0.14859934 -0.10446141 -0.06211443 -0.19112946 0.13461846 -0.052696634 -0.036101427 0.18912914 -0.12843682 -0.010963542 -0.014520522 -0.08386957 0.09441217 0.12023135 -0.15749961 -0.08935578 -0.01256299 -0.01663316 0.19733606 -0.019310405 0.101426825 0.01962475 -0.13415575 0.14549522 0.24991825 0.02515681 0.11313712 -0.076373585 0.03511245 0.04966115 -0.09544126 0.21917786 -0.026300324 -0.038481705 -0.062148586 -0.111549616 -0.15260974 0.14427838 -0.018644078 0.15116975 -0.25827608 0.17862456 0.19455023 -0.032539047 0.19055898 0.21528083 -0.06326356 -0.014652904 0.1235217 -0.14477497 -0.14081539 0.108247854 -0.041838143 -0.040665112 -0.29987845 -0.16153026 -0.012695444 -0.08310543 -0.26793617 -0.2018041 -0.05750998 -0.079497635 0.012556283 0.014731456 -0.09741901 -0.08644492 0.1508392 0.15704301 0.10218397 -0.11437798 -0.11053425 0.11554001 0.32249722 0.29585093 0.09112969 0.0011880186 -0.116608605 -0.042965557 0.085380405 0.14663936 0.16919093 -0.037815683 -0.008416885 0.13679492 0.19096218 -0.13863635 -0.14641127 -0.083485745 -0.13443926 -0.07970564 0.06934971
406 0.16325738 0.28387117 0.072649755 1.4553875 0.34252906 0.6385602 -0.1432024 0.28027964 0.036514755 0.9253141 -0.2877831 0.66993594 -0.3552145 -0.38056588 -1.2706512 -0.2952701 -0.29644343 0.30612656 -0.36559758 0.19519089 0.15393113 -0.25778648 -0.43409488 0.026370332 -0.05919942 -0.19717245 -0.8815413 0.29988405 -0.38756928 0.016387042 -0.09856404 0.6164019 -0.5386771 -0.67770624 0.36547318 -0.32504943 0.23503666 -0.3399431 0.060304224 0.19688061 0.46253353 -0.314722 1.1895361 -0.44047636 -0.2225972 -0.32933977 0.9420842 0.4191436 0.8271448 -0.48515862 -0.08185496 0.26694086 -0.25382698 -0.26499882 -0.015534349 0.3385931 0.5581611 -0.20277047 -0.9700632 -0.2181463 0.0201736 0.032008674 0.18443753 0.87658435 0.27617085 0.27319968 -0.35499504 -0.21039559 -0.47735247 0.37564737 0.24385573 0.07429055 0.737063 -0.5694037 -0.52526516 0.73882663 0.87805957 0.6308059 -0.6104703 0.3779869 0.41603723 -0.049168147 -0.76868063 -0.5717728 0.06790135 -0.8565284 0.16402414 -0.47564068 0.68469864 -0.39805552 0.71229386 0.032679208 0.110992156 -0.1725989 -0.82823557 -0.2975019 -0.42297208 0.08191957 0.00036145558 -0.12471212 0.48422682 -0.6487425 -0.01997538 0.12779571 0.010804745 0.16190997 0.43403873 -0.615537 -0.31292555 0.7516546 -0.028669324 0.7536868 0.55448073 -0.9555589 -0.25031343 0.04222736 0.0009525447 -0.009129031 -0.28307086 -0.34262896 0.5540426 0.43164456 -0.3746066 -0.45172444 0.27829373 -0.8281036 0.17296766 0.67392784
211 0.03734782 -0.04876144 0.152259 0.13981907 -0.03856547 0.06525366 -0.056825336 -0.020774484 0.20604067 0.07647257 0.108384326 -0.11639309 -0.15038118 0.09509261 -0.12403836 0.029921731 -0.028393824 0.26266402 -0.017407054 -0.023004197 0.07127429 0.006480345 0.05168043 0.10012968 0.056599483 0.060939793 0.11115757 0.10587455 -0.08591087 -0.186735 0.08301539 -0.264567 -0.15584318 0.012866023 -0.088250324 0.18433788 0.079860955 0.16198681 0.16220452 0.009312619 -0.09448282 0.015566864 0.10129748 -0.068257764 0.20881037 -0.23163018 -0.005760562 -0.08790737 0.10100356 -0.05066595 0.18095686 0.057759687 -0.08694767 -0.026863474 -0.061509192 0.08870849 -0.15718244 0.075542584 0.07371131 -0.008811801 0.07039463 0.0745126 0.13789974 -0.015943876 0.046444405 0.12817809 -0.025823992 0.009374904 -0.10066953 0.20588687 0.21802934 -0.10527858 0.011747451 0.14396538 -0.090486236 -0.10096205 -0.07018792 -0.23975344 -0.03035872 -0.050967067 -0.022627603 -0.04646788 0.05614934 -0.13215107 -0.056053117 0.014961052 0.119509414 -0.032256383 0.05755897 -0.028051013 0.009078596 0.048081875 -0.12418816 -0.13328792 -0.018293198 -0.099858746 -0.04562151 0.013843649 -0.0642924 -0.042178113 -0.15074316 0.072775334 -0.16976647 -0.011001473 0.17711838 -0.006354987 0.09811361 -0.20539057 0.07761594 0.25437462 -0.13728419 0.053201355 -0.15917906 -0.12826833 -0.07504522 0.07635297 -0.06683925 0.03620727 -0.09730788 0.043692634 0.061339118 0.20373347 0.035971753 -0.071059145 0.15485017 -0.0612487 -0.05361181 -0.075348765
701 0.007688515 -0.03004186 -0.105145 0.18341988 0.03075144 -0.09906591 -0.1031765 -0.011964391 0.099170394 0.06922918 0.006541579 -0.11575452 -0.049674574 0.045901116 -0.099040754 0.0038420267 -0.05768941 0.20611958 -0.047719125 -0.055623993 -0.10338668 -0.03661718 0.039834384 0.027233072 -0.057491362 -0.049102284 0.10207078 0.21648929 -0.03905232 -0.032439634 0.10651553 -0.08903721 -0.21140882 0.013332371 0.009035069 0.15313207 0.063172586 0.16293566 -0.0020260077 -0.13546926 -0.23644684 0.031840585 -0.06537683 0.02876359 0.17402342 -0.2042569 0.052526943 0.0001892109 0.16738357 0.1200085 0.15299025 0.003341695 -0.18160355 0.04818212 0.02897197 0.19424541 -0.13991292 0.07106094 0.007443572 -0.019367496 0.21145198 0.16847515 0.09107147 -0.22314268 0.10245836 0.0048994445 -0.025018414 -0.033218183 -0.15853788 0.088407315 0.1507745 -0.01459054 0.081517525 0.112462275 -0.013670174 -0.0014894404 0.028873028 -0.2169761 0.06721056 0.026328946 -0.0097913835 0.053175516 0.081909284 -0.06074117 -0.06816978 0.104673535 0.08347656 -0.07814938 -0.036016926 -0.04004003 0.19810618 -0.039400235 -0.13002777 -0.10375838 -0.18589908 -0.049718566 -0.07886182 0.07724006 0.021270242 -0.015201381 -0.013579339 -0.07743736 -0.09655963 0.01656631 0.11912155 0.09377654 0.074804984 -0.08509084 0.042446923 0.18754007 0.039974667 -0.10828001 0.095648326 -0.1327177 -0.053349275 0.0410037 -0.13543177 0.061869685 -0.020367183 -0.0022118825 0.04476852 0.04354492 0.0727854 -0.04681127 0.11341183 -0.16759779 -0.09235908 -0.052411154
875 0.033042673 0.09257587 0.029846372 0.15050977 -0.15005168 0.05207936 -0.014913731 0.036437634 0.015511672 -0.008449127 -0.0049420176 0.020440064 -0.056313735 -0.21249893 -0.18705998 0.065107115 0.06919814 0.23198377 -0.04282652 -0.03972449 -0.03534971 -0.061958574 -0.021898637 -0.010165482 0.022432419 -0.15404017 0.13858421 0.13161148 -0.12418159 0.051427167 0.1178656 -0.14797753 -0.19506097 -0.11870587 -0.02572271 0.10095695 0.14973895 0.1369162 -0.048056986 -0.09713582 -0.22124994 -0.03956975 -0.05207034 -0.023937903 0.034359895 -0.23864575 -0.06937234 -0.018561838 0.16621934 0.20543575 0.07146065 -0.029107133 -0.19065246 0.026326252 -0.09412595 0.1861547 0.083942726 0.01783082 0.043944206 -0.04293988 0.20659442 -0.05621413 0.019478265 -0.116004966 0.18096387 0.023201648 -0.12578098 0.10449374 -0.10958988 0.13800217 0.10785561 0.011764479 0.05231296 -0.09440983 0.090503596 -0.070651665 0.14613958 -0.1139003 0.014793542 -0.052980993 0.031876165 0.08215414 0.09377482 -0.120813124 0.0571801 0.17850797 -0.09472481 -0.07872665 -0.0079372255 -0.1046465 0.2151565 -0.08589821 0.04814177 0.017554715 0.09349538 -0.1410621 0.01851263 0.22928017 0.005752302 -0.06460564 -0.031262882 -0.0046363366 0.055204965 0.019200806 -0.062309034 -0.005605545 0.26651406 -0.1536222 -0.037001513 0.13856085 0.055576317 0.1128727 0.017493108 -0.013053154 0.036047965 0.20700079 0.040292557 -0.0015120333 0.1178939 0.023293808 0.22542337 -0.029462129 -0.07483758 -0.11478941 0.12494967 -0.1617139 -0.07795206 0.06287707
115 -0.009657766 -0.07436286 -0.10018842 0.09267016 -0.098998725 -0.03407095 -0.13973278 0.0068480726 0.10534823 0.10715257 0.1192601 -0.13114399 0.0034099633 0.17624238 -0.13204727 0.028621655 -0.0977119 0.2196584 0.079324365 -0.03269369 0.14333367 -0.1155914 0.0432107 -0.01677378 0.10934343 -0.08124188 0.08423637 0.20889755 -0.1648821 -0.08987228 0.045211814 -0.17668892 -0.16422215 -0.08102004 -0.0072751176 0.15504128 0.018873136 0.17028289 0.028117912 -0.082640894 -0.091881834 0.12915485 -0.020502992 0.04611002 0.13743371 -0.14608781 -0.008427608 -0.0008190486 0.14541258 -0.056880876 0.13958581 0.025645312 -0.1378724 0.08635548 0.06538628 0.10086782 -0.0823975 0.08515263 0.04576735 -0.053458285 0.10480238 0.09839105 0.12654309 0.049550183 -0.0077617895 0.003961192 -0.065326124 -0.01034674 -0.019586783 0.05405134 0.1935707 -0.05161446 -0.00074230623 -0.11838995 -0.0071035256 -0.009731869 0.006275475 -0.13674806 0.12900656 0.044814933 -0.09055 0.080154404 0.057388913 0.0034785776 -0.13035022 -0.049390506 0.06432687 -0.108092844 0.051240608 -0.13507637 0.0023570065 -0.04563303 -0.01032379 -0.07549277 -0.0627973 -0.027984949 0.07256743 0.05845372 0.013236137 -0.0296718 -0.044192553 -0.08417419 -0.105257295 0.17230463 0.16501568 0.11934421 0.15533821 -0.059571583 0.1512517 0.12115311 0.08150123 -0.067445666 0.016097534 -0.19610563 -0.14174823 -0.22430414 0.020264227 -0.048503213 -0.0048502157 -0.081621625 0.1755122 0.0966295 -0.013127409 -0.0985425 0.119442426 0.05275965 0.0022331013 -0.06728754
757 -0.02655773 0.020337157 0.027358089 0.21175382 -0.034015168 0.095668964 -0.043011885 -0.036215857 0.11843552 0.024204876 0.06468086 -0.14174213 -0.08399209 0.108018816 -0.056860935 -0.02798595 0.06126817 0.23551227 -0.058439918 -0.056766666 -0.07870389 -0.08434956 0.05755059 0.116823934 -0.06184219 0.117371075 0.09102416 0.17206049 -0.107998125 -0.088786654 0.018486558 -0.16794705 -0.2085978 0.025712295 -0.0070254644 0.08080433 0.021481922 0.16705395 0.096586205 -0.06534266 -0.09310789 0.014040645 0.031569656 0.061690815 0.17596623 -0.26220694 -0.029470261 -0.07046991 0.13440679 0.05242961 0.11336772 -0.01195134 -0.1288231 -0.014148903 -0.20665252 0.15492661 -0.12519525 0.021618163 0.10311682 0.06932119 0.045271046 0.14445677 0.1316568 -0.09437243 0.10325459 0.10896198 0.047824927 -0.049089484 -0.16956487 0.1684782 0.20761268 -0.18711618 0.059848316 0.09536884 0.0025048668 -0.05864757 0.04028785 -0.2090329 0.011284122 -0.06796931 -0.019797973 -0.0009670056 0.13477321 -0.09109754 -0.17809255 0.045057707 0.03227189 -0.031781867 0.03720359 -0.034346413 0.0724315 -0.029320637 -0.15120314 -0.043857053 -0.06296575 -0.065610416 0.016071938 0.018234082 0.010004769 -0.023432203 -0.04272404 0.08252587 -0.009608481 0.034031022 0.08547963 -0.0026900705 0.013660444 -0.22531196 0.03698614 0.20739324 -0.1465068 -0.0013000213 0.0067071524 -0.028935254 0.07160099 0.032988597 -0.050557185 0.10566665 -0.18227483 -0.01861425 0.06494242 0.14424391 0.033214778 -0.15801261 0.22992486 -0.18007582 -0.08232979 -0.024747822
235 -0.0045076283 -0.010219722 -0.06595656 0.11264692 -0.05892358 -0.0519343 -0.043606896 -0.039354254 0.19555722 0.14019373 0.05694695 -0.11835441 -0.103934176 0.12325795 -0.12829174 0.091399625 -0.059895698 0.21312614 -0.017999213 -0.002013014 0.0086277975 -0.045115303 0.0729322 0.10435225 0.058816403 0.025788464 -0.04533453 0.11826896 -0.12479787 -0.0977068 0.084891 -0.25563386 -0.21459989 -0.026563182 -0.050978977 0.13046156 -0.056853306 0.15941852 -0.0029770592 -0.023395268 -0.13771944 -0.01547048 0.095979065 0.02726027 0.20053202 -0.1954189 -0.077414826 -0.03420194 0.097091325 -0.03205798 0.07504116 0.0047248816 -0.17041287 -0.106550984 -0.05664659 0.12643492 -0.13950281 0.0038119983 0.10898597 0.052434042 0.025612112 0.18851945 0.045745827 -0.03664657 -0.053103995 0.078529105 0.019190578 -0.08097024 -0.15144238 0.18158644 0.19156426 -0.089614585 -0.0490124 0.18568787 -0.037699822 0.010942881 -0.060355417 -0.2397051 -0.07067865 -0.06817853 -0.15942417 -0.16213486 0.061835445 -0.10798241 -0.049060956 0.072463445 0.11718084 -0.043232225 0.06391457 -0.14593169 0.02820754 -0.01353137 -0.17295954 -0.012274542 -0.15488267 -0.19441636 -0.08129426 0.029021123 -0.038800687 0.102810174 -0.14334619 -0.046472285 -0.06029054 0.1607722 0.17421752 0.016966041 0.034643043 -0.12344651 0.11685224 0.20569421 -0.10515655 -0.048144158 -0.038622696 -0.11997921 -0.02689156 -0.055940285 -0.014720579 0.006561843 -0.07891845 0.045363314 0.14101605 0.07506862 0.042452347 0.025580404 0.14343712 -0.14858344 -0.09096559 -0.046314366
694 -0.10487208 0.057699665 0.048090927 0.25401837 -0.041884143 -0.045371734 -0.068139024 0.09637631 0.07591128 0.025073837 0.049213912 -0.07485654 0.00166275 0.18547685 -0.21293125 -0.029052202 0.07266643 0.27779233 -0.018092413 -0.033694178 -0.053454448 -0.038355462 0.056165185 -0.042493753 -0.00376339 -0.06440401 0.048228767 0.049388487 -0.14187245 -0.099302955 0.046784725 -0.15204954 -0.21506739 -0.08917243 -0.056841623 0.03990723 0.07970479 0.22761776 0.08163456 0.0057864278 -0.21578906 -0.07305149 -0.10376984 -0.0120208515 0.10810136 -0.16226065 -0.09764749 -0.01374167 0.16139726 0.12935588 0.13275988 -0.044014405 -0.29722348 -0.07674297 -0.1115996 0.086589016 -0.15387796 -0.15522403 -0.01076798 0.09905958 0.075890385 0.17611502 0.039642222 -0.10631028 0.20417954 0.1832497 -0.03167564 -0.17524447 -0.19966473 0.2536716 0.12262418 0.003702698 -0.088752374 0.13875833 -0.0077528874 0.045319766 0.04389398 -0.16782504 -0.123484395 -0.09906799 -0.10185889 0.07569757 0.13173373 -0.05152085 -0.04940737 0.08981921 0.06572604 -0.07127209 0.108150475 -0.14578624 0.07799045 -0.11919563 -0.14532347 -0.037600014 -0.12358671 -0.10274299 0.055389505 0.023072198 -0.06804709 -0.020366598 -0.00970873 -0.025049979 -0.0068793828 0.023807364 0.074425384 0.017744083 0.036188424 -0.24080803 0.14059207 0.23124461 -0.1564949 0.1234783 -0.022586582 -0.09045631 0.05087201 0.070527755 0.12999758 0.015697576 -0.21571855 -0.030938672 0.12954824 0.018543381 0.037852682 -0.07640364 0.1353657 -0.15525465 -0.026936479 0.06266442
73 -0.003646333 -0.09616564 -0.018672481 0.3319359 -0.049892228 -0.026365468 -0.053432416 0.053102665 0.07835336 0.011702602 0.12223505 0.053159807 0.057522498 0.055116076 -0.21521038 -0.029678116 -0.03954421 0.48162788 -0.0034643223 0.043728035 -0.0019578224 -0.12681742 -0.03575153 -0.14101852 -0.0872608 -0.09577841 0.0966357 -0.011157415 -0.123828806 -0.028131021 0.21365154 -0.1173704 -0.10482361 -0.03520649 0.42730737 0.17413884 -0.051185198 0.1761585 -0.06657263 -0.11857484 -0.19093484 0.054749735 -0.06679 -0.18210408 0.05905594 0.11986218 -0.094938606 0.044658583 0.06838343 -0.045222044 0.1262096 -0.25047487 -0.16927072 0.074534 -0.03889537 0.20924641 -0.14957713 0.01581931 -0.0031415399 -0.12556794 0.025407175 0.19868776 -0.026655745 0.034533415 -0.01997812 0.14351922 -0.07636071 -0.11120808 0.13765313 -0.06631292 0.11478097 -0.015623753 -0.12226216 -0.23915014 0.20613706 -0.14953943 0.060469307 -0.1549346 -0.026999632 0.05961714 -0.14279632 0.019551923 0.20912077 0.07634867 -0.06753856 -0.040893845 -0.12528037 -0.22965117 0.21653615 -0.07692907 0.047265083 -0.18703601 -0.061857123 0.0060005668 -0.18171777 -0.119935796 -0.1523366 0.043012615 -0.15565005 -0.1669012 0.090483606 -0.1250199 -0.16423285 0.06163095 0.17542425 0.049457602 0.02091272 -0.10711278 0.13400906 0.28289124 0.35023153 0.12687103 -0.03633648 -0.076966934 -0.08149872 0.03976011 0.3353003 0.19578944 -0.14902392 -0.07406528 0.255549 -0.09161863 -2.4540965e-05 -0.16161132 -0.108124875 -0.08943291 -0.038041204 0.11154988
617 0.09636138 -0.05422359 -0.1899836 0.4196216 -0.08876006 0.24216932 0.08372475 0.01719243 0.21843496 -0.09449454 0.23743169 0.087374106 -0.105478264 0.1308658 -0.08557323 0.14555025 -0.009342501 0.43792656 0.1331578 -0.03405169 0.07172284 -0.042162936 0.029805334 0.216871 0.1352838 0.10367279 0.020394038 0.039330065 -0.067538135 -0.23844616 0.07399807 -0.35842362 -0.044395648 -0.024881931 0.2672147 0.19082233 -0.02262468 0.16226906 0.013905524 -0.016939927 -0.081930965 0.17320073 0.2214928 -0.1572679 -0.052174255 -0.062488273 0.07328122 -0.060091265 -0.036429103 0.048396703 0.13892081 -0.17347705 -0.18333155 -0.10773924 -0.10431682 0.10159986 0.039104737 0.096305095 0.28902766 -0.16654977 -0.103631616 0.010450484 -0.05115091 0.33957592 -0.10052549 0.10688412 0.039856467 -0.06570401 0.11254001 0.017595585 -0.08328711 -0.26532838 -0.10781087 -0.13190833 0.1324011 -0.090549216 -0.07682524 0.008750075 0.080126405 0.08630218 -0.1535051 -0.15320903 0.2410128 0.025746368 -0.02459811 0.109415404 -0.024118118 -0.09123718 0.057920244 -0.12191021 0.12596051 -0.10903748 -0.100178584 0.25695103 0.055655308 0.017739726 -0.17030199 -0.10751747 -0.13404109 0.18056145 -0.0823553 0.15128936 -0.1538603 -0.055338334 0.15902483 -0.00755357 -0.031634733 -0.036585838 -0.08349337 0.25841033 0.24658166 0.04422142 -0.2834048 -0.041104957 -0.06645205 0.051075023 0.25762877 0.18010467 0.046037216 -0.17013457 0.23799103 0.13847086 -0.09716801 -0.111726925 0.087312646 -0.029502349 -0.13387378 -0.053198878
292 -0.067519054 -0.027490214 0.06548371 0.23444456 0.08182083 -0.06062855 -0.118601434 0.1457042 0.04347118 0.07267491 0.013641174 -0.052388318 0.03950983 0.21605217 -0.14810528 -0.14007963 -0.07790321 0.23408207 0.041391216 -0.09001925 -0.051388536 0.04647969 0.077932775 -0.13501139 0.014792271 0.009202575 0.010308656 0.078501396 -0.097140774 -0.01173826 0.05043075 -0.10415446 -0.18297961 -0.057940338 -0.03290196 -0.040039916 -0.026820453 0.23658834 0.08714861 0.006803043 -0.110225126 0.12719399 -0.059304435 -0.015470472 0.15533087 -0.11206676 -0.09572657 0.07054638 0.07619296 0.103664346 0.19021411 -0.012315675 -0.19375665 -0.046514142 -0.061670337 0.08569515 -0.08060108 -0.052306175 -0.041800123 0.100046515 0.046686865 0.1550633 0.073498 -0.03498642 0.13918692 0.306328 -0.06100747 -0.25220165 -0.091818735 0.24165921 0.15465972 -0.037923783 -0.13322733 -0.045911174 0.011701594 0.023435365 0.11596639 -0.11619425 -0.04240899 -0.02141744 -0.104491666 0.120643266 0.18149652 0.060600676 -0.1877519 0.023094509 0.109071404 -0.14787737 0.1597753 -0.059474885 0.030328184 0.039747886 -0.10692315 -0.04979505 -0.18648414 -0.021177817 0.039292134 -0.034413934 0.029426774 -0.04323655 0.003724922 -0.11378176 -0.021103688 0.10702613 -0.040441316 0.12254242 0.051555883 -0.067532 0.07553328 0.19903411 0.03095563 0.19482991 0.021894423 -0.07326734 0.05804596 0.08684244 0.09718566 -0.014342973 -0.16780612 -0.08771465 0.17331459 0.099954866 0.03252135 -0.10649649 0.028346447 -0.095768884 -0.12688507 0.0070039593
389 0.00060455746 -0.28120157 0.060582273 0.5432218 0.18040964 0.13448618 0.06448499 0.004858993 0.10209055 0.049798265 0.12888716 -0.09938931 -0.20453726 0.13993602 0.04382696 0.012961992 -0.051077764 0.38620058 -0.01031075 0.09364848 -0.18115036 -0.03407455 0.077528 0.17487898 0.0166932 -0.041274544 0.014181672 0.16172352 0.08110929 -0.045311023 -0.08659629 -0.23768048 -0.023763739 0.1772825 0.23625237 0.12766838 0.07311846 0.03185402 -0.121479005 0.016999971 -0.07778961 0.03975074 0.06875078 -0.18800868 0.21021488 -0.14343552 0.19304356 -0.07878308 -0.2687427 0.08507066 0.06508811 -0.057620525 -0.20431572 -0.0057287756 -0.11657308 -0.06799562 -0.013555611 0.2424896 0.1041807 -0.011261095 0.044761326 0.13141447 0.10117901 0.031986542 0.04349781 -0.082427174 -0.016049791 -0.1980144 0.009055205 0.08486364 -0.08295476 -0.18115644 0.047976 0.058791645 0.16433309 0.066314414 0.09991174 -0.09447506 0.029188022 0.039117545 0.06777868 0.0381035 0.12518421 -0.05964665 0.023829132 -0.05472573 -0.15392704 -0.009668361 -0.047351193 0.08793717 0.040107436 -0.13486868 -0.101090856 0.13941813 -0.12376658 -0.1028471 -0.0342674 0.015498341 -0.2719094 -0.067573644 -0.010044302 0.032391787 -0.11793704 -0.09355337 -0.008492004 0.07212035 -7.27649e-05 0.00026506928 0.019652562 0.14285524 0.3011336 0.17200185 -0.105641305 0.06715319 0.0066612177 0.010800032 -0.030294977 0.13433114 0.0043300344 0.24702227 0.012675344 0.17750038 -0.107346945 -0.093145646 -0.026190156 -0.2391423 -0.05008027 0.0012568055
435 0.031760048 -0.2891203 0.04165684 0.5222609 0.18051328 0.08542833 0.0684411 -0.04959344 0.10722875 0.06325228 0.107966505 -0.069370024 -0.15731403 0.16868803 0.028090792 -0.038434066 -0.09205103 0.35002893 -0.022901684 0.064586364 -0.1859868 -0.040378965 0.0689642 0.17042118 0.038242348 -0.042359523 0.0740559 0.15997419 0.06161936 -0.08778334 -0.1172419 -0.19802439 0.02505984 0.12595654 0.21641311 0.1868196 0.092238605 0.054455493 -0.11148975 0.020454088 -0.029365845 0.039688304 0.10638503 -0.24916178 0.24979459 -0.18491589 0.18675016 -0.046453796 -0.26494384 0.11644245 0.039279804 -0.082326554 -0.18776624 -0.0049826065 -0.110897616 0.018590853 0.02516072 0.19147757 0.043078184 -0.061831538 0.06899956 0.06238629 0.11437805 0.0645876 0.031162404 -0.050717644 0.02506967 -0.159281 0.05381526 0.069275595 -0.104925916 -0.16503985 -0.003075926 0.028787958 0.19457138 0.081435636 0.08591521 -0.059167963 0.037036065 0.07980774 0.10706096 0.011702923 0.07273829 -0.027520688 0.008602004 0.04839502 -0.11193202 0.011138151 -0.03223664 0.03886939 -0.01815491 -0.15979232 -0.040275253 0.1306422 -0.10823228 -0.100997604 0.03809029 0.0023744649 -0.19367965 -0.08384048 -0.03429961 -0.021129921 -0.12143576 -0.066926815 0.057596207 0.110396154 -0.07825856 -0.06055717 0.03195056 0.13633437 0.35073557 0.18673529 -0.14371067 0.015942154 0.019490834 -0.03896645 -0.032078896 0.1430121 -0.041784912 0.22460853 0.016687753 0.15155235 -0.028944118 -0.07563968 0.026990265 -0.15286215 -0.022586308 -0.020874849
63 0.13433011 -0.16019239 -0.06351161 0.3118397 -0.14084084 -0.021377094 0.026125286 -0.0493562 0.09179701 0.07326195 0.2066781 -0.028154936 0.09986605 0.115569085 -0.10317415 0.03249143 -0.15957232 0.29012942 0.0917071 -0.025560338 0.11588496 -0.06380506 0.024773259 0.02120701 -0.03483459 -0.03296754 0.1976546 0.2147879 0.009971576 -0.08686487 -0.00834111 -0.052139845 -0.17263186 -0.06264003 0.21378703 0.19975713 -0.061886467 0.35486132 0.12956989 -0.0745682 -0.21513912 0.20263948 0.040463194 -0.08638378 0.086794265 -0.041934747 0.13380416 0.16644537 0.13393463 0.022342052 0.11862923 -0.123932905 -0.096438654 0.04847873 0.10552091 0.11856821 -0.033523493 0.20024504 0.096645854 -0.14737187 0.054526184 -0.0485399 0.01727508 0.050126635 -0.1910703 -0.092912555 -0.00883989 0.04955856 0.0018176842 -0.100292906 -0.007353863 -0.008659407 0.016345376 -0.114358895 0.119444 -0.1216588 0.039210707 -0.18804944 0.13875325 0.059976023 -0.04901455 -0.01689086 0.16695215 0.13108176 0.045042317 0.028510688 -0.037104715 -0.21560152 0.03563479 -0.11970041 0.03120999 0.082259655 -0.059049673 -0.14020783 -0.17937051 -0.13858746 -0.09435511 0.1274764 -0.15581875 -0.10808003 0.111514844 -0.07025328 -0.092776105 0.31187293 0.16692074 0.1361633 0.011234361 -0.013166887 0.22762623 0.26190183 0.3227756 0.09540209 0.0054774373 -0.17668325 -0.13687535 -0.07832298 0.063275754 -0.06347992 0.024436748 0.067659646 0.16536054 0.033816777 -0.031641293 -0.07063373 0.01453728 -0.05039244 -0.047184117 0.0024768037
408 0.011835405 0.02260854 -0.0024033491 0.31695163 -0.18706003 -0.055260528 0.15736234 -0.008185713 -0.058131758 0.079748146 -0.09908464 -0.11014264 0.21575329 -0.08241506 0.13231923 0.14750747 -0.09220016 0.5472375 -0.14163654 -0.17873485 -0.04930425 0.035511177 -0.08100769 -0.04321339 0.32182035 -0.16548924 0.3945486 0.027769314 -0.12213523 -0.08601652 0.4864856 0.024895623 -0.40501568 0.003404876 0.21100786 0.068081506 -0.15212661 0.12494594 0.22107024 -0.057740707 -0.17728978 -0.014709239 0.27442354 0.12597588 -0.10049662 -0.039045617 0.18463916 -0.29301295 0.28246498 0.24761434 -0.25206348 -0.17169732 -0.22919157 -0.15436196 -0.44811785 -0.014908104 -0.2593952 -0.06659334 -0.15655276 0.30123246 0.040111728 0.21448706 -0.10844774 0.23732415 0.12739329 0.15585154 0.15611167 0.40185288 -0.33290344 0.1432168 0.096086994 -0.64744747 -0.26532802 0.100390084 -0.009248719 -0.052914515 0.18400191 -0.29575235 0.046562146 0.052681718 0.018104658 -0.20493284 0.21383573 0.13669553 -0.19942287 0.14935465 0.09856145 0.1693511 0.06258464 -0.30208603 0.22629105 -0.56058943 -0.118499056 0.015449983 -0.26853713 -0.049696434 0.061892804 -0.08548612 0.1737627 -0.025691358 -0.24859887 0.098712444 0.14113997 0.11004872 0.04758375 0.05781398 0.24548288 -0.11579529 -0.14564764 0.12615417 -0.13518363 -0.21680342 0.122325875 -0.10918079 -0.109833166 -0.05916932 0.10017413 0.13020517 0.18616849 0.014857628 0.32904252 0.21460043 -0.09509185 0.07023159 0.06648938 0.012289504 0.011138601 -0.26174477
173 -0.118556835 -0.12282704 0.03430952 0.3279792 0.12700245 0.12291708 -0.18188263 0.020035874 0.044636626 0.045111272 0.048398532 -0.07705656 -0.09069369 0.20292322 -0.21534374 0.020311574 0.10745353 0.2252237 -0.069386914 0.09244287 0.15555023 -0.0849026 -0.10910701 -0.17872527 0.008598437 0.06374188 0.036050286 0.15380962 -0.28507966 -0.122509725 0.08907091 -0.0683204 -0.1784922 0.16358049 0.0609445 0.0618701 -0.02368563 0.17087404 -0.0048998604 -0.14691201 -0.12318812 0.24540861 -0.12750502 -0.03419944 0.022230418 -0.07661718 0.0008310542 -0.09265228 0.021831315 0.09038583 -0.04365831 0.10448548 0.0828141 0.00035231689 -0.07288326 0.06348748 0.10724857 0.09763747 0.027472876 0.09559505 0.03141715 0.17063363 0.15681536 0.004011888 -0.07954287 0.026510324 -0.011146849 -0.1295382 -0.10686986 0.25870678 0.21055216 -0.21198255 0.08965632 0.0937723 -0.09366836 -0.0129514225 -0.04294353 -0.121616006 0.07578866 -0.014706332 -0.019748336 -0.0603575 0.06350766 0.30261463 -0.39081296 0.02805483 -0.003626664 -0.15146495 0.014541182 -0.06884968 -0.010896525 -0.0021006698 -0.014036842 -0.08211408 -0.12714678 -0.045368668 0.1085013 0.098152705 0.12573147 -0.044980723 -0.115415744 -0.21344218 0.06739789 0.16126442 0.19954634 0.021817842 0.09781168 -0.07442572 0.05937731 0.18682787 0.10877367 -0.04700512 -0.09030336 0.004836502 0.06732375 0.025255855 0.2130302 -0.03317062 0.0024043224 -0.069536135 0.089923844 -0.045333806 0.07937426 -0.10992705 0.26088804 0.06779876 0.047223188 -0.185545
436 -0.025354397 0.0112253865 -0.0005170483 0.11153172 -0.1264545 0.09058043 -0.045180555 0.14783742 0.11235416 0.04026321 0.069296665 -0.022376928 -0.0016665901 0.033921197 -0.006720352 0.064378865 0.008639024 0.20028427 0.07540193 0.040698875 0.18429339 -0.1972347 0.044296257 0.10853877 0.12629318 -0.0430446 -0.029133229 0.1861037 -0.11646745 -0.09162091 0.09625873 -0.2315539 -0.18572034 -0.044435136 -0.034580827 0.12385945 -0.07458772 0.16672991 0.088751025 -0.009276956 0.031358752 0.0456817 0.15038045 0.14299445 0.0025206343 -0.21519558 -0.108092874 -0.007066753 0.0003177057 0.005785795 -0.010223012 -0.027524397 -0.039876632 -0.061266355 -0.17423247 0.105495736 -0.034868266 0.22656113 0.19439973 0.01818835 -0.021522269 -0.046506267 0.070028946 0.1448408 -0.041727383 0.027589655 -0.119260356 -0.08976396 0.060329612 0.14745826 0.100853845 -0.15874574 0.07521682 -0.2539601 0.019436361 -0.008801918 0.026601976 -0.062292326 0.02587227 0.023880629 -0.025640193 5.5793607e-05 0.1798529 -0.06348004 -0.077454396 0.08827931 0.0057103187 -0.06301432 0.114877306 -0.11928596 -0.023601158 -0.0355647 -0.05701956 -0.1125571 0.14073582 -0.06888908 -0.10383284 0.02818352 -0.028083779 0.023396196 -0.17088379 0.03605178 -0.06954544 0.16333696 -0.110033914 0.12516718 0.10531269 -0.053892348 -0.05708375 0.0549893 0.02467241 0.05962691 -0.1782492 -0.058962863 0.02323265 0.0030335342 0.10064892 0.026359862 0.058033194 -0.026916727 0.3334882 0.19984448 -0.14841059 -0.034050114 0.17369066 0.065143205 -0.15205687 -0.07033362
89 -0.03531734 -0.04001857 -0.030950721 0.20519306 0.0014654917 -0.0549957 -0.0833417 5.2221327e-05 0.111506954 0.06568736 0.06453106 -0.09533435 0.034062866 0.16119958 -0.04560731 -0.01795737 -0.060380653 0.18834758 0.035032433 0.018862769 0.2150874 -0.029000092 0.029549055 0.009071599 0.039930314 -0.00010297911 -0.028291902 0.22772159 -0.19436544 -0.17419372 0.03426663 -0.17756183 -0.17205645 -0.0070360987 -0.09670744 0.14458562 -0.104919225 0.19514923 0.041670155 0.0078107156 -0.06905914 0.1580001 0.09128669 -0.0919453 0.17750387 -0.12209541 -0.03400086 -0.060838323 0.027311077 -0.12425342 0.14195004 -0.11337491 -0.11314093 -0.012492786 -0.044640824 0.015004386 -0.060998406 0.08981788 0.08927468 0.09234239 0.024388812 0.07124817 0.18579218 0.112254724 -0.071698725 0.024762671 -0.021432614 -0.056902826 -0.0067967544 0.28143096 0.23944928 -0.107545264 0.043638732 -0.061405517 0.01844027 -0.007215702 0.020451711 -0.12908491 0.023848938 -0.015744027 -0.052060932 -0.03447889 0.042252127 -0.00040306375 -0.16756763 -0.07389336 0.08867079 -0.15081185 0.080738425 -0.18111572 0.007873003 0.009052484 -0.0733638 -0.029574959 -0.07146332 0.021893898 0.028415503 0.07497942 -0.08923051 0.07702661 -0.026586888 -0.002003874 -0.037631862 0.16545741 0.12699473 -0.0019966506 0.120354444 -0.026679061 0.09358723 0.16176906 -0.038378872 -0.0096718315 -0.06242419 -0.10007175 -0.061611805 -0.19546533 0.092036694 -0.061980605 -0.08945455 -0.06276976 0.2075879 0.11403245 -0.00015429783 -0.11684388 0.16536908 0.040919572 -0.08971132 -0.16701013
232 0.025277698 -0.008609482 0.119255796 0.19101647 -0.19024228 0.05646408 -0.05942779 -0.010090626 0.13985656 0.06803614 0.01579382 -0.08197644 -0.04715162 0.1251798 -0.12820596 -0.0034536489 0.16376929 0.4061394 0.047588665 -0.013560089 0.03836281 -0.0334663 -0.025224341 0.035542257 -0.0748632 -0.046264727 0.08242387 0.08611963 0.0723311 -0.10327215 0.12721926 -0.19391169 -0.20454456 -0.0033200176 -0.039811645 0.09135642 0.11464468 0.059089057 0.08348531 -0.009141177 -0.0816967 -0.0418056 -0.06338855 0.008485814 0.13734986 -0.25271425 0.03693768 -0.15503241 0.074174024 -0.11468089 0.09727573 -0.018189825 0.04999516 0.07715881 -0.16104017 0.06951397 -0.10312792 0.096952006 0.1500338 0.107046925 0.10335395 0.20296006 0.19329354 -0.008018485 0.10133585 0.036671422 0.0060110497 0.05179386 -0.24852838 0.054886155 0.18917751 -0.1387918 0.1257366 0.027760867 0.0034380213 -0.020148538 0.010870438 -0.2996759 0.011649012 -0.06477269 -0.06915781 -0.10340491 0.116821915 -0.07043644 -0.13045618 0.024115255 0.014371139 -0.028448235 0.06000479 0.0172581 0.061102044 0.0023059698 0.002243728 -0.048309926 -0.0825287 0.061925475 -0.008079772 0.10902494 -0.038020108 -0.090399325 -0.113616094 0.04376818 -0.032743927 0.063028045 0.16198139 0.0064561907 0.08717308 -0.21038695 0.023650492 0.12900908 -0.06048303 -0.04382225 -0.06250335 -0.10591594 0.063550554 -0.004732446 0.083475724 0.0385232 -0.16746998 0.020440333 0.12521602 0.19833338 0.041726228 -0.06507226 0.13768975 -0.07779631 0.02408669 -0.08536717
