958 128
899 -0.06395425 0.11714125 -0.03656155 -0.06710316 0.14484644 -0.01915189 0.09329891 -0.07750968 0.3029391 0.04130806 -0.15872537 -0.012724022 0.30927822 -0.03874043 -0.028022982 -0.07306783 -0.028799385 -0.22780739 -0.05013129 -0.059360474 -0.08747784 0.2070045 -0.02203695 0.05205817 0.06031755 0.11151797 0.1364966 -0.039707806 -0.09607014 0.11714978 -0.015910937 -0.021323606 -0.06320941 -0.09007483 -0.075620145 -0.06745596 -0.10792638 0.13209492 -0.0135910185 0.028953541 0.108339526 0.071074896 0.025822971 0.08615189 -0.3122549 -0.108116776 -0.22258094 -0.12706947 -0.17555107 0.04577906 -0.027887136 -0.15926409 -0.0997094 -0.205091 0.020165002 0.08791254 -0.14481099 0.13905032 0.20662823 0.087830395 -0.11713243 0.031935938 0.053667884 0.06741223 -0.11627503 -0.041995835 -0.0068878746 0.037189595 -0.097976655 -0.13379553 0.07936581 0.09104674 0.03837893 0.046203714 0.09915466 -0.12780267 0.12570012 0.03652635 0.0799861 0.101137124 0.1747321 0.13856417 -0.061118618 -0.05276483 -0.2244259 -0.121708535 -0.07824231 0.24845909 0.08506353 -0.08671525 0.04064151 -0.12925865 0.04561126 -0.11417338 -0.21169792 0.107697055 -0.032830507 0.025419625 -0.05558254 -0.23131105 0.12733397 -0.18349095 -0.029670307 0.22454359 0.093499586 0.045128018 -0.0031862778 0.073952146 -0.10190288 -0.010648096 -0.041978907 -0.1658917 -0.15850544 0.02714746 0.18020199 -0.09974754 -0.16265036 0.24137633 -0.074341565 0.13066387 -0.07515248 -0.048524864 -0.06861536 -0.03511665 -0.028817298 -0.27289787 0.07937134 -0.011097076
898 -0.06287024 0.23506829 0.06573355 0.06004849 0.07630959 -0.4023988 0.21177831 0.16344993 0.16495448 -0.055544555 0.026249846 -0.22369792 0.1270326 -0.01674794 0.1818041 -0.003521239 0.19277833 -0.035031524 0.19120677 0.02241198 -0.09944621 -0.058041263 -0.056519307 -0.076598555 -0.24956684 0.030733353 -0.2934358 -0.008821151 0.07740959 -0.089676574 -0.039475337 0.15872408 0.2523999 0.14402626 -0.107324794 0.13798857 -0.019035319 0.119590566 -0.030897373 -0.0053954357 -0.037045877 0.13888784 -0.066982105 0.15831892 0.11284753 0.013721166 -0.15604782 -0.013063242 -0.008333301 0.031711973 0.19997016 -0.33778277 -0.2653414 0.164914 -0.119706936 0.119348176 0.106645525 0.30998647 0.026165815 -0.07225206 -0.03463736 0.04786449 0.05624757 0.046192743 -0.08809132 -0.088490784 -0.29227465 -0.012895293 -0.06253432 -0.29789644 0.24874327 0.16591445 -0.07823663 -0.012043683 -0.11575967 -0.009125747 -0.028113157 -0.18055457 -0.06639459 0.08801493 -0.06787018 0.02982633 0.18229808 0.15634432 0.08281479 -0.005035327 -0.0010298261 0.1122809 -0.07838931 -0.14865962 0.22098087 0.046548523 0.05469016 -0.15480025 -0.29960546 0.03577854 0.12678878 -0.21629532 -0.041276395 -0.1348951 0.38407278 0.08098473 0.07998842 0.1921918 0.22457255 -0.104170844 -0.08896447 0.19834918 0.04426844 0.07571415 0.14802198 -0.019481264 -0.07609534 0.064255856 -0.07864327 0.03276725 0.11485936 0.14057752 0.054593857 0.27716067 -0.061718065 -0.18571214 -0.1602971 0.11520172 0.15449329 0.10862701 -0.2204963 -0.039176203
890 0.11579364 0.09229141 0.0874674 -0.13091362 -0.07729885 -0.07054727 -0.0017297212 0.3246179 -0.22498675 0.022125391 0.294957 0.011284074 -0.02428924 -0.018767808 0.017312871 -0.16019538 0.21253778 -0.03188252 -0.07410437 -0.10979199 -0.09300762 0.04632808 0.0714664 0.07056148 -0.24173589 0.046903733 0.07439702 -0.024282586 0.002853316 0.055531055 0.13311253 -0.04223149 0.14110772 -0.038203247 -0.27213666 -0.14607003 0.08043628 0.05401147 -0.12795661 -0.14714196 -0.16253369 -0.098337755 0.20639236 0.04318616 0.039162755 0.027013643 -0.26260364 -0.2381073 -0.26208094 0.24886276 0.092506446 -0.31307977 -0.0051707854 0.06848368 -0.09119345 0.033369828 -0.14021641 0.0870212 0.00787656 -0.19384566 -0.22014932 0.21573119 -0.17944531 -0.098272756 -0.11844228 0.18618466 -0.23777947 -0.11146881 0.092019066 -0.19463962 0.18534254 -0.11776764 0.0050060293 -0.20699422 0.061679486 -0.33273932 -0.19082253 0.19953744 0.036070675 0.057084963 0.07599798 -0.0060589653 0.06720825 0.024324669 0.022885442 -0.2990249 -0.14739048 0.05132432 0.034311265 -0.18522628 -0.038178347 -0.005897909 0.0263701 -0.11114701 -0.2545075 -0.122545324 0.029038144 -0.035311922 0.12947467 -0.06079743 0.036883473 0.08958829 0.3201123 0.21831039 0.09169178 -0.11788863 -0.16929004 0.11089643 0.09608883 -0.06381619 -0.12073158 0.007847542 -0.08688538 -0.047615826 0.17209281 0.18518765 0.25543562 -0.108928144 0.007165278 0.13821305 -0.19029723 -0.33271575 -0.34072703 0.21909137 -0.12502581 -0.059009347 0.07768421 -0.022530371
897 0.14120781 -0.14714289 0.080917545 -0.25734457 -0.26633477 -0.12930076 -0.113342606 0.027498374 -0.16824178 -0.04409941 -0.025577562 -0.13752751 0.14509666 -0.04364363 0.11802625 0.07255276 -0.059960313 -0.07755143 -0.30628395 -0.050884865 -0.13307965 0.07891262 0.048096325 -0.1629319 0.03049149 0.031085867 -0.024781374 0.12607156 0.04524201 0.09921699 0.02096666 0.07123408 0.004512022 -0.010215195 -0.3911893 -0.052052807 0.02879962 -0.028180212 -0.015497404 0.2848066 -0.26719755 0.037467983 0.0007240509 -0.0037725244 0.1543317 0.0130320955 -0.13748519 0.06927233 -0.081906095 -0.044779617 0.30385867 -0.1265408 -0.17800511 -0.117156446 -0.060608435 0.16431478 -0.04055188 0.19669159 0.13734472 0.16924462 -0.21698605 -0.13177982 -0.107944466 0.30224985 -0.19421259 0.09553972 -0.097026736 0.08092376 -0.0015938805 0.21328959 0.119083986 0.26884675 0.3085342 -0.01105549 -0.13641419 0.3036066 -0.043517295 0.02030863 0.12264491 -0.054945566 0.019560335 -0.23911223 0.12910001 0.03123043 0.20031543 -0.32276428 -0.32181597 0.22220361 0.059218995 0.06897188 0.040647164 -0.01648471 0.09251269 -0.124131136 -0.27688745 0.019921508 -0.09827545 0.14769071 -0.13149221 -0.2963901 -0.21598174 -0.12751502 -0.046738677 -0.042060167 0.120409444 -0.2572873 0.051494718 0.1555081 -0.010302232 0.05723005 -0.12232066 -0.08231302 0.021883495 -0.25527093 -0.06815788 -0.22016004 -0.10080003 0.13218503 -0.2394191 0.17003262 0.26209092 -0.20638601 -0.07881896 -0.19105485 0.09465501 -0.045396123 -0.07667622 0.037042465
891 -0.043318804 -0.017640695 -0.032848652 -0.24009958 0.04930777 -0.12385804 -0.0029960542 0.00045761943 0.053034775 -0.2596547 0.020864477 0.09969053 0.027454212 -0.20437828 0.14953925 -0.033594698 0.19313586 0.071138196 -0.09562478 0.087778375 0.0037226889 -0.16717036 0.090221755 0.03214767 0.077955805 -0.06358769 0.18909127 -0.09556499 -0.017855812 0.2608537 -0.016664436 -0.09073983 0.060712416 0.08886273 0.09219849 -0.16920583 0.0845645 0.050276875 0.14030796 -0.100677565 -0.022583423 0.2010406 0.14023109 0.1554041 -0.119246684 0.28949592 -0.14955397 0.12431414 0.14348425 -0.07768399 -0.083156236 -0.23973832 0.03648378 -0.18160766 -0.0978429 0.21592191 0.09324703 0.19872697 0.11491029 0.2801105 -0.24910094 0.15790397 0.16452259 0.21236211 -0.3194682 0.13809602 -0.25478882 0.046730664 0.18531168 -0.14283744 0.10928662 -0.18534398 -0.013957034 -0.19989637 -0.1875208 0.060826045 0.27238294 0.2627305 0.37218174 0.37790397 0.017951226 0.25875017 0.20216846 0.052288063 0.20268612 0.055063624 -0.23641078 0.17661968 0.11333078 -0.2265256 0.054659426 0.02689917 0.1347252 0.05755499 0.052336887 -0.20359826 -0.19531944 0.3309098 -0.0027342772 -0.0679602 0.42237133 0.26871043 -0.004111989 0.09028759 -0.08890303 0.018280413 -0.0076849116 0.23960659 0.2140246 0.09369707 0.25809735 0.10267111 -0.2225391 -0.06294563 -0.030237509 0.14726268 -0.036646325 0.07165141 -0.18293768 0.20794532 0.07969513 0.08244095 -0.03820771 0.18159136 -0.007953544 -0.026716156 0.31502604 0.15904236
885 0.11411119 0.2767944 -0.14528199 -0.29944405 -0.06430144 -0.030173862 -0.03498845 -0.045379598 0.076884046 0.18858603 -0.32911953 -0.19242871 0.051725626 -0.18115732 0.41280898 0.2180832 -0.12447857 -0.036899716 -0.20031337 0.031385705 0.031580206 -0.076316215 0.1611882 -0.002576883 0.16051507 0.33945152 -0.09228209 0.1629288 -0.13759895 0.22394456 0.06551413 -0.10450061 -0.02083164 -0.12095345 0.29665893 0.0904756 0.06026861 0.25792336 0.08541717 0.24904168 -0.2023783 0.1782923 0.03880286 -0.09459375 -0.02223044 -0.17788428 -0.17820713 -0.010361875 -0.10570604 -0.007717591 0.026644092 -0.18496592 0.059846282 -0.20947918 -0.07928337 0.30200368 -0.20017493 -0.08023749 0.21268295 -0.13442427 -0.029482959 -0.3280772 0.07007149 -0.10703686 0.053047467 0.03781227 -0.07043076 -0.0015782776 0.23433076 0.023820907 -0.0892437 -0.0694302 -0.026992343 -0.14894438 0.45913553 0.09178747 -0.17020094 0.04517681 -0.007797865 -0.09977182 0.07079051 -0.11641226 0.24850877 0.044137206 -0.10522525 0.0372878 -0.120786555 0.06986418 -0.011716417 -0.1811554 -0.04152504 -0.18002655 -0.01719818 0.30237332 -0.36360395 0.27712837 0.12068267 -0.05357079 -0.26832607 -0.052271128 0.38636768 -0.20065239 -0.24365543 0.08055175 -0.14782442 -0.19562364 -0.056148794 -0.15067431 -0.0878613 -0.056068968 -0.30994588 0.20804943 -0.08690498 -0.024695825 -0.041703586 0.2323111 0.039887868 0.12502626 0.020185016 0.01773201 0.0959949 -0.3769638 -0.19900149 0.3665278 0.21017888 0.06709856 0.102403805 -0.009205187
900 -0.1644447 -0.0589486 -0.20562936 -0.15542687 -0.10845701 0.012875231 0.043058157 0.31111652 0.23256795 0.16391312 0.077591226 0.14561343 0.43720356 0.48164347 0.58927685 0.044313125 -0.05683349 0.13053535 -0.16059943 0.03265496 -0.18449008 -0.0019108823 0.06351714 0.09965087 0.10728211 0.028041685 -0.15197517 0.25652838 -0.29858455 -0.07772727 0.08221833 -0.15999097 -0.010087717 -0.075812265 -0.024068074 0.08794961 0.28805447 0.4242125 -0.046286345 -0.22137716 -0.16712649 -0.17603013 0.049092215 0.11104557 0.002614245 0.20191695 -0.12770528 -0.029166944 0.021798646 -0.02865373 -0.12370239 -0.19259547 0.14198826 -0.3399397 0.23117228 -0.10426429 -0.31478164 0.06287441 -0.088063255 0.04835532 -0.12690306 0.03339864 -0.026035607 -0.15881984 -0.2346631 0.0018201881 0.10433858 -0.07826863 -0.20381221 0.07033985 0.27013475 0.06674085 0.23006272 -0.16788132 -0.09812386 0.11922516 0.13819563 -0.14596285 -0.013365909 -0.022150004 0.20870847 -0.23975623 0.1884067 0.09387359 0.1416032 -0.17510125 0.12831457 0.061532214 -0.1957359 0.16924603 0.4600828 -0.17515606 0.0303616 -0.09393468 0.13060164 0.17274155 0.1380583 0.1494297 -0.14659506 -0.2769139 0.3078862 -0.15415984 0.02938433 0.11312637 -0.10330209 -0.10898829 -0.11187771 -0.006783492 -0.2835977 0.092776805 0.060884766 -0.031618744 -0.029125927 -0.36624354 0.18292621 0.15652543 0.14894624 0.03629272 0.08350761 0.107545555 0.10655264 -0.068828054 -0.15474983 0.014477562 -0.06420092 -0.10738318 0.12781504 0.24658766
895 -0.04341042 0.07266496 -0.047545638 -0.0058161346 -0.13192073 -0.2917046 -0.01659752 0.069538705 -0.10682411 -0.15820819 -0.20435986 0.094659224 0.2729775 -0.06760859 0.02476261 -0.3361548 0.50422955 -0.1594522 -0.3533045 0.10932597 -0.19163965 -0.0995081 0.15523212 -0.12059672 -0.03211827 0.28515956 0.22715265 0.5268989 -0.19603668 -0.103053674 0.0878797 -0.2192186 0.038621776 0.1739567 -0.3411207 -0.11518708 -0.0010755213 0.105052605 -0.074136026 0.07200307 -0.07053647 -0.038495086 0.14748691 0.007559661 0.16415188 -0.19896896 -0.24532408 -0.05988581 -0.02215187 -0.11238256 0.170192 -0.07585847 -0.1252815 0.2260967 0.0896356 0.29486674 0.043499865 0.008776441 -0.041822944 0.0008510911 -0.08143943 -0.26106957 0.0023182277 0.050903786 0.012626237 -0.10132543 -0.14489038 -0.13101503 0.1127797 -0.28322902 -0.13085607 0.14659393 0.052932605 0.17093123 0.05604164 0.01772643 0.11745003 0.08041046 0.13391477 0.14218383 0.29134095 -0.018983454 0.2439749 0.31210932 0.0072898553 -0.3264914 0.11673583 -0.30889344 0.21108991 0.011156263 -0.026740858 0.41912895 0.25210223 -0.087358594 -0.18836221 -0.041789353 -0.11315853 0.15613335 -0.31629378 -0.10332461 0.13238807 0.07033144 -0.094350904 0.07393587 -0.35100025 -0.1955403 0.16365814 -0.200891 -0.040884484 -0.25166613 0.10309553 -0.03929127 0.15450417 -0.21608588 -0.100186996 -0.0040264083 0.09694558 0.3105244 0.18296057 -0.05654148 -0.026107464 -0.19640434 0.18066604 0.04413232 0.06284834 -0.2845969 0.043269236 0.113068566
884 0.018723987 0.10579435 0.02280855 -0.118862 -0.05830743 -0.21780092 0.08671221 -0.19003914 0.60840607 0.1342916 0.007967523 -0.029433968 -0.049237184 0.24653634 -0.2124007 -0.09525743 0.14891489 -0.22728513 -0.12206243 -0.08092853 0.0023717158 -0.06278936 0.07609114 0.0667525 -0.06366467 0.039674774 0.0008795549 0.2989991 -0.18812618 0.39909387 -0.21352074 -0.00021284609 -0.29513168 0.06794572 -0.17534275 -0.088904634 -0.034461662 0.11866234 -0.22285025 0.09481426 -0.10126069 -0.13315421 -0.23885752 0.044343643 0.17666711 -0.28425056 -0.023760622 -0.21783362 0.30614057 -0.03245455 0.06497023 -0.30841276 -0.40708682 0.012919125 -0.020428885 0.09099657 -0.065095685 0.11122961 -0.16064952 0.07939672 -0.22776179 0.015803324 0.02447128 -0.18968211 -0.035716243 0.41977552 -0.11183361 0.021723751 -0.053455506 0.10090236 -0.16567841 -0.017650953 0.15084814 -0.09237398 0.14091955 -0.08752318 -0.02573146 -0.11191335 0.06875396 0.2167864 -0.05747228 0.008524986 0.45847315 -0.15057346 0.07452887 -0.04091158 0.13710174 0.23803273 -0.26404998 -0.18833463 0.29814836 0.013955522 0.01619593 0.27030203 -0.21641089 -0.20255053 -0.038066406 -0.0037611453 -0.2780148 -0.17276533 0.19757916 -0.25609067 0.040275786 0.094609946 0.06632062 -0.023617791 0.11968353 0.275674 -0.1208618 0.038572047 -0.24909852 0.099624276 0.117939435 -0.07709331 0.33298963 0.2510435 0.21801889 -0.41456774 -0.002225934 -0.2702573 0.29173043 -0.22866084 0.27495825 0.1725874 -0.02872805 -0.030488968 0.1250378 -0.12460841
889 0.1924225 -0.08009222 0.2505744 -0.31766406 0.16427985 0.019650558 0.24416693 0.022227634 -0.21737325 -0.16836314 0.020069322 0.049134698 0.14008962 0.13192794 -0.005356052 0.22851054 0.2385422 -0.12366655 -0.2015203 -0.13450158 0.21749192 0.15605418 0.1476939 -0.017274693 0.11754797 -0.13182601 0.12985338 0.39013723 0.26746836 0.112878345 -0.021704085 0.0082552275 -0.12714459 0.1601525 0.112925775 -0.1411021 0.10937891 -0.079441346 0.32740828 -0.19221903 -0.081777476 0.047942564 0.052509118 0.116005324 0.20558931 0.03980679 -0.014173673 0.26142636 0.04506175 0.21733081 0.21001221 -0.24191907 0.0894315 -0.10081611 -0.10278192 0.24262448 -0.09217259 -0.20915873 0.050596777 0.040617317 -0.15072793 0.17289375 0.19781856 -0.07633518 -0.12649447 -0.008177336 -0.24996768 -0.015283889 -0.065454766 -0.0899714 -0.11616205 -0.07903617 -0.031125149 -0.059486236 -0.10088563 0.07142689 0.023570305 0.2722211 0.059791535 0.14412458 0.23959675 0.100900106 0.12835321 -0.2194166 -0.060875434 -0.017311385 -0.05190019 0.18332104 -0.011232106 0.035188276 0.1011517 0.16411483 0.2055213 -0.17858653 0.2530377 -0.010214092 -0.14847043 -0.013499245 -0.2130803 -0.33468017 0.44643477 0.08762631 0.07039756 0.07506064 -0.04429549 0.10032871 -0.057194024 0.30632058 0.52406126 -0.04880546 0.30026814 0.009998846 -0.28762382 -0.11299224 0.0023374506 0.10713601 -0.0964881 0.04158867 -0.06450128 0.2677407 -0.17540225 -0.10923481 -0.13710271 0.065667346 0.10832696 0.04485329 0.041714344 0.14752662
896 0.15237717 -0.041044295 -0.024340533 0.20165978 -0.4635217 0.09960384 0.044383664 -0.1568487 -0.010622853 0.085461505 -0.14495459 0.30423614 0.02818711 0.149137 0.070311114 -0.30306852 -0.43746412 -0.34644315 -0.023429414 0.106641255 -0.22800548 -0.0021455062 0.08453054 0.066470265 -0.123148076 0.3512048 0.12317855 0.0788183 0.030959226 -0.1470296 -0.0027076553 -0.066274345 -0.039020833 -0.1263628 -0.115592204 -0.021160483 0.10661045 -0.03546342 0.50938064 0.122867644 0.020157697 0.08859285 0.036883783 0.019230332 0.038340792 -0.10702229 -0.26192975 0.1091643 -0.16558287 0.3436906 0.11893349 -0.18867998 -0.17420167 0.17214282 0.006622852 0.18496124 -0.22592586 0.27139267 0.033154 0.0491029 -0.19792628 -0.096368976 -0.091359936 0.1232584 -0.46445143 -0.000309681 -0.054134507 0.17031173 -0.28755486 -0.19640474 -0.13014169 -0.0033344433 -0.13903812 0.12957726 -0.2871734 -0.03719918 0.08159001 0.22438245 0.20585385 0.17223689 0.19836783 0.05906657 0.015619699 0.067564175 -0.10430306 0.18469432 -0.07980377 0.14437224 -0.19565867 -0.24297602 0.15745649 -0.07746261 0.10792108 0.010772474 -0.43306097 0.10502332 0.08892143 0.07705413 -0.016736142 0.060137127 0.1631298 -0.11999568 0.0956222 -0.21766673 0.17906973 0.0609903 -0.012330921 0.39686456 0.117936745 -0.1086744 -0.029215261 -0.26502675 -0.28091097 -0.337072 -0.33650267 0.2572977 -0.22128181 -0.18516204 0.39950812 -0.35889155 0.024799105 -0.09775708 -0.09385638 0.35726637 -0.19013761 0.19677456 -0.14409164 0.19419889
892 0.2336274 -0.035250966 -0.043784413 -0.26008692 0.045564722 0.015901836 0.15259573 0.15414517 -0.34392136 -0.07801978 -0.112628944 0.1962716 0.05515699 0.09574648 0.1398725 0.27126157 0.2934801 -0.09178729 0.14018977 -0.12982495 -0.07248375 0.07406171 0.07902364 -0.116530575 0.12879874 0.0023379456 0.19233999 0.13839056 0.04335853 0.44473583 0.102574654 -0.075579405 -0.14303353 -0.017415537 -0.16628547 -0.20799229 0.2904159 0.052993555 0.1580789 -0.3356659 -0.11775698 0.111004435 -0.014162651 0.12512481 0.0858224 0.21020854 -0.058292553 0.016302396 0.20191337 0.06531272 0.19970335 -0.19850935 -0.036893383 -0.28148738 -0.09775553 0.4180478 -0.084768936 -0.088444315 0.13947411 -0.020614535 -0.116849326 0.22726269 0.22087829 -0.019729948 -0.274633 0.012679722 -0.34574905 -0.05994089 -0.2987249 -0.013277656 -0.09496215 -0.021667084 -0.22291833 0.034692056 -0.23907109 -0.010111731 -0.028359706 0.13175696 -0.009368711 0.31852394 0.12577267 0.1098676 0.27828863 -0.0864796 -0.01498657 0.004977197 -0.011909658 0.16785021 -0.046690807 0.027346894 -0.062723294 0.24454275 -0.16854188 -0.21574733 0.0839926 0.047151715 -0.20965225 0.112352945 -0.17234714 -0.23256427 0.28358623 0.13437779 -0.058044255 0.041347805 -0.19907238 0.25776362 0.03577545 -0.01376298 0.31513205 0.13667119 0.13948974 0.06056374 -0.43577546 0.03064047 -0.020590324 0.1736066 0.057768334 -0.03437757 -0.19014029 0.06479517 -0.30203742 -0.11965703 -0.024162766 0.0052178646 0.1716421 0.0568617 -0.10893202 0.10902622
887 -0.16085912 -0.19509321 0.07785257 -0.3587195 0.059878893 -0.063191004 0.24150203 0.2565233 -0.20856996 -0.16715252 0.08850054 0.25290042 0.20600446 0.0257936 -0.027460072 0.16870691 0.21680705 -0.16774611 -0.025784655 -0.14568467 0.14844137 0.06314388 0.11036842 -0.07242204 0.07381229 -0.11685241 0.23145503 0.15393448 0.2574672 0.39545268 -0.14183903 0.08781984 -0.0072462 0.062207434 0.12784839 -0.19751716 0.3918349 0.0687127 0.12580517 -0.38368475 -0.0796824 0.09435772 -0.031540558 0.19286603 0.03099075 0.04828525 0.008477533 0.2631067 -0.008925789 0.059935924 -0.040446676 -0.3902158 -0.18775551 -0.33876675 0.28563634 0.39042884 0.039893318 -0.059108455 0.19259147 -0.18279903 -0.24104291 0.23509869 -0.0056402897 0.16158664 -0.060712993 0.030790009 -0.23182815 0.07694273 0.02777098 0.0073690126 -0.20792045 0.1209091 -0.094967015 0.18698749 -0.15548821 0.22344534 0.087807454 0.16936658 0.22147 -0.059425183 0.14675643 0.046897978 0.17358615 -0.05634405 0.023417896 0.1792049 -0.068115115 0.06534946 0.30894047 -0.040263623 0.10677696 0.23573887 -0.09946314 -0.056827396 0.09730793 0.16247213 -0.051350366 0.12577143 0.05540708 -0.13972507 0.17407356 0.036248144 0.07708269 0.34086928 -0.102602825 0.13519418 -0.06347915 0.2213507 0.5095363 0.034239396 0.02039889 -0.068460375 -0.20774668 -0.03338769 -0.04553637 0.2648906 0.049816515 -0.012252567 -0.2702507 -0.030494357 -0.010308723 -0.25231978 -0.12767927 0.08893309 0.067196526 0.08894758 -0.22008346 0.2872988
894 -0.07310418 -0.27582076 -0.0977932 -0.0020144386 0.039301656 -0.039862603 0.4409673 0.07147264 -0.2832871 0.21950665 -0.0155337285 0.16758692 0.20191254 -0.2724245 0.4284404 -0.0753963 0.3315808 0.078400046 -0.027592406 0.23721215 -0.08720496 0.09521137 0.27081093 -0.24012397 0.102391236 0.3236018 0.11618782 0.076260716 0.18979771 -0.19727436 0.14691702 0.36506006 0.085217774 0.2076065 -0.22768389 -0.24310075 0.14013684 -0.27158928 -0.14254901 0.1445667 -0.18760352 -0.015504554 0.11360263 -0.10115892 -0.2381859 0.11909536 -0.2633996 -0.12134522 -0.14399816 0.10636889 0.19850005 -0.11086202 -0.05027334 -0.12321707 0.1314122 0.12503444 -0.10666847 0.12812442 -0.14919913 0.19476596 -0.43227106 0.18862352 0.23201732 -0.11303325 0.32912675 0.056537755 -0.3972549 0.21380408 -0.050945166 -0.028608333 -0.22466475 0.01513937 0.15364373 -0.2311214 0.14095752 0.15565576 -0.11347557 -0.53184974 0.117067955 0.0028796284 0.45086756 0.053833008 0.017783724 0.1524616 0.017132897 -0.04724449 -0.19968519 -0.047433976 0.19382007 -0.12815125 0.065575585 -0.07087998 -0.21342467 0.14672485 -0.08705817 -0.087607 -0.1261534 0.066187136 0.07907607 -0.28781113 0.45375416 0.11980846 -0.25588387 0.045082793 -0.063988954 0.06825495 0.032975987 0.020502282 0.06845292 0.12018063 0.18304642 -0.074398264 -0.48197144 -0.05903453 0.31098396 -0.13625064 0.22094025 -0.2093257 0.062310982 -0.04835688 0.23065835 -0.27201754 0.075254105 -0.0113786245 -0.17576094 0.04039512 -0.2405098 0.083946645
888 0.007979733 -0.30091277 0.52672344 -0.5188637 0.054786976 -0.1445807 0.14763798 0.17329067 -0.22551128 -0.024553277 0.0052371505 0.24790762 0.24729985 0.3489992 0.07179018 0.21301797 0.32215124 -0.20536116 -0.23059615 0.1774464 -0.19546205 -0.34873113 0.21199623 -0.0907243 -0.33634645 -0.14487414 -0.07340301 0.22507246 -0.096572556 -0.13262567 0.17033307 0.044474654 0.06306095 -0.15853003 -0.068650946 -0.04439717 0.16216753 -0.00385827 -0.035559297 0.17324838 0.03708174 0.029035334 -0.019085377 -0.10598518 0.3203262 0.102970324 -0.24223703 -0.03671359 0.12392466 -0.42783216 -0.110580295 -0.023475032 -0.018767534 -0.28244314 1.5570018e-05 0.11789217 -0.02708124 0.033024568 -0.034258503 0.3409422 -0.35521343 0.08179866 0.3899567 0.1037732 0.076684 0.21960738 -0.35134563 -0.09939424 -0.4103632 -0.4383729 -0.18638575 0.023864023 -0.29593894 0.056817777 0.15225661 -0.050882697 0.23165318 0.26449016 -0.266638 -0.31462112 0.15552372 0.10817928 0.015803026 0.00013705321 -0.109831385 -0.052582476 -0.12667772 0.0695857 0.47038448 -0.18833093 0.14270133 -0.18117234 0.19969746 0.040608518 -0.08320581 -0.17398997 0.16536088 0.093736134 0.008832076 -0.39206615 0.21172793 0.29588565 0.0060526878 -0.017482633 0.24696428 -0.26037785 0.0093770055 -0.0007107114 0.079743266 -0.067629546 -0.044965316 -0.11700915 -0.4261608 0.031301558 0.08258902 0.33410847 -0.011898286 -0.16059294 -0.22780621 0.16273016 -0.12897243 -0.37322462 0.20981705 0.38533515 0.14198244 -0.19347744 -0.1328738 -0.02975552
886 -0.07070112 -0.15728535 0.4585562 -0.41372928 -0.14977682 -0.12460705 0.3237665 0.30015868 -0.10127871 -0.16229275 0.14161469 0.08024721 0.2793608 0.17374162 -0.06247946 0.17981602 0.39263153 -0.124342576 -0.11169325 0.14411096 -0.014221419 -0.143125 0.25387502 0.017374706 -0.15760364 -0.0910628 -0.14472616 0.31060472 -0.11490977 0.073914364 0.042307306 0.14282861 0.13162091 -0.3778899 -0.19761866 -0.23249269 0.19333456 -0.039055392 0.10686373 0.11470867 -0.038192086 0.14213389 0.010756036 -0.22280782 0.24111888 0.21245569 -0.32910043 -0.12201507 0.10880173 -0.3747445 0.03795856 -0.42853224 0.18779397 -0.2924394 -0.17888768 0.01462696 0.24387538 -0.07666189 -0.004733463 0.048410576 -0.12205531 0.17397584 0.004242333 0.19723387 -0.016361509 -0.15370482 -0.20944081 0.25415888 -0.49935225 -0.21190603 -0.017994221 0.24923036 -0.40295982 -0.0016824888 0.31158954 0.123140804 0.42781368 0.06051065 -0.17928809 -0.30649024 0.23603982 0.06221738 0.21420924 -0.090824015 -0.24230787 0.00040422467 -0.2713153 -0.18631825 0.12350255 -0.026480466 0.050509933 -0.1961655 0.251074 0.011949682 -0.15700613 -0.16817352 0.117916025 0.06866749 0.06705607 -0.4193362 0.12744713 -0.022369983 0.00018395529 -0.105906904 0.08910597 -0.25153798 0.12720916 0.36762154 0.24290158 0.0037716427 0.047604665 0.17276557 -0.44287992 -0.11987258 -0.07202204 0.2545057 0.19435821 0.12547298 -0.15738107 0.0621177 -0.18339282 -0.28741655 0.33915982 0.43215102 -0.16315831 -0.22084773 0.019549826 -0.17647149
893 0.01678304 -0.25172117 0.19537525 -0.22759666 -0.043388426 -0.032921653 -0.040034976 0.080058955 -0.08230202 -0.22941037 0.18414903 0.16351658 0.31828088 0.21266246 0.23756452 0.047719236 0.33429867 -0.023306053 -0.16926305 0.34728953 0.15308781 -0.45882133 0.057766102 -0.020538855 -0.40919715 0.034895994 -0.008867411 0.22216927 -0.10415453 0.01839247 0.013911137 -0.048748486 0.2015595 -0.1829891 -0.2589825 -0.101388834 -0.09974494 0.06536902 0.02958794 0.09312424 -0.06145386 0.24926801 0.024672644 -0.059037365 0.08318436 0.06572368 -0.4179066 -0.024111046 0.13011047 -0.4196651 0.14132568 -0.16713811 -0.008623287 -0.09458602 -0.20380229 0.25291005 -0.05205615 -0.249074 -0.11415938 0.09054102 -0.446422 0.1158607 0.4834702 0.14975472 -0.033104856 -0.08084272 -0.29931498 -0.054284137 -0.51754606 -0.021037102 0.03945814 0.33398995 -0.5226237 0.08202999 0.2382359 -0.07650322 0.21453583 0.22872433 -0.39111072 -0.21458864 0.22630015 0.028176717 0.10795735 -0.1446154 -0.39255056 -0.031701833 -0.23541354 0.004496221 0.36744496 -0.10561358 0.12679233 0.057945073 0.16230054 0.16264424 0.06520485 0.0066363453 0.072216615 0.15378028 0.010558769 -0.19145349 0.24590941 -0.13167909 0.049508527 -0.119377 0.18503648 -0.41302547 0.23263125 0.2858181 0.4321448 0.061480217 -0.32203335 0.3192001 -0.35036588 -0.09365098 0.14202169 0.104560085 -0.098294176 -0.14792319 -0.2496682 0.17729849 0.03484551 -0.33854404 -0.06641556 0.27708793 -0.08323213 -0.07742905 -0.09269216 0.11535646
881 0.89746976 1.1028273 0.11256543 0.17706081 0.42026433 0.5429381 0.5536921 -0.042464167 0.83813 -0.18403824 -0.14114161 0.04955405 -0.52374923 0.65576786 0.11569484 0.12373368 -0.5129092 0.27918106 0.3044216 0.9649595 -0.8980781 0.40753853 -0.111001186 0.06823456 -0.10491717 -0.7386873 0.3688393 0.20847751 -0.6422704 -0.8157595 0.9340177 -0.18297422 -0.91378605 0.6504358 -0.52510095 -0.4585547 0.22865032 0.97144634 0.27438128 0.2562612 0.2071489 0.95051736 -0.18096295 0.7492733 0.83947057 0.5162556 -1.5191693 0.35867605 -1.2253112 0.40561947 0.89971936 -0.49545786 -0.2761653 -0.18777409 0.48194858 -0.13441056 -0.19237672 0.549037 0.82092005 0.24955471 -0.09890259 0.16762756 0.49272862 0.3550498 -0.5950051 -0.14753225 -0.13646948 0.27402306 0.06094225 -0.40497395 -0.9009334 1.4059546 0.9194415 0.28529298 1.3192242 0.66177356 0.76408416 0.04028616 1.2103049 -0.6353667 -0.7812745 0.6521978 0.5188167 -0.49326625 -0.6588412 -0.74565434 -0.47045064 0.76028967 -0.24756044 0.29291618 0.09906202 0.05973599 1.0235708 -0.062178064 0.83978766 0.66580534 0.18762502 0.152894 -0.46663493 -0.6250027 0.6079197 0.5582368 0.3252875 1.0307328 -1.1034566 0.28299043 -0.28298348 0.11821777 -0.22796969 -0.7066743 -0.7234032 0.93392104 -0.36028096 -0.13113846 0.16851439 -0.3539892 0.596147 -1.4784616 -0.49792987 -1.1368006 -0.1548799 -0.7001753 0.123329476 -0.37356028 0.16195285 1.6638564 0.31668675 -0.37383783
901 -0.3566042 -0.04233478 -0.29929698 -0.02291486 0.19355878 -0.048406985 -0.1313652 0.23434106 0.124961026 0.29497477 0.033113044 0.10144128 0.0096159205 -0.09802786 -0.19583033 -0.0051803915 0.28652847 0.003108057 0.0038787432 0.14937449 0.32733226 -0.18772574 0.09881502 -0.20231366 0.1466528 0.14678799 -0.2668732 0.23284061 -0.21156666 -0.14555524 0.43416435 0.17174666 -0.027900025 -0.23345034 -0.10206387 -0.26392528 0.19776666 0.124946214 -0.07818105 -0.35731348 -0.14260359 0.17557247 -0.45014566 -0.02726834 0.030812804 -0.18916082 -0.5504044 -0.18599947 -0.16901307 0.1371242 0.27628213 -0.315181 -0.3122587 -0.116396606 -0.648463 0.35214227 -0.03141671 0.08475924 0.22765459 0.36986724 -0.02199818 -0.39350995 -0.20972936 -0.13605778 -0.0031181534 0.28469273 0.08859836 -0.01790203 -0.27064848 -0.14113326 -0.08276998 -0.2546094 0.18153054 0.03855871 0.05104967 0.07754026 -0.0082553895 0.2300442 -0.0531333 -0.54791534 0.06995853 0.387879 0.23152302 0.1417854 -0.20656396 -0.07350493 0.26768172 -0.36230263 0.00878895 -0.18518324 0.41609883 -0.25589615 0.1684581 -0.32853106 -0.117554896 -0.31572154 -0.0674515 0.079869665 0.11695502 -0.040996816 0.33487475 -0.15993693 0.4320708 -0.22842272 0.065344244 -0.053080402 -0.09423815 0.09436992 0.43494958 -0.006399136 0.14875668 0.3677421 -0.57555753 -0.17028567 0.25567016 0.32760108 -0.32934532 0.27353925 -0.2882023 0.012795116 -0.020545451 -0.21186516 0.26413438 -0.36134157 -0.10576515 -0.003789739 -0.08947149 0.09729256
263 -0.044408605 -0.116439864 0.17656839 -0.18272161 -0.06783388 -0.11101617 0.07152411 0.08854677 -0.043665946 0.05576268 -0.028527437 0.13516186 -0.018339477 0.005997046 0.049174894 0.10856438 0.20432048 -0.11145041 -0.027932642 0.08572088 -0.07216127 -0.1268348 0.09286003 -0.09348229 0.11045662 0.05263445 -0.111737736 0.17047314 6.9481575e-05 0.08383914 0.0702847 -0.031743724 -0.019616827 0.06857001 -0.08632509 0.0011776993 0.022580579 0.09390387 -0.0189238 0.0667461 -0.018286953 0.12586774 0.059993755 0.034277268 -0.065369286 -0.030608367 -0.06578034 -0.12229718 0.042126976 0.085627995 0.08981537 -0.2090714 -0.12830347 -0.103777274 -0.00869281 0.066361375 -0.07377737 0.028484927 -0.063679494 0.0056330115 -0.13492224 0.10199717 -0.019113394 0.006616498 -0.08167027 -0.033541057 -0.17464334 -0.024456447 -0.14185381 -0.17395478 -0.07215359 0.1147589 -0.11407955 0.070248045 0.07238488 0.060785986 0.057184562 0.07325684 0.07019745 -0.019278638 0.07351088 -0.058681466 -0.022176428 -0.09406047 -0.11906478 -0.05688811 -0.15049879 0.054182157 0.1164605 -0.15886566 0.11889222 0.013331684 0.037130058 0.032570228 -0.17469743 -0.04799614 0.0932544 0.09118753 -0.13656022 -0.23601596 0.19108482 -0.044796176 0.028061146 0.034683477 -0.12768094 0.029658435 -0.08676865 0.10747818 0.17209792 0.086415224 -0.09586016 0.07452904 -0.08013344 -0.24947718 -0.11243817 0.14258543 -0.04029561 -0.1078501 -0.04411667 0.19898784 0.051488712 -0.0640551 0.037960183 0.14445329 -0.097891 -0.0046977494 -0.06643456 0.12789232
398 0.099286236 -0.31067088 0.0564646 -0.4380994 -0.113715656 -0.41950035 -0.21366782 0.34937364 0.63732845 0.16485415 -0.026531583 0.4364825 0.6077483 0.20168103 0.7529935 -0.32394418 0.3422924 0.08916452 -0.3925946 -0.22216249 0.1473359 -0.35416391 0.06593511 0.2089939 0.14081825 0.36625302 0.37015566 0.7675182 -0.7522707 0.36335665 0.1427054 0.07134965 -0.09981357 0.15440795 -0.16741885 0.17573784 0.3198656 -0.0098868515 0.06570343 0.71600133 -0.27539253 -0.31878474 -0.018974667 0.16832806 0.48567557 0.27221775 -0.34937644 0.7177792 -0.21974576 1.14636 -0.35290462 -0.49015874 -0.29949686 0.012549338 -0.22411363 0.27435428 -0.60764617 -0.3349783 0.1117829 -0.2532994 -0.0037943188 0.6439898 -0.21957415 -0.2687952 -0.15657696 -0.31572524 0.49574792 0.18579721 -0.11257392 -0.17591025 0.18195623 0.17688227 -0.33269262 -0.224757 0.53579974 -0.15799631 -0.07651896 0.21145369 -0.12761603 0.25058636 -0.9663381 -0.30949333 0.8795983 0.06669804 -0.6792824 0.75217193 0.2953393 0.25099298 0.4449386 -0.27879232 -0.08911378 -0.9008036 -0.34298012 -0.26155397 -0.39568976 0.5512755 -0.6221337 0.45016164 0.0042417184 -0.020773739 0.45228735 0.080260776 -0.5899548 -0.2644203 -0.46115962 -0.56634384 -0.24773465 -0.06772257 -0.29976544 -0.24990991 0.5134004 0.11648754 -0.3985753 -0.011818924 0.03210882 0.28328997 0.31976762 0.22776489 0.119020425 0.524738 0.8461384 -0.6104441 -0.07257827 -0.75433457 -0.049084753 0.09267661 -0.002475768 0.45658642
668 0.0665983 -0.042198367 0.12365454 -0.23107174 -0.0633772 0.028921572 0.10819503 0.1299296 -0.09776893 0.025217485 -0.005117999 0.106705435 0.106307484 0.06596743 0.12450738 -0.010608286 0.317659 -0.0726379 -0.10760429 0.04378813 -0.046628933 -0.12923042 0.09762097 -0.03521484 -0.031663954 0.13590586 -0.15902346 0.26514965 -0.07932904 -0.038040724 0.1305824 0.014267917 0.02193437 -0.09720935 -0.15976055 -0.091781646 -0.010421932 -0.066490784 -0.06907783 -0.11142937 -0.13907677 0.13730389 0.0046121264 0.039486792 -0.21335223 -0.01662854 -0.16005942 -0.14590594 0.07450618 -0.027801609 -0.040010482 -0.1527114 -0.0874146 -0.10200067 -0.10947935 0.04483794 0.08994271 -0.02644167 -0.07878743 0.13389133 -0.12627025 0.011302928 -0.04178076 0.06852605 0.029259188 -0.032754533 -0.2682968 -0.0050105173 -0.057946425 -0.14996211 0.089082256 0.056439653 0.010622548 0.028587101 0.056865223 -0.012671926 0.21196826 0.15236226 -0.13480937 -0.06752972 0.13716505 0.03738589 0.15953556 -0.05630067 -0.12314971 0.01643907 -0.17232524 0.029143894 0.1141499 -0.020537585 0.16634715 -0.03434912 0.023966853 -0.13077335 -0.106085055 -0.0363588 0.053528346 0.07117716 -0.08309087 -0.30503884 0.26882315 0.15912013 0.042732395 0.06850937 -0.060935978 0.18594502 -0.0062140278 0.23366083 0.007883465 0.1518375 0.029964473 0.06777134 -0.014037144 -0.14306746 -0.05962866 0.16824746 -0.091377564 -0.056644477 -0.16684662 0.11509866 0.020560283 -0.3284347 0.07652699 -0.12596567 -0.00040509776 -0.02423727 -0.12563643 0.14655335
405 -0.066167854 -0.1958371 -0.07027754 -0.019560697 -0.13053733 -0.24978648 0.03018864 0.07023669 0.3397514 -0.09569373 0.24120523 -0.10265958 0.028696219 -0.06142561 -0.31648764 -0.05695876 0.18302315 0.07798824 -0.03475384 -0.023792382 -0.055429436 -0.39308077 0.49155545 -0.042782877 0.29992306 0.23951295 -0.56843996 0.24779125 0.07749711 0.21137153 0.21276838 -0.07788418 -0.28596395 -0.4170353 -0.0994026 -0.034265827 0.20672323 -0.12261708 0.033748116 -0.06412674 0.2170433 -0.0002236103 0.036080766 0.29645997 -0.112223044 0.08986466 -0.055912506 0.0697742 -0.1761042 0.029187879 -0.01480239 -0.2715132 0.057078354 -0.028208846 -0.122662276 0.048416894 0.08633861 -0.08932228 0.09297074 -0.073086016 -0.24061154 -0.003547744 -0.03715063 -0.040308166 -0.27990583 -0.31550705 0.111276716 -0.10005796 0.01756172 -0.11784665 -0.29119858 -0.048942454 0.11399527 0.2747354 0.050228387 0.020438002 0.2531228 0.07833698 -0.09159556 -0.028798021 0.22466365 -0.14806563 0.15280043 -0.060165558 -0.32073528 -0.27258885 -0.47906038 0.14703177 -0.07689131 0.003303625 0.19698094 0.11076531 0.36858836 0.14800015 -0.55451167 -0.09638456 -0.19636947 0.061509136 -0.049992356 -0.07339031 0.19501002 0.094522715 0.029369295 -0.24505466 0.23208207 -0.28702077 -0.055854928 -0.06386902 0.13021234 -0.07344348 -0.36579245 0.2620767 -0.45715418 -0.036202684 0.21818586 -0.04586597 -0.15571767 -0.15615906 0.25118038 -0.22290963 -0.12535615 -0.7310383 0.18596207 0.087545715 -0.15483096 -0.10509895 0.040134866 0.19534814
478 -0.05434427 -0.08415566 0.021608202 -0.08738144 -0.047144163 -0.19557928 -0.052154645 -0.03754667 -0.0210907 -0.06536922 -0.032964904 0.18127929 0.06303854 0.02328718 0.0968819 -0.019024706 0.08098159 -0.07097012 -0.029416483 0.030561024 -0.16242284 -0.117917255 0.10127313 -0.0038284315 0.01431576 0.07831487 -0.017791087 0.19080955 -0.001376436 0.043353666 0.10065381 0.057686795 -0.044597134 0.084404536 -0.04188043 -0.06311039 0.048645947 0.014356992 0.06054761 -0.0123268645 -0.14265771 0.14661568 0.016326385 0.054170888 0.007129497 -0.07140392 -0.032789167 -0.032577734 0.019488033 0.12123794 0.11498978 -0.21537772 -0.1613842 -0.18235862 -0.14782013 0.19940402 -0.15904018 0.17560472 -0.100162216 -0.07577293 -0.093893856 0.1499512 -3.205054e-05 -0.1018838 -0.06954955 -0.077218086 -0.016355043 -0.008155575 -0.060725976 -0.00133144 -0.16982995 0.0932946 0.045207962 -0.041435964 0.06913384 0.11396044 0.018126495 0.03135954 0.12172742 0.09155507 0.14907193 0.021406738 -0.023733318 -0.08446121 -0.010670235 -0.11350752 -0.040501185 0.013732146 0.061205328 -0.11146191 0.0368334 -0.031778764 0.045104865 -0.045599554 -0.07305922 0.00626733 0.030666517 0.004301886 -0.06807687 -0.10995354 0.13835803 -0.0560177 -0.0043818816 0.15424365 -0.10906826 -0.11225072 -0.12867561 0.05868702 0.04423654 0.1101433 -0.079229414 0.014934495 -0.11943133 -0.034900073 -0.018463504 0.11197313 0.08277569 -0.049147587 -0.10067203 0.036364116 0.04212253 0.008296407 -0.08756547 0.1438281 -0.05654513 0.0062922398 -0.041497063 0.14262839
738 0.055299688 -0.21071611 0.28919584 -0.17824629 -0.04141527 -0.114785485 0.1101168 0.15778206 -0.03326048 -0.080908515 -0.03263094 0.19839594 0.13243343 0.008722563 0.17767034 0.108335696 0.23719032 -0.050330643 0.00492614 0.07497838 -0.042355258 -0.1131367 0.03159396 -0.1487871 0.066458575 0.16974364 -0.120245464 0.136078 -0.02765557 0.0019925036 -0.00019607128 -0.04796691 0.047925007 0.042656325 -0.08941738 -0.0434982 -0.05250385 0.071516514 -0.043324925 -0.033882283 -0.071137875 0.123837754 0.113945425 0.017032314 -0.09697963 0.1486997 -0.08061669 -0.13233712 0.06278778 -0.018970344 0.08711074 -0.22825457 -0.0541603 -0.15196042 0.021058956 0.16095278 -0.06943732 -0.02789039 -0.031261034 0.0787115 -0.049994137 0.049134247 0.00663395 0.020141365 0.003985379 -0.06499907 -0.17652385 0.063029155 -0.105936274 -0.12704016 -0.058837187 0.029348288 -0.15001781 -0.007239541 0.2010284 -0.07606366 0.118856 0.15319124 -0.014326064 -0.089316465 0.06914196 -0.12912467 0.10457489 -0.059428517 -0.11628877 -0.071496435 -0.15768875 0.0024254413 0.095426865 -0.10931053 0.10130068 0.07734488 -0.019234238 -0.037183132 -0.111689456 -0.083379485 0.1861879 0.07759177 -0.12956235 -0.35583186 0.23099323 0.10572995 0.1420439 0.07130434 -0.34740898 0.09926544 -0.04995259 0.13964458 0.20254266 -0.00400625 -0.012122291 0.03032408 -0.119232155 -0.1691509 -0.011356573 0.19467697 -0.018943725 -0.089020655 -0.10334874 0.30352417 0.030596009 -0.18052551 0.0018989645 0.21749838 -0.016918337 -0.06915614 -0.15717547 0.18074293
780 -0.043728683 -0.2314389 0.10093416 -0.17195265 0.09072774 0.052230246 0.024416933 0.13969356 -0.09043262 -0.008394779 -0.052127067 0.1407475 0.12795182 0.16131459 0.031957086 -0.056858376 0.32690185 -0.008298542 -0.116986975 -0.07116537 -0.07646571 -0.107134596 0.04399517 -0.10618509 0.15569057 0.1558744 -0.15317026 0.2504361 -0.09687452 -0.024056826 0.124676175 0.06677604 0.08719817 0.07630703 0.0058985488 -0.2315285 0.0116588725 -0.04619914 0.01152483 -0.018260324 -0.1426428 0.22657599 0.089419834 0.12480523 -0.10551644 -0.016850578 -0.11766558 -0.11317485 -0.048708986 -0.014845243 0.0019200544 -0.09324536 0.0384625 -0.13239421 0.038695365 0.22856523 -0.12152088 -0.058436975 0.1274299 0.014033041 -0.0049926327 0.013539576 -0.13489158 0.10160218 0.091563754 -0.05942449 -0.11353798 0.01821073 -0.25468987 -0.09230432 0.0014238928 0.09260929 0.078503296 -0.013621299 0.12321169 -0.033722095 0.12678385 0.11303577 -0.011960877 -0.11056125 0.11553104 -0.0066720517 0.2537937 -0.036491748 -0.05947411 0.010063329 -0.17539033 0.067750484 0.13047233 -0.009950247 0.1570721 -0.012960747 0.13256828 0.032564282 -0.18100387 -0.022975862 0.023943909 0.10920382 -0.26977178 -0.21276665 0.2618247 0.14250319 0.0015648013 0.07652376 -0.07790759 0.18288237 0.059767015 0.14630851 0.02534786 0.133203 0.07401501 0.019483475 -0.08150022 -0.06803723 -0.017046535 0.3391236 -0.19370098 -0.027485188 -0.1944641 0.18322758 -0.061339203 -0.22492369 0.15609567 0.11544033 0.025825258 0.03952599 -0.098387234 0.13510518
882 0.06954606 -0.17527738 -0.27166712 -0.29237366 -0.46612906 -0.07813396 0.010669868 -0.14585577 0.25623277 0.0029006663 -0.12861122 0.1568204 0.033074155 0.16073391 0.08053896 -0.16000018 0.556368 -0.35590738 0.19938427 0.19432703 -0.24275649 -0.1789643 0.29883078 -0.0015006659 0.057460275 0.1203957 0.4883078 0.11967189 -0.33160692 0.015892012 0.5449431 -0.0071404516 0.24044058 -0.08734519 0.0049460162 -0.20426254 0.1591466 0.35327166 0.00059280265 -0.1547704 0.16123623 -0.43295106 -0.66916186 -0.16315822 0.133881 -0.17497674 0.10146058 0.18258055 -0.06710533 -0.12156057 0.20972654 -0.3425632 -0.10879932 0.4453441 0.11881257 0.221439 0.040369526 -0.11955705 -0.05029269 0.15116067 0.4006491 0.07281382 0.2988567 0.33094665 0.20704663 -0.067258954 0.25516438 -0.46001425 0.23901877 -0.26397806 -0.2580176 -0.055131488 -0.24921335 -0.10821586 0.28941664 0.21805601 0.014929468 -0.24736665 0.21630298 -0.21244214 -0.031892706 -0.08757245 0.28987414 -0.055039573 0.18185379 -0.25630796 -0.68221396 0.29986507 -0.29010302 0.057230253 0.42546806 -0.25855756 0.004462361 -0.22173633 0.10053139 0.17103375 -0.1876248 0.0024943175 -0.43157834 -0.4338142 0.33573717 -0.10780028 0.05874818 -0.18894035 -0.16893978 -0.03937254 -0.47815523 0.25248873 -0.2432574 0.15804745 -0.09147704 0.24296334 -0.11356794 -0.06451332 0.16530314 -0.20280263 -0.0077203223 0.10674592 -0.38116845 -0.19755298 0.2803378 -0.51296747 -0.27427405 0.37558597 0.32211554 0.015803227 -0.08330214 -0.24794193
402 -0.030576212 0.024389476 0.056637686 -0.10270262 0.006446306 -0.18325955 -0.04051915 0.04866072 -0.032173134 -0.084260315 -0.05705948 0.15880547 0.0006271615 0.036194317 0.14503765 0.029747527 0.18940999 -0.2082831 0.033840954 0.012711857 -0.05110252 0.00088216073 0.1591798 0.083796956 0.001921999 -0.07509562 0.043475423 0.18877992 -0.05088162 0.16023746 0.073955804 0.0040264465 0.05101556 0.1607502 -0.07436836 -0.06425081 0.031114316 0.011457202 0.08768247 -0.07077822 -0.009438934 0.014047082 -0.06761428 0.045693222 0.024309793 -0.04955396 -0.10214183 0.05964046 -0.062495127 0.021698732 0.019791987 -0.15518539 -0.09222352 -0.16855435 -0.10433 0.1583157 -0.13908294 0.1340646 -0.044704735 -0.023195164 -0.19072543 0.20193948 -0.04590209 -0.035926368 -0.08106474 -0.036703896 -0.060086362 0.030022899 -0.1473704 -0.04855491 -0.07080611 0.08281351 0.102196276 0.11024982 -0.06399231 0.09571602 0.04196684 0.08019711 0.02369459 0.15760262 0.1674543 -0.0051023373 0.06845217 -0.11104636 -0.061577175 -0.031405214 -0.06240923 0.07301903 0.008078119 -0.07316038 0.01838419 0.026983203 0.04392115 -0.10154417 -0.054055188 -0.06743439 0.086417325 0.0875687 -0.05447601 -0.08634296 0.15673177 -0.10395102 -0.06803372 0.14656788 0.0073796883 -0.08316664 -0.26761666 0.07455019 0.089693196 0.017534127 -0.053852174 0.16055994 -0.09525871 -0.22147205 -0.08906465 0.08599078 0.023097876 -0.03468772 -0.035827894 0.03786925 0.033660155 0.053513005 0.06361402 0.0785287 0.021320403 0.042275324 -0.050783128 0.07770548
247 0.053345963 -0.16218863 0.08641325 -0.31370288 0.008448992 -0.075572655 0.121304 0.11191058 -0.1364627 -0.061717976 0.11090867 0.21355395 0.0893399 0.03380762 0.071442366 0.063219756 0.17963295 -0.05616284 -0.059405513 0.02870639 -0.075421855 -0.13823889 0.12860619 -0.09155126 -0.0026018422 -0.0730365 -0.06219125 0.23174627 -0.10799459 0.022766989 0.10697858 -0.17621537 0.0036513312 0.118726484 -0.08467234 -0.10176045 -0.05047269 -0.0044572935 0.032308143 0.01024056 -0.047006484 0.10553003 0.05101807 -0.08929327 0.019455068 0.1490113 -0.15749651 -0.0782641 -0.032516148 0.053256694 -0.0030231953 -0.19261119 -0.085417695 -0.19170308 -0.062167183 0.0929959 -0.12628329 -0.04799555 0.0020925424 0.07422654 -0.22326201 0.008087702 -0.044316147 0.10702644 -0.27684444 -0.030117571 -0.088732146 -0.0787809 -0.21576923 -0.20975462 -0.000963366 0.082732126 -0.072102204 0.14126962 -0.02816151 0.067781076 0.19220187 0.19692244 -0.007025044 -0.013420276 0.13607305 -0.058755267 -0.0070279795 -0.08158426 -0.19654562 0.054167394 -0.30514857 0.10209257 0.107539065 -0.09107833 0.119178556 0.0482005 -0.08398765 -0.006452662 -0.07127609 -0.15253185 0.08850835 0.0021979369 -0.2209867 -0.2093879 0.17869285 0.008521572 0.052887317 0.09007352 -0.100022934 0.0075044045 -0.11927744 0.0923858 0.15456034 0.13452931 -0.06356282 0.08565763 -0.021770637 -0.37457043 -0.11056378 0.15946004 0.06900344 -0.116212696 0.08468092 0.21085407 0.017808698 -0.1564366 0.097378105 0.20727926 -0.1075246 -0.086771466 -0.16604024 0.11351558
400 -0.10588242 0.5739135 1.002584 -1.1563454 -0.24184902 0.0071561476 0.48386565 0.7225332 0.090919666 0.40524712 -1.5993901 1.3658081 0.71592265 -0.47849813 0.1431008 0.46426246 0.47893205 -0.7877835 -0.51601404 0.22941142 1.4895836 -1.2545042 -1.0446883 0.5979207 -0.6319951 -0.5522698 -0.21143022 2.1569524 -0.5897177 2.0140526 1.5257087 0.27680138 -1.3616753 0.9640617 -0.73712087 -0.9274355 0.8403564 0.30403548 -0.9550866 0.7935519 -0.7576164 1.4987882 1.7151728 0.02923903 1.0767846 1.30712 -0.73284715 1.2832162 -1.3303547 0.60976976 0.3533638 -0.8741892 -0.58995503 0.038682878 0.3579523 0.6938064 -0.8165684 -0.39479142 -0.7631813 -0.020977696 0.8789146 0.75053513 0.11762178 0.39308637 -0.8180561 -0.24511157 0.08933537 -0.90487653 -0.2981199 -1.1937953 0.27688217 -1.4326433 -0.068359464 0.7934563 -0.07310628 -0.035292424 1.2551659 -0.48570907 -0.88974464 -0.39475834 0.24123527 -0.5794293 0.91466206 -0.0003928743 -0.840726 -0.1946064 -0.026886176 1.6415944 0.76745903 -0.9081608 0.38615632 0.5872365 0.9022174 0.15398964 -0.15420988 0.64436966 -0.03487821 1.3088192 0.91615546 -1.0929544 0.46473762 -0.08694212 -0.39607072 1.3248752 -0.00208856 0.5997733 0.7418952 1.1507442 0.42632437 0.2621821 1.5091282 0.85371214 -1.2774403 -0.41558173 0.6490429 1.4158562 0.48694834 -0.9700468 -0.77914524 0.3980644 -0.14511555 -0.90609723 1.5204145 -1.0688578 -1.1828349 0.10667078 -0.61455816 0.42262432
476 0.020847615 -0.097142786 0.10621898 -0.12380779 0.016212292 -0.17509416 -0.05191787 -0.015404278 -0.109731056 -0.109492086 -0.07222364 0.12716685 0.0629107 -0.08608693 0.11556086 -0.08338786 0.0844215 -0.08061079 -0.12416973 -0.04562152 -0.26803222 -0.1140643 0.05546561 0.004992417 0.075212255 0.11882974 -0.038906265 0.11958178 -0.115141176 -0.02925576 0.11486561 -0.053057417 -0.007460787 0.19587177 -0.023132507 -0.1171284 0.011302494 0.018713862 0.13589525 0.05153292 -0.15343289 0.22815743 -0.0028215027 0.069798455 -0.023930378 0.06551212 -0.033372764 0.008562033 0.0036186085 0.06974956 0.02547265 -0.198405 -0.14217271 -0.23947714 -0.05467833 0.23894763 -0.15845384 0.036235385 -0.06490281 -0.078842856 -0.07692416 0.1210133 -0.08413315 -0.14503281 -0.0681942 0.02183737 -0.031846855 0.04659817 -0.14399892 -0.0232733 -0.12905936 0.1424659 0.06759046 -0.053575374 0.08203995 0.0350426 0.0886436 0.07154182 0.12340772 0.06897991 0.09258674 0.030153256 -0.008544716 -0.00959818 -0.051289335 -0.11675439 -0.14002559 0.05583634 0.08833454 -0.020203391 0.071744464 0.052149408 -0.03364305 0.023099674 -0.045921046 0.04243443 -0.085729726 -0.053949043 -0.005651532 -0.16688108 0.14927955 -0.09480094 0.021087443 0.054696027 -0.12597756 0.07601669 -0.15779048 0.009775915 0.098907925 0.14665563 0.055231296 -0.072322965 -0.1467971 -0.124803394 0.030026305 0.0989846 0.066076495 -0.0030759925 -0.053368878 0.0030675037 -0.008051289 -0.08862821 -0.10167389 0.24500754 -0.06902945 -0.047519807 -0.108510256 0.18023172
385 -0.022814078 -0.03888739 -0.00309046 -0.1600065 0.060157996 -0.033317067 -0.009144138 0.1209456 -0.044183366 -0.14524436 0.006282803 0.18096364 0.0714661 -0.00091055426 0.05322979 -0.10983677 0.2658531 0.053538557 -0.19856212 -0.032137502 -0.1283738 0.036705952 0.09344143 -0.020315936 -0.010990861 0.05108107 -0.018823441 0.20932363 -0.035654735 0.04344217 0.06569928 -0.0076376605 -0.09021669 0.16961765 -0.17552255 -0.16119845 -0.023999736 -0.16033898 0.05599838 -0.10055266 -0.1883489 0.12509854 -0.10360585 0.027594795 -0.16837697 0.004889061 -0.11070322 0.039921798 -0.014796238 0.037925147 -0.015126943 -0.1507156 0.00627254 -0.16517715 -0.104929924 0.2697 -0.10111217 0.07882563 0.007755349 0.03382696 -0.11545031 0.07116678 -0.10892206 -0.1201255 0.07586312 -0.0006750982 -0.12363914 0.076653205 -0.11856894 0.0129949665 0.0047296034 0.07655515 0.1434476 -0.095973894 -0.07121091 0.0007308721 0.10956694 0.13861273 -0.06623292 0.089791305 0.17934267 0.02945967 0.2069179 0.048223175 -0.11440064 -0.010021642 -0.0877564 0.029437812 0.15174827 0.056785256 0.1324035 -0.040573258 0.123569876 -0.045163076 -0.03296202 0.025852833 0.07877647 0.052687064 -0.120919354 -0.15386848 0.2130697 0.09836072 0.024042984 -0.009529571 -0.06427039 0.22720388 -0.07346262 0.104229435 -0.10972733 0.11141411 0.10664383 0.10884881 -0.13323131 -0.11716115 0.074623086 0.25338423 -0.12431911 0.019947458 -0.23581524 0.020003542 -0.056498095 -0.23348399 -0.03261903 -0.024606396 0.08382472 0.07318732 -0.1670858 0.14537077
264 -0.08969304 -0.039776556 0.10361874 -0.07074678 0.056639016 -0.13273975 -0.095389955 -0.06589684 -0.00014154045 -0.058926053 -0.061046425 0.11344874 -0.0017650963 0.0026759764 0.123690754 -0.032746296 0.034418546 -0.13451324 0.017798658 0.05568858 -0.14796883 -0.059373192 0.13491535 0.035413582 0.15584305 0.013928043 0.07762042 0.32621863 -0.0512688 0.16396162 0.047774013 -0.055605534 -0.069022045 0.20138223 -0.029847983 -0.1594973 -0.0063237483 0.065192364 0.102763884 0.07978833 0.005526452 0.053535298 -0.07396356 0.13031396 0.09525421 -0.08221254 -0.030079171 0.016851481 -0.0660667 -0.018675825 0.15455222 -0.12687069 -0.06850057 -0.2003353 -0.058502145 0.22012353 -0.10770337 0.08463677 0.042690862 -0.08066061 -0.16866374 0.14098898 -0.11990619 -0.06415743 -0.12471903 -0.036344994 0.006935046 -0.044234935 -0.1684376 0.0084430445 -0.09788432 0.043243248 0.0065500145 -0.024142798 -0.05359758 0.12013249 0.0869167 0.01737114 -0.0006793072 0.08717111 0.16343352 -0.02373866 0.029558746 -0.2337354 0.019554418 -0.054159563 -0.07460546 0.10103827 0.039887555 -0.10428316 0.092085056 0.033249713 0.025718592 -0.043599382 -0.047349513 -0.021284496 0.04010514 0.13704062 -0.14634356 -0.070414215 0.16598083 -0.15409732 0.057732213 0.1111481 -0.10086322 -0.07195265 -0.23074363 0.03057609 0.073457465 0.032067783 -0.0056388136 0.09604454 -0.15370262 -0.087076075 -0.076148465 0.13551372 0.022869641 -0.10864143 -0.028282985 0.16628958 0.0401395 -0.07971517 0.014917514 0.14685586 0.002276976 0.047527485 -0.05289194 0.103628255
475 0.0136638805 -0.23218614 0.13117614 -0.35363293 0.02718074 -0.09682199 0.22041777 0.16226114 -0.16626854 0.00069341814 0.063688904 0.10734687 0.1226793 0.035799168 0.06994362 0.13592711 0.28383565 -0.107924744 -0.01807315 0.04003841 -0.06842919 -0.1655168 -0.11613891 -0.18442887 -0.10751581 0.05990628 -0.050607096 0.03618784 -0.05518431 0.012195343 0.051243506 0.07841534 -0.08498996 -0.033576306 -0.15266621 -0.030246012 0.0309676 -0.12798758 -0.03695547 -0.13317473 0.037962075 0.09619025 0.10078364 -0.0018540028 -0.09446759 0.059293058 -0.013274088 -0.05787808 0.031776167 0.060689177 0.101365626 -0.18022957 -0.010482267 -0.09582197 -0.02404446 0.01739985 -0.02275413 -0.10837135 0.063677914 0.12622105 -0.12399489 0.06361951 -0.056969054 0.07384163 -0.09737561 0.084238485 -0.34246817 0.09237864 -0.038444076 -0.15008846 0.020557838 0.10180177 -0.0314893 0.011363573 0.14091557 0.012067807 0.115422755 0.08661114 -0.046113215 -0.13391866 0.08229278 0.014391317 -0.0429096 0.042054504 -0.13851866 -0.024918519 -0.18250388 0.072868384 0.1031873 -0.21091095 0.14131978 0.043554343 0.07345362 -0.04984482 -0.19601226 0.0107617965 0.026963001 0.14825946 -0.089296915 -0.43732044 0.28790691 -0.066556595 -0.018906407 0.032157965 -0.14690253 0.007433317 0.09944677 0.212153 0.2540637 0.11314303 -0.109414004 0.08194355 -0.09008649 -0.24532807 0.03210928 0.07111768 0.045569237 -0.13952173 -0.13331303 0.19964263 -0.115011685 -0.17129782 0.054798134 0.11195576 0.019050458 -0.047475807 -0.16175972 0.07757729
395 0.011175346 -0.1205596 0.092204995 -0.2725434 -0.06846525 -0.12562367 0.07206544 0.21690062 -0.2879777 -0.03948204 0.050886087 0.083669156 0.14130548 -0.028369565 0.037109826 0.06906181 0.287125 -0.17174941 0.0012045976 -0.008064206 0.0012627518 -0.06759275 0.08672512 -0.12706691 -0.1003749 0.02902418 -0.06846096 0.19929725 -0.05523585 0.120957 0.06501942 -0.031049054 0.00918923 0.07345317 -0.10004547 -0.056901895 -0.018863605 -0.037676334 0.012438511 0.053209722 -0.05340196 0.12729453 0.03665065 0.030312318 -0.035700586 0.15389827 -0.14653437 0.018346224 0.015420482 -0.012800008 -0.029284647 -0.17479914 0.0133153135 0.005426929 -0.07207505 0.04526422 0.074998714 -0.06442598 0.109318055 0.1491122 -0.111036874 0.111381404 -0.021293482 0.13126501 -0.21664487 0.018918535 -0.23087575 0.06506615 -0.060068544 -0.19133516 0.019417906 0.098203175 -0.0395819 0.21355769 0.07059883 -0.016196718 0.097977705 0.12843536 -0.1494761 -0.06907857 0.1490251 0.0335651 0.10236899 0.011851786 -0.20270751 0.052679136 -0.24879415 0.110230096 0.03297994 -0.19849305 0.13276242 0.1865982 -0.006650944 -0.06419487 -0.06369058 -0.23517883 0.14476831 0.07788421 -0.21172231 -0.2367748 0.29242048 0.05807446 0.012939184 0.06321376 -0.17333873 -0.10013843 -0.0019520861 0.20519032 0.22629467 0.036781643 -0.13598385 0.06956823 -0.016462259 -0.24876009 0.039705604 0.12732239 0.056839116 -0.075520456 -0.13145824 0.2295639 0.013674332 -0.12252346 0.07621843 0.11587417 0.021741742 -0.061069105 -0.13632207 0.107863605
875 -0.083068885 -0.09008175 0.110550806 -0.09438134 0.018835086 -0.14726964 -0.014141922 0.03933937 -0.05858853 -0.069668755 -0.03002001 0.1712986 -0.08467048 -0.015389718 0.022207929 0.0056631165 0.029243685 -0.1247143 -0.087708205 -0.034290425 -0.19096588 -0.13009512 -0.062788546 -0.06765652 0.08980376 -0.0033827357 -0.02910281 0.18771458 0.036552165 0.09330501 -0.015407035 0.14237024 -0.13596554 0.1537246 -0.121346325 -0.105805546 0.1712774 0.09366131 0.08814423 -0.008781131 -0.100265525 0.1518187 -0.0066435556 0.10625747 0.004812036 -0.0585744 0.04745745 0.07714137 0.036707565 0.15113106 0.13595824 -0.24999472 -0.113977 -0.10882062 -0.03177142 0.13412353 -0.1379428 0.04150549 -0.0738807 0.005289624 -0.23184627 0.17724206 0.0010622955 -0.059712015 -0.13068578 -0.040424734 -0.16625397 0.0022073574 -0.11259153 -0.0340647 -0.027054876 0.09954321 0.039049387 0.017865865 0.027560988 0.17821291 -0.15961927 -0.047170095 0.09288879 0.198293 0.1128517 0.17222424 0.026330264 -0.088658564 0.041262478 -0.059536476 -0.05368026 -0.052061506 -0.010683588 -0.19892073 0.041183215 -0.11689859 0.021958651 -0.02710604 -0.102002226 0.060442694 0.10297602 0.09030934 -0.13443255 -0.15416828 0.16601907 -0.07060816 -0.012754752 -0.0025537263 -0.11637857 -0.028229835 -0.124526925 0.10687136 0.16143295 0.056631066 -0.13484918 0.1487192 -0.20103107 -0.0529391 0.034450963 0.07825835 -0.01926331 -0.1151141 -0.09015511 0.10327011 -0.099997014 -0.038960643 -0.060095895 0.22286424 -0.022401385 -0.03630411 -0.021420449 0.11219581
133 0.09067294 -0.2037852 0.14068937 -0.33815518 -0.007150981 -0.082442746 0.22829422 0.10307033 -0.113138005 -0.07852528 0.053944957 0.17444134 0.13473094 0.06144769 0.017518604 0.11219908 0.25736162 -0.09039474 -0.028840365 0.047085818 0.017652012 -0.15405808 -0.066827945 -0.2532222 -0.11387916 0.1323353 0.012146823 0.15672384 0.038459446 0.04505622 0.07015824 0.04899809 -0.03711023 -0.00020535034 -0.20505184 0.057219867 0.10497326 -0.061487198 -0.028154995 -0.099870674 -0.054290842 0.18623102 0.09129657 0.03190567 -0.18595347 0.08825098 -0.11979955 -0.013140524 0.07369635 0.007828472 0.08211241 -0.14368711 -0.019155106 -0.17418355 -0.013880238 0.053382996 0.018485 0.02145304 0.049523402 0.10873651 -0.17218955 0.14744234 0.053117238 0.06399382 -0.110558204 0.021711048 -0.3548989 0.009893867 -0.019477278 -0.14358488 0.009782083 -0.024576684 -0.09714487 -0.043828893 0.21232933 -0.06857655 0.08359023 0.050280318 -0.022339186 -0.08383536 0.02966669 0.053504657 -0.021288596 0.04219809 -0.15115766 0.04445611 -0.17608121 0.0038255597 0.064115174 -0.120962255 0.16322571 0.04860666 0.075805336 -0.036327545 -0.14987247 -0.017996473 0.11416163 0.050152335 -0.07813484 -0.3614739 0.3012276 0.015774546 0.106021665 0.102468565 -0.1475975 0.034964666 0.071509466 0.22752978 0.2099039 0.044326067 -0.053101666 0.08276815 -0.12453461 -0.19870919 0.020449234 0.1461481 -0.051805567 -0.10381834 -0.11350291 0.24607086 -0.10954918 -0.1082348 0.020633223 0.12501195 -0.042421263 -0.1297321 -0.13135746 0.18105604
669 0.04501897 -0.07153833 0.03898894 -0.26823947 -0.038459957 -0.15124987 0.038802862 0.17229354 -0.1814908 -0.0037610778 0.07331625 0.179251 0.30393046 -0.08563375 0.09754004 0.05743044 0.2768722 -0.3190888 -0.05670842 0.07900246 -0.06334956 -0.21679382 -0.1014891 -0.08475541 -0.105376214 0.06454046 -0.057296 0.10229765 -0.0690278 -0.10891221 0.06251715 0.0007390211 -0.065256074 -0.04331497 -0.11317793 0.11058717 0.11530478 -0.10518786 0.019888544 -0.062182695 -0.027102087 0.25000593 -0.023302399 0.07348504 -0.15238832 0.15086752 -0.16150041 -0.032724693 0.025914963 0.008423563 0.12172 -0.094378315 -0.16053656 -0.10843748 -0.11804972 0.14275792 -0.02248359 0.041821554 0.020749852 0.16873595 -0.15527701 0.160783 0.1024669 -0.07030562 -0.14369196 -0.017394507 -0.25566304 0.07624001 0.086450875 -0.026649246 -0.035663567 0.10095159 -0.098850965 0.041058935 0.16729935 -0.078618996 0.049527917 0.11123752 0.012438874 -0.08688314 0.14128722 -0.026427489 -0.056983586 0.05895165 -0.122700915 0.009017029 -0.21517242 0.037454046 -0.026000205 -0.17399453 0.059104078 0.13050403 0.115135126 -0.043067615 -0.10644204 -0.086087294 0.017849857 -0.004550522 -0.10108829 -0.2709838 0.16631746 0.07171967 -0.012034008 0.025885146 -0.1809804 0.088690065 -0.011616149 0.16055398 0.115289256 0.059768975 -0.04587585 -0.14375958 0.001995992 -0.18139455 0.09335592 0.11898966 0.084198155 -0.031477947 -0.12146238 0.17647195 -0.0041811266 -0.09966838 -0.015786259 0.106895044 -0.0084517365 0.010590571 -0.093877174 0.1462394
818 0.021324577 -0.08871019 0.08644887 -0.28379235 -0.06952934 -0.11903449 -0.060271014 0.14564604 -0.117844686 -0.09027697 -0.102162175 0.12605755 0.30529046 -0.12445941 0.0553091 0.107797414 0.094007686 -0.25233325 -0.03933034 0.09429472 -0.014432214 -0.14560485 -0.03923179 -0.13097277 -0.055138595 0.051304553 -0.039381165 0.15593986 -0.0075851865 -0.01592849 -0.036098056 -0.07790028 0.020113004 0.01556339 -0.01359862 -0.010653613 -0.034392245 0.10402354 0.06974363 -0.020894533 0.06485444 0.11597581 0.017575586 0.08833438 -0.082150586 0.11203844 -0.08062755 0.0092853615 -0.04013542 -0.07875286 0.1358483 -0.10781161 -0.025482848 -0.19964035 -0.017369201 0.09360033 0.033633288 -0.033386376 0.077659406 0.121588305 -0.18209638 0.05030067 0.058974795 -0.042409223 -0.11572894 -0.044145882 -0.18544686 0.0067586503 -0.005503426 -0.055709433 -0.13332239 0.027463313 -0.1457457 0.039192628 0.10123118 -0.15424997 0.059679925 -0.013455478 -0.060029734 -0.015960176 -0.019644404 -0.0774204 0.11933608 -0.12878735 -0.036562473 0.118268766 -0.12072893 0.07724028 0.035951145 -0.16813666 0.10883153 0.15977763 0.04554353 -0.010071337 -0.15830277 -0.22465894 0.0072178617 0.054966286 -0.1763282 -0.29538664 0.21631946 0.08147997 0.12441842 0.13158019 -0.30024385 0.039677117 -0.16571695 0.12279926 0.20019168 -0.1441049 -0.07819597 0.07959237 -0.08860996 -0.10270681 0.042528607 0.18979836 0.0651725 -0.0071540335 -0.095471516 0.28056565 -0.07839069 -0.19192444 0.02717761 0.20593649 -0.010773775 0.005169447 -0.18173668 0.075911105
758 0.07275342 -0.039592616 0.10061695 -0.14608064 0.009311176 -0.11156466 0.05175231 0.08251677 -0.020342086 -0.066991754 -0.0062772934 0.14059478 0.078664474 0.011836203 0.11150164 -0.069897905 0.20542602 -0.025357237 -0.059244845 0.0009717107 -0.059280116 0.038805798 -0.018338075 -0.0499263 -0.011340133 -0.014882242 -0.005706063 0.114476465 -0.041394215 0.077387534 0.06111437 -0.025446545 0.0059208767 0.038074214 -0.22289605 -0.055869307 -0.032605685 -0.06517574 0.061753016 -0.10003591 -0.21464293 0.12389856 0.011831222 -0.02429036 -0.032707803 -0.010162924 -0.06512989 0.06520611 -0.013265127 0.035423156 0.05074184 -0.15135993 -0.11308507 -0.19566852 -0.07914388 0.21213536 -0.09130733 0.057555653 0.009331509 0.08612881 -0.06252575 0.17909177 -0.074620076 -0.040826097 0.024673436 -0.070715085 -0.21885362 0.061344445 -0.0028956446 -0.017390972 -0.021051085 -0.017214285 0.14367278 -0.059942305 -0.0073669236 0.0028485516 0.071492985 0.15237133 0.020987488 0.057533022 0.20170684 0.077377215 0.042835053 0.0015537927 -0.037000142 -0.0039751083 -0.08483243 0.0009267454 0.086647294 0.026737634 0.059906237 0.009292992 0.02633357 -0.11739111 -0.1045043 0.019594995 0.06887537 0.08690603 -0.102775 -0.21758641 0.25175333 0.077387065 -0.023620252 0.08207198 -0.17353022 -0.003103696 -0.16422091 0.062703654 0.09312511 0.0070031933 0.07643058 0.023677662 -0.05854457 -0.119202934 0.08244562 0.06955705 0.06112619 -0.04574455 -0.13713254 0.031425256 0.06624885 -0.032558516 -0.09816729 0.09730126 0.089988895 0.0009259497 -0.17251988 0.14996925
407 0.014191456 0.5533098 -0.6099614 -0.165507 -0.26344684 -0.08733287 1.1268202 -0.11659189 -0.2771213 -0.42917538 -0.04636603 -0.33507103 0.0168595 0.23585682 -0.036030225 0.021548605 0.10332611 -0.3021583 0.17984514 0.21522853 0.18797378 -0.06555423 -0.229683 -0.4262681 -0.36669016 0.07465415 0.02105638 0.08422057 -0.4765747 0.277231 0.19978979 -0.31510964 0.030133732 0.3075161 -0.28875864 0.37666634 -0.055141054 0.15971535 0.1876129 0.40306172 -0.33955932 -0.06749827 -0.88532406 0.63251305 -0.3155198 0.11200655 0.02737719 -0.44460538 0.088024065 -0.25238097 -0.5227213 -0.7077527 0.37238973 0.2661832 0.039329488 0.50370604 -0.7984545 -0.11826569 0.09467011 0.50563717 0.23543617 0.42642576 0.8314327 0.1655675 0.32490316 -0.012802281 -0.16949444 0.24246332 0.56938815 -0.105745584 0.095243275 0.8802734 0.21999352 0.120317966 -0.05121478 0.19010048 -0.136688 0.25921348 0.1729201 -0.09624337 0.19814011 0.07677437 0.37089258 -0.3928059 0.43001986 0.17751305 -0.06268781 0.2619858 0.3496151 -0.383482 0.6955911 -0.15880273 0.044097517 -0.2683528 -0.49629208 -0.2513041 -0.8310623 0.43057564 0.08622485 0.020277042 0.07817597 0.46964735 0.39395806 0.06391151 0.07981498 0.21109225 -0.6026238 0.4426856 0.29037976 0.15764698 -0.082318686 -0.10830507 -0.44152057 -0.05748906 0.19334443 0.078548096 0.023949513 0.5792539 -0.14793813 0.16863556 -0.2733563 0.23383409 -0.37097254 0.7080971 -0.35680804 0.1363243 0.052199464 0.50491875
404 0.43895742 -0.74719065 0.2718282 -0.2841705 0.24515569 -0.3283581 0.35826436 -0.327285 0.26602194 0.72545147 0.117780976 -0.023383161 0.44029993 -0.13214824 0.28906098 0.1479633 0.081251726 0.19513541 0.10661959 0.030925957 -0.06938735 -0.0056178006 0.031206599 0.088511094 0.45327225 0.9745198 0.5008725 0.37957063 -0.3228749 0.11958152 -0.17283733 -0.15536487 0.10016559 0.16467889 -0.841395 0.45691106 0.3500754 -0.4665747 0.42034432 0.55921936 -0.38681647 0.025788281 -0.8600178 0.06926996 -0.52200794 0.54420894 -0.21927194 -0.2870878 -0.40245488 0.1773128 0.15283662 -0.40535778 0.1518261 -0.06613849 0.109742284 0.4908998 0.35724494 -0.4205789 0.2586753 -0.5441917 -0.8096422 -0.60810775 0.26054078 -0.09613652 0.044862133 -0.3873624 0.23200572 0.71505255 -0.11342249 -0.5111272 0.13423263 0.13783318 -0.35115746 -0.48315835 0.5480337 0.27980852 -1.0951092 0.018764682 0.52393776 0.3002358 0.2843741 -0.1785092 0.47631818 0.43569717 0.15569617 0.3968857 0.19998926 0.044620402 0.59063154 -0.6760565 0.47801834 -0.7657336 0.25975806 0.048116587 -0.21720105 0.16059434 -0.2584129 0.07113723 -0.4378747 -0.85020405 0.6285805 0.46096534 -0.11751013 0.074898675 -0.40717652 -0.3835854 -0.6023407 -0.2282098 0.240143 0.55580556 -0.22942546 0.2832551 0.14396024 0.47652146 0.26649672 0.073702835 0.27638632 0.107782185 -0.17132272 -0.30639657 -0.10013618 -0.5084667 -0.13836949 0.0840241 -0.50834316 0.48516855 0.054254167 0.23753294
368 0.00416546 -0.07074952 -0.07085242 -0.075195305 0.112990595 -0.020390026 -0.18143907 0.022194069 -0.10731198 -0.16555578 -0.105258346 0.1135912 0.013972697 -0.0198902 0.0843374 -0.017386278 0.102584906 -0.021168765 -0.2246821 0.04032025 -0.062395267 -0.14452772 0.1174968 -0.022067996 -0.017165614 0.020824822 -0.14833589 0.112504 -0.0034412667 -0.10002915 0.14198086 -0.09132107 -0.16084427 0.08212601 0.0035402353 -0.24907808 0.082512036 -0.02028234 0.09668907 -0.08689785 0.02577687 0.07476225 -0.02996042 0.10944635 -0.050354566 -0.0776387 0.00338708 0.10483264 -0.07200517 0.0972723 0.0251199 -0.20892535 0.050606493 -0.034782097 -0.011804173 0.21855058 -0.02258435 0.09351488 0.09235927 -0.11172756 -0.25241032 -0.0038522498 -0.11075651 -0.11189276 0.020980299 0.13722725 -0.10389549 -0.010616909 -0.21322687 0.021572798 -0.016550316 0.1599555 0.17944078 0.0454644 -0.15212691 0.13381286 -0.078718506 -0.047936767 -0.10551529 0.09013389 -0.023883108 0.1644808 0.22408679 -0.036588818 -0.12888423 -0.046678606 -0.035051435 0.05765363 0.03209521 -0.2565183 0.034274872 -0.13913995 0.007904246 -0.06146079 -0.18080278 -0.0022525766 -0.107367836 -0.03951479 -0.10603465 -0.098945424 0.17120606 -0.029055761 0.05762381 0.10108241 -0.13904786 -0.034000956 -0.11077043 0.23052852 0.04956136 0.08155649 -0.037734915 0.12843846 -0.17924681 -0.043826576 -0.040710866 0.24453627 -0.18998857 0.009706615 -0.19284782 0.021291949 -0.30071768 -0.25047675 -0.03149738 0.101878285 0.0021909364 0.06634714 -0.17376189 0.044410422
778 0.016774243 -0.015293076 0.14112276 -0.26326078 0.048724577 0.06908127 0.01338041 0.17288499 0.023786522 -0.085702345 -0.1165853 0.09689895 0.048575398 0.02851234 -0.0070690014 0.089164495 0.32471356 -0.19723392 -0.10319576 0.06565999 0.07551667 -0.109702796 0.031474125 0.02396358 -0.09991601 0.14640395 0.016177278 0.32150316 0.031700414 0.14304599 0.062704794 0.11950085 0.012771518 -0.077721104 -0.046880674 -0.1936435 -0.064047985 0.04137963 -0.06507957 -0.021415966 -0.06211373 0.09773486 -0.12212145 0.029130928 -0.17298858 -0.057107262 -0.26581293 -0.20847234 0.106300816 -0.10260454 -0.078959875 -0.13560997 -0.02146929 -0.062648 -0.17604482 -0.12207148 0.1456436 -0.01869896 -0.029042527 0.09061657 -0.27521002 0.0911321 -0.020472283 0.06291968 -0.09418816 0.0017264453 -0.17551687 -0.15424295 -0.19057612 -0.22794402 0.009472489 -0.074795276 0.005931754 0.21077271 0.012256263 0.05601004 0.19015768 0.061025545 -0.084538184 -0.09589045 0.2088044 -0.11946658 0.36466077 -0.13258064 -0.10621103 0.08265839 -0.13424113 -0.02054548 0.14358911 -0.14639486 0.22830996 0.05696312 0.18923984 0.031900063 -0.18628825 -0.30058944 0.071854554 0.1209028 -0.10076699 -0.1702207 0.22390784 0.06672424 0.10927058 0.07103286 0.047235295 0.13981089 0.02438785 0.20092973 -0.0055935094 -0.013018747 -0.06811212 0.19076872 -0.15021108 -0.19859706 -0.013605147 0.18820965 -0.09577282 -0.06711069 -0.030101588 0.1992599 -0.1325771 -0.41894725 0.11890644 -0.11121443 -0.07458117 0.017720249 0.011256746 0.0909589
314 0.07345212 -0.13923329 0.13702506 -0.30634066 -0.021296319 -0.080939844 0.044118248 0.27543232 -0.10453411 -0.11518936 0.068766445 0.09794177 0.13271359 -0.038881194 0.077787906 -0.016405538 0.3488131 -0.2333199 -0.035203323 0.017187973 0.0193167 -0.035027474 -0.02906175 -0.25166422 -0.15964925 -0.003711382 -0.02726515 0.080817245 -0.03735148 0.09240911 0.0028841349 -0.05971477 0.026258813 -0.06342281 -0.059388816 -0.079887815 0.06655017 0.03924724 0.03438196 0.10197437 -0.036088493 0.11569242 0.014912718 -0.06751265 0.045306552 0.093785405 -0.18265499 0.054861512 -0.03176358 -0.005440939 -0.01650274 -0.17233416 0.0537138 0.033215728 -0.01898292 0.11072397 0.058442406 -0.022219613 0.016717782 0.06405003 -0.15475135 0.040494297 0.059486043 0.1598793 -0.20031922 -0.032043204 -0.22844996 0.10148104 -0.12098253 -0.1410961 -0.04103024 0.058402576 -0.0128688915 0.21285246 0.08043106 0.033934474 0.11521447 0.1722587 -0.13781446 -0.13229659 0.17808768 -0.0437143 0.04927498 -0.059244122 -0.14568426 0.03913022 -0.27836224 0.068286054 0.026813187 -0.28373268 0.16753276 0.14658475 0.03760686 -0.05910552 -0.12494429 -0.23208265 0.13944791 -0.002873318 -0.16671441 -0.29416838 0.23676722 0.112273134 0.078863606 0.10921783 -0.111295395 -0.035710726 0.06874072 0.12635691 0.1771861 -0.018629199 -0.15628861 0.08521826 -0.028262349 -0.25974497 0.08120911 0.08773188 0.0569116 -0.039670452 -0.018630166 0.3466708 0.044847734 -0.17410694 0.07826521 0.120768234 -0.022337299 -0.1220627 -0.16687182 0.12455362
63 0.06133411 -0.07113569 0.03863226 -0.23077087 0.08688713 -0.13989931 0.24182369 0.17004728 -0.112230025 -0.095103465 -0.07381447 0.15767571 0.08979179 0.26515228 0.12826599 0.13940479 0.2456164 -0.039113052 0.03340391 -0.13360976 0.04649747 -0.026043082 0.08788622 -0.13892943 -0.036699936 0.04126255 0.005204372 0.06605873 -0.035754688 0.1588016 0.19085369 -0.019761097 0.14982563 -0.0001547556 -0.12828024 -0.07099137 -0.08762742 -0.03766609 -0.006986213 -0.1400528 -0.026863677 0.124741405 0.17616023 0.0678782 0.03219319 0.11059661 -0.11974194 0.0043744654 -0.024237184 -0.0078313565 0.01654451 -0.16867581 0.074060254 -0.18021227 -0.021245798 0.04021393 -0.053249113 -0.07741617 0.19563721 0.09162265 -0.11977808 0.06173139 0.045355562 0.080275856 -0.028089665 0.0061911657 -0.11264407 0.06475558 -0.23164356 -0.17171097 0.012174228 -0.031595293 -0.11508491 0.13707618 0.12291896 -0.1004091 0.1533288 0.06102111 0.07029679 -0.004860254 -0.046922736 -0.025895933 -0.040633157 -0.042377684 -0.13496253 0.015330869 -0.13238695 0.040831596 -0.016668335 0.0024871621 0.09008486 0.044515263 0.054156583 -0.08849073 -0.16630112 -0.11315307 0.10410984 0.1354209 -0.14565414 -0.29102406 0.306328 0.08654935 0.07244469 0.21041115 -0.046521045 -0.07821618 -0.11983211 0.21510203 0.14200069 0.08945242 0.077496655 0.009028638 0.0020877628 -0.3158378 0.06717615 0.22117579 -0.08232529 -0.15685211 -0.21509406 0.19591272 0.0049489816 -0.024723344 0.18117008 0.19134863 -0.03524817 -0.082099155 -0.22023615 0.10587071
22 -0.13628383 -0.22684425 0.036541473 -0.23987678 0.021272074 0.13803926 0.097578436 0.11161579 -0.1798313 -0.085374326 -0.061912008 -0.00036244752 0.18549535 -0.068504885 0.0354319 0.060385644 0.30371848 -0.097041674 -0.18811412 0.12905157 0.041757286 -0.17014123 0.12062494 -0.10518827 0.073171265 0.15466325 -0.21884286 0.27310613 -0.1172201 0.11985825 0.0374492 -0.10401827 -0.0368632 0.12515716 0.028034 -0.241533 -0.022820737 0.056656957 0.11016734 0.06921973 0.00699106 0.15901598 -0.016796865 0.033814408 -0.08954058 -0.0852959 -0.042526945 0.014732423 0.07190062 -0.037814748 -0.02179716 -0.06661423 -0.12459293 -0.13609637 -0.044671502 0.07423483 0.04701001 -0.091181956 0.25040013 -0.08722375 -0.056746423 -0.0040850556 -0.2689781 0.12235918 0.008131978 0.03295984 -0.13675001 -0.019112613 -0.23588924 -0.07933632 0.03935775 0.21820486 0.03409912 -0.039770234 -0.061442282 0.0267081 0.07401305 0.09908338 -0.27512354 -0.09103308 0.14755674 0.07136844 0.31381553 0.061439484 -0.2653074 0.038252193 -0.23573667 0.19582105 0.13409697 -0.19859913 0.25425234 0.02525946 0.13435438 -0.047290925 -0.07319832 -0.109788306 0.051000103 0.12473364 -0.08937046 -0.17658995 0.21245699 -0.00041543078 0.1587689 0.18136483 -0.27863938 0.10851056 0.12022998 0.07511626 0.103531756 0.020440832 -0.16170198 0.18695286 -0.2539715 -0.16164055 -0.10747 0.08168759 -0.17151278 -0.040951196 -0.15887938 0.062148564 -0.19631584 -0.40316066 0.07937045 0.007996509 -0.04921384 -0.038130097 -0.1237966 0.107683115
406 0.2565173 0.43780887 -0.03181628 0.050161965 0.72066724 -0.70035744 1.1836559 0.31846505 0.48349658 -0.6054011 0.37790442 -0.15323749 0.1769788 1.379801 -0.23673755 -0.7019614 0.08346573 -1.036162 -0.42388648 0.4323619 0.033010405 -0.19946018 -0.18389437 0.8863504 0.3183969 0.6154483 0.47984478 0.46928993 0.5647628 0.18808696 0.20069908 0.1622085 -0.39031982 -0.15487963 -0.40225264 0.5813584 -0.13734901 0.66503835 -0.4263162 0.06818861 -0.6557737 -0.6152584 -0.7086135 0.22933336 0.98659414 -0.60545707 -0.3832979 -0.3566343 0.26448363 -0.16384764 0.020647665 -0.091609105 -0.19934218 -0.20883729 -0.0849891 0.42079696 0.5192304 0.33665895 -0.1510269 -0.05022168 -0.42037585 0.088370636 -0.13919963 0.029227916 -0.84038687 -0.05322937 0.44081378 0.1322291 0.26814443 0.020328078 -0.09118155 0.43195713 0.760809 -0.64733213 0.6634687 0.46784836 -0.6463266 0.3652237 -0.50917906 0.16176105 0.17679165 -0.3245785 0.07992279 -0.31909204 0.5265366 0.17885762 -0.58983153 0.5639991 0.0058063213 -0.8540592 0.16111274 -0.15568894 0.01096511 0.1775367 -0.75595635 -0.8614799 -0.7594193 0.50269973 -0.015076064 -0.44018823 1.1647457 0.16204157 -0.20374285 -0.061904516 -0.78094286 0.22776432 -0.20145594 0.15202262 -0.27168024 0.35772678 -0.46007276 0.79559886 -0.41563237 0.7562629 0.17186432 0.48498684 -0.15672883 -0.3607265 -0.029971097 -0.45633513 0.37185094 0.4514153 -0.028605878 0.13340576 -0.39905596 0.018593106 -0.25074983 0.40050954
876 0.038842775 0.03546142 0.104398 -0.14390549 -0.120075606 -0.14302796 0.13530119 -0.0064011533 0.07326723 -0.00080760004 -0.027841408 0.1206775 -0.062318794 0.17391783 0.09250762 -0.0045759534 0.14604805 -0.05916001 0.03488932 -0.004966987 -0.05749294 -0.03851113 -0.0164794 0.013708434 0.004454545 0.008802783 0.16918752 0.249681 0.048784666 0.10827056 -0.008514326 0.22890316 -0.10073076 0.025599925 -0.27244103 -0.012132202 -0.06781143 0.06411631 0.0056421664 -0.14977808 -0.12165603 0.027582893 0.094707854 0.16263823 -0.09686948 -0.066304184 -0.057207953 -0.060220994 0.01406138 0.0869067 0.08732439 -0.26381087 -0.08383726 -0.2770711 -0.10994035 0.06780443 -0.11985925 0.13220592 -0.10776039 0.08083184 -0.14321522 0.23245005 0.033187557 -0.09228032 0.08368951 -0.02097316 -0.25198287 0.04363954 0.025730925 -0.08599635 0.060532603 -0.046442248 -0.009002119 -0.051781632 0.09315738 0.034959402 0.020272227 -0.022720957 0.06463879 0.10717655 0.14529963 -0.04922281 0.079745 -0.06358832 0.103682645 -0.05425212 0.05527886 -0.02948165 0.004643756 0.0630968 0.042465143 -0.086939625 0.068189226 -0.08699665 -0.057708994 0.0057334946 0.1313286 0.14493385 -0.05153869 -0.19110718 0.315107 0.032843716 -0.025022963 0.095997386 -0.00015147688 0.07502446 -0.14002573 0.008105095 0.11469492 0.054020926 0.044772994 0.11883359 -0.12767304 -0.09713657 0.00879734 0.07783084 -0.08305999 -0.09755264 -0.0998994 0.0016695595 -0.02682176 0.009395915 -0.043421645 0.06681652 0.11371508 0.016198926 -0.041496422 0.09206439
634 0.026667425 -0.10162037 0.16190079 -0.0779084 -0.11155433 -0.07094671 0.08999168 0.121078424 0.061753184 0.026522132 -0.20309481 -0.061271146 0.0506912 0.26096663 0.22714657 0.058396395 0.23200537 -0.04623068 -0.20002675 -0.010548353 0.13987018 -0.30337363 0.20432463 0.03382346 -0.05759115 0.10433729 -0.24691789 0.13155922 0.039985765 0.06745018 0.0025365776 0.09671313 0.002886937 -0.23981673 -0.009574723 -0.14652862 0.05199139 0.13150339 -0.11352497 -0.06562633 0.051697955 -0.050178856 0.08461932 0.073791526 -0.115538046 0.017578568 -0.35771778 -0.31962112 0.13280532 0.008263082 0.05699466 -0.22793575 -0.18709505 -0.0391104 -0.12327244 -0.039787203 0.03064617 0.0026734348 0.018114898 -0.042540696 -0.15337507 -0.056194093 0.045439996 -0.11053923 0.1186846 -0.10615537 -0.10743531 -0.21359144 -0.19646892 -0.3533807 0.086371355 -0.002948105 -0.1427652 0.18079735 0.007506052 0.1602445 0.07585356 0.030972501 -0.08767059 -0.116895184 0.100410886 -0.1431027 0.2587881 -0.2626249 -0.13267928 0.0009654821 -0.13212812 -0.03757306 0.05993946 -0.19373979 0.09388892 -0.19960779 0.17170888 0.06958956 -0.12829696 -0.14950916 0.029355418 0.013538686 -0.087671414 -0.28763166 0.27312908 0.0849647 0.18559079 0.038517304 -0.10867233 0.018009022 0.025585016 0.10678493 -0.039167125 0.12944005 -0.15278548 0.0854099 -0.09956613 -0.22849762 -0.086894795 0.29932445 -0.076381214 -0.023090746 -0.3176503 0.13532205 0.012297614 -0.38707793 0.119549215 0.047798462 -0.15014221 0.056186065 -0.056952428 0.13210459
757 -0.025117494 -0.115429714 0.16704813 -0.17082362 -0.0934049 -0.123215415 0.0010023094 0.08569879 -0.19289175 -0.11902281 0.10562355 0.21886952 0.040309973 -0.09103128 -0.0030463776 -0.0787851 0.2220176 -0.0703422 -0.060546167 -0.0494223 -0.16425645 0.025072161 -0.054470003 -0.08753201 0.011824655 -0.007877142 0.054928016 0.15388519 -0.041529436 0.056251448 0.0687993 0.073453516 -0.029019242 0.115985796 -0.21110006 0.010487307 0.04029982 -0.091795936 0.12848006 -0.092684664 -0.1647362 0.17429556 0.0059492914 0.0765169 -0.051743142 0.0981286 -0.029432865 0.12413283 -0.059903126 0.08402922 0.07731521 -0.25259173 -0.033573225 -0.0986767 -0.08385442 0.32691196 -0.05493063 0.048224583 -0.015662493 0.04873689 -0.11286046 0.18414935 -0.055906657 -0.07010762 -0.08325847 -0.03796734 -0.32784054 0.14971387 0.049632806 -0.008307085 0.00088905275 0.08222055 0.09542449 -0.008865268 0.021016022 0.05857951 -0.09778031 0.08214549 -0.048082445 0.0014630725 0.23880292 0.15907489 0.11718293 0.087208316 -0.033333503 -0.056205697 -0.11411442 0.0044330307 0.08922343 -0.06472478 0.045626864 0.08087288 -0.005240282 -0.10037219 -0.025479682 0.009498511 0.119698055 0.04919993 -0.16923235 -0.19697224 0.26343733 0.13389747 0.06533127 0.09141479 -0.1277928 0.0429297 -0.08482512 0.093441896 0.09797138 -0.011436393 -0.016696824 0.038340103 -0.08695318 -0.015757227 0.10498727 0.08308682 0.09389531 0.004614509 -0.07339544 0.04979071 -0.019895153 -0.008958942 -0.0080051115 0.06363059 0.15576978 -0.096934095 -0.15853056 0.08830065
0 -0.0057328967 -0.15818979 0.21073571 -0.40038568 -0.0521503 -0.00054777967 0.22628877 0.16270062 -0.08427631 -0.17139937 -0.058350816 0.14946865 0.03512045 0.021200864 0.0023434556 0.1925245 0.24760883 -0.16447304 0.0361775 0.044002805 0.11807277 -0.14439218 0.10036979 -0.14570984 -0.08057947 0.06297325 0.18038869 0.2970565 0.12804322 0.18472831 0.04517377 0.12603058 0.0027705026 0.056438163 -0.11126473 0.026081711 0.047502134 0.07811771 -0.059801742 -0.09505292 -0.010444243 0.14389874 0.06331904 0.12019652 -0.084414795 -0.011188475 -0.1626794 -0.055365685 0.05127461 0.0059233597 0.028142923 -0.24844468 -0.027063038 -0.1978987 -0.03860644 -0.15187773 -0.005463294 -0.015638528 0.07751114 0.14105605 -0.23827751 0.15144335 0.029179761 -0.0011256619 -0.22189844 0.048538014 -0.2105426 -0.12157172 -0.15264195 -0.2510632 -0.13741441 -0.10994881 -0.15086474 0.16516964 0.12414045 -0.0732201 0.09401982 0.07839568 -0.11336218 0.012788732 -0.020603048 -0.08037638 0.19526787 -0.10323667 -0.18042463 0.12430724 -0.14863563 -0.00059871434 0.0093044955 -0.19585897 0.12395292 0.1422924 0.19347171 -0.016067185 -0.06227758 -0.27352297 0.14703824 0.13424835 -0.22920085 -0.30055186 0.17888686 -0.10408086 0.013226831 0.102862 -0.009517438 -0.041760806 -0.017594177 0.20726271 0.2549847 0.14793843 -0.20739852 0.2523109 -0.19164027 -0.2687368 -0.025928158 0.15728793 0.007882605 -0.18584484 -0.2168886 0.24984851 -0.07961793 -0.060841955 0.018569939 0.18602662 -0.07821444 -0.04141913 0.009698402 0.11868226
239 -0.010556239 -0.030085335 0.08500532 -0.085306585 -0.0076479274 -0.106539994 0.20479494 0.09796083 -0.0013074003 -0.078528345 -0.016179383 0.15828957 0.062801495 0.05115517 0.14233458 -0.013588454 0.20131335 -0.009896645 -0.049532108 -0.011744421 -0.041096218 0.0025237987 0.019372845 -0.1320872 0.018930515 -0.05829087 0.022515843 0.11697494 -0.08839114 0.08117929 0.07188192 0.086389594 -0.045233898 0.016275905 -0.16879936 -0.001915822 0.052440006 -0.007435122 0.07500096 -0.19695778 -0.15866672 0.101906195 0.052806128 0.031416025 -0.02823754 -0.0169566 0.046452325 0.16928437 -0.06629679 0.009259373 0.12749022 -0.23462798 -0.049237754 -0.28864074 -0.054188147 0.21153425 -0.09478607 0.043987535 0.0659845 0.06026683 -0.08298143 0.17757852 -0.085987054 0.033930458 0.11190951 0.03532351 -0.30020162 0.13844204 -0.1202754 -0.0056477333 0.031746108 0.10948396 0.058084574 -0.15107603 -0.028607368 0.058784053 0.0026463247 0.16195591 0.0429161 0.07247227 0.13897333 0.061078824 -0.06810198 -0.009250877 -0.05757852 -0.042012382 -0.13221692 0.08389337 0.06781131 -0.037437245 0.15519857 -0.056188125 0.01920853 -0.09182711 0.043816052 0.0865796 0.049184572 0.123927236 -0.14382124 -0.23332994 0.18377706 0.105295405 -0.13716455 0.106497794 -0.12701398 0.009802104 -0.063635826 0.12376144 0.09972636 0.037694957 0.16917208 0.016256815 -0.02419382 -0.1615416 0.075638324 0.08826993 -0.07482244 -0.0747886 -0.11703295 0.10010073 0.0063479743 0.01786776 -0.035581484 0.1410201 0.1399638 0.049038682 -0.08219401 0.22551319
173 -0.048869163 -0.003377876 0.01936826 -0.15224938 0.0036789402 0.022215469 0.11495204 0.06508846 -0.1290989 -0.22909911 -0.07536395 0.26141238 -0.031183595 0.07478751 0.012885098 -0.10057731 0.3136795 0.01710884 -0.08966757 -0.042820673 -0.06376062 -0.050770126 -0.012819548 -0.09732685 -0.059715007 0.121541634 -0.030751165 0.086471505 0.044107024 -0.023924667 0.123466454 0.15201049 -0.1707783 0.12341421 -0.14554416 -0.1289762 0.1432137 -0.061424248 0.03628261 -0.23615065 -0.081851706 0.1431129 -0.009832247 0.070794754 -0.1362605 0.0071922154 -0.087658554 0.04819802 0.003363555 0.020393714 0.09593896 -0.17594491 0.019534364 -0.095054746 -0.10815937 0.18913208 0.0553789 0.08338179 0.07623956 0.029566681 -0.20337692 0.18354666 -0.037210796 -0.07029361 0.07899241 0.04630622 -0.25830796 0.14748886 0.017973103 -0.04591538 0.0654695 -0.0037980038 0.12309444 -0.12467707 0.00024246136 0.03722722 0.003583886 -0.01210262 0.0063810647 0.085301705 0.0724288 0.17862672 0.23797722 0.024282405 -0.17300315 -0.025134632 0.002765708 -0.11747783 0.036496177 -0.09793882 0.1483439 -0.068790525 0.1549671 0.04301378 -0.12682003 0.11720497 0.058287375 0.05919365 -0.021480013 -0.13877042 0.24574214 0.123267174 0.06557718 0.09257061 -0.06143315 0.12852702 -0.07762488 0.29168501 -0.0037102834 0.050139297 0.04580268 0.077560194 -0.23930791 0.037900046 0.079006664 0.25828677 -0.18608618 0.04959591 -0.21121858 0.059005428 -0.21069735 -0.21000262 -0.05727012 -0.052360546 0.0633414 -0.052587483 -0.21984121 0.18986823
746 0.08781871 -0.16734542 0.07714078 -0.32048243 -0.013790817 -0.13571505 0.15107104 0.1652785 -0.1853627 0.00441924 0.18432327 0.1816718 0.1788349 -0.073636465 0.0877312 0.071853235 0.18134102 -0.13742745 -0.13258484 0.120722 -0.11429819 -0.11472023 -0.056281973 -0.13559428 -0.13427058 -0.054140754 0.054806378 0.18465962 -0.053405404 -0.10898479 0.048126195 0.15165067 -0.2291949 0.012764673 -0.20812836 0.06929847 0.15601118 -0.1259467 0.037905857 -0.12329941 -0.14346117 0.22838104 0.032169145 0.061441965 -0.21631163 0.20671593 -0.07387654 0.0022174036 -0.03279301 -0.029488137 0.10259307 -0.22141066 -0.047181964 -0.08372886 0.036151584 0.077168524 0.030579718 -0.04328178 0.11512093 0.2101865 -0.23638755 0.12794316 -0.018248437 -0.046126094 -0.18232128 0.044531185 -0.37728372 0.055617273 0.007100029 -0.08640612 -0.098387524 0.05287091 -0.1700803 0.0102843065 0.08165017 -0.003228369 0.07251722 0.15688568 -0.08723778 -0.11548025 0.07869967 0.04259664 -0.057895634 0.030866176 -0.07889302 0.061053816 -0.2948102 -0.014144721 0.07531474 -0.123879574 0.15096255 0.07186268 0.06846161 0.0443518 -0.07073474 -0.11196463 -0.015949454 0.14422245 -0.26192063 -0.3140631 0.15196373 0.020685494 -0.060562737 0.045435354 -0.12637833 0.25810918 -0.031105945 0.12213213 0.35116208 0.04314547 -0.027902612 0.045042325 -0.077093005 -0.17439094 0.055720318 0.14253129 -0.006683349 -0.10702495 -0.19696641 0.32259023 0.0059250672 -0.16322051 -0.019791702 0.15659486 0.0873005 -0.08064248 -0.1554234 0.19597664
129 0.091190025 -0.063211374 -0.0015932126 0.028618347 -0.020417783 -0.17006351 -0.014958867 0.018693924 -0.01823008 -0.21665016 -0.14682819 0.043418754 0.112915024 0.15030381 0.20711204 0.06358235 0.056082726 -0.05704278 -0.122450374 -0.024917994 -0.02395338 -0.122579366 0.09641631 -0.10568406 -0.0018005569 -0.01423681 -0.0607039 0.034078766 -0.07436394 0.1287005 -0.00884124 0.0349268 -0.038693503 0.10592408 0.013246522 -0.058219615 0.08147046 0.048787653 0.11157366 -0.14309844 -0.00055626436 0.15419696 0.1185536 0.08877657 0.03236746 0.060539108 -0.08290279 -0.0017760652 -0.039070033 -0.022385754 0.029372854 -0.15115821 -0.008034523 -0.27407166 -0.0385558 0.24630487 -0.15057012 0.15973003 0.10690122 -0.07318173 -0.04133855 0.029372849 -0.025667347 -0.054459184 0.042214323 0.08722185 -0.02628978 0.062060393 -0.071220994 -0.0366256 -0.044316236 -0.00077238365 -0.09740824 -0.11023027 0.11272337 -0.06164682 -0.056648605 -0.058751505 0.05586309 0.15246226 -0.12559311 0.06198577 0.0419664 0.021734929 -0.011516761 -0.0453951 -0.03953471 0.05924219 -0.04649738 -0.071156554 0.078844994 0.026595492 -0.009551144 -0.050694197 -0.11211137 -0.034991387 0.04646103 -0.002985177 -0.017385859 -0.30421853 0.21558987 0.0021991914 0.17110266 0.1895299 -0.22404903 -0.2122124 -0.27362746 0.09156643 0.07045559 0.014841252 0.009114469 -0.04756314 -0.16795705 -0.043484513 0.012766834 0.10136696 0.049083076 0.08412059 -0.25977492 0.03649212 -0.0012393304 -0.03589078 -0.04928904 0.23449452 -0.09332716 -0.008138314 -0.1519939 0.19454424
694 -0.005374797 0.012032762 0.10242779 -0.16364232 0.051024925 -0.12805076 0.022498546 0.14463918 -0.06545359 -0.037770703 -0.05158449 0.007778865 -0.0153098125 0.028858788 0.08673913 -0.035377786 0.13561092 -0.2663258 0.029351056 -0.034665737 0.06812946 -0.0033191356 0.09628056 0.07113855 -0.049826194 -0.04598203 0.111625716 0.10760637 0.048635475 0.28616604 -0.0038692742 0.15575327 -0.09651086 0.065269105 -0.14957537 -0.02359486 0.028205434 -0.050898142 0.07437843 -0.20106961 -0.004872702 -0.0021797568 0.0057394914 0.09126746 0.011681135 -0.08146843 -0.034364935 0.13518493 -0.09971296 0.08150887 0.13286313 -0.22103171 -0.07372933 -0.09962384 -0.06405583 0.13968293 -0.059400633 0.087513305 0.08767179 0.10584659 -0.13512737 0.26065177 -0.02654236 -0.054795142 -0.06919567 0.010717189 -0.21196695 0.07422961 -0.08198353 -0.118388146 -0.017362392 0.07752067 0.1458382 0.063276336 -0.04530054 0.11184962 -0.12682584 -0.07915977 -0.04510753 0.07283306 0.08860356 0.16358444 0.017264115 -0.040969465 0.012436397 0.04050174 0.06105094 0.10754107 -0.10335247 -0.14784564 0.050086744 0.08261599 0.15520303 -0.11873533 -0.024900187 -0.025665868 0.06408333 0.17558888 -0.11308418 -0.16188201 0.09165434 -0.19678308 -0.07875281 0.14973752 -0.08361178 -0.24526788 -0.13886374 0.17404336 0.11625702 0.050993513 -0.13730554 0.1852565 -0.08811174 -0.1413786 0.0325069 0.033919018 0.09913156 -0.10958349 -0.18761845 0.05591829 -0.15941834 0.005537883 0.028040912 0.12851065 0.081386596 0.025857445 -0.08279503 -0.0067597223
389 0.04946462 -0.051911213 0.23342049 -0.26376268 -0.07773976 -0.14191923 0.1644646 0.1489211 -0.12069411 0.04947747 -0.005844921 0.08348684 0.13163614 0.060133763 0.08383014 -0.0020516124 0.37750483 -0.18634306 0.006453715 0.14026311 -0.038208876 -0.15309823 -0.15081038 -0.10789241 -0.07214004 0.17420521 -0.19652097 -0.022858836 0.05555772 -0.043423995 0.07342517 -0.057720933 0.0925869 -0.045954037 -0.21031111 0.046828754 0.0035789576 -0.028071228 -0.121987544 0.051706087 0.039674122 0.14454569 0.04936107 -0.08338703 -0.075817145 0.12606782 -0.18624316 -0.24720791 0.057048846 -0.03500473 0.1390316 -0.0819561 -0.1354251 -0.07779945 -0.06402331 0.03321006 0.009296184 -0.15862857 -0.10821045 0.101718456 -0.12266063 0.026216488 0.09868033 0.03361239 -0.10334866 -0.21433869 -0.32564583 0.05641616 0.09344702 -0.1371028 0.00093075936 -0.011675056 -0.18117602 0.101658314 0.19520198 -0.03713132 0.16391864 0.17711441 0.023639582 -0.19669868 0.25892916 -0.0553591 0.119422175 0.0031366663 -0.1651087 -0.07998965 -0.13252032 0.0018348044 0.16695042 -0.24487898 0.1313885 0.0704706 0.054938894 -0.041713253 -0.14862478 -0.02876452 0.052851494 -0.084481694 0.028613808 -0.37723896 0.33903727 0.10784769 0.17601275 0.0368966 -0.10934038 -0.012673622 0.13928498 0.23039876 0.026910998 0.01997026 -0.13944997 -0.121099606 -0.10354443 -0.2788847 0.06666937 0.114239536 0.077209756 -0.03634074 0.01496633 0.12214176 -0.0064080474 -0.30784708 0.036929015 0.02816147 -0.062124524 -0.22172199 -0.069714315 0.084922664
731 -0.002050641 -0.16041021 0.16902198 -0.21443766 -0.0052242256 -0.12280475 0.12688458 0.03842015 -0.13596351 -0.15167443 0.07752072 0.2024544 0.009814439 -0.00049296615 0.09135163 0.020784726 0.16239677 -0.04306319 -0.06575604 -0.041532986 -0.09308323 0.04866621 -0.02136698 -0.2071916 -0.09651419 -0.054193705 -0.030524237 0.12143666 0.031553023 0.060633253 0.08778637 0.12963323 -0.06450796 0.09264488 -0.260954 -0.019733034 0.16683926 -0.081942596 0.10305708 -0.10860287 -0.17170481 0.14198518 0.054065898 0.047649145 -0.03832753 0.1146183 0.034421246 0.12705332 -0.049495947 0.113863714 0.08302184 -0.28958964 -0.057112746 -0.06855398 -0.054131053 0.22689909 -0.06626928 0.11299165 0.11591108 0.054927964 -0.057576876 0.1755609 -0.024848472 0.005263292 -0.014032507 0.06643709 -0.4089095 0.1991865 0.022623682 -0.0029514134 0.045189783 0.09630976 0.14705898 -0.05118987 0.09068119 0.11178904 -0.032205448 -0.01229294 -0.018560855 0.11459855 0.13242419 0.21343528 0.0073786774 0.0770997 0.014518368 0.032287505 -0.10867364 0.0005744417 0.024654312 -0.07005898 0.04073333 0.0241324 0.064393654 -0.050514776 -0.015408941 0.07802724 0.0017543721 0.039894786 -0.153033 -0.17863005 0.28759092 0.1023482 -0.037012104 0.08347567 -0.12575231 0.04837025 -0.09432856 0.11456326 0.19858447 0.07303394 -0.032384872 0.056880277 -0.12353758 -0.09975593 0.0961791 0.07428018 0.0087676365 -0.04992414 -0.09112945 0.10214119 -0.08543304 0.026405366 -0.063961506 0.097862974 0.12105817 -0.10601419 -0.1346717 0.121855736
408 -0.04198586 -0.13725953 0.22206663 -0.3417702 0.22949515 -0.1773018 0.22280194 -0.04566022 -0.4330603 -0.12018714 -0.19471245 0.5530267 0.5925778 0.13268551 0.11953205 -0.25305516 0.21299788 -0.006057805 0.0069736275 0.055684373 -0.10555365 -0.006319353 0.082103 0.108769484 0.025737772 -0.004396463 -0.0613473 0.24929816 0.09221402 0.25720823 -0.23695223 -0.23688565 -0.03172265 0.34234133 -0.30376482 0.2785422 0.33421144 0.08412087 0.10895043 -0.43664357 0.334897 0.5827272 0.00579514 -0.06587625 -0.11346227 0.029697241 0.0040297904 0.021280896 -0.116458766 0.048807923 0.15693423 -0.29056144 0.10586822 0.11750415 -0.25170687 0.3452093 -0.07561123 0.10136644 -0.065473944 0.15674874 -0.03268027 0.038919628 -0.0152014475 0.02172179 -0.0032473 0.22464387 -0.3063504 0.2454489 -0.16841602 -0.34683236 0.044936825 0.051683087 0.2837277 -0.02990633 -0.15109527 -0.037728883 0.14463754 -0.18732157 0.29092047 0.32726407 -0.004003174 -0.04274607 -0.16983351 -0.21568252 -0.11001234 -0.113597944 -0.061696365 -0.39814436 0.054794513 -0.24539088 -0.044754986 -0.28311092 -0.17255583 0.023618462 -0.15581438 0.063226365 -0.054243132 -0.02221836 -0.04783066 -0.104291126 0.21911341 0.112729 0.06767041 -0.08299968 -0.04301733 0.19265144 -0.08393401 0.22901414 0.4265948 0.11642579 -0.054653034 0.049411528 -0.36980042 -0.049532603 -0.14540116 -0.14402579 -0.14358799 -0.38567814 0.14847633 -0.022129565 0.07520369 -0.0783131 -0.2936003 0.2150468 0.29147056 0.220152 -0.089762904 0.06266228
409 0.0033649278 0.031723455 0.0049500084 -0.16248979 0.09575078 -0.051249586 -0.014190709 0.065723695 -0.08539948 -0.07038555 -0.045257173 0.19467579 -0.015921498 0.026198933 -0.011740402 -0.055994652 0.09051504 -0.03834483 -0.07522224 -0.027822794 -0.04842298 -0.008119334 0.06537981 -0.0975066 -0.12747473 -0.2552641 0.07516167 -0.03486566 -0.03899912 0.16046156 0.088819146 -0.01608288 -0.066724144 0.06164483 -0.07635078 -0.12370681 0.16682611 0.051382646 0.15843354 0.020213436 -0.02218327 0.10198036 -0.02536809 -0.01957659 0.07562679 0.056617144 -0.016341599 0.23439144 -0.111862 0.058283217 0.008065908 -0.23125497 -0.02333854 0.0008329962 0.030630473 0.10993666 0.007896233 0.06234391 0.04927365 -0.081979826 -0.2868945 0.03958074 -0.08961108 0.0045001428 -0.16720814 -0.032473195 -0.20813857 0.17501152 -0.18013072 -0.0820731 0.009967531 0.112388246 0.12841594 0.036960457 -0.046118036 0.14886157 -0.030721318 0.020317378 0.107714675 0.085433304 0.14442919 0.12974049 -0.07594499 -0.10407716 -0.026203787 -0.007690635 -0.1130683 0.072983146 0.0120276 -0.26164767 0.14510833 0.08689872 -0.025386745 -0.054736644 -0.18912284 -0.007057486 -0.04427927 -0.035648588 -0.1695139 -0.11385882 0.16104366 -0.086021386 -0.016426994 0.120659575 -0.0014214404 -0.12743679 -0.21661744 0.18165989 0.14134985 -0.04841046 -0.0057370286 0.085939266 -0.04867358 -0.17916021 -0.007080853 0.084258154 -0.007122629 0.04604825 0.12508819 0.18057856 -0.07218202 -0.034645695 -0.06354829 0.09090835 0.08512842 -0.12303786 -0.142969 0.123868756
232 0.118154585 -0.0279411 -0.002421801 -0.07053268 0.030410673 -0.14269903 -0.02034914 -0.088643886 -0.18908532 -0.06314079 0.023626482 0.100100696 0.0791092 0.050599746 0.038265757 -0.028245034 -0.011654685 -0.07453736 -0.0959685 0.04848922 -0.067149974 -0.013995259 0.048655167 0.012264047 -0.039611317 -0.1292484 0.03510419 0.20807287 -0.060580507 0.03704199 0.16423006 -0.048498325 -0.030517362 0.020064276 -0.14691477 -0.09338177 0.1269961 0.10746843 0.12407139 -0.026730163 0.013982208 0.05720971 0.032662895 0.12246014 -0.06981402 0.0078103906 -0.0063485606 0.0732774 -0.13450591 0.13836142 0.041909315 -0.31451935 -0.010912961 -0.08197725 -0.11273772 0.11029352 0.013386445 0.028716203 -0.048310548 0.052425507 -0.2704951 0.08449159 0.03943863 0.045960035 -0.27268812 0.081176884 -0.28098854 0.12320108 -0.008796003 -0.046303447 0.07367279 0.120101705 0.048673335 0.071024194 -0.04570818 0.071826264 0.026502635 0.016235575 -0.0265049 0.10461435 0.088666044 0.18303958 -0.0060230177 -0.045295317 0.011640297 0.031441383 -0.06202823 0.054859 0.016337939 -0.09837078 0.02666644 -0.036762852 -0.16909115 -0.07039077 -0.14522105 0.033825904 -0.013997525 -0.012217148 -0.08785012 -0.1475781 0.2077605 -0.0070838644 0.01792415 0.15045185 0.055576853 -0.07599151 -0.2384586 0.28432062 0.22165374 0.036222056 -0.0043445765 0.06946242 -0.06941418 -0.14073221 -0.081674576 0.0032200438 -0.07596878 -0.088252425 0.114244245 0.018231783 -0.16204876 -0.012009048 0.027209703 0.037674718 0.099806115 -0.063423395 -0.13849302 -0.0284112
211 -0.09231504 -0.13076141 0.10891282 -0.19058317 -0.04708328 -0.15516314 -0.037389375 0.10065081 -0.16374257 -0.14703858 0.06725492 0.19184774 0.11220547 -0.07861747 0.053847883 -0.09301636 0.20489909 -0.10664598 -0.059686143 -0.062050838 -0.21954967 -0.062296804 -0.020845832 -0.13424249 -0.054784436 0.09535395 0.031595208 0.13317165 -0.04159646 0.07837812 0.1012528 0.07815203 -0.008816172 0.12087576 -0.2011147 0.01819133 0.086974606 -0.1277377 0.14731409 -0.06948795 -0.1887523 0.23977102 0.049077645 -0.031959083 -0.115307376 0.10743902 -0.06714946 0.07500766 0.021592826 0.11027633 0.03822653 -0.27759278 -0.06495171 -0.056156695 -0.10364999 0.29858965 -0.033577837 0.10100405 0.04156893 -0.04759747 -0.026852053 0.19289774 0.017215386 -0.10485563 -0.16501385 -0.05733231 -0.32184547 0.17614283 0.09240039 -0.038797516 -0.043041065 0.07383685 0.15197535 0.069929264 0.04754543 0.026891101 -0.046079736 0.052284427 -0.017697632 0.0013121619 0.15141124 0.14563423 0.041044325 0.1469633 -0.07190038 -0.1252845 -0.11353268 0.0032757814 -0.0446209 -0.03281019 0.054718446 0.055731438 0.03428964 -0.102047555 0.0165606 -0.008512675 0.033092722 0.015986277 -0.14365712 -0.21102086 0.19922867 0.024300858 -0.0018955542 0.031284336 -0.21281284 -0.10032858 -0.041079257 0.14401445 0.09499502 0.11885814 -0.060874444 -0.12887433 -0.056258645 0.054147813 0.16207944 -0.002551997 0.17586087 0.00984179 -0.15124187 0.0025650589 0.047937494 0.045355074 -0.047839254 0.12592001 0.070913635 -0.068752244 -0.11827701 0.12034401
235 0.096650995 -0.07877202 0.0738152 -0.031563316 -0.016799837 -0.13405384 0.056967463 0.02841279 -0.004313311 0.076435566 0.06174112 0.0365697 0.09499627 0.0054329946 0.29129678 -0.13914315 -0.009684078 0.000573729 -0.15261988 0.00517346 -0.18529165 -0.08735686 0.107710846 -0.061547928 0.030743258 0.11921623 0.020240586 0.23691308 -0.115675844 0.0059464667 0.060604073 0.117677316 -0.009520736 0.12598822 -0.046256147 -0.10097455 0.023098717 0.024594622 0.09826541 -0.025550703 -0.21249777 0.2151183 0.20008188 0.18073991 -0.11289762 0.02111781 0.04080659 -0.062306214 -0.05735486 0.08007899 0.020667763 -0.2647164 -0.026685042 -0.31237134 -0.13052587 0.17280158 -0.09421183 -0.020586312 -0.042309977 0.015113272 -0.036722876 0.08917751 -0.023754047 -0.09842406 -0.025451439 0.11424487 -0.111502066 0.049853712 0.00061418733 -0.037436835 -0.02256812 0.040358406 -0.096869476 -0.1787634 0.19417286 0.006657298 0.09418055 0.0645769 0.05047662 0.07169555 -0.0044648545 0.04451802 0.06397429 0.056988303 0.113437995 -0.16311578 -0.07077539 0.08180076 0.060158826 -0.031587332 0.044169858 -0.05272876 -0.048950285 -0.07365711 -0.08993722 0.05416128 -0.058863055 0.10671461 -0.038615745 -0.24774732 0.14595495 -0.0014519428 0.07073076 -0.051639587 -0.12499524 0.15972388 -0.10918014 -0.046706293 0.06223739 0.09623332 0.053587552 -0.054036316 -0.14137442 -0.037098132 0.054501455 0.025528302 -0.009132049 -0.038141552 -0.20819397 -0.04369264 0.0022288875 -0.082371555 -0.106495075 0.116027646 0.09300112 -0.078755535 -0.073284194 0.21444073
292 -0.087863676 -0.0049241395 0.11133345 -0.121421166 -0.102759026 -0.10406237 -0.027292073 0.040847756 -0.054642603 -0.15044671 -0.1100302 0.19291791 0.02223163 0.013395493 -0.018237371 0.048676863 0.22951816 -0.33379984 0.06819373 -0.040671885 0.04419164 -0.0366888 -0.0036383222 0.020883592 0.082856 0.03678111 0.118484475 0.30710664 -0.015500253 0.2637337 0.029164743 -0.027743645 -0.06635285 0.09621092 -0.091198795 0.020388745 -0.10456809 0.08530576 0.066383645 -0.044668682 0.048142172 0.03655028 -0.067588724 0.07412264 0.021741014 -0.11917773 -0.0933155 0.06068818 0.033128764 -0.03660762 0.18929295 -0.17058022 -0.030450413 -0.20688768 -0.06914618 0.19236463 -0.09495143 0.20278029 0.04141548 0.0948915 -0.14794533 0.31326166 -0.024477514 0.053329095 -0.04422286 -0.11656524 -0.16164304 0.03883166 -0.03332229 0.035589974 -0.0070362547 -0.04189902 -0.001842268 0.07207021 -0.00037551313 0.037564326 -0.009359374 -0.016811142 0.089485765 0.15489444 0.21788149 0.024364987 0.12601867 -0.0011894742 0.009436035 0.1002023 0.027150862 0.07666868 -0.00241702 -0.13509326 0.14879042 0.10075373 0.145131 -0.07465442 0.0075764465 -0.12321194 0.15955202 0.12487773 -0.10823303 -0.048608746 0.21079595 0.030625861 0.043469194 0.29074496 -0.12950645 -0.09751661 -0.17998216 0.07630872 0.1000101 -0.14013505 -0.06502992 0.104049385 -0.13983603 -0.008118923 0.042183347 0.057143096 0.046828244 -0.079831146 -0.07960274 0.092077725 -0.032729704 0.06939343 0.055194765 -0.017188797 0.07293548 0.06259104 -0.062056016 0.008554561
470 0.066798076 -0.021892875 -0.0015811003 -0.079176255 0.06667856 -0.01426875 0.18139392 -0.008325246 -0.046899397 -0.08006825 -0.035771426 0.19319949 0.08594719 0.05204426 0.13088131 -0.045211438 0.07525114 0.06844531 -0.07576602 -0.02915153 -0.051469706 -0.06762563 0.20397915 0.0019124429 0.04025411 -0.17575273 0.021388909 0.20394826 -0.10984744 0.06204556 0.11405992 -0.16301402 -0.009288492 0.14633884 -0.03702779 -0.17550944 0.006345869 0.035855953 0.1418505 -0.09180074 -0.1164048 0.0794592 -0.063080184 0.13794565 0.07956777 0.01535581 0.061902553 0.07989085 -0.15098533 -0.0061396817 0.05711324 -0.21487685 -0.060957115 -0.241929 -0.10812248 0.26970288 -0.15002055 0.07001212 0.01344654 -0.031079305 -0.18427517 0.16237995 -0.19027102 0.05655277 -0.14397891 0.01620577 -0.19943097 0.1497289 -0.17740822 -0.06682716 -0.06876915 0.18338297 0.056949172 -0.041445844 -0.11590051 0.070318684 0.07672988 0.083838396 0.036744285 0.23077424 0.16204168 -0.011881696 -0.04753597 -0.0969377 -0.110151134 0.025306351 -0.12600915 0.09315552 0.07059355 -0.05610518 0.10441759 0.019379327 -0.08689835 0.005639162 -0.027122747 0.08643939 -9.650847e-05 0.115365766 -0.24004692 -0.09143235 0.12134068 -0.14323634 -0.0065802527 0.16452383 0.011982796 0.027376108 -0.24408928 0.046745885 0.18855384 0.07683701 0.14876641 0.0030501042 -0.16190842 -0.30105197 -0.08177959 0.12153851 -0.056618612 -0.028055476 -0.087772414 0.026274614 0.0593486 0.0029243918 -0.01536344 0.08919835 -0.015185254 -0.008061686 -0.10770939 0.13738692
