994 128
943 0.033621892 -0.1108368 0.32201266 0.056551278 -0.07327946 -0.057904832 -0.08328054 0.010215558 -0.025929708 0.110538766 -0.12102699 0.040103767 0.004731465 0.0769819 -0.08490998 0.12791613 -0.057701446 0.14339979 -0.026299758 0.12621652 0.19749357 -0.02751338 -0.19202082 -0.022345504 -0.2483303 -0.09568516 -0.20297721 -0.26535422 -0.028324252 -0.0057304953 0.07603108 -0.015494861 -0.058633927 -0.16691673 0.31371182 0.021883596 -0.24292527 0.10494868 -0.020358866 -0.1714075 0.0045723584 0.08535033 0.015150713 0.1613624 -0.15077582 0.3763082 0.17998853 0.055803254 -0.061429255 -0.031150803 -0.008494278 0.08622743 0.060180437 -0.077936925 0.14295381 0.03764801 -0.11575336 0.0800463 0.038771376 0.11455672 0.05219388 -0.11106637 0.018442754 -0.22236328 -0.06305589 -0.045013912 -0.05414952 0.017965585 0.2607148 -0.027697846 0.1601175 -0.17241791 0.067314774 -0.02731772 -0.13279872 -0.2251064 -0.13969643 0.062261377 0.14117579 -0.025575142 -0.10658623 -0.02662807 -0.015320331 -0.018550724 0.08394606 -0.17838877 0.09206877 -0.009790467 -0.19725187 0.016916076 -0.0078034736 0.20494668 -0.15018815 -0.10382735 -0.21501148 0.06812053 0.08310159 -0.21525726 0.13438517 0.07910474 0.058924362 0.095120646 -0.12522063 0.15503159 0.043936968 -0.08518065 0.18596686 -0.13997357 -0.102647565 -0.01576037 0.034605045 0.0045127063 -0.07350872 -0.013624097 0.107321426 -0.21441513 -0.20529774 -0.23295704 -0.0006289495 -0.041242506 -0.11625956 0.18605681 0.13622327 0.07959312 0.075058684 -0.04314246 -0.07728466 0.06056383
935 -0.040330883 0.03638767 0.18345143 0.033157665 0.01836235 0.028470937 -0.08216477 0.050196983 -0.21317436 -0.046243638 0.05659359 -0.19142404 0.025824679 -0.32402056 -0.05652825 0.2845812 0.03208898 -0.08271744 0.11093419 -0.19822557 -0.0505912 -0.032512367 -0.25605664 0.22122656 -0.3423291 0.13545999 -0.10293035 -0.13027269 0.12275145 -0.27130547 -0.03157886 -0.050789457 0.060342826 0.025211422 0.24062037 -0.113719806 -0.13396943 0.06989364 -0.026960151 -0.115017995 0.040370658 0.12263189 -0.17978819 0.27946177 0.0036540963 0.13746314 0.020148257 -0.18088906 0.0007434352 0.01424059 -0.16887784 -0.25998157 -0.0227808 0.15164976 0.048193574 0.1453303 -0.32656062 0.10680793 0.14704168 0.249139 -0.015589508 -0.016415559 -0.21604484 -0.10635209 -0.05875886 0.12098707 0.032373004 0.080738366 -0.06676981 -0.13203765 -0.061570875 0.20031174 -0.07156447 0.01562825 0.051296365 -0.074097365 -0.03997233 -0.09419882 0.17605223 0.07212012 0.04931568 -0.1251301 -0.013638411 -0.15249549 -0.09263036 0.16909105 0.13607599 0.10167513 0.034682613 0.07453061 0.023374587 -0.23364246 -0.03573067 -0.0152118765 -0.05641329 -0.08066185 -0.009381872 0.17165425 -0.03826069 -0.22923478 -0.22400908 0.101424366 -0.024686161 0.059290983 -0.052131116 -0.16110145 0.19286019 -0.13492651 -0.099436335 -0.027728576 0.26717544 -0.014477415 -0.010366794 -0.17832163 -0.12102333 -0.091090485 0.024236418 0.010381258 -0.12844321 0.10451386 -0.0137195755 0.10369183 0.061238535 0.094625875 0.19011585 -0.0779745 -0.19740385 -0.08515035
940 -0.17202601 -0.16391227 0.03289464 0.021482503 0.21023674 -0.020335348 0.14165911 0.1625799 -0.10363188 -0.1554587 -0.21602379 0.011782724 0.06821399 -0.091616616 -0.04409826 0.018791417 0.13534437 -0.031273097 0.14049293 0.02627854 -0.1524489 -0.3224089 -0.13452855 0.29281706 -0.2739097 0.3545246 -0.27954024 -0.056063212 0.3161698 -0.22800438 0.17247415 -0.2951441 -0.10467872 0.116662614 0.045020066 -0.020557534 0.09071356 -0.16406102 -0.10585962 -0.19408892 -0.014544008 0.19736873 -0.10811998 -0.1144352 -0.12435989 0.23908983 0.010606678 0.13287953 -0.03542139 0.20304239 -0.2251003 0.0028904048 -0.18511961 0.14368193 -0.08205892 -0.027642407 -0.2657756 -0.15253495 0.05835089 -0.10636347 0.28678167 0.16593365 -0.041224293 -0.17258598 -0.17744467 -0.07879062 0.07798347 0.36621842 0.057026964 -0.11687785 0.03848392 -0.1363151 -0.04366454 -0.010433075 -0.06365573 -0.17448732 -0.032216974 -0.122123525 0.07152914 -0.035917506 -0.06886806 -0.08387171 -0.083267115 -0.053278785 0.0716989 0.011443471 -0.08851839 -0.088666946 -0.013473287 -0.011978002 0.0068568927 0.22394744 -0.25181174 0.16552866 -0.04581537 -0.03813988 -0.0275498 -0.11394691 -0.07718363 0.08409871 0.20051579 0.0483999 -0.18517983 0.1353641 0.024486968 -0.08138963 0.0012834034 -0.07872055 -0.10945566 0.062081214 0.10324876 -0.025701672 0.081452675 -0.08029324 -0.304595 0.07373592 -0.10928837 0.10767623 -0.08848206 0.20125648 0.12458506 0.1169752 0.05132679 0.013320443 0.19356368 0.037617493 0.005063901 -0.05807714
937 -0.26456144 -0.20277533 0.05204381 -0.07823436 -0.052051373 -0.14250569 -0.058839407 -0.00875164 -0.029412644 0.1756858 -0.15905763 0.19140926 -0.061271798 -0.08557948 0.07367549 0.03778576 0.27305913 -0.06817393 -0.030601958 -0.32828242 -0.112869725 -0.2242172 -0.08142417 0.12405837 -0.04028124 0.037583783 -0.0010960713 0.009099211 0.19159828 -0.030520516 0.11074415 0.051121317 0.09373727 0.3174492 -0.13775449 -0.13905425 0.026939888 0.017722055 0.07770365 -0.3078595 0.05736477 0.26236993 -0.013360044 -0.19578846 0.047288883 0.092692025 0.04973914 0.06841477 -0.036430135 -0.20707707 -0.33607385 0.014277248 0.045185443 0.095084995 -0.1894086 0.17374294 0.09453644 0.07509627 -0.040569585 0.14975283 -0.022686195 0.068671666 -0.24532922 -0.21483576 0.18257348 0.23014571 0.124191515 0.08977098 0.054649126 -0.08307097 0.00048956845 0.028859923 -0.0008381358 0.15078467 -0.05780538 -0.02723593 -0.2990859 -0.03259376 0.261107 -0.07963798 -0.22010168 -0.1843072 -0.21844046 -0.15711933 -0.045248453 -0.07172717 0.27808958 0.16107696 0.05923328 0.08732861 -0.063216805 -0.12382633 -0.123634584 0.035647668 -0.3424507 -0.06543024 0.051314045 -0.24095495 -0.094581805 -0.1961502 -0.018282669 0.061752792 -0.30134174 0.13696726 -0.024658505 -0.09552727 0.14548343 -0.2574632 -0.0040765805 0.25506335 0.05863024 -0.103511386 -0.12343684 0.08869052 0.051458925 -0.021753998 -0.28063077 0.13583003 -0.030802893 0.21986714 0.1478015 0.051989656 0.16621235 0.21187821 0.035009917 -0.16573828 -0.15110663 0.09282916
942 -0.05114533 -0.13799623 0.17604017 0.13105623 -0.04762013 -0.0076502026 -0.18863012 0.34568873 0.10331629 0.18184854 -0.0024211875 0.00588881 0.08368829 0.011043347 0.23520671 0.15692024 -0.122808926 -0.03698524 0.02135567 -0.26418546 -0.16071358 -0.024821095 -0.19569606 -0.13320774 -0.06742857 0.080169484 0.116276875 -0.22527234 0.09620067 -0.024847733 -0.13406855 -0.007538069 0.0669455 -0.011567395 0.16933392 -0.18807456 -0.32719287 -0.07792694 0.032421738 0.019717919 0.026554897 -0.3166211 0.5965931 -0.060542066 0.048036426 0.17197917 0.07394414 -0.12043892 -0.1995424 -0.14362691 -0.040851906 -0.2888292 0.024493564 0.10464833 0.25083044 -0.20697632 -0.19610575 -0.00980289 0.015306546 0.056153297 0.0667285 0.17890754 0.062837936 -0.3222856 -0.11081997 -0.047027327 -0.1573168 0.24208933 -0.25138065 -0.09390241 -0.023844706 0.058351662 0.01043606 0.044833764 -0.0672845 -0.23714142 -0.14952981 -0.053120982 0.108102545 -0.06823582 -0.006913118 0.23807134 -0.085704334 0.13870385 0.16688296 -0.04319789 -0.09178156 0.20880558 -0.058758147 -0.0427225 -0.097167 -0.19172524 -0.074876405 0.056542404 -0.00029995636 -0.19036084 -0.342989 -0.33969328 0.034211013 0.15208688 0.14030005 -0.0013063445 -0.34936708 0.13232236 0.1094088 -0.106577285 0.06721565 -0.14040351 -0.18068871 -0.037981898 0.008222641 0.008987228 0.08056255 -0.26813716 -0.11599631 -0.17598324 -0.019215742 -0.0041773785 -0.109845534 0.14407098 0.12096529 0.082764976 0.03786821 -0.09951185 0.07645955 -0.16802062 0.18070358 0.14415589
944 0.13168485 -0.17297807 0.41404605 -0.16079403 0.22155143 0.09606726 -0.16772118 0.022075115 -0.04460312 -0.006647301 -0.07105433 -0.080767184 0.23462553 0.2353046 0.044699077 -0.047679935 -0.24256514 0.022088192 0.23161002 -0.16569805 -0.052455444 0.039805297 -0.27352178 -0.35264423 -0.15552625 0.16194941 0.14244467 -0.19648534 -0.053354744 -0.19622368 0.15113011 -0.048563242 -0.02248827 -0.14768668 0.032432508 0.19586544 -0.023381079 0.18353003 -0.050955564 -0.22941111 -0.014174061 0.064661354 0.12124425 -0.018146664 -0.41865394 0.00017199799 0.042782046 -0.011620648 -0.15190236 -0.18493932 0.106067955 -0.09069101 -0.028559009 -0.12596372 0.20868261 -0.21448004 -0.38646275 0.09083294 0.293743 -0.013051946 0.25809094 -0.026433619 -0.026072437 -0.01471808 -0.21259655 -0.081196345 -0.044785656 0.025397144 0.0967732 -0.32917324 -0.17898257 0.07002377 0.22818115 0.21269055 -0.17558102 -0.03445346 -0.18686609 -0.100607805 0.025609119 -0.073326185 -0.17137374 -0.23502623 -0.11049848 0.18709059 0.043431077 -0.21963371 0.20831954 0.102642275 0.35276026 -0.10302361 -0.10038324 0.3189976 0.26678193 -0.016100267 -0.16922216 -0.15940817 0.15579689 -0.089175396 -0.1333138 0.016001748 -0.041570634 -0.16309188 0.058555495 -0.23351344 -0.05479953 -0.098860115 0.22992526 -0.265967 -0.08384998 0.2635579 0.39888844 -0.10505795 -0.12344477 -0.007611614 0.19857395 -0.106491216 -0.16828501 -0.0813433 0.1499616 0.14095038 0.2631433 -0.295446 0.14778192 -0.081762515 0.22849 0.019205691 -0.0011750724 0.13059872
941 -0.020690588 -0.016273962 0.1612034 -0.0493936 0.033371534 0.30753598 0.017581658 -0.27509737 0.1321613 0.15936293 0.17330337 -0.33680734 0.051653415 0.30116978 0.1741294 0.07045873 0.10330343 0.01719283 0.07615837 -0.09214271 0.014874521 0.1266387 -0.08793057 0.10189139 -0.16333199 0.1961891 0.13409801 0.24088897 0.27852353 -0.021953914 -0.113356516 0.0022167745 0.092355676 0.0331915 -0.00830831 -0.120359056 -0.01089138 0.07199711 0.22530204 -0.30467224 0.12882134 0.115037255 0.17523073 0.20425497 -0.04764622 0.29889464 0.19351359 -0.017851979 -0.005822595 0.12339854 -0.09751982 0.1407563 -0.13438347 -0.03933576 0.03707876 0.010598425 0.0035333075 -0.09546326 -0.12916909 -0.10893945 0.094614066 0.17764175 0.009053083 0.027550869 -0.043391347 -0.266146 0.06172579 -0.04342063 -0.038901772 0.093093924 0.029471809 0.030031737 0.2789093 0.062532544 -0.0032065597 0.11785268 0.09724673 0.028634522 -0.121982545 0.10568072 0.034796108 -0.13594796 -0.28186876 0.123919405 -0.1586544 -0.03119176 -0.036321733 -0.10298954 -0.20406312 -0.08005711 0.045484662 -0.15644546 -0.19965816 0.051519893 0.05558636 0.35111433 -0.060733456 -0.4831895 0.12581109 -0.07697526 -0.08430183 0.10863858 -0.018340841 -0.032906834 -0.38689986 -0.030690478 0.30823034 -0.26066834 -0.3185024 0.014630928 0.15330152 -0.200579 -0.023581354 -0.09251919 -0.20309381 -0.036837794 -0.22999577 -0.029764473 0.312844 0.21699385 -0.0120554855 0.05262926 -0.10062856 0.27112198 -0.031239407 0.010599222 -0.32607365 0.11272034
945 -0.06255341 0.057719786 0.10875184 -0.065274164 0.015463036 0.041710157 -0.013629273 -0.11803925 -0.22449185 -0.061071232 0.3096641 0.07320664 0.061980214 0.13908243 -0.042787798 0.06648442 -0.33437324 -0.30670354 -0.09135977 -0.260274 -0.3751048 0.1436725 -0.15605651 0.1438262 -0.41313487 0.07513355 0.12143023 -0.27220887 0.05286448 -0.27113205 0.19342941 -0.12074682 -0.23883545 0.29891634 -0.11257981 -0.036172204 0.037313268 -0.041134227 0.05414003 -0.19055492 -0.088335015 0.03267391 0.06299732 0.111437365 -0.25415698 0.11563909 0.19550462 -0.004848229 0.0064101475 0.015350882 -0.19708763 -0.0660613 -0.2858365 -0.14872046 0.34200683 -0.26316348 -0.2220877 0.26168257 -0.08647006 0.21196066 0.15388782 0.1135253 -0.15687437 0.16570115 0.14446256 0.1795879 -0.058931906 0.00839448 -0.07738341 -0.061596386 0.20154779 -0.31744796 0.18971555 -0.01590719 -0.17665102 -0.30881378 -0.030686937 -0.30254287 0.04448786 -0.2770168 -0.099888906 0.16663451 -0.0062396475 0.015075211 -0.18191195 -0.20864515 0.15388606 -0.060151592 -0.124220505 -0.16801141 -0.03499753 -0.09721677 -0.3076662 -0.13466541 -0.105282016 -0.035084747 -0.10698486 -0.14754532 0.066388994 0.30794296 -0.22617865 -0.094619185 -0.019559482 0.0022315886 0.47429284 -0.21480504 0.027020944 0.103430755 -0.10874449 0.01992442 0.100784466 0.13545486 0.209203 0.12676045 0.3409285 0.2103829 -0.055544276 0.13531385 0.092354126 0.35319895 -0.057720017 -0.07658588 0.2893609 -0.073960535 0.24116217 0.19072056 -0.3032979 0.2529599
938 0.29460403 -0.01580247 0.3139767 -0.23200132 -0.24623929 0.11218443 -0.15227857 0.1589403 0.17128862 0.017802544 -0.014178822 0.2753728 0.3450205 -0.14893262 0.32120547 0.16879103 -0.15680142 0.20358431 0.07371312 0.05651325 0.115901425 -0.19238731 -0.14081632 -0.3557619 -0.03554282 0.1385968 0.14730537 -0.06765567 0.09812513 0.2655737 0.13584243 -0.23592189 -0.13507472 0.29216042 -0.1899393 -0.17747499 0.03999131 0.07530681 0.21001475 -0.02260924 0.10974596 0.23121864 0.030123873 0.50288165 -0.14039831 0.093956865 0.16144371 -0.37781504 -0.09343235 0.100997806 -0.033245742 0.2625183 -0.14735918 -0.11206221 0.037505247 0.23589791 -0.12313859 0.16938668 0.33712444 0.066269994 -0.07898931 0.2669095 0.06857701 -0.07325905 -0.01956306 0.40862736 -0.53396595 0.104231715 -0.15956336 -0.223598 0.39095172 -0.1177696 0.117103025 -0.09035099 -0.016977122 0.0018841804 -0.15917413 -0.188777 0.22394393 -0.046926655 -0.13159536 -0.018383874 0.011335157 0.10059204 0.24228708 0.10938265 0.13186029 -0.052290604 -0.11515722 0.05785939 -0.044246364 0.33832777 -0.22130899 0.15800919 -0.22565053 0.038545817 0.0018944615 -0.19484925 0.0718131 -0.15066318 -0.09829647 -0.3042405 -0.2593471 0.08076835 0.22759256 0.06442574 0.117426634 -0.1580995 -0.122840226 -0.198685 0.4443065 0.09285693 -0.23568647 0.009734145 -0.038259137 -0.015449083 0.05431758 0.1173037 0.14000289 0.28367865 -0.013452472 -0.1210347 -0.109941185 -0.021337958 0.35245296 -0.090686135 -0.064762294 -0.09053176
936 0.08299891 -0.15206379 0.03885095 -0.08388464 -0.34415781 -0.004520409 0.09562987 0.12139364 0.03096576 0.09948828 -0.2192906 -0.057634346 0.101753436 -0.31454188 -0.09386686 0.22528072 -0.19792193 -0.03859521 0.08083228 0.15924881 0.13321246 0.028719056 0.036051214 0.2731429 -0.3651325 -0.056903064 0.09654341 0.04584881 -0.095494725 -0.015960194 0.3199954 0.2313385 -0.15800557 0.15952647 0.6167002 -0.16623856 -0.0715776 -0.22962148 0.32326406 -0.14351842 -0.011778075 -0.19687179 0.19137055 -0.0037604594 0.32732797 0.116391815 0.054906085 0.18547674 0.026741818 -0.0292922 -0.076169915 -0.052677218 -0.020586168 -0.033237908 0.05040381 0.15866724 -0.31260505 0.11517107 -0.086266935 0.14100611 -0.0104799345 -0.042789698 -0.0049901973 -0.048606195 0.055583652 -0.18835896 -0.28859887 -0.10070282 -0.13884187 -0.48665303 0.16835718 -0.12949479 0.15769853 0.29357642 -0.09882135 -0.15666446 0.4087186 -0.056056917 0.03328371 0.04729576 0.07955752 -0.26128164 -0.46409246 -0.07342664 -0.007198325 -0.32458243 0.06520377 0.23171888 -0.13510273 0.20695038 -0.15908876 0.2703629 -0.20785524 0.10656051 -0.22773618 -0.0065669953 -0.14900677 -0.09163819 -0.23902935 -0.22524148 0.19419931 -0.013071013 -0.013745464 -0.33426374 0.04534737 -0.27529135 0.039447617 -0.15598963 -0.12194026 -0.108085096 0.10558092 -0.02764555 -0.3229584 -0.20812124 0.11226126 0.052606214 0.33750877 -0.1516778 0.17788593 0.16883676 0.39542145 -0.23414755 0.048056725 0.44081846 0.15215573 0.30391207 0.10265754 0.18536188
947 -0.03923097 0.022106733 0.042930808 0.14155555 -0.115868725 0.07785583 0.0028939778 -0.075582914 -0.028641338 0.28080416 0.007460941 -0.16286835 0.0697724 0.13822393 -0.035648998 -0.09395604 0.083962664 -0.1826931 0.14789511 -0.28173414 0.15938222 0.024426317 -0.12722686 0.25193444 0.062387496 0.20503798 -0.15028217 -0.18754701 0.09703871 0.11003317 0.0636467 -0.120515674 -0.22161818 -0.09975295 -0.09907401 0.19835298 -0.18480192 0.10188254 0.23244828 -0.08857525 0.020456195 -0.104809724 0.107597485 0.13330917 -0.10856351 0.015600187 0.013924434 -0.087787405 0.08724614 0.026926013 -0.124703206 0.04972996 0.068053626 0.006740515 -0.1497644 -0.47621834 0.028953696 0.015212016 -0.18338084 0.019482708 -0.124913916 0.33223754 -0.39900678 0.034467194 0.11793155 0.06720694 -0.29759562 -0.14820287 -0.15312642 0.0013633905 -0.2268243 -0.040808074 0.33518723 -0.308897 0.01937733 -0.07350565 0.08215953 0.047072005 0.08408384 0.07211122 -0.084681645 0.14387636 -0.27167088 0.05212545 -0.118121624 0.029750604 0.06867306 -0.24127622 0.009119096 0.055098068 0.10667818 0.09605071 -0.30826157 -0.022887452 0.16225262 0.251074 -0.16384366 0.008755358 -0.026706506 0.015145228 -0.039477285 0.035140004 -0.053155255 -0.006813333 -0.51697534 0.049365696 -0.04103005 -0.30753034 -0.17689021 0.11373312 0.053784963 -0.24176219 -0.3051946 -0.29856405 0.08012388 -0.089192286 -0.23537385 -0.08108478 0.18934806 0.23119615 0.15449971 -0.05439795 0.14303409 0.1310195 0.28525332 0.009256305 -0.17652607 -0.011891606
946 -0.076768816 -0.026086647 -0.024912925 0.00036396668 -0.19911207 0.26198506 0.15222682 -0.19732898 0.29163074 -0.035560332 -0.23521206 -0.10261392 0.14570627 0.071940765 -0.16580416 -0.039858043 0.17834733 -0.009944331 -0.007634349 -0.3597706 0.032202415 -0.03213307 -0.021286521 0.24446283 -0.051033728 0.32881993 -0.07028635 -0.1353996 0.12963712 -0.016258167 -0.0075155986 -0.020428605 -0.20769563 0.15077043 0.15593132 0.22542876 0.086409956 0.12791479 0.33126926 -0.094018355 0.1622453 -0.14186516 0.050456904 0.15817514 -0.3770498 0.054794084 0.11000391 -0.06884892 -0.114910595 -0.04219254 -0.10072456 -0.18377161 0.07542639 -0.044403777 0.10384484 -0.38687855 -0.06462473 0.009409392 -0.091777496 0.23385222 -0.07322723 0.1576045 -0.35866857 0.13896017 0.1999721 0.03162008 -0.07007789 -0.0878447 0.0322312 0.3049871 -0.013007852 -0.069145285 0.31688288 -0.19456688 0.1325222 -0.012880763 0.11310336 0.016225712 0.03674014 0.18579674 -0.008540041 0.04678574 -0.3147887 -0.08449595 0.21613142 -0.03869399 0.050122943 -0.26495916 0.07415388 0.037390538 0.018529892 -0.118762486 -0.16000201 0.13794371 0.15403189 0.22235642 0.06423448 -0.37427726 -0.26421696 0.19743244 -0.066037886 -0.048032258 -0.17994063 -0.03763971 -0.31133562 0.15461351 0.023625994 -0.08827379 -0.0798233 -0.1380063 0.34598178 -0.15946355 -0.2321443 0.064267315 -0.009835188 -0.060596727 -0.09617424 -0.14721866 0.11830375 0.1830169 0.10884161 0.19455259 0.1413191 0.09342692 0.077053964 -0.032703098 0.18859376 -0.20871274
948 0.043314114 -0.0953049 -0.00923731 0.10242789 -0.071927205 0.29555032 0.014789035 -0.2552541 0.12742749 -0.038660005 -0.07755982 -0.15151404 0.038669653 -0.06297407 -0.122112766 0.019011583 0.03733667 -0.030973772 -0.24076888 -0.33201382 0.10206104 0.061017603 -0.23965031 0.10666315 0.07774668 0.048248135 0.016546097 0.039866097 0.14258982 -0.166285 0.0470697 -0.34307513 -0.18277282 -0.03218009 0.24367362 0.09555538 0.09447735 0.22085986 0.28594947 -0.020968085 0.25193536 -0.17442612 0.07108205 0.13350983 -0.12740424 -0.12442866 -0.0068903323 0.17286322 -0.103240974 -0.00025532005 -0.27572998 -0.08814339 -0.040620048 -0.039470375 -0.014345863 -0.29145792 -0.00037852302 0.12784685 -0.2404351 0.19566888 -0.20876347 0.26924318 -0.23236182 -0.12015107 0.032527223 -0.024351317 -0.012117551 -0.02392676 -0.1733281 0.07741858 -0.13679354 0.021463413 0.17819962 -0.20551495 -0.04873326 -0.0117042335 0.116274014 -0.11225385 0.23230986 0.33107093 -0.15264757 -0.25035986 -0.110995635 -0.081310354 -0.024858959 0.08985487 0.038245503 -0.5088379 -0.15702286 -0.1905746 -0.028178079 0.20428635 -0.29255924 -0.086237885 0.20662782 0.05973547 -0.010546998 -0.26407948 0.07287181 -0.043616284 0.18728036 0.068022005 -0.22535607 -0.0931671 -0.23830141 0.41111335 0.049101893 -0.050685976 -0.1050803 0.38602993 0.34856468 -0.0019871262 -0.12936383 -0.18259291 0.16768885 0.0024512117 -0.16503462 -0.086830325 0.25915 0.094711125 0.25055644 0.098017566 0.096312515 -0.23064138 0.02764974 0.03386239 -0.19410323 0.064303406
949 -0.27928528 -0.035623126 0.3774113 -0.20229018 -0.37306222 0.39367795 -0.026850702 0.17347533 0.22034061 0.3115308 -0.1356883 -0.033592146 -0.1459188 0.153751 -0.25788024 0.24524494 -0.34031478 -0.04020927 -0.13243628 -0.15291288 0.057596438 -0.124712765 -0.13806324 0.16362925 -0.3598093 0.0145712765 0.106381014 0.4263849 -0.060356293 0.09506283 0.33360913 0.14997427 -0.28086838 -0.46197778 -0.08904732 0.25612277 0.2877862 0.41011932 0.34818837 -0.25492963 0.1126911 -0.36024192 0.23530082 -0.112873055 -0.10501229 0.19962502 0.33537355 0.120866664 0.27765426 0.0877176 0.011147643 -0.36355656 -0.028238751 0.25604087 -0.05115729 -0.073119506 -0.33656862 0.2792711 0.12405206 -0.33574352 -0.08730097 -0.13094543 -0.17175686 -0.1894459 -0.052075546 0.47487214 0.03801746 0.23100714 -0.3207239 -0.27404588 0.25389123 -0.11088693 0.0406852 0.06493322 0.11205335 0.09332327 -0.023535682 0.026240075 -0.22918677 -0.35123417 0.04421167 0.008300978 -0.02488054 0.014758738 -0.25665006 -0.078113176 0.37887248 0.019929804 0.2767795 -0.32574844 -0.16814998 -0.0052758288 -0.31753418 0.22544846 -0.058753107 -0.05790009 0.31311667 -0.1879939 0.19625497 -0.19646272 0.056587532 -0.019996928 -0.060927596 0.31507328 -0.28614855 0.047473118 0.16733055 0.09616384 -0.053849056 -0.027050573 0.122069895 0.10080434 -0.13380007 -0.09373832 -0.19871344 0.10520224 -0.48311433 0.3094478 -0.23939112 0.2691218 0.1656272 0.46190736 -0.005487558 -0.36555552 0.22050586 0.15923956 0.017130783 0.06971414
939 -0.059432827 0.36485934 0.7407668 -0.29895398 0.009127525 0.01876145 -0.47458336 -0.16526037 -0.10724019 0.25209945 0.059553932 -0.01303067 0.02362083 0.14898653 0.047559608 -0.11935494 0.18781258 -0.25508064 -0.21266975 0.02688891 -0.053572875 -0.16209748 -0.22660245 0.08955264 -0.27092984 0.13952836 -0.4607033 -0.20442578 0.52200395 -0.2636551 0.103177965 -0.21507315 -0.38267022 0.07624514 -0.16529948 -0.16717756 -0.07423572 0.28342924 -0.06884229 -0.10027788 0.33252433 -0.18801846 0.36688137 -0.120930634 0.38654178 0.052635077 -0.019190108 0.3338562 -0.18986802 -0.22933905 -0.12835684 0.096316695 0.14182359 -0.1424286 -0.1856316 -0.09714498 -0.1576861 -0.13419822 0.10157356 0.19637854 0.1633745 0.1617192 0.10113682 0.050319333 0.2549168 0.58276206 -0.26993027 0.07989515 0.05467297 -0.012132284 -0.29967487 0.045569297 0.34531865 0.1351831 -0.20927608 0.12308412 0.4055858 0.097060435 -0.27674714 -0.028266195 -0.35735658 -0.59438 -0.02025302 0.053467017 -0.14018503 -0.112405136 0.19820447 -0.19269268 0.15064049 -0.1977671 -0.16128592 -0.0930275 -0.039605636 0.026688963 -0.25143445 0.063184485 0.15273935 0.26193833 0.112639375 -0.06852289 0.41095555 -0.020287009 -0.45914635 0.14639986 -0.11833468 -0.27820605 -0.12132021 0.02742509 -0.28786513 -0.45704675 0.2612975 0.4935323 -0.005034732 0.04185512 -0.097877845 0.29088005 -0.017424382 -0.14367239 -0.00021270521 0.24942246 0.08595789 0.24844132 0.015537351 -0.010538174 0.29071638 -0.062338512 0.17431611 -0.24808852
883 -0.23097181 0.050838836 0.03997572 -0.20809273 -0.37974703 0.26407227 0.028287077 -0.037061837 -0.14841986 0.17943716 -0.15156657 0.3537583 0.28074396 0.14694698 -0.15329798 -0.028974058 -0.10937533 0.017891075 0.106729984 -0.2358384 -0.04057696 -0.18397468 -0.08980912 0.19162594 -0.3847788 0.3203877 -0.061995797 -0.22058074 0.08739057 0.02407499 0.00935628 0.27265444 -0.3387069 -0.37146434 -0.12653495 0.21282457 -0.15916152 0.0030569825 -0.094307445 -0.08878661 0.010416666 -0.02021109 0.03489199 0.2623543 -0.39859635 0.22036207 0.18211825 0.19413844 -0.18494818 -0.007494191 -0.18864983 -0.119576395 -0.0124176005 0.13532199 0.114534765 0.28655636 -0.36830467 -0.17047225 -0.09605211 0.4367019 0.15801264 0.0032371185 0.103697225 -0.29908952 0.33966315 0.09311844 -0.24101129 0.039209362 -0.058136072 -0.10931159 0.23413658 -0.09166223 0.2609838 0.105666734 0.076292135 0.37754822 -0.018879589 -0.11105872 0.1589868 -0.21166693 -0.300028 0.15485522 -0.26304868 -0.009352931 0.0012740403 0.19282883 0.06085536 0.12642585 -0.17282534 0.14704049 -0.36874828 -0.04762381 -0.02503548 -0.08740512 0.11718957 0.12525019 0.21420532 -0.29428115 0.14987013 -0.23171784 0.055452377 -0.31778833 0.06709211 -0.26899874 -0.050145652 0.15176092 0.071312234 -0.15390484 0.29274353 -0.21936062 -0.2107119 -0.024411246 -0.08861065 -0.014994489 -0.17053038 0.1152054 -0.074636 0.14908941 -0.01006053 0.15677562 0.21010257 -0.18829887 -0.24558106 -0.08510607 0.35974765 0.204215 -0.5059429 0.37480643
249 -0.49774927 0.525514 -0.20732176 0.35645655 -0.6687979 0.39259577 -0.2303164 1.2335831 0.40729827 0.65368736 0.06515472 0.105481915 0.5239253 -0.011936726 -0.42178512 0.33464396 -0.53842586 1.509783 -0.019648243 -0.17595167 0.21795024 -0.010890448 -0.86428475 1.3396622 0.86745936 -0.08985034 -0.24472648 -0.6853257 -0.258952 0.4845104 -1.2391455 -1.731509 -0.92102444 1.0481343 -0.020903591 -0.94642633 0.11353479 0.5162517 1.0282155 -0.7332733 -0.5236537 -0.99486166 -0.42006823 -0.8359045 0.41748938 -0.4639741 -0.69499487 0.59301203 -0.01611685 0.2500707 -0.9704526 -1.4495186 -1.0595204 0.5213844 0.28760996 0.52098906 -1.6530508 0.3575971 -1.4567595 -0.25834674 0.034486722 0.114806585 -1.2535169 -0.15461576 0.19034773 0.7859211 -0.87570846 -0.614315 -0.19764872 -0.75604415 0.04001823 0.06517008 1.3506684 0.78467256 -0.2720553 -0.2988898 0.6429136 -0.019044725 0.56674945 0.98571885 -1.1652304 0.25241593 -2.0562813 0.86804473 -0.014407566 -0.6059056 0.80850464 0.15030515 -0.5046741 0.5051128 0.031146042 0.8524305 0.013125922 -0.6136478 -0.56472087 -0.056594625 -0.21080883 -1.6221997 1.6679162 -0.13519563 -0.99060863 -1.1083764 0.048583597 -0.62532115 -0.38257444 -0.018779181 0.4393075 -1.3113159 -2.1091862 -1.1276727 1.2180389 -0.6784175 0.27600065 0.2944976 -2.0537152 -0.7792774 -0.0579685 0.9915619 0.78622603 0.16072266 -0.16341436 0.26755804 0.7625193 -0.09901814 -0.23027445 -0.6588873 -0.31272033 -1.1261632
146 0.08226229 -0.06416907 0.060628805 -0.04826368 0.04507491 0.09131454 -0.22415157 -0.0017609255 0.029980162 0.1025004 -0.06617663 0.04370482 0.15583643 0.063308746 0.05622662 0.022890216 -0.12673886 -0.01350018 -0.017267643 -0.14025 -0.08708133 -0.11257938 -0.18202756 0.035829045 -0.057700347 0.09517247 -0.17158501 -0.14021537 0.011443145 -0.16598144 0.1080483 -0.055612728 -0.09931186 0.057970896 0.08788107 0.02443148 -0.02034074 0.021898653 0.120455526 -0.17887592 0.07295917 -0.1673676 0.077134944 0.09324506 0.04716036 0.09309231 0.150444 0.08568746 -0.021555986 -0.06684404 -0.13582669 0.08442118 -0.086171255 -0.13361101 -0.07401302 0.04124708 -0.25744268 0.024035428 -0.09008103 0.05900248 -0.006044071 0.08064782 -0.018845351 0.050656877 0.13999127 0.079023235 -0.13421375 0.02990856 -0.010474805 -0.15193789 0.10422176 0.021938154 0.2074291 0.04223117 -0.029230695 0.083676204 -0.1557729 -0.04715208 -0.0711635 0.0072556594 -0.04392208 -0.16231202 -0.16777103 -0.010450195 0.10009351 -0.052262112 0.068282135 0.0044416934 0.05573792 0.03512197 -0.0460463 0.041884713 -0.11831058 -0.020891557 0.12824333 0.15141627 -0.15748262 -0.08778678 -0.033679698 -0.036118805 0.04206093 -0.02927571 -0.07128493 -0.005161505 0.011961597 -0.07409485 0.1239351 -0.068257906 -0.11130147 0.007414776 0.08904343 -0.03217631 -0.04766999 -0.11165208 0.0757031 -0.007324575 -0.010004052 0.078552656 0.005314031 0.19252415 -0.006124158 0.091525935 0.04353783 0.00097566674 0.050206482 -0.025945002 -0.03615923 -0.14420936
284 0.065536276 -0.09503294 0.06948602 -0.0020605538 -0.157233 0.09726893 -0.07143883 0.031790957 0.094082616 0.12533899 0.004207356 0.010582587 0.1505892 0.0042282664 -0.06609731 0.012455945 -0.0778767 -0.013555822 -0.017792301 -0.09303977 -0.16273978 -0.11329089 -0.18974346 0.028138813 -0.09439141 0.11246154 -0.07602921 -0.13564312 -0.072101876 -0.026905224 0.062339373 -0.13322589 -0.23552555 -0.08243117 -0.009997495 0.04202228 0.0001693535 0.030964939 0.17469731 -0.15744826 0.0027990085 0.055488214 0.19024713 0.0961623 -0.15360749 0.05365929 0.20125197 0.061170153 -0.01563916 0.10349745 -0.071323365 -0.029681904 -0.077786036 0.056704078 0.00029322252 -0.08398308 -0.20034908 0.03730594 -0.059100606 -0.0109064095 -0.025375213 0.086099066 -0.023336105 0.05635557 0.061941028 0.030453566 -0.07050672 0.056859512 -0.039766464 -0.14557266 -0.022949142 -0.07695854 0.15342228 -0.11483261 -0.1242689 0.08071601 -0.060044646 0.014163531 0.041282915 0.0538419 -0.012908205 -0.109353445 -0.07387249 -0.053388476 -0.10632235 -0.025570795 0.07249196 0.105595276 -0.056214232 -0.083511926 -0.04109919 -0.15604232 -0.06945472 0.044348124 -0.036373187 0.022814106 0.042693984 -0.0808063 0.030900983 0.0012363464 0.13856256 0.052317817 -0.01883117 0.03298953 -0.005095829 -0.00043530492 0.06312141 -0.04294242 -0.056990355 0.021657951 0.24576953 -0.084231004 -0.1308825 -0.104407415 0.026840083 -0.081692494 -0.16777703 0.05016571 -0.08197708 0.16158195 0.15088882 -0.0064806654 0.138013 0.0013784474 0.04893117 -0.14241913 -0.17139782 -0.012896857
355 -0.035281386 -0.084970355 0.13286602 0.044401504 0.07623937 0.11372837 -0.18149881 -0.07901712 0.048039436 0.17800811 -0.07408614 -0.038718604 0.16140373 0.043258343 0.060943097 0.10183438 -0.023764508 -0.06918863 -0.06950793 -0.21063964 -0.0058551314 -0.043408517 -0.10228815 0.18568775 0.0009779762 0.089019634 -0.08738455 -0.059165567 -0.012440453 -0.21343644 0.017012555 -0.012022726 -0.04289685 -0.03301658 0.123437494 -0.021709273 -0.03547939 -0.024420327 0.039900977 -0.12908812 0.20214403 -0.19733006 0.010011282 0.123930484 0.0727509 0.023450948 0.11181712 0.08509533 -0.0019515087 -0.06378189 -0.091602035 0.0018054916 -0.10826489 -0.115381174 -0.19151041 -0.03672412 -0.23980366 0.004384902 -0.113506496 0.04290652 -0.002392688 0.081060395 0.05083974 0.046979155 0.15971953 0.08385996 -0.07347514 -0.06848256 0.021788962 -0.14877664 0.075505584 -0.0052694553 0.2071089 -0.013215392 -0.05209574 -0.06224746 -0.10856817 -0.089329965 -0.04039353 0.016699865 -0.14137791 -0.07732245 -0.16622274 -0.012555604 0.081586406 -0.12990324 0.080869965 -0.099983186 -0.04776508 0.04371253 -0.02538958 0.11568865 -0.18490104 -0.008060168 0.13382177 0.23768036 -0.23031957 0.047599413 -0.11760304 -0.030105067 0.08038929 -0.022779709 -0.13369253 -0.0031307049 0.090471 -0.0626102 0.17246035 -0.10783558 -0.12511845 -0.053617775 0.21090671 -0.055034902 -0.02553199 -0.04503679 0.064812735 -0.005963143 -0.009913042 0.07416082 0.0014570454 0.25502074 0.093580514 0.12915562 -0.0070193196 -0.007443535 0.029584229 0.047069337 -0.006160829 -0.10449636
731 -1.2515229 0.8445537 -0.14386265 0.23150358 0.01540213 0.7120374 0.65098935 0.75508314 0.20261104 -0.12829675 -0.2667877 -0.80320805 0.41453803 0.40140164 -1.1024358 -0.5476612 0.5958909 1.121239 -0.17524578 0.64451534 -0.27896017 -0.51886004 -1.2968358 1.2530221 0.87330884 -0.29968038 -0.45526013 -1.2139751 0.52050525 0.70462245 -1.1899025 -0.58473116 0.29029733 0.42963016 -0.87403315 -0.8566027 -0.13231258 0.85143507 0.44383046 0.31360978 -0.7434066 -1.0237392 -0.479557 -0.20522515 0.7925469 0.47213683 0.5497216 -0.22683933 -1.0194232 -0.28756446 -1.9637333 -1.2160615 -1.5117483 0.045651086 -0.7196899 -0.7496007 -1.5568984 -0.34369 -1.4490557 -0.51375836 0.019575007 -0.3266172 -1.325444 -0.5760212 0.56951237 0.23609857 -2.2184882 -1.5466669 -0.17016625 -0.17531608 -1.1775446 -0.1226679 1.4168448 1.1200588 0.09128872 0.07801295 -0.2596043 -0.78298426 0.4548914 0.7597686 -1.78227 0.42047334 -1.7340165 0.89763415 0.36211726 -0.22236224 0.8693188 0.26345214 -0.9026551 -1.9743364 0.5914729 0.16356762 -0.37452552 -0.83835787 -0.087960996 0.5134945 -0.8516223 -1.7035488 1.3186629 -0.29978377 -0.11340379 -0.51353115 -0.18457712 -0.6053368 -0.3107855 -0.069266304 -0.39523646 -0.15807723 -0.039814092 -0.6555148 1.1906625 -0.04493594 -0.14502633 -0.8528329 -1.3662012 -0.33015588 -0.29580045 -0.043302048 0.3389358 -0.28453442 0.18595277 -0.26616257 0.38980195 -0.7288689 -0.3898629 0.25600237 0.20957413 -0.9623372
556 -0.98948073 0.37423378 0.1404993 -0.85958046 -0.8477848 -0.40220314 0.7856693 -0.75254285 -0.27402088 -0.12388711 -0.3921816 -0.07425446 -0.65230787 0.31448427 -0.002851335 -1.0537136 -0.78119934 0.26387712 0.41779438 0.23882584 -0.599594 -0.3322047 -0.6834323 0.4725392 -0.37299085 0.095161475 -0.1341971 0.20371751 0.39072502 0.7256838 -0.08204608 -0.40114585 -0.20742266 -0.26620978 0.0043157237 -0.0048901173 -0.4487014 0.16858119 -0.15517892 -0.42281842 0.30437094 -0.16051784 -0.523196 -0.3347136 -0.77715087 0.03855567 0.43917617 -0.09013853 -0.074376754 -0.18272269 -0.7651184 0.09531941 -0.5868366 0.42867297 0.667909 -0.37653783 -1.3679347 -0.5818362 -0.012545878 0.7117074 0.3016484 -0.3295385 0.41210556 -0.29013723 1.3965746 0.87647873 -0.45806468 -0.5486343 -1.0632118 0.07851152 -0.10973263 -0.22586724 0.55703753 0.19770782 -0.3764916 -0.44841027 -0.15303998 -0.015921459 0.09111543 -0.24851118 -0.7795359 -0.0010358163 -0.72999835 0.26724237 -0.2689555 0.10163533 0.027995203 0.33717883 0.3517212 -0.6433708 0.47039443 -0.23185302 -0.5904797 -0.520592 -0.40511146 0.34456423 -0.2725665 -0.812934 0.059938174 -0.15728681 0.35215038 -0.3762168 0.19284774 -0.22914256 0.059191998 0.4677686 0.40134636 0.19236019 0.18088582 0.5625036 0.34595805 0.3072837 -0.764858 -0.3225793 -0.76196104 -0.38336116 0.92881864 0.6316783 0.4126884 0.42435965 0.0062126396 0.06628188 -1.1203055 -0.39710104 0.33309966 -0.42991176 -0.15716136 -0.061444636
875 0.1326012 -0.122750156 0.20404102 -0.002917348 0.032148242 0.21887487 -0.104730755 0.06452896 0.042898223 0.13714103 0.0070808474 -0.010382586 0.06921138 0.1343645 -0.0060484144 -0.043595735 0.013827632 -0.09092431 0.017245172 -0.23783629 -0.0048537776 -0.025706658 -0.15246627 -0.036235288 -0.080775976 0.0859788 -0.17036165 -0.12471322 0.027031565 -0.2626702 0.053167555 -0.1251228 -0.21696292 -0.28163052 -0.008607678 -0.061535243 0.122526124 0.038512915 0.14464761 -0.063691765 0.12620814 -0.14240052 0.14097203 -0.066379465 -0.058412734 0.032498643 0.18661098 0.13069527 -0.10100018 0.03906063 0.07501185 -0.120333254 -0.07717053 0.12039972 -0.17469181 -0.01275099 -0.20142215 0.016536573 -0.056237467 -0.10079179 0.025162129 0.11537034 -0.064683676 -0.013406891 0.1491035 0.17633279 -0.15880781 -0.08739202 -0.0964233 -0.09280893 0.0036293652 -0.029390493 0.24027914 0.008953525 -0.014103583 0.052983243 -0.18657017 0.032112576 -0.05675781 0.067713365 -0.099903256 -0.1571675 -0.15802525 -0.09404774 0.035870112 -0.06983488 0.09199532 -0.027237806 -0.043042913 -0.033161167 0.046589326 -0.055381354 -0.09135279 0.06594203 0.02564851 0.13098565 -0.06907607 -0.08385047 -0.049031183 0.0042390916 0.10267064 0.040702756 -0.026663173 0.045172896 -0.019498711 0.0104305465 0.20423093 0.029829754 -0.0884849 0.021248465 0.18487144 0.07217641 -0.16424361 -0.055510297 -0.041601535 -0.14252704 -0.22310638 0.0058278805 -0.046552464 0.28365245 0.091952905 0.11076319 0.052452896 0.06355074 -0.0162235 -0.047935795 0.024342056 -0.06459133
619 0.04858391 0.09625302 -0.026076967 -0.06333554 -0.20834008 0.04961884 -0.085485175 0.027321951 0.028166175 0.12286951 -0.101244286 -0.029365422 0.25649148 -0.024430282 0.06092306 0.06896216 -0.12351684 -0.0051083816 0.04372883 -0.17448093 -0.065334626 -0.12521009 -0.16869864 0.08783951 -0.0924142 0.016378101 -0.05831866 -0.17579412 0.04075373 -0.07594104 -0.011792017 -0.04757444 -0.16885263 0.0406904 0.13352303 -0.014272998 -0.019008353 0.05673125 0.07713549 -0.13362633 0.09294817 -0.07234968 0.11973934 0.14359087 -0.03433263 0.011801649 -0.013148213 0.091692194 0.05042753 0.0031587293 -0.10277107 0.0466125 -0.1441443 -0.18723431 0.07512102 -0.053264663 -0.20534661 0.016071435 -0.0597196 -0.03008305 -0.05724188 0.08210938 0.021275382 -0.06210864 -0.011576382 -0.031881813 -0.014441066 0.09833629 -0.012620722 -0.11055977 0.009452156 0.016613154 0.05382592 0.046799026 -0.005805134 0.038196966 -0.13041258 -0.0050958837 -0.03841713 0.08992208 0.031389214 -0.13510863 -0.042269245 -0.034566812 0.09093681 -0.14766711 0.112628765 0.055508927 0.04075992 0.044464506 -0.10471211 0.095214166 -0.14801638 -0.02128289 0.061240386 0.17400232 -0.08210848 -0.16781488 0.063874096 -0.05589491 0.059062403 -0.0048414916 -0.07750801 0.027123043 -0.019764999 0.070279606 0.104983605 -0.15060832 -0.035583913 0.11362113 0.1995475 -0.099404775 -0.19921097 -0.11200334 -0.023684375 0.00045771993 0.031207684 -0.047118895 0.04789893 0.13532396 0.041703682 -0.07486935 0.24685402 0.13925248 0.07985254 -0.076867305 -0.04632551 -0.21274605
863 0.12921621 -0.09386224 0.0980783 -0.049140044 -0.05258383 0.17536134 -0.079256125 -0.05847992 0.12899712 0.23319452 0.03937245 -0.012922202 0.12385632 0.10622851 0.03179366 0.0415045 -0.04728009 0.0041470425 -0.014019329 -0.08475637 -0.10924388 -0.027617559 -0.20406257 0.023186669 -0.07200679 0.1845993 -0.18204843 -0.101849 -0.046921633 -0.19454357 0.035268124 -0.21899538 -0.12103118 -0.113342285 -0.012626685 -0.061603315 -0.021314736 -0.0062397406 0.23750833 -0.09719858 0.113990165 -0.0166179 0.058448434 0.16296141 -0.1305028 0.113689795 0.24397713 0.10036331 0.042365804 0.02910137 -0.09699272 0.008103518 -0.0400926 0.018785078 -0.16938874 -0.123755924 -0.15835623 0.12596034 -0.12852961 0.09537506 0.02702876 0.055467524 -0.09640906 0.06702478 0.13634287 0.19489197 -0.11408815 0.033097886 -0.100591704 -0.18270959 0.11043 -0.10367056 0.15525308 0.00412664 -0.030069968 0.3209752 -0.090311505 -0.007731395 -0.100420654 0.0030233336 -0.08070803 -0.1907356 -0.1528387 -0.06848603 -0.092617474 -0.06904558 0.1359066 -0.1299769 0.056260493 0.031639263 -0.03712242 0.020393927 -0.2735918 -0.033599872 0.02956187 0.06358555 -0.0538315 0.01811216 -0.037073802 0.095341735 0.13977152 0.031583685 -0.10330673 0.06395839 0.03900648 0.018427417 0.08599038 0.067089915 -0.15074152 -0.13794783 0.15192364 0.04221792 -0.10694925 -0.053278502 -0.08188405 -0.036901657 -0.15185533 -0.044504903 -0.18713751 0.24939147 0.039657053 0.1120074 -0.035833564 -0.051003862 0.0055368333 -0.113650136 -0.18562165 -0.14034761
438 0.060244955 -0.19242623 0.1985116 -0.03215794 0.14989324 0.1272879 -0.06432379 -0.020198256 -0.10512606 0.10298114 0.056061417 -0.10081625 0.085060075 0.15940495 0.09012683 -0.006816923 -0.0072310045 -0.029470328 -0.076297365 -0.15364052 -0.049462147 -0.14403777 -0.2105569 0.040812217 0.014693359 0.058203433 -0.1575969 -0.08156698 0.036560576 -0.32906684 0.1052102 -0.059817996 -0.10537727 -0.07034164 -0.05126357 -0.012474204 -0.011770221 0.028967423 0.13884173 -0.10046973 0.07813521 -0.15960078 0.010117118 0.03303405 -0.017847233 0.03308834 0.25248283 -0.035740502 -0.02885653 -0.07079093 -0.14133081 0.020422263 -0.12651996 -0.070063695 -0.048653107 0.117550716 -0.21761319 0.03498763 -0.15164153 0.012540355 0.061945517 0.099583216 -0.017155798 -0.05084618 0.029639743 0.09546164 -0.15834138 -0.04840556 -0.08203852 -0.08146414 -0.036021616 0.0038149394 0.22133371 0.0058014183 -0.14028613 -0.03385956 -0.18919344 -0.06378056 -0.056791835 -0.06884741 -0.007362692 -0.13775551 -0.07502974 -0.056691017 0.09072031 -0.04461849 0.14673877 -0.09626547 -0.012462096 0.122586064 0.08949958 -0.0067277052 -0.063592866 -0.04912322 0.05363257 0.20980224 -0.16733895 -0.0256991 -0.13998854 -0.03855316 0.12457524 -0.04234893 -0.15918893 0.077722706 -0.020729026 -0.16887407 0.24067006 -0.0502453 -0.11881987 0.02354803 0.056355894 -0.057550132 -0.027284179 -0.059562944 0.06482309 0.052858688 -0.07959197 0.062060572 0.026909424 0.21912968 0.093751594 0.10042701 0.063445576 -0.014582712 0.0018566784 0.010311267 0.031904846 -0.1400734
19 0.011888078 0.0350734 -0.0464137 -0.012322563 -0.13516648 0.07634707 -0.1277888 0.07818206 0.08770294 0.068559214 -0.09743412 -0.096388526 0.27599648 -0.08751382 0.055083502 0.049044672 -0.050225873 0.0031968802 0.023078956 -0.19952682 -0.07404221 -0.036417875 -0.044748314 0.1308638 -0.07974787 0.010930779 -0.047589928 -0.1026092 0.07200615 -0.01959482 0.04024103 -0.0065915557 -0.16551302 0.09854949 0.06948879 0.018215574 -0.069342785 0.070681006 0.034953684 -0.16371694 0.11703763 -0.022527913 0.10047833 0.12142424 -0.10898088 0.072476335 -0.009114429 0.08465506 0.08111931 -0.06328716 -0.12652324 0.012607723 -0.022574352 -0.11471743 0.016329342 -0.0018838117 -0.16583383 0.027152253 -0.0804262 0.038554255 -0.12151885 0.106929764 0.01887521 -0.09174987 0.06969155 -0.0630773 0.0004945807 -0.055745438 0.0061449683 -0.17429854 0.126901 0.024342878 0.09087286 0.0042077694 0.03606054 0.07375166 -0.047261342 0.013876923 0.023675315 0.11835334 -0.06889274 -0.0705361 -0.100071974 -0.0278924 0.05755911 -0.09083659 0.063516095 0.06329988 0.0043053017 -0.07719034 -0.035028856 0.15971719 -0.18317984 0.026298935 0.09462687 0.12403767 -0.09948158 -0.1257933 0.022345664 -0.061592452 0.045857366 0.01304385 -0.16330512 0.01925392 -0.031069867 -0.03849526 0.03363924 -0.051582295 -0.20739011 0.09524077 0.20801908 -0.14683361 -0.15292218 -0.07549806 -0.08823908 0.04323307 -0.005089012 -0.069444776 0.035145495 0.12122973 -0.011601396 0.012066269 0.16809265 0.08379541 0.117356166 -0.101000585 -0.085244745 -0.18809061
893 0.043498304 -0.16255288 0.15697551 0.052623495 0.016768975 0.14314924 -0.117198065 0.073447354 0.08630462 0.17337458 -0.022334449 -0.04894357 0.004994696 0.07776592 -0.047500443 0.05447861 0.1293667 -0.112263985 -0.09626615 -0.2311636 -0.057018988 -0.03513364 -0.107525796 0.043639317 -0.07196228 0.017518025 -0.15393212 -0.10308552 0.0043797395 -0.1971412 0.023653904 -0.15684119 -0.18522856 -0.16909467 -0.09060738 -0.04763746 -0.033107564 0.004322851 0.15762644 -0.052500803 0.14019783 -0.07162789 0.069340914 -0.01368712 -0.070553884 0.11368571 0.16103233 0.06870234 -0.007285499 0.00918309 0.0025669564 -0.14096346 -0.04914079 0.053419963 -0.20759295 0.03258298 -0.13289772 -0.042815216 -0.057587847 0.030631011 0.04781818 0.04440443 -0.018593913 -0.013106023 0.11928269 0.1814547 -0.0644033 -0.06362016 -0.10069378 -0.12707038 0.02151723 -0.10981634 0.2573306 0.011709732 0.075027004 0.073821045 -0.088460304 -0.027183317 -0.06736754 0.0012766547 -0.0811919 -0.12947062 -0.09997247 -0.074112535 -0.06673108 -0.052895542 0.09846 -0.060141694 -0.051984668 -0.022288509 -0.01041571 -0.0032973439 -0.1476275 0.0020848773 0.053050622 0.103461616 -0.10977685 -0.018534059 -0.050030526 -0.043035407 0.09171846 0.05087838 -0.05446228 0.04328335 -0.043423492 0.0016720045 0.23393387 -0.005584834 -0.13307118 -0.025743714 0.20926213 0.078645624 -0.18469906 -0.027458714 -0.12885892 -0.07984366 -0.19191355 -0.16229825 -0.07097596 0.30714518 0.15754582 0.17141351 0.047466602 -0.054349095 -0.020355735 -0.14211608 -0.010872766 -0.10354459
240 -0.13535798 0.043281 0.12624477 0.0810888 -0.09705604 0.032359406 -0.24439573 0.0769805 0.16409823 -0.06637835 -0.12140835 -0.13415457 0.11691184 0.18334714 0.14210707 0.06323301 -0.12879297 -0.016359378 -0.041000113 -0.25912958 -0.11128388 -0.082988255 -0.26181683 -0.03254132 -0.050500665 0.17098804 -0.03975662 0.04335663 0.15214823 -0.057054166 0.054952223 -0.20785867 -0.32152075 -0.044144876 -0.024209332 0.13398585 -0.06935916 0.16547291 0.42578992 -0.08538574 -0.012443961 0.13438332 0.0382848 0.040823717 -0.202395 0.22873168 -0.012064139 0.05192207 -0.037434272 -0.082809106 -0.116208404 -0.0670605 -0.29133415 -0.18425962 0.058062673 0.15605944 -0.1472058 0.051021 -0.06013446 0.04726769 0.2209585 0.1362011 -0.006443745 0.03351121 0.033902436 0.081547864 -0.13026823 -0.033815395 -0.026065756 0.030263852 0.0039420063 0.14063443 -0.13252798 -0.16133897 -0.37192088 0.17625487 -0.18838494 -0.069745935 0.17431867 0.2339481 -0.06592264 -0.028160328 -0.081991315 0.022781545 0.098624684 -0.11130251 -0.034961034 0.1406839 0.10287906 -0.038246103 0.022184128 0.020493653 -0.3043123 0.3435999 -0.07352808 0.25890183 0.08508429 0.011802584 -0.028400501 -0.12562914 0.008490854 -0.10333284 0.025401805 -0.1242681 0.00021254423 -0.10074822 -0.016533379 -0.17231393 0.11688709 0.06410985 0.17114921 0.035664197 -0.30136368 0.021941315 -0.0025219158 -0.15906164 -0.045514055 -0.22053804 -0.051669028 0.041270703 0.004198063 0.012918293 0.1289827 0.35465747 0.18683404 -0.08130363 -0.1229742 0.0176355
479 0.07234555 0.00074763916 0.10635814 0.008186091 -0.12075564 0.18892655 -0.07074756 0.12934513 0.12744714 0.13269655 0.0072326143 -0.040579364 0.06669271 0.06504149 -0.113781914 0.03141933 0.077620216 -0.09431705 -0.027473241 -0.18630423 -0.09496705 -0.08229702 -0.120577 0.17566112 -0.14363728 0.046570156 -0.06024377 -0.050282083 -0.075851835 -0.05534112 0.02968467 -0.043848332 -0.23812406 -0.1619555 -0.05717995 -0.04595427 -0.050413474 -0.0075682425 0.091108225 -0.109123945 0.08141514 0.056509007 0.07761161 -0.0073682647 -0.13118075 0.10839754 0.116508745 0.023579212 0.03606249 0.14421108 -0.035209198 -0.10751482 -0.00012342437 0.13668413 -0.16724044 -0.04639234 -0.14581393 -0.04923633 -0.08030286 -0.013697445 -0.08208949 0.07634298 -0.0071252077 -0.058010858 0.035063267 0.017876213 -0.059466705 -0.013266135 -0.08375481 -0.027925054 -0.037256297 -0.10451991 0.20643336 -0.027088048 -0.020725077 -0.057347044 -0.054752536 -0.011745505 -0.010621129 0.010903144 -0.03417798 -0.05946056 -0.14878662 -0.088970006 -0.11688053 -0.042912293 0.024101702 0.01296525 0.0059569506 -0.058453377 0.02397501 -0.052894633 -0.08900577 0.10553166 -0.08229881 0.029697318 0.006853994 -0.10740426 -0.023738777 -0.079829924 0.12442611 0.11763384 -0.08936427 0.04619586 -0.01995421 0.066212244 0.12239336 0.035841715 -0.08072231 0.044240102 0.28592476 -0.030438093 -0.082658365 -0.0006386821 -0.120337516 -0.1316389 -0.19054402 -0.11471252 -0.05774401 0.19998135 0.22219422 0.09261521 0.105576344 -0.020349545 -0.017185595 -0.1807759 -0.13579035 -0.094718024
584 -0.00406706 -0.07959939 0.10804565 0.028254656 -0.15795478 0.14819947 -0.023711754 0.056181163 0.1462813 0.12725446 0.0058319895 0.004633629 0.019500136 -0.012671892 -0.13381393 -0.0007445173 0.04112914 -0.058457576 -0.01770823 -0.21606939 -0.14557098 -0.05932298 -0.07531846 0.13973102 -0.112250105 0.08284205 -0.09839167 -0.07040988 -0.06879876 -0.09274685 0.03258027 -0.08958447 -0.26835242 -0.15580063 -0.052256107 -0.06295777 -0.043300103 0.021533882 0.08869288 -0.07676945 0.09104411 0.082411975 0.13726416 0.0042313384 -0.15860096 0.07637968 0.11440342 0.066465005 0.02919582 0.056759816 -0.00033273984 -0.07846694 -0.04148705 0.12727201 -0.1366545 -0.056841303 -0.097775005 0.0135434205 -0.0964755 -0.04659787 -0.12453635 0.0953796 0.017632678 -0.083981074 0.02469342 0.038425714 -0.09934302 -0.0020270597 -0.08680482 -0.09744826 -0.0027194216 -0.16507325 0.19929421 -0.028716577 0.02221013 -0.036935903 -0.050559156 -0.01128354 0.0067007625 -0.00021241025 -0.0065826415 -0.043879025 -0.05934262 -0.05816645 -0.08092823 -0.068416536 0.000991055 0.03161873 -0.07215358 -0.12736902 -0.014823783 -0.11033789 -0.12965457 0.10618804 -0.020180212 0.057168957 0.026403219 -0.092098475 -0.021707252 -0.016315203 0.033463847 0.13011144 -0.08031969 0.032924216 -0.015673673 0.041474897 0.13463616 -0.0017588707 -0.14560093 0.05930886 0.30444774 -0.082547955 -0.14379367 -0.044337932 -0.13526894 -0.097420804 -0.20810728 -0.09676805 0.008041232 0.17797762 0.18798304 0.105011486 0.18510944 -0.017583484 0.016322233 -0.10490785 -0.15987943 -0.08552592
345 0.021815022 -0.01953487 0.13327678 0.023815382 -0.115471475 0.21352716 -0.002794362 -0.056734443 0.10607549 0.19917661 0.023078755 -0.026380675 0.063886024 0.1236492 -0.1249192 0.085692294 0.05800924 -0.025422726 -0.07931516 -0.18191698 -0.10489409 -0.07414784 -0.18269272 0.16314468 -0.14059383 0.099710375 -0.0831783 -0.020904705 -0.1363303 -0.15335625 -0.004411849 -0.1172857 -0.18994223 -0.12527676 -0.036038365 0.06321851 -0.027130429 0.022685956 0.10644195 -0.13308084 0.008614879 0.07839888 0.11421786 0.04975807 -0.12999573 0.090480395 0.26910982 0.031175055 -0.018689383 0.061752584 -0.057779115 -0.030667052 0.055171616 0.084827185 -0.159188 -0.0639066 -0.15712549 0.04693779 -0.03987169 0.015825659 -0.1419137 0.17256983 -0.0547091 0.05028314 0.04855189 0.04928878 -0.012305886 0.01524601 -0.107477866 -0.12080232 -0.0008710348 -0.13020162 0.123535536 -0.07014879 -0.18876062 -0.058539953 -0.09157381 -0.07562484 -0.016034212 0.04802256 -0.07015868 -0.025882894 -0.1301804 -0.07626898 -0.12185415 -0.04099543 0.105954744 0.0015517789 0.030181563 0.018068781 0.0030017574 -0.07675386 -0.18148252 0.030053772 -0.038290597 -0.01040137 -0.050114043 -0.043174833 -0.09789903 0.048922766 0.11596161 0.009231647 -0.062404897 0.03445816 -0.059833325 0.070077166 0.07619883 0.0019424816 -0.07399375 -0.05953855 0.29626688 -0.09493156 -0.088436194 0.008909484 -0.15945378 -0.011507506 -0.1868039 -0.0256009 -0.0751511 0.10732489 0.17602013 0.02168609 0.05273324 -0.08412387 -0.010693616 -0.05490034 -0.21828006 0.032944087
89 0.11178662 -0.13765506 0.20504425 0.07899177 0.113564655 0.16470014 -0.11147508 -0.07095052 0.07336218 0.24563521 -0.06873169 -0.03591682 0.04574209 0.020675436 -0.035561122 0.07218554 0.022768278 -0.11379774 -0.037369743 -0.18927509 -0.12944806 -0.042458363 -0.16697899 0.10929407 -0.068885684 0.15295988 -0.12154476 -0.12320656 -0.031308416 -0.19916683 0.090320684 -0.1511213 -0.1136711 -0.13347247 -0.10724237 0.0527824 0.028535504 0.09193912 0.20610304 -0.15028976 0.08654191 -0.09886781 0.045403335 0.014345677 -0.11445001 0.16930059 0.32363877 0.16048531 -0.03377266 0.023968209 -0.051081873 -0.07653856 -0.015531776 0.124885686 -0.23065077 -0.023674348 -0.16906932 0.04675502 -0.09930968 0.12802984 -0.015289253 0.024045879 -0.04110693 0.06387352 0.16150665 0.20079596 -0.08834759 -0.02356971 -0.055477094 -0.19353336 0.030777782 -0.10318184 0.24492304 -0.044821493 -0.10430025 0.025648184 -0.13482642 -0.13812675 -0.07554143 -0.011280682 -0.12791698 -0.072623424 -0.10970325 -0.10683336 -0.11296514 -0.046631362 0.110757925 -0.08346635 0.0062339976 0.13628335 -0.035511754 -0.055299662 -0.24240683 0.01811205 -0.013677083 0.0705097 -0.05797919 0.122906916 -0.1269342 0.10264519 0.20069098 -0.007731041 -0.033523478 0.035841472 -0.00909201 0.07100366 0.11814164 0.027052272 -0.15761714 -0.051798627 0.2209234 0.060337525 -0.12894875 0.052944656 -0.0639527 -0.03713617 -0.1441345 -0.009280017 -0.11228208 0.20026664 0.051697336 0.1779807 0.0097978 -0.07599875 0.005378891 -0.039724696 -0.059560776 -0.05490502
657 0.034125745 -0.092851 0.17466494 -0.1130873 -0.081340924 0.25586018 0.019455437 -0.064923905 0.09136612 0.11608208 0.056650136 0.008634674 -0.03058739 0.095272295 0.0015542875 0.052665293 0.0148393335 -0.04182932 -0.02564497 -0.16495629 -0.10058902 -0.16068648 -0.11126202 0.112479106 -0.14194135 0.1440568 -0.09638985 -0.061001852 -0.17730072 -0.123335175 -0.01826725 -0.12285068 -0.23266254 -0.1846641 -0.05514758 0.123860486 0.09267272 0.11074964 0.18631138 -0.10644014 0.050270703 -0.049388282 0.15584032 0.12192765 -0.2760585 0.054988965 0.28868958 0.04909915 -0.058845025 0.029973453 -0.081947945 0.025773985 0.02073036 0.07907261 -0.07686463 -0.069827594 -0.15120336 0.109237745 0.005176182 0.025118945 -0.101891845 0.119438656 -0.039655965 -0.008199628 0.039758954 0.12316582 0.025640892 -0.023412755 -0.06422674 -0.11386129 -0.09476887 -0.101527035 0.16821314 -0.07446141 -0.2570223 -0.038009178 -0.107934944 -0.035956446 -0.057587277 0.050152663 -0.036546435 -0.10658578 -0.08292968 -0.057099815 -0.08401606 -0.01330041 0.055462226 0.0328123 0.032982185 0.013484187 0.0048462525 -0.12020862 -0.08571412 0.05464248 -0.102950096 0.0443364 -0.07632733 -0.108502954 0.022176102 -0.050852697 0.084224954 0.06636337 0.0044121016 0.04708662 -0.024978593 -0.014712673 0.13618912 -0.009366546 -0.11125856 -0.044162724 0.23777996 -0.12955824 -0.16476606 -0.08927101 0.005509745 -0.02863751 -0.21146642 -0.0020200633 -0.051899124 0.08603392 0.15037929 -0.08010148 0.16069135 0.03644132 -0.0081478655 -0.044914406 -0.19068106 0.005814061
839 0.1614263 -0.046985548 -0.020960612 -0.15656663 -0.17591862 0.14300899 -0.24483716 0.10306504 -0.35534582 0.09317066 -0.16768888 0.25447246 0.13622953 -0.10609621 0.084188916 0.14992456 -0.1425952 0.024459666 -0.04399235 0.19100577 -0.20058806 -0.37647933 -0.4317876 -0.24323075 -0.0072602476 0.13648747 0.06638412 -0.004394477 0.017604295 0.11487716 -0.17893381 0.08143677 -0.443642 0.055105183 0.3570061 0.20957586 0.14769971 0.05053498 -0.1128919 -0.0070765363 0.03528208 0.14574766 0.20433253 0.35832053 -0.18916626 0.13535653 0.31456926 -0.2499456 0.17498355 -0.11645455 -0.117043525 -0.14465958 -0.340207 -0.14526427 0.22571473 0.12291277 -0.24898365 -0.20048621 -0.012575263 0.047265116 0.1056021 0.32697216 -0.18314831 0.04930037 -0.38154197 -0.19519232 0.07557521 -0.13362479 0.17864372 -0.13571452 0.004087952 -0.0040340316 -0.06333764 -0.27328345 0.06240211 0.25029013 -0.10388533 -0.05614142 -0.06313147 -0.29044193 -0.541638 0.093871124 -0.201869 0.13293496 -0.5057755 0.008658974 0.11157327 -0.14780337 0.25478113 0.08971689 -0.077774726 -0.016440824 -0.1601333 -0.13419074 -0.27387843 -0.23483382 -0.21993703 -0.069889456 0.0048207426 0.2890202 -0.14013465 -0.055725757 -0.44687626 0.051327385 -0.010457834 0.17902657 0.13969131 -0.1176769 -0.071268596 0.11789506 0.06974109 0.34246698 0.08528841 -0.1026602 0.08100175 0.0037371921 0.19726734 -0.08246386 0.025871906 0.47810578 0.060205318 0.14500059 0.29055265 0.176134 0.037047002 0.19122243 0.06090541 -0.07520375
689 0.23470522 0.2035005 0.06712447 -0.26617122 -0.017692953 -0.35883236 -0.11471922 -0.92120814 -0.30546364 0.019373873 0.44560358 -0.13765962 0.4302829 0.24910371 0.45934018 -0.4706206 -0.6367728 -0.48257026 -0.12993406 -0.309065 -0.9891444 -0.46815732 -1.1062293 0.09064352 -0.4277748 0.42862162 0.06779899 0.37993145 -0.44942302 -0.09366131 -0.039662108 0.5272582 -0.0041770977 -0.53121287 0.021373319 0.0757136 0.32305965 -0.3904152 0.049715906 0.22613727 0.005922512 0.0033725323 0.51501685 -0.0739459 -0.96466696 -0.40845218 0.076832876 -0.03391531 -0.2094677 -0.018698717 -0.27479535 0.55339944 0.104111016 0.13778622 0.7750807 0.26503816 -0.40458986 -0.091372035 0.06720832 0.7574599 0.10612056 -0.10083815 -0.67417204 0.2012543 0.37423038 0.12781589 -0.08234868 -0.44157326 -0.3202664 -0.07073415 0.4916162 -0.549426 -0.021410154 -0.3253285 0.3116284 -0.2941046 -0.73320526 -0.3495898 0.27635273 0.21669707 -0.4193887 -0.6501447 0.18806945 0.07825675 -0.6055578 0.14607994 -0.5958161 -0.039161116 0.2719769 -0.24071823 0.3355196 0.30121034 -0.5762268 0.0064430865 -0.1715149 0.17581242 0.1219365 -0.28076398 0.3157249 0.12883358 0.091581404 0.35060784 -0.07960329 0.081630155 -0.15887366 -0.5524631 0.42689487 -0.8301101 -0.31513605 0.27641773 0.48116753 0.0322793 -0.10348876 -0.14002514 0.49199215 0.32615346 -0.036665928 0.23380917 -0.12363176 0.23325042 0.658904 0.21360065 0.24269511 -0.10524438 0.3980721 0.54452175 0.88067573 0.17659204
510 0.11230703 -0.052984208 -0.01906612 -0.09818964 -0.15217653 0.110854216 -0.014778252 0.02774293 0.07574724 0.14806065 -0.09531221 0.03177133 0.19969274 -0.0065029776 -0.23289107 0.11042797 -0.091921665 -0.07391784 0.17106248 -0.08079931 0.04030854 -0.16980939 -0.10662481 0.1147146 -0.24315712 0.097301096 -0.12344976 -0.19965018 -0.051230412 -0.074094765 -0.04235381 -0.048596796 -0.20339032 -0.22463006 0.067857005 0.07645466 0.25069907 0.18564871 0.08876537 -0.16162656 0.15933792 -0.047686785 0.1544166 -0.028396096 -0.08700177 -0.0841666 0.040298864 0.11408605 0.00055426924 0.06838875 -0.10501503 -0.13421476 0.048865926 0.09698122 -0.13798818 -0.08198585 -0.21683708 0.09387117 -0.027516587 -0.023177633 -0.14075871 0.113546975 0.027197437 0.027849078 0.09884936 0.06704974 0.042013828 0.031854164 -0.1065988 -0.10792512 -0.0040684 -0.07312091 0.16799664 0.05065359 -0.11763427 -0.09503258 -0.060941983 -0.06975461 -0.07203633 0.1276771 -0.06004757 -0.02149566 0.038858227 -0.110800885 -0.057023834 -0.13393645 0.0027954848 0.027264658 0.020443559 0.046878975 -0.18973981 -0.022845156 -0.23300134 0.013641229 -0.01600001 0.09117171 -0.055902798 -0.098908536 -0.09907633 -0.060226217 0.082423754 0.04849792 0.04775753 0.041168004 -0.049187083 0.095465146 0.08497225 -0.08320236 -0.15303968 0.07092101 0.35529524 -0.10850041 -0.22311728 -0.019402785 -0.04481543 -0.06588178 -0.18596506 -0.026100835 -0.035920613 0.099655576 0.115808345 -0.008039056 0.17667007 0.095872626 0.05071719 0.05178453 -0.16342707 -0.022213658
480 0.050547197 -0.052076105 0.03574142 -0.118506156 -0.17012157 0.22776051 -0.0135625815 -0.14703402 0.06834251 0.16434577 0.007974916 0.080801964 0.15646608 0.05535299 -0.19219244 0.20429057 -0.120186426 -0.090895995 -0.028918331 -0.14540583 -0.02627965 -0.1713559 -0.13287784 0.13687705 -0.13369823 0.22246695 -0.15096731 -0.1643872 -0.19036222 -0.082823314 -0.13684385 -0.011878331 -0.13557832 -0.19211148 0.11408176 0.13197033 0.20013301 0.11395962 0.12160233 -0.060864028 0.108975805 -0.11797151 0.27869073 0.114618875 -0.112905815 0.0025019466 0.15641573 0.14124449 -0.061226834 0.028555581 -0.0621533 0.019074403 -0.061662372 0.13279408 -0.07563093 -0.08604718 -0.1850827 0.24838483 -0.045633778 0.12675084 -0.0949624 0.110114485 0.029146448 0.13241555 0.13182199 0.050859593 0.028109925 0.086494885 -0.14113705 -0.14433691 -0.024466509 -0.08598285 0.20496835 -0.018631386 -0.26832634 -0.0032422775 -0.048193824 0.039403077 -0.058189634 0.06012744 -0.075628854 -0.07059909 -0.17222996 0.0038445771 -0.07706723 -0.17863663 0.07783425 0.0027683172 0.08578028 -0.030499406 -0.13249142 -0.031582743 -0.22046481 0.015198168 -0.019664176 0.1050478 -0.12297935 -0.08129381 -0.15787144 -0.050925273 -0.042194337 0.2051296 0.007447111 -0.029140105 -0.034380052 0.053100787 0.10237852 -0.035457376 -0.18009828 0.042075 0.3821595 -0.17121702 -0.14847374 -0.13495743 0.00205377 0.00074580865 -0.20008096 0.12826818 -0.007378414 0.03395783 0.06629423 -0.1388916 0.055619307 0.11416135 0.06720503 0.055531938 -0.11889836 -0.028551359
174 0.054380998 -0.10982243 0.21385585 -0.0727089 -0.061301842 0.059227973 -0.015060083 -0.058273535 -0.13870823 -0.0865097 0.0861218 -0.04230637 0.09847212 0.012789035 0.016858587 0.020466615 -0.03684282 0.05001836 -0.120348826 -0.1923005 0.01674092 -0.11203631 -0.1406619 0.04954565 0.004612399 0.009918532 -0.052813556 -0.09891364 -0.03629087 -0.17699775 0.010560056 -0.03989872 -0.17325081 -0.036232095 -0.033486493 0.05642804 -0.05518846 0.07309784 0.18468614 -0.08370192 0.04937098 -0.12086198 0.17364612 0.12542598 -0.18631801 0.0395039 0.1674793 -0.09726939 0.057454765 -0.029675901 -0.2219427 -0.010986352 -0.08530772 -0.03627702 0.051325087 0.036337808 -0.24890009 0.08550679 -0.08079015 0.0069220643 -0.09866847 0.15430787 -0.038818475 -0.08662258 -0.084990695 -0.08109804 -0.052880283 -0.039276596 -0.014471122 -0.0018236395 -0.0736194 -0.0041991407 0.14418244 -0.035780944 -0.28557003 -0.099312454 -0.12790717 -0.067416996 0.06662195 0.011608405 -0.058461547 -0.041311562 -0.10752336 0.026454171 -0.019691134 -0.052816898 0.15276898 0.027538426 -0.09256807 0.024233345 0.105014734 -0.09922648 0.0054478776 -0.06329587 0.015678853 0.14445469 -0.10936812 -0.11956376 -0.06403331 0.028364658 0.041493103 0.036557242 -0.10406945 -0.01839602 -0.047648683 -0.14380096 0.23171492 -0.0011661035 -0.14777349 0.11655242 0.124925785 -0.08433588 -0.08339493 -0.0630833 0.0974029 0.108821645 -0.13381518 0.05435889 0.06426649 0.041661173 0.1613664 -0.02932567 0.12634175 -0.0583022 0.03262025 0.009502972 -0.051960055 -0.06487564
656 -0.05550843 -0.019966701 0.07491704 -0.07321793 -0.14564152 0.25529897 -0.0028134293 -0.0057919207 0.08950665 0.09669961 0.03795068 0.07852232 0.06675023 0.017522318 -0.15600835 -0.06300808 0.047452014 -0.1349905 -0.089612916 -0.18002634 -0.08318184 -0.10518836 -0.1597283 -0.048658088 -0.2085673 0.11310883 -0.049995787 -0.05035031 -0.04562142 -0.15550908 -0.044256486 -0.14763696 -0.1733202 -0.18389487 0.04497786 0.10846473 0.08814335 0.035631567 0.1012791 -0.1633517 0.037669603 0.041616447 0.21822107 -0.059987303 -0.09612307 0.08448012 0.07401654 0.082274966 -0.05534705 0.1454999 0.09399482 -0.012880038 -0.02186403 0.016407192 0.012126417 -0.009642451 -0.016108364 -0.083015285 0.022573996 -0.18642099 -0.049236868 0.11805318 0.020384159 -0.053662807 0.03791833 0.09892187 -0.06591138 -0.048973117 -0.086306944 -0.1247111 -0.004591634 -0.11173523 0.2270128 -0.06055023 -0.04361655 -0.092376694 -0.07427345 -0.04431748 0.00037045355 -0.017784756 -0.1313872 -0.040805418 -0.12478161 -0.12888208 0.02969388 -0.10197999 0.15510254 0.05826541 -0.12007906 -0.13367982 0.009588315 -0.11561768 -0.015737433 0.086541034 -0.0307167 -0.035529803 -0.0053619538 -0.15484637 0.039865047 -0.05873044 0.0811333 -0.022728108 -0.071439505 -0.03573313 -0.05779215 0.043912 0.2333961 -0.08803666 -0.035384722 0.089572966 0.28622508 -0.074191146 -0.18586902 -0.116473585 -0.06160804 -0.22202574 -0.16965915 -0.071413204 -0.09383167 0.24273446 0.16758437 0.14592686 0.1423417 0.07621885 -0.1150709 -0.044288166 -0.14606526 -0.029351328
320 -0.05595028 0.04216845 0.119604856 0.12002748 -0.008072641 0.10964093 0.004408715 -0.11833678 0.035292026 0.061853196 -0.043026727 -0.10122979 0.03597647 -0.005359146 -0.020318508 0.029963255 0.020095443 0.010613097 -0.14965329 -0.13583656 -0.06848318 -0.05354415 -0.15959182 0.2424495 -0.06481626 0.0114063695 -0.06267379 -0.082778685 0.01971905 -0.21552534 0.00084099 -0.029642342 -0.08470026 0.10596594 0.029241081 0.09579492 -0.15468429 0.053207405 0.12287776 -0.19679704 0.010483311 0.008272876 0.16756158 0.14956373 -0.19721429 0.0727528 0.25142935 0.09040932 0.04164928 0.07241575 -0.13759132 0.06609232 -0.082367174 -0.11346317 -0.0012803326 -0.039363608 -0.13121638 0.026077082 -0.14112736 0.061257422 -0.04995529 0.13415858 -0.04844867 0.033442054 -0.031173695 -0.039855197 -0.0013737433 -0.08495019 -0.059850827 -0.12816095 -0.000845659 0.022782587 0.0509846 -0.08334121 -0.19955128 -0.08704517 -0.08098929 -0.14112076 0.04685342 -0.0029572707 -0.14079395 -0.064661525 -0.1499268 -0.03792263 -0.02128759 -0.0049372017 0.105488114 0.001120915 -0.03285557 0.07382198 0.13141677 -0.0062776664 -0.090295576 -0.025018517 -0.037745077 0.21217194 -0.09853162 -0.021170672 -0.104136966 -0.019345235 0.10605695 -0.04048445 -0.07564642 0.09084304 0.0017785542 0.10208394 0.06996565 -0.030005226 -0.14520241 0.044478092 0.2154117 -0.09054639 -0.030093478 0.019140538 -0.008437424 -0.0053477464 -0.12697285 0.02740306 0.0075311437 0.093286656 0.15122455 -0.00061062933 0.043332107 0.02579571 -0.014290211 -0.021518 -0.036130108 -0.080736846
151 0.009427196 -0.06101311 -0.031729154 0.018095909 -0.16503948 0.028354928 -0.19725074 -0.02622575 -0.038585808 0.06703464 0.005450973 -0.15546781 0.2536476 0.016115272 0.10894931 0.13465105 -0.08829902 0.143719 0.022997344 -0.10781588 -0.13986163 -0.1690224 -0.11450856 0.17231528 0.048638154 0.04122737 -0.036772273 -0.077860296 -0.024071665 -0.056059577 0.0009449818 0.018070225 -0.09938764 0.067107566 0.14371678 -0.08559265 -0.100262865 0.038100634 0.09039479 -0.116662964 0.20154674 -0.068415254 0.19476254 0.26889408 0.0017380455 0.048387032 0.055513147 -0.04791061 0.15833843 -0.03745114 -0.17986609 0.13421027 -0.062351886 -0.09290393 0.033585403 -0.14189109 -0.32192132 0.10600618 -0.07919524 0.07891079 -0.15140297 0.084458075 -0.030859532 -0.006209033 0.012164242 -0.076971784 -0.025412569 -0.016120212 -0.15718089 -0.06423733 0.098622076 -0.011507577 0.13951422 0.015657753 -0.17149471 0.04754601 -0.04542988 0.041500285 -0.042410623 0.0543923 -0.016725637 -0.07853101 -0.15569538 0.10204112 0.086082645 -0.066109404 0.16343208 0.04706912 -0.041880477 0.037986342 -0.034605872 0.18983923 -0.16071953 -0.13389753 0.07527521 0.06954433 -0.068326235 -0.15456162 -0.025867827 0.071017034 0.10069991 0.06643669 -0.20051368 0.0018342803 0.044429287 -0.06834853 0.04717257 -0.027574828 -0.16639225 -0.028380554 0.14721322 -0.10684599 -0.122565344 -0.011894034 0.041681163 0.16242683 -0.046122015 0.0389695 0.002542612 0.060281657 0.102169715 -0.11893934 0.109350406 -0.0049073375 0.16939518 -0.041862562 -0.17083272 -0.16754162
396 0.011569039 0.09282799 0.1432587 -0.08771982 -0.067377076 0.06883154 0.0068422547 0.017731601 0.081010684 -0.035710894 -0.016582951 -0.025190184 0.10936927 -0.07344186 -0.009907852 -0.04051197 0.08575302 -0.016363325 -0.0986054 -0.21835671 -0.04149743 -0.017913986 -0.14555424 0.0119178025 -0.10822947 0.0031693717 -0.0067308936 -0.18516167 0.02800711 -0.16322367 0.10118704 -0.03160904 -0.16856508 0.00029337907 0.028247487 0.11802392 -0.027467433 0.026705347 0.11285598 -0.20870495 0.079659626 -0.05955534 0.12183526 0.0515356 -0.09405874 0.016186971 0.066794336 0.07324281 -0.014394953 0.0019903765 -0.0019758646 -0.035561286 -0.12846872 -0.024048172 0.09830356 0.042876784 -0.030204624 0.008739643 -0.050534036 -0.09121734 0.11552909 0.13785106 0.009893119 -0.16952412 -0.020316409 0.036899842 -0.0164447 0.009394627 -0.021664128 -0.086238936 -0.06824039 0.024823036 0.06744842 -0.08046605 -0.045589928 -0.076828696 -0.17076625 -0.050379258 0.14150281 -0.019190814 -0.15294607 -0.019789329 -0.055109207 -0.13625464 0.0766359 -0.052981064 0.025274146 0.01081601 -0.0493655 -0.054224107 0.085088775 -0.06072666 0.033284727 -0.0118183615 -0.011359694 0.20699267 -0.036637317 -0.18975164 -0.020040866 -0.1329709 0.020018019 0.04111481 -0.04075296 0.005266641 -0.05111059 -0.04649093 0.20653632 -0.1785557 -0.09923003 0.12983233 0.2266675 -0.10012969 -0.13696365 -0.13191804 -0.064513475 -0.14474347 -0.044628195 -0.017323785 -0.07433398 0.17222667 0.18760762 0.040601335 0.15332444 0.065908656 -0.04322537 0.06958874 0.044262275 -0.17953566
551 0.15219451 0.01455383 0.21248764 0.023333319 0.08941515 0.12812395 -0.07816026 -0.03094495 -0.026995718 0.19225396 0.016433397 -0.0021844523 -0.025040582 0.18718307 0.10668159 -0.11553995 -0.02011038 0.032585442 -0.081037894 -0.19389054 0.028012961 1.963229e-05 -0.08460492 0.055963 -0.06989013 0.161237 -0.045102865 -0.15189846 0.17824003 -0.36840713 0.090091765 -0.11408119 -0.14496432 -0.14905608 -0.011801847 0.07351296 0.11019702 0.029441435 0.12798958 -0.15781891 0.09126441 -0.19541879 0.06184102 -0.017217176 -0.07692289 0.019903047 0.18026468 0.06207703 -0.11399506 -0.057759155 -0.024370827 -0.030089324 -0.04541941 -0.119346246 -0.11206526 0.0059462604 -0.15855423 0.010900632 -0.07626982 -0.047182754 0.07018189 0.17778713 -0.051215395 -0.052688524 0.082652085 0.14616217 -0.22759432 -0.03239693 0.036349256 -0.1293996 0.033111136 0.06633782 0.20852202 0.011325701 -0.04392343 0.048563957 -0.23929174 -0.054215387 -0.005840728 0.086972766 -0.13829322 -0.24533696 -0.14074679 -0.13926719 0.0850017 -0.085256696 0.09064437 -0.106607966 0.030921135 0.094496906 0.11555097 -0.0066473917 -0.1348465 -0.05729812 0.12621267 0.2734339 -0.09817443 -0.10497978 -0.10997525 -0.09386681 0.1639511 -0.064626165 0.0045702807 0.10261577 -0.04622086 -0.000804762 0.23500183 -0.08144082 -0.09578393 0.1210168 0.116940044 0.0036612719 -0.076856405 -0.017644648 -0.041884497 -0.09816634 -0.067910664 -0.054628067 0.025647989 0.2286176 0.0280763 0.18800762 0.12226307 0.090926714 -0.028644934 -0.032700386 0.040834133 -0.09837222
296 -0.032257803 0.025374446 0.07786311 0.061418932 -0.090318315 0.076807745 -0.015603573 -0.042482015 -0.03743913 0.0575499 0.060653377 -0.18631476 0.14089502 0.03957056 -0.012986813 0.018845337 0.026919747 -0.04835488 -0.07411399 -0.18773532 -0.036503922 -0.07144933 -0.19880447 0.13345735 -0.041217882 0.041861407 -0.041027687 -0.15560593 -0.037895463 -0.1516306 -0.08859463 0.02729776 -0.05969292 0.0473683 0.04811739 0.05146917 -0.1957265 0.028308475 0.17931664 -0.11774505 0.070542626 -0.0048035625 0.13356048 0.12594643 -0.20549725 0.07012172 0.2154205 0.014116009 0.0005666834 0.054082382 -0.13315736 -0.0050960686 -0.09715842 -0.031106662 -0.0010100728 -0.091258876 -0.19087742 0.050382808 -0.16905275 0.04920404 0.04444177 0.14539224 -0.025416277 0.009827255 -0.12057745 0.026723828 -0.026045006 -0.032827802 -0.08098549 -0.0854541 0.0034581062 0.007194452 0.05530441 -0.043402396 -0.100555405 -0.057216484 -0.100207366 -0.10741738 -0.023909964 0.025889741 -0.012454405 -0.015661353 -0.04551149 -0.056804094 0.0048718313 -0.08012765 0.03138927 -0.08194674 -0.072513096 0.013383724 0.08329006 0.06497699 -0.06812661 0.02056808 0.030143615 0.22842903 -0.057232436 -0.13820933 -0.04563341 0.011366861 0.09786986 0.04079125 -0.063223384 0.08616212 0.021919489 0.05785933 0.08031321 -0.035582863 -0.08255985 -0.028007658 0.19158965 -0.102553934 -0.03033054 -0.02718377 0.013674285 -0.06408941 -0.08054836 0.0833092 -0.012789299 0.114742175 0.20388184 -0.027813157 0.09717784 -0.031267308 0.08571654 -0.023067081 -0.09576595 -0.2134574
420 0.007722591 -0.0033590628 -0.034817982 -0.018163616 -0.19684495 0.035991244 -0.17077819 0.01774181 0.2031372 0.0045856256 -0.020118076 -0.09166543 0.11922662 -0.06517373 0.13381624 0.036168963 -0.040953077 0.025108734 -0.13028948 -0.14886917 -0.21029519 -0.06741123 -0.19375014 0.085526116 0.020200213 0.081974804 -0.041887924 -0.08835212 -0.064465396 -0.12236196 -0.0036154746 -0.0802843 -0.118446276 0.12122089 -0.016999327 0.06070784 -0.16897906 0.12981462 0.24773717 -0.20444293 0.10186713 -0.055323098 0.108084045 0.20657378 -0.22793207 0.10776282 0.18035373 -0.026279176 0.09352091 -0.053954676 -0.16438052 0.10011991 -0.034532905 0.008138472 -0.015321591 -0.19510898 -0.1719036 0.008865133 -0.17769727 0.067458384 -0.06773979 0.16314219 -0.07681226 0.00699403 -0.07961984 0.03145273 -0.03687402 0.005199706 0.08680593 -0.16427211 0.054500632 0.013096086 0.091431886 -0.1489308 -0.02778772 0.11516838 -0.051300798 -0.069224 0.10066509 0.047494873 -0.06360624 -0.088503584 -0.121104866 0.01471419 -0.021511696 -0.07490559 0.043533776 0.037547916 -0.07230693 -0.109887846 -0.0005037958 -0.019587025 -0.07265878 0.017143426 -0.017454624 0.15693635 -0.060409088 -0.07490667 0.025450502 -0.0027189103 0.078180365 -0.032041267 -0.15424527 -0.06457462 0.049592573 -0.07523336 0.0816072 -0.04786273 -0.11787199 0.028445322 0.16583909 -0.08031994 -0.0317092 -0.06523255 0.07152831 0.036298044 -0.06495606 0.048312258 -0.037739165 0.13669825 0.11922806 -0.10527546 0.07589016 -0.007884653 0.11669673 -0.07270346 -0.18281059 -0.17934473
24 0.009127653 0.033130366 -0.005963508 -0.066678695 -0.037191723 0.041514516 -0.074647464 -0.104490474 -0.021360856 0.10864899 -0.111228414 0.0075267837 0.16368741 -0.07584336 -0.1064435 0.11097947 -0.15366308 -0.07227285 -0.028833322 -0.15997331 -0.077775925 -0.1473583 -0.14967401 0.26777908 -0.08850217 0.11472437 -0.055792876 -0.20030917 0.09492644 -0.11561706 0.032835927 -0.13100235 -0.12643968 0.07653266 0.09256812 0.18674275 0.11720772 0.1601657 0.056267537 -0.17946629 0.1516946 -0.124342196 0.06682069 -0.016680613 -0.1055131 -0.035675056 0.18979585 0.08651708 -5.7738907e-05 -0.00878807 -0.17822236 0.03151964 -0.0699632 -0.084114194 0.0022276407 -0.039180342 -0.19390923 0.15041003 -0.11127213 0.11154958 -0.06908254 0.11513312 -0.0058319666 0.1202933 0.04209864 -0.07765594 0.012655813 0.07126338 0.0070706983 -0.1939664 0.1087778 0.023128184 0.0064374567 -0.07387783 -0.22930835 -0.117932655 -0.16054922 -0.1491623 -0.000249489 0.10698641 -0.16985811 -0.07000174 -0.05169132 -0.055069342 0.04073287 -0.09221629 0.066356406 0.10433829 0.0647677 0.07445077 -0.096090324 -0.020517997 -0.08453526 0.0062231985 -0.03364755 0.2827699 -0.11008809 -0.01186775 -0.14328554 0.030788356 0.08954173 0.0057768356 -0.017397258 -0.025156626 -0.03551293 0.06380865 0.070656344 -0.124725096 -0.15081723 0.039934445 0.33901405 -0.16844611 -0.09372575 -0.103831306 0.11787455 -0.0014396642 -0.0532022 0.08740455 0.0374427 0.04144784 0.049573623 -0.14227812 0.059822347 0.07926607 0.044921946 0.09607224 -0.090873286 -0.051608615
653 -0.07775702 0.08841219 0.09205725 0.06544471 -0.08985949 0.075243644 -0.09511175 0.13623689 0.029052954 0.034982476 -0.010715717 -0.06521514 0.10371011 -0.04259681 0.043930553 -0.045773506 0.10035981 -0.0087035475 -0.10294873 -0.2588472 -0.05525654 -0.06874497 -0.120327115 0.17085692 -0.05507804 0.05802645 -0.010889011 -0.07907301 0.0409423 -0.11010458 0.012483212 -0.054832403 -0.121884 0.03707492 0.054228038 0.0015001785 -0.20619793 0.04129851 0.063884936 -0.101238616 0.1320504 -0.0058456445 0.060789485 0.04541082 -0.13841626 0.0049749026 0.0971782 -0.003790982 0.08206858 0.044531517 -0.09707809 -0.08482045 -0.0485022 -0.06889085 -0.011189372 -0.032877557 -0.10866551 -0.046177756 -0.09069905 -0.009143368 0.017301433 0.15714802 0.016602796 -0.12827142 -0.045186613 0.00756097 -0.07407172 -0.04137805 -0.047370777 -0.04240275 0.016177008 0.0034466407 0.13555971 -0.038861364 -0.010330731 -0.099450685 -0.08522511 -0.015057765 0.09112503 0.058145918 -0.04684075 -0.029352698 -0.11571197 -0.093843386 -0.01103165 -0.04571303 0.016816523 -0.010672291 -0.09577167 -0.075151466 0.06075488 0.056070775 -0.04627112 0.02517957 0.042819064 0.21791652 0.0026245608 -0.14749137 -0.033004854 -0.031328876 0.10823706 0.007201001 -0.054717604 0.08746226 -0.10761425 0.044265933 0.13320044 -0.074363574 -0.1169144 0.061395407 0.20615506 -0.11656523 -0.12029008 -0.07077661 -0.007396882 -0.07680804 -0.1582873 -0.096333176 0.037102565 0.107288286 0.1537766 0.019009221 0.111193836 0.018507771 0.009900795 -0.04798918 -0.080671415 -0.18762532
233 0.08278655 0.12515445 0.13508856 0.04601137 -0.03694656 0.10786668 0.023701144 -0.04441658 -0.063663 0.05283269 -0.004676266 -0.05311677 0.026136242 0.056537688 -0.027417947 -0.06434753 0.088135675 -0.003928402 0.0077909897 -0.17255637 -0.0065854574 -0.027386028 -0.1626253 0.06963548 -0.17324162 0.043793745 0.039647784 -0.1786548 0.06267067 -0.18929696 0.106509894 -0.10477662 -0.22907543 -0.05990786 0.010413422 0.12448701 0.07351465 0.056220945 0.13735417 -0.12927711 -0.027987096 -0.047853608 0.10391142 0.004824131 -0.22662611 -0.027610738 0.16905998 0.06702876 0.040971376 -0.00050721155 -0.14011165 -0.021724362 -0.03491314 -0.058268655 0.039342143 0.00797546 -0.1519955 0.042903446 -0.057997048 -0.06800063 0.036207553 0.17827526 -0.0233696 -0.05620314 0.05894117 -0.054595657 -0.013896489 -0.00593584 -0.014755837 -0.07099748 -0.018654628 0.08501161 0.050315525 0.022122087 -0.12509689 -0.07418813 -0.2050332 -0.08368102 0.11475527 0.09299935 -0.05834962 -0.116954945 -0.07606915 -0.12959106 0.0319207 0.0005289875 0.099239856 -0.0006389373 -0.060416088 0.06581422 0.061233576 -0.05031782 -0.08499428 0.046695188 -0.05504481 0.23041603 -0.04297285 -0.05187585 -0.06463735 -0.0945018 0.11015462 -0.06679608 -0.038373645 0.0042925985 -0.13390592 0.028643463 0.16137192 -0.11633119 -0.1174071 0.18925609 0.23642804 -0.09330602 -0.10115061 -0.12388664 -0.04186048 -0.049835175 -0.080702566 -0.054948013 0.100989975 0.075540684 0.06397108 -0.020545134 0.1561129 0.08614899 -0.0555826 0.044093713 -0.035501827 -0.15938734
78 -0.04935695 0.053779922 0.09288134 0.08720389 -0.1008992 -0.01175587 -0.08869826 0.12638596 0.09200452 0.02848715 -0.025314434 -0.069279574 0.06874656 0.037175223 -0.00550205 0.017976362 0.10812963 -0.044431288 0.005762374 -0.26534933 -0.06396895 -0.036291257 -0.1054767 0.16270187 -0.06790144 0.028781667 0.005668345 -0.11611608 0.073603325 -0.13388021 -0.007924865 -0.012801159 -0.15188277 -0.03714366 -0.027864138 0.050204106 -0.12647386 0.029731376 0.13770235 -0.10483722 0.10678581 0.009280037 0.06979236 0.04676666 -0.13890755 0.10172596 0.09929762 0.033905927 0.08858502 0.03279605 -0.11092071 -0.05986867 -0.030742481 -0.04579555 -0.06509118 -0.042526685 -0.12982321 -0.07484346 -0.11203432 -0.016663743 -0.04765024 0.11138845 0.01714004 -0.105601326 -0.076388955 0.02275887 -0.038580667 -0.06289881 -0.055808563 -0.06331935 -0.014587005 -0.014466991 0.051810928 -0.038808294 0.016027411 -0.05873591 -0.09715432 -0.08417956 0.05314455 0.015431001 -0.097574316 -0.034527726 -0.056532055 -0.10500249 0.033743568 -0.029818265 0.008259822 -0.051532723 -0.09975862 0.0032272772 0.11347901 0.02429818 -0.06115336 0.011715857 -0.033863064 0.20830205 -0.05306765 -0.13688613 0.016300628 -0.03308775 0.08044757 -0.0036535421 -0.092773564 0.089951105 -0.012753955 -0.016610488 0.11477108 -0.09567375 -0.079769515 0.1308346 0.266023 -0.041788552 -0.10339707 -0.09008735 -0.034428902 -0.12253593 -0.05783143 -0.11050903 0.047775917 0.1248313 0.12778166 0.036855362 0.11646057 0.02971744 0.042722657 -0.010353276 -0.0892418 -0.22806983
268 -0.23325849 0.5097321 0.344177 -0.07277935 0.29402572 0.5941225 1.6478689 -0.17552413 0.18859449 0.25288802 0.5394753 -0.92327887 0.31455636 0.17220543 0.31036422 -1.2813588 0.74774396 -0.25123623 0.5858358 1.2310475 -0.15090619 -0.2648278 -0.17201227 1.2337223 0.38540313 -0.015156242 -0.94269645 -0.31052813 0.14796583 0.91587347 -0.39319563 -0.0392163 1.9925866 0.79381496 -0.018784419 0.57024467 -0.4793566 0.2691084 0.23255393 0.6045112 -0.054483756 -0.085732765 1.093756 0.47897184 -1.3500575 0.7968684 0.48239124 -1.4843762 -0.7460922 -0.092441805 -0.8838828 -0.41414964 0.009301462 0.07205286 -0.9189078 -0.81919724 -2.1636405 -0.7243799 -0.6344728 0.30170736 -0.10602771 -1.3834163 -0.58243793 -0.56111395 0.73309636 0.12806726 -1.398696 -0.82917726 0.3104723 -0.38846833 0.3115711 -0.1394712 -0.4017124 0.5445287 -0.67043054 -0.15164426 -0.7953037 -0.9325396 -0.2576513 0.34548077 -1.3108481 -0.54223794 0.19555867 0.7242584 0.10407663 0.7711116 0.43012846 -0.31210795 -0.238183 -2.053958 -0.025102057 -0.40985087 -1.4615568 -0.58970106 0.55493265 -0.7883928 0.8362366 -0.9395715 0.041803956 -0.32795197 -0.29379 0.84573317 -0.92082614 0.48457056 -0.13240041 0.49973437 -0.30096537 -1.2134396 1.0642111 0.6478039 0.9780409 0.6295892 -0.46772096 -0.7428415 0.119037196 -0.4047601 -0.39084694 -0.873224 0.8499234 1.2674212 0.37860417 0.04330176 1.106149 0.05335518 -1.3007843 2.624893 0.476667 0.3401048
485 0.49710357 1.0268085 0.398898 -0.21873441 0.007664741 0.7414327 1.1358511 -0.15936579 -0.14987278 0.20976582 0.21770968 -0.5478189 -0.04946883 -0.38662887 -0.23238705 -1.2862078 0.070592575 -0.17901897 0.51776624 1.3675283 -0.1624057 -1.0235366 -0.6056922 0.8373699 -0.016124653 -0.4636017 -0.87495846 0.041223142 0.035771072 1.0176867 -0.31326893 0.49198353 1.1894563 0.06289653 0.057806514 0.4518064 -0.56046146 0.4526739 -0.20385092 1.3129992 0.5268054 0.2416072 0.9306866 1.1419107 -0.4443866 0.48847237 0.70178705 -1.097451 -0.3241576 0.06107794 -0.22516234 -0.7222186 0.1910164 -0.30330503 -0.5318366 -1.000256 -1.7320223 -1.039909 -0.53362733 0.062749706 -0.126689 -0.65416 -0.59219766 -0.86126524 0.6296522 -0.38779986 -1.3601398 -1.502836 0.14857541 -0.38477752 1.0658648 0.09134991 -0.49396086 0.36068025 -0.05476667 0.00072045694 -0.80726 -1.5150026 -0.66194487 -0.40506437 -1.5295128 -0.5003189 -0.050279126 0.6933224 -0.21743226 0.45246524 0.5375809 -0.28975776 0.48356196 -1.96386 0.019157944 -0.24068944 -1.9481766 -0.79386735 0.026525725 -0.95951295 0.13995004 -1.7744004 0.21059111 -0.14674182 -0.6170844 0.75100696 -1.3697158 0.40562633 0.053167187 0.5896898 0.15396239 -0.56687945 0.85412747 0.6489803 0.9446144 0.77749115 -0.18118362 -0.577758 -0.3617227 -0.113624796 0.01736714 -1.20874 0.5339609 1.4008951 0.63792807 0.24182616 1.1412779 0.41872156 -1.1938703 1.7945005 0.31593034 0.25162154
867 -0.24538839 0.6916204 0.27447057 0.09441666 -0.33678016 0.7174515 0.98792005 -0.8466917 0.17935655 -0.47537413 0.81357205 -0.44364482 0.46509662 0.24580002 -0.14039114 -0.27907494 0.5044267 -0.29589832 0.61422527 0.8379411 -0.016281396 -0.77554923 -0.9633341 1.0541263 -0.29174095 0.14190917 0.4983938 0.5124361 -0.23381484 0.92702323 0.28503996 0.39442024 1.4334912 0.0751981 0.36813167 0.14222415 0.08309323 -0.06830737 -0.20404796 1.1760652 -0.013960099 0.1785174 0.96490914 0.65505797 -0.5203911 0.97202283 1.0250602 -0.96205926 -0.7346738 -0.35690463 -1.316863 -0.4018222 -0.23194572 0.14961436 -0.12569913 -0.67945284 -1.9533405 -0.9174788 -1.1485538 0.06319832 -0.261351 -1.4351286 0.2074842 -0.89265436 1.2754089 -0.11575566 -1.1042242 -1.3878524 -0.106327675 -0.862665 0.29022878 -1.0129982 0.14166613 0.43358994 -0.13804775 0.27787793 -0.2287646 -1.1803217 -0.1042708 0.37198502 -1.0653359 -0.7530126 0.7893381 0.1363139 -1.0337454 0.79336214 0.33881015 0.16994321 0.38252875 -1.7371335 -0.04748952 -0.43583488 -1.5872527 -0.689476 0.1732477 -0.6564599 -0.11310923 -0.5184968 0.93678427 0.21103169 -0.43139637 0.46239427 -0.8434759 0.9524407 -0.64017904 0.74253047 -0.26574028 -0.8735808 0.7241588 0.29321423 0.66858387 0.9518131 -0.53145057 -0.045081567 -0.3896747 -0.67634857 -0.9228347 -0.88392824 0.43818396 1.2191826 1.1924084 -0.31995136 0.85166526 -0.76374376 -0.34835356 2.6563818 1.2052809 -0.18581961
374 0.040766176 0.7539951 0.6565873 0.087006375 -0.41716418 0.6223043 0.76451075 -0.29843557 -0.47641012 -0.23177248 0.091701396 -0.79615074 -0.06999607 -0.28433672 0.20502894 -1.0393386 0.6523399 -0.002387116 0.60772914 1.2510741 -0.18725377 -0.5470464 -0.24254699 0.3608979 0.019396404 -0.42283833 -1.1365203 -0.1972064 -0.15472409 0.6390596 -0.46606407 0.5388453 1.3861811 0.38306266 0.21011807 0.5101927 0.22106393 -0.06173544 -0.0020365736 1.1389621 -0.17325202 0.33119157 0.64991844 0.7507905 -0.57062703 0.8095449 0.9003864 -1.0278438 -0.55807334 -0.14299336 -0.46309242 -0.6813526 -0.10634727 -0.39893422 -0.31850016 -1.2231765 -1.8897365 -1.0296311 -1.0938771 0.065137476 -0.4148179 -2.067778 -0.18199661 -0.25464064 0.9288833 0.02324418 -1.599855 -1.1513506 -0.044679377 -0.4881522 0.7425196 -0.21508165 -0.005838992 0.16508389 -0.27288485 0.015371609 -0.6933423 -1.4608635 -0.3291939 -0.41136327 -1.6100256 -0.20763138 0.2671399 0.5600792 -0.5332064 0.62378335 0.27233645 -0.21115403 0.24317904 -1.9458295 -0.249941 -0.05237168 -1.6057074 -0.74036866 0.24589512 -0.74925154 0.75212556 -1.1908908 0.31025723 -0.037545737 -0.4435795 1.1179194 -1.0106602 0.69528073 -0.08205982 0.76802903 -0.14975323 -0.61496925 0.14512366 0.9061737 0.8805971 0.51130545 -0.45338416 -0.7828069 -0.9221498 -0.14507869 -0.36086366 -0.9650889 0.8814043 1.0441312 0.7823335 -0.15735914 1.0304484 -0.060173597 -0.7814145 2.0788543 0.81869704 0.59879893
958 -0.38642228 -0.21763384 0.339927 -0.1527781 0.16765422 0.42598936 -0.45426372 -0.29509184 0.32173082 -0.14281833 -0.39126378 0.09632446 0.45735335 0.48344135 -0.013499268 -0.17700432 -0.29536173 -0.043679588 0.26969332 0.039146 -0.5737887 -0.42265785 -0.42881855 -0.42112377 0.22758655 0.42924303 0.14829409 0.19282307 0.13270468 -0.12665391 0.25833878 -0.019677958 -0.42926446 0.2833588 0.43777865 -0.13651696 -0.20663847 0.41162667 0.68787587 -0.16376457 -0.09243208 -0.065056 -0.6235088 -0.6005794 -0.5426253 0.30432054 0.015335096 -0.26359072 -0.045999806 0.35741088 0.5034671 0.097572535 -0.6445201 -0.0975932 -0.08713424 0.3112697 -0.27388555 0.43472722 -0.02794577 0.34659904 -0.10567163 -0.12279532 -0.14549662 -0.5380296 0.04916386 0.09560712 -0.2148848 0.27344748 -0.31201413 -0.3205393 -0.05084039 0.3313103 -0.48994896 -0.045362476 -0.6426467 0.031115383 0.13978073 0.35310543 -0.14841989 -0.07819261 -0.14303064 0.17682013 -0.008981239 -0.062165022 0.30307615 0.15853067 -0.06845297 0.46095553 -0.19220378 -0.14562626 -0.07161774 0.04564629 -0.4772227 0.057712168 0.02642251 0.5445933 -0.27574944 0.100999705 0.047804195 0.10803555 -0.2461301 -0.30045775 0.082722485 0.296392 0.2083089 -0.29071796 -0.2922081 -0.24342734 -0.19470263 0.31231138 0.75761604 0.397785 -0.229749 0.102321856 0.2592582 0.009980024 0.2911681 -0.42972514 -0.09576669 0.24900255 0.10787695 -0.33134604 0.024276515 0.7956017 0.43464026 -0.06560045 -0.10535469 0.18682757
699 0.028458819 -0.009315622 0.15263551 -0.051796865 0.0061064702 0.058111124 0.021132853 -0.049093496 0.08143096 0.016576396 -0.09828016 -0.030864932 0.11243758 -0.09514059 -0.027039617 -0.0021179602 0.087791234 -0.097815335 -0.25828075 -0.17039451 -0.14966266 -0.10953676 -0.3048701 0.12843403 -0.07223874 0.06284104 0.08352122 -0.1731541 0.014680819 -0.07642617 0.102902144 0.0030358965 -0.0102064535 0.19229957 0.07087494 0.09039092 -0.11922218 0.13122146 0.17062905 -0.24730432 0.1283851 -0.01302453 0.07695195 0.06721444 -0.039377995 0.1614516 0.1411685 0.055827875 0.008367878 0.00830007 -0.026437799 0.010897767 0.009818309 -0.006988619 0.045405034 -0.0921479 -0.10266741 -0.013465962 -0.15078716 0.12482742 -0.020449946 0.1161322 -0.05895506 -0.12992297 -0.02700648 0.022259153 0.054185126 0.005804502 -0.026675493 -0.14017385 0.03471623 -0.06694755 0.0075920993 -0.15960279 -0.07580961 -0.18944113 -0.09307443 -0.16416444 0.09707543 -0.101779856 -0.14087814 0.058534153 -0.08390291 -0.101415865 0.03602428 -0.15903197 0.057382464 -0.06256507 -0.09195219 -0.04874294 0.01916832 0.014075955 0.042994566 0.055333775 0.03201779 0.13660371 -0.028109584 -0.00988693 0.007084481 0.027387753 0.07258569 -0.052575 -0.04741722 -0.057808086 0.05791798 0.10412709 0.13985284 -0.07285895 -0.1135394 -0.025125142 0.21075317 -0.062226485 -0.018435974 -0.14049408 -0.019331321 -0.07937397 0.017808625 0.0042848988 -0.09138791 0.17382343 0.2670819 0.025602099 0.10181558 -0.06696999 -0.09377285 0.005374808 -0.0910596 -0.1868332
216 0.07539351 -0.012269653 -0.044195883 -0.029730376 -0.1382437 0.0124598835 -0.18418339 0.11461706 0.13526261 0.08767135 -0.05418354 -0.13948417 0.13424805 -0.09441687 0.04075187 0.039099023 0.023855548 0.011641639 -0.058694877 -0.20206982 -0.14202148 -0.05268864 -0.17816508 0.10023628 0.026771244 0.06504632 -0.004104725 -0.16168547 -0.024936307 -0.012416904 0.08679476 -0.07760138 -0.16215117 0.10032406 -0.0131100565 0.013142903 -0.17352772 0.12975794 0.04102412 -0.15597314 0.08484375 -0.074716665 0.059531204 0.21661533 -0.2655608 0.07549016 0.06403316 -0.034509353 0.080554456 0.024155077 -0.25037366 -0.025293631 0.0801539 -0.123243056 0.0047098366 -0.076154955 -0.124018066 -0.008097556 -0.15358661 0.0015301044 -0.0748841 0.14774337 -0.11900846 -0.17484719 0.047704324 0.07017469 -0.0732988 0.022608176 -0.009585746 -0.10288628 -0.008088444 0.03476654 0.016896991 -0.0929241 0.069548555 0.09837496 -0.10851224 -0.10484383 0.13243344 0.060686555 -0.05520097 -0.07287476 -0.014069448 0.07953616 -0.044138882 -0.02818123 0.005968891 0.050411455 -0.023250073 -0.03486041 0.046707023 0.0063994685 -0.043203503 0.08307297 -0.014492363 0.17151222 0.0672823 -0.12653996 0.064555496 0.042391423 0.17246014 -0.06000188 -0.08683277 -0.052838344 0.017869465 -0.007338947 0.092509694 -0.070418954 -0.2014103 0.05425252 0.13643803 -0.059731476 -0.24362086 -0.08249319 -0.028165031 -0.012208619 -0.010112128 -0.08713699 -0.016808141 0.25840712 0.029596237 0.00553395 0.19851051 -0.02506203 0.06907976 -0.16746308 -0.13235545 -0.20702623
15 -0.03414499 0.026795538 0.16922453 -0.0031742577 -0.05817029 0.2888724 0.093249105 -0.10228543 0.19439532 0.16325702 -0.014282045 0.00042984314 0.02051532 0.027696388 -0.20117037 0.010202817 0.13467877 -0.01785476 -0.09446428 -0.15136997 -0.104755715 -0.044174828 -0.102631554 0.16503906 -0.2538499 0.117680565 -0.08292367 -0.08905277 -0.11568825 -0.078739464 0.021919148 -0.17764077 -0.16557465 -0.1420263 0.033021946 -0.004082017 0.032962225 0.049011555 0.060151253 -0.17881699 0.009666261 0.119152546 0.14039354 -0.0950696 -0.11323628 0.12108596 0.11896567 0.14762495 -0.0041829427 0.10807926 0.01472413 -0.10464231 0.032410428 0.10836639 -0.07807594 -0.0017763862 -0.0077111823 5.1655523e-05 0.0077887396 -0.039744224 -0.085703686 0.0992303 0.043018304 -0.042095564 0.08108609 0.06810871 0.022130242 0.08569927 -0.093855195 -0.10017664 0.046165783 -0.13602151 0.19859648 -0.10881589 -0.082911916 0.011133538 -0.059553724 -0.13588355 0.09279994 -0.077179596 -0.08050249 -0.12353225 -0.0637018 -0.082018316 -0.10385697 -0.029065803 0.12652741 0.051333956 -0.07411689 -0.06389462 -0.044693537 -0.06850141 -0.244876 0.014048729 -0.13691278 -0.029219216 0.012904938 -0.020365737 -0.04067464 -0.119187854 0.030948177 0.10941186 0.0046127415 0.02244767 -0.08683296 0.025658295 0.14072219 -0.05797628 -0.05890754 0.04739279 0.28660038 -0.104337715 -0.1401132 -0.06113908 -0.23320265 -0.07330115 -0.17153797 -0.12545566 -0.09959471 0.10031032 0.24138066 0.046975844 0.11900646 0.0141615765 -0.054515168 -0.13821968 -0.15448435 -0.05820367
861 0.00739245 -0.1160349 0.04245892 -0.018710168 -0.13683233 0.13628896 -0.04611056 0.21487461 0.04650252 0.11804455 0.114291474 -0.042783536 0.14953333 0.09745173 -0.10192292 0.013480669 0.050629362 -0.017206267 -0.051188365 -0.30324796 -0.070966594 -0.12929863 -0.052477032 0.14891662 -0.072745554 -0.0066837594 -0.081054784 0.10246924 -0.07759939 -0.2014954 0.043499734 -0.15796089 -0.26529145 -0.21414377 -0.040446546 -0.103563614 -0.042204875 0.04146993 0.121652365 0.00859485 0.1522798 0.07703285 0.0818716 0.032757822 -0.13232517 0.05837835 0.09661189 -0.053427294 0.08583224 0.0077939252 -0.05852862 -0.07595483 0.022892624 0.27232867 -0.18380022 0.030663578 -0.18595308 -0.019949012 -0.060778555 0.017710363 -0.12912898 0.083022416 0.04487311 -0.011124829 -0.024498045 0.030065414 -0.045060083 0.105856314 -0.16716519 0.014684281 -0.09785055 -0.16706406 0.24679682 0.016620917 -0.07423767 -0.0055206013 -0.034607295 -0.041038536 -0.046312656 -0.0007856436 -0.04981474 -0.03583133 -0.10803023 -0.009707483 -0.07553488 -0.019222593 0.17081346 0.078780495 -0.120794035 -0.09017756 0.050524313 -0.07113792 -0.16739811 -0.010173535 -0.08156034 0.029727293 0.017078763 -0.11826065 -0.0017278082 0.015583055 0.048982847 0.11524966 -0.12009597 0.097500235 -0.057075053 -0.032852724 0.10140987 0.027065618 -0.11482858 0.15691717 0.31705776 -0.04036546 -0.06158109 -0.0708355 -0.14083034 -0.036823288 -0.3022114 -0.13927534 -0.09704924 0.25746956 0.20266186 0.05674069 0.075749956 -0.020806475 -0.018496167 -0.17495245 -0.10016796 -0.022520596
184 0.08827398 0.15384263 -0.106942356 -0.029154783 -0.119405925 0.08488697 -0.0043151905 -0.006776348 0.0005890142 0.10121556 -0.05969469 -0.027095323 0.24668944 -0.03683515 -0.06573736 0.107921615 -0.047633678 -0.07629367 -0.03460591 -0.24926496 0.11966345 -0.049542107 -0.08609134 0.12991951 -0.17255726 0.16175419 -0.06601121 -0.13054857 0.12621321 -0.13743551 0.026614891 -0.049132254 -0.15478893 -0.081628904 0.16345672 0.09427147 0.08300846 0.08292094 0.048001867 -0.11221979 0.17339818 -0.14104715 0.12997913 0.033863597 -0.10313615 -0.052001562 0.051948857 0.0300635 -0.021939531 0.057040513 -0.18590958 0.0044507985 -0.119843714 -0.055470448 0.010505236 -0.0012739452 -0.19399646 0.14898336 -0.030378047 -0.033741087 0.04051664 0.14329927 0.04727841 0.008278772 0.0599239 -0.05546156 -0.003277675 0.119383864 -0.07866509 -0.08256375 0.0047898437 0.0899119 0.15807734 0.060084175 -0.09146737 -0.04781885 -0.12677644 -0.035152864 -0.018041622 0.057393033 -0.14891627 -0.10527975 -0.06022666 -0.087157756 0.097499155 -0.16741991 0.06855959 -0.0185679 0.060130868 0.017926807 -0.057900812 0.07732458 -0.1447569 -0.10128624 0.09317945 0.2990127 -0.14823207 -0.17858998 -0.03655657 -0.10833819 0.0068749306 0.03041262 0.043533392 0.016969271 -0.19259734 0.047672942 0.05680624 -0.17695296 -0.08522378 0.12640499 0.2990053 -0.23117462 -0.13250692 -0.095357515 0.029823616 -0.058117654 -0.043263443 -0.089696705 0.06778345 0.032180358 0.1127714 -0.1663024 0.1596002 0.18854362 0.032326292 0.16036648 -0.060987998 -0.22815561
772 0.10737204 -0.08588196 0.049991976 -0.24362624 -0.15095504 0.05168864 -0.093894824 0.1401121 -0.011681715 0.066847146 -0.19674185 0.04065148 0.29074878 -0.011710213 0.067708656 0.06794584 -0.16434385 0.008697194 0.16363035 -0.042164076 -0.07814373 -0.09098467 -0.1441835 0.035097282 -0.18838297 0.06864991 -0.026999433 -0.10898806 0.038859054 0.032956988 0.100039154 -0.06988952 -0.102174096 0.13588367 0.17095958 -0.061502673 0.008995576 0.03999993 -0.0013980254 -0.25660515 0.01034656 -0.0159922 0.09721666 -0.007247935 0.011855274 0.11388618 -0.15745714 -0.03388858 0.03497419 -0.085789755 -0.13848844 -0.04963323 -0.066057324 -0.17881465 0.15942547 0.07406946 -0.2272835 0.020427935 0.056363408 -0.0300004 -0.04328733 -0.051571295 0.022409255 -0.14465149 0.009652281 0.043311488 0.05636338 0.13916387 -0.05048164 -0.095829085 0.040432233 -0.054855563 0.12432747 0.0105023375 -0.001176939 -0.029225817 -0.08773503 0.036062263 0.044952177 0.07587083 -0.0820387 -0.15681413 -0.0778851 -0.019740392 0.08059069 0.05277855 0.07116009 0.037081398 -0.0146675 0.020713054 -0.09634581 -0.039217856 -0.08432686 0.0051305746 0.008541661 -0.074262425 -0.07543354 -0.10442449 0.028296795 -0.0178783 -0.0017674911 -0.080688834 -0.14043763 -0.041982893 0.07903579 -0.14190792 0.08543013 -0.20907593 -0.07024947 0.03751216 0.111940764 -0.008111801 -0.0968551 -0.14097908 -0.015959598 -0.089292124 -0.041688018 0.036854096 0.15122272 0.17199267 0.059437573 -0.0066268784 0.103442766 0.15417148 0.15669642 -0.078566775 -0.030972673 -0.005100597
840 0.09604762 0.00012174623 0.099256106 -0.079472624 -0.06710958 0.04270597 -0.07590368 0.11915522 0.009476998 0.060476985 -0.025986854 -0.037226353 0.061892867 -0.13255495 -0.037097193 0.025363456 0.03279822 -0.036351897 0.039986275 -0.2944008 -0.0689015 -0.05027956 -0.14493799 0.1069241 -0.018447002 0.13829301 -0.025474295 -0.20694584 0.018653776 -0.10682515 -0.019527858 0.018325502 -0.18484506 -0.0390461 -0.006156969 0.11052514 -0.05320216 0.24128091 0.096913114 -0.113795884 0.057619542 -0.15508537 0.1342975 0.049371928 -0.1393396 -0.028630605 0.09731398 -0.11335673 0.01246389 0.0077626226 -0.1652138 -0.05588205 0.022369891 -0.09825954 0.059960976 -0.021173744 -0.124222584 -0.004652625 -0.092393115 0.0008022273 -0.039045766 0.16215923 -0.014337686 -0.12668733 0.00761861 0.025745211 -0.039960165 -0.012059023 0.024523469 -0.16164485 -0.06466438 0.060675822 0.0878747 -0.063999355 -0.10227278 -0.05088185 -0.15640597 -0.1332994 0.13130622 0.034278266 -0.0556353 -0.044007532 -0.032678694 -0.08601808 0.07426513 -0.049646705 -0.023814479 -0.049149208 -0.010038969 0.025356427 0.06024589 -0.084793754 0.057615142 0.086564384 0.0032659261 0.21946022 0.055821564 -0.17604214 -0.0018908741 -0.052414224 0.12930949 -0.01807348 0.0011641881 -0.053438272 -0.04508163 0.008035793 0.21492378 -0.09602283 -0.2008359 0.1813285 0.17226008 -0.045335967 -0.20671076 -0.10486128 0.09389114 -0.07860635 -0.052268747 -0.07045293 0.008406531 0.08604005 0.14294574 0.05651936 0.2359769 0.09624145 0.03978828 0.04252982 -0.022317696 -0.16211268
12 -0.09215306 0.06286726 -0.10834237 0.023064155 -0.057869732 0.056423467 -0.078263864 -0.03389749 0.06106669 0.06641844 -0.029269336 -0.092972375 0.14140922 -0.013217543 -0.023501536 0.16117541 0.00983777 -0.054429118 -0.08165768 -0.2360364 0.025096016 -0.022361929 -0.09054018 0.29519922 -0.1820929 0.08904613 -0.007990443 -0.06103371 0.035581134 -0.08812953 -0.025055747 -0.038551975 -0.028485108 0.029129568 0.14788352 0.11034949 -0.006814019 0.06758661 0.004345602 -0.081317745 0.17853265 -0.040225156 0.02593725 -0.024282895 -0.08464953 -0.0254642 -0.009908774 0.11266987 0.12025825 -0.00018498956 -0.15013012 -0.055367213 -0.08157209 -0.037847314 -0.12096171 -0.019188214 -0.1927919 0.003691174 -0.027834488 -0.017087663 -0.09692447 0.120925516 0.023553044 0.05381603 0.06455821 -0.033438664 -0.02963569 0.029040618 0.002330881 -0.10283106 0.115312494 0.0039052146 0.15710017 -0.12508856 -0.07458213 -0.13622415 -0.063629106 -0.12668581 -0.01921804 0.07114481 -0.1541555 -0.11726311 -0.13993202 -0.06017239 0.122616425 -0.029450195 0.04888243 0.035648793 -0.06914879 -0.00054335734 -0.09036856 0.015128732 -0.29607514 0.03355228 0.048988536 0.23357067 -0.09674154 -0.057567656 -0.11665485 -0.15642416 0.08732749 -0.054196604 -0.12460716 -0.04798854 -0.10613997 -0.0103895655 0.11005062 -0.108314976 -0.17085579 0.108127736 0.29547748 -0.19305357 -0.094822645 -0.030561674 -0.07627983 -0.030838676 -0.04777176 -0.14658022 0.047576956 0.075272076 0.07706749 -0.11314388 0.047967654 0.16255055 0.078591935 -0.018201545 -0.113919534 -0.11538125
378 -0.08196786 0.069922164 -0.057144914 0.086243436 -0.176861 0.039150797 -0.20231466 0.017678536 0.046132464 0.19044057 -0.06792925 -0.029679976 0.24713592 0.012194105 -0.06618285 0.034931384 -0.097551696 -0.04917295 0.00027948237 -0.1809429 0.06073731 -0.14073901 -0.08947726 0.24296033 -0.037534807 -0.059477035 -0.010184169 -0.15401901 0.089252956 -0.03835359 -0.07626616 0.040173467 -0.011043134 -0.0047077485 0.18249151 -0.061312392 0.0077733328 0.01052785 0.054233834 -0.14682303 0.11417939 -0.10060899 0.14926851 0.061548334 -0.0911695 0.034189474 0.027010921 0.030686323 -0.0036329327 0.09097347 -0.11211449 -0.06840572 -0.06305176 -0.0820712 -0.083231404 -0.13753784 -0.16770647 0.01940306 -0.10025203 -0.06864204 -0.06454549 0.13287455 0.09339606 -0.01263352 0.032334413 -0.022050867 0.030773494 -0.08427831 -0.14383827 -0.08119933 0.1363907 0.0006106564 0.15166575 0.018329337 -0.07253803 -0.16298997 -0.027163954 0.0265861 0.014460247 0.03486861 -0.07082683 -0.0845965 -0.119731136 -0.02408337 0.08108878 -0.19579484 -0.004282914 -0.042607777 -0.1300364 -0.062941276 -0.019349689 0.10561937 -0.16688593 0.023485359 0.17289667 0.21284372 -0.06746372 -0.147821 -0.0022165712 -0.08193782 0.10513485 0.061531246 -0.09250282 3.394192e-05 -0.06312636 0.066053644 0.08253157 -0.05050586 -0.059150703 0.03606906 0.23890536 -0.0735657 -0.13175222 -0.07167009 -0.026003158 -0.061836567 -0.09887243 -0.06743639 0.06790651 0.14803617 0.1112607 -0.032860294 0.12520657 0.15124922 0.09758933 0.034136396 -0.047158014 -0.17708363
581 -0.10523971 -0.034425244 0.14874284 0.1447042 -0.12500298 0.052218527 0.028756468 -0.06884114 0.033721898 0.014725279 0.035546266 -0.06136813 0.115540005 0.02627749 0.07555892 -0.009782337 -0.09925649 -0.15085226 0.011281261 -0.16422462 -0.059132148 -0.076294884 -0.24333748 0.08127281 -0.06021875 -0.046394195 -0.09956382 -0.1398862 -0.0484826 -0.10724004 -0.06406776 0.0146691445 -0.07303294 0.07585514 0.005912386 0.07277544 -0.24935563 -0.043369427 0.15682207 -0.08475504 0.072531216 -0.023890244 0.11462999 0.1080023 -0.12173613 0.17338303 0.21771635 0.10086861 -0.010361656 0.12480832 -0.20895119 -0.008246437 -0.18525843 -0.06732931 -0.04292282 -0.14578032 -0.24906038 -0.013940087 -0.1305118 0.04713743 0.040553007 0.10321841 -0.042278733 0.0028224962 -0.040960826 -0.009091995 0.027768578 -0.0008488903 -0.009990452 -0.121726915 -0.037461292 -0.031101746 -0.031284112 0.0142909 -0.016577216 -0.08655386 -0.15188868 -0.042087015 -0.029051421 -0.0078266 -0.014645318 0.026894834 -0.16748153 -0.012968274 -0.03201715 -0.087985024 -0.037022118 -0.10852407 0.03242462 -0.007271323 0.06847602 0.0077900933 -0.018791037 0.15999562 -0.0015602568 0.14145967 -0.10604909 -0.08062727 0.028525678 -0.061106566 -0.010874888 0.023294035 -0.08453887 0.06623059 0.04526831 0.04904124 0.1273339 -0.0583381 -0.039751366 -0.13760751 0.21530686 -0.0056820656 0.028622774 -0.010035665 0.037610374 -0.0029891348 -0.0484435 0.02602426 0.04031537 0.07304124 0.17884499 0.0014070089 0.14978926 -0.010231805 0.13887449 -0.030963628 -0.16177994 -0.10913666
802 0.016360477 -0.00022222844 -0.016741289 -0.0142270895 -0.13988078 -0.020607708 -0.17202955 -0.010302449 0.18394446 -0.012432992 -0.095912345 -0.050595973 0.14425378 0.02375762 0.05213297 -0.0882551 0.03909979 -0.03694902 -0.15024336 -0.15915494 -0.066806294 -0.02573949 -0.12516649 0.05702645 -0.047049586 0.041910082 0.053515118 -0.18157414 0.058876585 -0.11983157 0.10852987 -0.0879617 -0.10909036 0.16230024 0.017067306 0.013740906 -0.0787057 -0.00062224135 0.14480887 -0.21755487 0.10819756 0.010876676 0.14766435 0.086801805 -0.1231409 0.13207266 0.085876845 0.026676983 0.07460735 -0.01851908 -0.00697916 0.07702619 -0.088771276 -0.1198544 0.09642313 -0.07399824 -0.07171129 -0.12754129 -0.044423807 -0.0730163 0.028927932 0.19099599 0.019284297 -0.098790385 0.019326726 0.14851087 -0.14294872 -0.011466912 0.036210727 -0.1054759 0.11129282 -0.004154923 0.022106037 -0.15719615 0.110549234 0.057584215 -0.10633742 -0.0774388 0.08051321 0.060506377 -0.14554538 -0.104823984 -0.12414007 -0.017175086 0.04652568 -0.047498975 0.088591486 0.08959864 -0.13299729 -0.07806051 0.025167545 0.066872194 -0.08819994 -0.046750575 0.07635399 0.08495676 0.041342527 -0.0867732 0.17059879 -0.07968294 0.09657104 -0.023376621 -0.22579503 -0.01719064 0.020589946 -0.07483868 0.05983073 -0.049190808 -0.00016145542 0.04960368 0.18811648 -0.14365527 -0.16244228 -0.2033454 -0.11588817 -0.1366723 -0.05235993 -0.07255463 -0.04112456 0.2657331 0.1333094 0.04647963 0.15305455 0.0033285674 0.0079323305 -0.16873851 -0.10318978 -0.20811349
