144 128
111 -0.113980055 -0.08985371 -0.031876557 -0.09687039 0.22736712 0.09526403 0.057803098 0.025646202 -0.13689251 -0.04824629 -0.27387857 -0.04579685 -0.040888708 -0.25331184 -0.17602448 -0.2354841 0.029863564 -0.10707106 -0.12756036 0.0298333 0.021077497 0.10512403 -0.116581686 0.14750773 0.013348739 -0.12993984 0.015089201 -0.045161296 0.08325244 -0.066984676 0.09718632 -0.10903416 -0.0058704363 -0.11896661 -0.013710711 -0.0685852 0.077660866 0.06284547 -0.0913316 -0.30470076 0.004161586 0.04735684 0.10657028 0.16155958 0.064498246 0.034813445 0.0651111 0.12750539 0.09366688 0.14218189 -0.098807216 0.05631004 -0.24933855 -0.011620049 0.16897583 -0.17915423 0.027603459 0.07451536 0.048551776 -0.13482437 0.08188178 0.027982697 -0.044925228 0.009926179 -0.14864284 0.16200626 0.13090499 0.23239464 0.25347176 0.13841613 0.12756327 0.169769 0.041673414 -0.15315138 0.095629595 -0.1359 0.12612683 0.18785208 0.051701885 -0.24309702 0.17952043 0.004917421 -0.24282886 -0.23792996 -0.14269519 0.15455642 0.0012889913 -0.17117344 0.07809206 0.030809492 0.04212226 0.26798204 -0.23682252 -0.24990484 -0.13942483 0.37482738 0.23428318 -0.3286893 0.1509775 0.1763721 -0.2241161 -0.123652115 -0.22532684 0.18346655 0.2122335 0.17829597 -0.0014961904 0.13722587 -0.07297793 -0.048971627 -0.09183806 0.10728538 0.12469035 -0.20972931 -0.013023281 0.061414942 -0.23232923 0.14884719 -0.03559615 0.031938348 -0.013495137 -0.031794928 -0.120826595 -0.10367749 0.047182195 0.16532002 -0.0829124 0.28812605
110 -0.046686728 -0.3760539 -0.074742526 -0.015128955 0.23344952 0.054228213 0.15940195 -0.17779598 0.02839248 -0.07954626 -0.21421546 0.017783625 0.13478406 0.022930162 -0.07488149 -0.2712494 0.021754978 -0.022878096 0.038590197 -0.0070420457 0.45807824 0.10082885 -0.18292221 0.10192666 -0.23534313 -0.16042931 0.007301049 -0.027745776 -0.20285729 -0.052830666 0.028463218 8.063274e-05 -0.09452149 -0.008912661 -0.050939593 0.162383 -0.15722817 -0.06425492 0.06981915 0.0055409134 0.023060918 0.12886354 0.02791079 -0.0059853895 0.08759862 0.19857295 0.035492066 0.0022570263 0.099475466 -0.13608131 -0.2797281 -0.32193437 -0.18994346 0.042538874 0.052448984 -0.26572198 -0.019970385 0.23325059 0.078506604 -0.028058715 -0.28098425 -0.31174624 -0.18784706 0.039151765 -0.08553643 -0.10020608 -0.211111 -0.17395736 0.04794117 0.060044155 -0.076588705 0.0820095 0.107618935 0.03458541 0.05985666 -0.047019273 0.055869937 0.15199485 -0.108286746 -0.18784513 0.15121417 0.060808692 -0.049774814 -0.07368099 -0.08846922 -0.02781858 -0.007404722 0.036090214 0.2824761 0.045242395 0.19135186 0.24241349 -0.044505127 0.11585382 0.045715388 0.1309699 -0.031256273 -0.101417586 0.09567743 -0.22279711 0.24959897 -0.029716393 0.011203221 -0.08123955 0.1290257 0.09749865 0.064719535 0.025408005 0.07768447 -0.2856437 -0.31720176 -0.13738036 0.09369349 0.10390741 -0.09976294 -0.08077616 -0.14482386 0.11249797 -0.13899203 0.047150943 0.09071153 0.018903814 -0.24128772 -0.034349136 -0.029481707 -0.10711273 0.16110556 0.059005946
124 -0.072625116 -0.38720807 -0.13939866 -0.01872444 0.07748335 0.12248902 -0.029121848 -0.026896985 0.15433994 -0.09123892 -0.057146624 -0.07793845 -0.08280867 -0.14698948 -0.10784051 -0.30887887 0.056227855 0.17977309 -0.048963428 -0.21834888 0.038628284 0.113098904 -0.114647426 -0.006677378 -0.2589117 0.012190622 0.11018981 -0.08156014 -0.10236901 -0.29816747 -0.051528666 -0.13365047 0.018756367 -0.11143423 0.026078086 0.16318125 -0.21914986 -0.20004745 0.024196222 0.10094995 -0.034766126 -0.033329878 0.12033428 -0.05309915 0.04445204 0.08237284 -0.14258264 -0.16552314 -0.122717455 0.0623075 -0.023235297 -0.1315423 -0.107203685 0.088556394 -0.13782287 -0.16934337 -0.09736182 0.124225274 0.084996715 0.20461062 -0.07946993 0.047339093 -0.12795703 0.1502655 -0.21190903 0.0024469607 -0.11974347 -0.022985177 0.16657135 0.05868591 -0.06851686 -0.013483858 0.10772456 -0.21431047 -0.19623327 0.30740982 0.073446736 0.14502637 -0.21716762 -0.20896555 0.12051778 -0.03823406 -0.16557279 0.10749938 -0.09051016 -0.06340255 0.22837216 -0.12216252 0.0006739019 0.07713478 0.098162115 -0.090803616 -0.061882194 -0.062238384 0.28328663 -0.07546926 0.07289274 -0.007327977 -0.043561865 0.027083844 0.12569813 0.016827015 -0.113621555 0.13725899 0.19445263 -0.1863648 0.13094 -0.013870948 0.18284546 0.06273003 -0.017571915 -0.120595105 -0.037748147 -0.21955778 -0.09198245 0.15556608 -0.1590111 -0.2590083 0.16587995 0.060378186 0.14310068 0.16259521 -0.008579279 0.08018419 -0.14608455 0.09908657 -0.0766169 0.27726915
131 -0.080725074 -0.2269504 -0.06259242 -0.15754071 0.17932883 0.05845071 0.13324021 0.22555283 -0.03472439 -0.20913681 -0.12882245 0.14026052 -0.06512004 -0.109983236 -0.079708114 -0.19495037 0.09764634 0.08401764 0.06827061 -0.23205166 0.05083991 0.1607076 -0.050658256 0.076772474 -0.013998051 -0.19378887 -0.00929603 -0.052006878 -0.06508046 -0.2256028 0.016397264 -0.040096488 -0.107464805 -0.2523901 -0.12169996 0.16290505 -0.1938544 -0.29419324 0.046662986 0.09071703 0.08236096 -0.100582786 0.021264136 0.13133472 0.079544306 0.08232647 -0.08096435 -0.16780917 -0.0052283197 -0.0004697741 -0.05783238 -0.020005826 -0.15670817 0.014185557 -0.048539475 -0.20538191 -0.0028173674 0.12945753 0.027986856 0.09844796 -0.276929 -0.06610592 0.054885797 0.26449376 -0.0701015 -0.008895208 -0.24002664 -0.035826936 0.013032555 0.08261843 -0.051023275 0.14058347 -0.0034093743 -0.014167204 -0.28572965 0.058114927 -0.13453798 0.048896167 -0.02754082 -0.26570946 0.091174886 -0.029934926 -0.13750605 0.16770099 0.07466325 0.12945102 0.08704339 -0.086321004 -0.03865838 -0.020825172 0.18490128 0.030801754 -0.18288586 -0.0482835 0.2707402 0.079102255 0.17821716 0.017149903 0.21188828 -0.17221107 0.22298521 0.018066099 -0.12893386 0.09928534 0.08593204 -0.15379663 0.09734247 0.23734811 0.18576121 -0.14498845 0.0682635 0.04725893 -0.06602437 -0.14700297 -0.05181633 -0.020049209 -0.14302437 -0.11269772 0.10670676 0.044459473 0.085246906 0.1448329 -0.038338482 0.044470135 -0.12339884 -0.03018949 -0.054799896 0.12633777
123 -0.059710335 -0.17525151 0.107580446 -0.033402793 0.16583326 0.14530288 0.20664382 -0.12914726 0.067068905 -0.202991 0.099796996 0.055021595 -0.070208184 0.12967575 -0.21068457 -0.0055356678 0.052156515 0.09703976 0.0428692 -0.018160298 0.009076667 0.2212327 -0.08192537 -0.096745044 0.07238236 -0.12679245 0.1196669 0.098892815 -0.06569456 0.024627518 -0.05116675 -0.024805047 0.028750489 0.07297473 -0.03239324 0.12707576 -0.21048763 0.006787074 0.10440079 0.056045897 -0.06784302 -0.075819366 0.027186086 -0.0042741057 -0.06467541 0.052318264 0.24554883 -0.22375473 0.03241541 -0.18946312 0.0816888 0.0060216268 -0.099258386 0.031282622 -0.012342526 -0.15737827 -0.11293996 -0.02171421 -0.07862246 -0.03560765 -0.11288574 0.10937936 0.02355768 0.18199156 -0.04277984 -0.1391519 -0.26076683 0.04295608 0.052598596 -0.16278675 0.15995575 -0.06418067 -0.041901086 -0.08564373 -0.022368865 0.012202441 0.017381487 -0.107762374 0.14584528 -0.016465263 -0.029827757 0.053466156 -0.24038148 -0.00034346274 0.12822416 -0.015880253 0.04694993 0.101458214 0.10409076 -0.07089506 -0.007602942 0.12418415 -0.2176434 -0.18162546 -0.25148675 -0.059740845 0.01138524 -0.1540459 0.15805805 0.25494683 -0.10488778 -0.032952946 0.13736431 -0.083082974 0.24450001 -0.07887707 0.09511988 -0.109143965 0.012416207 -0.098366894 -0.02768774 0.060107376 -0.00097503175 -0.0019439738 -0.15859838 0.075147495 -0.055513397 0.10136388 -0.08117403 0.18385324 0.04319545 0.1259338 0.08175423 -0.00576219 0.19775838 -0.004667703 0.05543689 0.00694825
119 -0.13907935 -0.18622667 0.25090033 0.15172209 0.0621251 0.14132507 0.15438107 -0.06210819 0.03264217 -0.2574869 -0.008072188 0.08695833 -0.1202789 0.03890067 -0.14667256 -0.020405458 -0.035055466 0.0837362 0.237433 -0.19955152 -0.008361977 0.19512159 -0.16453625 -0.1338632 -0.027475333 -0.12960339 -0.03748555 0.17748046 -0.13881229 0.16262932 -0.15806232 -0.027705643 0.07073148 0.033416457 0.033242177 0.1658877 -0.001247084 -0.016408306 -0.21234031 -0.0022101274 -0.34046942 -0.03587962 0.12625581 -0.05943656 -0.092100434 0.01949121 0.103993565 -0.19827509 0.0042394786 -0.12358263 0.021601886 -0.07783832 0.021794917 -0.035671253 -0.060634162 -0.23058276 -0.13917702 0.034409475 -0.11285483 -0.083461076 0.07086582 0.22063914 -0.12244882 -0.05948185 0.035633612 -0.051462077 -0.24618553 0.016097937 -0.07883202 -0.054031745 0.1305914 -0.059615586 0.009858158 -0.115270086 0.07305951 0.12198717 -0.023636416 -0.09858206 0.12904383 0.045563668 0.23832421 0.11773606 -0.03560853 0.12038569 -0.10271145 5.678844e-05 0.13981563 0.04278587 0.12625203 -0.015300955 0.11105908 0.1401561 0.0305687 -0.14417963 -0.24788299 -0.039602347 0.114820816 -0.17139237 -0.025711127 0.09525987 -0.20304872 -0.027106177 0.1076152 -0.015930807 0.26838502 -0.06589817 0.06436813 -0.102574915 -0.038653247 -0.0015402999 -0.020040527 0.08107502 0.039529774 -0.09318516 -0.17476474 0.21199025 -0.069585435 0.20960705 -0.101089396 0.103756815 0.0047647296 -0.042360574 0.094126284 -0.12665483 0.10689288 0.06041998 0.041994113 0.13060439
15 0.004059246 -0.14103809 0.13933294 -0.09173737 0.0325184 0.019055178 -0.09068354 0.10108299 -0.029372415 -0.03156401 0.10914045 -0.08071367 0.008466364 0.100167826 -0.10802916 -0.120747015 -0.029900858 0.07925971 -0.015167355 -0.15595359 0.021633606 0.154037 -0.12074643 0.07613847 -0.1458677 -0.26233393 -0.21846686 0.06237896 -0.097859785 0.031927027 0.009133176 0.04080822 -0.015144731 0.06780821 -0.031953692 0.20691349 -0.14798535 -0.09478309 0.040675133 0.07906213 0.010287471 -0.008808698 0.005030717 -0.074539185 -0.11970099 0.18622835 -0.12941127 -0.1634756 0.12209821 -0.013994113 -0.056289762 0.04884127 0.12498453 0.07929861 -0.21101141 -0.17269292 -0.14789124 -0.042285424 0.04334032 -0.028817084 -0.01351043 -0.044053786 -0.10025776 0.0004457926 0.12429214 -0.017977705 0.04584156 -0.07890197 0.0922825 0.017454557 0.08602954 0.06457458 0.0046141963 -0.07788712 -0.09617563 0.065625444 -0.02980026 0.080936044 0.007701937 -0.04814386 0.048822295 0.0094188005 -0.02742124 -0.10139875 -0.033808198 0.025391998 -0.0029259035 -0.022794863 0.07622664 -0.09352742 0.0053250627 0.05919882 -0.13691387 0.024255875 -0.17737326 0.11883877 -0.023857974 -0.15560468 0.07061829 0.084349126 -0.16526215 -0.035119545 0.0116775185 -0.008064487 0.08849166 -0.222799 0.010616184 0.11440235 0.1780923 0.023981275 -0.15319394 0.03728219 -0.026097301 -0.10333189 -0.09952168 0.012813189 0.076023914 0.040656798 -0.01643489 0.00025657873 0.081178956 0.0003906621 0.14239007 -0.03158985 0.06315643 0.1668125 0.14744945 -0.044482157
118 -0.0700157 -0.33328584 0.13687047 0.23623797 0.17537773 0.09215454 0.17617081 -0.13136509 -0.085303135 0.056694694 5.1568008e-05 0.0135185905 0.0034845602 0.26489002 0.02484145 -0.17292032 0.24872117 0.102219015 -0.21540523 -0.22703077 0.0023098264 0.107024565 0.051691677 0.083658695 -0.088083625 -0.19936888 -0.18929972 0.03371222 -0.017555458 0.09496848 -0.09532768 -0.19776878 0.13713208 0.075546436 0.02505055 0.101338014 -0.13725947 -0.010277608 -0.02195638 -0.057774495 -0.10193359 0.05266963 -0.007892367 -0.018135035 0.037130658 0.022646537 -0.07408524 -0.12135434 0.11087251 -0.038511507 -0.0056484328 0.014476598 -0.10217524 -0.15537259 -0.05076741 -0.24525778 -0.20027366 0.15158015 0.04764082 0.11247116 -0.024247972 0.07916129 -0.06534352 0.021329634 -0.08891477 -0.12807484 -0.3767225 0.15060917 0.0007492642 -0.03302494 0.2081439 -0.08348013 0.12550363 -0.028586235 0.006563442 -0.24449359 0.059541885 -0.2742754 0.21645579 -0.03390228 0.1805679 0.022002097 -0.10876606 -0.1229957 0.23579763 0.10277764 0.1485304 -0.09449846 0.12409069 -0.10996084 0.2691116 -0.1428854 0.0714271 -0.001352523 -0.072968505 0.043930043 0.06161024 -0.050949506 -0.021411115 0.23172115 0.025266347 -0.10336099 0.07443546 0.030978864 0.03955021 0.07828383 0.053189944 0.045446 -0.006664396 -0.042856608 -0.028838858 0.21145014 0.04120551 -0.1122803 -0.04725372 0.019711073 0.04272106 0.114747755 0.0019898005 0.07358984 0.040301103 0.070518404 0.100031525 -0.04161258 -0.0314746 0.0024661948 -0.05278935 0.014426711
128 -0.19259278 -0.43129456 0.18270276 -0.0026118108 0.07359956 0.009919867 0.13599722 -0.0936384 -0.16374987 -0.19430089 0.08624398 0.062088806 -0.12437394 0.14520943 -0.21407941 -0.15778808 0.0024819805 0.20610729 0.041561704 -0.20796101 -0.0017979377 0.15729523 -0.22301082 -0.068052195 -0.03805387 -0.19265163 0.025499728 0.070611395 -0.020065302 0.2112776 0.017465997 -0.088359915 0.018269878 0.0974306 -0.01059854 0.07867702 -0.22130172 -0.06560613 -0.06701614 -0.07624215 -0.10842755 -0.15551092 0.11471372 -0.040931042 0.027183905 -0.049091544 0.23059158 -0.16741806 -0.041970696 -0.06624092 0.044116754 0.042888492 0.018795185 0.008507747 -0.20253786 -0.008137742 -0.15887564 0.16090971 -0.09768175 -0.047480077 0.028612722 0.25029877 -0.106094785 0.05292156 0.042444803 -0.0844774 -0.117823415 -0.0789717 -0.029536536 -0.16212681 0.06932381 0.050467223 -0.02470007 0.013060032 0.1177134 0.12162765 -0.13834438 -0.118326046 0.31214198 0.00853502 0.05047403 0.076067954 -0.07200145 0.15312341 0.015080264 0.013621036 0.1547595 0.057021465 0.16853364 -0.051334202 0.008408909 0.23437224 -0.103849486 -0.027210265 -0.22717637 -0.029446037 0.14212903 -0.06392734 0.300151 0.078179464 -0.122607805 0.0212698 0.01028275 -0.11857477 0.041534226 -0.10594825 -0.027885808 -0.0062543466 -0.094936356 0.009069596 0.05103167 0.17989363 0.0931058 0.00906839 -0.11842901 0.041818444 0.09770627 0.089000314 0.041857824 0.14307155 0.20124683 0.10112952 0.091125965 0.1023181 0.15042195 0.06872 -0.054422863 0.18632522
116 -0.23215947 -0.36299187 -0.03942876 0.0655569 0.12525839 0.072220325 0.111115 0.117001295 -0.16666095 -0.12872171 -0.24749409 0.15187359 0.16386019 0.20323883 -0.26184824 -0.20056875 0.13251325 0.102211945 0.0042505455 -0.0418672 -0.07952839 0.13157496 -0.22060744 -0.031188581 0.14304668 -0.044305705 -0.0071230843 -0.100129075 0.10973857 0.09295797 -0.13152242 -0.09131691 0.11377665 0.045574255 0.045402553 0.09197769 0.017511413 0.14998347 0.060359024 0.039028905 -0.20962363 0.01134291 -0.17724364 -0.04336211 -0.062047593 -0.053299855 -0.097250976 -0.15136103 -0.05871272 0.027612321 0.12623973 0.011947112 -0.07679953 -0.0067480397 0.018006822 -0.16492362 -0.23479277 -0.026485246 -0.2500915 -0.21948567 -0.044382576 0.15472591 -0.12336576 -0.13232297 -0.07267299 -0.042307943 -0.23351932 -0.07629703 -0.00090690586 0.131106 0.03656473 -0.077500075 0.11315556 -0.17677365 -0.027510801 0.016333839 0.07947626 -0.05065012 0.08830127 -0.15716586 0.12506793 -0.047016356 -0.19581755 -0.018837325 -0.008744677 0.055423178 0.117386736 -0.04638169 0.15871118 0.032082755 0.015469381 0.086999185 0.09892392 -0.031556364 -0.1349346 0.1748301 -0.070219345 0.11631868 0.20304835 0.17126623 -0.27981085 -0.12277444 0.17034176 0.13916144 0.055884056 0.12386049 -0.18046932 -0.042868722 0.28495088 0.09680467 -0.081202865 0.18116127 -0.115851976 0.14009868 -0.17726871 -0.107541546 0.022317883 0.17162625 -0.07984399 0.4169892 0.17741515 -0.04484611 0.14674975 -0.019962782 -0.25609037 -0.16737264 0.017841564 -0.06762283
105 -0.06371298 -0.35629806 -0.017316777 0.07815317 -0.027323842 0.01617291 -0.08381947 0.007974837 0.02614165 -0.053157665 0.09794451 0.11776883 0.054282516 0.0012299486 0.001082473 -0.22530101 -0.02270079 -0.11745813 0.10640489 -0.09768937 0.06389202 0.030513352 -0.03305647 0.015712244 0.042120174 -0.1621889 0.043957163 0.048610624 0.035542786 -0.06648377 -0.083379135 0.03796486 -0.0010906439 0.03905402 -0.00934853 0.05982744 -0.02550609 -0.16588448 0.0093406495 0.0342278 -0.15417138 0.014994151 -0.08772326 -0.06234247 -0.21389394 0.16313638 -0.14107881 -0.13864568 0.072238885 0.17086054 2.5360509e-05 -0.015091731 0.07065414 -0.06443117 0.0023632036 -0.120192155 -0.21320896 0.06262545 0.06465609 -0.047449436 -0.05880221 -0.056486122 -0.063147254 0.018350346 -0.042518683 0.037252117 -0.067871064 -0.11981086 0.105792016 -0.016686708 0.03316694 0.05058673 -0.009472817 -0.11738144 -0.042976707 0.109943524 -0.07315602 0.039939947 0.013007839 -0.07512625 0.059201427 0.06172432 -0.13304776 -0.07204891 0.11088432 0.050925624 0.18449584 0.016203267 0.06778932 0.065678895 0.030949604 -0.06561325 -0.1995759 0.04418633 -0.14599283 0.15490733 -0.02994031 -0.09712932 0.092233606 0.089165136 -0.05787137 -0.13342953 0.023843737 0.15916851 0.0028943778 -0.18400566 0.0362671 0.1305307 0.007117893 -0.016388085 0.07785641 0.04858695 -0.027951261 -0.07624281 -0.12896799 0.061700556 0.068493545 -0.020799752 -0.08247739 0.0036567464 -0.041981544 -0.17682761 0.18606563 -0.05339392 -0.008624123 0.1306636 0.14892027 -0.054972265
133 -0.2867212 0.14330876 -0.25714684 0.052329026 0.039047755 -0.025387436 -0.037456866 -0.04368629 0.14535764 0.15435225 0.02021078 -0.22158198 -0.17498483 -0.06518764 -0.25873145 -0.31033304 0.011142686 0.1456009 -0.048714977 0.0011550256 0.2638908 0.025039522 -0.29862243 0.06148289 -0.25690144 -0.0152189415 0.07703918 -0.0991944 -0.051638115 -0.21594283 -0.066002734 -0.057293702 -0.07243943 -0.07847572 0.13513482 0.15302768 -0.36047018 -0.21033935 -0.030712932 -0.046612017 -0.17756617 0.15538675 0.10399449 0.018358024 -0.17190896 0.15838619 -0.2368717 0.033347636 -0.05281407 0.11048595 0.10943191 -0.122612305 -0.100199796 -0.043903966 -0.08792729 -0.07225507 -0.16593008 0.10238676 0.043671556 -0.08038905 0.072037585 -0.03560513 -0.06923252 -0.040254284 -0.071926266 0.04952819 -0.29293197 -0.027736017 0.2927525 -0.076400906 -0.1758634 -0.17544226 0.14325592 -0.07017007 -0.1144795 -0.06614448 -0.05686039 0.14673854 0.01859151 0.14430249 0.2292972 0.05709808 -0.27690542 -0.11552439 0.022696769 0.030460086 0.06913745 -0.016309723 0.12154736 0.088536374 0.054662783 -0.049137685 -0.18503526 -0.10510463 -0.17517668 -0.06456544 0.1732395 -0.16383715 0.16569519 0.04405202 -0.088912115 -0.063151695 0.3505897 -0.05204894 -0.10366615 -0.29228255 0.08871876 -0.01041831 -0.03515474 -0.0329329 -0.065664686 -0.26281014 0.057268303 -0.19287173 0.03248449 -0.06507191 -0.051738236 -0.02436164 0.15901628 -0.014109233 -0.0011836066 -0.00797681 -0.05707888 0.18982376 0.13865514 0.058705382 0.15020637 0.011138244
134 0.08261613 -0.20569862 -0.0411808 -0.12911694 0.05725642 0.17194109 -0.06779177 0.037349828 0.12865812 -0.06527104 -0.13075982 -0.1044119 -0.12818155 -0.056257658 -0.1994232 -0.20512019 0.1291298 -0.04800378 -0.0591145 -0.13644876 0.17492045 -0.04921957 -0.18806583 0.04794504 -0.083023906 -0.050428834 -0.18655272 -0.0142741725 -0.22072984 -0.16925457 0.1358352 0.05967329 -0.12620597 -0.20816815 -0.035790034 0.14125098 -0.21486004 -0.060717843 0.010452888 -0.16423671 -0.0088904435 0.29681224 0.057064224 0.07713618 -0.23977672 0.1013727 -0.15400119 0.11774516 0.0457435 0.2656968 -0.011426922 -0.13176548 -0.0068169395 0.08501505 -0.05356587 -0.26504454 0.0001254614 0.047984224 0.0682375 0.016974535 -0.25368407 0.064642 -0.1880906 0.03440231 -0.06421377 0.085424595 -0.25304633 0.10578964 0.0021978186 -0.11997758 -0.06567884 0.14126514 -0.07858817 -0.07975897 -0.048239592 -0.087695055 -0.23919071 0.0135555845 -0.0134103885 0.088880196 0.18279602 0.03229845 -0.26946065 0.11692895 0.19985916 0.1692003 0.0046635554 0.030069627 0.0892984 0.14539228 0.0962975 -0.052254986 -0.1198452 -0.042656448 -0.19833237 0.048933566 0.14898613 -0.011559916 0.13480847 -0.09582022 -0.12986788 0.03487779 0.18816973 -0.14659695 0.028578034 -0.34379143 0.09206006 -0.030963847 -0.061028928 0.027629234 0.030074822 -0.05178281 0.055093687 -0.054536242 0.09922708 0.044581342 0.05421076 0.032143787 0.09879845 0.053428955 0.18266997 -0.1482543 0.042584755 0.1341167 0.048131756 0.061286725 -0.024367252 -0.060369577
122 -0.18455254 -0.43804014 -0.2374787 -0.028883098 0.1646263 0.22726014 -0.26396164 0.2804958 0.21906394 -0.31941456 0.057034906 0.009715998 0.015977886 -0.0455825 -0.038733173 -0.090506636 -0.001468452 0.03663134 -0.20857953 -0.08191317 0.07688486 -0.033050664 -0.1356187 -0.07467169 -0.2830134 0.043598622 0.0054574287 -0.09384967 -0.090595536 -0.25540125 -0.16908354 0.046004873 -0.23966397 0.054392874 0.04683145 0.11721647 -0.33845654 0.04425396 0.15727937 0.2793803 -0.10496631 0.17614551 0.01726834 -0.017689662 -0.20187154 -0.23147963 -0.13084017 -0.25682807 0.1055115 0.11633691 0.2408961 -0.020726627 0.03984679 0.015717098 -0.048440214 -0.23003699 -0.13645084 0.09828795 0.17703786 0.019699829 -0.16634494 0.18991654 -0.011788491 0.021414293 -0.004324135 0.060420223 0.119247705 -0.06564984 -0.15303609 -0.3192521 0.052314334 0.11766605 0.045551043 0.1439081 -0.0070143975 -0.07760598 0.035047457 0.047629982 0.0527608 -0.052702714 0.13652478 0.10905362 -0.17484725 0.12875363 0.07728147 -0.03621996 0.1917714 -0.2977435 -0.008157461 0.1491043 0.19023913 -0.19712722 -0.115781516 -0.15666147 -0.10294686 -0.17808703 0.20553796 -0.07908643 0.13512874 0.09228707 0.269973 -0.087550394 0.06637881 -0.0016259716 -0.3223492 -0.09018898 0.14578436 0.15000625 -0.03469259 -0.1644199 0.083991185 0.10349058 0.14589317 0.044086184 -0.1621272 0.29062954 -0.30956596 0.1907269 0.011292022 0.008511833 0.3371075 -0.023963604 -0.1381287 -0.08324821 -0.01063407 0.19301955 0.20222265 0.07184188
120 -0.41826522 -0.2891653 -0.006034909 0.12485934 -0.073340274 0.02562911 0.24797381 0.14568138 -0.0064051067 -0.1541126 0.08193289 0.030094199 0.02959476 0.13952786 -0.0046170484 -0.12240838 0.048933245 0.0037576645 0.14446217 -0.1896401 0.07961854 0.101334214 -0.03804424 -0.28995982 -0.087395385 0.025982616 -0.089872986 0.32995176 -0.08662804 -0.07835745 0.053344008 -0.14928018 0.007905558 0.022019148 0.09069127 0.29571888 -0.29220554 0.020213393 0.078008 0.08697959 -0.26322457 -0.034228437 -0.049494553 0.044455994 -0.12542346 -0.0801561 0.096709326 -0.14181782 -0.041320976 -0.06792295 -0.12264351 0.0588935 -0.13350503 -0.07764968 -0.072276965 0.001081555 -0.00034720826 0.041042212 -0.18441407 -0.081312105 0.05859258 0.113760546 -0.008999811 -0.13767879 0.028033653 -0.10738092 0.037616882 0.0063059092 -0.0013691246 0.16658607 0.04005983 0.16989055 0.04631742 -0.09031228 -0.004962182 -0.034141693 -0.102749415 -0.0068259006 -0.033989366 -0.1353895 0.38109598 -0.0090266345 -0.13193326 0.008005658 -0.006946698 0.086124316 0.18492824 0.05699662 0.07398698 0.028313432 0.16599813 -0.02794671 -0.043621887 0.16024306 -0.24829601 0.06444183 -0.13886505 -0.074837826 0.09341352 0.09583623 -0.27736646 0.03834974 0.07433142 0.21607707 0.058887415 0.20898096 -0.067648835 -0.002506659 0.14378299 -0.08026754 -0.0016442337 0.08379938 -0.06424676 0.10736227 -0.21009558 -0.24775772 -0.04165879 0.2614568 -0.18677196 0.08665138 0.0071665007 -0.1367008 -0.034238774 -0.08089292 -0.13204667 0.11742492 -0.113622285 0.16274229
61 -0.16802235 -0.30838367 0.0799597 -0.020410337 -0.009446312 0.012326991 -0.08554486 -0.08636019 -0.026337821 -0.15527132 0.11256356 0.0031098975 -0.08622315 -0.06587172 -0.03420536 -0.11564942 0.01051461 -0.06266693 0.00074055523 -0.22173485 0.14476918 0.19920853 -0.07526893 -6.0849055e-05 -0.13846844 -0.21944983 0.052764453 -0.035407495 0.0341654 -0.091629155 -0.1282364 -0.083178796 -0.12218553 -0.012678387 -0.03660554 0.0794003 -0.063525036 -0.19807434 0.02855241 0.042576 -0.017403636 0.05205929 -0.058170106 -0.026613103 -0.15312585 0.061504565 -0.034834098 -0.17515925 0.07037839 0.13207631 0.013826749 0.103199564 0.036821168 0.07314262 -0.20606975 -0.25406775 -0.2083117 -0.056290735 -0.10946132 -0.009465319 -0.063492544 0.003502712 0.002179476 0.0074865464 -0.028241929 -0.091316335 0.040722705 -0.13710156 0.07841938 0.004005137 0.13119566 0.025137248 0.013298736 0.02525422 -0.13637878 -0.016588993 -0.14747661 -0.019084461 0.08911486 -0.06116981 -0.0055446248 -0.050428785 -0.07468087 -0.10341499 0.0028118985 0.017606983 0.07370354 -0.03915992 0.059025705 0.065486185 0.09465452 -0.067879505 -0.07116552 0.056840487 0.09131246 0.050219882 -0.029096462 -0.07589147 0.01746103 0.048579253 -0.091275446 -0.012108676 0.10531768 0.11249593 -0.08446275 -0.22885138 0.091866896 -0.0038671426 0.115773045 -0.022198755 -0.096795134 0.0117338095 0.10018472 -0.11178269 -0.105603844 0.06229618 0.11773759 0.085663795 -0.07291795 -0.048325222 -0.031899016 -0.0033290107 0.18375853 -0.03049417 0.06276215 0.23207127 0.037187893 -0.10436791
125 -0.04089683 -0.12312057 -0.010410011 0.11852508 0.029287577 0.1048388 -0.14097194 0.07524333 -0.08317469 0.03507212 -0.05169031 -0.19513017 -0.060904678 -0.05536318 -0.096584946 -0.1899888 0.26361597 -0.035514027 -0.007298056 -0.14585102 0.24599314 0.10942822 -0.19081897 -0.109671235 -0.07289697 0.013736548 -0.23792389 -0.028259499 -0.18847597 -0.21058357 0.12833813 0.21207032 -0.07958831 -0.2777986 0.10802011 0.23618981 -0.27337873 -0.20051473 -0.08008344 -0.0791031 -0.05975981 0.2737771 0.039907917 0.10206428 -0.10737112 -0.0900046 -0.0856425 0.01365396 -0.112312645 0.23343477 -0.123651 -0.0404983 0.044996772 -0.007750816 -0.08321444 -0.29625008 0.067524076 -0.016062135 0.08519686 -0.08209745 -0.19129594 0.15440944 -0.2085155 -0.083931275 -0.1249433 0.07858147 -0.3359446 0.11602208 0.040045142 -0.07667296 -0.10420711 0.10482535 0.00051813165 -0.11946538 -0.014412495 0.011806598 -0.15900673 0.10493945 0.107764974 0.036543585 0.14908902 0.17819259 -0.194956 0.042671707 0.13678786 0.1713826 0.10085218 0.01455479 0.09144471 0.24457166 0.0018351807 -0.029282678 -0.13373454 -0.09562018 -0.20882535 0.07504694 0.16318703 -0.01229702 0.07533285 -0.06212113 -0.03851662 0.0920026 0.17646375 -0.07220929 0.049385194 -0.24814837 0.09745492 -0.073608965 0.011620647 0.06026827 0.034375068 -0.06984373 0.050399125 -0.009769258 0.077190384 -0.032888245 -0.041084673 0.12721628 0.14260031 0.1601375 0.11002772 -0.013956113 -0.0035869763 0.042021845 0.14403494 0.11038783 0.042421594 -0.03866018
71 -0.0600755 -0.025624644 0.019854734 0.04543715 0.106152624 -0.12825683 -0.054892123 -0.113231 0.021597458 -0.05603444 0.082187355 0.06372418 -0.032489724 0.037723187 0.043084938 -0.034799613 0.060180794 -0.10150668 0.12601142 -0.06394683 0.08435701 0.13171332 -0.18048501 -0.09120684 -0.03580552 -0.17199285 -0.1621502 -0.10940801 -0.10037751 -0.0013810477 0.07376571 -0.04423398 0.009354937 0.112022705 0.01616567 0.17775436 -0.14012787 -0.19216092 -0.101996005 0.0910689 -0.06908082 -0.06286796 0.00060172396 -0.08121272 -0.21633613 0.09901272 -0.045209568 -0.27980423 -0.08922962 0.075614884 0.06768522 0.07378641 -0.087127954 0.1001668 -0.20389606 -0.2910359 -0.13279665 0.04735326 0.045490265 -0.063132666 -0.07869175 0.04348227 -0.07132202 0.050282646 0.02518427 -0.037436668 0.015801998 -0.046032183 0.065859534 0.008855785 0.16576062 0.05187828 0.06509125 0.012743817 -0.0027976567 -0.005895039 -0.08710569 0.09105729 -0.01893219 -0.0034391512 0.047302023 0.009685467 -0.114486195 -0.17668949 0.14784682 -0.019458136 0.049538847 -0.08273386 -0.01771191 0.21226671 0.13209091 0.020240566 -0.20155653 -0.027789766 -0.03485617 0.16072638 -0.18073063 -0.08694126 0.06648979 0.08015995 -0.12087868 -0.08246975 0.011962941 0.045492653 -0.058613244 -0.16828674 -0.04576256 0.108684584 0.11697688 0.12905133 -0.006351229 0.0058669094 -0.06417983 -0.16739462 -0.09331356 0.06443969 0.19726035 0.06741722 -0.20699719 -0.025802478 0.12253449 0.060444765 0.07529047 -0.21495022 -0.12596856 0.089005224 0.12827726 0.02352544
36 -0.13355172 -0.29493952 0.15969343 -0.08275267 0.17148985 0.113874026 0.011309975 0.015003076 -0.042838674 -0.09035687 0.284025 0.044557568 -0.11873869 -0.0019542167 -0.13572791 -0.088600285 -0.08222853 -0.005955725 -0.044254076 -0.1422539 0.09657511 0.126554 -0.035511263 -0.014317527 -0.050541867 -0.27234498 -0.04854196 -0.043530397 0.037472136 0.016816175 -0.038180325 -0.01838313 -0.07362946 0.084406726 0.046790652 0.1555752 -0.01751314 -0.055034257 -0.00016980481 0.14173475 -0.04331448 0.10188043 -0.06428473 -0.012181822 -0.1003467 0.115661494 -0.1681297 -0.104646474 0.07803182 0.05759558 -0.08727519 0.02134468 0.06109591 0.019822592 -0.23043944 -0.10918161 -0.14200023 -0.10437633 -0.05457966 -0.091442466 0.017267162 -0.0781525 0.085940495 0.05278099 -0.029837733 -0.08205171 -0.07799991 -0.13732626 0.1544107 -0.024585767 0.005371863 -0.037436206 0.0484258 -0.044824645 -0.10191976 0.020179722 -0.06580801 0.016036341 0.0372697 -0.19648251 -0.051969398 0.02932374 -0.19256021 -0.09229001 -0.028228972 0.00061010616 -0.009095336 -0.120954 0.16234156 0.0021251258 0.047419034 -0.1200626 -0.17028236 -0.044686083 0.05759667 0.007066006 -0.055715024 -0.067002974 0.10729286 0.031304423 -0.13476866 0.012189521 0.15231301 0.09484327 -0.11461778 -0.10710266 0.14514022 0.09138027 0.055190623 -0.061315753 -0.21520098 0.0042344797 0.031010846 -0.13364944 -0.08027458 -0.031155264 0.009035757 0.054044325 -0.084229894 -0.0627272 0.0018555828 0.06576558 0.17721991 -0.02660005 0.08536169 0.25099823 0.09631847 -0.07862715
117 -0.10262008 -0.2117461 0.022782857 -0.027467104 0.19714639 0.061685394 0.3087588 -0.023021845 0.056712534 -0.16883351 -0.14872226 0.103863776 -0.15895276 -0.074763425 -0.23054025 -0.16972311 0.14880106 -0.049788322 -0.006768689 -0.04458078 0.20128682 0.20535637 0.044278927 -0.11220708 0.08239975 -0.1414136 -0.12700939 0.17308706 -0.066773504 0.1296293 -0.09727484 -0.0016059413 0.17259541 0.056798384 -0.14369544 -0.059122827 0.062854804 -0.090690315 0.02477907 0.18501545 -0.15371162 0.0700669 0.004707903 0.020706493 -0.16133203 0.061366275 0.05367269 -0.09753119 0.2941139 -0.08520427 0.11813953 -0.05328935 0.1674944 0.11082284 -0.16537695 -0.06693195 -0.18231502 0.15279123 -0.16418193 0.013217199 -0.16741192 0.14999178 -0.09400576 -0.04362239 0.0032380517 -0.0020142223 -0.013277655 0.057658862 0.08077398 -0.06842593 -0.0388611 -0.09616401 -0.038482975 -0.17198837 -0.120268494 -0.026946397 -0.050966993 -0.24108261 0.14984384 0.074541725 0.23585242 -0.03602987 -0.17140965 0.08432795 0.0808997 0.024593014 0.053539246 0.13304605 -0.013011943 0.0402899 0.16601922 -0.051905744 0.020230886 -0.0017582619 -0.15492745 -0.030154515 -0.11651843 -0.15058182 0.0006813159 0.26959413 -0.20366201 -0.026627446 0.11808908 0.017516801 0.13219063 0.09990933 0.20374046 0.09003765 -0.062970236 -0.07927198 -0.029296722 0.124177955 0.06095049 -0.0071878997 -0.25738156 -0.0018091783 0.11056882 0.084301494 -0.16807416 0.06025656 0.14146636 0.034700003 -0.010009059 -0.1620704 -0.122787595 0.23844193 0.0078036687 0.20639604
11 -0.07220481 -0.30324695 -0.06513591 0.044141654 0.22379427 -0.015886031 -0.1479081 0.027621713 -0.010610103 -0.16944726 0.15169638 0.058589205 -0.05830109 0.045602404 -0.053235892 -0.09132712 0.075745694 -0.021221945 0.04775683 -0.10953648 0.1528216 0.04472676 -0.08658317 0.07330613 -0.15983148 -0.20605975 -0.095742896 -0.016944291 0.053708162 -0.12397669 0.07043941 -0.0035600758 -0.034757502 0.0039756466 0.033954356 0.124355935 -0.08584416 -0.092461385 0.079062074 0.14287412 -0.030042682 0.05985012 -0.07434656 -0.12152389 -0.11722904 0.1774024 -0.069918595 -0.12692034 0.16778022 -0.0606714 0.07832283 0.041070342 0.02161913 0.012197119 -0.00822852 -0.124153145 -0.059529778 0.026936464 0.031234583 -0.053612877 -0.086761415 0.003164558 -0.0313533 0.16268513 -0.004873235 -0.06134269 -0.10654948 -0.054555476 0.15018238 -0.050169736 0.038958747 0.058880564 -0.028917924 0.03869938 -0.0156168165 0.09905055 -0.14571682 0.025267867 0.05742007 -0.08442145 0.0594155 0.09113058 -0.14163263 -0.033728354 0.21056338 0.050830256 0.119787924 -0.0045158733 0.105977416 0.039907712 0.012562123 -0.027731422 -0.13872032 0.04109794 -0.07307285 -0.08049063 -0.0056641027 -0.138535 0.0012714101 0.078359574 -0.040919457 0.022848442 0.050477993 0.15163246 -0.11330958 -0.18835457 -0.051499005 0.08355333 0.033006705 0.044678785 -0.017006433 0.03911634 0.04543572 -0.10960885 -0.012509943 -0.046526067 0.11325951 0.009531849 -0.074333854 -0.051396217 -0.14182967 -0.09789947 0.20004413 -0.014994244 0.04155375 0.2484946 0.063162446 -0.008873309
114 -0.020525152 0.092715986 -0.0029804895 -0.04861097 -0.05620067 -0.027707875 -0.15855044 0.17775835 -0.15516421 -0.06433343 -0.020198978 -0.055407975 0.023151476 -0.03376153 0.08672704 -0.25771463 0.23427534 0.13537122 0.08219724 -0.1512854 0.05993174 0.270965 -0.16052459 0.24733393 0.046299774 -0.07305082 0.08121059 0.0374153 -0.3237217 -0.060881317 0.09827073 -0.16698737 -0.033386905 0.0322611 -0.061989266 0.11735915 -0.17160684 -0.14506069 0.14269206 -0.042265054 -0.07316073 0.082339026 -0.11338831 -0.159889 -0.05743131 -0.034104764 -0.20946126 -0.19646487 -0.036141634 0.17419383 -0.0813438 -0.095961615 0.019096803 0.17885944 -0.08833342 -0.04291098 -0.14371598 0.04963852 -0.12622039 0.04830399 -0.37723854 0.094118334 -0.025098665 0.17256398 -0.24808623 0.037019335 -0.31219265 -0.01343632 -0.028047672 -0.08504213 -0.12723207 -0.22665967 0.009513932 0.1650306 -0.018197322 0.053722344 -0.043196835 0.010532062 -0.16184008 -0.08678205 -0.042665847 -0.024227032 -0.3809355 -0.19606337 0.19646566 -0.073108055 0.22517893 -0.13146281 0.26662946 0.05187836 0.20231698 -0.1340674 -0.27213103 0.039928377 -0.07026599 0.16522266 -0.12995838 -0.021635778 -0.046994455 -0.04425574 0.024940237 -0.27458945 -0.1049957 -0.3708998 0.22017553 -0.038099706 0.006667734 0.12799168 -0.1718722 0.024267145 0.0950044 -0.045843318 0.003811687 -0.054362353 -0.23057847 0.22359566 -0.22609016 0.097552024 0.105733976 0.047381286 0.19577895 -0.1948077 0.33610773 -0.056295726 -0.19800028 0.14154725 0.2903133 0.06542826
5 0.0022993037 -0.2118409 0.061067116 0.050925974 -0.056732934 -0.104191765 0.018257316 0.102311805 0.05605529 0.020807931 -0.035436574 0.09978044 -0.0039890143 0.023096843 -0.13740323 -0.12261583 -0.056420162 0.062838376 -0.18325886 -0.059787594 0.02584465 -0.030058892 -0.10900747 0.020218458 -0.07889868 -0.027793396 -0.12978832 0.011246063 -0.15260999 -0.019706879 0.01698346 0.024955845 -0.08799833 0.020952268 0.034756847 0.18886204 -0.06431264 -0.1373048 0.10001633 0.17292571 -0.1240688 -0.03256285 -0.05727814 -0.00043376352 -0.18408653 0.08962011 -0.07388748 -0.13262549 -0.014592169 -0.07219404 -0.057031803 0.1462754 0.09978976 -0.019756423 -0.047271047 -0.16150561 -0.16054331 -0.03164347 0.0890646 -0.12932123 -0.07925069 -0.106540844 -0.09408445 0.093378834 0.035349507 -0.20677704 -0.13531093 -0.01937314 0.05760819 -0.046141922 0.03124459 0.06153527 0.06434323 -0.09989353 0.04054519 0.044873152 -0.024404004 0.05085472 0.010863828 -0.009901516 0.16843899 -0.073363416 -0.17763308 -0.074530624 0.094455495 0.14632863 0.055445455 -0.0695719 0.14932762 0.06646909 -0.0314774 0.037585843 -0.16994604 0.008558833 -0.14719434 0.057987735 0.024016462 -0.257925 0.12219487 0.17955606 -0.12631597 0.05378311 -0.10709585 -0.10372943 -0.019934414 -0.100210056 0.12049386 0.16852112 0.017828995 0.07299831 -0.046775628 0.03854444 0.035810318 0.017578848 -0.08787307 0.08445573 -0.017871525 0.031276144 -0.0016642682 0.042687718 0.09730231 0.13896202 -0.018814372 -0.053567402 -0.0006856152 0.023511216 0.085302256 0.026249256
112 -0.14149158 -0.26558852 0.20297572 -0.2542266 -0.26815554 -0.29118767 0.0452824 0.37163225 -0.06317565 -0.11546273 -0.09258118 -0.06810003 0.023792204 -0.09209145 0.10792266 -0.27370328 0.02729797 0.038732104 0.043752935 0.10813822 0.09830713 -0.14711818 0.032189816 0.05104512 0.05985422 -0.16717723 0.002867786 -0.13346198 -0.18018474 -0.29663995 0.092374146 -0.023566399 -0.09923588 -0.21467099 0.16247278 0.19185479 -0.009220701 -0.049206782 -0.1921093 -0.18309401 -0.28976268 -0.14922546 0.062592044 0.2663926 0.06172976 -0.10716008 0.005243724 0.051509503 0.10001284 -0.044578332 -0.115607545 0.2129996 -0.085456446 0.12898996 0.13065371 -0.16596287 -0.19231115 0.05310416 0.02082778 -0.002622487 0.060091693 0.021170465 -0.09289936 0.15565015 -0.12990092 0.028463248 -0.13861033 -0.12647364 0.22829065 -0.069766395 -0.09630397 -0.016739534 -0.08485873 -0.06938242 -0.08066484 0.11391157 0.04264309 -0.033316605 0.21347442 -0.30571002 0.25982717 -0.04357246 0.039802577 0.12258216 0.2822934 -0.010561926 0.32271868 -0.044532247 0.05604538 0.08682585 0.24545547 0.023753537 -0.15892693 -0.02352791 -0.090136684 0.015206452 0.14049664 0.16122168 0.13353184 0.08725322 -0.036449675 -0.13505802 0.24410592 -0.06754865 -0.23531307 -0.14781334 0.12359688 -0.07691717 0.100330986 0.12828569 0.029917493 -0.10480381 -0.08794031 -0.17821972 -0.097382024 -0.009524112 -0.10198971 0.18779217 -0.27236483 -0.0704784 0.044506058 0.18202548 0.16950113 -0.21243629 -0.20546512 0.11236301 0.2986688 0.26911628
129 -0.22533925 -0.20843734 0.2639607 0.039411668 0.005280462 0.29763183 -0.14166385 -0.09042117 -0.027208801 0.17447539 0.1942506 0.049240407 -0.047790505 -0.07666979 -0.22858903 -0.2452653 0.1514202 -0.023342663 0.04851812 -0.02805315 0.06450469 0.17234938 -0.44087565 -0.06823139 0.1664606 -0.23792784 0.0622546 0.1422932 -0.13356437 0.025840977 -0.00030583123 -0.06344966 0.036068413 0.027126553 0.045079347 0.14693427 -0.06351017 -0.102740705 0.00257575 0.10612939 -0.05673228 0.12559444 -0.091300175 -0.2089346 -0.01105784 -0.106292725 -0.08691136 0.026927445 0.047918655 0.046270285 -0.08745325 0.104476534 -0.03727302 0.16546828 0.08384513 -0.03208952 -0.14076376 0.013079552 -0.10718148 -0.16667789 -0.18576804 0.04642373 0.0021941199 -0.038201883 -0.05813652 -0.08451514 -0.22306131 -0.24202074 -0.10177148 -0.19345535 0.042064223 -0.04685878 -0.124506034 -0.13126402 -0.03393449 -0.054075636 -0.15570264 0.13505112 -0.021200266 -0.22935773 -0.0042673373 -0.0749359 -0.10183444 0.13837159 0.083025135 -0.023900911 -0.032403722 -0.066258706 -0.1282834 -0.16386414 -0.021648644 0.015368511 -0.36375543 -0.06623792 0.04865906 -0.022810316 -0.27704048 -0.12925681 0.11598455 0.23466593 -0.17126125 -0.24771772 0.10718686 0.12728944 0.0031434766 0.011256548 0.0802371 0.1477305 0.07085666 -0.13889843 -0.2166526 0.29055503 -0.0832718 -0.025371443 -0.016597996 -0.080187 0.27171907 -0.06394714 -0.025978003 0.07821685 -0.026975667 0.28803298 0.13684066 -0.13325737 0.067622684 0.04413489 0.15706009 -0.032695975
109 -0.11232432 -0.105408065 0.027959928 0.06768041 0.016065793 -0.21068664 0.1328745 0.15290864 -0.2943913 0.020089155 0.026085781 -0.28677043 -0.081911504 0.068665355 -0.2914409 -0.21377704 0.13479151 0.02075219 -0.2534067 -0.034791995 0.17843965 0.30114576 0.0122965295 0.16658956 -0.012628541 -0.2639157 0.08237833 0.0006238372 -0.18097806 0.031741086 -0.07606803 -0.20865552 -0.09968206 -0.1705841 -0.017855516 0.16680734 -0.1875241 -0.12857416 0.3827391 0.076115035 -0.22265677 0.23102006 0.06139617 -0.07255256 0.015905725 0.22404927 0.08876129 -0.2628142 0.16607325 0.01820959 0.16567722 -0.0956878 -0.25206062 0.08140938 -0.04015588 0.03630288 -0.2071351 0.41677555 -0.005178996 0.020401333 -0.15523615 0.060507767 -0.11258384 -0.08857166 0.016611673 -0.24195576 -0.15212873 0.07927361 0.21941784 0.03721647 -0.10101589 -0.12146198 -0.17724991 0.18513054 -0.1299206 0.18472713 0.060836997 0.1385127 -0.11477908 0.0365474 0.20167418 0.14758568 -0.05032502 0.030783601 0.11950931 0.1718932 -0.16310328 -0.12932263 0.0005198302 0.0049096947 -0.018395236 -0.0021216394 0.0020177579 -0.3011095 0.11929363 0.1779518 0.041211464 0.0907771 0.032400142 -0.05401615 -0.04951557 0.14644632 0.116498545 0.2853076 0.036103964 -0.13173431 -0.19393894 -0.0063199927 0.1681926 0.0132800145 0.05842913 0.18321311 -0.011075858 0.04317674 -0.06521998 -0.28572613 0.012662045 -0.004076237 -0.06603318 0.06437778 0.08873165 0.19427195 0.02342745 0.084084466 0.2489955 0.1538051 0.0023815748 0.14316069
140 0.025504444 -0.40665075 -0.05136459 -0.15710309 0.25479075 0.23505583 -0.12568402 0.008815463 0.19762091 -0.019981444 0.048790876 -0.070266455 0.26386148 0.020542014 -0.07400894 -0.33834133 0.05864624 0.12572603 0.11409488 -0.11899779 0.25554273 0.11602891 -0.22514987 0.07838292 -0.34262866 -0.16853674 0.15497084 -0.061412476 0.19491594 -0.028633384 -0.15148702 -0.048277646 -0.16791038 -0.06278363 0.13356514 0.23397693 -0.15099432 -0.129259 0.123703 0.110386744 -0.0827737 -0.022415748 -0.13047804 -0.018312525 -0.16414508 0.008907938 -0.043557 -0.06090572 0.019036321 -0.11816842 -0.29109663 -0.006304235 0.10381252 0.2679585 -0.037803292 -0.31562692 0.0048585776 -0.08866557 -0.27297786 -0.10858759 -0.10284142 0.19522622 -0.1227657 -0.07275778 0.014642159 0.1624967 -0.05840533 -0.09193387 0.16125546 -0.090328984 -0.016898233 -0.107008584 0.033580117 0.08750921 -0.0005880786 -0.12578467 -0.2110505 0.022287162 -0.007349637 0.15107952 -0.022917114 -0.43588042 -0.0021132303 -0.038589396 0.032946136 0.25507748 -0.0041458616 -0.14521044 -0.39359468 -0.007055355 0.00746354 0.026085906 -0.21286169 -0.18016823 -0.092809334 0.122331865 0.06674129 -0.19715276 0.05363026 0.005477747 -0.07030627 0.08707581 -0.18597454 0.10563273 0.0041388483 -0.25798342 0.0069595333 0.12979032 0.07269955 -0.20948513 0.01850055 -0.082526244 0.13696042 -0.073161766 0.047365915 -0.14326222 0.32260615 -0.040011834 0.084111415 -0.1452952 -0.12103682 0.16846476 0.055924322 0.06322408 0.09782471 -0.15819794 -0.062760144 0.075314865
41 -0.19268584 -0.27163693 -0.09490696 -0.008819845 0.17858644 0.014595401 0.051006183 0.024287606 0.06490272 -0.060821503 -0.035556328 0.07988515 -0.0724928 -0.11612532 -0.06027059 -0.048194144 0.00975301 0.09939934 -0.12914263 -0.03985312 0.08755434 -0.077961 -0.106809214 -0.06702983 -0.10371981 -0.11238814 -0.039783373 -0.002467259 -0.02415116 -0.041599747 0.018112615 -0.05516121 0.012141383 -0.16388434 0.0030773033 0.10372775 -0.09481128 -0.15277913 0.02177041 0.028932352 -0.054957855 -0.00670687 -0.043544587 -0.037605718 -0.15442233 0.117869675 -0.07954292 -0.01575702 -0.0014537293 0.038035467 -0.06414891 -0.05843078 -0.06095491 -0.10047705 0.014658544 -0.13315438 -0.16660562 0.15048072 0.038938325 0.036121536 -0.0027221285 0.024319138 0.008434206 0.121819146 -0.039486796 -0.123435564 -0.0631791 -0.07256742 0.06106974 -0.014323273 -0.039681762 0.07256275 -0.012768717 0.014302224 0.032742172 0.08148239 -0.047682364 0.023795662 0.09361288 -0.09813853 0.24102323 -0.05105979 -0.04084974 -0.013571402 0.16315344 0.15929383 0.09263766 0.0395943 0.09038462 0.0049097273 -0.0577999 0.014978436 -0.020357598 -0.0044617313 0.004639 0.035739187 0.045705646 -0.11672789 0.015500309 0.020262567 -0.14805457 -0.07809729 -0.010573811 -0.07606717 0.024088027 -0.10975585 -0.07511796 -0.14045478 0.08815193 0.08472071 -0.06641119 0.06404436 0.01101672 -0.17789096 -0.06587327 -0.0072330567 -0.025902852 0.0965099 -0.08433791 0.06855109 0.016106142 0.06023399 -0.044242896 -0.057745356 0.08778792 0.081830665 0.011223126 0.13288474
22 0.038293105 -0.22618452 0.12664896 0.098511815 0.1141075 -0.11294196 -0.081787646 -0.26286855 -0.06683306 0.021846527 -0.025434716 0.20637184 -0.061167482 0.079312615 -0.047594614 -0.090629704 -0.120570906 -0.06347302 -0.035098977 -0.116480604 0.073976696 -0.094161354 -0.06355942 -0.08455945 0.005950157 0.007543773 0.069944404 0.046165064 -0.03718141 -0.010407312 -0.055039424 -0.13230295 -0.039375108 -0.04106995 0.10908601 0.1088747 -0.07282792 -0.15684472 0.03171197 -0.022809355 -0.03617117 0.02147015 -0.055803705 -0.019456554 -0.14381655 0.176425 -0.03968316 -0.09827824 0.0052603562 -0.0179817 -0.11756409 0.024734532 -0.032238208 -0.036761377 -0.045282684 -0.083716586 -0.1071374 0.10556301 -0.0896152 -0.09070413 -0.04526462 0.113890536 -0.20160013 0.00871486 -0.0040855524 0.038756073 -0.15158126 -0.07650742 0.05826494 0.095466726 0.04326165 -0.0072122677 0.020643061 -0.06370942 0.1492205 0.06796084 -0.105497 0.03596575 0.10877838 -0.1310751 0.13535513 0.05654274 -0.16393171 -0.09035471 0.22537644 0.050517004 0.20801385 -0.12114451 0.025269331 0.14479811 -0.08276536 0.03969813 -0.17321146 -0.1078852 -0.020291675 0.13408892 -0.03931785 -0.066465385 0.25397632 -0.000268668 -0.06867118 -0.053950198 -0.0057904175 0.07508158 -0.015919598 -0.17037779 -0.009503322 0.1761804 0.1118291 0.06642796 -0.046003483 0.03422302 -0.055375967 -0.015376793 -0.13003552 0.06685268 -0.10756547 0.06122523 -0.117549025 0.05335057 0.057314992 0.08079634 0.059751626 -0.057373177 -0.09607509 0.046823025 0.17156267 0.10676455
56 -0.17962475 -0.35793826 -0.2619222 0.047919597 -0.046824045 -0.07095658 0.04661859 0.07625345 -0.05032747 -0.1930754 -0.0573528 0.06263458 -0.10576695 0.10999954 -0.12520929 -0.11498401 -0.021769827 0.022799915 -0.076144524 -0.0583306 -0.0074056326 -0.046280533 -0.055891126 -0.02343113 0.07496595 -0.03088846 -0.091750585 0.16538692 -0.105472 -0.12520702 -0.0042505246 -0.047565326 -0.086258724 -0.0133315055 0.019515045 0.1372825 -0.056405805 0.002610897 0.1013222 0.09546492 -0.1130476 -0.033352695 -0.09322657 -0.002371987 -0.15678744 0.20136403 -0.047339823 -0.09870041 0.0602249 -0.118354395 -0.021108856 0.07530382 0.22676598 -0.037867993 0.059766084 -0.11877721 -0.10692291 -0.007681213 -0.0057188305 -0.08165439 -0.13609289 -0.034229383 -0.11257807 0.03798675 -0.075602986 -0.1623467 -0.09886846 -0.024647042 0.20415667 -0.05153415 0.07789202 0.035351474 0.11230063 -0.09945154 0.05025171 0.006617442 -0.056288406 -0.062370013 0.025937634 0.0020055668 0.17723976 -0.08436219 -0.14943132 -0.07094312 0.05711328 0.059859555 0.22093168 -0.10657825 0.14257987 0.029222935 -0.03368955 0.055247433 -0.10327075 0.06320717 -0.1242307 0.053382542 0.06899638 -0.13845468 0.095382944 0.027629022 -0.087557286 -0.031774063 -0.13092838 0.019478202 0.15688396 0.018603431 0.02106942 0.20669597 -0.03916014 -0.1032928 0.022123713 0.15979053 0.14154707 -0.08244092 -0.025808219 0.068761505 -0.13279852 -0.0015921784 0.19026928 0.050167352 -0.013823148 0.07890243 -0.025112277 0.08293282 0.072593026 0.15410277 0.06457756 -0.010047865
88 0.053005535 -0.37322953 0.13956027 -0.034551814 -0.030606803 0.036943197 -0.14364171 0.084035926 -0.08087865 -0.021608127 0.07815845 -0.02482622 -0.07534168 -0.01893743 0.046983607 -0.055875286 -0.0024310346 0.068109944 0.18715128 0.062318645 0.17326887 0.112927996 -0.13497278 0.10077477 -0.05229106 -0.09460733 -0.062483173 -0.033763714 -0.01560236 -0.105221815 0.003559556 0.034919478 0.07267775 0.00868909 0.016239265 0.08687629 -0.2126046 -0.03773725 -0.039299093 0.023075541 -0.14428522 0.14142004 -0.021062836 -0.05872472 -0.13290417 0.13125448 -0.025800848 -0.2429208 -0.0069223973 -0.007234721 -0.13017169 -0.13571455 0.03379946 0.10071183 -0.10970388 -0.2804273 -0.088604 0.046596173 -0.028176762 -0.02323902 -0.121816635 -0.030973556 0.03291963 0.011777937 -0.054723687 -0.012593379 0.013776922 -0.007915673 0.0023045107 -0.03346996 -0.0007516252 0.0142586315 -0.036231495 -0.09511399 0.084472194 0.05431726 -0.10509409 0.07530296 -0.04990814 -0.08939303 -0.008497615 -0.014863221 -0.1697174 -0.08614987 0.040092573 0.038153555 0.03609496 -0.20284641 0.021030752 -0.096282765 -0.0015960205 0.08740269 -0.099027865 -0.12021227 -0.25559855 0.08998181 -0.11000364 -0.062171724 0.1633478 0.11014809 0.050486896 -0.09611362 0.12289399 -0.0030846721 -0.087434955 -0.24257964 -0.079354905 0.21612357 0.0067983354 0.033316422 0.09692072 -0.089175545 0.10405218 -0.15524726 -0.002673748 0.10476901 -0.0055724676 0.10199829 -0.12236689 0.09041503 -0.012972879 0.009517864 0.011797714 0.0866551 0.055703644 0.20711914 0.101092465 0.0052113086
127 0.049837038 -0.2042988 -0.058257774 -0.1615915 0.16190551 0.05846329 0.077881224 -0.03690169 0.049001694 0.045904387 -0.016750528 -0.17837122 -0.07453509 -0.10806366 -0.19706562 -0.24544281 0.022001907 0.06738348 0.10441456 -0.296623 -0.073414266 0.17186284 -0.02646161 -0.21574152 0.015468784 -0.3155777 0.035647158 0.3146025 -0.20799553 -0.03837624 -0.010159849 -0.15309481 -0.17285866 -0.07919543 0.035474673 0.23768283 -0.008459412 0.15608802 0.03150222 0.034184594 -0.196543 0.06750506 0.050623592 0.04130495 -0.28786796 0.078528136 0.19337305 -0.20095901 0.30864894 -0.090608105 -0.06583743 0.08311038 -0.11132914 -0.050441843 0.013495934 -0.0558348 -0.019112272 0.21162212 -0.12128647 -0.04594458 -0.10798792 0.0548976 -0.32256252 0.15161715 0.062342696 -0.09293511 -0.04995303 0.1273325 -0.024821145 -0.06679073 0.21688001 0.18559758 0.024533466 -0.06467343 0.03878008 0.011255324 -0.018595627 -0.16561982 0.048723415 -0.017660454 0.2575355 -0.24193119 -0.103955254 0.0753278 0.12454163 -0.0017531824 0.037680313 0.16410212 -0.035122186 -0.16342917 0.09631813 -0.18458807 -0.11218785 0.21153559 -0.28451312 0.048535354 -0.13844275 -0.17287374 -0.090748586 0.15508126 -0.13547228 0.047548145 0.08953507 0.060388114 0.15663585 0.15271689 0.04894354 -0.22582111 0.040397257 0.082025245 0.018876208 0.1021416 -0.022450889 -0.03250741 -0.118397735 -0.04880425 -0.04066669 0.0025891694 -0.1875706 -0.064874195 -0.029409165 -0.03561036 -0.017900065 -0.040251058 0.113796346 0.14079985 0.21713872 -0.03064528
115 -0.10193698 -0.40532658 0.19506761 0.20608173 0.14004888 -0.20930457 -0.15782756 -0.089949615 -0.14335135 -0.09181029 -0.048652604 -0.12843512 -0.054020356 -0.1666061 -0.10986425 -0.13539734 -0.03196355 0.009874693 -0.10113301 -0.15753667 -0.025134154 0.29653695 -0.114551015 0.11750845 0.06632314 -0.3021855 -0.17550577 0.05683774 -0.08961233 0.14928834 -0.23275389 -0.11523379 0.048416223 -0.0877759 0.18077864 0.030790908 0.01411983 -0.22184995 -0.21358654 0.049623787 -0.18806858 0.03959593 -0.067614995 -0.0532411 -0.17315425 0.02357763 0.08841147 -0.2996801 -0.16660765 -0.147121 -0.033157237 0.055327646 -0.02482742 0.22681923 -0.2009681 0.0052002477 -0.17192318 0.051379327 -0.123515084 -0.004672257 0.014670509 0.08604691 -0.03525164 0.12138772 -0.2860882 0.03775657 -0.17155054 -0.0703579 0.015400493 -0.27235678 -0.11371865 -0.06172659 0.18144748 -0.08526745 0.08491616 -0.11147642 -0.0747875 -0.079242654 0.22064868 -0.07792054 0.19625564 0.12290977 -0.0005861582 0.021473547 -0.07667698 0.114143796 0.36506152 0.15374419 0.14641844 -0.032546908 0.0007518789 0.014050787 -0.053178746 -0.023332449 -0.012525572 0.0015054289 -0.009755335 -0.26922488 0.05942447 0.032526597 -0.25745437 -0.18258126 0.18109164 -0.16058825 0.13457082 0.2117833 0.05089664 0.09870232 0.050591897 -0.048123874 -0.050509613 0.12630889 -0.13115849 -0.011648378 0.051222377 0.019600756 0.24682483 0.03759261 0.1445006 -0.08462598 0.05681415 -0.13016866 -0.09363896 -0.17038977 0.08194071 -0.08775466 -0.006546312 0.027492978
136 -0.0070640184 -0.062423825 -0.11212087 -0.24755004 0.05200719 0.15745144 -0.017904112 0.27382377 0.1883388 0.021079754 0.097727746 0.12450846 -0.044284 -0.05223364 0.08219662 -0.19564162 0.17995837 -0.179056 0.021102766 -0.13015027 0.024783188 0.14020427 -0.06815595 0.004443117 -0.03114463 -0.31237003 0.0698686 -0.09502961 -0.057920113 -0.10209861 -0.07837953 0.12930524 -0.023439068 -0.06411135 0.04425333 0.11999944 -0.31842378 -0.08110505 -0.015868997 0.10853029 -0.3086784 0.117603585 -0.1400978 -0.21103808 -0.12954274 0.086548634 0.16998827 -0.15651324 0.10242655 0.16027136 -0.11945291 -0.12235286 -0.17259698 0.10050621 -0.38717967 -0.29354575 -0.12933159 -0.09542704 -0.02025699 0.054432824 0.026925135 0.115115575 -0.01886219 0.068256564 0.12279661 -0.06637117 -0.004624094 -0.107233115 -0.0038394392 -0.19484778 -0.10037449 -0.01225108 0.042861793 0.062177636 -0.039505735 0.068320416 -0.123528466 0.10098295 -0.07839693 -0.122146286 -0.1499391 0.29168534 -0.20074508 0.05820383 0.0064955927 0.020843254 0.19395263 -0.05098723 0.036488455 -0.06306554 0.10876881 -0.106629096 -0.14500405 -0.08053761 -0.25441438 -0.050046798 0.12164482 -0.11669638 0.16961694 -0.010762486 -0.19769323 0.088523574 -0.07284886 -0.08022116 -0.12264678 -0.21694347 0.0172548 0.22656274 0.11065662 -0.000729938 -0.16207835 0.08010323 0.10631027 -0.003274677 0.078616016 0.15900281 0.1356751 -0.06162714 -0.13430259 -0.106426515 -0.1294177 0.055397525 0.26024643 0.1092372 -0.1861128 0.022096219 0.10997573 -0.012719213
21 -0.19683245 -0.25164923 -0.23286745 -0.006897968 0.0941618 -0.15083955 0.0580547 0.0062524714 -0.05582682 -0.09152804 -0.01960946 -0.09354251 0.011636173 -0.052853316 -0.004968966 -0.08926441 0.002099694 0.023387993 -0.06322839 -0.08849635 0.0735673 -0.021806257 -0.13108361 0.014633059 0.040272564 -0.0831473 -0.019840399 0.086565256 -0.057127547 -0.079763874 0.011678043 0.09273168 0.046427056 -0.1445801 -0.010518648 0.124094896 -0.04797488 -0.0123649575 0.11565341 0.07150644 -0.16312532 0.017489772 -0.08278061 0.002967215 -0.13163754 0.16349979 -0.10527949 0.008759058 -0.054318752 -0.02022752 0.046114307 -0.08521184 -0.014026061 -0.034025107 0.0043785186 -0.167864 -0.15776515 0.12693849 -0.02524245 0.024398984 -0.054218423 0.0298351 -0.15706916 0.09671498 0.03988725 -0.0024639694 -0.094064504 -0.05278347 0.0066252006 -0.04038185 0.07984566 0.023915343 -0.06581359 0.010905321 0.10556655 0.012984647 -0.0320417 0.0058346656 0.03684204 0.045696933 0.07978695 -0.05969243 -0.056079384 -0.005558223 0.13095458 0.14315124 0.12342477 -0.022224661 0.10264001 -0.055095844 0.0008670378 -0.01688851 0.053963125 -0.06502797 -0.12598968 0.08053977 0.03194829 -0.054453477 0.07256478 -0.055422064 -0.2077671 -0.21537742 -0.021729698 -0.035637774 0.10911308 -0.021560114 -0.034206986 -0.06507741 0.0019232935 0.040237878 -0.03228599 0.18723705 0.017751422 -0.12749332 -0.19665751 0.16935775 -0.105803326 0.15822506 -0.15383919 0.09095148 -0.001861762 0.060883883 -0.07952915 -0.071285255 0.050100006 0.1418906 0.14052773 0.16090553
62 -0.29329163 -0.14406252 0.021866318 0.07884425 -0.11567762 0.008690291 0.03129968 0.15722792 0.2282455 0.11699489 0.19983262 0.2714407 0.03620897 0.15572274 -0.18895209 -0.09309511 0.0012638433 0.04722737 0.09893335 -0.15730199 -0.027508026 0.06130052 -0.13813084 0.07383909 0.012464962 -0.31476346 -0.1955429 -0.11268559 -0.1668435 0.05724224 0.017033316 -0.10192686 0.06716888 0.032742545 0.027670352 0.13162094 -0.15199794 -0.0132874 0.024898734 0.020911371 -0.033437014 -0.10325624 0.022277258 -0.0104437545 -0.29409015 0.22572501 0.026540734 -0.12406939 0.12930259 -0.0009534466 -0.10782069 0.038979366 -0.00460499 0.03349118 0.067353286 -0.28565362 -0.17350236 0.09642832 -0.06901705 -0.11727139 0.013855113 0.04880399 -0.055209585 0.11906103 0.01901023 -0.0073630763 0.01488256 -0.100331925 0.16277392 0.024555473 -0.03232503 0.13380674 0.025101904 -0.10670644 -0.09617236 -0.06280582 0.11186389 0.04851327 -0.039368477 -0.040794093 0.08700739 -0.09820099 -0.08181402 -0.079031296 0.026768336 0.0018928387 0.05952632 -0.042875152 -0.006249409 0.12049591 0.113231055 -0.040676277 -0.15768589 -0.034416135 -0.12543696 0.05171449 -0.049711175 -0.16437696 -0.08317124 0.037115194 0.0014400205 0.011871109 -0.16448158 -0.05862732 0.19113137 -0.06716744 0.02299816 -0.0046517197 0.15056266 0.06318895 -0.17181116 0.18319759 0.065756045 -0.17738502 -0.044398636 -0.16998743 0.14762844 -0.14026088 -0.068050385 -0.0030949423 0.21421114 0.18101853 0.06886081 -0.112495326 0.028501784 -0.0034876904 0.10668397 -0.08072831
135 0.102067 -0.071923874 -0.13144222 -0.034913614 -0.06253313 0.13818865 0.018978048 0.24720612 0.12664816 0.15621468 0.054056175 0.21623896 -0.09291872 -0.12131163 -0.011538195 -0.24909858 0.20193386 -0.11622479 -0.090490736 -0.12902299 0.10488261 0.03352514 -0.047400355 -0.028229436 0.019538984 -0.34501415 -0.058159415 0.0051835137 -0.05043274 -0.15229386 -0.044833876 0.035008155 -0.032282487 -0.09857971 -0.029336583 0.13997914 -0.3492571 -0.10090542 0.016448371 0.1132033 -0.24861863 0.1854003 -0.23561385 -0.21493928 -0.16953108 0.14287812 0.23431894 -0.1213133 0.20161772 0.24187943 0.0074541727 -0.18244074 -0.097393565 0.09293919 -0.34946242 -0.27744305 -0.10899261 -0.035671093 0.029078789 -0.012909252 -0.102612585 0.16148381 0.088327035 0.054797765 0.07051099 -0.10527922 -0.018669335 -0.012116855 0.015038136 -0.20242535 -0.038985718 -0.042368863 0.18661572 0.07608844 -0.018815769 -0.07108872 -0.16644764 0.00944641 0.07222144 -0.0644172 -0.22197294 0.40526226 -0.27018172 0.038756423 0.1226529 -0.034536142 0.14790681 -0.017096445 0.0074542845 -0.0056834295 0.08330753 -0.20186654 -0.1297752 0.091463655 -0.22111638 -0.15376459 0.01900642 -0.18952455 0.19004734 -0.0017078527 -0.21552567 -0.046347257 0.05783319 -0.06635379 -0.13589011 -0.16478038 -0.067564175 0.21817553 0.025407603 -0.013768262 -0.12749496 0.15633807 -0.006389238 0.00346611 0.04932189 -0.066074826 0.025102913 0.018732429 -0.10474196 -0.08235579 -0.034882005 0.03852243 0.2570494 -0.0072781746 -0.074665084 -0.008236188 0.061495118 -0.02974162
54 0.054538816 -0.22755224 0.13574818 -0.014484 0.07203434 0.0011500859 -0.175542 -0.269072 0.034194056 0.016751645 0.07301645 0.08370848 0.051960986 0.058604535 -0.058352027 -0.1222081 -0.036155645 -0.13680162 0.13356231 -0.16199672 -0.0064958073 0.1844163 -0.19728334 -0.14424418 0.103701495 -0.23819536 0.0015540692 -0.03278949 -0.10715316 0.034716424 -0.15168437 -0.11817783 -0.0809311 0.041702416 -0.048309926 0.060652893 -0.0016159171 -0.1363587 -0.041355934 -0.071785964 -0.15117502 -0.13896976 -0.07323373 0.022848355 -0.23508155 0.10883518 -0.06290865 -0.10926743 0.003107865 0.14071491 -0.17391498 0.08841029 0.09748931 -0.027677542 -0.084515736 -0.18086064 -0.25406608 0.17297503 -0.108757645 -0.02484561 -0.15999381 0.08304795 -0.12511991 0.040797517 -0.014933622 -0.13561897 -0.018466324 -0.05042366 0.04352838 0.092594296 0.069220014 -0.03277023 -0.026643645 -0.057977173 -0.118473575 -0.052294075 -0.02765382 -0.092388235 0.23669632 -0.012471049 -0.07009462 -0.032321353 -0.064814776 -0.07533405 0.04459649 -0.00036290946 0.05320305 0.04904092 -0.031732727 -0.018628916 0.10723471 -0.09737176 -0.21332946 0.047131617 0.11511937 0.20774318 -0.1582073 -0.1035912 0.20328055 -0.080394484 -0.31143516 -0.30712083 0.09481523 -0.02118277 0.056622423 -0.013413303 0.09881506 0.008666415 -0.14119977 0.0041859588 -0.045379303 0.16438778 -0.072026625 -0.1170562 -0.1988034 -0.084696345 -0.043487944 -0.010170447 -0.12821302 0.034612734 0.113645114 0.016281622 0.1627968 -0.17367207 0.004821906 0.047526084 0.03983629 0.012180143
130 -0.09802191 -0.2383621 -0.06570294 -0.053026374 0.23070148 -0.10095097 0.0042793285 0.05320157 0.18010306 0.078869835 -0.05774417 -0.12257981 -0.09683415 0.049179286 -0.3023523 -0.29896572 0.09342374 -0.024360238 0.19764332 -0.29529634 -0.074847154 0.14646241 -0.42865375 0.030163458 -0.02809779 -0.23720089 -0.25193828 0.22879396 0.10742799 -0.09027572 -0.17416234 -0.2507167 -0.09677721 0.14044519 0.057367433 0.020161487 -0.21179958 -0.14856116 -0.13110384 0.03986975 -0.1760147 -0.033681005 0.063942544 -0.14593366 -0.028370129 0.0046383715 0.045212388 0.024990143 0.2673257 0.0074228896 0.12998988 -0.022258501 -0.28596416 0.14074047 -0.118946545 -0.11701907 -0.18432754 0.14233361 0.132477 -0.0038296075 -0.07717468 0.0123379 -0.14659743 0.11852681 0.03869339 -0.34918067 0.0028548108 0.15966357 -0.12647964 -0.13602415 -0.113902256 0.15585497 -0.0048319935 -0.026117075 0.16212569 0.028377857 0.008494574 0.05002364 0.15669511 -0.14183068 0.22517161 -0.16795522 0.02335269 -0.014630538 0.18453376 0.04742223 0.007983439 -0.11853963 -0.005949878 0.0076830327 -0.029665107 -0.032771315 -0.055271834 -0.012904898 -0.005417989 -0.049651384 -0.018601047 -0.082885385 -0.09317321 0.20872584 -0.2603395 0.004430061 0.023034157 0.015841737 -0.04887112 0.088235505 0.13661095 0.05409539 -0.056825746 0.2430182 0.007006534 -0.08807416 -0.09621893 0.12887798 -0.14718309 -0.051916867 -0.05623133 0.04358865 -0.3257927 -0.15229484 -0.04927007 0.009100715 0.026382467 -0.15727451 0.05358114 -0.051886417 -0.035776313 -0.16910148
102 -0.13500024 -0.33209893 0.04878065 -0.07958026 -0.042414602 0.07139496 -0.08035326 0.06339209 -0.089445226 -0.10189101 0.104754865 0.16054903 -0.2803883 0.14311914 0.018207302 0.020152949 0.07923259 0.03890936 0.09046684 0.01510623 0.2059554 -0.019509029 -0.2608806 -0.055507023 0.0015568642 -0.25422403 -0.21065122 0.17180191 0.0459031 0.0072786435 0.013610404 0.025683008 0.10404489 0.11255587 0.04367048 0.22621255 -0.1465591 -0.20795198 0.10524935 0.016383788 -0.09647534 0.08092047 -0.092077635 -0.0196247 -0.17634884 0.13852529 -0.14520699 -0.08259689 -0.03449788 -0.07936954 -0.019734997 -0.17782307 -0.009051241 0.089536086 -0.10649206 -0.2155924 0.113462605 0.12637512 -0.07183463 -0.107973926 -0.15420225 0.10103972 -0.021639151 -0.017387927 -0.23487742 0.020441124 -0.079590335 0.029221773 0.2169054 -0.07353137 0.07712471 -0.052854083 0.051618733 0.011637047 0.098918945 0.07663036 0.016500106 0.015193587 0.0128898695 -0.1353164 -0.046936363 0.14844684 -0.1416193 -0.04598087 0.04801835 0.046573836 -0.04055877 -0.1682421 -0.039445918 -0.048769828 0.022265807 0.033471037 -0.1300003 -0.08743928 -0.15725324 -0.05402873 -0.26436466 -0.03272114 0.23299284 -0.015116164 -0.14875822 -0.14890741 -0.06087292 -0.059829462 -0.08190889 -0.23342432 -0.10588048 0.21029283 0.11737885 0.11189266 0.11128264 -0.17875814 0.041495446 0.0028057578 0.049779095 0.03638353 0.037739974 0.11294356 -0.031499244 0.05273574 -0.11844376 -0.08620355 0.14656766 -0.11331208 0.044295855 0.04844924 0.20159997 0.11591062
94 -0.033528343 -0.24043815 0.031097112 0.028196186 0.007370967 -0.10941196 -0.11897127 0.027052393 -0.03529064 -0.24480714 0.022372957 0.040215783 -0.039563645 -0.12288314 -0.029606493 -0.20067845 0.16797094 -0.036853306 0.08894715 -0.18768051 0.24099998 -0.008338704 -0.16775264 0.17167005 -0.14028315 -0.24783558 0.036459513 0.02522287 -0.015348161 -0.23419997 0.05558169 -0.1641495 0.07335179 -0.12667362 -0.0028323042 -0.013241382 -0.11422939 -0.19649558 0.15452398 -0.084892586 -0.034779266 0.19061123 -0.08107593 0.039277863 -0.11069537 0.17131552 -0.117811434 -0.15231727 0.047361407 0.07229755 0.05554792 0.12217171 -0.078984216 -0.006921984 -0.030098872 -0.16712536 -0.107394494 0.019314677 -0.05386941 -0.10619872 0.018174017 0.019896043 -0.08543523 -0.0546157 0.00081279245 0.13508031 -0.064894356 -0.02119293 -0.056295175 0.005498782 0.16431603 -0.034636278 -0.056766845 0.07361168 0.0068343887 0.018926473 -0.2820707 0.1176824 -0.039820638 -0.20857589 0.06075515 0.15930377 -0.011013364 -0.072832935 0.17451403 -0.033131473 0.12938906 -0.09149964 0.08655513 0.1642419 -0.04014062 -0.0047122077 -0.041737434 0.024130506 0.018936072 0.023146123 0.07187766 -0.075340964 0.02377448 0.07564033 0.039241333 -0.042331196 0.012504321 0.17999466 0.010111782 -0.3158032 -0.06268953 0.053355362 0.21185215 0.06844718 0.050776206 -0.049979057 0.06186549 -0.15568618 -0.026971716 0.09440295 0.11884864 0.14681388 0.072914764 -0.10196488 -0.097211644 0.011607684 0.076558225 -0.047405194 -0.077623405 0.2390734 0.19456014 -0.020392066
12 -0.07179015 -0.07117976 -0.17005241 0.07813407 -0.037537836 0.03804501 0.030683206 -0.20265155 0.10428921 -0.03616336 0.17187722 0.04114206 -0.009200784 0.15747108 -0.06691244 -0.14818697 0.12442249 -0.111314915 -0.048476484 -0.14005095 0.0994797 0.11618217 -0.18087447 -0.15157706 0.064699665 -0.41441604 -0.0345846 -0.035039313 -0.11018472 0.051951002 -0.07581962 0.036998097 -0.17308922 0.040671058 -0.062324267 0.18399324 -0.12566397 -0.047968257 -0.009224372 0.038463324 -0.093716145 -0.065849066 0.035531115 -0.18152393 -0.22460319 0.10572722 -0.025868725 -0.07845261 0.11598368 -0.019458644 0.040782657 0.1619039 -0.027396696 0.022971991 -0.104042575 -0.10156569 -0.13109376 0.05084481 -0.0939729 0.06413487 -0.12836981 0.077157445 -0.11650913 0.11001515 -0.06767543 0.08242813 -0.112558715 -0.17290692 0.26815763 -0.051135533 0.17362316 0.1356116 -0.059739236 0.0121248625 0.023045914 -0.069065094 0.059017114 0.071991354 0.14990632 0.067670494 0.06887659 0.08554014 0.014660364 -0.16899185 -0.045870684 -0.10622676 -0.0033213086 -0.0009064751 -0.18829848 -0.046429016 0.20247325 -0.07395097 -0.03518032 0.0044866586 0.012646677 0.05036 -0.118130706 -0.054346293 -0.0049055256 0.08619254 -0.3096279 -0.16495782 0.077660896 0.18593654 -0.0816365 0.0049339402 -0.09693418 -0.087854356 0.16151719 -0.022449113 -0.27991816 0.2651165 -0.0006965028 -0.104046166 -0.12051818 0.081986465 0.010037114 0.076079175 -0.12061975 0.02038163 0.050886452 0.0054234737 0.22009628 -0.054271903 -0.07775216 0.06690072 0.10551353 0.1580845
23 0.13283782 -0.103524536 -0.055158973 0.10940127 0.055780865 -0.015704215 -0.1143863 0.046515647 0.11339707 0.076836996 0.010580038 0.069552936 0.044914287 -0.13410823 -0.10280448 -0.015311218 0.09680286 0.17776588 -0.040564336 0.03454407 0.09940468 0.15642689 0.003674636 0.0178738 0.041015547 -0.18322426 -0.15161882 0.04425496 -0.2250942 0.09354677 -0.10004315 -0.04685021 -0.16522568 -0.13259724 -0.052350715 0.23316126 -0.33400476 -0.37316278 -0.1685357 -0.057199646 -0.115070365 -0.009665352 -0.10637882 -0.09598846 -0.08880994 0.07592876 0.035433054 -0.21362028 0.05112993 0.08919787 -0.0276274 0.09206107 -0.02840328 0.019384004 -0.17998126 -0.17381276 -0.19796193 0.057214603 0.1764334 0.035294086 -0.0038917246 0.042633377 0.125898 0.0266199 0.0024228652 0.076016255 0.059535347 -0.08672753 0.020880427 -0.0213021 0.005841862 0.2545793 -0.00868095 -0.09325491 -0.020629141 0.15227881 0.026035463 0.020081129 0.14132729 0.059112504 0.23103544 -0.0032153407 -0.033737272 -0.049679693 0.0004903462 0.04396155 0.09781454 0.05776729 -0.04241228 -0.03170987 0.07948057 0.034985814 0.010330813 -0.070001 -0.37507612 0.24647833 -0.17981972 -0.08276307 0.052249257 0.35294414 -0.1287514 0.040482916 0.08220031 -0.0967961 0.04538284 -0.31758258 -0.13991484 -0.03356841 0.10530569 0.09752064 -0.10629241 -0.12444326 0.100279 -0.17792435 -0.059954513 0.118710615 0.122135594 0.05787267 -0.14630488 0.19804235 0.027239531 -0.027405862 0.02984031 -0.09768915 0.030149842 0.0657126 0.14382993 -0.04196643
132 -0.13218798 -0.14299205 -0.137449 -0.07018795 -0.016713267 0.28951606 -0.2807743 0.08170995 -0.079518065 -0.08176124 -0.010186931 0.13025567 -0.11860508 -0.0214271 0.23204218 -0.13970876 0.1088682 -0.031133529 -0.0082594305 -0.122944646 0.16203415 0.14706922 -0.11308457 0.24429119 -0.037440132 -0.11737038 0.11843111 -0.14950626 -0.09406186 0.042047314 -0.06431434 -0.24133927 0.1013989 0.11366894 -0.09139635 0.11992742 -0.25018573 -0.10142236 -0.08078038 0.12112469 -0.25069785 0.091911316 -0.0083375275 -0.07159883 -0.14472152 0.1718256 0.042291634 -0.033734046 0.16445096 -0.16482155 0.046554446 -0.023260081 -0.10758658 0.28970194 -0.09333423 -0.30983314 -0.21494319 -0.12514347 -0.30421108 0.087285176 0.023471298 -0.09244673 -0.1570138 0.119916536 0.15832525 -0.03795264 0.11151207 0.14019585 0.01995515 0.0050359964 0.017154163 -0.07893019 -0.33074388 0.07907204 0.038419753 0.0039985147 -0.24265376 0.020138087 -0.119487174 -0.0756266 -0.029583909 0.14022946 -0.20411284 0.026714215 0.21344706 0.337914 0.16311671 -0.08213508 -0.07075212 0.15414867 0.32540706 -0.20188965 0.09518143 -0.2909028 -0.14822933 -0.0074972664 0.17610472 -0.05596343 0.30564362 0.06740907 -0.3248786 0.23775834 0.08036233 0.060545586 -0.072371244 -0.19885844 0.15543567 0.10321435 0.10072256 0.1011219 -0.12588999 -0.20499772 0.08801618 -0.114339076 0.15211803 0.17878687 0.040252145 0.1319798 -0.14942941 -0.22796059 -0.07224824 0.0929032 0.007684225 -0.003036341 -0.10205649 0.062497105 -0.11599225 0.109363675
113 0.13796206 0.0085459985 0.1755884 -0.17871334 -0.36840862 0.17595838 0.056690294 0.2955987 0.23515597 -0.3729068 -0.020157559 -0.11475305 0.0074754828 -0.0035287992 0.07085288 -0.36002147 -0.14645825 0.017256862 -0.12865151 -0.108542085 0.122358076 -0.16965818 -0.15760036 0.16878483 -0.20449698 -0.11657245 -0.17199911 0.006327711 -0.21785863 -0.05182534 -0.15295452 -0.17617261 -0.08590634 0.055449303 0.1743662 0.15135227 -0.3407037 -0.11517221 -0.025005236 -0.1807972 0.076195344 -0.21843679 -0.027682537 -0.0441331 -0.07929247 0.22832674 0.005943999 -0.08633993 -0.20143822 -0.07484369 -0.17809674 0.13393255 -0.061335914 0.26220798 0.0360763 0.057058673 -0.19430286 -0.17594568 0.023647724 0.12936118 -0.13214275 0.082577564 -0.0033486418 0.09725917 -0.19493762 -0.0056234626 -0.027082182 0.036337893 0.06315402 0.19917774 0.17635919 0.05819233 -0.038779467 -0.15888211 0.046708327 -0.04492062 -0.1030133 0.15684068 0.11097872 -0.089297034 0.1085244 -0.06696616 -0.07549671 -0.1876149 0.1585157 0.022012917 0.32024676 -0.03507076 -0.14029579 0.057700336 -0.058386773 0.14356223 -0.25377852 -0.4183873 -0.18075232 0.10663483 -0.019148381 -0.15753563 0.04540691 0.32775086 -0.012791191 -0.19523548 0.3219631 -0.04434276 -0.08796838 -0.21451434 -0.30677196 -0.17168808 0.26434347 -0.15371008 -0.017932953 0.17692553 0.053207837 -0.089443974 -0.19371076 -0.16669464 0.16879828 0.16698557 -0.29190856 0.09594338 0.18220045 0.090709634 -0.04490841 0.08007898 0.23446082 -0.15811692 -0.11522459 -0.05851483
141 -0.048573855 -0.04830212 0.43400252 0.07830799 0.0030427058 0.17203325 0.14414334 0.0338462 0.13789348 0.12377554 0.11671448 0.2728788 0.051982526 -0.12372188 -0.09529639 -0.12491602 0.15830049 0.28507614 0.23497985 0.056399904 -0.035434723 0.08639538 -0.482875 0.03770378 -0.17397355 -0.0828758 0.176086 -0.1940588 -0.016350636 -0.13280593 0.051467173 -0.0025683008 -0.0101610795 0.10612697 0.022201493 -0.02049496 -0.2133503 -0.059662737 -0.040304005 -0.10930232 -0.11404246 0.02740277 -0.36672935 -0.12100536 0.099697694 0.07122457 -0.15098752 -0.11397763 -0.09794159 -0.3059493 -0.1273464 -0.1286994 0.19508375 0.26901206 0.35044917 -0.18445346 -0.20020463 -0.00415551 -0.13107264 -0.08835328 -0.2863077 -0.027777823 -0.32390514 0.16419627 -0.08312527 0.02013062 -0.067278795 -0.04016715 0.07118387 -0.15869035 -0.14275366 0.025802907 0.02650282 0.048377115 -0.044527397 -0.057814114 -0.24281517 0.1973359 0.09509185 -0.18324558 -0.13994491 -0.057155695 -0.113267004 0.09119495 0.17221545 -0.08397709 0.103861526 -0.115010545 0.03889881 -0.03501644 0.31789756 -0.27510533 -0.22310472 -0.014868458 0.012877629 0.029797064 -0.058049988 -0.28319153 0.16391069 0.057729147 -0.31814536 -0.07598863 -0.03708218 0.22073194 0.070244856 -0.08916065 -0.25158882 0.03970953 0.052382395 0.06077386 0.012281025 0.102892116 -0.025550857 -0.09186257 -0.014373224 -0.042300783 -0.008130753 0.007519646 -0.16092126 -0.11426986 0.072982036 0.020959405 0.12884925 0.009759451 0.106818825 0.16338305 0.037123248 0.040732913
101 0.0061693904 -0.09197793 -0.061906856 0.05446109 0.13752826 -0.13605948 -0.009971967 -0.1829561 0.21190163 -0.2795759 0.1471745 0.09219578 0.022164786 0.0068776906 -0.25274652 -0.21618016 -0.08470673 -0.12712507 0.07972707 -0.25421742 0.18297976 0.22047602 -0.123470865 0.23133403 -0.09545153 -0.23662981 -0.022033507 -0.075298384 -0.027859718 0.08589297 -0.12542272 -0.0704676 -0.08164133 -0.13208033 0.083786756 -0.124204054 -0.0021824548 0.0017061057 0.07397934 0.027668465 -0.008506409 -0.041307356 -0.06286434 0.07543677 -0.037019793 0.14382778 0.0034318727 -0.07326217 0.040508512 -0.016144915 -0.040470377 0.022244975 -0.07166818 -0.13198118 0.09945388 -0.0470686 -0.19837575 0.11654366 -0.11532367 0.07377997 -0.12891966 0.08803616 -0.09343361 0.1078656 -0.12683748 -0.13865721 -0.035301223 -0.056537423 0.015504499 -0.08627391 0.021482129 0.08001822 -0.083814315 -0.03584533 0.0105703585 -0.02014744 -0.18405034 0.008303075 -0.04636929 -0.10422684 0.07568486 0.050361767 0.037612077 0.04502197 0.054748345 0.19633615 0.29399103 0.029063452 0.17543113 0.05787898 -0.18202686 -0.052228753 -0.05230554 0.088316604 0.032241922 0.09561803 0.09115511 -0.10555939 0.011807505 0.13105842 0.008279324 0.10741376 -0.011703274 0.16100918 0.15286835 -0.06605742 0.013311878 0.056458868 0.06491119 -0.12810527 -0.029370636 0.09727392 0.20731299 -0.20401955 -0.18339601 0.012642605 0.029692693 0.17598441 -0.06400658 0.11273911 -0.0015846215 0.040683113 0.09003877 0.0992874 -0.08820497 0.15262868 0.03244168 0.07231518
126 -0.19473161 -0.1252342 -0.23162745 -0.060102887 0.068424754 0.32427865 -0.3458964 0.4758846 0.004560467 -0.20797077 0.07162198 0.06909422 0.05434997 -0.06574739 0.013220367 -0.10075863 0.07591089 0.014812441 0.058824908 -0.21196912 -0.05033948 0.16135864 0.02989569 -0.16794951 -0.1946509 -0.12718984 0.05559797 0.10403414 0.16580166 -0.12210188 0.036720045 0.02274 -0.018676676 -0.0867853 -0.0041296952 0.06490344 -0.48291096 -0.0074112853 -0.11358119 -0.022876345 -0.0898827 0.051658884 0.104991384 -0.11090789 -0.17970192 0.10906921 0.028111175 -0.20822315 0.22033395 0.058506954 -0.04613797 0.17637677 -0.06716916 0.053060252 -0.3111026 -0.1898633 -0.2183504 0.14146636 0.088152565 0.022790065 -0.058571536 -0.15329976 -0.12896925 0.054493815 0.03230098 -0.12154416 -0.1472268 -0.057117894 0.02715374 -0.1260322 -0.11469661 -0.013579811 0.074550256 0.020872537 0.046165038 -0.103625156 -0.20556511 -0.015991028 0.16341208 -0.062838495 -0.1684817 0.17457922 -0.23695503 0.09607536 0.11814891 0.016395979 0.2162911 -0.059171118 -0.0083559025 -0.08736192 0.025388662 -0.059524972 -0.12185474 0.17403959 -0.05127034 -0.016405987 0.11779035 -0.064229995 0.19975284 -0.03030547 -0.11106312 0.006077322 -0.045124475 -0.02492131 0.051126428 -0.043477874 -0.14139745 0.27078247 0.043013886 -0.19580007 -0.14879271 0.07223283 0.15414104 -0.1709526 -0.07905229 0.15886398 0.13908271 -0.036561474 -0.005234014 0.026777277 -0.1610419 0.25305822 0.15876608 0.24646528 -0.05161377 0.06750975 0.20964362 -0.06563786
91 -0.015250024 -0.26577893 0.2411778 -0.042962443 -0.18602198 0.17171322 -0.063348584 0.11189186 0.115485646 -0.1361691 0.033104207 -0.08154464 0.11306949 -0.04402908 -0.19994894 -0.29594636 0.13651074 0.16171812 0.15247664 -0.07494393 0.06909421 0.019286184 -0.095514394 0.16499984 -0.14756453 -0.46002886 0.037396453 -0.36233583 -0.029575007 0.04653195 0.17594421 -0.19503345 0.010956262 0.089303106 -0.001590944 0.029109279 -0.10169446 0.054989208 0.075971015 -0.022157872 -0.13022272 0.13239788 -0.029054284 0.036077976 -0.19905503 0.2065256 -0.20272826 -0.114185594 -0.06451441 -0.03411752 -0.050784472 0.00034249216 0.110260524 -0.14772546 -0.00780626 0.10212741 -0.071411125 0.055229157 -0.1403033 0.010862301 0.047545336 -0.12832852 0.076484084 0.1335426 -0.1712729 -0.049537245 0.08966197 0.027105452 0.12680171 -0.19659548 0.027084911 -0.058151778 -0.09829298 0.040944926 0.027106978 0.10394522 -0.24936147 0.20681852 -0.11874839 -0.12767032 0.17646629 -0.08589279 -0.18686804 -0.07320713 0.0454728 0.1193556 -0.10768654 -0.011696159 -0.13672386 0.07595486 -0.011512015 -0.06215634 -0.16431521 -0.08114776 0.118753605 0.104515694 0.11371424 -0.041757885 0.10761426 0.008043954 -0.0295557 0.009044465 0.059766788 0.15643258 0.16335429 -0.20462316 0.18861759 0.1622576 0.24233703 -0.04527633 0.019252213 0.096753664 0.1605222 -0.2021177 -0.052027546 -0.030574393 -0.017610548 0.025452917 -0.02541326 -0.094242446 0.069553435 0.1962177 0.0088111665 0.10628311 0.05120797 0.2672073 0.16383623 -0.20799099
138 -0.26964477 -0.26911908 0.06553231 -0.013644402 -0.23942262 0.18169571 -0.018745795 -0.093749635 0.10861682 0.07855361 0.18781482 0.15928333 -0.31466544 -0.0023984488 -0.025516191 -0.18467613 0.13520096 0.017741997 -0.07599592 -0.20170408 0.22271803 0.33836207 -0.5135928 -0.17120165 -0.15142182 -0.19802001 0.10831896 -0.058935165 -0.025127515 0.14589484 -0.07087375 0.13067535 0.26615584 0.031989753 0.053515077 -0.048211977 -0.14671628 0.0012099773 0.019167865 0.13249214 -0.024213035 -0.106466815 -0.1169083 -0.24115553 -0.09206166 -0.105569035 -0.06641595 -0.1586525 -0.047332723 0.07634007 -0.2514639 0.2351822 -0.084768176 0.15195195 -0.16209084 -0.034491792 -0.2023125 -0.1949683 -0.08884674 0.011360689 -0.14409696 -0.0063506844 -0.22376575 -0.16317038 0.08500054 -0.16841762 -0.14437926 -0.05384234 -0.030360293 -0.03513739 0.033492655 -0.1740527 -0.100609936 0.025245283 -0.11952937 0.12388634 -0.1651635 0.07060885 -0.042024307 -0.3660749 0.010009622 0.123229995 -0.1851252 -0.15090893 0.2715043 0.11863098 -0.011982399 -0.044473547 -0.013724789 0.029046608 -0.024332467 0.10896015 -0.2932534 -0.2249262 -0.11091328 0.16849646 0.104290366 -0.08726335 0.19462642 0.100659825 -0.05793355 -0.009173617 0.03475551 -0.06999383 -0.18839718 -0.12233457 -0.06975947 -0.040508125 0.10518657 -0.03717596 0.00733403 -0.111120574 -0.07334458 0.1177736 0.057894632 0.16181293 0.073738836 0.058373842 0.016549785 -0.13637665 -0.21123363 -0.017094277 0.16294155 0.08223851 0.028332721 0.12601 0.09539022 0.12719768
106 -0.10036786 -0.10005917 0.2476138 -0.047137123 -0.15221296 0.11325985 -0.11710018 -0.28003478 0.0042793024 0.10059201 -0.17213295 0.16054216 0.07680232 -0.0014848877 -0.23191856 -0.26567376 0.0028850853 0.04131339 -0.21722741 -0.060593523 0.09715534 0.008546232 -0.16627859 0.06583116 -0.061363123 -0.1102757 -0.017266141 0.11233186 -0.04322239 0.13649923 -0.10407259 0.03269489 -0.25799897 -0.16947229 -0.12884216 0.15389404 -0.03507541 -0.14137465 0.14612603 0.14626281 -0.23607789 0.13294871 0.12640995 -0.05263471 -0.1752443 0.09271241 -0.15664545 -0.040889602 -0.022442866 0.06173496 0.0039690817 0.01363728 0.08127324 -0.088350974 -0.16533504 0.000944555 -0.19720197 0.13827251 0.03367571 0.16427028 -0.023922665 -0.061761405 -0.037749868 -0.011685472 -0.14334835 -0.0073334686 -0.18285564 -0.050717287 0.18118073 -0.010062513 0.11603013 -0.08208674 -0.08709332 0.02756156 0.09030436 0.0056308624 0.12598409 0.0642257 0.13395746 -0.012524058 0.10422684 -0.04551508 -0.08910944 -0.19703867 -0.05178973 0.08407481 0.111961156 -0.16451435 -0.010023686 -0.10577838 -0.054741442 -0.025581993 -0.12765048 0.030083807 0.025366759 0.14473315 -0.054447547 -0.09379477 0.18352924 0.0010658678 -0.29596567 -0.113579534 0.064993195 -0.032599267 0.086580716 -0.023715086 0.06991988 0.18737248 -0.015754133 -0.07305406 -0.09254584 -0.009005893 0.0073636593 0.03573915 -0.08042039 0.016241448 -0.27235353 0.10329764 0.037120197 0.15450236 0.029931147 0.013374476 0.08395269 -0.024031457 0.058120195 0.024431145 0.15998712 0.048100412
121 -0.19767709 -0.21914735 0.063781425 -0.030139107 -0.12621441 0.16300827 -0.106521115 0.18800233 0.28321123 -0.15816018 -0.045909382 0.16364788 -0.12870575 -0.0152169205 -0.00640868 0.15987703 -0.12141229 0.14079876 -0.02009875 -0.20062128 -0.05566951 0.48510537 0.001856408 0.18138579 -0.13800433 -0.0980487 0.047865704 0.06864224 -0.012984558 -0.11443666 0.0033227042 -0.16190612 -0.29420727 -0.08765817 0.19256362 0.07133878 -0.35672298 0.014973523 0.043813813 -0.027393786 -0.083684474 0.2474201 0.03154749 -0.024333231 -0.24600758 0.21687913 -0.25066304 0.008440448 0.117246106 -0.12741962 0.055634424 0.12688008 -0.20910174 0.24184467 -0.015161998 -0.0876471 -0.11803233 0.13346978 -0.040641967 0.02321413 -0.101297915 -0.06227918 -0.31241855 0.11338771 -0.102482215 -0.0058410503 -0.11471571 0.0637909 0.08400595 0.052081067 -0.002811622 -0.033762638 -0.02146089 -0.016755812 -0.06305513 -0.10162895 -0.10561629 -0.16230361 -0.04765368 -0.040091604 0.18577142 -0.083321825 -0.15529911 0.08059867 0.13871689 -0.018899256 0.033730082 0.00645885 0.12246405 -0.13477403 -0.06197149 -0.08518898 -0.20521607 -0.021474741 0.19468394 0.1081179 0.0062879752 -0.30392453 0.08910165 -0.002492957 -0.1805532 0.038928732 0.066376716 0.092923455 -0.016777923 -0.13944478 -0.2004321 0.069432594 0.071822025 -0.009395514 -0.035679687 0.002081778 0.07382727 0.041948415 -0.037123494 -0.00050615805 0.36706257 -0.24212101 -0.06326708 -0.14922826 -0.031808708 0.047291286 0.0462424 0.094698064 -0.10607872 0.10122272 0.2173503 0.15842028
37 -0.031800378 -0.16096605 -0.074449696 -0.061161995 0.37759534 -0.0077433106 -0.12989354 -0.047551483 0.12867722 -0.035588898 0.08471401 0.042199172 -0.1259296 -0.035205845 -0.19604212 -0.054789312 -0.06286387 -0.05652629 -0.08476037 -0.26648524 -0.03980172 0.15765478 -0.1667456 0.028891936 -0.06100994 -0.3136098 -0.12624453 -0.006438422 -0.05836341 0.23556507 -0.11939252 -0.06418426 -0.019260349 -0.07276592 -0.0069806245 0.11450833 0.023190252 -0.2670433 0.11179312 0.04512779 0.016494628 -0.13112205 -0.035687193 -0.01657369 -0.0230839 -0.002421769 0.030291967 0.050789796 0.086246215 0.0017876688 -0.045707673 0.015097761 0.004266454 -0.09148639 0.123609826 0.1686519 -0.017559292 0.058901507 -0.079365626 0.030902393 -0.067444585 -0.028157407 -0.016136894 0.06261562 -0.013086408 -0.07859216 -0.032734938 -0.02917696 0.010921107 0.06619048 -0.056558043 0.06743451 -0.015067454 -0.05489957 -0.10303921 -0.0019380543 0.006422376 0.015936004 0.042436626 -0.037344813 0.083284244 0.100656874 -0.073160075 0.13958806 0.16911775 0.28971097 0.05542155 0.059840545 0.095291466 -0.11587092 -0.057047445 -0.049312774 -0.14635745 0.015187325 -0.058566816 0.026810737 -0.14832832 -0.30244198 0.19315432 0.1490326 -0.19760557 -0.040528145 -0.047767423 -0.0016544202 0.11667928 -0.061087705 0.119997606 0.019811362 0.11515513 0.1665322 -0.12510435 0.041666333 0.08428404 -0.18536407 -0.23073354 -0.044885844 -0.045625497 0.07044346 -0.18873806 0.19616053 0.08774332 0.037567347 0.1402068 -0.0978565 0.08958534 0.058239292 0.08607503 0.22844793
142 -0.093809694 -0.064691305 0.14720616 -0.072792 0.17310615 0.32988563 -0.27266803 -0.305544 -0.28552762 0.10989078 0.1536158 -0.008210711 0.04307099 -0.027201524 -0.13678403 -0.40469545 0.17601252 0.08717374 -0.051360454 0.11026303 -0.104871064 0.26631287 -0.37556088 0.022519762 0.06812342 -0.1438123 0.09056545 -0.019666892 -0.14565465 0.055115443 -0.21388565 -0.017677302 -0.019531583 0.13444684 0.09615058 0.0713516 -0.050102953 -0.042041805 0.0065166745 0.25532126 -0.15857722 0.22108346 -0.06827979 -0.302749 -0.34876618 0.17709962 -0.25293913 -0.15234222 0.23379594 0.15095127 -0.13043667 0.27895957 0.11678161 0.25905892 -0.053078692 -0.014504194 -0.16671737 -0.06886376 -0.032367643 -0.009238971 -0.008830152 0.17149502 -0.06317174 -0.012145999 -0.2257182 -0.025968364 -0.046776857 -0.13009755 0.029449483 -0.24169071 0.16667818 -0.1267901 -0.33600122 -0.07528911 -0.053271934 -0.17458786 -0.0874294 -0.12728074 0.007431587 -0.24318697 -0.05490492 0.035436735 0.03814888 0.14635104 0.14026731 -0.051966663 -0.062075388 -0.19142134 -0.11859802 -0.066815875 0.01606461 -0.16116343 -0.198655 -0.18560497 0.068615966 -0.07782016 -0.15372437 -0.22463804 -0.00528799 0.032602984 -0.3330041 -0.048399594 0.062881306 0.08229133 0.032876056 -0.21180262 -0.12724802 0.1693466 0.23803703 -0.24628198 -0.23000242 0.07582694 -0.18501262 -0.050718706 -0.053136174 -0.3260351 -0.033144116 -0.030762494 0.15752651 0.030415526 -0.055131733 0.25636035 0.24157318 -0.21768564 0.16990405 -0.00028256574 0.16145626 0.19536747
98 0.06432721 -0.32485986 -0.04307417 -0.15164909 0.14247851 0.09231549 -0.062222134 0.11274798 -0.1852538 -0.2819404 0.058310762 -0.09202906 -0.055443246 3.306601e-05 0.045564227 -0.019773271 0.066226095 0.11306701 -0.05910305 -0.089052 0.047032107 0.12631935 -0.113988906 0.004030676 0.13170514 -0.14973791 -0.20848247 -0.043004945 -0.012348848 -0.06604796 0.06064759 0.107025325 -0.13884728 0.03452531 -0.12178506 0.116813 -0.32474753 -0.2666622 -0.02509222 0.13905112 -0.24876104 -0.012738308 -0.12611084 -0.085154355 0.0019885225 0.16996768 -0.15531603 -0.15701991 -0.09369711 0.020689422 0.019709177 -0.17775984 0.16152734 0.001510499 -0.13934863 -0.17746639 -0.19875856 -0.095346846 -0.027194548 0.119663976 -0.09796313 0.04660516 -0.020571942 0.03686683 -0.04363982 -0.1217343 0.029057987 0.03804004 0.099966966 -0.14313094 0.3229811 -0.103455655 0.19144128 0.1276125 -0.060691595 0.053471062 -0.26020625 -0.16320708 -0.032604292 -0.17549802 -0.00018141913 0.14746666 -0.24851169 -0.053771306 0.10389715 -0.020971423 -0.13236776 -0.20597486 0.1979356 -0.050849836 0.1769675 0.01722982 0.016689803 0.088976674 -0.02924278 -0.1264315 -0.069935046 -0.0759102 0.09681715 0.09460329 -0.21528488 -0.11069192 0.06143538 0.03291486 -0.13805248 -0.043167528 -0.07907721 0.10407944 -0.13300571 0.099030666 0.009212527 0.028040774 0.2600437 -0.04932323 0.02131992 0.19782014 -0.07567325 0.12451641 -0.07710882 -0.0727946 0.01612668 0.11204993 0.11321406 0.11233264 0.107037306 0.17297979 0.096177906 0.08795048
92 -0.16906908 -0.1864772 -0.01205074 -0.04500945 0.13814244 0.025542457 -0.11555423 -0.15788674 0.055471778 0.036630027 0.056913923 0.16166295 0.14211926 -0.0065955273 -0.12028348 -0.057425622 0.006184404 0.032622408 -0.015844472 -0.16036037 0.022760583 0.12106928 -0.24294686 -0.06778139 -0.048419874 -0.16216624 -0.1657353 0.08856265 -0.076505214 0.20523831 -0.056422554 0.035183836 -0.07014175 -0.019493714 -0.113563195 0.20581573 -0.023302319 -0.21722075 0.027776409 0.16617541 -0.11086683 -0.17932056 -0.07344113 0.052351173 -0.18137687 0.034203604 -0.09183796 -0.13075623 0.0043018493 -0.014247561 -0.054218724 -0.10886767 0.06475723 -0.08465642 0.033632148 -0.212617 -0.2220616 0.21738108 0.1352024 0.014044003 -0.14166467 0.011633752 -0.11603971 0.03158729 -0.0347163 -0.17477012 -0.19181937 0.077955924 0.053634264 -0.03530136 -0.0032122587 0.025127063 -0.06497976 -0.030790942 -0.028348997 0.1546002 0.106009394 -0.073194504 0.12732372 -0.037519183 0.075756624 0.031833794 0.04112543 0.07899822 0.0459321 0.2148657 0.056742225 0.17813197 0.07519998 -0.07481681 -0.1249556 -0.1168308 -0.15711556 0.10441485 -0.20050508 0.17432667 -0.056537557 -0.19876346 0.16736042 0.18463278 -0.26169467 -0.10274335 0.056227736 -0.15239061 0.08171713 0.047448393 0.020188456 -0.097539045 -0.0634097 0.12134239 0.04064065 -0.07479133 -0.027428221 -0.008877285 -0.0121388715 -0.056627817 0.03979041 0.17963654 -0.034446515 0.070496276 0.13307795 0.02319846 0.042689107 -0.22924687 0.079711825 -0.01971472 0.03645612 0.11502552
20 -0.21129392 -0.3032256 -0.10133316 0.12064932 0.18132696 -0.010461579 0.2280298 0.05420126 -0.18302749 -0.13699909 -0.006280848 -0.0546781 -0.07428762 0.057130314 -0.038707178 -0.046565555 -0.053056516 -0.09237385 -0.010099892 -0.16630001 -0.09928166 -0.1362451 0.0029523831 -0.04770173 0.18686083 -0.0022801459 0.0016212069 0.049710482 0.022540731 -0.07974133 -0.11200617 0.015429448 -0.10128414 0.040648047 0.04250096 0.10982072 -0.06222623 -0.16185355 -0.01711022 -0.10800982 -0.04362638 -0.15511566 -0.07538304 -0.117399886 -0.18997234 0.06434578 -0.065919735 0.11301679 -0.021676322 -0.017390504 -0.07681761 -0.09135656 -0.0020578164 -0.15795994 -0.106690556 -0.17539725 -0.053404927 -0.02319866 -0.07886875 -0.07129033 -0.043983232 0.06368354 -0.14098206 0.13535725 -0.07121442 -0.03128487 -0.18804994 -0.07738925 0.023486089 -0.09045389 -0.03151703 -0.013758212 0.025898203 -0.010994921 0.06802369 0.091201976 -0.08465302 -0.15239388 0.05739303 -0.09980551 0.19235642 -0.08848129 -0.17355148 -0.10543126 0.13810593 0.059784494 0.053831227 -0.06702952 0.07396415 0.1545965 -0.07630425 0.076587155 -0.010122782 -0.051628068 -0.012147993 0.06622078 -0.007358446 -0.029573154 0.10723216 0.12931643 -0.22548765 -0.09372824 -0.11195482 -0.035142288 0.068558455 0.014435356 -0.021591883 -0.02366786 0.12565796 0.013428569 -0.116493784 0.13993454 0.0839928 -0.01514713 -0.2198517 0.11492599 -0.08802409 0.17203434 -0.08956668 0.014442304 0.016407346 0.2982111 -0.06281543 -0.105013974 -0.03322622 0.014075587 -0.04266299 0.23610604
139 -0.048680805 -0.24356313 0.020539623 0.15456581 0.061408274 0.01331796 0.047948696 0.03515023 -0.06499455 -0.0021161411 0.2284783 0.054613594 0.13084029 0.041894905 -0.0093000885 -0.23440596 0.080042176 -0.1450285 0.02597903 0.0665503 0.12972194 0.27413708 -0.12675738 0.31553954 0.16099958 -0.27140456 0.2562073 0.07813172 -0.034176923 0.30315968 -0.052365508 -0.064021446 -0.06655511 -0.17689644 0.033032797 0.06475446 -0.15903561 -0.22976197 0.0026750653 0.035790555 0.109272584 0.08494136 0.19527169 -0.1800078 -0.3175103 -0.2664077 -0.09202392 -0.10768636 0.20490682 -0.059466034 -0.2546305 -0.13437259 -0.094542526 -0.2241168 0.07863109 -0.3583472 -0.018665405 0.17659153 -0.2697058 0.19751436 -0.25212082 0.35906065 -0.47897547 -0.053995203 0.050828487 -0.15215404 0.1554413 -0.20387723 -0.18409725 -0.03004417 0.17941697 -0.16294885 0.15455203 -0.118774705 -0.03175338 0.1494633 -0.13424012 -0.023350913 0.15010574 -0.18153262 0.152169 -0.029358309 -0.06831451 -0.18137914 0.028897922 -0.06959818 0.10045131 0.15816349 0.17020254 -0.015266055 0.12206009 0.059473865 -0.10879154 0.07864915 0.05750799 0.01243054 0.1981265 -0.13903333 -0.04773709 0.039955504 -0.21530606 0.13161144 0.0005689806 0.10199052 -0.15473232 -0.1837731 0.011188557 -0.0006610437 0.07797058 0.19138199 0.10780354 0.10834102 -0.06245832 -0.103737764 -0.089150906 0.058786046 -0.020359326 0.08623939 0.13845654 -0.2579716 -0.15516455 -0.18399362 0.050971974 -0.042834196 0.04454963 0.056190677 0.24772365 0.18006551
27 -0.024892332 -0.36921546 -0.35734475 0.040824745 0.15300758 0.019449614 -0.06373826 -0.16196772 0.043945905 -0.16075304 -0.0002857534 0.1579174 0.017562842 0.10134783 -0.11131971 0.0013385607 -0.03434509 -0.031349964 0.11554461 -0.10661354 -0.029910142 0.13716763 -0.10225258 -0.080374055 0.14570689 -0.040155146 0.035378963 -0.04102498 -0.009073082 0.09169625 -0.05522209 -0.014060672 -0.1075388 -0.029678628 0.029469848 -0.07811255 0.01846516 -0.023100004 -0.03800288 0.13414778 0.062061694 -0.07251173 0.009901961 -0.088699386 -0.108375296 0.067566164 0.04371656 -0.13372898 0.070990704 0.03496761 0.0043493374 0.0714615 -0.062014583 -0.13248472 0.0515125 -0.06512026 -0.033103477 0.18641603 0.09181795 -0.056673773 -0.14541675 0.08974499 -0.09191402 0.091675386 0.117726326 -0.2357081 -0.08479628 -0.023345921 -0.03640254 0.04070626 0.018234784 0.04377613 0.14889412 0.007950337 -0.010651846 0.09888075 -0.08501793 -0.15792759 0.18303965 0.051457465 0.30616936 -0.028208682 -0.255365 -0.046855994 0.033038747 0.009622484 0.06734 0.10681606 -0.050030183 0.020699678 0.13337232 -0.050907526 -0.10797704 -0.055147592 -0.13336937 0.12036407 0.022780731 -0.23108391 0.047866527 0.0264147 -0.24819477 -0.14866653 0.0270188 0.077251785 -0.10378687 -0.14592993 -0.056958716 -0.0929483 -0.15842803 0.047007713 -0.0044568265 0.26168147 0.03914801 -0.23336825 -0.24151096 -0.01656689 -0.086466484 0.117502384 -0.17772922 -0.003929154 -0.036093466 0.03835452 0.13108996 -0.16626799 0.001685124 0.32090566 -0.05162989 0.11123989
32 -0.2511658 -0.10825636 -0.15190734 -0.06961309 0.16672283 -0.046162557 -0.013449388 -0.08686966 -0.10233285 -0.11842227 -0.0184074 0.0042541227 -0.09840179 0.063106544 -0.086358905 0.03162418 -0.018019607 0.050823744 0.032734144 -0.15877804 0.04871533 0.07279915 -0.14896357 0.034635156 0.03939063 -0.16109663 -0.052080795 0.06884397 0.008014972 -0.016612753 -0.08869646 0.07861735 -0.11578094 -0.07969509 -0.033668227 0.034915827 -0.04069298 0.033782586 0.12624212 0.093169704 -0.0712129 -0.004548542 -0.01955705 -0.07389071 -0.11988168 0.14227456 0.05063503 0.021028176 0.053642303 -0.12063723 -0.056063883 -0.14041713 -0.017432094 -0.049444877 -0.013410839 -0.13254507 -0.099578 0.108727165 -0.19179456 0.00772216 -0.11460247 0.06989543 -0.082320794 0.13331768 -0.01517449 -0.06689597 -0.11245881 -0.0425209 0.10060797 -0.0061664116 -0.0010637648 -0.0054498008 -0.060551934 0.08114096 0.024493387 0.058480203 0.071536206 -0.09732253 0.07258462 -0.12492637 0.20150357 -0.018255465 -0.060410954 -0.08302631 -0.017784044 0.09907275 0.12553625 0.019328287 0.0641416 -0.082638934 -0.06005904 0.028933432 -0.0005018078 0.035567794 -0.13236031 0.058876265 -0.03879904 -0.09291415 0.09177692 -0.009243613 -0.24837966 -0.11188477 -0.002227286 -0.03820015 0.12927656 0.042696524 -0.15108241 -0.14169173 0.08336 -0.040802523 -0.1344583 0.21159598 0.04696039 -0.074674845 -0.0863277 -0.11469849 -0.09128926 0.2509157 -0.148019 0.14110236 0.06571904 0.042971708 0.07485794 -0.04465968 0.09161548 0.13758224 -0.055669688 0.16761132
39 -0.20352511 -0.14220707 0.020252584 -0.109376505 0.004626763 -0.056063205 -0.016822886 -0.14226632 -0.10597831 0.02180331 -0.12976177 0.09232875 -0.09065031 -0.1826903 -0.18806906 -0.1817046 0.095805645 0.11672961 -0.17676635 -0.14209798 0.15183578 -0.15837851 -0.16795884 0.16737935 -0.049142428 -0.13851885 -0.11444586 0.023628362 -0.12020154 -0.21807033 -0.016502794 -0.15601146 -0.089743 -0.26834956 -0.11274551 0.037409555 -0.20991611 -0.10906142 0.16511907 0.020297024 -0.165492 0.1118665 0.015286314 -0.116612144 -0.17118987 0.15707386 -0.08999917 0.04523035 0.005342669 -0.05206363 -0.16117786 -0.05789835 0.10597526 -0.16621488 -0.020338958 -0.09505537 -0.055885334 0.11741813 0.049976315 0.1430784 -0.06975918 -0.0029157433 -0.082159646 0.005295817 -0.049193513 0.055877086 -0.114571586 0.0088681765 0.08825646 0.091443956 -0.05277515 -0.124291815 0.103415795 0.035722643 0.040452547 0.055750836 -0.082516044 -0.042862505 0.13005853 -0.05558653 0.04207044 0.010564307 -0.141797 -0.03932028 0.08551972 -0.043196727 0.07353427 -0.11028827 0.022436807 0.06056026 -0.13051769 0.11859978 0.019661538 -0.059483264 0.012116708 0.013438562 0.09836858 -0.011324649 0.07734312 -0.14031743 -0.040610038 -0.12939493 -0.0970524 0.0091973655 0.21231292 -0.053398658 0.011908601 0.081644244 0.0048478013 -0.051136505 -0.11210876 0.07455717 0.16878352 -0.09033385 -0.08968585 0.13362646 -0.20199764 0.056469876 -0.049882215 -0.00048058867 0.0456102 0.15789638 0.052637495 0.026277918 0.019869862 0.095529936 0.052036647 0.039335966
83 0.06885592 -0.086944394 0.100632906 0.22127448 0.12442216 -0.09152894 0.07328356 0.28149313 0.34209856 0.07659329 0.28750092 0.17304382 -0.115594596 -0.15004362 -0.103694156 -0.21823046 -0.08420842 0.01847673 0.08572661 -0.1270597 0.07204764 0.12714179 -0.10899607 0.12984064 0.16241345 -0.41843536 -0.09053978 0.12464835 -0.21897367 -0.05738791 0.12205018 -0.008839958 -0.18697725 0.053591058 0.034164295 0.2444814 -0.2237377 -0.10962013 -0.062226906 -0.05510856 -0.16824502 -0.10754319 -0.217811 -0.05102478 -0.12132911 0.31142324 -0.13418342 -0.057501055 0.065566376 0.078432105 -0.044216465 0.3305364 -0.03408114 0.24266917 -0.28549695 -0.2602323 -0.32261193 -0.13939127 -0.1468142 -0.18632649 -0.10907905 -0.027494129 -0.16557114 0.08218541 0.007595172 -0.028025644 0.03395086 -0.10590668 0.14330244 -0.01750684 0.26137528 0.16596481 -0.0101939 -0.043367255 -0.11685836 -0.06314254 -0.1553775 0.07133382 -0.05033708 -0.0967671 -0.26188934 0.09448643 -0.18858148 -0.08541845 0.20093787 -0.14694661 -0.03421358 -0.26999742 0.26742008 0.18702188 0.27157888 -0.0064811395 -0.20556992 0.07255065 0.049629413 0.021883123 -0.20267451 -0.10846969 0.08543558 0.048542906 -0.10957765 0.11560034 -0.16150692 -0.08192209 0.0061423085 -0.14921789 -0.081494525 0.18561113 0.08510684 0.0134886475 -0.08209623 0.059030797 0.01116558 -0.06184248 -0.07909133 -0.042538267 0.02768906 -0.18332535 0.024180567 0.027881633 0.033909436 0.052012637 -0.007962304 0.040282864 0.05452779 -0.09443112 0.19193806 -0.020888537
84 -0.0430761 -0.05053284 0.031670623 0.014166225 -0.074605495 -0.063854605 0.07698826 -0.08214578 -0.11058194 -0.0106762545 -0.086821884 -0.054517437 0.08122495 -0.01603251 -0.051050257 -0.037260447 -0.04516981 0.06229363 -0.0043542203 -0.079121895 -0.06432732 0.07552924 -0.05511526 0.011745065 0.027778022 -0.044351548 -0.05775807 -0.09667876 0.044655234 0.1992504 -0.06977305 0.06573981 -0.103983164 0.050267335 0.071298555 0.09855389 -0.03873056 0.02013587 -0.13183393 0.094786525 -0.023746539 -0.1757543 -0.01339579 -0.061022803 -0.1647416 -0.0030369523 0.014109011 -0.04092292 -0.11382879 0.027366634 -0.012450839 -0.019168349 -0.08676291 -0.07920066 -0.21954958 -0.24251959 -0.10309892 0.01740829 -0.018728212 0.007723871 -0.046625003 0.13347863 -0.19596699 0.15289892 -0.018146234 -0.094527416 -0.037814006 -0.035824884 0.03861864 -0.13495001 0.06759027 -0.01509985 0.0040998682 -0.08003054 0.07912741 0.12510066 -0.017194303 -0.122421205 0.043653958 -0.1324482 0.19423902 -0.07160311 -0.18284316 -0.062969185 0.043858428 0.1347249 0.12952897 -0.01547881 0.0333077 0.1147143 -0.13247907 0.052941766 -0.061620858 -0.066373326 -0.23106213 0.20501702 0.01278091 -0.09633927 0.24021578 0.29130057 -0.23210968 -0.0314366 0.042561233 -0.0010376023 0.047442093 -0.06603975 -0.03459806 -0.023660164 0.22180693 0.00291014 -0.05754553 0.0562855 0.0678052 -0.050104395 -0.11451498 0.0011929828 -0.040636998 0.26930216 -0.18267344 0.07582416 0.1700205 0.28554192 -0.07817255 -0.15028574 -0.058024704 0.09279554 -0.057183113 0.24379762
137 -0.12820162 0.19500408 0.09544 0.017031416 -0.15799809 0.21644832 0.08601871 0.21859366 0.28221807 0.3414974 -0.0853881 0.17998388 0.023228355 -0.06681897 0.16469051 -0.31110844 0.23208071 0.032364663 0.17731766 -0.26232365 0.037842825 0.13595794 -0.02659025 0.24792519 0.056975204 -0.58556205 -0.2234067 -0.19296986 -0.41698036 -0.10674393 -0.057901952 0.1338865 -0.2563104 -0.069275774 0.12503168 0.28246123 -0.15109701 -0.12029782 -0.098180905 -0.055681437 -0.27213076 0.12912823 -0.27473488 -0.09586545 -0.07863048 0.13379759 0.19100586 -0.012058772 -0.0024858376 0.11463874 -0.057055354 0.040857527 -0.18200782 0.060379826 -0.35561013 -0.26126692 0.11832723 -0.13146284 -0.12519445 -0.060005773 0.006926745 0.2099558 0.1449733 0.0888398 -0.1456721 -0.0051488862 0.05033201 -0.00079140696 -0.19157927 0.122409254 0.42267197 0.104586124 0.004354625 -0.099404834 0.08874483 0.11217548 0.046521753 0.07444342 0.11393162 0.00866502 0.06238375 0.03094449 0.016963901 -0.13590293 -0.12138478 -0.32194227 -0.0074659907 0.12207267 -0.077909 -0.1982011 0.18584958 -0.12309733 -0.15594706 -0.11257009 -0.13299894 -0.03316837 -0.14677055 -0.43660045 -0.053676542 0.24429707 -0.16254056 -0.061911747 0.16727267 -0.0981349 -0.19650814 -0.39722025 -0.19810404 0.13390432 0.20108876 0.18455976 -0.06567903 0.36389494 0.108943865 -0.10122742 -0.24706638 -0.12937725 0.11186943 -0.08085404 -0.22674616 0.053683 -0.014166796 0.118273444 -0.014478292 -0.17179076 0.05882917 0.036669973 0.106618516 -0.022057017
96 -0.0883846 -0.27291104 -0.087886125 -0.07191711 0.11347969 -0.024942541 -0.049490713 0.1277756 0.022711005 0.08687137 0.08085783 -0.027066005 -0.124682784 -0.1202231 0.05325021 -0.21527284 0.1449732 0.052667458 -0.20646316 0.027283438 0.21240956 0.095457606 -0.019032938 -0.09839003 -0.038721316 -0.11243251 -0.10683432 0.011489833 -0.10372819 -0.3361265 0.068161786 0.023039877 -0.045476805 -0.13743526 -0.04914438 0.23522605 -0.35842687 -0.2627703 0.027806727 0.04386749 -0.2931851 0.12507685 -0.16660172 -0.10532983 -0.054113455 0.09691334 -0.052731123 -0.11461281 0.04449632 0.1405093 -0.04963085 0.023670742 0.1515181 0.10894618 -0.06340494 -0.14224234 -0.14432882 -0.13723148 0.14560449 0.099531054 -0.14576304 -0.04737354 0.038970478 -0.006256119 -0.092567675 -0.053272665 0.05746819 -0.038700692 0.16197951 -0.0793439 0.13714895 0.07249072 0.12886994 -0.09485839 -0.06483058 0.071974725 -0.18333028 0.05490404 -0.020588558 -0.0048890146 -0.025920657 0.12587605 -0.16611968 -0.018326527 0.20794947 0.075342976 0.07170101 -0.1218441 0.18545748 0.007935464 0.079292096 0.13261528 -0.11417384 -0.04248813 -0.09583387 0.039223243 0.04776202 -0.03624476 0.06325385 0.07882578 0.040069565 -0.0077005927 -0.01625689 0.08727809 0.024237078 -0.20961763 -0.06851921 0.18409744 -0.042695533 0.0059323767 0.05994325 -0.07130823 0.1731994 -0.07124122 -0.027391383 0.28608203 -0.015175562 -0.11818273 0.006697792 0.045113653 -0.13927273 0.028801663 0.1264503 0.21036994 0.10806553 0.0050829 0.20109643 -0.029638
