1149 128
1125 0.38968176 -0.22578743 0.0834207 -0.3063306 -0.1497587 0.10924263 0.1036874 -0.33890605 0.21926922 -0.014085633 0.027353467 -0.14856958 -0.12603123 -0.13224787 -0.040228687 -0.099928595 0.29292035 -0.11211241 -0.14928506 -0.12510368 0.060623556 0.16049226 -0.20128964 0.16562258 -0.041797563 -0.33134267 -0.08747469 -0.18864873 0.1804352 -0.021575376 0.1784478 -0.1300383 0.047862988 -0.080238044 0.2983653 -0.24693811 0.2334689 0.03700102 -0.1217983 -0.03733463 0.06906643 -0.05172727 -0.057887748 -0.124991514 0.33489272 0.16899967 0.09227916 -0.269611 0.007099883 0.22895335 0.06997409 0.4855558 0.110775724 0.2879411 -0.088416286 0.07955942 -0.030732984 0.15599115 -0.18827665 -0.024177102 0.026538782 -0.1044292 0.048613474 -0.026972007 0.25675985 0.07836819 -0.03661234 -0.01641991 -0.16182026 -0.033357438 -0.002090576 0.17105794 0.07123211 -0.0019322839 0.12398011 -0.1990501 0.010786457 0.17303234 -0.04739843 -0.11716676 -0.105350904 0.06289833 -0.07328318 -0.002141552 -0.12858689 -0.09717443 0.08093035 -0.13191976 0.26498297 -0.03466406 -0.12093789 0.26804584 0.24672689 0.12046548 -0.24490936 0.10494418 -0.033336572 -0.1502372 0.22280198 0.11570415 -0.08214892 0.15736383 -0.13387768 -0.021143593 0.12673144 0.0033156269 0.047725406 0.21490173 0.074959725 0.13357529 0.067952245 0.44793656 -0.092623524 -0.2050192 -0.19191903 0.1285339 0.00039088083 -0.1221716 -0.039384354 -0.095870964 0.028945725 0.32469046 -0.012687426 -0.06517297 0.028510116 0.01767795 -0.07503153 -0.00811864
1119 0.03905342 -0.13033731 0.24134627 -0.0979183 -0.11442868 -0.24633726 0.19399646 0.077382796 0.11320049 0.06475745 -0.07196745 -0.26884556 -0.054114394 0.13456383 0.3749096 0.049554 0.29037997 -0.09306704 -0.007899863 0.049188808 0.15179689 -0.014485317 -0.30434835 0.19222379 0.12623845 -0.2797314 0.2545459 -0.19735983 -0.0901261 -0.08573828 -0.19671868 0.047226314 -0.14047368 0.1730308 0.18645948 -0.1292395 0.18195029 0.014443947 0.010976769 0.23975068 -0.054119732 0.15918532 0.13617128 -0.1691562 -0.0892812 0.16293041 -0.05602555 -0.27979735 -0.005448604 0.22565983 -0.23963207 0.28951693 0.02660864 -0.06498182 0.002235093 -0.072532386 0.10836526 0.1671939 -0.21666329 0.22081241 -0.14559694 0.025619049 0.083543785 0.07940737 -0.10659419 0.04890885 0.17805773 0.003825307 -0.062125366 -0.0846289 0.25787467 -0.15520719 0.056833286 0.106181644 0.24500193 0.3685011 -0.027474953 0.24880803 0.04409806 0.057041276 -0.1622323 0.0008264105 -0.018663239 -0.05642438 -0.092242345 -0.054214384 -0.0931508 -0.065104075 -0.19135809 -0.1168499 0.28868875 0.08006339 -0.12635098 0.051811084 0.110617496 -0.0016814097 -0.28517944 -0.039256107 0.3469052 -0.061505664 0.13701724 -0.45940956 -0.07447975 0.16287282 0.07542721 -0.04291444 0.038972124 0.08170366 0.09236535 -0.12889244 -0.01357054 -0.07424854 0.021351472 0.114704385 -0.12195806 -0.012725908 0.2125397 -0.05084111 -0.16091105 -0.013023424 -0.12233096 0.09353583 -0.01654061 -0.327925 -0.16899078 0.10461786 -0.06876894 -0.14165038
1116 0.094403856 -0.2763905 0.12671971 0.043885883 0.0699098 -0.094199955 0.20900875 -0.18873619 0.23763515 0.12812854 0.06964215 0.009828427 -0.3984263 -0.21133386 0.04091089 -0.2351501 -0.06740303 0.05393253 0.13305421 -0.045203183 -0.036133163 -0.093198635 -0.09805035 0.011712933 0.20998612 -0.2313569 0.06247093 0.12701887 0.23679757 -0.04200258 0.19753247 -0.022089353 -0.053318128 0.0070040314 -0.13030429 -0.10282118 0.026486132 -0.090723276 0.04122539 0.047254875 -0.13030104 -0.07938655 0.06444918 -0.14184983 -0.20001693 -0.1562123 0.23687331 -0.10376025 -0.0077478252 0.0447504 -0.38100976 0.11584279 0.11881084 -0.11404802 0.053331695 0.0124856 -0.045752216 -0.12941854 0.09569566 0.04214402 0.1489465 -0.34252802 -0.025430366 -0.14679424 -0.029940667 -0.04463885 0.05144104 -0.24088542 0.009974632 -0.15217957 0.32074794 -0.14046228 -0.07379957 -0.0331439 0.18348458 0.33787632 -0.35878274 0.04593862 -0.09037983 0.056117043 -0.10218176 -0.041957 0.22525659 0.20414835 -0.039528172 0.04095052 0.021625772 -0.3211385 -0.03195575 0.1788496 0.13442187 0.10413678 0.04330977 0.22852735 0.21126214 0.3027508 0.03684133 0.23973218 0.29672226 -0.30404273 -0.23432983 -0.16507293 0.29653 0.1211486 0.2603253 0.19029999 -0.05992147 -0.083425164 -0.18938467 0.043289874 0.05656479 0.18370785 0.28413707 -0.18027714 -0.054654885 0.03786356 -0.07448613 0.010496046 0.2144397 -0.17774034 -0.009528437 0.12548311 -0.102806196 0.04755438 0.12625435 -0.040465236 -0.115404926 -0.10007153
1115 -0.13913877 -0.30231604 0.16972949 -0.10336903 -0.23232594 -0.12291068 0.15219466 -0.27936018 0.004607115 0.19076881 -0.010865905 0.23262922 -0.1242971 -0.2059913 -0.005257667 -0.34176508 0.08896779 -0.06308982 0.044403393 0.16737303 -0.05353314 -0.08196168 -0.12383977 0.2639219 -0.004981831 0.06709907 -0.23935916 -0.011962416 -0.13520993 -0.24997061 -0.03910957 -0.2621656 -0.09506366 0.052148715 0.05994102 -8.980271e-05 0.24348593 -0.27837983 0.19135424 0.2584001 -0.1522215 0.15928409 0.10566992 -0.13206731 -0.26757276 0.06265131 0.17325583 0.11392949 -0.03570198 0.04143832 -0.121402815 0.07433623 -0.040779766 0.045287717 -0.05682656 -0.03270027 0.025670122 -0.24333584 -0.031520665 0.13963129 -0.10305974 -0.3360511 0.18261236 -0.24039844 -0.19620359 -0.11197893 -0.21154153 -0.23055473 0.1727739 -0.014698382 0.1899812 -0.0009306492 0.12898983 0.07297815 0.2584292 0.024653804 0.20171733 -0.07617701 0.15379709 0.10869459 0.035089552 0.0762134 -0.117970966 -0.13077866 -0.071066186 -0.17014708 0.08710715 0.10494322 0.103504755 0.11419979 0.08986435 0.09129002 -0.13451982 -0.36831164 -0.090882055 0.30559978 0.018881626 0.017851805 -0.044854246 0.054845296 0.035363734 -0.19569482 -0.19251364 0.46446553 0.19720641 -0.029391354 0.12301027 -0.12208065 -0.13412891 -0.059732642 -0.0331264 0.11514227 0.07241677 -0.3503342 0.004068709 0.14601544 -0.0880064 0.030649267 -0.0546797 -0.062478065 0.05167717 0.30051926 0.019789478 -0.006978788 -0.19667901 0.05265902 0.044201285 -0.007952348
1134 0.04946318 -0.124708764 0.24155498 -0.20367269 0.015792992 -0.079996355 0.18815619 -0.0660647 0.105433635 0.20689145 0.034318313 -0.30453622 -0.36467555 -0.10461572 0.17372654 -0.15766113 0.160786 -0.06328488 -0.03616273 -0.08918007 0.18259199 -0.11025968 -0.040038846 0.21047534 0.0390458 -0.12674673 0.06253644 0.09682593 -0.00285127 0.06332691 0.15996738 0.055194207 0.06743306 0.08345246 0.001645832 0.099878855 0.13372001 -0.17390272 0.35891682 -0.14849791 -0.3281034 -0.09110116 -0.20269671 -0.08880702 -0.25044748 0.21999091 0.21365282 -0.48276928 0.0030921462 0.041503757 -0.19588652 -0.0654482 0.0999349 0.2936238 0.24257843 -0.042767815 -0.071139835 -0.1254777 -0.0533878 0.04098532 -0.07983437 0.03688983 -0.0075810673 -0.07105571 -0.34408808 -0.29961926 -0.122308 -0.05063909 -0.38185707 -0.26472363 0.27309036 -0.13132136 0.09934728 -0.115118206 0.035550088 -0.12330377 0.07173971 -0.15856716 0.093632825 -0.098246604 0.0164515 0.0112916455 -0.03194415 -0.09761004 0.05670518 -0.1504893 -0.21154766 -0.08020185 0.09167209 -0.4032404 0.10502 -0.10433998 0.19353838 0.08412706 0.19701712 0.16330096 0.26565439 0.029981844 -0.012250589 -0.11271172 -0.0020681708 0.15394399 -0.1586368 0.19235404 0.06676937 0.0032509277 0.12267893 -0.092351384 0.06785088 -0.12684382 0.3627683 0.05627345 0.013861208 -0.053891923 -0.14460784 0.21293418 -0.041582417 -0.0019605246 -0.19489202 -0.050216813 -0.09033841 0.08016798 0.16808419 -0.09496197 0.00889266 -0.010876325 0.010532683 0.0718125
1117 0.27521732 -0.074867785 0.29460508 -0.35819113 0.34922913 -0.21558909 0.4068722 0.007930553 0.28428757 0.36738288 0.061464433 -0.15884274 -0.34917453 0.23026907 -0.04230637 -0.02542656 0.22458634 0.039506074 0.16634001 -0.08089336 0.002938504 0.19065903 -0.06020692 -0.006523257 -0.11864964 -0.03791697 0.031519275 -0.09114428 0.018255232 -0.05424784 0.04594914 -0.35860372 -0.09411571 0.017288502 0.080154836 -0.11326215 -0.074272856 -0.012426171 0.06953612 0.18078148 -0.0018328874 -0.11960042 -0.07285373 0.04478064 -0.20234041 -0.2667724 0.19475454 0.025872275 -0.1870309 0.114548445 0.030359818 0.088370614 0.1100311 0.026120085 0.06258595 -0.11485101 -0.25664094 0.017868139 -0.10222487 -0.12991652 0.1118614 0.08538144 0.0062885713 -0.020226382 0.04475085 -0.16201352 -0.17692596 -0.115435034 0.014486909 -0.156408 0.21471295 0.1035759 0.204471 0.1399501 0.08473312 0.027745087 -0.07874198 0.007932008 0.24713168 -0.027999278 0.020499587 0.1622257 0.20294927 -0.12844841 -0.12989165 0.04062479 0.052204598 0.3994558 0.027861994 -0.011535396 0.017676366 0.25281093 -0.08149133 0.067228034 0.10648982 -0.15703106 0.025352545 0.064900324 -0.014018579 -0.23454665 0.12612984 -0.1093356 0.032529827 0.35415778 0.11441495 5.1091487e-05 0.024548685 -0.02738682 0.026856784 -0.03404255 -0.028343508 -0.016579298 0.12649429 -0.26083842 -0.085999906 0.11485958 0.11872521 0.016392635 0.099213146 -0.128056 -0.00930114 -0.18048576 -0.025507191 0.18323897 -0.1949652 0.35722524 0.3808031 0.18914166
1136 0.18999653 0.10260476 0.25651854 -0.21810167 -0.18015803 0.087238386 0.32358152 -0.27825257 0.0631483 -0.2403906 -0.02964035 -0.10903726 -0.33283088 0.016602565 -0.028452026 -0.05465112 0.31753486 0.089380756 0.18705508 0.20624408 0.08971785 -0.18197541 0.02452815 -0.03923091 0.15209217 -0.13012868 0.09268475 0.03069138 0.06754375 -0.10094401 -0.074761 0.10174263 -0.27216056 0.033082694 0.30467224 0.06799264 0.0637964 -0.059146058 0.14292386 -0.17480125 -0.038004566 -0.20178348 0.037070215 0.12754156 0.19011174 -0.0054055573 -0.3354729 0.09833355 -0.44843182 0.26811436 0.022885362 0.22967215 0.11480263 0.04185708 -0.17835547 -0.24059214 -0.13079546 -0.2686377 -0.35158774 -0.11593649 0.11440629 0.019027893 0.06958962 -0.39755654 -0.060561102 0.044023838 -0.064709224 -0.104121976 0.009580142 -0.17528936 0.15871419 0.24098732 0.14368366 -0.049534492 0.13686319 0.0912336 -0.1783495 -0.03341592 0.020791922 0.13400374 0.05764213 -0.33546162 -0.006692911 0.0026562929 0.067661926 -0.19822904 -0.06665079 -0.05861664 0.11344323 -0.111454345 -0.09331238 -0.16592893 -0.09291946 -0.13658501 -0.027240103 0.07719543 -0.116414 0.24981058 0.085227706 -0.3395418 0.037693944 -0.25593966 0.003550756 -0.12949309 0.07398671 -0.024235297 0.20710376 -0.06295705 -0.024275353 -0.14963782 0.15087846 -0.18339765 -0.11854526 0.018400714 -0.10792691 0.14241357 -0.18236819 -0.12343604 0.25582176 -0.047220618 0.1527331 0.14751785 0.011600068 -0.13541713 -0.15865475 0.18630725 -0.11946519 0.06252343
1107 0.06054363 0.026378639 0.09246466 -0.18926267 0.17205715 -0.034041684 0.17687665 0.20684563 0.09641242 -0.0025932353 0.11865907 -0.11232554 -0.3790525 -0.04300512 -0.18985222 -0.11115997 -0.07251032 -0.021263462 0.06529645 0.1185866 0.2799973 -0.11033803 -0.22451863 0.15079165 0.027192598 0.033692937 -0.21088897 0.20936862 0.13269448 -0.02408219 -0.12322674 -0.15288863 0.12061934 0.18076168 0.25512558 0.21636705 -0.06025773 -0.25012046 0.14060418 0.19916458 -0.05359653 0.056391012 -0.11433762 0.09804931 0.14340132 0.26568508 0.10251056 0.06801167 -0.23389427 -0.31940827 -0.00491063 0.19728817 -0.06106302 0.09136876 0.16715772 0.1766365 -0.13257885 -0.02644383 0.06487336 -0.1647826 -0.09538292 -0.40072164 -0.21190517 -0.08550338 -0.06970622 -0.08478384 0.09556388 -0.24669528 -0.25345853 0.0701262 0.14495951 -0.01281982 0.30766624 -0.10491139 0.42723122 0.11222183 -0.07154894 0.037881024 -0.06254891 0.055347648 -0.24760282 0.026380897 0.08139702 -0.29328528 0.17785862 0.018517422 -0.029901903 0.042911004 -0.18840815 0.0433977 0.08424691 0.050037075 -0.15134521 -0.0025838518 0.17601421 0.035200898 -0.0590821 -0.112248674 0.30393425 0.09016861 -0.33616632 -0.18784218 -0.1885646 0.06357417 0.38555998 -0.100417934 0.004760486 0.11085686 0.28694764 0.04727136 -0.0079552345 -0.007965296 -0.057785865 -0.13182111 -0.16652642 -0.106455125 0.16175656 -0.07242383 0.28196898 0.069620274 -0.061431687 -0.011885977 0.082973 -0.18495867 0.09435591 -0.34652114 0.019629383 0.2874248
1138 0.28800428 -0.40175074 0.2880573 0.124802865 -0.30741572 -0.17366584 0.22844937 -0.002579955 0.14798108 -0.195242 -0.24712066 -0.12638214 -0.26231477 -0.02054448 0.45551372 -0.34884822 0.23157766 -0.36975792 0.29311654 0.3240981 -0.03075011 0.067748554 -0.2015278 -0.099206656 -0.011092708 0.03242901 -0.06863007 -0.06093605 0.19538629 0.12909628 0.108504504 0.038274933 0.09417714 -0.22191356 0.2633319 0.09044418 -0.30800015 -0.17267483 -0.14342277 0.15326194 0.16093689 0.14357872 0.33529776 -0.284409 -0.19911188 0.034416847 0.15964939 -0.08639387 -0.12678891 0.0998495 0.15789557 0.07536207 0.17041872 -0.039785262 0.026793383 -0.11883922 0.06180678 0.12742679 -0.20318875 -0.06813868 -0.096556865 0.16160686 -0.21396108 -0.1552117 0.0046790275 -0.12791562 0.13517801 0.031722263 -0.027569672 -0.08319463 -0.053824812 0.27539837 -0.017963652 -0.13877149 0.2078647 0.08216343 -0.017658897 -0.13872157 -0.24637789 -0.048354212 -0.13608766 -0.21014209 -0.06674619 -0.12904437 -0.2725489 0.023048736 0.020938449 0.120569035 -0.11352671 0.073008046 -0.14260243 -0.061045192 0.055297114 0.11495155 -0.11706124 0.10902934 0.034825876 0.22654682 0.051404845 -0.19971195 -0.16610377 0.14985925 -0.20642309 0.05490143 0.08040529 -0.18449008 -0.15665957 0.120805025 0.048938826 -0.09436622 0.108684555 -0.027116448 -0.10417216 0.011670053 -0.16070208 0.2387527 -0.4234227 -0.13520996 0.27415755 -0.08957504 -0.091425866 0.038085956 0.119416706 0.008643795 -0.27152774 -0.030005297 -0.050896514 0.02592091
1111 -0.09453181 -0.014666606 0.62875867 -0.20810597 -0.14813808 -0.029912187 0.07477531 0.041646283 0.1200028 -0.18034667 0.06279219 -0.23218203 -0.11964763 0.034179512 -0.1047109 0.024003275 -0.08288537 0.10447448 0.16877164 0.063823745 0.19190608 -0.14280623 -0.08690579 0.17542587 0.028857859 -0.07959744 -0.118522406 -0.07132357 0.0063439063 0.10589451 -0.16393022 -0.18499368 -0.052695148 0.023194449 -0.006448652 -0.105270505 0.04147585 0.12238391 0.008745587 0.0479025 -0.027509036 0.0017039458 0.0029163873 -0.14814873 0.055943497 -0.21524481 0.12569843 0.11910863 0.15685926 0.10861384 0.018254193 0.2258214 -0.07958471 0.05472186 -0.030149706 -0.10510435 0.020472415 -0.10159427 0.21254715 0.07391508 -0.10948654 -0.013547082 0.14313069 -0.22346352 0.13892011 0.15710644 -0.20789388 0.0023502067 -0.05002124 -0.14085537 0.4135925 -0.027800506 0.05567223 0.23124564 0.18981555 -0.012640182 0.13986811 0.12975164 -0.011317176 -0.0067043076 0.20669974 -0.0037939246 0.093289174 -0.34794417 0.050160635 -0.14777869 0.16966128 -0.26193255 -0.29880595 -0.16643243 0.040333755 0.18307541 0.0319188 0.155229 0.28258952 0.1118952 0.14095166 0.14212607 -0.05276421 -0.10522203 0.08900872 0.16577855 0.23719509 0.082544744 0.39681953 -0.1712704 0.2182982 0.089497454 0.08855676 -0.25768942 0.052090853 -0.06431138 0.14637034 -0.044297293 -0.17402369 0.16565563 -0.40136293 -0.057810925 0.1453592 0.045585107 -0.20710705 0.22402845 0.1697072 -0.004378211 -0.1487457 0.024194874 0.19852142 -0.049737222
1133 0.12269328 0.06170547 0.23036736 -0.23699316 -0.29254073 -0.3672583 0.38240737 -0.0060880664 0.1729776 0.10789038 0.056082863 0.118476264 0.03174779 -0.06732028 0.071578816 0.12974815 -0.056129146 -0.03886944 0.212976 0.15178983 -0.14148532 0.15303825 0.001273624 0.25890356 -0.005270746 0.18471792 0.018901596 -0.027380839 0.048034113 -0.020614717 0.25833434 0.07666805 -0.09030954 0.15351689 -0.06754313 0.004639342 0.15055218 0.029221488 0.16605423 0.045117244 0.2749254 -0.058386452 0.036148608 -0.04198938 -0.09618378 0.23987597 0.21959208 -0.011467565 0.0174258 -0.072112866 -0.15848546 -0.026195101 0.24779204 0.095422514 -0.10517881 0.17334454 -0.103153154 -0.11884875 -0.06897608 -0.018796146 -0.2024889 -0.36080104 0.013004241 -0.018402247 0.40860903 0.11317656 -0.12597047 -0.19161646 -0.04267383 -0.557217 0.1083297 0.0026131216 0.15939978 -0.19735596 0.34108815 -0.056777522 0.046182647 -0.10881969 0.1384584 0.18790527 0.036703788 0.15259099 0.1991617 -0.11424161 0.14806509 -0.040250532 -0.11794538 -0.0905023 -0.064052984 -0.2890229 0.1577269 0.11575448 0.022008643 0.02685033 0.12090907 0.19345734 -0.09731446 0.17379563 -0.013479087 -0.062950484 -0.08802076 0.06917335 0.12644145 0.041818123 0.0020502752 -0.10920912 -0.06618848 0.18757844 0.057171285 -0.06028181 -0.17302851 -0.04938811 -0.25104797 -0.068213455 -0.3357278 -0.18587524 -0.006282032 0.014320413 0.1785036 -0.020708194 -0.1178165 0.05689316 0.16795444 0.027897669 -0.2766717 0.11938123 0.19181989 0.049655613
1112 0.23225284 -0.2324391 0.2620755 -0.264549 -0.029376209 0.06843413 -0.18685824 -0.2407511 -0.122171886 0.16043074 0.09377745 -0.14933246 -0.2564706 0.0338578 0.069220796 -0.10515829 -0.019135641 0.2206635 -0.1793317 -0.0059478083 0.0049126516 -0.12195536 -0.0911651 -0.040573183 0.3046449 -0.06318979 -0.27860776 -0.09278245 -0.064394236 0.1790843 0.13252842 -0.10700644 -0.46192196 -0.24698871 -0.08689832 -0.18227613 -0.059626233 -0.18795389 -0.15055801 0.19262157 0.13657516 -0.22395787 0.0030962946 -0.15959875 -0.22311941 0.16812633 -0.2707735 -0.026840882 0.03575549 0.16789758 -0.23947671 0.011724294 0.070326276 0.17379579 -0.03609635 -0.24748531 -0.030866157 0.09485734 -0.43050566 -0.06879719 -0.19616179 -0.23929949 -0.03602524 0.2842181 -0.15569972 -0.02257767 -0.1992539 -0.19190553 -0.3186029 0.1286614 -0.08082536 -0.05492917 0.3491339 -0.16471711 0.36309516 0.1165638 -0.039551444 0.04355925 0.08541739 -0.15036866 0.019610671 0.14055267 -0.08864745 0.14596358 0.012970306 -0.26708314 0.26115745 0.12020368 -0.26341853 0.19055949 0.04257726 0.052548356 0.18132697 0.058176607 0.06838307 -0.28327596 0.044459958 0.18771653 -0.0017320364 0.09701845 -0.16499971 0.14898679 -0.08013838 -0.10404205 0.07312824 -0.27997354 0.024984438 0.011771094 0.109382 0.07118221 0.08795652 -0.09493841 -0.057233375 -0.21490079 -0.043903686 -0.1454048 -0.13058181 0.069571696 0.13087867 -0.028593933 -0.2211904 0.06739045 -0.1723813 -0.092867225 -0.06476882 -0.21956334 -0.013003268 0.14982201
1118 0.19401386 -0.33861175 0.42006892 0.11966914 -0.18205485 -0.32088467 0.36432543 -0.06552642 0.14993037 0.1472038 0.04436945 -0.145568 -0.35205805 -0.1408808 -0.10220623 0.17773294 0.20416534 -0.26184833 0.01774252 -0.016626922 -0.03269814 -0.07607728 -0.17803533 0.022660391 -0.2628686 -0.1989586 -0.107316494 -0.08337618 -0.06363323 0.020923942 -0.1433563 -0.00432348 -0.044408284 -0.06694403 0.13302007 -0.11119906 0.17444378 0.20356612 0.17159487 -0.039092205 -0.00581097 0.29057235 -0.31986195 0.022748347 -0.16874449 -0.12284779 0.019503225 0.16434225 -0.17808996 0.2604147 0.17837316 -0.07646459 0.06298025 0.0864627 -0.16459838 -0.0833508 -0.11523946 -0.20373575 -0.13380775 0.051141948 -0.12847093 -0.14757454 -0.031100016 0.06967618 -0.0570579 -0.01683519 -0.047327332 -0.053171515 -0.015826076 -0.28111076 0.22131033 -0.31233165 0.09258502 -0.14828123 0.1499619 -0.14280333 0.0389104 -0.21597017 0.0014901743 0.039228715 -0.16180661 0.008055959 -0.10299403 -0.2841416 0.17321776 0.06302394 0.24007206 0.2026905 -0.15472037 -0.13376206 0.24347861 -0.0019414442 0.04822085 0.20226184 -0.052278835 -0.022419352 0.11053312 -0.026632503 0.23255305 -0.13057646 0.19652449 0.045218155 0.011222891 -0.15547991 0.120132506 0.097829826 0.16256104 0.046841376 0.04373015 -0.26209596 -0.21455039 -0.21542072 -0.09530227 -0.08308467 0.013334549 0.11749944 -0.07766644 0.07385977 0.05596477 -0.228294 0.019525396 0.3473015 -0.16628599 0.24155213 0.114741534 -0.15909986 0.041926656 -0.072165646
1121 -0.2879494 -0.3979761 0.24728826 -0.062456917 -0.27352896 0.06471504 0.22736709 0.15226574 0.29804 0.08871646 0.25374934 0.024404097 -0.21023282 -0.056364384 -0.03588155 0.013534519 0.15191838 0.15192172 -0.13489191 -0.073725596 0.23833616 -0.10272766 -0.019123454 0.023356933 0.049590476 0.09630426 -0.03904734 -0.10307048 -0.34357125 -0.110096805 0.21245165 -0.19328353 0.066466205 0.05651639 -0.014803577 -0.05864945 -0.038901012 0.03082696 -0.0074067586 0.027516525 -0.24726756 -0.013207602 0.16858995 -0.089025915 0.051515814 -0.033849955 0.23688616 -0.060207877 0.11367179 -0.08465768 0.12252897 0.015228348 -0.0030457454 0.31217337 -0.45783225 -0.030113606 -0.15770246 -0.0732429 0.14998102 -0.06776033 -0.04027593 -0.22810124 0.06337609 0.1368203 -0.12074868 -0.099337 0.28864846 0.047063254 -0.055818737 -0.1525646 -0.0035520806 0.13402306 0.39363045 -0.12567544 0.2239596 0.015162217 -0.24594675 0.14533961 -0.019526342 -0.056250174 -0.28055513 0.0059942906 0.30099347 0.0859812 0.09446673 -0.16858065 -0.11797191 0.01378065 -0.011245249 0.014611385 -0.029304892 0.19444515 0.035040326 0.020849736 0.5559616 0.15284824 -0.23957302 -0.01714879 -0.039008792 -0.28880498 0.18892847 0.13461398 -0.15141092 0.027771978 -0.026286732 -0.17269334 -0.04306089 -0.2681337 0.0026381272 -0.3887372 -0.081067525 -0.04183873 -0.15209441 -0.036291495 -0.2818226 0.36616898 0.11720249 -0.09315434 0.0063195634 -0.36347654 -0.00025042487 -0.09954519 0.045393493 0.009978996 0.018885428 0.16884701 -0.0885201 0.072237596
1126 0.17521834 -0.17041528 0.41268 -0.2663285 -0.034193005 -0.0037564228 0.44501552 -0.31008282 0.35620233 -0.053972203 -0.14063086 -0.09858972 -0.16200535 -0.19071676 0.102622144 -0.042960674 0.1799723 -0.059208248 0.11409316 0.04038441 0.2856094 -0.14799544 -0.007680861 0.14163744 -0.021188257 0.046878066 -0.22493759 0.17992242 -0.016712172 0.0061543933 -0.061360434 0.32925987 -0.07621915 -0.26081428 -0.23089463 -0.040874172 -0.16910867 0.10092045 -0.055055935 -0.21928297 0.057418935 -0.18474989 -0.043210655 0.054012872 -0.24554966 -0.06785654 0.24575734 -0.21205695 0.02010007 -0.00061994133 0.12771244 0.3959034 -0.07261056 -0.054074712 -0.013457688 0.2550727 0.30350208 0.055330586 -0.050461326 -0.020154726 -0.034780078 -0.12533766 -0.2299597 0.2221233 0.11569212 -0.09811821 0.05506646 -0.29286787 -0.0026937898 0.12376181 0.1152993 0.20636469 0.050127883 -0.10185902 0.32012966 -0.15735611 -0.021240786 0.043899298 0.034471765 0.025940683 0.077484116 0.05961592 0.07109218 0.08773349 -0.001765007 -0.39784557 -0.27420223 0.09377514 -0.1024159 0.09100761 0.102898814 -0.07882637 -0.087255865 -0.071486175 -0.18678252 0.008333717 -0.3541361 0.2486249 0.13405626 -0.13056713 -0.020299828 -0.010993103 -0.084789746 0.015825156 -0.19710629 -0.12824132 0.2785048 0.010464602 0.29697824 -0.17797664 0.08564952 0.016742913 0.25852704 0.051900584 0.009921523 0.09621831 0.14601569 0.13713112 0.07025641 0.16057712 0.23551397 0.15240493 -0.0007436607 0.2075263 -0.08830628 -0.24595803 0.07586914 -0.07943418
1114 -0.08397335 0.13108823 0.19260935 -0.17841566 0.0019170742 0.13454051 0.12027026 -0.016029466 -0.09690747 0.13267678 0.049848482 -0.028086266 0.06146469 -0.024912894 0.2339989 0.05994521 0.168847 0.040258564 -0.012243498 0.1612995 0.24577355 -0.0539392 -0.117012225 0.20933504 -0.24341558 0.22019182 -0.12700893 0.01984187 0.20957248 -0.0052476497 -0.029638482 0.049795926 -0.036295384 -0.20442614 0.14915946 -0.049132615 0.0037883958 -0.07489669 -0.28157446 0.07157077 -0.037671298 -0.026126215 0.017357126 -0.29652894 0.011715249 -0.13187975 0.09902224 -0.13216949 0.3066498 -0.12035194 0.022382678 0.17234153 0.16418777 -0.16951296 0.06695404 0.061227072 -0.1429192 0.08082107 -0.0788582 -0.17098418 -0.000925031 -0.12513997 0.21355455 -0.14294001 -0.19944215 0.13333933 -0.1591034 -0.21298866 -0.15969968 -0.16437197 0.31846145 0.1501034 0.45887256 -0.0480163 0.058242332 -0.030072052 -0.1868221 -0.24771905 0.11208052 0.022338068 -0.16203895 0.10068657 0.4123288 -0.1097787 -0.041459102 -0.20223765 0.15449935 0.51949894 -0.10660978 -0.06389583 0.31624234 0.22383504 0.42322803 -0.12623596 0.2259038 0.2145334 0.01102897 -0.16650194 0.18216868 -0.23024137 -0.1476228 -0.18953718 0.20761986 -0.14276351 0.10776743 -0.1768314 0.03129334 0.0017630991 -0.09481607 0.1816635 0.094087474 -0.22304195 -0.19444236 -0.091247424 -0.07212519 0.11983801 -0.061051093 0.17674886 -0.02274122 0.07105693 -0.06137261 0.18773626 -0.11852797 -0.030636407 -0.03015717 -0.1851331 -0.014981742 0.04641253
1127 0.081345655 -0.005687494 0.09256197 -0.01790786 -0.0927735 -0.08471733 0.33007726 0.3113395 0.49701896 0.031663522 0.0039892755 0.0647962 -0.09824162 0.06130965 0.09253034 -0.24973448 -0.18860868 -0.17328936 -0.020190747 -0.15641843 -0.241244 0.27053323 -0.038108803 -0.03504127 0.23810272 0.04565235 0.2770115 0.20106095 -0.060188968 -0.13050322 0.08832028 0.031677306 -0.21797435 -0.22326523 -0.059535883 0.017469788 0.18721545 0.025978943 0.06665766 -0.038769953 -0.16745205 0.02494716 -0.18949908 -0.36680713 0.16794434 -0.027985761 0.0040426753 -0.20985919 -0.12159978 -0.28912416 -0.0043660984 0.15388687 -0.09620961 0.13252611 -0.14179067 -0.16235885 0.016627228 0.13356592 0.19052015 -0.12728404 -0.3054961 0.1938747 0.027620872 0.1543945 -0.09769552 0.18405709 0.18493247 -0.22539738 -0.1705875 -0.20485997 0.25697944 0.18174265 0.3657984 0.078768745 0.23494555 -0.047041755 -0.021002986 -0.054491624 -0.044776052 -0.058203373 0.11780879 0.113910094 -0.0910388 -0.20874491 0.17602716 -0.06321067 0.38193098 0.033468015 0.15001196 0.056270845 0.08842848 0.033085454 -0.10798979 -0.07231738 0.20291695 -0.097707264 -0.16787246 0.09169232 -0.049806073 -0.22598866 -0.13128324 -0.11864188 0.22472146 0.05479625 0.4412006 -0.06290007 0.11135034 -0.14959647 -0.066553615 0.12906191 0.021329122 -0.1498431 -0.17119226 -0.3669368 -0.04611599 -0.121763505 0.09689469 -0.021475539 0.06621011 0.08687446 0.05096366 0.12372562 0.10721936 -0.0050901086 0.1548627 -0.07096093 0.27944693 -0.11393681
1128 0.19533567 -0.23053879 0.4309884 0.033464056 -0.04947255 -0.31567153 0.16200067 -0.1715775 0.16370028 0.35795283 0.16489194 -0.21797569 0.26127365 0.43180662 -0.06103742 0.060959037 0.059788454 0.027219892 0.030829484 0.17087525 0.05822538 -0.02485822 0.12740594 0.014694035 -0.0520291 0.2556761 0.06944449 0.24148858 -0.26990777 -0.019160137 0.29876193 0.11292782 -0.1355942 -0.27074826 0.25441125 0.43445602 0.120712265 -0.06730074 0.13896556 -0.10602241 0.22329931 -0.064070515 0.010321437 -0.027020391 -0.12556238 -0.10789715 0.11260798 -0.18214104 0.033276252 0.020475706 -0.103714526 0.18509865 -0.12578173 0.16108027 0.31086546 -0.007730125 -0.055842873 -0.098962694 -0.0005725894 0.082674526 -0.259063 -0.2147481 0.3399826 -0.0047795554 0.20483099 -0.16211814 0.017403433 -0.15506588 0.003544715 0.12091901 0.34799248 0.18823141 0.24384242 0.0201735 0.07699756 -0.025821371 -0.2436452 0.22204378 -0.19510798 0.08734854 -0.13274685 -0.14484823 0.036373667 -0.10752087 -0.14734815 -0.06866858 0.3513558 -0.21975206 0.11786837 -0.18231182 -0.12903625 -0.04182776 0.18477534 0.0123955915 0.07400458 -0.03726072 -0.099094465 0.13388224 0.12831591 -0.20917596 0.019689621 0.052694827 -0.002671428 0.25881028 0.081523836 -0.11296846 0.02291517 0.069917254 0.11457961 0.034682248 -0.10556831 -0.018015921 -0.19960462 0.103553094 0.04334644 0.1339962 -0.041718516 0.04509856 0.11905706 -0.05022565 0.13932301 0.043526016 0.18370977 0.10784319 -0.062197946 -0.13254875 0.124275185 0.081296355
1110 0.26449254 -0.026836645 0.097311966 -0.27086985 -0.18424338 -0.34704623 -0.191131 -0.10363121 -0.19038591 0.00066923146 0.2157385 -0.074973546 -0.029543808 0.08014855 0.13272329 -0.1902513 0.024585677 -0.081191264 -0.2235138 0.096220225 0.43503734 0.050467618 0.016733782 -0.21993528 0.049227227 0.056521587 -0.014246341 -0.08287893 0.08247058 -0.076753475 0.2349221 -0.010164532 -0.23226099 -0.06269956 -0.16549936 -0.03554684 -0.023634871 0.2404873 -0.06574693 0.18555447 -0.22572869 -0.044613976 -0.09950162 -0.12335282 0.10110538 0.09524933 0.3455771 -0.10600652 0.018837793 -0.15522626 0.059445657 0.19358271 -0.017317059 0.078673154 -0.024307322 -0.059096273 0.48041758 -0.06200827 0.035606157 -0.045396272 -0.28134513 -0.16918911 0.10548894 -0.1786393 0.07546666 0.042752348 0.17976177 -0.1827361 0.0926531 -0.05101692 0.32133538 0.031834763 0.19135451 0.2065284 0.17561989 -0.1819926 -0.09619916 0.12996793 0.22551902 -0.09031957 0.30937096 -0.07558585 0.08426057 0.1199776 0.18329857 -0.1111359 0.103342876 0.21442948 -0.07883526 -0.29640564 0.07294697 -0.07896366 0.027894573 0.17211075 -0.11323548 0.108220376 -0.01760359 -0.20650847 -0.008228403 -0.30218315 -0.30514613 -0.101350546 0.045704607 -0.057063736 0.110917136 0.00982158 0.08968866 0.10723701 0.08329814 -0.06537804 0.12142249 -0.44035977 0.12443908 -0.3346234 -0.12511519 -0.073168755 0.3108885 -0.06507286 0.17235246 -0.35437477 0.04586092 0.16663712 0.017191563 0.17166002 -0.08853882 -0.101376 -0.20967464 0.106968984
1113 0.21651296 0.109680094 -0.06845034 -0.21035284 -0.19326879 -0.30624092 -0.025951162 -0.16354875 0.23115036 0.11179012 0.14297627 -0.38097927 0.11389392 0.16754436 -0.03601867 -0.12540236 0.26358408 0.122374184 -6.581152e-05 0.1536918 -0.07686465 -0.07533488 -0.3161403 0.26788136 0.15362027 -0.33090568 -0.13259901 0.015993273 -0.00090357655 -0.07491802 0.2360985 0.20899703 0.09169715 0.06449113 -0.16448484 -0.03347836 -0.027020657 -0.49332625 0.14403053 0.16159986 -0.17258584 0.17878208 0.016183916 -0.00080143544 0.04040828 -0.20615155 -0.03574947 -0.11723525 0.09339735 0.20819177 0.107578166 0.017019007 -0.22398224 -0.08636243 0.17478971 -0.028841175 0.036241785 -0.25922838 0.30276355 -0.020134827 -0.009005499 -0.060030613 -0.044269424 0.30606174 0.085180625 0.11395714 0.17168748 -0.36287358 -0.20684959 -0.10164778 0.38910076 0.1961455 0.23979597 -0.11300953 0.29282668 -0.16510649 -0.17742737 -0.11946299 -0.1946653 0.07877907 0.11334906 0.11441524 0.13676134 -0.053358335 0.0919629 -0.046645537 0.26729456 0.02109494 0.101569206 -0.0022248174 0.15062597 0.18033294 0.018743072 0.0063077756 0.19843546 0.07987118 -0.026838606 -0.052838568 -0.19228622 -0.037156586 -0.19262463 -0.18540908 -0.17213316 -0.19690895 -0.15499482 -0.18583904 0.22952773 0.28122565 -0.13262594 0.09397174 0.07148213 -0.066978775 -0.07815396 0.100988664 -0.033327464 0.05496806 0.047728408 0.0978821 0.4549808 0.15340598 0.071736984 0.17943914 -0.09289058 0.17083009 -0.14007409 0.33873865 0.0155198965 0.16642734
1108 -0.051565375 -0.004050925 0.2618506 0.044931293 0.1267642 0.089472696 0.11012911 0.20501389 0.018727511 -0.02651807 0.2896869 -0.24460427 0.048241362 -0.06814688 0.10614324 0.018522108 -0.0685652 -0.037111454 0.051160716 0.21397987 -0.053931754 0.06002085 -0.1338516 0.21034177 0.11351881 -0.20529467 0.06480926 0.11439296 0.3273851 -0.12075781 -0.10354958 0.24261539 -0.09060987 -0.05064612 -0.465595 -0.118277535 0.25435972 -0.3132934 -0.117678046 0.1526686 -0.08212597 -0.17941503 -0.18660969 -0.027785646 0.04807333 -0.03793316 -0.06534081 -0.03065502 0.016177032 -0.2669135 -0.14520909 -0.019377014 -0.15053385 0.12632674 -0.32076773 -0.18187617 0.039395705 -0.066365436 -0.12150645 0.16600269 -0.22175568 -0.25892898 0.058231898 -0.07046869 0.08976026 -0.21760271 0.06156771 -0.30228862 -0.14794524 0.1436578 0.2570315 0.04202435 0.19922802 -0.01096613 0.2035571 -0.2757576 -0.02392809 0.2254865 -0.08535465 0.027287655 0.059810568 -0.3384594 0.50506765 0.11152953 -0.33402658 0.11593427 0.12633087 0.39558855 0.09105978 -0.21848252 0.072751015 -0.04144385 0.23331073 -0.10975051 -0.23875865 -0.13813509 -0.09808439 -0.12990889 0.082239285 -0.16805686 -0.20422296 0.098234005 0.00966416 0.34516534 0.1235826 0.08055055 -0.022553103 0.29006207 0.0075220573 -0.3524209 -0.03354376 -0.28556055 0.06432398 -0.122559465 -0.16933197 0.12618332 0.1491264 -0.060720753 -0.0029046244 -0.16519697 0.12734334 0.23062544 -0.04157892 -0.18247442 -0.06805662 -0.18610875 0.12437443 0.049283266
1137 0.08816818 -0.06781557 -0.1648678 -0.2772801 -0.23507895 0.0015321277 -0.08431714 -0.26029238 0.07955474 -0.04105445 0.026038617 0.09915119 -0.24601461 0.058508772 0.073536746 -0.28682172 -0.19164486 0.07833594 0.1500318 0.23913606 -0.17328459 -0.17358007 -0.26175225 -0.13602671 0.0708913 0.3320149 0.18998419 -0.08530862 0.1784116 -0.0464578 0.09400033 0.05210218 -0.41597107 -0.068376966 0.13965233 0.13320535 -0.29085284 0.088590965 -0.03188357 0.110311724 -0.36647555 0.13508327 -0.03534137 -0.10619098 -0.0542842 0.115662545 -0.07179204 0.010483798 -0.025370514 0.009727316 0.17730053 -0.22652037 0.112064525 0.22657782 0.07250243 0.013131181 -0.06729695 -0.3575205 -0.0010226528 0.09472691 -0.005140887 -0.028647635 0.17466247 0.32027054 0.17839617 -0.040802445 0.22507238 -0.08139199 -0.32190782 -0.27450502 0.25062135 -0.17220272 0.2642338 0.1588534 0.17282371 -0.07703229 -0.13355838 -0.007091067 0.16249011 -0.18843573 -0.02108068 0.3835063 0.3526243 0.2679888 -0.23236677 -0.24377583 0.050505105 0.12535705 0.101709045 -0.22495261 0.005767343 0.24748337 0.3376789 -0.096088 -0.038971104 0.07111431 -0.34021422 -0.1942582 0.41720307 0.1421242 0.07461475 -0.09023711 -0.036315627 0.1271578 0.5320661 -0.14942028 -0.14701673 0.14558902 0.18570976 -0.3432368 -0.023494953 0.06527199 0.045576222 -0.16583508 -0.014572987 0.061814412 0.05304322 0.01766425 -0.0010815421 0.30809772 0.18080826 0.016664596 -0.10943504 0.0002867602 0.063798085 -0.13336203 0.07261596 0.08037651
1131 0.08718083 -0.13895547 0.117289186 -0.28835806 -0.14184175 -0.043054465 0.11746929 -0.17723605 0.48221588 -0.007826431 -0.12843943 -0.120218225 0.23503466 0.27174228 0.30971023 0.055222053 0.40470615 0.18908225 0.3095188 0.2677137 -0.041493785 0.016433144 -0.14605986 0.29020137 -0.12047909 0.13788801 0.08924027 -0.019609405 -0.0036355178 -0.037014946 -0.14051928 -0.16102555 -0.00010799103 -0.26356652 -0.36730975 0.08182902 -0.013824068 -0.35037896 0.09338174 0.11114778 -0.0138640385 -0.03410466 -0.011419756 0.26330334 -0.041128766 0.14031033 0.19406122 -0.0037503296 0.032088637 -0.10100633 0.17331024 0.06863546 0.14029182 -0.22950543 -0.30332983 -0.0937075 0.13374509 -0.23776938 -0.13841741 -0.22202836 -0.08080279 -0.0021662768 -0.023354352 0.010381015 0.018015811 0.0041921823 -0.12251449 -0.41186845 -0.31498435 -0.19848914 0.25843033 0.086521834 0.16456197 0.17623633 0.08495226 -0.21462399 -0.26538754 0.42017058 -0.10106417 -0.22412372 -0.23105982 0.17195934 -0.32163537 0.16146761 -0.13373116 0.17856184 0.302315 -0.03624853 -0.1711104 -0.12729678 0.05461916 -0.24435619 -0.18437096 -0.14327854 0.055106055 0.13882294 0.1362188 0.13590467 -0.028883498 0.02726707 -0.0016180644 0.04715001 0.034903347 -0.14211549 0.16400242 0.039686777 0.21119139 0.2788843 0.069832094 0.037528522 0.3322419 -0.15440041 0.21881649 0.022740059 0.1284972 0.1075769 0.1452946 -0.08718028 0.13894749 -0.24872819 -0.16914192 0.057226814 -0.16465992 -0.21239707 0.15627064 -0.01630459 0.059299085 0.010319135
1132 0.10108294 0.10254132 0.19215338 0.2434455 -0.22363402 -0.10604187 0.026629103 0.19248283 0.1302891 0.13773918 0.12122914 -0.1654977 -0.17896585 0.15060432 -0.024607405 -0.07555787 0.1361829 0.20558415 -0.0864299 0.3126458 -0.09331886 -0.03961151 0.014057396 0.015086203 -0.050765797 -0.10580151 -0.27334985 -0.019619133 -0.088284515 0.08230461 0.39220572 -0.07002184 -0.2611937 -0.046397407 0.101047784 0.086749725 -0.020675326 -0.18213771 -0.13125248 0.18049096 0.00900549 -0.051093463 0.05648019 -0.20334418 -0.11510523 -0.075222775 0.20482552 -0.0364564 -0.17653474 0.3625556 -0.112372346 0.20952773 0.42059332 0.22889365 -0.22889356 -0.14052866 0.018378468 -0.10347745 -0.0805432 -0.012727042 -0.12476958 -0.12048519 -0.119019434 0.25423115 0.22860473 -0.1080427 0.36812058 -0.45878628 -0.3632801 0.45394123 0.12988584 0.017979423 0.25811905 0.15765038 0.041742317 -0.043947287 -0.07072711 0.10548493 -0.048043475 -0.069854945 -0.11637292 0.112640634 0.16633974 -0.22316268 0.13290979 0.008789815 -0.006887672 0.30656093 0.17478397 -0.057786208 0.23593703 -0.33902997 -0.025131306 -0.055327956 -0.12683411 0.3443672 -0.08054008 -0.06936261 -0.12256042 -0.036003366 0.109294854 -0.114392094 0.48348406 0.036176804 0.22302441 0.0064923023 0.2195813 -0.24169515 0.3480314 0.13451144 0.115750805 -0.099710815 0.184397 0.04760629 -0.07849007 -0.13909891 -0.21103157 -0.1731372 -0.13485844 0.4373177 -0.2644565 0.16306582 0.01692929 0.14335057 -0.05101616 -0.06925643 -0.14832541 -0.089206845
1142 0.20023689 0.089980826 0.45674828 -0.26366112 -0.36206415 -0.091760255 0.34221375 0.1963944 0.15462123 0.07247171 -0.0021268234 0.06021437 0.050249517 -0.161438 0.039318338 0.114902146 0.12781346 0.054764464 -0.14451261 -0.09112181 0.014147126 -0.11694372 0.04738534 0.09030816 -0.11328401 -0.33359104 0.18296064 -0.014828909 0.10240008 0.05685326 -0.08117919 -0.106525205 -0.1196884 0.034507953 -0.064423025 0.39827773 -0.055096235 0.07191452 -0.03760948 0.30444053 0.033721253 0.33131233 0.06843769 -0.12112483 -0.12903629 -0.255794 0.036902864 0.06675586 0.05297745 -0.073523805 0.15376079 0.100243114 -0.09054255 0.37594852 -0.042679705 0.20339154 -0.09653112 -0.1419462 -0.15299745 -0.2907657 -0.34571147 -0.27240583 0.20310885 -0.13030115 -0.2954545 -0.1644899 -0.03360331 -0.032851133 -0.05563062 -0.15158279 0.32241395 0.26843098 0.050951865 -0.073668 0.115131974 0.06922798 0.025651647 -0.1416702 0.15634722 -0.14462098 0.010007862 0.09075888 0.23297743 0.26902533 0.043144904 -0.2256213 0.13212033 -0.28093725 0.18146878 0.059645254 0.28308523 0.16050197 0.001183389 -0.027082225 0.03642381 0.14192912 -0.3439544 0.01084003 -0.34541038 -0.21318814 -0.06415546 0.1287356 0.022983065 0.119341284 0.08069908 0.46453872 -0.22945617 0.037303835 0.40896952 -0.050487794 0.10140064 -0.1676653 -0.21085286 0.046351414 -0.13753644 -0.021406844 -0.26731905 0.01774533 0.16748473 -0.14749566 0.018027654 -0.20104212 -0.14618863 0.039283253 0.08669641 -0.047143377 -0.08465356 -0.007973272
1130 0.019352838 0.07185153 0.19203049 -0.25823504 -0.12411384 -0.09624576 0.4641503 0.009950224 0.11781355 -0.17416497 0.4326338 -0.4603353 -0.15398367 0.06366138 -0.111068115 -0.08126759 0.11006115 0.21197955 -0.1693354 0.07082267 -0.12501773 0.08439736 0.07881681 -0.33152524 -0.08188927 0.18095836 0.02418786 0.09693847 0.10192882 -0.07516214 -0.012023255 0.21127914 -0.21880084 -0.005717087 0.040452514 0.016991641 0.27223963 0.0390476 -0.43886662 -0.033014726 -0.031089969 0.20377596 0.32329372 -0.08189675 -0.31945404 0.10858711 0.050254505 -0.0484681 0.13644671 -0.21565625 0.16236858 0.13927744 -0.01639135 0.07013545 -0.10562219 -0.15417074 0.31424385 -0.19126683 -0.09562064 -0.18145378 0.016423367 -0.3604082 0.1244649 0.0103800045 0.19054332 0.05526406 0.010909601 -0.3818576 -0.22992443 0.28947642 0.27404198 -0.2070457 0.09099384 -0.14451478 -0.19781399 -0.084400274 -0.19856502 -0.1512295 0.191523 -0.026723634 -0.018034834 0.31315196 0.14905095 -0.07007399 0.02827935 0.035888743 -0.046612076 0.049341857 -0.12553748 0.12724946 -0.06944872 0.14230911 0.11177138 -0.13083626 0.15355235 -0.05640797 -0.123164445 0.18957151 0.0659604 -0.26106262 0.052437276 0.025621196 -0.2571968 0.10977121 0.22112228 -0.01158285 0.09007097 0.2810957 -0.0491415 -0.19314924 0.083753906 0.038414862 -0.20342535 -0.16737834 0.19399467 0.11802594 -0.08573668 -0.014161372 0.03830257 0.120577164 -0.21300958 0.109892644 0.29943448 -0.0069786203 0.21727334 0.14800487 -0.05651213 0.19876657
1122 0.19398215 -0.3483048 0.312242 -0.26022628 -0.17123644 -0.07217468 0.28693208 0.06892581 0.23125327 -0.3128308 0.13482848 0.049063146 -0.31293815 0.21217087 0.019615663 0.055296596 -0.015256824 -0.07608928 -0.23742096 0.0024066921 0.16651042 -0.10070755 -0.13065556 0.14773814 -0.13608031 0.15887989 -0.0827763 0.19883236 0.12921935 -0.060291786 -0.07504615 -0.2717968 -0.09509065 -0.2827036 -0.13806924 0.27886766 0.29562557 -0.18057862 -0.27731887 0.10338706 0.0069263414 -0.029153047 0.06305487 0.20979911 0.09481584 -0.14259756 -0.06870906 0.11176414 0.19272193 0.03440207 -0.08064455 -0.043079183 0.020047717 0.19261405 -0.11822396 0.032835122 -0.31825584 0.06385804 -0.045888647 0.2506761 0.017562328 -0.11421563 0.10773804 0.18448041 -0.07476296 -0.10045083 0.40221342 -0.29136926 0.29930416 -0.08023717 0.4082906 0.045779087 0.119414225 -0.26119664 0.29310387 -0.024959173 0.02181956 0.021648945 0.05217187 -0.25739163 0.25410217 0.24329895 0.066316314 -0.034217097 0.17728063 -0.07246328 0.031659134 -0.12771669 0.13406031 -0.35745168 0.2136543 0.11963517 0.21210708 0.022578815 -0.13662009 -0.064004734 -0.04421848 -0.16069162 0.06373177 -0.2502767 -0.19662394 0.09300425 0.012218816 0.17035946 0.06268182 0.011121241 -0.15346248 -0.21698241 -0.10495277 0.06695731 0.05801589 -0.15382643 -0.12650111 -0.12597768 0.37042418 0.016858026 0.00014750127 0.031240834 0.24836272 0.20449597 -0.23353164 -0.11574949 0.41091716 -0.12572888 0.16834249 0.04635554 -0.18055944 -0.16304879
1109 0.053851888 -0.2034636 0.4968157 -0.22372702 -0.22155786 0.051200096 0.18896139 0.03717701 0.14785567 0.06461526 0.35502976 -0.1121438 -0.24083428 0.023863235 -0.027005654 0.10674871 -0.2780855 -0.20487267 -0.09270386 0.022905352 -0.033888903 -0.028256148 -0.15470928 -0.090716034 0.10208588 0.16146538 -0.09709 0.1174909 -0.2858928 0.2626584 0.03465769 0.32219496 0.22232407 -0.19138011 0.1907161 0.016694605 0.39728832 -0.30512664 0.06715486 0.14270952 -0.0078962585 0.2355176 -0.11068447 0.26267898 -0.122690305 -0.24569371 0.2110391 -0.10179076 -0.22570844 -0.06150099 -0.008846998 0.0030679868 0.39391947 0.33781272 -0.08429708 -0.058255978 0.2452163 0.14053845 0.058800902 -0.16261563 0.02381167 0.22494023 0.24731807 -0.18892662 0.12497878 0.05114957 -0.012557461 -0.08796715 -0.0312757 -0.3784675 0.2960865 0.058209658 0.22719644 0.0554743 0.10930547 -0.086303055 0.32983735 0.31770402 0.08922979 -0.056512278 -0.07954606 0.018928742 0.23534714 0.30804867 0.024163065 0.15354863 0.020249853 -0.055578444 0.052755654 -0.0997169 0.2965716 -0.119007856 0.10752143 -0.14319718 0.10955744 -0.19371867 -0.19742763 -0.00915676 -0.12556121 -0.2584823 -0.39353034 -0.10206987 -0.22702098 -0.15786539 -0.029630734 -0.056265213 -0.066840574 0.14739226 0.07481994 0.11058947 -0.21905103 0.0030756139 0.253065 -0.263363 0.031483598 0.0902089 -0.080744565 0.11396291 0.12669584 0.15019374 0.077065535 0.21744144 -0.074478246 -0.23395206 0.120363 0.083523095 -0.24167202 -0.04053266
1129 0.1268452 0.25886136 0.107716784 -0.34321296 -0.017648835 0.34947675 -0.030151557 0.19805431 0.29226544 -0.09175694 0.4144798 -0.15452826 -0.012222699 0.054736573 0.10348105 0.03978074 0.06284222 -0.18510078 0.08285201 -0.17248078 0.22874738 -0.10868321 -0.04072562 -0.5639066 -0.10272565 0.02058952 -0.027162747 -0.34170324 0.22679803 0.37082425 0.19413331 -0.062432162 -0.1647708 -0.0023879022 -0.059855256 0.013102574 -0.04556943 -0.07756389 0.04183721 0.08794857 -0.16766271 -0.02613623 0.20179623 -0.1412311 -0.22090416 -0.16269982 -0.36315614 -0.37809062 0.09583956 -0.0058376775 -0.108940065 0.04381222 0.30906284 0.09540392 0.21559164 -0.18300095 -0.044036925 -0.15453681 -0.26885465 0.20453106 -0.057117928 -0.49437827 0.1327293 0.15445139 0.02371193 -0.15436557 0.12081182 -0.26758665 0.07580934 -0.1776054 0.16832173 0.35445204 0.4046454 -0.038132902 0.11582656 -0.14780506 0.1723688 0.09674845 -0.21836352 0.106943734 -0.2926902 0.27112004 -0.061724186 -0.06969618 0.03186487 0.13819979 0.22616984 -0.08523535 -0.23952748 0.06909356 0.10647232 -0.0003437211 -0.0563149 -0.19727306 -0.11378674 0.17114079 0.1303641 0.19566317 0.051528096 0.07478202 -0.15596563 -0.197873 -0.12548251 -0.057313908 0.118378446 0.17685172 -0.0524561 -0.09846057 -0.0016873248 -0.3615815 0.08126529 0.052339293 0.12006186 -0.11425847 -0.036087193 0.15738931 0.16774637 -0.08133989 -0.055312477 0.34190324 -0.33796045 0.3738817 -0.04233178 -0.09551385 0.024085624 -0.054925296 0.19109648 0.120571874
1120 0.06405993 -0.26545262 0.36319005 -0.17145783 -0.035494722 -0.10686755 0.27017534 -0.13133805 0.133957 -0.17585608 0.10953656 -0.2508535 0.26484832 -0.047401708 -0.05819068 -0.030929334 0.05102745 0.3108826 -0.0135300355 0.09837004 -0.06192075 0.14242691 -0.12576264 0.10947801 0.37729082 -0.18829133 -0.34024206 -0.12163819 0.21873908 -0.087113045 -0.03125481 -0.018743332 -0.24145514 -0.24377613 -0.29217488 0.29435936 -0.06480344 0.08381971 0.28380403 -0.014595118 0.060799163 0.14256765 0.1000912 0.10834575 -0.26139662 -0.22418053 0.03967499 -0.19691384 -0.20819265 -0.17387056 -0.024864232 -0.2218672 0.17316294 -0.10386533 -0.1556274 0.22057219 0.31127593 -0.17193848 -0.265877 -0.14753763 -0.21512534 0.024139438 -0.1364511 0.08508418 0.16027834 0.42456585 0.27193797 -0.18255726 -0.0033248211 -0.33073333 0.38961545 0.26347747 0.48951116 0.09798808 -0.20064233 -0.12028865 0.077717945 0.21455202 0.056268685 0.19334137 -0.25958127 -0.19818097 -0.14517322 -0.177828 0.09601664 -0.070907705 0.20614941 0.18841751 0.033105984 0.044370703 -0.037124738 0.29538062 0.08671433 0.048123553 0.04272242 0.12598975 0.0023772076 -0.17970742 0.44403833 0.15164103 0.0073734205 0.21370062 0.02623469 0.23623419 -0.007832853 -0.18292262 0.013394926 -0.21966232 -0.12254194 0.0944377 0.28457597 -0.10425022 0.012485629 0.13582559 0.24330215 0.1221462 0.12068008 -0.17367202 0.14837566 -0.019916749 -0.008630534 -0.032942455 -0.019021899 -0.09566915 -0.077749036 -0.03705491 -0.1907568 0.31066352
1139 0.13141803 -0.024824938 0.28713545 0.034705773 -0.3180071 0.127812 0.43106014 0.042113874 0.3971059 0.12662816 0.0622324 -0.009568493 0.06496041 0.20294908 0.20977198 0.05971226 0.08833347 0.10632095 -0.086707145 0.0042133555 -0.38573933 0.10755749 0.15485725 0.20539966 0.035659194 0.13069323 -0.2924266 0.040922392 0.10637984 -0.054563567 0.111603595 -0.2111936 -0.23149136 0.058148637 -0.1285563 0.00223215 -0.022894658 -0.053687662 -0.35954624 0.12779443 0.1264177 0.047983255 0.055525422 -0.03631531 0.04954734 -0.21462 0.02769931 -0.009657526 -0.2739699 -0.035897337 -0.06682586 -0.00111363 -0.1849605 -0.2499803 -0.01852083 -0.05005274 0.18167178 -0.13165165 0.058494445 0.26592648 0.005222453 0.04972786 0.20767914 -0.26852784 -0.038050212 -0.13457397 0.14460687 -0.116869256 -0.024066988 -0.15367405 0.35126147 0.15033562 0.3377758 0.45421287 0.46833938 -0.3584586 -0.2104166 -0.1828201 0.21062906 -0.08687301 -0.06784688 -0.21879631 -0.1350335 0.1425539 0.20358196 -0.20508349 -0.14754428 0.06784947 -0.23657912 -0.24286316 0.09302464 0.18923612 0.003473443 0.12323406 -0.12959075 -0.18857409 0.27177447 0.20240755 0.3600704 -0.08606733 -0.075082935 -0.022877503 -0.29354778 -0.16508421 -0.26828465 -0.06336545 0.27138472 0.24518076 0.097869195 -0.12564519 0.08410421 0.120891124 0.17050187 0.1782491 -0.21469563 -0.0381784 -0.022632757 -0.12713566 -0.13926415 -0.21100017 0.35096198 0.043435063 0.031831875 -0.1939369 0.030485839 -0.34807253 -0.20389068 0.25750536
1124 0.11780777 -0.21076523 0.0749402 -0.19322188 -0.12622662 0.27266076 0.34055904 0.04187874 0.045018822 0.3827097 0.37305024 -0.07267444 -0.15273124 -0.21224226 0.046639446 -0.049169194 0.2786 0.052962095 -0.10440053 0.12266797 -0.28853413 0.03904114 0.07505521 0.15768199 0.14355063 0.2873605 -0.035159923 -0.15928228 -0.059015892 0.055936847 -0.32168755 0.3090955 -0.13671005 -0.17656937 -0.15938392 0.107168354 0.058317233 -0.038951155 0.09145449 0.25460497 0.08486816 -0.13665187 -0.28806666 -0.091891065 0.1292667 -0.32266346 0.077993855 0.15525569 -0.26604366 -0.15223746 0.07537556 0.20597154 -0.30893436 0.18789198 0.20819756 -0.07477603 0.14328185 0.012976914 0.26621345 0.1759208 -0.14784421 -0.17398432 0.30743626 0.108727686 0.056711968 0.024814371 0.3213827 -0.09278627 -0.10030793 -0.06887546 0.02837407 0.005108453 0.29504147 -0.043644298 -0.21249166 0.0069640405 -0.07448047 0.069736354 0.17160928 -0.39273375 -0.039792474 0.21836774 -0.09654253 -0.23772395 0.00056568714 0.07670535 0.07347672 0.11114887 0.1183092 -0.15157281 0.10815065 0.22595435 0.22570066 0.026383776 -0.01845423 0.24345613 -0.07774946 0.20758037 0.029931653 -0.10777264 -0.31055936 -0.014307953 0.21014534 -0.100023165 0.20097739 -0.030810513 -0.20799647 0.143294 0.42839012 -0.15041679 0.3033401 -0.31267884 -0.102647364 -0.06529405 0.20630555 0.11438915 0.061718278 -0.13929865 0.08747351 -0.03417845 -0.0011332192 0.22271697 0.23840961 -0.16028467 -0.29219458 0.24119246 -0.09213863 -0.0021750191
1123 0.25301042 -0.021588642 0.2663802 -0.14749607 -0.3602403 -0.18878041 -0.28000197 0.3566539 0.32905912 0.0040709632 0.18935886 -0.082962506 -0.4959872 0.28394213 -0.09433684 0.30988643 0.07440848 0.17854548 -0.022742067 -0.18820578 -0.15407677 -0.02796731 -0.09820649 0.04990388 -0.041874897 0.08897322 0.08652141 -0.21870656 -0.117929794 0.08466032 -0.32384878 0.0690375 0.056407046 -0.37920555 -0.3255868 0.29365116 0.06900023 -0.16315357 -0.08027055 0.058450002 -0.09783765 -0.008543517 0.12623924 -0.05421438 0.055495493 0.2789079 0.19327143 -0.0067324056 -0.070570245 -0.014689681 -0.2056566 -0.11985519 -0.16139676 0.29376248 0.31278658 -0.18088187 0.0038854633 -0.1139283 -0.03703323 -0.076540194 -0.019023918 -0.282614 -0.035648994 -0.042053126 -0.1490898 0.48392174 0.110964194 -0.09332338 0.3217633 0.06667712 0.13550074 0.016981943 0.35105678 0.1822895 -0.095813215 -0.118593864 -0.1795439 -0.009719399 0.35936767 0.110469624 -0.054704186 0.03184764 0.19095905 -0.14437623 -0.18419799 -0.25645512 0.0040450105 0.0924183 0.38750607 0.026111027 0.364965 -0.21381067 -0.09536809 -0.036082987 0.11148314 0.1745214 -0.41240096 -0.085946634 0.21514562 -0.08328159 -0.32222044 0.06687298 -0.1135581 -0.03634662 0.22930004 0.0066476217 0.0059554144 0.26803347 -0.04313713 -0.28431836 0.11278396 -0.07003901 -0.13706067 -0.019872198 -0.10562673 -0.06810498 -0.08708358 -0.19843434 -0.1256124 -0.21418402 0.14104429 0.29084432 0.0728559 -0.007530765 0.0242312 0.06659572 0.20761737 -0.07441818
1135 0.032238394 -0.2904915 -0.13152727 -0.32155052 -0.12699136 -0.49000856 -0.18627699 0.0764673 0.16425389 0.23812583 0.3856629 0.12516241 -0.30017096 -0.115211636 0.14056167 0.27876592 -0.03218957 0.02391394 0.17073736 0.09469083 0.0227924 -0.050443035 -0.040944453 0.011315965 -0.03376595 0.027793696 -0.23147485 0.07145168 -0.07777621 -0.15277913 0.09947539 0.072125226 -0.10379893 -0.21073821 -0.05204862 -0.08517281 -0.3400692 -0.04377932 -0.31708506 0.10774948 -0.175452 -0.02485 0.031935878 0.11657223 0.010811506 -0.10125441 -0.16804019 -0.24891722 -0.1440865 -0.29122132 0.002475876 0.487979 0.22198986 -0.14240979 0.03733853 -0.06839047 0.057002455 -0.34329888 -0.047548566 0.058377568 -0.33641875 -0.11942593 -0.10298253 0.34251168 0.222873 0.24972445 -0.07898228 -0.14795624 -0.36711252 0.17904751 0.20711371 0.2958228 -0.06699806 -0.110048726 0.041179005 -0.33562702 0.0028177295 0.09147662 -0.13631248 0.0582683 0.032944158 -0.010425552 -0.119581066 -0.123231225 0.13055293 -0.054112747 0.17908807 0.013173409 0.0020849085 -0.15068857 0.48936307 0.20053281 0.31895646 -0.18176727 0.0371104 -0.073246345 0.016700847 0.10118596 0.070455484 -0.21375407 -0.12833169 0.016244953 -0.0975693 0.15698409 0.29189637 0.06362963 -0.06070026 -0.18895723 0.23119888 -0.07306568 -0.11543001 0.09821871 0.23565282 -0.05422108 0.14672053 0.047260955 -0.23489173 -0.23330498 -0.0951307 0.23074497 -0.06428087 0.1190501 -0.36190003 -0.46870768 -0.2593038 0.14681162 -0.15750812 0.07542916
1140 -0.024901798 0.27692258 0.5182094 -0.08407683 -0.32102874 -0.18177567 0.41887966 0.24631792 0.31973222 -0.06138594 -0.3275119 -0.49009696 -0.27879602 0.030663138 -0.08788791 0.11859796 -0.04036393 0.17296329 -0.3166397 0.03644542 -0.0071676457 -0.28321794 -0.062331993 0.18759167 0.15620919 0.25396228 -0.044231974 -0.12954037 -0.18499534 -0.34741136 0.1681325 0.23624541 -0.124051854 0.12611723 -0.27723572 -0.13324992 -0.025140539 -0.05030595 0.045587223 -0.2175419 -0.11615937 -0.043005746 -0.22059898 -0.26470932 0.2077958 0.15680398 0.19258322 0.28216773 0.14856397 0.0887407 0.21458973 0.040363487 0.32976255 0.16268197 0.33789697 0.05729729 -0.093882196 -0.13935977 -0.12484801 -0.09044936 -0.32565653 -0.40624085 0.10010066 -0.21463738 -0.04275151 -0.2177677 0.2785929 0.3569493 0.09180661 -0.17840965 -0.056655616 0.13853668 0.007281859 0.38008094 0.15198827 0.25571218 0.282816 -0.0654845 -0.15832989 0.08185808 -0.14695753 0.5190601 0.12124106 -0.030078797 -0.14924687 0.07462 0.23012777 0.16117337 0.08283563 0.057031963 0.2526536 0.3014615 0.27018702 -0.141487 -0.06411211 -0.1346974 -0.016020222 -0.035002485 0.06734289 -0.3932886 -0.05143679 -0.11636699 -0.08270432 0.019606847 -0.1316404 0.30947968 -0.0008855387 -0.04632915 -0.01718871 -0.04309921 0.13920614 0.12715977 0.096483044 -0.00112866 0.2402965 0.16853984 -0.09183169 -0.45968953 0.24975716 -0.31143343 -0.071208626 0.064207815 0.013778239 -0.16103323 0.24161358 -0.036353614 -0.011062197 -0.07833827
1143 0.18674654 -0.1893885 0.35256207 0.117565565 -0.13955145 0.09723353 0.09357339 -0.17318544 0.42771548 -0.17989755 -0.05111967 -0.23004217 0.093545035 0.29532564 0.31040332 0.08689509 0.1492284 -0.012914793 0.06634188 -0.03365161 -0.43196946 -0.37351814 -0.066360936 -0.05581129 0.29928893 0.11409402 0.30382228 0.030648129 0.111296184 -0.09655991 0.18870538 -0.32969648 -0.20909052 -0.0695708 0.11114202 -0.2599443 0.185932 -0.19071618 -0.2208532 -0.28347355 0.038545698 -0.100242734 -0.061452955 0.07812629 0.038497724 0.4060612 0.32184985 0.24416308 -0.2577337 -0.3440854 0.3528853 -0.044916924 0.085610576 0.19070671 0.26343155 0.25883192 0.01796703 0.14786436 0.27701735 -0.11732622 -0.21779957 -0.32975334 0.22717907 0.07027312 -0.15532172 0.4770719 0.07789494 -0.3143631 -0.05430137 0.123517945 0.44978163 -0.04622072 0.37009233 -0.22380374 -0.15665282 -0.26069966 0.10384448 -0.22198042 -0.08198342 -0.033210214 -0.033383474 -0.016655141 0.37860444 -0.010431836 0.03923523 0.12890044 0.33061954 -0.1930344 -0.13431923 -0.14498508 0.09537973 0.04741191 -0.2652886 0.04332303 -0.11380298 0.0010011978 0.052558098 0.03927158 0.004741283 0.12613754 0.09096193 -0.08331019 -0.11316646 0.20269014 -0.34788778 0.04507642 0.10478369 -0.12486925 0.13348787 -0.26905298 0.2519399 -0.17642881 0.24992944 0.037495036 -0.11799227 -0.121460274 -0.2526116 -0.17567562 0.13419296 -0.10902712 -0.14293861 0.03964457 -0.30883873 0.04369089 -0.35882968 0.15922198 -0.38783386 0.114006005
1141 0.14084621 0.012228899 0.5206713 0.21691057 -0.13714954 -0.025213681 0.14592865 -0.14085166 0.048275653 -0.24612586 0.36177507 0.027576314 -0.26734334 -0.45198625 0.22416426 -0.068756826 -0.07944103 0.3804676 -0.18942481 0.24599957 -0.10110748 0.05625485 0.018367998 -0.0493798 0.1120589 0.07184972 0.15848581 -0.2534525 0.029822214 -0.11901164 0.087652266 0.038929883 -0.084681876 -0.09018434 0.058467314 0.40612382 0.086144105 -0.21698944 0.03098346 -0.13652821 0.092116274 -0.082072355 -0.38105112 -0.021764586 -0.0977864 -0.12066319 -0.06311316 -0.27094498 0.19110231 -0.34120905 0.07606672 0.15043265 0.15670648 -0.13039029 -0.05579449 0.039696727 -0.08868803 0.032224193 -0.08621958 0.18155663 -0.1778069 -0.11731013 -0.09191483 -0.094650865 -0.029609766 0.19645901 0.43401855 -0.049687535 -0.17094111 0.35443437 0.30352488 0.07419089 0.44353214 0.35039032 -0.020875663 -0.098333426 -0.116888545 0.33804753 0.034881003 -0.10502712 0.2227195 0.64516914 0.0877585 0.089046896 0.05547562 0.17471352 0.30666858 -0.11043701 0.5426357 -0.06564272 0.2555946 0.04757122 -0.13145931 0.19579342 -0.11713605 0.017348573 0.08884638 0.28541526 -0.014568647 0.06941666 -0.146862 -0.28957552 -0.32696232 -0.06826705 0.095258534 -0.24756427 -0.08453207 0.0421209 -0.07913716 -0.38909414 -0.27607912 -0.22212704 -0.0203174 0.07596423 -0.2301806 0.10499312 -0.17615478 0.092137255 -0.1118169 -0.116015635 -0.12209705 -0.24053837 -0.044854224 0.2185925 -0.20645429 -0.05513408 0.2510258 0.2596687
1145 0.08462683 0.25855368 0.21663137 0.0013837054 -0.425514 0.0036417337 0.29933023 -0.32838124 0.058793314 -0.188105 0.32733276 -0.13495052 -0.008525874 -0.23801534 0.24159232 -0.09372884 0.32460552 0.005184668 0.22053365 -0.13459504 0.0653642 0.15654145 -0.11957974 -0.056834415 0.11553339 0.078075655 -0.11990897 -0.114348546 -0.1496145 0.054995645 0.005603168 -0.08250104 -0.31217945 -0.33253554 -0.19904485 -0.4367458 0.20557585 -0.37200424 -0.120200045 0.08525513 -0.09369399 0.37633735 -0.0788905 0.23175263 -0.0918602 0.033124845 -0.20828243 0.03452061 0.028175345 -0.27399105 0.23066211 -0.18704048 0.23645754 -0.08463052 0.31411558 0.06361567 0.10346478 -0.27299815 -0.20951863 0.4872066 0.037820105 -0.12404476 0.15227285 -0.21471736 0.167669 0.39151797 0.23158029 -0.62078136 -0.2191232 0.15176345 0.27452818 0.024021197 0.37759256 0.0930591 -0.12021281 -0.002320242 -0.24041484 -0.01199052 0.17450015 -0.013342084 0.14980996 -0.11885237 0.11538023 -0.05985008 0.15007848 -0.07042245 0.3976363 0.00043550666 -0.069924824 -0.005028124 -0.113880135 -0.27596277 -0.001183545 0.32415918 0.046764504 -0.22453067 -0.049621053 0.035884738 -0.06886409 -0.020078653 -0.13180888 -0.10142186 -0.03481081 0.2637312 0.027880808 0.01934554 -0.13371119 -0.24753876 0.40541887 0.1983962 0.06834461 0.26713878 -0.27782524 0.29773298 -0.3510316 0.25803438 0.33036745 -0.43913764 -0.08948211 -0.11376749 -0.020776108 -0.3769648 -0.15721723 0.041470453 -0.03708176 -0.12254766 0.112992175 -0.26388705
1147 -0.16418289 0.16620249 0.32505345 0.124495074 -0.34796414 -0.22837968 0.3211348 -0.6076361 -0.04819096 -0.008199745 0.09177837 -0.2986959 0.12926029 0.22672385 0.39099097 -0.32286394 0.11188673 0.24862084 0.40145814 -0.23100609 -0.16216728 0.22506678 0.15217255 -0.35323006 -0.10268563 0.06701408 0.07674946 -0.030716196 -0.42887515 -0.009864793 -0.48222065 0.0045079538 -0.25902098 -0.09928538 0.052153155 -0.25729325 -0.17489715 -0.18521681 -0.27135742 0.29188144 0.23107454 0.29426545 -0.37506154 0.23915046 0.33386043 0.18312521 0.3271333 -0.21903309 0.0030048408 -0.4183544 -0.35574144 0.05227363 0.11829496 0.26786485 0.054351352 -0.1579719 0.09161277 -0.18992016 -0.11966994 -0.16085668 0.14399827 -0.20349869 -0.19689323 0.15262736 -0.39752498 0.028937288 0.4723286 -0.40090555 0.08749346 0.15373632 0.6469271 -0.077231325 0.41738147 0.16473448 -0.1256359 0.18583162 0.4572486 -0.041126754 -0.4925714 0.21649863 0.18152829 0.12143939 0.3222616 -0.20629351 0.13806811 -0.21695167 0.106843576 0.21359348 0.24464802 -0.4075076 -0.26728588 0.28790367 -0.07620624 0.2869941 0.10251075 -0.038607884 0.16307554 0.3004385 -0.03035818 0.19047953 -0.29304066 0.07652652 0.19764477 -0.24490118 -0.09918182 0.22476146 -0.18174192 -0.011716769 0.08375472 -0.34744054 0.13112582 0.24546403 0.05395889 -0.026091846 0.04233331 -0.09945732 0.028647756 0.096365795 -0.12305059 -0.049452346 0.0622221 -0.0676226 -0.21150535 -0.0838267 -0.059777614 0.13328928 -0.009158483 0.26145506
1146 0.11977109 0.35617334 0.32760072 0.04345318 -0.095397085 -0.30219227 0.31145063 -0.14940979 0.008528594 -0.20487596 0.060075007 -0.13156946 -0.13005514 0.1275261 0.58655703 -0.15834568 0.4723 0.21187365 0.02269964 -0.187957 0.034371924 0.05909685 0.21307199 0.27859208 0.10502168 0.11604208 -0.18776534 -0.21055883 0.063667044 0.13709672 0.13340819 0.35352212 -0.21151145 -0.36038005 0.13973014 -0.114669785 -0.35305214 -0.32861802 0.10912279 0.2508826 -0.14907794 0.22483072 -0.1135768 -0.03205251 0.347133 -0.31377396 0.09228848 0.30078208 -0.18357238 -0.41318512 0.37569544 0.15347034 0.3063249 0.25986072 0.24523412 -0.39938584 0.11240373 0.34034547 -0.11863964 0.09904648 -0.12826444 -0.39608383 0.21035703 0.21197481 -0.19776727 0.23553424 0.3176823 -0.21185784 0.036528975 0.010093457 0.5199383 -0.25773916 0.018009694 0.14969942 -0.37324873 0.07455644 -0.30855775 0.32411554 -0.118109375 -0.09493093 -0.09629035 -0.073586084 0.36717215 0.110696785 0.44972757 -0.25205436 -0.06482705 0.06108261 -0.25068152 -0.06196599 0.29418555 0.092692606 -0.4415068 0.33299878 -0.39399266 0.20897289 0.4109791 0.26537064 -0.28548014 0.40329987 0.19583823 0.3043923 -0.045829162 0.4581573 -0.0646428 -0.21372712 0.03104338 -0.17559418 -0.33019236 -0.14553982 -0.08961732 0.38284802 -0.3656313 -0.26687482 -0.09470309 0.02346247 -0.002995808 0.19616796 0.13299094 -0.009595227 0.43115816 -0.02214646 -0.030327871 -0.548335 0.29926684 -0.0052664015 0.15360746 -0.004715419
1144 -0.09457903 0.32782066 0.20990643 0.20173918 -0.4271671 -0.39348733 0.53773856 0.025067067 0.010689993 -0.24090345 0.30556312 -0.3407491 0.3412541 -0.29939014 0.014086963 -0.19854888 0.18978164 -0.21181086 0.19531439 0.12598808 0.29466155 -0.60195726 -0.1721488 -0.10157122 -0.2295345 0.41833496 -0.0076042996 -0.24985674 0.32993785 -0.30257043 -0.12565054 -0.0432976 0.15832174 -0.15331128 -0.2935282 0.16845237 0.027897198 -0.097678535 -0.2609801 0.32251224 0.31146747 -0.10001286 -0.0807007 0.24912982 -0.09594545 0.2412414 -0.36260006 -0.3094149 -0.031298425 0.28695214 -0.17554964 -0.035270814 -0.024325699 0.43821296 0.37734312 -0.0071780346 -0.05363743 -0.23279516 0.23539428 -0.034445096 -0.16900472 0.10847032 0.1899535 0.636534 0.07473354 0.29438418 0.038228936 -0.47093743 -0.13066626 0.12018719 0.42784852 0.16809034 0.16264622 0.28036574 -0.06444225 -0.003600664 -0.0044361865 0.35697702 0.08488043 -0.19774167 -0.086126134 0.138221 0.13330796 0.20811397 0.1252952 0.11952124 0.18460909 0.1032168 0.094431 0.39705318 0.15098722 -0.22456911 0.0743404 0.31608272 -0.02415736 -0.11836121 0.29805315 0.5827804 0.38475478 0.012355079 -0.024557812 0.13772841 0.24329574 0.17401269 -0.2646646 -0.068342954 -0.05295269 -0.36254233 -0.022575714 -0.10353159 -0.07940636 0.13227507 -0.114458226 -0.6561516 -0.3420872 -0.31143132 -0.15940465 -0.32440516 -0.21852332 -0.27762866 0.42896414 0.0052995495 -0.07555392 -0.32764137 -0.04201074 0.036235645 -0.06389885 -0.016873375
1148 0.110954754 -0.20937183 0.114209846 -0.37474933 -0.53889436 -0.07549804 0.28300807 0.114538476 0.2536617 -0.40401298 -0.19067807 -0.22087274 0.5156988 0.4102917 -0.3580023 -0.24605174 -0.019735333 0.40058714 0.16690978 -0.2946509 -0.2165283 0.3663672 0.08227052 -0.36326146 -0.110569015 -0.3729426 -0.1537389 -0.46530926 0.1722711 0.27785054 0.24550696 0.3936629 -0.29797322 -0.34556687 0.5071504 -0.19284068 0.0010712052 -0.455097 -0.032375384 0.1750779 0.10154197 -0.16995175 -0.53113127 0.06190372 0.33258384 -0.044989675 -0.04862673 -0.059509605 0.12001134 -0.32349944 0.04815523 -0.11172502 -0.15901116 0.12509173 0.24866489 0.2182501 -0.03632194 -0.24095064 0.18182081 0.39033532 -0.041684307 0.026202874 -0.39079368 -0.06993804 0.027939746 -0.38239557 0.34070674 0.32024258 0.11362404 0.14245586 0.30762255 -0.35565045 0.114444606 -0.3995614 -0.10299108 -0.3451831 0.06925422 0.13342796 0.29421782 -0.0146639645 0.2898427 0.48836043 0.33846846 0.14820349 0.3197976 -0.30885527 -0.2727225 0.5897469 -0.04690376 0.6215623 0.041715633 -0.21419795 0.34985805 -0.2825401 0.2112507 0.29380715 0.123774625 0.40652913 0.4439491 -0.3778393 0.311651 -0.3612755 0.09609922 0.4385361 0.26553658 -0.298245 -0.058109697 -0.42500272 0.1743669 -0.14612222 -0.10583828 -0.1688194 -0.25854358 -0.057284985 -0.15589565 -0.03664091 -0.3864705 0.10181934 0.03368364 -0.6393701 -0.23008959 0.22616734 0.101656884 -0.27896875 0.11707588 -0.06835734 0.05870251 0.041928593
144 -0.012082294 -0.009993614 0.10555007 0.0054017785 -0.0798726 0.01899713 -0.034967396 0.00076741446 0.11382016 0.03275157 -0.032485012 -0.10344654 0.0069166524 0.032250132 0.1191297 -0.08265512 0.15996929 0.058571775 0.123633705 -0.1586968 0.026894975 0.027215334 -0.0010065216 -0.0158196 -0.018739585 -0.04732087 -0.0017226517 0.06584783 0.023556693 -0.07208884 -0.03626307 0.03415144 -0.11170855 -0.07339209 -0.08265254 0.11184138 0.0651541 0.016170526 -0.00016275897 0.12858123 0.004370339 0.07596528 -0.14784043 0.0724977 -0.038256668 0.050034184 -0.04457518 0.05145786 -0.05015366 0.001087428 -0.0896295 0.127545 0.179321 0.14021426 -0.0015218217 0.040730033 0.03046639 -0.06952112 0.104768135 0.011572471 0.11457193 -0.052563224 0.039841697 0.15201667 0.072672665 0.08206836 0.07107931 -0.16525182 0.0024354123 0.083627306 0.21029104 0.047323775 0.18242179 0.029917661 0.0981856 -0.018754007 0.025114646 0.1326402 0.009387529 0.044619527 -0.057809114 0.12254486 0.027584277 -0.012260394 0.077568285 -0.008091694 0.13156247 0.09860645 -0.14977542 0.047125544 0.18635708 0.0149402935 0.1579456 0.06585691 0.025538683 0.043884788 -0.037126966 0.089794785 0.046783168 -0.22244345 -0.064842016 0.0637711 -0.16547513 0.12412041 0.035176944 -0.03879246 -0.059380174 0.07801561 0.05552161 -0.046177253 0.08557778 0.009126204 0.0033377227 0.024700772 0.009549598 0.039153483 -0.16510953 0.085080534 0.12806523 -0.051628597 0.08419848 0.11552026 0.12995034 -0.062321946 -0.08189937 -0.052195605 -0.06390868 -0.08269174
170 -0.06293505 -0.11889108 0.103937596 0.13147303 -0.076368585 -0.018709453 0.11047035 -0.01578484 0.08957384 -0.010049608 0.17331605 -0.19063005 0.026332146 0.01184582 0.004493797 -0.08602111 0.10258436 -0.10716087 0.03860616 0.12970607 0.20295031 0.08785784 0.043238662 -0.12941842 0.047392666 -0.013996601 -0.21903455 -0.17233662 0.005036228 -0.13850808 -0.0775041 -0.19969594 -0.1647871 0.026461152 -0.13215525 0.093778655 -0.109819904 -0.15375584 -0.096674666 -0.035402272 0.07777119 -0.034898173 -0.1394894 -0.059508648 0.019627435 -0.001900672 0.074774556 -0.04083258 -0.17066336 -0.02182093 0.0063682003 0.017879946 0.06279615 0.16187578 0.18072908 -0.010417093 0.057635512 -0.029741518 -0.045347042 -0.016981361 -0.035554163 0.04244287 0.08432821 0.009541295 -0.042666472 0.059948385 0.06756461 -0.13106391 -0.06790941 0.025307538 0.24109687 -0.022427045 0.105787575 -0.13391282 0.10684564 -0.15184565 -0.0400579 0.09459216 -0.011382269 -0.236845 -0.020090861 0.18371956 0.110609174 0.1452146 0.14862336 -0.19111064 -0.090118416 0.14886211 -0.013817499 0.04655952 0.097688384 0.006908416 0.032678604 -0.09545467 -0.03298966 -0.030018197 0.12159665 -0.06666241 0.1422408 -0.15120868 0.043547306 -0.05620959 0.044994663 0.055796392 0.0256475 0.019151941 -0.0521946 0.14010665 0.07751305 -0.04164484 -0.016952874 0.096574076 -0.16307747 0.11852255 -0.08686046 -0.02348121 -0.08476407 -0.0026051989 0.15932624 -0.09222385 0.047701735 0.13765186 0.16239992 -0.038800936 0.0057291216 0.2691217 0.22531523 -0.15977319
732 -0.025822725 -0.074806914 0.07165763 0.010983495 -0.08099807 0.01877809 0.078773126 -0.065777816 0.16603437 0.026454153 0.016480431 -0.078438535 0.0032224501 0.062688775 0.17566326 -0.010493652 0.13171925 0.07462654 0.10126148 -0.11402616 -0.06796536 0.0069789058 -0.11473867 -0.12020876 0.029394194 0.023102894 0.015875291 -0.090280995 -0.0398698 -0.20462231 -0.04535233 -0.0552855 -0.06651498 -0.12693201 -0.014340535 0.04596289 0.025154568 -0.09196085 -0.03140303 0.046752412 -0.16191421 0.036581006 -0.17536734 0.17074047 -0.10348523 -0.010051772 -0.09721672 -0.09056023 -0.13482265 0.021191165 -0.1385146 0.20976673 0.15927164 0.15083995 0.05072733 -0.08936569 0.08883806 0.020205807 0.09749655 0.013082681 -0.07223507 -0.099257976 0.08263575 -0.031557675 -0.06035774 -0.008238585 0.10724657 -0.19625163 -0.099984676 0.036668133 0.07507013 0.005017531 0.004468937 0.05071844 0.100353464 -0.076548055 0.0004542813 0.009807891 0.03574998 0.075992934 0.012312718 0.04312574 0.20174058 -0.07631093 -0.016282445 -0.07197125 -0.034225184 0.031152694 -0.029004842 0.0003454227 0.11820338 0.06865002 0.15479296 0.07904435 -0.080029264 0.10794818 -0.03212718 -0.00018231486 -0.004136507 -0.110341616 0.04568155 0.059584446 -0.14019066 0.05156776 0.051292244 -0.013790544 -0.006552295 0.11147878 -0.03798798 -0.08233058 0.09276742 -0.124567725 -0.23201057 -0.06839623 -0.021444893 0.02912135 -0.17301618 -0.053135518 0.1708579 0.0647993 0.025294106 -0.0031532398 0.06867139 0.09152989 0.07635109 -0.002081212 -0.037060644 0.015432126
842 -0.07978419 0.022642298 0.1594963 -0.0030370005 -0.04356967 -0.0464956 0.06957447 -0.1229042 0.036658805 -0.018613664 -0.09327235 0.07321456 -0.07863949 -0.047218792 0.058108844 -0.004735954 0.11576464 -0.0045079896 0.20840722 -0.027037354 0.049156066 -0.057100207 0.09110146 -0.16827239 0.16954179 -0.061434552 0.016292524 -0.10322135 -0.02958541 -0.1764029 0.099845015 -0.09769161 -0.065173075 -0.113555044 -0.09567138 0.09957178 0.008482544 -0.020184105 -0.07387041 -0.0035206995 0.065453194 0.023812475 -0.24148457 0.051687945 -0.0936694 0.018291395 -0.08492745 0.1786971 0.017114399 -0.10861592 0.028945668 0.12914847 0.19023062 0.16441515 0.12677181 -0.017249513 0.095685266 -0.0596646 -0.013876243 -0.010444279 -0.015994258 -0.09883574 0.11105863 0.031441078 0.032038648 0.04685147 0.16313425 -0.1872472 0.016349126 0.088533275 0.21583423 0.07061642 0.22162357 -0.076820284 0.0735105 0.0051601212 0.08139537 0.06310069 0.010401837 -0.008842112 -0.08960059 0.032960106 0.07943529 0.053231753 0.08154177 -0.10355094 0.095130175 0.116460636 -0.042712245 0.0897759 0.15750484 0.19567443 0.073074 0.08490313 0.104610756 -0.06910114 -0.017769257 -0.028885424 0.12802854 0.043666188 -0.16041951 -0.021779923 -0.13163386 0.0760181 -0.026089845 -0.005266505 0.07037955 0.13258651 -0.031375207 -0.118799 0.003848725 -0.029586935 -0.024667125 -0.00026241824 -0.17683735 0.0016794638 -0.25069204 0.13450989 -0.12233133 -0.01792769 0.054836396 0.088260345 0.14877635 -0.06737207 0.099988475 0.084512174 0.076746896 -0.0032469407
323 0.06216816 -0.028022986 0.09357487 0.04961578 -0.23707087 -0.07757656 0.11239221 0.008288344 0.1267339 0.008783574 0.06071614 0.047438886 -0.014017896 -0.120922305 0.11674126 -0.13463365 0.04994462 -0.02284033 0.0450231 0.053741995 -0.00514156 -0.10863525 -0.015069167 -0.02216543 0.1586382 -0.039892163 -0.12854575 0.028401315 -0.12507129 -0.087771945 0.05923844 -0.14710787 0.045009665 0.14972422 -0.098799855 0.13244852 -0.0064939647 0.07892887 -0.03244782 0.052963234 0.06277857 -0.056309737 -0.072224796 0.031065159 -0.09976119 0.0007849442 -0.05445486 0.037095543 -0.057400044 -0.17229387 0.031997412 0.08176792 0.085096486 0.19107305 0.25044337 -0.04546111 -0.011113635 -0.119775444 -0.04224065 -0.08470028 -0.050563607 -0.0739196 -0.053563427 -0.06370937 -0.042104166 0.049794104 0.16643399 -0.13519855 -0.09710032 -0.011712746 0.26514632 -0.027596127 0.1468643 -0.0687353 0.11655632 -0.08053489 0.021793455 0.22171296 -0.033502962 -0.18037057 -0.13942489 -0.020239731 0.035759896 0.07209691 0.051419094 -0.0063433573 0.08581448 0.07211601 -0.09402845 0.06880522 0.052114725 0.13101423 0.17902116 -0.05942806 0.013708544 0.005872055 -0.011503743 -0.09861566 0.11961271 -0.07000496 0.039361287 -0.05701063 0.11756924 0.06810809 -0.10787281 0.037474897 0.07391172 0.07725164 -0.099709086 -0.13693175 0.062488757 0.109131955 -0.07844914 0.04842471 -0.13339166 -0.01987754 -0.14047252 0.15960559 -0.03903095 -0.054433454 0.03195072 0.21582182 0.16385789 -0.07844879 -0.07360808 0.08153271 0.12247284 0.029173007
584 0.10072115 0.06171239 0.0039798664 0.037607115 -0.11540662 -0.099084966 -0.0024571423 -0.0651913 0.2598222 0.060149916 0.040685445 -0.002438267 -0.026978837 -0.22267987 0.15670672 -0.0908186 0.026099829 -0.0040183812 -0.056313224 -0.037632566 0.018883565 -0.09256767 0.12213518 -0.020312516 0.016992882 -0.09324711 -0.12270188 -0.11576363 -0.049107626 -0.06439567 -0.061485887 -0.068359055 -0.07838726 0.052505556 -0.16763975 0.05689192 0.08095879 -0.042026684 0.014705147 0.004606406 0.0038913374 -0.04416138 -0.08785948 -0.019042056 -0.017648796 -0.08200732 0.05749659 0.15362835 0.01414006 -0.11522075 0.060870394 0.13762257 0.18791525 0.12625417 0.13895763 -0.056869388 0.06575636 -0.1568037 -0.14080817 0.0043214867 -0.06475855 0.031486545 -0.08505085 0.051994342 0.09014209 0.019662887 0.095690414 -0.1872374 0.00077007344 0.02328635 0.1771344 -0.02210506 0.2951977 -0.08896974 0.01729332 0.015210698 0.041135874 0.09405909 0.021297043 -0.14218491 -0.04226479 0.03456029 0.058059037 0.1054821 0.10806261 -0.105660126 0.08018684 0.054144282 -0.0985899 -0.0030816486 -0.046754617 -0.018818853 0.072950535 -0.085046045 0.031384863 0.030778596 -0.051176816 -0.18781051 0.19058846 -0.13177077 -0.06441911 -0.04246714 0.017088149 0.18628952 0.0043904833 0.10979097 0.19067545 -0.0038670814 0.11611004 -0.02918683 0.023719052 0.08541109 -0.046546854 -0.05341655 0.0038928585 -0.0032439865 -0.20439985 0.043982983 0.156528 -0.09050499 -0.0008208026 0.23695955 0.13789254 -0.09630019 -0.02200875 0.14555812 0.15309052 0.053031042
477 0.06476986 -0.033231802 -0.06403599 0.016423538 0.012611341 -0.083868295 0.09228271 0.042119298 0.15291013 0.032678608 -0.09351408 -0.049101017 -0.005416078 0.027036497 0.22176875 -0.08208521 0.1276417 0.021664694 0.058812432 -0.0066703577 0.0737074 -0.09426462 0.026776426 -0.088407345 0.20988423 0.07331063 -0.12773487 -0.081633024 0.114082254 -0.16999729 0.025968386 -0.06590021 -0.07368344 -0.008868472 -0.17052874 0.10919031 -0.07121439 -0.08987439 -0.020327365 -0.13913737 0.2189024 0.013984008 -0.20900097 0.11981766 -0.057370692 0.036485583 -0.140594 0.10126212 -0.03549733 -0.092454076 0.005380422 0.17106557 0.28278992 0.25734416 0.026799237 0.0040801065 0.0717057 -0.13084954 0.015198999 0.02776678 0.08026477 0.079639904 0.056595247 0.022762934 0.1164565 0.08684139 0.12653288 -0.19529966 0.0033646855 0.027316239 0.17814562 -0.013376662 0.25447944 -0.040293124 0.13685432 -0.012762465 0.04145399 0.053208478 -0.023699166 0.031440675 0.032680042 0.042745892 0.09285085 -0.016142622 0.12231939 -0.09640281 0.09217418 0.102652706 -0.11865503 0.06937503 0.013316734 0.10960167 0.051248737 0.17201336 0.08652 0.046753485 -0.08514634 0.00423412 0.035128374 -0.14034149 -0.11560579 -0.07456046 -0.07608398 0.12142542 0.052765746 0.082819745 0.052200645 0.07489218 0.011002891 -0.058102768 0.020961342 0.0330008 -0.06803315 0.081460565 -0.08664795 -0.108172305 -0.2109153 0.09033106 -0.015526661 0.01928091 0.07798732 0.18340032 0.06413386 -0.059540857 0.057860777 0.042821743 0.03280973 -0.018414052
886 0.062190246 -0.033062655 0.018339494 -0.043451305 0.04834147 -0.009008516 0.08087199 0.0051823454 0.20552726 -0.1639792 0.02239471 0.041828323 -0.018543366 -0.033430275 0.089935675 2.1876099e-06 0.27280506 0.019733867 0.08722856 0.024924427 0.11117736 0.029618524 0.16669136 -0.12035455 0.17640206 -0.07563111 -0.07099524 -0.09133637 -0.25061807 -0.16564043 0.03949032 -0.063661434 -0.025168106 -0.012413448 -0.10476456 0.043126665 -0.028404355 -0.034462955 -0.07974908 -0.0638234 0.08474443 0.041763414 -0.0879805 0.033204563 0.03911698 0.018526655 0.014282526 0.022193952 -0.11815875 -0.06752141 -0.064625636 0.07879414 0.0937384 0.16995396 0.08028154 -0.19953063 0.15261686 0.034535356 0.026074417 -0.021779614 0.023203982 -0.10660113 0.00021993283 -0.06801808 -0.022961339 -0.06578758 0.14856936 -0.13880911 -0.11170253 -0.11406336 0.19235991 -0.06408564 0.24847919 0.043525238 0.22691488 0.016534954 -0.07206829 0.14541586 0.011421304 0.12755786 -0.012269611 0.06002524 0.0168779 -0.025241097 -0.08930908 -0.0017945509 0.14007209 0.11370091 0.10734618 0.009286894 0.10200419 0.056511488 0.055709276 0.041879002 -0.042824164 0.13426375 0.033644065 -0.015007719 0.10475332 -0.0036937492 -0.028331976 -0.020243557 0.006101633 0.14514863 0.025889572 -0.024072306 0.01478903 0.08019345 0.08775786 -0.05610086 -0.06438355 -0.055754438 -0.069359 -0.018446572 -0.014247307 0.023089707 -0.25803214 -0.04528786 0.020945288 0.078500256 0.032100428 0.021813406 0.055519193 0.02366839 0.14830525 -0.00043493626 -0.0144822365 -0.044194583
624 0.11632283 0.13623732 0.0037668266 0.090012856 -0.16983956 -0.06475007 0.017384965 -0.12130677 0.18109907 0.07271444 -0.11271484 -0.029900217 0.06744087 -0.1343256 0.17873965 -0.15510269 0.10199369 -0.034339223 -0.05796651 0.0743561 0.036980752 -0.093679234 -0.00969661 -0.20158122 0.06591967 0.016943304 -0.07776273 -0.069246635 -0.120396115 -0.10962069 0.032373745 -0.12234272 0.019567288 0.11533134 -0.15059009 0.075617194 0.08378692 -0.08863973 -0.09992423 0.049552828 0.12926449 0.022739412 -0.07544138 0.093440406 -0.072788544 -0.16915576 0.046943225 0.14369196 -0.19310759 -0.11135811 -0.007153506 0.16311926 0.20594156 0.20352726 0.1484026 -0.009375866 -0.0007264326 -0.03507172 -0.107768826 0.04259723 -0.098300084 -0.0687222 0.014863166 -0.08097823 0.12300619 0.036152452 0.060873374 -0.107494645 -0.12429335 -0.025535643 0.23054169 -0.027992593 0.0886184 -0.108923554 0.108899914 -0.1127874 -0.0029565932 0.22754753 0.073653646 -0.06831132 -0.08697074 0.16778187 0.09298334 -0.056944992 -0.014593229 -0.12873557 -0.015374479 0.027457148 -0.0932493 0.053889886 -0.022274489 0.053052735 0.06550071 0.1566104 0.015026343 -0.043950446 -0.008642187 0.030546468 0.15054037 -0.15087877 -0.10965843 -0.02419592 -0.07373796 0.07808763 -0.008977496 0.013221865 0.03163607 -0.06338552 0.0026821932 -0.13729146 0.091010176 -0.07539489 -0.18464807 0.058276393 0.0076910886 0.05436219 -0.025646456 0.108257145 0.03890715 -0.1206416 -0.024925353 0.19983894 0.034859963 -0.11136852 0.005631815 0.106697544 0.11384235 0.005070479
207 -0.050448466 -0.023265773 0.16900212 -0.12814693 -0.15855305 0.049428258 0.12737237 -0.025300818 0.15468316 -0.05715283 0.11838727 -0.07265918 0.035295915 0.04256655 0.10324896 -0.0860748 0.1356408 -0.072083056 -0.0041879993 0.21057959 0.010198878 0.050477628 0.13318084 -0.096922345 0.13286898 -0.11783342 -0.25214142 -0.17153436 -0.06688098 -0.18134616 -0.08652126 0.083690144 0.0817573 -0.08817432 0.045299694 0.0041045784 -0.1634881 -0.093584165 -0.035392355 -0.119204275 0.03119495 -0.12059316 0.0019712683 -0.057439424 -0.07540467 -0.04506994 0.1494627 0.047226015 -0.15609366 -0.09744655 -0.15330115 -0.01205703 -0.027890742 0.11247091 0.16427955 0.011412711 0.028695004 -0.007319458 -0.123281136 0.04426462 -0.07735282 -0.045855224 0.058562264 -0.15834722 -0.09276176 0.062493127 0.11855333 -0.14976518 -0.19741467 -0.059026316 0.098783396 -0.14697883 0.10612889 -0.15599892 0.20016603 -0.08576155 0.02440032 0.17139076 -0.014734967 -0.2062866 0.04795289 0.14846791 0.035835773 0.14880916 0.054983694 -0.025018992 0.003611389 0.06766343 0.036818776 0.0034463662 0.063507624 0.036572315 0.07720049 0.0009661542 -0.03290117 -0.032717533 0.06746901 -0.12599358 0.1700654 -0.024641007 0.041516714 -0.14955732 -0.021623185 0.04841311 0.018539485 0.028845191 0.09510495 -0.018679425 -0.06043158 -0.100924864 -0.043527834 -0.028329277 -0.11985716 0.03753886 -0.2153336 -0.005472537 -0.13817807 -0.020564497 0.074475355 0.041064233 0.008149659 0.031021532 0.09056489 0.03208353 0.08617377 0.1506984 0.27410656 -0.14400996
264 -0.12627524 0.010191705 0.27638507 -0.09444077 -0.07901725 -0.118037276 -0.03192196 -0.048090506 -0.04922643 0.029099619 -0.11612698 -0.09205812 0.059176072 -0.04661876 0.18347748 -0.022133164 0.18307526 -0.1826135 0.040695503 -0.01657533 -0.049373113 0.02041929 -0.025526613 -0.07928082 0.07524831 0.024273438 -0.03807145 -0.11363882 -0.06935485 -0.1076972 0.083929874 -0.05768815 -0.005123264 -0.12162024 -0.011985595 0.035060883 0.012702462 -0.20588869 -0.010926135 -0.10757862 0.13262352 0.017621271 -0.21025194 -0.06795111 -0.15180334 0.16077591 -0.11773844 -0.0067497906 -0.068471976 -0.08152318 -0.0061270446 0.03770479 0.17687316 0.03699334 0.181908 0.045857217 0.09959485 -0.13062409 0.020207627 0.044827525 0.15313283 -0.108623065 0.1057824 -0.016025811 -0.008809865 -0.009603391 0.15339875 -0.32362443 0.034259975 0.07085698 0.28978723 0.05823185 0.057826925 -0.06677441 0.15666336 -0.11750147 -0.10553175 0.170022 -0.057658482 -0.103194416 -0.080412924 0.034113895 0.040864743 0.13829923 0.2278721 0.013718117 -0.12358513 0.30289432 -0.01665995 0.19830406 0.039528105 0.24674267 -0.03036065 0.03602895 0.09920559 -0.044404075 0.03448548 -0.20233622 0.032528304 -0.10851438 0.023635646 -0.10464511 0.04343263 0.12337885 0.1859221 0.0520314 0.018751815 0.1000599 0.14254442 -0.14804527 0.055130847 0.07945246 -0.17187446 0.054432563 -0.02671224 -0.013164945 -0.2963831 -0.08668841 -0.017975697 0.009551912 0.05384853 0.110176876 0.108332194 -0.035771005 0.04421602 0.15172832 0.08151302 0.09752108
299 0.036487415 0.04822222 0.022730263 0.027509375 -0.12532087 -0.033536937 0.09752187 -0.04997902 0.025868626 -0.02889015 -0.1441975 -0.092226 -0.04231347 -0.0011693137 0.18548124 -0.087346785 0.13383912 -0.057678424 0.12896772 -0.07993353 0.080011815 0.038244367 -0.0422657 -0.1562547 0.1219036 -0.04692684 -0.17214184 -0.016355937 -0.072651826 -0.12045492 0.0696825 -0.04325789 0.022667151 -0.0059165335 -0.15684171 0.116988145 0.06450461 -0.025273358 -0.19024354 -0.018778805 -0.07857942 0.010401833 -0.21343683 -0.02110711 -0.02971941 -0.011283333 -0.051566444 0.16595155 -0.07364282 -0.014571456 -0.013860976 0.2640276 0.25220877 0.093769714 0.15292877 -0.008139641 0.077590056 -0.08491412 -0.15100102 -0.07401208 0.029620858 -0.09884018 0.0636663 0.076894395 -0.04813117 -0.032226305 0.13319388 -0.18915501 -0.09391347 0.0010034327 0.21900052 -0.06658073 0.29939863 -0.005891006 0.08919349 -0.039520983 0.023061393 0.21913451 -0.02014434 -0.06382963 -0.059290737 -0.022239758 -0.039129775 0.018732239 -0.012619307 -0.06229869 0.08435397 -0.008940044 -0.12048192 0.05224078 0.16970605 0.19655092 0.17872626 0.027654696 0.06324144 0.03190464 -0.086759314 0.09142326 -0.06831974 -0.004017143 0.025531946 -0.07581777 0.008831786 0.029532302 -0.07563495 -0.08659116 0.05504882 0.13553795 0.0050488915 -0.12658183 -0.07708556 -0.015111587 -0.066045776 0.0751755 -0.08006539 -0.07512073 -0.15460856 0.06927085 -0.12952922 -0.1421502 0.0333435 0.06219229 0.14103223 -0.059953365 0.022811864 0.05824445 0.07315957 0.016376056
223 -0.14558455 -0.18349561 0.30118197 -0.03209509 -0.05619796 0.051538557 0.122147016 -0.0306657 0.035347257 -0.049889833 0.112740435 -0.037424963 0.13654615 0.060679566 0.15006624 -0.045216277 0.07053318 0.06020632 0.15503193 -0.096109934 0.0885607 0.14031169 -0.059083767 -0.09343387 0.063721284 -0.058503963 0.044314615 -0.22331488 0.098123915 -0.16637678 0.09693785 0.042033173 -0.033109255 -0.1898187 0.08205803 0.09701467 -0.023784041 -0.1613207 -0.052267082 -0.12022821 -0.025985729 -0.12928893 -0.12875612 0.027085928 0.027957879 0.115818925 -0.015275874 0.06645548 -0.14243042 0.036707662 -0.17136568 0.09497086 0.07785889 0.1916208 0.18620333 -0.10330288 0.11415314 -0.012896587 0.11100361 -0.02536001 -0.0009795793 -0.09533982 0.11196354 0.06646464 -0.1289194 0.012682689 0.11986852 -0.20194228 -0.06930333 0.11075777 0.12141211 -0.06515583 -0.03881729 -0.010188965 0.16683802 -0.046118785 0.014465634 -0.07797163 -0.18792483 -0.00089119765 0.050857216 0.14918701 -0.09937529 0.092909 0.01665276 -0.0074346815 0.0024903428 0.2300274 -0.004495127 0.03901895 0.096919075 0.10089816 0.12672108 -0.004597795 0.061096523 0.096313424 0.00079178106 -0.04495032 0.042324524 -0.13246623 0.03945345 -0.05175034 -0.11389911 0.09221155 0.17929189 0.14677735 0.014286203 0.024232203 0.06001989 -0.1495771 0.055976007 -0.036779266 -0.16422172 0.20101765 -0.1520766 -0.06439299 -0.035317656 -0.19383885 0.18123794 0.0443491 -0.044861585 -0.058050938 0.0888785 0.11363577 0.0025759533 -0.019352097 0.048850797 0.012375009
396 0.051401727 -0.03730736 0.01882174 0.047418915 -0.06877359 -0.02663036 0.105963685 0.05339686 0.051186237 0.11248219 -0.13964239 -0.10137855 -0.032153796 0.034960322 0.16420025 -0.010060145 0.21810335 -0.018351458 0.0038293635 0.020010408 0.09299109 -0.074600734 -0.024907304 -0.18987247 0.13894324 0.09025987 0.020454368 -0.043793973 -0.12153119 -0.08812238 -0.07496976 -0.086658366 -0.0003624038 -0.0580316 -0.19829085 0.027191084 -0.05749243 -0.09735947 -0.09556058 0.0006651437 0.0046887896 0.12848116 -0.16502075 0.07900548 -0.10305569 0.08593675 -0.07071083 -0.003061444 -0.029231492 -0.07903136 -0.029977309 0.1451253 0.27528074 0.20500965 0.1392768 0.054124005 0.08325986 -0.04927548 0.026117543 -0.029408319 0.042093903 -0.01653733 0.17067613 -0.041754693 0.03442926 -0.05612795 0.15538055 -0.10966645 -0.14810422 0.07033255 0.22398919 0.03922849 0.29040813 0.04584506 0.12545355 -0.091712065 0.013268967 0.12511289 -0.080423236 0.037343614 0.07152213 -0.09912941 0.05332187 0.057913374 0.14245188 -0.08300684 0.08104449 0.17055583 -0.1858132 0.042167522 0.122512944 0.14701754 0.05307892 0.15216401 0.038658794 0.053368315 -0.024581123 -0.12016301 0.12105891 -0.0342789 -0.059480455 -0.033798262 -0.038916804 0.15015902 -0.09594028 -0.024235368 0.02593583 0.075451605 -0.0002579915 -0.07441512 0.050469827 -0.016708788 -0.08999758 -0.06721891 0.024748502 -0.11645508 -0.2531764 0.010528249 -0.1345808 -0.03750588 0.012249279 0.15922466 0.19646616 -0.063013144 0.039996188 0.04643159 0.16183832 -0.02078297
356 0.07880687 -0.06118725 0.09914266 -0.0024305198 -0.10712154 -0.03710124 0.11338753 -0.014076335 0.04586495 -0.06851927 -0.110739134 0.09227002 0.025402075 -0.034766488 0.2425374 -0.008358531 0.12372993 0.052801736 0.07609915 -0.013015061 0.05509822 -0.007301437 -0.0016228507 -0.05553847 0.09296298 -0.09666426 -0.058191255 -0.0434235 -0.05435577 -0.1135537 0.019934768 -0.13955529 0.0052327607 -0.031233497 -0.19586428 0.07010246 -0.07904317 0.026067305 -0.063493446 -0.05277213 -0.15840532 -0.042061172 -0.17335068 0.09005936 -0.022260131 -0.031500053 0.017273383 0.08868338 -0.10219358 0.05504114 0.07523516 0.15802447 0.18493396 0.055236243 0.18280655 -0.09191721 0.102280654 -0.07682653 -0.020207418 0.0037155887 0.092924416 -0.058631487 -0.0010865184 0.05578389 0.022072494 -0.0008330992 0.14075184 -0.26846424 -0.13733858 0.04806568 0.16135874 0.020808972 0.2629283 -0.0028623308 0.007419428 -0.09469448 0.0394781 0.1613922 -0.105967075 0.0733356 -0.13203803 0.116373785 0.029811895 0.08367566 0.0010751338 -0.12178899 0.20157637 0.0853227 -0.16426495 0.07318464 0.0066448394 0.13895781 0.14686525 0.05784447 -0.042166855 -0.04329563 -0.04731317 0.048167165 0.037473243 -0.119426794 -0.14273326 0.0055875555 -0.041370478 0.105738066 -0.0485554 0.06707691 -0.17208081 0.06525008 0.11624135 -0.05695957 -0.063759156 0.06999001 -0.098822616 0.057268765 -0.08622454 -0.10121917 -0.16320984 0.06643773 -0.019291628 -0.1870714 0.13881014 0.19277693 0.2592278 -0.11651819 -0.014605786 0.058913052 -0.002524356 0.073449925
429 -0.006298114 0.08001034 0.11556372 -0.05291616 -0.13279231 0.0014337314 -0.089755334 -0.09788841 0.24948902 0.0618864 -0.030961841 -0.03638283 0.06795006 -0.10642802 0.15253754 -0.102086864 -0.01864326 -0.010645583 -0.04602309 0.022319956 -0.066689454 0.013002723 0.035320275 -0.064554095 -0.001037607 0.13117048 -0.038499627 -0.062003307 0.0046367277 -0.14664868 -0.13462004 0.038416963 -0.109580405 0.06362961 -0.083286695 0.11356208 0.012593476 0.052592605 -0.033664197 0.07217721 0.013664713 -0.010140885 -0.18077362 0.07902538 -0.09319502 -0.022180507 0.001820553 0.026389511 0.061730534 0.0038876098 -0.078471705 0.032717053 0.119821094 0.26454893 0.099923976 0.06822248 -0.011059116 0.003224683 -0.014047379 -0.0036604782 -0.034170184 0.0040579042 -0.00021294449 0.07111611 0.110199966 0.17747061 0.16702294 -0.23992746 -0.10292596 0.10534099 0.15347984 0.07587546 0.189987 -0.010670352 0.12678283 -0.08813352 0.01394917 0.136066 0.022076504 -0.15665242 -0.07735493 -0.017312787 0.057466473 -0.04607692 0.07445725 -0.055277474 0.035220876 0.018045519 -0.1122469 0.022350563 0.14168829 -0.14062583 -0.0005990833 0.070192195 -0.033767737 0.0025320915 0.10317023 -0.072779834 0.08586361 -0.23658566 0.029446272 -0.08790394 -0.13445312 0.11136627 0.035128832 0.07773066 0.03478081 0.06255328 0.059158236 -0.087779045 0.07891117 0.085216776 -0.055117007 0.033729807 0.00411171 0.14875345 -0.16334656 -0.0046275314 0.20365001 -0.086179204 0.07987063 0.17741129 0.023133116 -0.16044652 -0.14922872 0.10145727 0.14084174 0.10016675
1094 0.13304298 -0.077055246 0.026192168 0.06303732 -0.1176001 -0.030448982 0.17723547 0.078569 0.06435971 0.075394794 -0.11972541 0.027284417 -0.001975464 -0.085805595 0.30259085 -0.026405742 0.023416618 0.013374029 0.1495485 0.050078783 0.1397252 -0.16621944 0.027983451 -0.060150616 0.13370042 -0.07449133 -0.16321081 -0.044686023 0.07394345 -0.023987075 0.019723307 -0.049579464 -0.027425151 -0.04627068 -0.10302687 0.06481731 -0.023606276 -0.02187263 -0.022501577 0.04950531 0.13341741 -0.035666615 -0.21848595 -0.011221076 0.02741698 -0.06509336 -0.111242905 0.029756354 -0.045618176 -0.017181586 0.015807105 0.18725358 0.2814927 0.054099448 0.25227234 -0.03925117 0.101256825 -0.08993764 0.029665405 0.04033483 0.27709353 -0.11554215 0.021768851 -0.032564774 -0.084068045 0.09669637 0.17588614 -0.1606561 -0.13788201 0.043522973 0.1785381 0.05342004 0.19765925 0.0021186199 0.2079249 -0.08312993 0.10587266 0.2126897 0.009401696 -0.0020821146 -0.032836962 0.0067710388 -0.0059269476 0.085049525 -0.024539134 -0.1115412 0.1189494 0.07961141 -0.06990502 -0.05480022 0.02728913 0.15983427 0.0087326765 -0.024207534 0.030157218 -0.022107376 -0.07242449 -0.08086599 -0.013723422 -0.10665959 -0.022215093 -0.08781153 -0.033865467 0.19031557 0.080260485 -0.10868505 0.021280656 0.10396093 0.056498248 -0.009035199 0.07263475 0.09230408 -0.22116834 0.067160726 -0.030428862 -0.04530541 -0.12903751 0.0148225995 -0.08460137 -0.18017471 -0.03018704 0.11601453 0.12032086 -0.018694412 0.033588417 0.11313354 0.110830106 0.041157085
1015 0.02580471 0.03954162 -0.03205522 0.08680492 -0.11383566 0.03375344 -0.011692847 -0.09974251 0.12692705 -0.061096888 0.026800571 -0.045789342 -0.12324079 -0.027378311 -0.07766821 -0.0042278734 0.107129805 -0.057698783 0.039537426 -0.011393119 -0.036296654 -0.008748254 0.03461569 -0.013479723 0.09890192 -0.022460168 -0.060213737 0.08145038 0.12088656 -0.12759219 -0.05548928 -0.059520155 -0.19618466 0.054554634 0.0048736488 0.08397485 -0.02508359 0.07300732 -0.04890172 0.113088876 0.038834173 -0.031762175 0.037606966 0.0026897555 0.023301387 -0.055015467 0.02341388 -0.13289224 0.09159023 0.031722788 -0.03080888 0.104675904 0.113502994 0.21062578 -0.040463585 0.011187869 0.029267944 0.027116928 -0.056049347 -0.07442101 0.008885457 0.038035445 0.002867684 0.0074959253 0.018789792 0.04120673 0.10783049 -0.2210776 -0.14278305 -0.119795665 0.1637994 0.04076603 0.2221781 0.09415654 0.13171849 -0.089425765 0.03605435 0.1739372 0.00072818174 -0.12266821 -0.037206277 0.06055532 0.052081157 0.009032565 0.18521409 -0.020343168 0.17963926 0.13625452 -0.0866205 0.07183406 0.13358238 0.013991847 -0.00097306364 -0.15540162 0.051990386 -0.017702034 0.012746979 -0.03456114 0.06505088 -0.18885912 -0.12600595 -0.07594591 -0.07834277 0.13406347 -0.05130578 0.01508708 0.01772312 0.05631569 0.047453433 -0.1504574 0.13382602 0.13760911 -0.04307521 0.12468924 -0.11375209 0.075199656 -0.055348713 0.12071401 0.12525718 -0.07181301 -0.04624092 0.16341563 0.05121267 -0.02261288 0.0040530628 0.012579802 0.02263242 -0.063930936
943 0.041649077 0.042000107 0.047367945 -0.08503631 -0.15874296 -0.007396965 0.07792511 -0.07671608 0.12752996 0.014528054 0.043863703 0.050857678 -0.00920583 0.018978087 -0.015160605 0.028421257 0.1893776 0.038714938 -0.11631268 -0.025947401 -0.12434837 -0.0012342724 0.15617289 0.01021712 0.0034517664 0.031714913 -0.072962396 -0.10792891 0.067558 -0.16622886 -0.007618784 -0.023156464 -0.049981106 -0.055507395 -0.038768366 -0.0162156 -0.009595249 0.02941849 -0.035192546 -0.0075575123 -0.09453958 0.0066524153 -0.1789991 0.027044304 -0.06523416 -0.031003078 -0.011484445 0.06429289 -0.032140557 -0.15758169 -0.13838333 0.151785 0.104443945 0.14591102 0.10530499 0.022211678 0.014707498 0.1294721 -0.053029172 -0.017697321 -0.036627296 -0.023612324 0.053270247 0.034792308 0.14496958 0.101998135 0.10057848 -0.10233035 -0.09787885 7.870741e-05 0.1409249 0.018716168 0.13145429 0.09193319 0.14338107 0.07490112 0.07040497 0.043540698 -0.034337536 -0.082480855 0.08754152 -0.1115458 0.08211191 0.055601865 -0.05010494 -0.00484223 0.09065839 0.09061512 -0.06624055 -0.031934947 0.08455076 -0.09664365 0.12061997 -0.026709879 0.19014722 0.07470124 -0.0009692718 -0.015241905 0.067111626 -0.09352153 -0.03777583 0.06742707 -0.1706934 0.1810134 -0.0045759766 0.05107593 0.035669215 -0.020264924 0.09095553 -0.11176964 0.098586544 0.008969991 -0.015249163 -0.046166155 -0.18312895 0.1439957 -0.11192604 -0.014970635 0.09615166 0.060575314 -0.01644723 0.16661987 0.06418467 0.02350393 0.06569495 0.014952749 0.087697804 0.12370757
1048 0.041915637 -0.02473511 0.04607414 -0.04775828 -0.014590137 -0.04104396 -0.0045235693 -0.1827685 0.23600306 0.047524482 0.06535235 -0.04308396 0.030098585 0.03265019 0.075283766 -0.048647802 0.07631132 0.06878305 0.026867282 0.018979639 -0.12769444 0.023631241 0.028159237 0.051884655 -0.013348109 -0.0696348 -0.07304057 -0.0056780293 0.0069796825 -0.055625133 -0.03919344 -0.13772829 -0.02947647 -0.105552815 -0.037542984 0.0055714794 0.08936839 0.021742713 0.030847507 -0.042689692 -0.07454798 0.05113659 0.025860228 0.08350257 0.09435855 -0.011092029 0.008335005 0.1264104 0.030565582 -0.02408818 -0.13038984 0.12855302 0.06706538 0.122970626 0.1559418 -0.16381471 0.013161602 0.050763886 -0.015129043 0.0078113475 -0.03904307 0.0227259 0.07186031 0.008419916 0.037859034 0.01224274 0.042406708 -0.083301894 -0.08906923 0.024675213 0.16393998 0.038833745 0.017647002 -0.023071058 0.18483788 0.011917777 0.08608559 0.11837264 0.04939907 0.0015017135 -0.077436045 0.07953883 0.115829885 0.01038216 0.011350685 -0.09973892 0.082904786 -0.021756548 -0.0049001942 -0.01651229 0.21093427 -0.06278001 0.08334649 -0.056593448 0.0051153926 0.050633196 -0.018513547 -0.09307607 0.18904828 -0.14984511 -0.11977438 0.033582024 -0.040328726 0.10750538 -0.065239385 0.11479399 0.11954987 -0.08772108 0.09069597 -0.06767777 0.10645458 -0.17818952 -0.10548728 -0.078323394 -0.103112355 0.22404534 -0.09944054 -0.05782204 0.035142638 -0.016371278 0.017297985 0.06134996 0.07229902 0.08669611 0.07888487 0.04930223 0.06302455 0.050171483
596 -0.014160833 0.09361612 0.11622763 -0.048482854 -0.10374244 -0.026791323 0.08433929 -0.0732412 0.050621387 0.029097086 0.03576936 0.09255312 -0.034856666 -0.008962393 0.15259443 -0.14957196 0.014118265 -0.02839157 -0.07810708 -0.004175616 -0.09462894 -0.002084134 0.015544085 0.0039529908 0.038209934 -0.07279423 -0.18399744 -0.11227738 -0.032670833 -0.08258428 -0.06469232 0.049934734 -0.19394214 -0.15455946 0.08496811 -0.010694475 -0.03900687 -0.038391083 -0.07101228 0.0323212 -0.04431865 0.011471265 -0.018661141 -0.0033415947 -0.038505454 0.02175863 -0.08341211 0.027333137 0.0073510823 -0.14817174 -0.030348541 0.117183395 0.07192979 0.1629465 0.08823007 0.031739008 0.04395452 0.06538126 -0.027378298 -0.07390275 0.049296975 -0.04687558 0.019337744 0.0055512097 0.019799087 0.13611557 -0.02705607 -0.16691616 -0.096221276 -0.012087726 0.21026973 0.087394 0.10215619 0.045450583 0.26978076 0.10181382 0.09858694 0.10658143 0.07885634 -0.10080523 0.00011439085 -0.04717337 -0.001781331 0.004330502 0.0115296515 0.17250873 0.049497608 0.034988586 0.06667723 -0.015269202 0.08573276 -0.011221392 0.1018169 -0.081405975 0.06498188 0.026691934 -0.05942329 -0.015113253 0.14852223 -0.099851914 0.12874687 0.014148682 -0.06578269 -0.0194804 -0.0040633734 -0.061736893 0.07752656 0.07142468 -0.013130335 -0.20913918 0.054047894 -0.06935335 0.056414783 0.049669825 -0.08288242 0.11729023 -0.06723226 0.026558947 0.11413845 -0.04634478 -0.048308216 0.07532039 0.15311256 0.19552128 0.0493205 0.047188498 -0.023231782 0.03957665
614 -0.024402155 -0.13590294 -0.06286573 0.037055366 -0.094026595 -0.12044365 0.10417557 -0.002583221 0.1387231 -0.13248688 -0.0039591985 0.022877246 -0.014169493 0.04507478 0.17671718 -0.026797565 0.28704268 0.003950304 0.016469598 -0.116309345 -0.06179133 -0.036847126 0.0820966 -0.082597785 0.09954706 -0.1320634 -0.22608039 -0.13886185 -0.06861233 -0.09599597 0.112845965 -0.070836626 0.033782326 -0.18490633 -0.1744437 0.08440292 0.045207754 0.0034313814 -0.03227419 -0.052544184 -0.07375687 -0.01385156 -0.19520949 0.17274706 0.004687691 -0.07349962 -0.035152644 -0.066952094 -0.13062447 0.0031338842 -0.04299909 0.19562711 0.20319928 -0.053955056 0.054027315 -0.1436303 0.17163095 -0.028336007 0.010425781 -0.034429967 0.040769566 -0.22387436 -0.061219092 -4.6995424e-06 -0.0030837168 -0.016048731 -0.049472127 -0.08571003 -0.07738953 -0.06353599 0.20017166 -0.07557182 0.21917348 0.09452602 0.12688035 0.04899021 0.062330745 0.09394602 0.09385771 -0.03609974 0.003279916 -0.039554387 0.24636349 -0.01343983 -0.11165583 -0.040021475 0.12034337 0.065016456 -0.028182402 -0.02063736 0.004283158 0.13431449 0.109642185 0.02725057 0.025136128 0.0035672833 -0.11753377 -0.032870226 -0.001458434 -0.094922304 -0.119130716 0.04083334 -0.04481685 0.11068265 -0.058176864 -0.0488262 -0.07170454 0.02479028 0.008591126 -0.15962854 -0.016927263 0.011837884 -0.14819591 -0.022053247 -0.15842886 -0.17315109 -0.18399186 0.013382664 0.08813336 0.052500136 -0.11988905 -0.077996224 0.1676007 -0.14860104 0.055998497 -0.046932902 0.044842917 0.05020474
376 -0.018762141 -0.05899391 0.23501831 0.10715506 -0.10431471 -0.057507515 -0.0693661 0.076133355 0.0763785 0.064206585 -0.11285963 -0.06633422 0.008877665 -0.103962496 0.061689638 0.029658828 0.050151948 0.0752647 0.17111768 -0.026232801 0.013646903 0.099231295 0.157049 -0.0627711 0.27886295 0.043686863 -0.060696855 -0.27259448 0.059697717 -0.12334473 -0.05738879 -0.005467049 0.13712859 -0.039124012 0.027806647 0.008156133 -0.01815284 -0.08300068 -0.061521873 -0.10081735 0.14392662 -0.122940116 -0.16757385 0.12578396 -0.10192344 0.051486943 -0.12533028 -0.033589516 -0.06131212 -0.036549374 0.094338976 0.16993271 0.103631824 0.14995775 0.121411964 -0.032855216 0.07092129 -0.1623783 -0.028033674 -0.03545451 -0.0025808287 -0.0015505678 0.13207622 0.11679835 -0.08734058 0.07577655 0.20998737 -0.28217235 0.017068988 -0.06804554 0.2460774 -0.04557936 0.23732387 -0.13732356 0.21844256 -0.1252075 -0.018242486 0.12116533 -0.08669681 -0.15437692 -0.007399975 0.16364482 0.19830534 0.20480528 0.11077735 -0.0035059438 -0.098256774 0.20651945 -0.17827843 0.06567739 0.057447672 0.16845724 -0.020164395 -0.022393946 0.10983009 0.10117549 0.06421223 -0.10815735 0.08580084 -0.06920045 -0.10779187 -0.015746213 0.032472093 0.15644899 0.13460864 0.004867781 0.1115704 0.09281559 0.11998329 0.017384378 0.044200577 0.045031182 -0.18093665 0.07388338 -0.050989624 -0.115005456 -0.15058847 -0.17346652 0.12329958 -0.046103556 0.090777665 0.06479999 0.08602954 -0.047426224 0.14528683 0.10912252 0.09394155 -0.1031986
397 -0.015195717 -0.086359195 0.10409926 -0.011802088 -0.03417322 0.020604854 0.041758444 -0.10195584 0.12334097 0.13019535 -0.13915434 -0.14671743 0.07328701 0.031523217 0.19624022 -0.014574336 0.15193446 -0.029313525 0.15865225 -0.030554177 0.053089987 -0.048146 -0.03883423 -0.050705668 0.07513489 0.063162334 -0.04304551 -0.10447646 -0.004786848 -0.10448038 0.024870886 -0.15796441 0.09239393 -0.0035484452 -0.17447963 0.121349625 0.05126486 -0.12737024 -0.109469496 -0.01441634 0.07219758 0.14110756 -0.23406684 -0.044500064 0.045406748 0.060195446 -0.08044417 0.12525412 -0.09575871 -0.087174125 0.007531438 0.15888385 0.21794458 0.11045439 0.22883143 -0.005187315 0.16550566 -0.1693216 0.03402216 0.06743741 -0.007796922 -0.09107891 0.10825411 0.019924702 0.10411301 -0.08327217 0.13344334 -0.0635213 -0.17163089 0.0070789144 0.15406261 0.09636433 0.15252075 -0.044357806 0.015309736 -0.10443296 -0.025662113 0.18987192 -0.010743478 0.062116124 0.0035399918 0.035683803 0.0634088 -0.046958894 0.094257765 -0.15194866 -0.046551343 0.05814427 -0.14056 0.0070876023 0.10894804 -0.047254954 0.08049776 0.15074404 -0.09152877 0.006524808 -0.0130141 -0.08710729 0.021164807 -0.11579815 -0.17932779 0.006200301 -0.006062989 0.07066675 -0.019043528 0.052531604 0.049808428 0.106827825 0.08558731 -0.05569462 0.009889286 -0.07128115 -0.13856854 -0.1842782 -0.011974937 -0.10312285 -0.3299801 0.074951835 0.09614613 -0.039192103 0.06833013 0.044410437 0.07723921 -0.02530785 0.040795926 0.12500522 0.12379576 0.07970715
