994 128
943 0.19339818 0.19822045 0.038127042 0.019688338 -0.06502853 0.10793638 0.050673652 -0.24405307 0.22778389 0.038946636 -0.05086785 -0.22622482 0.008248155 -0.08963201 0.18908964 -0.105211765 -0.053061422 -0.10937883 -0.12130085 0.08039623 0.044037867 0.2095152 0.15705863 -0.028764663 0.17258257 -0.18181592 0.07859734 -0.078293465 -0.22754638 0.15484764 0.06532164 0.11782409 0.050947987 -0.2591099 0.052839562 -0.014846768 0.24548529 -0.099422686 0.037210327 0.042327423 0.21822745 0.104606755 0.21885039 0.034962397 0.021239705 0.057526566 -0.035115466 -0.0353629 -0.044186432 -0.07298799 -0.22309649 0.066868745 -0.10138759 0.101470195 0.04347496 0.050159663 -0.019517675 -0.24426444 -0.12234287 -0.060483456 -0.117644325 0.17962834 -0.039987843 -0.02521351 -0.044816166 -0.0771102 -0.01627669 -0.019452665 0.04137075 0.028333323 0.06227138 0.10739044 0.046253372 -0.026876112 0.13504894 -0.048050042 0.16448465 0.076232724 -0.26042062 -0.17682797 0.09949086 -0.09237182 -0.09560012 0.06714614 0.115678914 0.10092358 0.024975516 -0.22543035 -0.26828057 -0.08816033 -0.08969609 -0.14597812 0.13540629 0.092575036 0.023003744 0.250198 0.06985517 -0.1329079 -0.09521372 -0.05518076 -0.39343068 0.058688402 0.15747707 0.02482604 0.20949228 -0.15328325 0.116770625 -0.13542618 0.068522364 0.20887509 0.093545884 0.014191508 -0.042570055 -0.013529 -0.054171003 0.120723955 -0.29741004 0.19144738 -0.3291127 -0.056370072 0.0763096 0.003019163 -0.20376387 0.10876566 -0.1957116 0.23003232 0.09082853 0.001072411
935 -0.08294425 -0.116562136 -0.06575795 0.016888626 -0.13107401 0.06286491 0.024365842 -0.021335147 0.25263524 0.19124569 -0.1268765 0.13121836 0.010356553 -0.011002529 0.20507091 -0.23445228 0.12554145 -0.016643818 0.00031297875 -0.03320248 0.039286412 -0.05832387 0.076899625 0.010291635 0.0015319915 -0.2078186 0.090338945 -0.1813672 -0.34117028 -0.36490956 0.019272532 -0.3011146 -0.2854283 -0.049512777 0.018783348 0.01709007 -0.03129623 0.23062138 -0.14027856 -0.17787121 -0.1054814 0.039751448 -0.16261081 0.21136989 0.22236532 0.13650008 -0.2146291 -0.04209825 0.06744987 -0.33252916 -0.07471268 0.21025315 0.111432604 0.15011053 -0.05623 0.24144109 0.06252216 -0.028754886 -0.3645625 -0.11896493 0.07278504 -0.17870422 -0.23937291 0.3128813 -0.059879154 0.30583748 0.04606978 0.25130916 -0.036644217 -0.03644327 0.2474092 0.023965767 -0.07167104 -0.13351934 0.18664418 0.03322687 0.0754071 0.032928158 -0.050547644 0.08260707 0.10144713 0.13326135 -0.04918106 -0.08764471 0.24854936 -0.010364097 0.0075501273 -0.12863447 0.1554582 -0.013574554 -0.1592659 -0.11890409 -0.022464093 0.12036527 0.010430432 -0.122522354 0.08716153 0.073700316 0.20276688 -0.05982383 -0.17267066 0.13884751 0.17388873 -0.05345501 -0.051650256 0.058755796 0.11735295 -0.06260621 -0.13438992 0.21128225 0.28713223 -0.12261968 0.10932038 0.30464002 -0.077640295 -0.18846601 -0.35599944 -0.13433538 0.20407677 -0.062308863 -0.1763009 -0.09317321 0.036199547 -0.012874583 -0.26588258 0.031395502 0.044014595 0.046135433
940 -0.13081644 0.27433285 -0.018965168 0.024195738 -0.2847243 -0.005441391 0.31360385 0.13429843 0.24959175 0.07129235 0.04766494 -0.15162255 0.034394704 -0.051999487 0.19272389 -0.4515432 0.17661051 -0.41054463 0.043596067 -0.06946874 -0.08114406 -0.2862699 0.0068634544 0.056421336 0.13122824 0.015574574 0.2615892 -0.06364951 -0.095366344 -0.22294565 0.027113877 -0.20208907 0.044171814 0.12080783 -0.09203802 -0.13487715 -0.10167381 0.055987455 0.04140245 0.16924065 0.08218911 -0.14082538 0.009379762 -0.16739146 0.08767786 0.11859755 0.07883747 -0.08358905 -0.17526042 0.14941593 -0.21209107 0.2315586 0.13073605 0.09437792 -0.09862082 -0.05869871 -0.1955813 -0.30655485 -0.5003136 0.0037655083 0.055565264 -0.031957373 0.084130466 0.21179175 -0.33771622 -0.042914767 -0.07715274 -0.04807046 0.010764724 0.014265299 0.038010806 0.16140099 -0.023895841 0.12426811 0.17888485 -0.04094344 0.10869213 -0.041276194 0.21854301 -0.14586736 0.03612117 -0.047291227 0.10128936 0.06605094 -0.23509622 -0.19063224 0.046923254 -0.02272877 -0.106813036 0.062935725 0.039654434 0.18803722 -0.25884953 0.21344803 -0.06266789 0.17999941 -0.021865249 -0.029526476 -0.0028285978 -0.37917504 -0.053301867 -0.09168936 0.28134584 -0.14935988 -0.060531106 0.15860474 -0.11390734 -0.13613507 -0.12539722 0.13675652 0.049722753 0.18198371 -0.14981613 0.17569374 0.051934984 -0.22580369 -0.03116764 0.05659529 0.044949718 -0.075755805 -0.22136387 0.04997369 0.06848464 -0.099512644 -0.124385476 -0.2218081 0.09557933 0.04791286
937 -0.3549194 -0.32255378 0.025019538 -0.15045494 -0.18722242 -0.23730263 0.16048378 0.10559335 0.10027177 0.26901248 -0.1825016 0.050811753 -0.0041776686 -0.041095834 0.30247664 0.099782296 -0.18509886 -0.18379344 -0.0049142027 -0.13849273 0.14708294 -0.31180403 -0.064172044 0.039329335 -0.022893395 -0.17808865 0.18225986 -0.3255332 -0.11419225 -0.25998726 0.09272374 -0.24891062 -0.07966781 0.19053578 0.08853059 0.1691619 -0.07874664 -0.1320083 -0.058204092 0.17211331 -0.13182661 0.30262178 0.10248086 0.03192248 -0.21087909 0.12643364 0.18399504 -0.18250741 -0.094712265 -0.16079487 -0.061696876 0.139517 0.1492141 0.3334608 -0.19707312 0.05421991 0.10928507 0.07745199 -0.5218269 -0.05789256 -0.03940718 -0.050498053 -0.28871024 0.05417269 -0.24099194 -0.1086174 -0.0990602 0.31001785 0.0019882307 -0.004739527 0.0100942645 -0.117498375 0.101633005 0.03993627 0.0050903666 -0.07573188 -0.009319236 0.042070515 0.0011389167 -0.081639 0.14371763 -0.14358321 -0.087544054 -0.042223305 -0.053219076 0.003371335 0.015448499 -0.16342752 -0.13731241 0.07075069 0.1743829 0.24643186 0.039988123 -0.24860525 0.18882976 0.0036800203 0.08286247 -0.22565943 0.0016848108 -0.019738462 -0.11399131 0.08366843 0.12489093 -0.0396429 -0.05172465 -0.006962944 -0.10505759 0.2417407 0.25722945 0.01831633 -0.31708252 -0.05775465 -0.023733072 -0.039855327 -0.17057553 -0.11721417 0.03198742 0.012999459 -0.2272925 0.11766543 0.12593408 0.19640984 -0.0781696 0.05556738 -0.2798086 -0.008991292 -0.104593225 0.05235894
942 -0.37188372 -0.24489255 -0.19741741 -0.07831907 -0.07468324 -0.0973557 0.50034976 0.049663566 -0.24751447 -0.2655013 -0.16713318 0.24886398 0.22842431 0.0326501 -0.18316986 -0.02829776 0.22298437 0.00012484663 0.143779 0.16699706 0.186366 -0.15086944 -0.0019090786 -0.2981357 0.07703408 -0.054497387 0.042628884 0.02527685 -0.07237459 0.022520127 0.08098411 0.17961204 -0.20684938 -0.08295767 -0.023532152 0.1607764 0.14795695 0.17630717 -0.011268735 -0.08925812 -0.012800372 0.2033242 0.02362947 -0.13869125 -0.058058064 0.012748725 -0.08140418 -0.24088432 0.037529565 0.16382045 -0.23430462 0.23393485 0.024595458 0.023777932 0.031309273 0.012592275 -0.18842758 -0.04721348 -0.05452846 -0.0620618 -0.04095137 0.06053792 -0.058565095 -0.040960815 -0.20207182 -0.12959605 -0.12872851 0.11124433 0.11802822 0.038075216 0.19070385 0.34503907 0.43478757 0.059517268 0.2961411 -0.029450899 0.19566044 0.2803394 -0.03835399 0.06270804 0.10889497 -0.12763476 0.1321076 -0.007115655 -0.105572246 0.5589966 -0.008003864 -0.21836613 -0.023412451 0.13272496 -0.15298176 0.03334362 -0.17541385 0.03848195 0.0012584359 0.27225205 0.10041001 0.17562681 0.06930031 -0.108874775 -0.23298933 0.19020747 0.231375 0.068691425 0.23383328 -0.104580194 -0.004973434 0.034694444 -0.16145518 0.01499124 0.013991693 -0.041800942 -0.099862345 0.12797336 0.12315447 0.1502928 -0.22667064 0.21807393 -0.23785588 -0.11612408 0.13739243 -0.22718196 0.027399926 0.09808402 -0.112613685 -0.21278344 -0.16101311 0.051834766
944 -0.16394393 -0.309629 -0.11551997 -0.021276971 -0.22622952 0.1623083 -0.21458437 -0.1982084 0.042234715 0.28659657 -0.046661954 -0.16519924 0.2042674 0.022533694 -0.020983756 -0.5767217 -0.05622721 -0.0082216645 -0.113281816 -0.18790561 0.07474997 -0.26233098 -0.054673467 -0.15184544 0.33305234 -0.20678854 0.14689098 -0.07934829 -0.47091377 0.101321325 0.4460063 0.02003833 -0.1349376 0.012428265 -0.25160247 0.0556701 0.0850967 -0.21105729 -0.07594111 0.22376761 -0.10263967 0.070218086 0.23430856 0.12017346 0.27465627 -0.15726483 0.18230477 -0.1790063 0.25262073 -0.003030769 0.10070585 0.029469041 0.15845162 -0.024338908 0.3572192 -0.08255658 0.05465591 0.08052813 0.2423294 0.017304147 -0.29346976 0.07940872 -0.019245636 -0.15236373 0.11203466 0.086837545 -0.022359384 0.15539311 -0.35423982 -0.2735253 0.3019604 0.023893591 0.012053696 0.06525476 0.27415887 0.124398716 -0.12706545 0.16788407 0.21309175 -0.17034627 -0.03490927 -0.26026598 0.0041109812 -0.071095556 -0.21566802 0.08806756 0.15465611 -0.083253145 0.20895168 0.17486873 0.2723411 -0.055266757 0.14557996 0.15453993 -0.010028081 0.31193706 0.195139 -0.0897147 -0.010546757 -0.3138339 0.11448409 -0.0831049 0.07967784 -0.05718405 0.14688303 -0.19552419 0.41704616 0.090910554 0.08646804 0.09725059 0.039525762 0.085607365 -0.14859022 -0.03228296 0.08402056 0.10595419 -0.15033966 0.34072295 0.04782135 0.16937324 0.036526438 -0.15810521 -0.21717367 0.26740474 -0.004564391 -0.009635942 0.18301806 -0.13426796
941 -0.6662122 -0.2248149 0.048691288 -0.349635 -0.2719301 0.026955158 -0.087085724 -0.24533492 0.26529005 -0.13630526 0.29366612 -0.12956728 -0.22763568 -0.083325475 0.16027194 0.13154347 0.1401857 -0.04973948 0.1524707 -0.042961966 0.10841375 -0.13037844 0.0989479 0.1534091 -0.16256104 -0.22445863 0.11400292 -0.26526588 0.14362198 -0.2621599 0.13796018 -0.17033611 0.02112842 0.03688907 -0.10822466 0.093272 -0.031790245 0.10197192 -0.021801071 0.27957246 0.3890775 0.30638883 -0.13615201 0.037569497 0.038203843 -0.04445124 -0.0182295 0.25364542 -0.06361052 0.08924805 0.17258926 -0.11536633 -0.00074485736 -0.06146723 0.0948608 -0.050851252 0.091939956 -0.03531854 -0.0559711 -0.18005821 -0.016290681 0.27452326 -0.06283207 -0.14475407 0.057938244 0.16593243 -0.21890701 -0.31669232 0.09107082 0.12365803 -0.11960045 -0.07754401 -0.06933125 -0.17661045 0.1648693 -0.020306412 0.04513129 0.37414366 -0.06653215 0.03220503 -0.14053436 -0.120567866 -0.23001269 -0.20610976 -0.12683712 0.04365295 -0.0083355075 -0.09168953 0.124771506 -0.16846056 0.04981049 -0.10848533 -0.24162588 -0.22085059 -0.03473514 0.2433521 -0.012012759 -0.120006226 -0.013265997 -0.19760382 -0.56999856 -0.043923046 -0.042596754 0.104477115 0.030884312 -0.28817374 -0.066568784 0.09559719 -0.31394157 0.037994053 0.2033769 0.02771137 0.12930045 0.14189813 0.12244073 -0.013496364 0.010879407 0.20223764 -0.21875338 -0.06283417 -0.19154121 0.24789536 -0.10377896 -0.00515835 -0.10779492 0.14758463 0.022123776 0.032512434
945 0.1535572 -0.32305765 -0.21159941 -0.26247257 -0.087403916 -0.29627007 -0.16421278 -0.21378846 0.24143322 -0.021336809 0.10420162 0.20818269 0.086948015 -0.044406753 0.29692435 -0.033438697 0.04267457 0.014139645 0.24299411 -0.021774704 -0.13557102 -0.06854005 -0.02954916 0.0996253 0.073950574 -0.053697657 0.26416662 0.0900572 -0.25892484 0.07740756 -0.033665005 0.050394233 0.08035419 -0.056601442 0.17256139 -0.4478151 -0.16810997 -0.12222611 0.08211475 0.0784927 0.28214416 -0.017058084 0.006124985 0.1022054 -0.12972158 -0.13773687 0.06006001 -0.06201363 0.18764299 0.007726223 -0.15731698 0.07470114 0.3100011 -0.059190407 0.15015715 0.18344302 0.1593375 -0.3205689 -0.5985183 0.082683384 0.03740022 -0.14027078 -0.052175116 0.2602641 -0.20583408 0.17702556 0.2428061 0.22434545 0.04359662 -0.017202986 0.10058766 0.0050414824 0.17270118 -0.059947636 0.50507796 0.18938899 0.088141784 0.19933264 -0.030186543 0.37081653 0.064473026 -0.33188254 0.06434347 0.17546882 0.10799433 0.18606341 -0.18231483 0.2107904 0.22522955 0.20034082 -0.15801878 0.1305727 0.018292202 -0.12676804 -0.18879317 0.30150512 0.2136392 -0.044234753 -0.48006743 -0.1970088 -0.1469178 -0.062396407 0.047216795 0.17084147 0.4068293 -0.22695883 0.06156836 -0.008867786 0.27052537 -0.031219829 0.17877734 0.033411626 0.068862006 -0.10529197 0.39918786 0.09530403 0.06710995 0.20646085 0.0776065 0.011951653 0.17292912 0.010262716 0.04017334 0.13499676 0.52428883 0.06747948 0.19833504 -0.017475491
938 -0.49554896 -0.1218793 -0.23833045 -0.17443478 0.030741252 0.06281651 0.05610277 -0.102079056 -0.038817164 0.3958348 0.056836303 0.12501067 0.105431624 -0.036404345 0.035242528 -0.22983164 -0.1561067 -0.10451158 -0.14672507 -0.16213071 -0.012954039 0.2801976 0.08195657 -0.22913687 0.22883134 0.094324045 -0.035758927 0.25235614 -0.03798178 -0.19522162 0.03170484 0.24619709 -0.044739593 0.22423777 0.12287699 -0.30629295 0.2750275 -0.07048775 -0.46688157 0.03991928 0.13807909 0.08762839 0.13618185 0.180382 0.10714093 -0.20015481 0.18741596 -0.35675424 -0.042449847 -0.15551284 -0.28542393 0.07625836 0.23917055 0.038523108 -0.07589223 0.3250876 -0.2521923 -0.005307931 -0.1808345 0.17509528 0.32629117 0.18034075 -0.010786564 0.16378923 -0.28237265 0.0060774563 0.030192241 -0.14606199 -0.08892016 -0.20182033 0.16427583 0.31402788 -0.08964532 -0.003999421 -0.09210796 -0.08196988 -0.06813383 0.14166729 -0.084692225 -0.23768856 0.24591932 0.14198625 0.10491462 -0.008297362 0.0054452033 0.3286947 0.28471446 0.2630856 0.27800125 0.013411265 -0.18690099 0.18625727 -0.25126567 -0.3442568 0.010908828 0.3283939 0.25675339 -0.43388554 0.04987772 -0.046659373 -0.13988487 -0.08543652 -0.17929947 -0.20094511 0.1652723 -0.056561515 0.25598165 -0.1887662 0.19516276 -0.088177346 0.1283321 0.023927197 -0.15018407 0.15868011 -0.19899316 -0.12150218 -0.17904358 0.15603414 -0.07404337 -0.3409962 -0.11707309 0.19121726 -0.20519258 0.16470648 -0.08262704 0.11929357 0.09422277 -0.35167143
936 0.22135572 0.074122205 0.22640744 0.12563854 -0.16572809 0.026388692 -0.08306517 -0.27191994 -0.14959279 0.29537195 0.3005702 0.1779196 0.11418734 -0.07749705 0.19187601 0.11706937 -0.116262645 0.08607726 0.2091233 -0.2221986 0.038659647 -0.17444064 0.19081263 0.054986436 0.028926268 -0.04910787 -0.14910729 -0.21528739 0.08224426 -0.27400923 0.2257034 0.23486997 -0.20723382 0.07476914 -0.023111597 -0.24803647 -0.018016094 -0.043421354 -0.25394008 -0.027707672 -0.074742936 -0.1549346 0.117025636 0.34530416 -0.2119067 0.036963705 0.1321726 0.17851962 0.30653062 0.3182645 0.16112705 0.19861253 0.02284584 0.085084826 -0.14996022 0.21001832 0.21833834 0.023078805 -0.15898785 0.31580466 0.060356334 -0.11756196 -0.22759789 0.2969037 -0.1785403 -0.31666422 -0.3430596 -0.02265133 -0.20334233 -0.37611756 0.099027716 -0.12471866 0.023113864 -0.1066088 0.36025575 0.14643742 -0.1855658 0.13605173 -0.37420464 0.14928398 0.16570391 0.02806735 0.0064964797 0.23572937 -0.05532461 -0.028512891 0.018214555 0.17806982 -0.15664792 -0.04739885 -0.15490654 0.18199529 -0.18689579 0.12206521 0.14476244 0.44430187 0.018577948 -0.13107547 0.12406987 -0.3771601 -0.44535697 0.21890888 0.0947754 0.047563378 0.058587134 -0.103155114 0.40887883 0.3439514 -0.44648412 -0.010341928 0.24543141 0.33814865 -0.4295916 -0.07850584 -0.030188873 0.058656465 -0.18146342 -0.02435788 -0.29803073 -0.05532059 -0.017702347 0.10016271 -0.06841338 -0.31175414 -0.14350079 -0.34929088 0.035080634 -0.11334275
948 -0.4496304 -0.56453764 -0.01170414 -0.45502937 -0.06470097 0.049528208 -0.26253247 -0.093526214 0.2466483 0.1147521 0.21025741 0.035204265 -0.33375457 0.15095654 0.070445344 0.01085772 -0.062749505 -0.052970693 0.040610235 0.19379432 0.078065716 -0.10926393 0.031306613 0.1517133 0.14731868 0.06465423 -0.036739185 -0.08134711 0.33483258 -0.09409698 0.1206745 0.13656949 -0.15052997 0.048109252 -0.051460702 -0.16297373 -0.03536032 -0.11867729 0.57021594 0.07682255 -0.03829767 0.13051738 0.14184016 -0.27514085 0.30121416 0.45910984 0.31617406 -0.010145649 0.2044703 -0.051649623 -0.17528117 0.11108401 0.08979203 -0.27000642 0.094057046 -0.19043668 0.12989053 -0.26716018 -0.36329982 0.21498893 0.18425687 0.186818 -0.08853543 -0.020642634 0.13821712 0.0033295143 -0.4072753 -0.09095151 0.2688358 -0.014738756 0.19607711 0.06353419 0.28295648 -0.24530454 0.030954955 -0.07537323 -0.00038938093 0.3126866 0.017005201 -0.12454416 -0.10468178 -0.03793707 -0.073234245 -0.05696783 0.33581924 -0.010172829 0.23421061 -0.1640689 0.14794998 -0.2064338 0.18187821 0.039990228 0.0360206 0.061231192 -0.05218435 0.202404 0.13691604 -0.068767145 0.10242676 -0.066333115 -0.18861108 0.023338616 -0.10673232 0.04140832 -0.010190027 -0.015180611 0.008845522 0.21595396 -0.24792854 0.055144403 0.2363767 -0.05261597 -0.036111165 0.30425724 0.15285738 -0.0053193946 -0.02635501 -0.060723603 0.03518555 -0.18711708 -0.15134628 0.04905545 -0.21509309 -0.16523856 -0.019031316 0.00407137 -0.015550955 0.113520645
946 -0.38716793 -0.6599061 -0.291349 -0.22150683 0.0462045 0.073201746 0.12554613 0.12671448 0.09324956 0.24611127 0.305521 -0.023875715 -0.33172584 -0.03084559 0.21875075 -0.06984496 0.02745442 -0.15684907 -0.101420745 -0.08182952 -0.031626455 0.17827857 0.07094198 0.17905073 -0.26747006 0.017067973 0.23792967 0.07949077 0.02469631 -0.13658728 -0.05139002 0.15991719 0.094217025 0.2565033 -0.21488991 0.18432973 -0.1752682 -0.12364476 0.18381861 -0.18834166 -0.051630914 0.09410138 -0.023937486 -0.15157345 0.105481125 0.17258874 0.13868977 0.254008 -0.10289107 -0.23732929 -0.032685902 0.31252432 0.091507226 -0.29293916 0.1319504 -0.13747698 0.20250285 -0.18656881 -0.181187 0.09770186 0.23717204 0.2566206 0.22833358 0.12065915 -0.0058411304 -0.2416408 -0.23231755 0.0046403715 -0.06545843 -0.22950849 0.0112131005 -0.27312404 0.13447191 -0.12178325 -0.007352866 -0.10883056 0.0637252 0.28316396 0.0017092199 -0.03824468 -0.020370767 -0.06629673 -0.26932397 0.10230215 0.1638095 -0.07497491 0.16139871 -0.1286027 0.21281984 -0.03869871 -0.026398214 0.19540535 -0.073952764 0.14906901 -0.12308721 0.21180978 0.10202689 0.007341437 -0.18476628 -0.06260031 -0.45072204 0.038056504 -0.17661093 0.14793588 0.07735395 0.13317105 0.002533377 0.13954724 -0.28915837 0.17199281 0.3379729 -0.16855876 -0.047211763 0.08063867 0.30796102 -0.13343461 -0.13654229 0.26150265 -0.24667151 -0.002815603 -0.19296488 0.04229392 -0.1058154 0.0059517524 -0.23386824 0.14687334 -0.21964622 0.2718948
947 -0.67323357 -0.4727462 0.25384143 -0.33081508 -0.17892593 0.05976206 -0.16183004 -0.23123115 0.29234403 0.13879366 0.012222313 0.07850322 -0.29452133 0.11643311 0.32431504 -0.094971225 0.039049827 0.011209644 0.088634685 -0.076701455 -0.24394564 -0.06845558 0.3806515 0.047890466 -0.055485904 0.172833 -0.042387243 0.06501703 0.1125434 0.08261232 -0.022222955 0.24640445 0.1061717 0.21823654 0.088599086 0.0847506 -0.07401687 -0.43084675 0.071989216 -0.047446765 0.035853986 -0.022776105 0.0123976255 -0.23265491 0.3153107 0.54600614 0.15839346 0.16095972 -0.015371175 -0.3089065 -0.054388564 0.17501028 0.08995619 -0.104066916 -0.0068764333 -0.19239002 0.07357107 -0.030311368 -0.28947717 0.16680218 -0.08291741 0.30527833 0.1625908 -0.03804133 -0.00968368 -0.084531285 -0.13359977 -0.24261375 -0.008435075 -0.11274971 -0.067154154 0.041854694 0.09764376 -0.15223472 0.018342597 -0.32435524 -0.05522219 0.13333194 -0.1507425 0.22710524 -0.05248493 -0.12806776 -0.20960397 -0.15414684 0.055363 0.049717735 -0.095905215 -0.115085855 0.14207609 -0.111101076 -0.04709979 -0.030941527 -0.03438482 0.039923206 0.027995044 0.23899962 0.07669356 0.06551945 -0.015304286 -0.24424326 -0.24420728 0.09637694 -0.1350932 0.10420574 0.10518854 -0.10242549 -0.18394043 0.13544299 -0.051685188 -0.10620107 0.27621686 0.012631097 -0.01903987 0.16745327 0.21215521 -0.15564561 -0.33879858 -0.0025196122 -0.051419795 0.23703907 -0.11360987 0.0051621585 -0.07129427 -0.2066824 -0.016925655 0.00796176 -0.122219 0.22797851
949 -0.24393763 -0.109117605 0.117206015 0.18356849 -0.30067986 0.043045837 -0.3668993 -0.19216082 0.0824606 0.15333119 0.30852962 0.25335103 -0.09151983 0.16553515 0.21993582 -0.061773922 0.33494622 0.10551641 -0.20285267 0.084935956 -0.15596841 -0.033145327 0.10755237 0.2998363 0.20592143 -0.1053865 -0.079351656 -0.052049942 -0.24373022 -0.30520043 0.119522594 0.120296374 -0.2552466 -0.077533714 0.40159476 0.080367826 -0.13993001 0.017773291 0.087958075 -0.049502004 0.29747593 0.18148994 -0.13971868 -0.64647424 0.33660635 -0.2760522 0.032635696 -0.10346607 -0.17360754 0.013303582 0.1440929 0.22898395 0.13933904 0.22106203 -0.17184834 -0.053856045 -0.05765739 0.06392096 -0.19502701 0.24725834 -0.102714784 0.3585953 -0.3428599 -0.13936 -0.4996167 -0.27123082 -0.107053064 0.22485684 -0.07381467 0.34870696 0.306936 -0.093342565 -0.022188826 -0.66061914 0.33062872 0.40062645 0.36903957 -0.10784156 0.16518389 0.03936276 0.16507521 -0.01813664 -0.13753027 0.012383134 0.0925331 0.14360543 0.014990512 -0.03136668 0.28990436 -0.17551139 -0.16409804 -0.07172615 -0.28355005 0.60304356 0.2570759 0.3052422 -0.040739693 -0.3221733 -0.067099445 -0.31959704 -0.005414531 -0.14806664 -0.07820328 -0.347455 0.42252743 0.06883158 0.027616696 0.39175528 0.1964589 0.25599867 -0.12045297 0.104225166 -0.36655337 0.33196512 0.20241615 0.08774025 0.25050372 -0.03467406 -0.0028950484 0.12291161 0.2909505 -0.294972 0.051911626 -0.03023635 0.020264374 -0.15933181 -0.053392638 0.18172671
939 0.13971692 -0.37102532 0.092512265 -0.36687082 -0.22194234 -0.1963008 -0.2885039 -0.13738266 0.17961839 0.21517895 0.14390251 0.015429156 0.22672337 -0.25560683 0.46759704 0.32563868 0.4628436 -0.248181 0.11168128 0.019294243 0.029512247 -0.04010969 0.145122 0.31479132 0.12521973 0.16648202 0.12660559 -0.2591675 -0.40011114 0.04531709 0.46819803 -0.015417238 0.10975733 0.16910182 0.028198378 0.5390835 -0.019331109 -0.08161362 0.031288464 -0.1258909 -0.035079975 -0.11965929 0.095428616 -0.06576486 0.06963897 0.11852742 0.16110793 -0.20737459 -0.19392535 0.06234157 -0.542092 0.2843164 0.2965893 0.003823399 0.04800712 -0.069470175 0.007004964 0.1719129 0.05575708 0.07947195 0.24220556 0.29198292 -0.23924418 0.16757208 -0.15420865 0.1547413 0.20660062 -0.16796017 -0.19931492 -0.21905515 0.15961552 0.29834434 -0.025339916 -0.19865839 0.2754228 0.17367451 0.25269154 0.05164327 -0.026451144 0.009982535 -0.12229757 -0.14403693 -0.119302675 -0.0009900922 0.005054752 0.12356238 -0.1267068 0.36768863 0.20451337 0.20838532 -0.06194018 -0.27278024 0.10974921 0.27069062 0.30392975 -0.06744046 -0.3252595 -0.33008805 0.11246191 -0.22617999 -0.14247902 -0.19599019 0.3067586 0.19111356 0.06873189 0.1263097 -0.23310389 -0.2911916 -0.2007223 0.19883049 0.069662996 0.054487318 -0.42288888 0.38083053 0.22701254 0.22715323 0.17877187 0.055950888 0.33521548 -0.48970205 0.14851256 -0.011833134 -0.105558276 0.44176605 -0.108969875 -0.13829917 -0.29800388 -0.17203
689 -0.46439022 -0.50260484 -0.20215707 -0.34882626 -0.70153874 0.26513192 0.12286445 -0.4634523 1.080754 0.6309751 -0.26499346 -0.21474075 0.032161824 0.08891561 0.87870044 -0.8312214 -0.05664668 -0.8037064 0.012341194 -0.64868367 0.58543557 -0.6675221 0.7481064 0.47680902 0.5846585 -0.5279964 0.72085935 -0.4645818 -1.080329 -0.7389886 0.79144657 -0.4297447 -0.6955252 0.05356869 -0.17901391 0.024155665 0.37549615 0.14568797 -0.18644533 0.4089125 0.5949187 1.1845477 0.41822204 -0.15974778 0.4514735 0.06036168 -0.009065442 -0.92822385 0.053068038 -0.14330249 -1.1400546 1.0294232 0.43776038 0.944955 0.023411237 0.20432827 -0.05318377 -0.8709367 -1.7892828 -0.016241973 -0.09240307 0.4363147 -0.65544075 0.8458108 -0.5241903 -0.09770297 -0.15207133 0.08324083 -0.7183631 -0.3931802 0.39876762 0.86454344 1.2404203 -0.30492795 1.0564578 -0.17934993 0.6407652 0.57594264 -0.5815212 -0.05649483 0.7790281 -0.6404956 -0.44737718 0.31821927 0.28411293 0.75362176 0.24591778 -0.6096979 -0.13812286 0.5068135 0.3942551 -0.07773269 -0.3975587 0.39045188 0.30354172 1.1793126 0.29688817 -0.700433 0.13564768 -1.0425603 -1.6557913 0.16471887 0.32308534 0.47908312 0.48324457 -0.5190867 0.63950217 -0.12627381 -0.48214817 0.22321527 0.5172476 0.1566066 -0.24230686 0.46346182 0.34757864 -0.37661132 -0.9914045 0.6612365 -0.68409926 0.14109345 0.014618558 -0.33714533 -0.62194544 0.31696165 -0.60605264 -0.5012719 -0.24945734 0.090546675
249 0.6974861 -0.21667546 0.87358046 0.73690075 0.30071932 -0.08086489 -0.36239263 0.22609164 -0.9273742 0.4129279 0.6033996 -0.3673074 -0.92994654 -0.41832468 -0.5106241 -0.28806147 -0.7724425 0.22856039 -0.27415296 0.5761077 0.48030296 -1.3845241 0.73707116 0.493624 0.22814342 -0.11920195 -0.38173792 -0.5003193 -0.3641959 -0.7720213 -0.031697635 0.26291126 -0.5720853 -0.025706567 -0.17949463 -0.043369878 0.24743412 0.16089095 -0.15857556 0.11681498 0.6284558 1.0637717 0.73562247 0.12538943 0.4960564 0.18092507 0.43094793 -0.9878028 -1.0144508 -0.20630549 -1.5701563 0.27326757 0.80092955 0.33480218 -0.1739021 0.2215592 0.7259931 0.669909 -1.5499797 -0.12259377 -0.123889774 0.86372286 0.3994365 0.85561013 -0.16922474 0.14832437 -0.3755773 -0.52398044 -1.2704344 0.39261344 0.33610982 0.042267617 0.08684778 -0.9193791 0.9357767 -0.762271 0.5572451 1.175448 -0.07778998 -0.8480826 0.5089277 -0.8991053 -0.15464585 0.3734128 0.16800521 1.0110005 0.40795648 -0.26929033 0.31542996 0.41338694 0.9723846 0.119868815 0.19329637 0.5155215 0.15249977 0.43679 -0.10214007 -0.6351735 0.024770608 -0.95383537 -1.0055083 -0.058700915 -0.013206428 -0.34852287 0.5239334 -0.65554684 0.47449094 0.5171412 0.19291358 -0.0687223 0.9249302 0.54139996 0.51924783 0.18438663 0.5933777 -0.8493447 -1.2051393 1.0351186 -0.09671982 -0.36553085 0.35795727 -0.3518759 -0.9948738 0.83913827 -0.92982036 -0.24196222 -0.81209207 0.6447482
883 -0.34628382 -0.39098787 0.018296093 0.14829472 -0.05481846 -0.15484226 0.18443333 -0.13516596 -0.09492414 -0.1942145 0.05837774 0.20435992 -0.0051507647 -0.14545958 0.12815568 -0.08285821 0.009798502 -0.18027006 -0.062169515 0.087289594 0.11144804 -0.062253963 0.23231913 -0.00074274733 0.016300635 -0.11176807 0.29082066 0.10790359 -0.028803514 0.046145238 0.08984009 0.34740376 0.18313484 0.3235561 -0.08367005 -0.2508691 0.016145427 -0.21766488 0.07168474 0.0011184242 0.25795183 -0.082809046 -0.119732074 -0.028952265 0.06834268 0.014349661 0.15871315 0.039659567 0.14663076 0.024694247 0.19011867 -0.06740889 -0.09690118 -0.043007832 0.14186355 0.114434645 0.055539414 -0.03756084 -0.3485487 -0.16189933 0.032891773 -0.09685696 0.012660283 0.33345395 -0.0510659 -0.00183202 -0.36571914 0.22661512 -0.36347798 -0.29796615 0.09404612 0.26407552 0.16752677 0.22496274 0.26340958 -0.03206269 -0.023648635 0.038666055 -0.19581889 0.20080715 0.041301206 0.08202872 0.064548746 -0.16647351 0.098244004 -0.1116306 0.024754744 0.10036289 -0.097849414 -0.14405434 -0.08657029 -0.11749429 -0.3500848 -0.0693168 0.22115315 -0.0968921 0.07718474 -0.45027068 0.043373913 -0.33138484 -0.39323056 0.1856697 -0.006565244 -0.14756018 0.17220686 -0.013366847 -0.06918226 0.005403033 0.0061770105 -0.06617739 0.2609629 -0.034500685 -0.071709126 0.30039307 -0.13392067 -0.056261797 0.06621474 0.059289657 -0.24438784 -0.2163121 -0.005431521 0.11893058 -0.28031108 0.1290947 0.08925261 0.06781 -0.35082415 0.25198233
146 -0.19297923 -0.49093592 -0.05863474 -0.07509564 -0.22907731 -0.050239928 0.010986596 -0.19860618 0.13451941 0.26363692 0.19392285 -0.050093867 0.16920501 -0.020230964 0.12590928 -0.0024885312 0.031179806 -0.1836629 -0.051513072 -0.060328197 -0.023221059 -0.09079867 -0.0049133087 0.045699373 0.050347485 0.008356991 -0.029748013 -0.1703411 0.06661851 -0.09853472 0.098523006 0.13503805 -0.006197928 -0.0027132924 0.045414563 0.027420714 -0.16392061 -0.12197581 0.08107407 0.027170308 0.13261662 0.07382938 0.024792027 -0.08039072 0.11008278 -0.045994364 -0.030001864 -0.038561046 0.113494284 -0.024945583 -0.22792338 0.1584095 -0.14627732 0.06503541 -0.08217247 0.059232265 -0.056034055 0.05307888 -0.1251034 0.24314742 -0.042504743 0.14600451 -0.17237191 0.01966237 -0.00024810503 -0.049948152 -0.11211085 0.0285017 0.0124391345 -0.12417307 0.034323536 0.09882424 -0.124267034 -0.1423197 0.1154714 0.08027499 0.21768728 -0.083843045 -0.10422033 -0.054028805 0.029908609 -0.0037562014 -0.1684308 0.08184604 0.14310211 0.11183014 -0.054972157 0.062467802 0.19831756 -0.09986066 0.062276673 -0.038513087 -0.22760098 0.109627545 0.2105411 0.1743925 0.19035271 -0.0044206213 -0.025427727 -0.032782476 -0.13546756 0.058748327 -0.08380623 -0.07572926 0.25457293 0.05334414 0.0787213 -0.121470414 0.0062479223 -0.04815796 0.2516876 0.14493358 -0.30597872 0.008542476 0.11277274 -0.003920721 -0.13782538 0.090597235 0.09634427 -0.05106299 0.22078 -0.050621834 -0.12228771 0.07136676 -0.0070327693 -0.08452151 -0.008404773 0.05170547
174 -0.29951963 -0.30050373 -0.14311126 -0.116900235 -0.08797011 0.06417781 -0.016653514 -0.08170744 0.25419542 0.20829517 0.05378055 0.08884123 0.09471169 0.14826597 -0.03432487 0.015803449 0.04741832 -0.09462863 0.10745173 -0.062326282 0.028354572 -0.2036561 0.010200601 -0.058201414 0.04497998 -0.03981133 0.1310193 -0.10498794 -0.03477148 -0.17445451 0.1450205 -0.02670994 0.013442675 -0.13705109 0.051690444 0.06514588 -0.08534095 -0.08633349 0.0993511 0.0714249 0.11399515 0.07283508 0.092589125 -0.13829811 -0.027036294 -0.11675518 -0.06809922 0.018443152 0.00083952805 0.05631348 -0.12587671 0.06348822 0.12756439 -0.093755975 -0.050203223 0.0058419798 0.014439326 -0.12549049 -0.20539418 0.072447315 -0.07965019 0.14281693 -0.028903088 0.1227734 -0.11872409 -0.047789022 -0.10813477 -0.029222444 -0.16303715 0.035519805 0.08462548 -0.03409468 -0.045845695 -0.042180207 0.11301277 0.029478999 0.0984273 -0.019688891 -0.19081266 -0.062079825 0.023850821 -0.09029239 -0.0779399 -0.04133067 0.058702607 0.034821205 -0.0052542468 -0.05550917 0.28670332 -0.03175206 0.1280973 -0.009043217 -0.1554824 0.22673547 0.054756902 0.08465902 0.02563873 -0.078041956 0.05286207 -0.025510069 -0.18572895 0.03596866 -0.117981255 -0.10568961 0.23200855 -0.04299326 -0.021384608 0.085564144 -0.029242586 0.008247001 0.07387208 0.0357161 -0.14178841 -0.0086778 0.21207765 0.021308895 -0.12674265 0.03151359 -0.020060403 0.04150693 0.052700233 -0.011289663 -0.07450203 0.112130105 0.0076997657 -0.12583604 -0.011991654 0.19487914
731 -0.5167003 -0.5458078 -0.22335903 -0.38525468 -0.6945014 0.28071755 0.122228414 -0.48920298 1.072483 0.5818917 -0.2372261 -0.21077798 0.023372466 0.05394436 0.8407613 -0.8059952 -0.021092998 -0.7567512 -0.01720596 -0.5971976 0.56604177 -0.63484067 0.7307415 0.46954617 0.56731844 -0.52290314 0.6925881 -0.42559254 -1.0059295 -0.7147659 0.78321654 -0.42614532 -0.6842608 0.08730967 -0.13448654 0.048282925 0.39092472 0.12424969 -0.16975911 0.3918577 0.595812 1.146624 0.3664217 -0.17802668 0.4397748 0.03617134 -0.01671976 -0.87448823 0.075157754 -0.08443429 -1.0940453 0.9649725 0.44397697 0.9290591 0.0017020553 0.16550939 -0.040588457 -0.86003876 -1.7275795 -0.0375765 -0.074700184 0.42744407 -0.63821465 0.7908083 -0.5306444 -0.12868679 -0.18944104 0.06459976 -0.69842476 -0.36111996 0.38775763 0.7924341 1.1772752 -0.30765218 0.99608195 -0.16677435 0.6110458 0.5249597 -0.59932154 -0.074414946 0.772866 -0.5887628 -0.42999142 0.27591223 0.2639718 0.70407903 0.17489912 -0.60760057 -0.1457976 0.45354378 0.34764373 -0.09882248 -0.38011548 0.42100152 0.25088343 1.0866919 0.22824201 -0.69163996 0.09073426 -0.9974281 -1.553346 0.16213806 0.3337077 0.46217588 0.46362028 -0.49205512 0.60030174 -0.0871002 -0.46043476 0.23329483 0.4877592 0.1724488 -0.25718194 0.42220196 0.3528406 -0.34785628 -0.9156639 0.64812785 -0.6888071 0.12136342 0.0055925893 -0.33935001 -0.6209327 0.2982738 -0.5897521 -0.4317698 -0.21464826 0.09516732
284 -0.2722729 -0.4015728 -0.14604546 -0.054029796 -0.077362984 -0.034900066 -0.03697213 -0.1591652 0.20387061 0.08994876 0.016314888 0.04700636 0.062293865 0.07970418 0.04671674 0.039566163 -0.07488632 -0.01837225 0.024168624 0.017863732 -0.08905569 -0.079704314 -0.04946259 0.06828725 0.08414467 -0.098913565 0.055426594 -0.07697544 -0.024070874 -0.07007702 0.11057118 0.023408225 0.112074345 -0.08905401 0.107504725 0.08291744 0.011627998 0.040750265 0.022655506 0.007204579 0.1340944 0.04850553 0.09917139 -0.20015375 0.06185153 -0.10195437 -0.06985902 -0.11913672 -0.080673575 -0.15905856 -0.15582459 0.10993788 0.10082387 -0.060802747 -0.08560906 0.04258107 0.05629667 -0.12347367 -0.26492095 0.11578285 -0.06904231 0.13430719 -0.21853699 0.050821923 -0.09796037 -0.27853477 0.016383786 -0.12306149 -0.06878586 -0.021909703 -0.032147616 0.089639746 0.155517 0.02331838 0.1438758 0.03476951 0.051828083 0.19488648 -0.22376741 0.029490098 0.12619154 0.04091227 -0.20559362 -0.0697777 0.17996827 0.059834518 0.16285728 0.070272714 0.14229731 -0.09553566 0.11413871 0.095634095 -0.2030461 0.082415015 0.012753061 -0.040185977 0.055387184 -0.07661172 0.009895058 -0.11872261 -0.0962094 0.031641673 -0.19428219 -0.14249747 0.15577613 -0.032075923 -0.078569554 -0.049633276 0.046440013 -0.10521696 0.24440072 0.055418175 -0.25951517 0.026584834 0.1021282 -0.10482379 -0.17676666 -0.028229801 0.06364081 -0.09258314 0.12340796 -0.120491944 -0.011245942 0.057343006 -0.037749592 -0.12679324 0.079123996 0.11235074
24 -0.27571604 -0.31021354 0.034634203 -0.17466787 -0.13057229 0.120905556 0.0663163 0.08106509 0.06613698 0.06872234 -0.05285511 0.13791765 -0.0059472932 -0.1194644 -0.035210505 -0.27582663 0.08463878 -0.13484633 -0.12557843 -0.13762952 0.046376005 -0.12555146 0.06811821 0.023806743 0.05381517 -0.12523757 -0.07291734 -0.05242685 -0.0009578023 -0.096436694 0.13648051 -0.07745877 -0.00462223 0.062050022 -0.16714898 -0.095137805 -0.06231089 -0.08514878 -0.06858137 0.023375917 0.13452293 0.023725064 0.102348045 0.06977723 0.11831022 0.06447882 -0.052742418 0.015373182 0.028444124 0.06250462 -0.012343433 0.14100742 -0.049459547 0.0770668 -0.010042908 0.011665276 0.04738493 0.019291861 -0.19394885 0.09863407 0.0672487 0.14482303 -0.07848132 0.035613835 -0.09536035 -0.009299228 -0.02961113 0.038857613 -0.05462819 -0.3072242 0.14413826 0.040925786 0.12836517 -0.04666966 0.028607715 -0.11179407 0.012746147 -0.14154406 -0.28506157 -0.013226471 0.1182499 0.08945607 -0.07061684 0.13909839 0.07062157 0.14146377 0.047476072 0.01717855 0.044133555 -0.10446679 -0.029649949 0.0059251515 -0.103834376 0.0019791934 0.12355965 0.15224844 -0.048851002 -0.021075824 0.037462976 -0.19371046 -0.23962232 -0.040508237 -0.107396685 -0.0144043565 0.045133106 -0.04356807 0.1332989 -0.017509123 -0.05034094 -0.056247827 0.003293382 0.16402085 -0.072476044 -0.10200234 0.04420759 0.0048921695 -0.06547725 0.1331141 -0.045098927 -0.065198764 0.119061224 0.044885475 -0.14864227 0.03563848 -0.06805437 -0.03059693 -0.12595485 0.10437274
556 -0.0993149 -0.51372397 0.22775786 0.8233284 -0.073426366 -0.5342436 0.1784935 -0.46693683 -0.5174113 -0.48201218 -0.11710836 0.30769068 -0.32492355 -0.34731755 0.33052883 0.093544066 -0.20940948 -0.47534925 0.017860549 0.2559178 0.17526779 -0.47447774 0.83377993 0.307948 0.4332146 0.1009204 0.2873061 0.20317906 -0.20754461 -0.03703338 0.08540121 0.5792041 0.4016868 0.23616919 -0.29245847 -0.3598656 -0.5129469 -0.25072503 -0.3250667 -0.14254664 0.63446975 0.51435745 0.14230636 -0.24542962 0.7161546 -0.33215147 -0.17691185 0.087622054 0.02267998 0.29250434 -0.34842384 -0.42873412 0.48125452 0.12782072 0.66077673 0.42116487 0.24292986 0.2849772 -1.101243 -0.58696836 0.19547959 -0.3383964 -0.13379568 1.2413402 -0.053845122 0.36893818 -0.4787821 0.20450458 -1.0544261 -0.2651278 0.08305231 0.33397746 -0.057193775 0.20013349 0.60459757 -0.30874768 0.48778847 0.1978646 -0.55128294 0.36073732 -0.018092271 -0.08607719 -0.47981766 0.12467859 0.35295174 0.39094058 0.55449796 0.29323843 0.20324159 0.23719254 0.43194053 -0.33054435 -0.19808291 0.23788713 0.3919719 -0.26139876 0.45031527 -0.84129584 -0.21968013 -0.43468133 -0.69756114 0.72543067 -0.040716875 -0.75998634 0.10896585 -0.24087043 0.45461655 0.016496176 0.23110034 -0.46760127 0.67372715 -0.0124408165 0.3219647 0.4491237 0.01001601 -0.2453194 -0.056905624 -0.15223433 -0.06606942 -0.35148567 0.29389527 0.15276225 -0.87998366 0.20104465 0.16090816 -0.43933237 -0.4494706 0.54845905
151 -0.31695896 -0.4331871 -0.10761851 -0.21466821 -0.18838935 -0.032143008 -0.023325726 -0.06652245 0.17004077 -0.027432868 0.07276796 0.05164608 -0.086675175 0.0007881302 0.072243445 -0.18710734 0.17531076 -0.23292373 0.05433057 -0.2536617 -0.14226468 -0.0678986 0.004098519 -0.06328983 0.10221403 -0.06192839 -0.13312347 -0.005596328 0.032596532 -0.070559666 -0.054804306 0.02341903 0.12936719 -0.008321763 -0.22503456 -0.16677524 0.06067197 -0.06080079 -0.025213642 0.022125492 0.08133119 0.05581441 0.13567542 0.08712651 0.091957204 -0.012558536 0.05234055 0.091917194 0.108385846 0.06192443 -0.05486551 0.09785573 -0.05144076 -0.015724888 -0.006931145 0.038849574 -0.032862313 0.035562843 -0.07287326 0.07287971 0.082104586 0.097034246 0.00020655962 -0.054245956 -0.09075194 -0.038717434 -0.20439696 -0.002553278 -0.070546344 -0.24755578 0.032626458 0.08226812 0.15860316 -0.1189412 0.10899481 -0.047469024 0.089711756 0.07306938 -0.2338425 -0.059115835 0.109516606 -0.044312656 -0.13284974 0.1183952 0.11240993 0.03436159 0.1235327 0.07072474 0.1428759 -0.017121095 -0.07475573 -0.02481053 -0.08488646 0.010265981 0.15477403 0.15879332 0.034201577 -0.026860194 -0.08695573 -0.07170658 -0.27316472 0.10594253 -0.21298823 0.117537014 0.12676147 -0.053610235 0.19021943 0.0796054 0.030606799 -0.025739666 0.18190189 0.17847022 -0.23186982 0.035095643 0.039689716 -0.08958566 -0.12525442 0.07766711 -0.0026428332 -0.022680337 0.25282753 -0.08908957 -0.1353849 -0.0038102965 0.060369764 0.07415113 -0.039990243 0.06917909
19 -0.1729721 -0.328602 -0.043229066 -0.110631384 -0.14993224 -0.020870503 0.13513876 -0.0062448233 0.1398585 -0.070155226 0.0139037995 -0.04560332 -0.034112982 0.012509127 0.20192406 0.0028696496 0.047546722 -0.10535351 0.13271062 -0.12520792 -0.061113536 0.0675485 0.02186314 0.06699968 0.09458022 0.044326913 -0.07434911 -0.016234083 -0.007004753 -0.119288646 0.0024355913 -0.15340589 0.10895303 0.034577828 -0.22081709 -0.24695331 -0.004803917 0.0027085973 -0.020733096 0.0012221814 0.2175555 0.1884708 0.027061429 0.045261737 0.1221111 0.040190022 -0.05949405 0.023733623 0.09615642 0.19305895 -0.09307087 0.22175637 0.09822221 0.036740027 0.1296871 0.07427691 0.057010878 -0.03655085 -0.15948914 0.03601837 0.07808606 -0.00827614 0.005718318 -0.031534787 -0.07043495 -0.054582357 -0.24350426 0.07567948 -0.04086359 -0.037041273 0.06010748 0.18344082 0.115538985 -0.110994235 0.12332609 -0.11164369 -0.037192885 0.058639433 -0.14016697 -0.05114524 0.10699166 0.118589714 -0.13548802 0.10606306 0.13073695 0.13509798 0.0874431 0.0650016 0.12355471 -0.003169548 -0.005744532 -0.014908307 -0.041232254 0.018466728 0.05329335 0.117434844 0.16286711 -0.21473026 0.03271198 -0.09805417 -0.3005244 0.03740337 -0.07726371 0.09994281 0.025323082 -0.004622543 0.08035094 0.03687277 -0.0271145 -0.08964397 0.14039929 0.1713394 -0.3847623 0.027462216 -0.02175034 -0.06411812 -0.053800277 -0.052971024 -0.05275474 -0.029963056 0.13426939 0.046141766 -0.047350723 -0.03007341 -0.047775302 -0.0019700194 -0.051618274 0.02443969
287 -0.32974103 -0.34439954 -0.11207403 -0.3352819 -0.22553217 -0.0770969 0.04206135 -0.07266021 0.06545605 0.020588152 -0.053214367 0.094537266 -0.12346081 0.11248464 0.078619815 -0.21740761 -0.04996165 -0.07224663 -0.074825294 -0.07506788 -0.047189385 -0.06954761 0.03010756 0.06767088 0.0065175765 -0.18390724 0.07610213 -0.15860781 -0.017052157 -0.045777343 -0.013233545 -0.007869544 -0.13561106 -0.057686057 -0.06765069 -0.03388882 -0.0067726476 -0.12645358 -0.019411167 0.03107975 0.011268854 0.07821599 0.19049199 0.010015332 0.10570183 0.09955379 0.00012896716 0.002294794 0.0069903396 0.0150693385 -0.10658657 0.120769896 -0.07966182 -0.062323194 0.10029886 0.006138689 0.0319069 -0.03694904 -0.09971753 0.07561283 0.041943505 0.18638197 0.005036926 0.009488593 0.016408544 0.07539669 -0.013405735 -0.011597484 -0.16838953 -0.10832319 0.016950492 0.029891249 0.112483636 0.0067848456 -0.05835606 -0.07078671 0.09308143 -0.034668412 -0.25820264 -0.156438 0.1607794 0.0624635 -0.13166146 0.058180854 0.10775966 0.10787542 0.16857252 -0.017057648 0.03246612 -0.07705841 -0.022930618 -0.024051217 -0.028699381 0.061212298 0.20370536 0.016766705 0.02912246 -0.095023826 0.1321854 -0.04807537 -0.2327045 -0.031440113 -0.088283814 0.003533333 0.11797862 -0.11472354 0.10418782 0.085325316 -0.09963296 -0.06036192 0.17573057 -0.025126707 -0.034702808 0.048400197 0.13454969 -0.1325084 -0.16462906 0.11325244 -0.093774095 0.03325063 0.080628775 0.02173384 -0.041668463 0.06780891 -0.023893582 -0.004771264 -0.09752667 0.044800293
875 -0.28065634 -0.23735902 -0.05895582 -0.047995042 -0.14930542 0.17998096 -0.06545677 -0.16413979 0.27739525 0.13699485 0.18470754 0.13545217 0.04456064 0.07521986 -0.05443222 -0.109376915 0.06476847 -0.067929804 -0.03862334 -0.0051779016 0.059093185 -0.18835132 -0.053880725 0.056118343 0.011711164 -0.074908376 0.17606343 -0.1711121 -0.03446353 -0.07192756 0.16539218 0.07893863 -0.023233853 0.008624771 0.118010476 0.061140873 -0.118748665 -0.050723534 0.14378862 0.021115426 0.06048937 0.07006726 0.09096011 -0.22419062 0.010776755 -0.048896655 -0.022877095 -0.0765679 0.017274806 -0.08843393 -0.11765495 0.17077254 0.036486723 -0.0628618 -0.01681012 -0.043597873 0.08100991 -0.003119297 -0.17083491 0.16127698 -0.0624734 0.26822266 -0.1623636 0.21098848 -0.048408505 -0.2154854 -0.068010755 0.10700041 -0.17807785 0.06380569 0.061495747 -0.06971955 -0.06407803 -0.016519384 0.12780012 -0.005091578 0.07306633 -0.09812238 -0.20141274 0.025441546 0.16407628 -0.028293412 0.024316303 -0.040122632 0.16756171 0.028991727 0.13411662 -0.070022985 0.07821065 -0.060422763 0.23182158 0.0760972 -0.15912119 0.2777879 0.21228684 0.007293661 0.044114884 0.097687095 0.10946923 0.0026138502 -0.16404861 -0.07985785 -0.19370243 -0.07056125 0.10354907 -0.16183628 -0.07016338 -0.036049854 -0.033296958 0.026946735 0.024485404 -0.0121340435 -0.116254725 0.095161706 0.20385437 -0.0906082 -0.2580248 0.06977247 -0.044074833 0.0691183 0.114348486 -0.021248747 -0.15080178 0.028859133 -0.018094156 -0.12314676 0.011791941 0.09823122
840 -0.25156558 -0.2776197 -0.11282158 -0.15029289 -0.09703887 0.19085799 -0.028730065 -0.0056496346 0.13160391 0.048509452 -0.025251934 0.076199085 -0.01033208 0.22923109 0.022026889 0.031434793 0.051796462 -0.07923353 0.14083908 0.005710903 -0.034825604 -0.077536054 0.050894514 0.12422725 -0.054523498 0.064112544 0.10940553 -0.04425179 -0.006037221 -0.09902055 -0.013049187 -0.10266565 0.14085984 -0.013892856 -0.119742855 0.016308354 -0.12223342 0.03530065 0.033524808 0.07083926 0.18775532 0.045087527 0.08254071 -0.07110318 0.06283632 0.08702517 0.06819795 0.04045632 -0.011606218 -0.114026405 -0.0530771 0.060323432 0.08315445 0.071587525 0.116974026 0.1479916 -0.10436396 -0.18084921 -0.26499203 -0.07228449 0.023225393 -0.012324391 0.024254188 0.16749409 -0.11876795 -0.038251005 -0.19792488 -0.03155489 -0.13105562 -0.08577146 0.042437263 0.07495142 0.22378075 -0.087670185 0.083016515 0.002161983 0.0009370879 0.15647484 -0.13386635 -0.03130827 -0.011968586 -0.09943418 -0.24475493 0.09508417 0.009733147 0.0336047 0.064835966 -0.08153245 0.10753607 0.029141836 0.14560248 0.020785604 -0.011113519 0.050080482 -0.046102583 0.022478644 0.0016536099 0.0121252015 0.06630321 -0.15938702 -0.2631263 -0.08825951 0.010470287 0.016059136 0.070648804 -0.11581655 0.053453937 0.076811045 -0.09490669 -0.08924224 0.080375396 -0.07210794 -0.059114084 0.09077748 0.15515913 -0.076135434 -0.06766221 0.026370086 -0.094268896 0.02790309 0.0065620355 -0.04468712 -0.067515366 0.049994357 0.008048538 -0.04700805 -0.06751312 0.11309513
101 -0.36083278 -0.33397225 -0.097649336 -0.16242057 -0.081478424 0.12167952 -0.1487264 -0.0912826 0.19335608 0.16947767 0.02113209 -0.05377575 0.12956147 0.017127352 0.113689765 0.1624528 0.04236214 0.015428941 0.16278459 -0.015006705 0.032922957 -0.07642489 -0.07485481 0.015057905 0.00888307 -0.06589916 0.018258931 -0.031470176 0.007275915 -0.13406052 -0.024623359 0.010357249 0.030155692 -0.16135858 0.20107773 0.078789614 -0.17630814 0.01412605 0.13531773 0.033173796 0.22025816 0.13996048 0.06300203 -0.1740813 0.08143946 -0.033100933 -0.04693538 -0.027016291 -0.05734371 -0.092980094 -0.114330634 0.14641412 0.025234798 -0.07608887 -0.024644176 0.024084765 0.063937955 -0.1261964 -0.2515659 -0.0132889915 -0.026569998 0.015503915 -0.17670287 0.010696696 -0.08312971 -0.26387382 -0.18801874 -0.010450311 -0.1607234 0.13602503 0.13128017 -0.020898113 0.08587388 0.04598152 0.22212593 0.094256304 0.20887515 0.051197097 -0.17261043 -0.102551445 -0.061989877 -0.07304391 -0.195213 -0.054752845 0.11214143 0.03995336 0.04065015 0.00029416892 0.102890514 -0.049087398 0.14348164 -0.020831987 -0.113635235 0.18703838 0.056295447 0.094317876 0.03056593 -0.10151974 0.039052572 -0.08162231 -0.1363774 0.08031422 -0.19059114 -0.096624516 0.17048694 -0.12476594 0.0041830246 0.0123805255 -0.021791402 0.029732293 0.16231477 -0.011078447 -0.13127336 0.074735425 0.30805793 -0.11562812 -0.14451046 -0.010648969 -0.109191634 -0.008125921 0.048510574 -0.14958693 -0.07032101 -0.027593749 0.08623776 -0.10258776 0.025743686 0.074841954
699 -0.33004957 -0.2817476 -0.17180464 -0.19253139 -0.07006645 0.11895844 -0.002885202 -0.08445407 0.059753664 0.056255165 -0.041261327 0.04390294 0.026716832 0.082998075 0.09770556 0.050971884 0.008998469 -0.117620975 0.06675599 0.0034197443 -0.04320949 -0.10458515 0.00024974937 0.12493431 -0.022465445 0.02054597 0.03301271 0.005953938 0.043944363 -0.13309656 0.03676157 -0.07826476 0.055146858 -0.009560479 -0.11913053 0.008531233 -0.03318939 0.07683639 0.04300875 0.07698025 0.091341965 0.04960854 0.12622437 -0.052312456 0.1692778 0.11078138 -0.03400714 0.00992322 0.048715495 -0.110365056 -0.14175296 0.058926065 0.11231104 0.012354567 0.12598103 -0.00027408783 -0.06616821 -0.23313296 -0.2858962 0.038649693 0.07894961 0.0039741024 0.032534327 0.09621804 -0.10010687 0.009265194 -0.17220277 -0.021883182 -0.13780853 -0.0721012 -0.0162635 0.06097433 0.17268929 -0.115496606 0.099275924 0.020205406 0.063098736 0.06965824 -0.17496018 0.007354875 0.011450371 -0.12644738 -0.07537891 0.07242771 0.07778978 0.015419076 -0.033888128 -0.07750103 -0.01670479 0.005543753 0.08064328 0.02171696 0.022961583 0.047097318 -0.058263462 -0.018939171 0.08119251 -0.06790745 0.04415382 -0.20364745 -0.2807589 0.019548502 -0.12478786 0.050492942 0.07923706 -0.12468437 -0.0040027318 0.04604233 -0.04877962 -0.07885992 -0.005581853 -0.043669473 -0.061062966 0.08042016 0.07620192 -0.047278266 -0.11905849 -0.053709224 -0.17252317 0.12875333 0.12318233 -0.13300116 -0.07033913 -0.055519857 0.069519125 -0.096848525 -0.084012136 0.10549353
958 -0.055834554 0.00029333594 -0.22410898 -0.027435051 -0.56778216 0.07090736 -0.124346144 -0.346278 0.31566352 0.38755822 -0.10714898 0.15974218 0.035566844 0.14588004 -0.37512484 -0.23752742 0.27153686 -0.41219178 -0.17397465 0.17149985 0.048353698 -0.12149887 -0.17570752 0.025215847 0.15808086 -0.35423544 0.06489603 -0.22031286 -0.08191782 -0.19018656 0.08539909 0.25129303 0.21941994 0.25262564 -0.11830977 -0.29631647 0.2055087 -0.3470224 0.35826635 -0.119474754 0.36273745 0.3853909 0.40228224 -0.1153459 -0.056469157 0.045471393 0.1175479 0.032019436 0.16058552 0.14947909 0.2490647 0.15435539 0.5022525 -0.0027609302 -0.12019562 0.15022549 -0.005718798 -0.08802543 0.08243785 0.45015252 0.3300457 -0.035261273 -0.037217338 0.13377044 0.14439204 -0.14375596 -0.037063636 0.032051962 -0.44932228 -0.53162515 0.28650498 0.14824568 0.030042954 -0.4041422 0.17983425 -0.6151239 0.11279475 0.35719854 -0.095665954 -0.05649306 0.21138571 -0.20778832 -0.35445258 0.62120414 -0.03408463 -0.020186348 -0.20388159 0.5051522 0.3989335 0.37680846 0.074714616 -0.34908128 -0.3625083 -0.33437943 -0.3305744 -0.06673309 0.09632412 0.05121717 -0.15474609 -0.17874151 -0.27969685 -0.020684646 0.016669711 -0.30929747 0.12994917 -0.46230954 0.4427472 0.08061521 0.5821789 -0.3443607 0.4149024 -0.21763965 -0.38027608 -0.1151754 0.22234312 -0.010276491 -0.075925365 -0.03927434 -0.070015594 0.005069135 0.24489799 0.084058605 -0.05401433 -0.03852945 -0.0026139352 0.1627438 -0.10072549 -0.40213913
240 -0.29481545 -0.27524528 -0.12928337 -0.15761127 -0.13222288 0.11142944 -0.011850681 -0.00076140295 0.16240776 0.11936755 -0.14193651 0.05842087 -0.09203136 0.067639686 0.051112376 -0.42679897 0.096196614 -0.15444924 -0.14569612 -0.031348817 0.03058203 -0.11260947 0.060673203 0.09463737 0.109889746 -0.22662383 0.050308537 -0.18170042 -0.04924494 -0.102290265 0.1805389 -0.12603788 -0.031410355 -0.08642681 -0.0457919 0.036639705 -0.07748231 -0.12093202 -0.20717694 0.12842436 0.048255485 0.058641408 0.18715943 -0.07687103 0.19128922 0.10158256 -0.012758256 0.058406092 -0.12861133 0.032482754 -0.22175597 0.074164964 0.024422325 0.030546809 -0.013428205 0.04232627 0.032648947 -0.034320064 -0.20380475 0.06344959 0.00314806 0.21335816 0.046732727 0.07841804 0.032302666 -0.055300575 0.031211749 -0.027541531 -0.02017892 -0.1862515 0.11054763 -0.036042754 0.10606367 -0.0008848304 0.06026526 -0.12706116 -0.044302 -0.02459482 -0.27786452 0.015768988 0.07430486 0.08654402 -0.027052438 0.1354536 0.021957042 0.09241295 0.15212564 -0.0010699896 0.07286278 -0.12354231 -0.003877031 -0.022672728 -0.04080183 -0.0980966 0.035121337 0.039050255 -0.12654366 -0.05425119 -0.028157545 -0.048729226 -0.1402229 -0.16447826 -0.04725724 -0.044140413 0.17666404 -0.029021256 0.08151414 0.10410931 -0.07856173 -0.15504731 0.07724752 0.066095285 -0.012188832 -0.09691039 0.008239278 -0.01429273 -0.00040096874 0.11256008 -0.033454806 -0.04227991 -0.030924836 0.03573547 -0.13012317 0.12334916 0.005532651 0.021374056 -0.10400623 0.18768606
619 -0.19036517 -0.25751016 -0.032433864 -0.12612979 -0.122319065 -0.075926885 0.07331146 0.0050054216 0.2255943 0.088191785 0.09482 0.15791439 -0.068730064 0.050061148 0.124649346 -0.22364512 -0.028491873 -0.15223768 0.06987344 0.01271387 -0.08054493 -0.11154203 0.06328692 0.030203385 0.051233996 -0.048365515 -0.041274216 -0.0071993475 0.025561428 -0.0069489395 0.12299513 0.0042745406 0.0023090807 -0.12490278 -0.15110983 -0.19287424 0.11964104 -0.07668931 0.032668713 0.013770021 0.08162284 0.31461442 0.03016137 0.045709703 -0.097786516 0.072148204 -0.020602454 -0.113846146 0.119066626 0.3152765 -0.08433079 0.12594885 -0.070524596 -0.010827308 0.055987462 -0.18021955 -0.057085562 0.00942562 -0.16640493 -0.0017867861 0.009747811 0.2301234 -0.06811313 0.041775286 -0.110380664 -0.08619462 -0.14121823 -0.08823273 -0.07580468 -0.18438925 0.059061676 0.115174346 0.099227525 -0.12444277 0.059933234 0.05692719 -0.069768 -0.04888986 -0.07848251 -0.12727414 0.1913635 -0.0059721824 0.014171932 0.09878206 -0.011579991 0.16319886 0.10456954 0.046172827 0.05205884 0.06187989 -0.15674783 -0.14674449 -0.13574547 0.067442596 0.024468457 0.21139549 0.13989297 -0.14419028 0.064451486 -0.09946351 -0.14163464 -0.020430248 -0.13760172 0.17873847 -0.07919456 -0.054199856 0.073012196 0.103548296 -0.024184998 -0.058314364 0.064468615 0.18776764 -0.15546276 0.049319 -0.118564084 -0.12266645 -0.18546666 0.10229363 0.006406472 0.14124864 0.076995105 0.14830978 -0.05307224 -0.015246771 -0.15924956 -0.03319135 -0.025679342 -0.13939019
216 -0.29713064 -0.4100695 -0.17461221 -0.28627515 -0.13306592 -0.035639428 0.0047728987 -0.0864572 0.14664155 -0.0053311256 -0.049208272 0.16550446 -0.1126218 0.010804694 0.12375237 -0.13144432 -0.11443872 -0.03882806 -0.036237087 -0.048170302 -0.11414658 -0.062140677 -0.062755674 0.14117646 0.015658703 -0.08193904 0.009964735 0.028109314 8.678114e-05 -0.07482454 -0.01900543 0.09449309 0.025672084 -0.086006835 -0.16347486 0.010686218 -0.05872505 -0.036892302 -0.039220173 0.023752043 0.16676372 0.16821952 0.25275606 0.036214318 0.2071455 0.12678334 -0.018595966 -0.07702302 -0.09918972 0.03005904 -0.14254339 0.124851346 -0.0071314718 -0.017402872 -0.0033433188 0.018100917 0.049659744 -0.015908716 -0.119499005 0.011568534 0.11452573 0.060847234 -0.1119151 0.0832742 -0.08924385 -0.09461933 -0.035656884 -0.009560445 -0.085911795 -0.048292432 0.08441762 0.12722626 0.1911433 -0.09651202 0.020042595 -0.071016386 0.09984568 0.081663065 -0.22447914 -0.19589145 0.10357121 0.09414724 -0.20669305 0.0011121762 0.032688618 0.109932646 0.19266017 -0.121430136 -0.00979506 -0.18801652 -0.006941291 0.05983002 -0.09092363 -0.065744385 0.07819337 0.044155516 0.0070069493 -0.057985995 -0.02664667 -0.24881823 -0.18301244 -0.024345506 -0.08887899 0.055650532 0.012431378 -0.054511692 -0.03579187 0.03521831 -0.034716133 -0.16256765 0.14114892 -0.05692405 -0.09571333 0.027592454 -0.03978582 -0.08024515 -0.09261179 0.075283386 -0.08814267 -0.092351034 -0.09260586 0.042614955 0.04979764 -0.07716177 -0.10288381 -0.030898487 -0.08718387 -0.0010291134
656 -0.3771049 -0.15519816 -0.034092095 -0.1456907 -0.06677084 0.121476196 0.00074433326 -0.089893855 0.26377627 0.16645366 0.12058552 0.14750612 0.026858859 0.09012617 -0.004612595 0.04351922 -0.08792507 -0.17128903 0.0038006243 -0.042301536 0.0047292933 -0.3338847 0.0031365985 0.10361862 0.07815115 -0.1166573 0.017081806 -0.14099444 0.012966874 -0.0464807 0.21046023 0.08417175 -0.0142973 -0.10820083 0.10891806 -0.016095301 0.032304615 -0.032201152 0.15158153 -0.056131832 0.14464857 -0.017649747 0.040110573 -0.20793708 -0.0059268903 0.0233841 0.17470984 -0.036572184 0.019762104 0.028981375 -0.024829224 0.11721288 0.009190287 0.046596214 -0.03380125 -0.03746439 -0.03366169 -0.06749937 -0.13054985 0.10756169 -0.19488837 0.24670209 -0.16543217 0.11653176 -0.056881044 -0.13591477 -0.16775878 -0.034946334 -0.12140322 0.053393487 -0.012478866 0.00081200176 -0.03394366 0.009182281 0.050855823 0.058348667 0.16211276 -0.057708353 -0.29049054 -0.12466985 0.06913119 -0.2003422 -0.014563944 -0.02742324 0.0076156696 0.094520584 0.024558716 -0.16236186 0.18852623 -0.050595663 0.07406732 -0.013163074 -0.26866245 0.25866842 0.09330652 0.10635252 0.046278886 0.0059949993 0.062120106 -0.09842836 -0.089983724 -0.066143066 -0.08988534 -0.041751456 0.018667225 -0.14091769 -0.040595047 -0.01446377 -0.1320455 0.11720649 -0.019392487 0.06383439 -0.09938147 0.123572305 0.25111693 -0.13087755 -0.16877511 0.1574306 0.12983914 0.14286472 0.02158872 2.8764218e-05 -0.13119523 0.16206719 -0.024919365 -0.052953362 0.036631223 0.16121662
267 -0.2859632 -0.40364107 -0.08060391 -0.2025863 -0.14998603 0.0810133 0.05613101 -0.08780393 0.11624024 -0.00015556562 0.012853098 -0.04917318 -0.0954384 0.091279805 0.07615183 -0.11286817 -0.103707165 -0.048360243 -0.012350874 0.043812115 -0.15248987 0.058598254 0.07021691 0.15397081 0.037686426 -0.100335896 0.02949498 -0.04444304 0.097434744 -0.060967326 0.06337977 -0.065079875 0.063093685 -0.06571445 -0.1005069 -0.03963951 0.02516864 0.054627914 0.028854387 0.043007903 0.11127311 0.069691926 0.14610597 -0.086279854 0.16161244 0.075473905 -0.04685127 -0.14735174 -0.054068625 -0.017337574 -0.13286985 0.14882357 -0.06552818 0.07385018 0.14575127 0.047673464 0.05277015 -0.01892174 -0.2101408 0.12042153 0.15294905 0.034085076 -0.12107151 0.20235007 -0.080135636 -0.15854353 -0.0042654513 -0.0042597502 -0.09407939 -0.07531096 0.034119688 0.11935158 0.24993782 -0.049485758 0.022797499 -0.096679546 0.0580513 0.13358755 -0.1874792 -0.1358566 0.17423007 0.08325262 -0.07050061 0.047936615 0.13127485 -0.0149514815 0.07465292 -0.06677315 -0.07635339 -0.08245552 0.03224947 0.06699345 -0.10840601 0.030717164 0.0631726 0.005522672 0.0098151015 0.04077988 0.051209066 -0.17997006 -0.11830942 -0.026722955 -0.18395834 0.011645874 0.009067439 -0.0023762248 0.06139162 0.09397354 -0.010200318 -0.14011602 0.08655701 0.0061382432 -0.062437687 0.07056188 -0.022286225 -0.07617198 -0.19783999 0.15952276 -0.07581352 -0.11606244 0.02944254 -0.05528816 0.045526363 0.03869899 -0.10377376 -0.12732483 -0.035362337 -0.03511135
657 -0.1942396 -0.30498528 -0.060476124 -0.07656084 -0.22973223 0.20322096 -0.019956183 -0.17114963 0.21478586 0.20343567 0.11632068 0.09220611 -0.02945968 0.16846874 0.009620626 0.06988774 0.053812113 -0.036571115 0.090774134 -0.07224522 -0.17445302 -0.21377951 -0.00068343483 0.04520167 0.20078623 -0.088807434 0.10547464 -0.04606707 -0.038965244 -0.11451684 0.18612237 0.0257795 -0.07027352 -0.0807691 0.17875296 -0.0058376673 -0.013915261 0.057532843 0.15118122 -0.038152244 0.05898913 0.027533242 0.06494917 -0.17001347 0.07542258 -0.06587181 0.13158569 -0.03849856 -0.08147252 0.0004786614 -0.12539846 0.040831953 0.07158952 0.050172783 -0.0055802604 -0.11108053 -0.17494485 -0.0643015 -0.079274535 0.075090416 -0.17458478 0.16952954 -0.07226365 0.18642896 -0.15902829 -0.041350808 -0.12612684 -0.057675347 -0.09509888 0.028418245 0.023003634 0.047364008 -0.0030577718 0.0946406 0.238454 0.08009107 0.1880443 0.07100059 -0.2577931 -0.05407731 0.0860958 -0.14061663 0.04679346 -0.11414062 0.1130725 0.0015578743 -0.09715176 -0.07678899 0.2340097 0.008913529 0.1082302 0.014998033 -0.047702037 0.27359942 -0.007944957 0.0150318565 0.14131984 -0.0034611775 0.05700083 0.017015297 -0.019131295 0.09109588 -0.10101157 -0.07016727 0.26406065 -0.1077444 0.0835464 0.0046587163 0.06465335 -0.037458092 0.031245835 0.062013928 -0.3205298 0.11241742 0.36666685 -0.14835793 -0.24948952 0.021586603 0.12753174 0.048981074 0.17748827 -0.08345035 -0.18694523 0.042965584 0.017987402 -0.18305528 0.09872537 0.08950086
863 -0.19315092 -0.5131054 -0.13547829 -0.20016019 -0.1708551 -0.047276955 0.04543463 -0.1883604 0.06603091 0.1595575 0.038296193 -0.13963518 -0.06504463 0.065777905 0.31548685 -0.098662145 0.08812749 -0.16390683 -0.037118815 -0.20288767 -0.3119503 -0.0221869 -0.09878507 0.36756533 -0.086869344 -0.100542344 0.015694687 -0.13916083 -0.11250903 0.048092663 -0.042494457 0.045018356 0.02666503 0.1935171 -0.062693425 0.056208987 -0.15724471 -0.012234946 0.061739244 0.06637475 0.17656377 -0.008916313 0.10166981 -0.10116407 0.18353325 0.090659566 -0.02841309 -0.14997791 0.020243326 -0.029687548 -0.4935657 -0.020124324 0.011904043 0.0772089 0.048646584 0.12539132 -0.11686474 -0.07328273 -0.17935592 0.14430316 0.09906907 0.06835729 0.0069431174 0.04081977 0.03260888 0.010194659 0.024286127 -0.10045879 -0.08458299 -0.036332246 -0.022708146 0.07462397 0.057196714 -0.20359658 0.144494 0.10849254 0.07661119 0.1360245 -0.065737635 -0.036782507 0.10753509 0.12144362 -0.13501675 0.08426298 0.02235843 0.090773776 -0.013585173 0.018204767 0.07227261 -0.083817214 -0.061434735 0.09311209 -0.11233573 -0.081958264 0.070302404 -0.0020624765 0.060187887 -0.02694278 -0.07591438 -0.08372227 -0.07846883 0.0015268278 0.005488086 0.014763176 0.076353945 0.019383756 0.041017585 -0.040024087 -0.018490408 -0.21617137 0.35465837 0.15313335 -0.2871069 0.09270589 0.062450837 -0.0055568037 -0.05012252 0.069598 0.074438855 -0.19832805 0.062776305 -0.074582584 -0.111311056 0.12643337 0.0496264 -0.0065343413 -0.1271392 0.018745257
926 -0.33214742 -0.28216463 -0.15601952 -0.1496557 0.015418581 0.11650127 -0.010947919 -0.054159682 0.37254608 0.13414727 0.051165793 0.02296838 0.033673897 0.16354595 0.09192204 -0.110050045 0.12977755 -0.2231588 -0.048866987 -0.07651092 -0.02859833 -0.21146742 -0.07469387 0.15357476 0.053304978 0.0755544 0.18543126 -0.0564014 -0.062598124 -0.14842021 0.041063763 -0.16767153 0.05054562 -0.015302506 -0.050124764 -0.01162343 -0.0012437899 -0.14802146 0.015709424 0.054573976 0.10830731 0.06960945 0.26527116 0.012633571 0.10460686 0.089774825 0.07284343 -0.022533752 0.08530288 0.030155664 -0.18187891 0.03876497 0.050227065 -0.0004551645 0.085606396 0.0721461 -0.03961696 -0.2364746 -0.15333511 0.010661495 -0.051804014 0.056845434 0.17217682 0.12357654 0.084428474 -0.1405021 -0.08907537 -0.031012619 -0.030443773 -0.14174515 0.07275776 -0.11927503 0.074216016 -0.14854912 0.030802812 0.0434525 -0.04687642 0.09333276 -0.24143277 -0.040094446 -0.041778106 -0.0985701 -0.09667329 0.08416583 -0.09367478 0.046488322 -0.06871996 -0.06531206 0.17020693 -0.033182237 0.07665217 -0.012606533 -0.038797013 0.1096183 -0.019760208 -0.074133374 0.04082749 -0.16205229 0.01677837 -0.026182242 -0.20244594 -0.11359534 -0.19086406 0.11999964 0.094791986 -0.109605215 0.0465101 0.07534166 -0.050389044 -0.012509099 0.07309113 0.14274372 -0.0154479435 -0.05536161 0.081453085 -0.06478856 -0.031163087 0.17783417 -0.052359037 0.00988421 0.054940246 -0.10786484 -0.18151952 0.10898235 0.039295234 -0.027472764 -0.15629578 0.15941356
355 -0.27378702 -0.27751616 -0.13806166 -0.16365206 -0.022924786 0.011454874 -0.10507116 0.024777858 0.11581455 0.061342347 -0.042115875 0.10988187 -0.10281983 0.14732157 0.03926834 0.061590537 0.06986517 -0.09087941 0.15187277 0.021355165 -0.20072441 -0.10359407 0.0112296995 0.17742613 -0.0892837 0.0076340893 0.075291365 -0.083511144 0.0055544563 -0.13092506 -0.049686227 -0.12210981 0.10522336 -0.077860855 -0.04572758 0.038688973 -0.047127772 0.017928183 0.022860818 0.06976425 0.14624235 0.08333273 0.17630878 -0.06441215 0.03530573 0.06729265 0.027218716 0.023922399 0.019689761 -0.029397752 -0.18638146 0.084480554 -0.0028333946 0.034308713 0.051719077 0.10271543 -0.053373616 -0.20972148 -0.24775742 -0.023877872 -0.030958269 -0.028563397 0.018191747 0.13235767 -0.038712505 -0.012511959 -0.10044768 -0.052207526 -0.1910146 -0.053326495 0.01583863 0.08450188 0.1852575 -0.036038168 0.06551022 -0.118622005 0.020601587 0.14757217 -0.13934395 -0.03918849 0.00035391294 -0.16453053 -0.13205601 0.007956275 0.0036502879 0.01786311 -0.086823285 -0.15909718 0.07249584 -0.016849287 0.13146396 0.004479648 -0.11142331 0.12946913 0.0156088695 0.019707916 0.12988415 -0.11090141 -0.028044343 -0.219479 -0.19898747 -0.0078944685 -0.18524425 0.08017652 0.12089191 -0.1342007 -0.072866045 0.045020882 -0.054037865 -0.01935973 0.098769486 0.10062044 -0.13175708 0.13895753 0.022019032 0.0064968453 -0.1347128 0.0657551 -0.1324223 0.012877222 -0.015139072 -0.105621 -0.12062349 0.075277716 0.02341261 0.04142436 -0.13264018 0.1028353
420 -0.35827002 -0.41880807 -0.07767369 -0.26848572 -0.135108 -0.038833767 0.013124397 -0.011313121 0.13642785 0.0023245534 -0.12005383 0.08549691 -0.062115267 0.077643685 0.10918378 -0.22878322 -0.03611414 0.019211294 0.06838983 -0.07335365 -0.059661403 -0.020872792 0.053295255 -0.013437847 -0.007790324 -0.1538682 -0.0061018425 -0.04705438 0.06097237 -0.07196722 -0.009389817 0.023603357 -0.0066947453 -0.1052422 -0.08956873 -0.058263622 -0.026451014 0.047611427 -0.02212135 0.014369042 0.09537989 0.16729926 0.1761368 -0.009865304 0.2463846 0.090055905 -0.089600295 -0.056268062 -0.07547715 -0.06757626 -0.11815322 0.17514656 -0.12351676 0.018993184 -0.020800421 0.082170494 0.05512046 -0.021382483 -0.13977855 -0.0019372472 0.020428404 0.062621295 -0.11181773 -0.02473531 -0.07608155 -0.1289148 -0.06831539 -0.03532197 -0.16176884 -0.024907434 0.012876053 -0.00015533762 0.21560533 -0.13901606 0.019903792 -0.0854306 0.11086031 0.058869235 -0.21984152 -0.03759398 0.01728461 0.06120108 -0.19717774 0.15064366 0.10579152 0.07219094 0.22544934 -0.018270642 0.017364105 -0.07837611 0.06141271 0.018492462 -0.026716141 -0.10997616 0.13097107 0.06921169 -0.019565968 -0.06593003 0.045188807 -0.18356736 -0.14973487 0.0397931 -0.089288756 0.07746576 0.008907905 -0.07681837 0.103264466 -0.038246855 -0.19892684 -0.15589261 0.09141122 -0.026768494 -0.087701626 0.06943548 -0.04009096 -0.20357752 -0.105780944 0.14530353 0.007933633 -0.12957299 0.02431213 0.010083409 0.043740854 0.041659307 -0.044338796 -0.15256132 -0.012436433 -0.019898895
641 -0.2565937 -0.26822245 -0.12400367 -0.21245858 -0.1344026 0.13055907 0.010512688 0.012703514 0.19045633 0.0041055563 -0.041252065 0.066278 0.0081132855 0.104319766 0.10928226 0.035641253 -0.024863517 0.0067545627 0.0494092 -0.06860235 -0.040512603 -0.06809281 0.06459304 0.17783152 -0.047571298 0.01222191 0.0042400747 0.019210562 0.016803721 -0.09264232 -0.0473586 -0.010921112 0.06256778 0.095241465 -0.13019104 0.014079165 0.03079012 0.068745755 0.12418998 -0.028674204 0.07307064 -0.022906814 0.021730658 -0.06104561 0.18425782 0.020353187 0.033798642 0.034026783 -0.03071192 0.010286312 -0.18171053 0.078971155 0.07173065 0.01983462 0.19818561 0.10240647 -0.078109264 -0.15574388 -0.25648952 0.11624381 -0.054475155 0.083108 -0.033044532 0.12922023 0.013309599 0.008542841 -0.16213867 0.016040659 -0.13234185 0.051315214 0.08706746 0.05305123 0.13775931 -0.011062315 0.1497505 -0.017972441 -0.011754802 0.1866922 -0.19554292 -0.037055973 0.05497833 -0.08793944 -0.12500563 -0.043379437 0.008144484 -0.010050987 -0.046629302 -0.13847369 0.06165005 -0.02096553 0.10434524 -0.0012901778 0.046187527 0.12599623 -0.009533541 -0.09203617 0.106784634 -0.097912855 -0.011183274 -0.25280032 -0.3264575 -0.040345304 -0.09270055 0.09608546 0.13058493 -0.20030937 -0.012473449 0.008670832 -0.03736907 -0.05221855 0.062793516 0.044751756 -0.18203531 0.061808284 0.24518122 -0.116194114 -0.06319773 -0.025166167 -0.12113821 0.012153711 0.015498673 -0.12419358 -0.03243757 0.0003960779 0.07384283 0.055288844 -0.079683796 0.116254315
653 -0.32291317 -0.2531986 -0.09119923 -0.23254323 -0.06510637 0.10263923 0.029242344 0.05630053 0.18078761 0.08435444 -0.023870818 0.16267824 -0.062399276 0.04732569 0.08938119 -0.024222597 -0.07910495 0.07993458 0.11833457 0.0005981239 -0.011351338 -0.14241813 0.096091665 0.19064012 0.039717212 -0.1442449 0.14114748 -0.064312875 0.07302116 -0.115244925 0.056292113 0.026953164 0.01924708 -0.085453324 -0.08645179 0.10038584 -0.017055813 0.0008942471 0.09560233 -0.0115291495 0.10140407 0.034824867 0.13738215 -0.04698342 0.1775098 0.023730496 -0.05303251 -0.019998897 0.008360594 -0.015687263 -0.075556315 0.19090106 0.009736849 0.02526175 0.14595959 0.090159826 -0.10823928 -0.14169143 -0.25824556 0.073945396 0.15253115 0.11232067 0.027491996 0.13173333 0.058345858 -0.0856085 -0.16116297 -0.07671488 -0.17610171 -0.027983367 0.08609062 -0.0100127 0.19868065 -0.12202435 0.090945646 -0.06846412 -0.014054656 0.08276683 -0.20396598 -0.10413228 0.045081634 0.002584475 -0.058516238 0.055520255 -0.005950689 0.012891617 0.0066587417 -0.15481529 -0.046658844 -0.053956755 0.17256835 0.03614879 -0.08564242 0.035521094 0.031662174 -0.07407515 0.03419983 0.04923172 0.044100605 -0.22019777 -0.2740809 -0.008415271 -0.08298117 0.037471417 0.0035974013 -0.09994471 -0.058514602 0.0051894793 -0.15030873 -0.043781213 -0.055209097 -0.028180482 0.0047489777 0.18186554 0.07758273 -0.12206664 -0.10022898 0.06809289 -0.09484744 0.038030002 -0.016127018 -0.009799756 -0.024742754 0.052042685 0.006513994 -0.037480753 -0.035192534 -0.0072339396
893 -0.14645408 -0.4086123 -0.13648066 -0.25540313 -0.17521346 -0.040494632 0.026023742 -0.10047966 0.14634207 0.22509247 -0.05165265 -0.045479655 -0.034685746 0.0773628 0.19712564 0.10818382 0.13839254 -0.08570297 0.07701831 -0.022864562 0.037695557 -0.00801488 -0.004921527 0.27324572 -0.15152632 0.111340344 0.032412473 -0.16995609 -0.032982804 -0.040969357 -0.045444828 0.06411425 -0.14298879 0.09828153 -0.082191944 0.12672298 -0.109767295 -0.0041059544 0.07330948 -0.060011867 0.17443919 -0.03481252 -0.04293583 -0.024984056 0.2514604 0.12991452 -0.0033255622 -0.01731154 0.11899052 -0.07915743 -0.3832051 -0.009070269 -0.03530875 -0.046612855 0.19223967 0.073983535 -0.23372032 -0.023337174 -0.114063255 -0.0044999155 0.1339725 0.06652298 0.045629237 0.0012533662 0.005033303 0.12381976 -0.15042995 0.0139765125 -0.1761898 0.05683966 -0.015278884 0.06811673 0.022288574 -0.17176855 0.18538228 0.16001025 0.20942932 0.09869542 -0.14689234 -0.067318544 0.0491262 -0.17160447 -0.238412 -0.002540824 -0.049881928 -0.0331894 -0.089371815 -0.09775572 0.06890989 -0.055106517 0.16683406 -0.05116596 -0.11668918 -0.0028259284 0.2328343 0.17887312 0.08129718 -0.038215388 -0.16534755 -0.111502215 -0.22841825 0.005257476 0.083233245 0.04279227 0.15692633 -0.08943366 -0.09164673 -0.057366658 -0.046073113 -0.16916357 0.21420917 0.009656836 -0.27028716 0.11117188 0.22326805 0.019004159 -0.102315865 0.029003607 -0.14661345 -0.08489565 0.057456683 -0.20722426 -0.066347815 0.024689382 0.13868351 0.05393485 -0.16555132 0.012619144
479 -0.261117 -0.20187525 -0.030202549 -0.123256996 -0.10538443 0.18778548 -0.09644161 -0.10032499 0.27947158 0.16132991 0.0016313684 0.08678221 0.07963783 0.06045789 0.0700887 0.07057749 -0.1224362 0.03975677 -0.0022613236 0.008600116 -0.11445045 -0.063047566 -0.023256462 0.11280867 0.046484 -0.15432565 0.04888126 -0.06739502 0.0008728123 -0.032603115 0.06707127 0.02681608 -0.022262394 -0.17735815 0.13100955 0.060078055 -0.06959656 -0.011422364 0.11965144 -0.010068688 0.17742994 0.07151382 -0.07170814 -0.1732095 0.07387966 0.0016923336 0.024191868 0.015477508 -0.05550966 -0.089719474 -0.11626724 0.15226285 0.13070449 0.028642224 -0.054197393 -0.024928628 0.040554162 -0.05002164 -0.15676966 0.15004967 -0.019118086 0.22932369 -0.2425087 0.1464206 -0.21263553 -0.08894805 -0.12653257 -0.106187545 -0.093111925 0.057804756 0.07013997 0.0016669475 0.039737042 0.06582525 0.10867562 0.10074264 0.2719448 0.1640644 -0.15205151 -0.1254128 0.0914144 -0.048490692 -0.04650416 -0.053021148 0.13270725 0.019315349 0.03000402 -0.19278003 0.0513094 -0.032210283 0.030848756 0.008816228 -0.21562682 0.21487126 0.099119015 0.07927873 0.13549599 -0.123075575 0.07300787 -0.16653498 -0.111455284 0.025822371 -0.017090954 -0.081940815 -0.050746694 -0.14194384 -0.15501292 -0.019129673 -0.1284373 0.0147774415 -1.23276295e-05 -0.16931963 -0.1744549 0.15372117 0.16434562 -0.17412944 -0.1262212 0.073436156 0.0069028647 0.13580547 0.0059668375 -0.014938714 -0.07488258 -0.026338505 0.03462977 -0.20954366 -0.070242435 0.15393464
867 -0.23437504 -0.40361735 -0.02707927 -0.11175472 -0.49008366 0.16857158 0.098795444 -0.43429598 0.7718423 0.5455108 -0.08224681 -0.16798928 -0.078690216 0.0343917 0.62337846 -0.6835349 -0.1224523 -0.5123904 0.03898758 -0.417069 0.4720782 -0.61832905 0.6115184 0.42382243 0.5360521 -0.45310307 0.57157016 -0.44876033 -0.7527862 -0.6659133 0.5832188 -0.3759791 -0.6439822 -0.023918446 -0.14068156 0.08488415 0.3512985 0.044929694 -0.16794977 0.34629205 0.58982795 1.0486834 0.40698433 -0.12836194 0.53899086 0.112910636 -0.002915782 -0.8505064 -0.11225285 -0.12806916 -1.0961245 0.8958514 0.45567563 0.8848524 0.08097531 0.10035387 0.019488366 -0.68135625 -1.7465006 -0.08507043 -0.02714656 0.41397816 -0.5212392 0.81822485 -0.410938 -0.057348758 -0.22064263 0.019286854 -0.67267466 -0.22935654 0.4728002 0.6997143 1.135538 -0.35252982 1.0478678 -0.15567969 0.5806763 0.5655944 -0.59789336 -0.12667964 0.712028 -0.6076653 -0.4437566 0.22919619 0.38760635 0.7464271 0.31863028 -0.5892158 -0.13155438 0.5166722 0.5233181 -0.1229731 -0.3005277 0.43788734 0.33617744 1.0465835 0.2525556 -0.73103076 0.07464556 -0.9947111 -1.5912099 0.21344514 0.31533524 0.29780486 0.43623507 -0.51025224 0.6465403 -0.05396132 -0.43337283 0.26192626 0.5833372 0.114086755 -0.119363174 0.48565254 0.41616568 -0.3597766 -0.89694977 0.61053354 -0.56312346 0.040791202 0.1168923 -0.24328618 -0.5324378 0.26662114 -0.621536 -0.5485215 -0.25094843 0.16752008
268 -0.48183778 -0.51284856 -0.17119466 -0.32892886 -0.63351804 0.25603446 0.1011259 -0.463519 0.9883987 0.55497205 -0.21165171 -0.19688366 -0.0004933432 0.054261588 0.79742974 -0.7734685 -0.05148731 -0.7134979 -0.017718399 -0.5569529 0.54393584 -0.62005514 0.6995056 0.43814257 0.5365073 -0.47785982 0.6352332 -0.41964784 -0.96167064 -0.6914057 0.7368279 -0.3947583 -0.6446634 0.07406842 -0.13002396 0.038169626 0.34965965 0.11299068 -0.17291513 0.35219997 0.55951226 1.1005888 0.378549 -0.15792012 0.4332229 0.038137738 -0.0073201344 -0.8389066 0.048713803 -0.095592886 -1.0608233 0.91054064 0.4379938 0.8872566 0.0073543666 0.16731276 -0.012625685 -0.7720048 -1.6578667 -0.023734765 -0.08264724 0.4157619 -0.5929922 0.7664878 -0.50587076 -0.123102374 -0.19108845 0.049997758 -0.69737685 -0.33725226 0.38420916 0.7518182 1.0922767 -0.29317713 0.96149117 -0.15900625 0.5755407 0.51555777 -0.56491697 -0.0788633 0.7258266 -0.56525993 -0.4020239 0.26759878 0.26306313 0.68743736 0.20667379 -0.5729731 -0.13396028 0.4398879 0.35937577 -0.078481525 -0.35568678 0.40780523 0.26066697 1.0402803 0.24920979 -0.6626696 0.105449304 -0.96567744 -1.5175338 0.14183272 0.30433512 0.42479703 0.45021147 -0.4696812 0.58256984 -0.07032962 -0.4315533 0.22920698 0.48128924 0.16341029 -0.2332744 0.4136817 0.33046225 -0.34364596 -0.910457 0.63648635 -0.63026386 0.12226783 0.0006537975 -0.31637287 -0.6138382 0.2911789 -0.5798089 -0.4219222 -0.218037 0.11085111
374 1.3279337 0.62162524 0.77504516 1.501291 0.5615019 -0.53447914 -0.03155789 -0.89914113 -0.85349125 0.44860905 0.22268972 0.27784243 -0.5948373 -0.26283312 -0.5691 -0.41125187 -0.40517274 0.026232848 -0.33673692 -0.094877005 -0.46259025 -0.87189734 0.045717314 0.6175362 0.2834587 -0.1062644 -0.1850818 -1.0264378 0.21748883 -0.2536185 -0.22827652 0.017262578 -0.40682846 0.1176755 0.06424263 0.77465045 0.2021084 -0.45614886 -1.1842707 0.7262656 0.1665424 0.92335725 1.2493931 -0.27433062 0.98973316 0.48836845 -0.111467555 -0.61854595 -1.0601722 -0.81469625 -1.1116607 0.4804254 1.1718659 0.10025731 0.5516019 -0.49798656 0.051198155 -0.16916777 -2.0637295 -0.21489744 0.66697395 0.47205257 -0.493945 0.5069125 -0.08852058 1.1767744 -0.45168418 0.34318015 -1.1059343 -0.10271401 1.0572768 0.40889186 1.4444634 -0.5607066 1.708672 -0.87511164 0.5130479 1.5252687 -0.38199422 -0.1805738 0.06499517 -0.67393386 -0.70166755 0.16384901 0.84411544 0.8482129 1.2025046 -0.9024964 -0.30619547 0.94819164 0.9546138 -0.004830268 -0.002788743 0.8113588 -0.03220415 0.6224663 0.6990022 -0.90120584 -0.22513174 -1.1069179 -2.4291828 -0.3796332 0.91393095 -0.19582886 0.6145417 -0.7090955 1.0163949 -0.23095727 -0.444331 0.52684176 0.67509055 -0.44134346 -0.66086715 0.7321881 0.017905194 -0.25051233 -0.4804804 0.96917814 0.0022449712 -0.51861 0.26159573 0.0022310412 -0.25976613 -0.25580585 -0.55440366 -0.93973 -0.9403489 0.11616287
485 -0.21185412 -0.46181923 -0.055836327 -0.15497787 -0.54148436 0.08291569 0.23500021 -0.48047128 0.7801692 0.55362964 -0.08804799 -0.032372896 -0.09080126 0.0064969403 0.7112015 -0.79088736 -0.14637019 -0.6718589 0.010626772 -0.49490806 0.42687213 -0.57938474 0.7564431 0.37345442 0.5469828 -0.46118635 0.6157884 -0.35850155 -0.84287053 -0.65058327 0.6282677 -0.38247275 -0.6523761 0.0044101984 -0.078293994 0.07802363 0.3893968 -0.012240017 -0.20321664 0.38364 0.5750951 1.0950357 0.39351955 -0.16631591 0.42951426 0.13210493 -0.020673327 -0.8662721 -0.021888109 -0.07815303 -1.0934113 0.8886835 0.48857397 0.84658736 -0.004037584 0.16151819 -0.0009039065 -0.7100844 -1.7852604 -0.12983583 0.09711878 0.41177145 -0.55786467 0.7929548 -0.52420855 -0.023692647 -0.26650268 0.16772375 -0.6945724 -0.24845718 0.37127194 0.6641223 1.2248985 -0.32510182 0.9093691 -0.30638856 0.5745057 0.5760292 -0.56344026 -0.006599057 0.63933265 -0.6783564 -0.39158237 0.224738 0.27071688 0.72490764 0.31548017 -0.6438952 -0.06386133 0.52736974 0.41024604 -0.144726 -0.3425654 0.3275951 0.25441822 0.9983791 0.25097045 -0.7391065 0.053470623 -1.0035399 -1.6120946 0.28779852 0.28255755 0.3893325 0.42607892 -0.5942333 0.61224204 -0.11651876 -0.38189095 0.1792346 0.5167694 0.08863825 -0.2092426 0.47343495 0.33485383 -0.35657606 -0.84555066 0.69939184 -0.5573333 0.1103054 0.19255082 -0.22202161 -0.54480976 0.25729665 -0.57932025 -0.5127235 -0.28982618 0.07822555
766 -0.30999315 -0.18357219 0.038432565 -0.2054016 -0.027920296 0.12595662 0.11775979 0.018725708 0.09134292 0.12415231 -0.14580216 0.08509634 -0.034576636 -0.013086192 0.050534632 -0.13078076 0.020945614 0.09856332 0.022976264 -0.08274199 0.07901563 -0.041267045 0.09281981 0.21125759 0.02161102 -0.124249436 0.05108748 -0.031466246 0.0076726247 -0.20035799 0.09264275 0.038101878 0.013719985 -0.009695162 -0.027938688 0.11820638 -0.017395237 0.07006653 0.032949157 0.13246861 0.16220796 -0.045130953 0.1312145 -0.033335675 0.16553481 0.020918855 -0.15755144 -0.03638796 -0.0052083093 -0.16114743 -0.061671704 0.1622282 0.02424109 0.17365134 -0.034419972 -0.047083486 -0.066478305 -0.13073964 -0.291228 0.056603566 0.080050394 0.009203969 -0.005894894 0.0451916 0.002616464 -0.025464235 -0.07104173 -0.012939465 -0.05582089 -0.12429732 0.14298551 -0.07355968 0.2445453 0.03126126 0.11673896 -0.1282477 0.1112219 -0.036448803 -0.16382359 0.05169838 -0.029757777 -0.09637984 -0.0179365 -0.010075807 0.098251015 -0.056852017 0.029871928 -0.11418639 -0.047419243 -0.09252052 0.13932906 0.028622411 -0.12062504 0.08276822 0.058030672 0.14175192 -0.111473046 -0.042043783 -0.027981486 -0.12598112 -0.29872072 -0.07896628 -0.22755437 0.028014839 0.050791364 -0.16342416 -0.031833876 -0.0053148675 -0.1931458 0.005528041 -0.041370794 0.036771473 -0.042429283 0.15842167 0.13127191 -0.015349463 -0.11496005 0.050342612 -0.14957905 0.07451546 -0.019224003 -0.12566729 0.03480711 0.03226113 0.07472999 0.0018261985 -0.1630712 0.18698747
298 -0.21681783 -0.24209848 -0.070246406 -0.18940562 -0.06638373 -0.051047515 0.04756112 -0.052227158 0.16836397 0.048197377 -0.02650672 0.0054583354 -0.108958304 0.121287026 0.12771273 -0.043907195 -0.03380266 -0.09032652 0.015020693 0.032041695 -0.07488129 -0.054947115 0.13261756 0.0029738778 -0.07512769 -0.17354697 0.05287666 -0.009521069 -0.018509537 -0.05058563 0.05973057 -0.021715885 -0.016573077 -0.07940479 -0.143565 -0.08863438 0.13373095 0.057681967 0.053543374 -0.09100331 0.099457406 0.26827028 0.097498484 -0.03132607 0.0038924105 -0.08167101 -0.11143221 -0.15928803 0.030997299 0.101302 -0.11420291 0.06643107 0.15919705 0.022657502 0.090819955 -0.086863145 0.10476519 -0.104620285 -0.21629561 -0.05452678 0.034974374 0.100784995 -0.22298901 0.082624674 -0.1440375 -0.008923934 -0.00828122 -0.035771947 -0.15022583 0.0028486415 0.06445566 0.16019444 0.20612629 -0.12683213 0.04184377 -0.14885482 0.010304167 0.051420484 -0.10232932 -0.23422676 0.093113974 0.05232741 -0.005869719 0.033760052 0.026987953 0.10417083 0.16006714 0.07113752 -0.034335356 0.07902608 -0.06259952 -0.05857227 -0.16746305 0.0014670186 -0.07189622 0.04150572 0.17795491 -0.19312428 0.07936663 -0.20805621 -0.07028775 -0.013964365 0.048450317 0.0674845 -0.08862587 0.026524436 0.11376868 0.087343186 -0.15000053 -0.10686626 0.022991894 -0.033919565 -0.109538704 0.027111493 -0.18677913 -0.18721515 -0.10485825 0.069428734 -0.016948117 -0.0030274794 -0.10587542 0.1315585 -0.014185736 -0.0419298 -0.06389493 -0.089546956 0.0034279334 -0.111098155
78 -0.22063024 -0.1590341 -0.08899956 -0.19320175 -0.0011714178 0.057068866 0.032931175 -0.044383932 0.1414228 0.049015112 -0.060688987 0.029283408 0.045320053 0.114902 0.11903381 0.013783878 0.046911985 0.045583297 0.07285145 -0.0734523 0.10915766 -0.086637355 0.042799063 0.17911178 -0.032388937 0.0033997225 0.105878554 -0.048114333 0.04226564 -0.13546675 0.05139518 0.018940482 0.08679989 -0.030869575 -0.13969912 0.0002043375 -0.030180212 0.037383918 0.042347185 0.07978416 0.12943034 0.21231256 0.054226268 -0.1316398 0.09777224 0.08675516 -0.18106502 -0.024135733 0.07473279 -0.020118132 -0.08487743 0.12857254 0.0623028 0.008131439 0.20494118 -0.0734335 0.10235933 -0.089155525 -0.27844504 -0.0385684 0.07790072 0.13915758 0.017114127 0.04665733 -0.044048324 -0.1605118 -0.19276594 0.022938116 -0.20697916 0.05375242 0.11184064 0.016977584 0.08173521 -0.08468585 -0.00842333 -0.026892457 0.06363458 0.06083027 -0.06984567 -0.19342496 0.18508153 -0.056151707 -0.04659467 0.107284054 0.041059393 0.12858582 0.07655667 -0.051874142 -0.035788458 0.051471457 0.11620698 0.041355547 -0.03503551 -0.038511988 0.06331856 -0.009673988 0.03883038 -0.07737738 0.12574619 -0.25876683 -0.19176848 0.018082274 -0.025276734 0.17846541 -0.08973338 -0.113383636 -0.10464078 0.027525062 -0.18280832 0.051763624 0.055254854 0.00065575994 -0.07349283 0.1182667 0.03107369 -0.0959623 -0.21563803 0.013122339 -0.12321666 0.07919526 -0.20657544 -0.06478474 0.027592553 0.10178308 -0.06377587 -0.037907064 -0.17236783 0.039105244
12 -0.2898583 -0.31306294 0.21128449 -0.08457793 -0.026924634 0.13052706 0.09022438 -0.03919562 0.13932349 0.15823254 0.1542025 0.023787104 -0.006152652 -0.029145971 0.10308167 -0.06816804 0.049071014 -0.05175096 0.16400713 -0.14108557 -0.001034753 -0.17675588 0.117603965 0.20620357 0.029573707 -0.069949806 0.09169455 -0.08832463 0.1495566 -0.18462817 0.15461366 -0.16233641 0.08033374 -0.08489527 -0.18856236 -0.054377392 -0.19511299 -0.04714517 0.036686566 0.044840187 0.14290702 0.107115276 0.019839978 -0.013987071 0.031270448 0.20064327 -0.04905748 0.04289197 0.14249562 -0.012307999 -0.02106985 0.17938538 0.10577854 0.1257774 0.098872356 0.064058684 0.0034001456 -0.16744025 -0.20318496 0.075161405 0.0113486145 0.022998339 -0.034219865 0.02783373 -0.11178536 -0.09556118 -0.26293856 -0.0016346216 -0.023719778 -0.19413908 0.09978655 -0.008489902 0.0731214 -0.14570986 0.06177136 -0.08307395 -0.05582331 -0.052301984 -0.1612989 -0.04253776 -0.09269289 0.100138135 -0.049119946 0.26253128 0.18452935 -0.038069166 0.07126552 -0.018231481 0.0028356703 -0.052142825 -0.04704398 0.107975446 -0.13618125 0.008200682 0.13973758 -0.005811059 0.030658446 0.06327298 -0.03377292 -0.25903764 -0.3555808 -0.022059835 -0.07391939 -0.028803742 -0.0652206 -0.04082834 -0.11410524 0.08520921 -0.20934163 -0.035399403 0.11856308 0.008526647 -0.07815164 0.17219055 0.028957848 -0.13475135 -0.10587588 0.047390576 -0.05220934 0.15850274 0.1431461 0.036325898 -0.09859722 -0.05414416 -0.059281517 -0.15213212 -0.22465828 0.0696009
629 -0.29333505 -0.14495403 0.06204627 -0.21543679 -0.05410887 0.147468 0.06942578 0.06888162 0.22680964 0.10460826 -0.02141423 0.069903195 -0.067763746 0.09054989 0.11555853 0.015397007 -0.091631584 0.026275584 0.05666031 -0.07635491 -0.1887074 -0.15830888 0.048075452 0.19098432 0.0029064233 -0.10693552 0.12486546 -0.016343268 0.053880535 -0.015918385 -0.00895481 -0.069927596 -0.063129805 -0.11052748 -0.13197516 -0.049090464 0.0646547 0.04603221 0.029253861 0.032691777 0.13459207 0.06290275 0.016556324 -0.058090534 0.06313507 0.2047977 0.02794033 -0.08846946 0.046056017 -0.010229087 -0.08104649 0.06588939 0.030274203 0.11589434 0.048263486 -0.0051930235 -0.07331899 -0.19033964 -0.14212798 0.01792893 0.027476232 0.0307112 -0.06686359 0.1395935 -0.07931337 0.06417998 -0.10766133 -0.1865232 -0.12497158 -0.009061659 0.010150205 0.0986065 0.1713112 -0.046342287 0.11341186 -0.028892398 0.10791211 -0.023138072 -0.17988062 -0.043169476 0.022633228 -0.04850405 -0.037185986 0.06529683 -0.07106852 0.04169071 -0.010276485 -0.25150442 -0.096349925 0.03363737 0.06172514 -0.027664116 -0.035310905 0.096961275 0.10389741 0.021834075 0.059672922 -0.057345014 0.092162795 -0.12207513 -0.27549094 -0.012722621 -0.039898727 0.0006143161 -0.031272948 -0.12225048 -0.033583965 0.07008041 -0.040451553 -0.08228802 -0.010088294 -0.03702032 -0.040325947 0.15221465 0.20123236 -0.24210377 -0.19839853 0.12559076 -0.0064447443 0.00012058378 -0.0049008313 0.07982224 -0.0373061 0.03649161 -0.13017347 -0.06859363 -0.12263041 0.045537274
15 -0.28773767 -0.31087548 -0.15476465 -0.23084468 0.021298664 0.112356305 -0.10611608 -0.06898033 0.19167127 0.14124092 -0.018700734 -0.016701654 0.024131585 0.24637258 0.22607897 -0.037868768 0.057888113 -0.12570809 0.119228296 -0.05392115 -0.05017003 -0.075033434 -0.029206147 0.031223342 0.024677329 0.029678836 0.06448199 -0.08564106 0.0777577 -0.08470662 -0.03252006 -0.14248769 0.00083986 -0.124460295 -0.05571409 0.019252703 -0.19795339 -0.032355223 0.074023075 -0.022478221 0.0809973 0.0142700365 0.13382347 -0.015006123 0.09918086 0.12927891 -0.0004806509 0.04714773 0.07002009 -0.1052256 -0.13231143 0.078545995 0.11648386 -0.04879624 0.0515997 0.103263736 -0.03930896 -0.16469513 -0.373145 0.07496148 0.0018256268 -0.023832621 0.0043661003 0.093374886 0.07018411 -0.09512513 -0.15815356 -0.072302505 -0.2081474 0.015348512 -0.002927298 0.040046927 0.088851154 -0.15200065 0.14723763 0.011029497 0.0999661 0.14135735 -0.17318632 0.02927433 -0.117969304 -0.06841071 -0.26518032 0.09753761 -0.009850697 0.050414447 0.08759632 -0.071732454 0.02941129 0.0063914326 0.16228803 0.0062094233 -0.012164261 -0.081912175 -0.008360983 -0.027813965 0.06628883 -0.16700178 -0.090623185 -0.13334197 -0.28240848 0.052331146 -0.19755483 0.06466982 -0.00397071 -0.07214695 -0.009450126 0.1721632 -0.0242373 -0.006254104 0.17483963 -0.06811895 -0.06869684 0.034009323 0.18229471 -0.1734984 -0.06087354 -0.007185009 -0.23148479 0.05795333 0.08809731 -0.15315521 -0.054965608 -0.08725332 0.13927788 0.1330488 -0.14716533 0.08713992
510 -0.37349695 -0.09749513 -0.04895162 -0.06589949 -0.07425498 0.18485665 -0.23633608 -0.14033793 0.44245276 0.2254532 0.14921746 0.16834514 0.01618972 0.13373722 0.011041557 -0.032361936 -0.0033626352 -0.20220657 0.05215692 -0.074754395 -0.045838688 -0.29536045 0.05659114 0.124609575 0.07239185 -0.17924891 0.20695819 -0.110720225 0.025089325 -0.043161962 0.21141745 -0.011136674 -0.052463796 -0.22702739 0.2216387 0.098089755 -0.016130611 0.05344505 0.13262793 -0.044717796 0.13841733 0.10303878 0.10033241 -0.24569285 -0.02857381 0.011521849 0.05927191 0.012029138 0.019706506 0.11571713 -0.017004633 0.16442531 0.04788128 0.01990643 -0.07449374 -0.10599299 0.02925883 -0.12074687 -0.10582071 0.13491426 -0.2174439 0.3700986 -0.11414752 0.12245763 -0.0051447763 -0.06907644 -0.15560946 -0.057585433 -0.13420089 -0.0019726765 0.06835357 -0.074992664 -0.0835731 -0.03730405 0.11803186 0.12189637 0.04986206 0.068365395 -0.22839439 -0.032298125 -0.008711147 -0.04721615 -0.008862417 0.008872295 0.07687467 0.11487704 0.109040536 -0.15222599 0.15638295 -0.06964479 0.08115241 -0.048095502 -0.2200296 0.22159304 0.08501767 0.076838374 0.095832534 -0.11491568 -0.01379375 -0.0028386505 -0.019242976 0.0039963066 -0.086636886 -0.1364606 0.11478857 -0.078562 -0.1611578 0.045681193 0.029322268 0.11255514 -0.090412475 -0.09060722 -0.11505315 0.04612781 0.20957434 -0.2506975 -0.1276583 0.29693222 0.12578078 0.005779057 0.1420868 0.053187136 -0.1529615 0.08610918 0.000117842865 -0.075645454 0.012098412 0.09949826
200 -0.30698797 -0.24138583 -0.002416132 -0.24645394 -0.13755016 0.10891051 -0.06926878 0.040568825 0.113882214 0.10332785 0.042852797 0.102651544 -0.079350345 0.08198617 0.085863695 -0.027962944 -0.008650802 -0.015194967 0.04357864 0.07856904 -0.07937218 -0.09827551 -0.017556805 0.2524535 -0.06278894 -0.008872989 0.066419706 0.0007379589 0.19725044 -0.07360079 0.008440982 -0.04134404 0.07596071 -0.063376255 -0.102328815 0.10751272 0.011489993 -0.03342293 0.092074536 -0.041404653 0.06651248 0.1436368 0.16459365 -0.118165776 0.09117042 0.090059884 0.051579874 0.024375822 0.10105696 -0.054973867 -0.14318465 0.09964877 0.0071157557 0.01910723 0.11255109 0.00674145 -0.10052862 -0.17279522 -0.26352507 -0.09142391 0.024113426 0.095912024 0.030016152 0.09883234 -0.06524419 -0.018096311 -0.25539282 -0.08725199 -0.16390824 -0.14270619 0.056764416 0.08484538 0.21753073 -0.10377445 -0.0016334577 -0.036916766 0.034874104 0.09791069 -0.14242002 -0.13024938 0.091531806 0.00066767074 -0.034898628 0.10415431 0.0071306652 0.04181934 0.060189728 -0.14956619 -0.06924229 -0.100546554 0.1553541 0.07894702 -0.16869982 0.11397901 0.017775582 0.0061655934 0.05177927 0.06701818 0.060842004 -0.25812668 -0.22989985 -0.023890875 -0.09411031 0.15638196 0.13026923 -0.20853223 -0.006330262 0.005314551 -0.10443335 -0.00895303 -0.07158542 0.047301188 -0.040330365 0.13699332 0.058111127 -0.21521448 -0.1666349 0.12767771 -0.10862451 0.071693204 -0.09188128 -0.02541129 0.044162773 0.05165068 -0.025533102 0.03018713 -0.09256435 0.11284393
916 -0.32130668 -0.22597261 -0.07120048 -0.13679403 -0.1302323 0.12020613 0.044722766 -0.05979038 0.31028897 0.074098736 -0.038606197 0.024624478 -0.15677804 0.15208036 0.18680494 -0.2409251 -0.12362282 -0.14886925 0.007229449 -0.052835926 -0.27008575 -0.13531692 0.07898445 0.17725223 0.050116338 -0.2505473 -0.008586623 0.010611591 -0.04810537 0.0038189082 -0.020128883 -0.024033137 -0.06264263 -0.10581111 0.005015723 -0.12730537 -0.00083835534 0.011978928 -0.041705467 0.027894687 0.08977204 0.08306486 0.08248995 -0.091458395 0.2068805 0.15010388 0.16146304 -0.094081625 -0.062870026 0.040888194 -0.10400331 0.028075056 0.11942424 0.09865423 0.04668291 0.066364236 0.0047242125 -0.16555403 -0.18293716 0.0078124683 0.06939492 0.10033295 -0.1481209 0.026679577 -0.051155332 -0.010542456 0.048846576 -0.18928243 -0.12915301 -0.10885231 -0.024999462 0.1735193 0.101985596 -0.11453591 0.09313064 -0.036238853 -0.06168833 0.1574486 -0.22620723 0.024230234 0.026897086 0.18855405 -0.121706896 0.027092015 0.0044258246 0.09080793 0.22972634 -0.05966988 -0.027696893 -0.11045036 -0.0659753 -0.039360337 -0.07184795 -0.09409153 0.1092344 0.05118738 0.17423084 -0.028573615 -0.05465801 -0.07991607 -0.12604447 -0.08261623 -0.00255141 0.035880238 -0.15517636 0.031773828 -0.025511947 0.13610376 -0.10776677 -0.17308538 0.010135977 -0.034616817 -0.109600075 0.04839001 0.039436996 -0.19214338 -0.06565361 0.16856244 0.0823063 -0.048520904 -0.010335689 0.124760754 0.021032417 0.0066439137 -0.08299587 -0.028294187 -0.14962773 0.0064217113
454 -0.30119315 -0.23728745 0.026913699 -0.08967104 -0.05350281 0.17634141 -0.050882407 -0.052431356 0.2435203 0.09132591 0.0461028 0.039393824 -0.08663005 0.15933469 0.14943427 -0.054501366 0.015856395 -0.06612004 0.04542889 -0.11115355 -0.014416575 -0.19504786 0.070949815 0.23739372 0.0037811736 -0.065921 0.16039878 -0.14370903 0.12317378 -0.11338086 0.111180104 -0.11149451 0.065111615 -0.017806621 -0.046492662 -0.03982624 -0.04619759 -0.025304204 0.06114803 0.0019836072 0.13023661 0.03575816 0.115618296 -0.06804815 0.120818205 0.24910897 -0.08249849 0.071712874 -0.03851339 -0.0038895286 -0.12069527 0.15514146 0.057289124 0.003123059 0.10842007 0.101918206 -0.00045648712 -0.11432396 -0.29263046 0.087576576 0.04229928 0.03270129 -0.004132492 0.08864074 -0.06033462 -0.16066746 -0.033107225 -0.068015434 -0.025481619 -0.032708474 0.1501812 0.023195462 0.10038708 -0.090778336 -0.018665748 -0.08072135 0.040270668 0.030598737 -0.14622322 -0.045180243 -0.09404912 0.1137247 -0.0826872 0.058523487 0.07801415 0.07418409 0.15084554 -0.1313257 -0.105970524 -0.06520678 0.19476594 0.005963428 0.025489222 0.014229859 0.021005087 0.015871 0.04110057 -0.086722344 0.009757775 -0.1325115 -0.31935284 -0.025875228 -0.02495698 0.04779138 -0.07408377 -0.032672685 -0.07157389 0.059256565 -0.09790949 -0.08603553 0.096892886 -0.03282784 -0.012216311 0.09723172 0.03507507 -0.18757556 -0.16956842 0.17140765 -0.05624452 0.039598566 -0.08249457 -0.029527463 0.006494127 0.041026257 0.012328233 0.012163685 -0.11198627 0.11387807
513 -0.37910715 -0.23870088 -0.031102544 -0.22150286 -0.07640927 0.0043928446 -0.06274563 0.08916063 0.057733208 0.048899945 0.015249038 0.12031707 -0.06839662 -0.0048316605 0.018536877 -0.0051517766 0.057533737 0.036649365 0.07290148 -0.01897254 -0.04375586 -0.14964628 -0.054409727 0.23210183 -0.007960416 -0.031115174 0.11250098 0.03126246 0.14982012 -0.12820001 -0.04168723 -0.09631761 0.062267184 -0.043461874 -0.05329857 0.17009315 0.0047732475 -4.462596e-05 0.014056317 -0.013872229 0.13114075 0.025921129 0.20583534 -0.13063422 -0.014648229 0.089335345 0.041277844 0.016960543 0.015834121 0.017476227 -0.12933512 0.12682392 0.034635436 -0.002915541 0.095004454 -0.08024515 -0.12731352 -0.12993664 -0.3390184 0.026137153 0.03464794 0.042345572 0.07127261 0.06401784 -0.054889895 -0.033092983 -0.18491898 -0.05060398 -0.0668248 -0.04785033 0.0028426643 0.070453465 0.19218558 -0.08471157 0.061102662 -0.06094729 0.036516678 0.045966495 -0.1728829 -0.12735006 0.114663474 -0.10235694 -0.1745475 0.041225113 0.05714958 0.051097766 0.014866239 -0.14712939 -0.09340561 -0.087163314 0.15386473 0.067663044 -0.10924031 0.09420322 0.17767656 0.06868387 0.05216284 -0.034845628 0.011970301 -0.22639963 -0.24537581 -0.04846188 -0.10101507 0.11967461 0.019553248 -0.1651786 -0.05726072 -0.02850021 -0.121724755 -0.0018525757 -0.03980774 0.02509015 -0.05553378 0.17733672 0.051016778 -0.19488654 -0.18865353 0.1995199 -0.09725007 0.072598875 -0.06717695 0.01249022 -0.092427164 0.07012461 -0.035651743 0.012045265 -0.05450943 0.10804705
582 -0.3562736 -0.38661486 -0.11239992 -0.28687236 0.032639094 0.06871477 -0.017294886 0.028628414 0.1470617 0.03582768 -0.024151452 0.093497105 -0.014878729 0.0961469 0.14887974 0.10241011 -0.020846918 -0.099409245 0.05704599 0.02772902 -0.04351142 -0.03264435 -0.09230406 0.13654773 0.014653152 0.06648956 0.018635843 0.07530925 0.022771671 -0.15541089 -0.10004767 0.002242373 0.1272784 -0.09375307 -0.07906247 0.0024062528 -0.044822287 0.006906823 0.012166711 0.021494994 0.152606 0.0688648 0.22578539 -0.03180539 0.03207249 0.14741097 0.04414351 0.02171195 0.0012425898 -0.027409919 -0.15255406 0.11878555 -0.023204746 0.046061657 -0.013030498 0.08002725 -0.061717894 -0.19265388 -0.19355184 -0.021187281 0.059499007 0.0054315752 0.045438748 0.05335108 -0.01932578 -0.01800584 -0.13183598 0.024375351 -0.1802268 0.043026485 0.0547522 0.10646938 0.26387835 -0.07208757 0.14201199 0.0033416168 0.054176882 0.05984375 -0.18791187 -0.048677295 -0.0009683742 -0.22418173 -0.3958369 0.10065024 -0.057670638 0.026659697 0.028876571 -0.072711796 0.05906042 -0.08884942 0.13308425 -0.005736979 -0.11554966 0.017379148 0.0189071 -0.009337623 0.023792677 -0.088239826 -0.110005125 -0.15370865 -0.24472038 -0.07473942 -0.2176267 0.07616166 0.102130786 -0.19099857 0.10898586 0.015272062 -0.07569471 -0.05992909 0.05767399 -0.0102991015 -0.10114501 0.11589229 0.226163 -0.03389342 -0.16814055 0.100629434 -0.14860074 0.12116102 -0.0060451124 -0.16768834 -0.09190396 -0.01773333 0.064315625 0.089203246 -0.0046983627 0.16931602
150 -0.30663094 -0.4400653 -0.11966304 -0.35451582 -0.07229708 0.08334646 -0.017585577 -0.03926707 0.21556692 0.029562348 -0.018760942 0.03511669 -0.10573069 0.09226841 0.07463705 -0.015801461 0.036545638 -0.13721004 0.08653044 -0.016828788 0.0731141 -0.1620799 -0.14692865 0.053214617 0.089996666 0.10365409 0.04095998 -0.04568575 0.03769069 -0.07357892 -0.0055874567 -0.12526037 0.028492475 0.008693962 -0.14261304 -0.06189836 0.036046706 -0.12981491 -0.028407654 -0.08603981 0.033665918 -0.017179267 0.12764382 -0.07522633 0.05806824 -0.0011211282 0.07882512 0.05081557 0.05776987 0.1265214 -0.1572592 0.0048308447 -0.041298024 -0.17826219 0.11379121 -0.027451849 -0.14829679 -0.12533665 -0.12658988 0.11135103 0.026011737 0.018526152 0.17190272 0.03672773 -0.006300969 -0.006000937 -0.16529271 0.1286634 -0.21703589 -0.032213125 0.09975581 0.08263957 0.05677646 -0.1037145 0.22457993 -0.07351139 0.051920988 0.07078987 -0.35814723 -0.096300006 0.13181745 -0.24296874 -0.16786359 0.06846319 0.0016686739 -0.02060293 -0.030795787 -0.097487025 0.21504988 -0.05466514 0.07917297 -0.102899514 0.015431367 0.023219746 -0.006261767 0.07091854 -0.0011362578 -0.007559179 -0.073616534 -0.055010974 -0.2012545 0.013170145 -0.055634744 0.07507553 0.20136692 -0.20630194 0.21881445 0.009074323 -0.015359512 -0.009920563 0.068024814 0.13724656 -0.112083375 0.047147695 0.23805219 -0.020079106 -0.15835746 0.115554936 -0.11262044 0.098875 0.042904392 -0.21075238 -0.20305547 -0.058441665 0.12540746 0.09898892 -0.17448235 0.12668687
517 -0.32410857 -0.26459092 -0.025016483 -0.092909254 -0.07181899 0.18888454 -0.018061543 -0.009190414 0.21341193 0.14784852 -0.0030163678 0.048102915 -0.12458528 0.046965457 0.14371468 -0.16521849 -0.024511864 -0.07650056 0.014419933 -0.088649936 -0.064750016 -0.15880121 -0.0057708733 0.32452297 0.0026835832 -0.01235562 0.18982726 -0.10415115 0.10001899 -0.07362478 0.10012707 -0.047644187 0.06859888 -0.03932438 0.010569568 0.0707183 0.0032836238 0.030493276 0.0013621536 0.03766839 0.12500313 0.06146621 0.1854801 -0.0629295 0.13466361 0.17951472 0.088856734 -0.013862462 0.040388547 -0.059691485 -0.16643707 0.1609463 0.090211205 0.0005404011 0.02232708 0.09801332 0.07411063 -0.20099728 -0.27639577 0.051417705 0.042392634 0.030149505 0.02597318 0.069967754 -0.06058286 -0.06278732 -0.09666552 -0.031039732 -0.13372639 0.01443483 -0.031326886 -0.008379827 0.08856466 -0.14132637 0.05172515 -0.002529508 0.0050384863 0.117712796 -0.10324512 -0.07604325 0.015222382 0.10686955 -0.07464696 0.04370949 0.07189089 0.05744541 0.07908146 -0.16368422 -0.025765682 -0.056376662 0.14289317 -0.0026966112 0.0004551398 -0.018934341 0.11515771 -0.02155801 0.07196484 0.018273333 0.006497513 -0.14499168 -0.22206005 -0.07940534 -0.12680903 0.04744191 -0.031363234 -0.14606854 -0.12635265 0.05123599 -0.1364609 0.0041440134 -0.018993074 -0.17390773 -0.019800402 0.14619093 0.064062715 -0.108133614 -0.21178591 0.013098406 -0.08394466 0.05382111 -0.03350991 -0.082158946 -0.015664484 0.02579786 0.06940752 -0.04743792 -0.116335966 0.0774807
226 -0.27260086 -0.20698306 0.108241834 -0.11927969 -0.06443496 0.23673056 -0.014653139 -0.03480384 0.10735261 0.21310833 -0.040511154 0.025492633 -0.080119915 0.13754974 0.20018244 -0.08474348 0.013580934 -0.101012446 0.06770981 -0.11196704 -0.015788084 -0.13042165 0.020924974 0.31696332 -0.03003648 -0.12978669 0.16541265 -0.14490397 0.11823735 -0.15589216 0.055355173 -0.061793346 0.058075853 0.009944848 -0.070990525 -0.013360712 -0.03297663 0.027112123 0.0718548 0.013782794 0.09143809 0.06296586 0.19129919 -0.07563379 0.11899436 0.17701295 -0.051631093 0.018239316 0.042319644 -0.099942006 -0.14332552 0.089514524 0.066458926 -0.011186487 0.08783504 0.043685682 0.07255512 -0.20584995 -0.18328637 0.07872729 -0.049671717 0.14980617 -0.055946786 0.119495064 -0.03922039 -0.037198946 -0.10702794 -0.025280045 -0.16798942 0.035071928 -0.016926343 0.072907016 0.11099431 -0.17663468 0.059690733 -0.091052346 0.088758916 0.039875697 -0.15914021 -0.017947836 -0.024309488 0.064938165 -0.06790106 0.151412 0.029293977 0.068009585 0.06608267 -0.20103632 -0.046947878 -0.07911094 0.12849927 -0.054646093 0.01355381 -0.05770177 0.13532342 0.032403328 0.08144506 -0.05703382 -0.008442065 -0.17907 -0.20305663 -0.06858069 -0.07464451 0.11229557 -0.0784212 -0.035970945 -0.11707294 0.074313834 -0.15493473 -0.036039285 0.032025952 -0.06816721 0.07935078 0.20907754 0.11736286 -0.05334924 -0.068488084 0.1422493 -0.045670852 -0.010028317 -0.1788863 0.09462118 -0.044231642 0.002537131 0.056739196 -0.007160293 -0.21543342 0.07033527
82 -0.22789325 -0.3164266 -0.16322643 -0.29614148 -0.090237826 0.18536577 -0.07535198 -0.12325653 0.2801168 0.07632695 -0.04090438 -0.013411561 0.081420675 0.0693111 0.25201517 0.054463424 0.00975304 -0.019296004 0.056550074 0.018203521 -0.10677605 -0.09086315 -0.046562172 0.08859146 -0.028037796 0.0052258014 0.033007864 -0.07733035 -0.021863192 -0.12791517 0.0075937193 -0.14140263 0.03152204 -0.05654317 0.06592522 -0.002623697 -0.088617615 -0.0010763782 0.09813027 0.020068526 0.12182823 0.021905504 0.21156813 -0.040472686 0.14149846 0.14795056 0.06939268 -0.007479068 0.06066176 -0.14433996 -0.0980527 0.12352942 0.029051581 -0.03658871 -0.014916376 0.113881476 -0.04757466 -0.15406397 -0.23181415 0.030845318 0.021788448 -0.02620794 -0.00031522845 0.10498352 0.08891853 -0.0994421 -0.0841299 -0.08825293 -0.19796114 0.016087538 0.013757684 0.07256193 0.1267885 -0.1712281 0.17010562 0.038431324 0.044541985 0.09384719 -0.17302509 0.02929206 -0.056586623 -0.039398793 -0.31439957 0.08978726 -0.059642106 -0.0080197975 0.12833123 -0.011317978 -0.03863564 -0.012540385 0.13318074 -0.0039918046 -0.045732994 -0.06047117 -0.007426162 -0.024522888 0.15320024 -0.069586575 -0.06121112 -0.18872932 -0.3389728 -0.021371221 -0.14919075 0.043167133 0.0007132191 -0.068265244 -0.04286342 0.16371116 0.0038897754 0.02871139 0.17752801 -0.09025018 -0.100218736 0.09765267 0.12017985 -0.087936305 -0.030002698 -0.057119854 -0.10191801 0.045979243 -0.013349601 -0.056743912 -0.07613851 -0.017300438 0.09279322 0.11612771 -0.16385575 0.17203806
