994 128
943 -0.12361806 -0.013156144 0.17225097 0.3864628 -0.0067691826 0.2865138 0.17982583 0.101384915 -0.0477993 0.057654392 -0.14822218 -0.0031155632 0.021976195 -0.07090522 0.20032293 -0.02252991 -0.09635967 0.16972831 0.0073158857 0.013487465 -0.15447202 -0.062041584 0.18921462 -0.0012398635 0.10450307 -0.19048864 0.045376 -0.11860821 0.035331123 0.06456875 0.0019588873 -0.036817286 -0.11694129 0.102454655 -0.093217306 -0.29930222 -0.062413428 0.030102223 0.31089467 -0.08705697 0.09156357 -0.017053952 0.07600808 -0.21040823 -0.08449212 0.074403234 -0.10441974 0.056442987 0.17269674 0.03216438 0.039385032 0.08615161 0.0047788364 -0.15191206 -0.06800695 0.03303445 -0.054094985 0.08501535 0.14991444 0.20643222 -0.052517835 0.069533765 0.07033314 -0.17178577 -0.06545869 0.09529024 0.002161692 -0.11210735 -0.16846485 0.19912165 -0.09786557 0.17479074 0.07610867 -0.047703866 0.022040026 0.02352596 0.11216991 -0.16036743 0.0497883 0.08590694 -0.2605856 0.045894563 -0.04288535 -0.009158534 -0.120432034 -0.105588645 -0.0607063 -0.0628096 -0.0375684 0.14429922 -0.04015647 0.14127928 -0.029377773 0.19310616 0.16381678 -0.0005448671 -0.019585922 -0.18322058 0.21992485 -0.20954688 0.0781897 0.12862052 -0.16066085 0.14676826 0.07640348 0.12562639 0.007196898 0.044585522 -0.04726679 0.02719244 -0.19750889 -0.1458323 0.18910189 0.18682872 -0.04707182 -0.12183618 0.18169399 0.039473258 0.022953931 0.121912874 0.18267834 0.12702233 0.018202202 -0.04378723 0.043881804 -0.19778942 0.040963676 0.17866994
935 -0.25019413 -0.10265859 0.24584846 0.083019406 -0.082095474 -0.16545784 0.15330078 -0.19012542 -0.07965057 -0.053354867 0.05690121 -0.12030689 -0.051177416 0.08034458 0.27308762 -0.07273722 -0.09884518 0.0030728232 -0.0131321885 0.13864353 0.036253054 -0.01861818 0.022801127 -0.09929588 -0.08750901 -0.122258104 0.0085821375 -0.22119606 -0.02045171 0.056626573 0.1012242 -0.079435065 -0.08566597 0.053935267 0.1451025 -0.044897746 0.03037225 0.31009287 0.016016124 -0.055445857 0.09687733 -0.10166041 -0.038773544 -0.10461115 -0.09907479 -0.030077614 -0.20078671 0.077865176 0.3578414 0.04728047 -0.080100164 0.038927913 -0.078955226 0.13206683 0.07884815 0.0129303085 -0.29369953 -0.002236549 0.03450384 0.16797952 -0.08761992 0.005706539 0.16992393 -0.10581206 0.020322109 -0.114669934 0.088557936 0.040022574 -0.07622275 0.1929048 0.1956586 -0.1193855 -0.026112942 0.31186092 0.27433097 0.17251892 0.0963262 -0.04967215 0.09136681 0.09294407 6.8782225e-05 0.024757417 -0.17428866 0.098490834 -0.050788846 0.050929118 0.038289443 0.0379074 0.1213168 0.031519365 0.16973525 0.08905951 -0.06573099 -0.077127166 0.11669754 0.06553031 -0.088683195 -0.098236136 0.31629336 -0.0056837806 0.1675499 0.09616174 -0.0059606684 0.1842324 0.044378366 -0.14777848 -0.27303895 0.1696698 -0.1939136 -0.090971224 0.00389078 -0.2489836 0.09387695 -0.3093108 0.16639909 0.14658399 0.080090575 0.23139507 0.16783758 -0.064811036 -0.009264165 0.012501952 0.2332754 -0.054633457 -0.08789477 0.33701563 0.06766113 0.108533636
940 0.12992693 0.036789075 0.04384927 0.10530118 0.00079985405 0.22012709 0.016725212 0.14400122 -0.27087373 0.15927084 -0.110517666 -0.0029988901 -0.035189297 0.0451378 0.28371152 -0.33240452 -0.07923526 -0.14563419 -0.14468679 -0.29475042 -0.009195182 -0.02563504 0.03525417 -0.11047585 -0.0008563273 0.10009023 -0.006958747 0.03390272 -0.117593236 -0.19039913 -0.1053237 -0.35686266 0.015422871 -0.1331663 0.058120675 -0.09033674 -0.08984723 -0.015532232 0.18145087 -0.14897394 -0.212768 -0.07815359 -0.18865046 0.063956894 -0.03877845 0.073519506 -0.13535544 0.018458115 0.28323767 -0.026843444 -0.040686723 -0.08409413 -0.17495522 -0.15587397 0.059948154 -0.054749634 -0.1377612 0.14390087 0.10390233 0.0917545 -0.25376844 0.118235424 0.13081653 -0.011093056 -0.17010234 0.016052673 0.098043844 0.028558569 -0.0996425 0.21241416 0.0075971824 0.2975267 0.19803321 0.18821087 0.052073274 0.084606245 -0.002166766 0.03845824 0.06228821 -0.21647887 0.016287025 0.022853479 0.04856185 0.025075031 -0.1251502 0.14073452 -0.0111787915 -0.07017194 0.015479263 -0.14415519 0.12622267 -0.18188576 0.2700499 0.079318486 -0.10140575 -0.026166424 0.1634535 -0.22199692 0.31345376 0.046813272 0.15902603 0.1603853 0.041327577 0.10811084 -0.12342235 -0.032822445 -0.14216925 0.22129309 -0.019880362 -0.14105232 -0.14986841 0.17466083 0.18014273 -0.13272375 0.2432142 0.19331434 0.11799849 -0.03952877 0.051366426 -0.07858286 0.1866193 0.059339367 0.16469525 -0.01846987 -0.20642279 0.23278773 0.117939614 0.12563746
937 -0.071220726 0.17555864 -0.10137823 0.4746559 0.2689372 -0.03602726 0.1487247 0.08983218 -0.24759956 -0.10974251 -0.14370799 -0.100099914 -0.11512998 -0.023108624 0.3576641 -0.16214667 -0.03064998 0.0032764706 -0.057205755 -0.18438078 0.044562932 -0.17062335 -0.058671247 -0.013730694 -0.14922136 0.0013258755 0.25962242 0.03517207 0.0020419806 0.17948018 0.07393615 -0.041669287 -0.10242746 0.11962227 -0.040692456 -0.012725923 -0.035984453 0.054295078 -0.13576655 0.006641196 0.038840786 -0.11922479 0.0075926487 0.0415945 -0.14881793 0.045234732 -0.090632655 -0.26185358 0.08649599 0.25281808 -0.04809938 0.046910603 0.00533586 0.14950478 -0.14696665 -0.1235502 -0.12225283 0.17971519 0.20194177 -0.053105295 -0.07853006 -0.04142313 0.037396006 -0.043002304 0.13362238 0.25177717 0.0449499 0.103489466 -0.01057273 0.42815605 0.043020785 -0.008554252 0.14723083 0.20051733 0.030705161 0.2046243 -0.07738614 0.03470856 0.17888804 -0.25819483 -0.17231087 -0.054859802 0.034050938 0.28949624 0.13151407 -0.03718152 0.09731341 -0.18139145 0.14613755 0.06627187 0.050386984 -0.1494825 -0.018108591 -0.18035282 0.1392193 0.124644145 0.3208615 -0.32600668 0.04003273 0.14414194 0.17918305 0.2382767 -0.058212906 0.1559171 -0.23893023 -0.09022802 -0.15222828 -0.051273942 -0.1345489 -0.108388916 -0.072290264 -0.21566899 0.01645923 -0.1357011 0.17377478 -0.15220854 0.088877074 0.037425574 -0.31987062 -0.12136464 -0.0133448895 0.16079389 0.15590568 0.10722284 -0.08570284 -0.013592607 -0.081555516 -0.09945942
942 -0.12453584 0.095225625 0.14395778 0.2671251 0.0626559 0.015291334 -0.07395098 0.08350037 -0.15181018 0.10456727 0.055213295 0.14583856 -0.31192437 -0.051029038 0.23806216 -0.2538957 0.0039176825 -0.036766496 -0.16815005 -0.008348855 -0.19562387 0.011952947 -0.19713406 0.21794122 -0.037800923 -0.13548866 -0.24326314 -0.096588105 0.014305317 0.14002858 -0.11727317 -0.044205967 -0.1673506 0.1774534 0.29367557 -0.23290065 -0.028646555 -0.06797199 0.17362835 -0.05996354 0.2234402 -0.21015263 -0.13693702 -0.22055674 0.011852309 0.14198905 -0.166866 -0.18958136 0.16003832 0.16446507 -0.1319894 -0.1698077 0.06902188 -0.043466803 0.058176495 0.30329925 0.23945273 0.121560484 0.07240856 0.2577253 -0.20057271 -0.0756324 -0.039984904 -0.08646284 0.103636175 0.012115701 0.17300285 0.11120732 -0.18998212 -0.010095321 0.22778718 0.08094939 -0.37698463 0.14163911 -0.020729696 -0.054185987 0.036720585 0.012186047 -0.12052809 -0.004934793 -0.10464069 -0.012302483 -0.12789516 -0.08341418 -0.10540792 0.14372528 -0.1982767 0.104006246 -0.03576061 0.14303547 0.04759033 0.004922479 -0.0034395368 0.096636966 0.3236111 0.49081156 0.12024045 0.23694284 0.18195917 0.049914747 0.15542325 0.13759758 0.07493228 0.06334361 -0.14543001 0.14673372 0.047952585 0.028219879 -0.36308554 -0.05054612 -0.15951544 0.100330696 -0.20328707 0.122184336 0.29136494 -0.22929694 -0.09422837 -0.09661146 0.00898625 0.26939297 0.067915104 0.2380356 0.015997548 -0.10628375 -0.10077649 -0.036392838 0.07807957 0.13202043
944 -0.13176337 0.20928451 0.03307866 0.17282148 -0.04611183 0.241237 0.14976576 0.1412238 0.08750172 -0.05889397 -0.111075945 0.28047955 0.16917153 -0.17353249 0.07849092 0.1614893 -0.020732526 0.09708404 0.0047040465 -0.041373834 -0.03444146 -0.10316716 -0.0070337956 0.21378924 -0.013473316 0.07396551 -0.034139615 -0.13793072 0.13930841 0.35472867 0.20523664 -0.23225395 -0.16838731 0.023307944 0.24669062 -0.12768218 -0.020673871 0.31148878 0.11434553 0.19170208 -0.097689845 -0.2679341 0.18277462 0.09316533 0.15278125 -0.19741015 0.025848687 0.29764536 0.012462665 0.14017525 -0.072774224 0.046716716 0.005343613 -0.20284481 0.060254224 0.21396083 -0.012572684 -0.11877925 0.40250972 0.095184796 -0.07989337 -0.20580222 0.31726673 -0.06517337 0.13535073 0.04825704 0.04008736 0.06351382 -0.10441339 -0.42267996 0.020294275 0.13642396 0.0620184 -0.20036961 0.40263188 -0.010492794 -0.01432087 -0.24039795 -0.16175336 -0.011947514 -0.1971722 -0.04257552 0.016242808 0.0599642 -0.018342393 -0.21472624 0.09196353 -0.34629568 -0.11144724 0.1461175 0.16394964 -0.23153564 0.021112362 -0.013398897 -0.060951937 0.31587124 0.21799089 0.026625097 0.379705 -0.025097549 0.37194306 0.2777187 0.051390342 0.235323 0.1440428 -0.0036482897 -0.23303227 0.101786606 -0.14733835 -0.18057972 0.16874069 -0.023861561 -0.13057575 0.057494015 -0.09112413 -0.24800636 0.37490994 -0.115634486 0.2282704 -0.16418758 0.14548622 0.032819714 -0.0019974352 0.050822284 -0.29935256 -0.09082336 0.04409112 -0.13648705
941 -0.085171394 0.18310684 0.12260922 0.26139542 0.15760586 0.4152092 0.08711273 0.15381028 0.19505142 -0.061811257 -0.25431627 0.15480903 0.055114962 -0.006256446 -0.009707236 -0.13340473 -0.054918077 0.05352493 0.21090366 -0.18103425 -0.09780107 -0.062524505 0.24677496 0.067316264 0.029371722 0.09452719 -0.05347276 -0.25429383 -0.26096946 0.19151731 0.12367113 -0.18817222 0.05919637 0.01184036 -0.09551922 0.1253483 -0.032800954 -0.10349438 -0.0025370987 0.31463704 0.21295245 -0.23238234 -0.10319169 0.03620459 0.041336138 0.022780914 0.10737438 -0.15256628 0.1667258 0.15200435 -0.10534703 0.11343577 -0.15971175 -0.061386876 0.10503571 -0.13046621 -0.19462273 -0.0040649744 0.37917513 0.057504233 0.21320729 0.091716744 0.09620649 -0.17316578 -0.067231596 0.148781 0.04906736 0.0036463533 0.11219169 -0.014917813 0.1471374 -0.03729226 -0.024283784 0.19275126 0.17317002 0.103580154 -0.02669647 0.14220902 -0.1972076 -0.17014658 -0.059180044 -0.1619882 -0.043178182 0.17103818 -0.05037124 0.15157698 0.16183034 -0.038792677 0.28574207 0.20930131 -0.16296403 0.029160736 0.15263028 0.22107756 -0.14288917 0.013458982 -0.18410201 0.19957142 0.24889387 -0.015854135 -0.24758975 -0.036666702 -0.10616209 0.083936706 -0.17300409 0.21827881 0.121116355 0.16825065 -0.021331854 0.05248463 0.0663067 -0.120630994 0.16336483 -0.26088157 0.294855 0.17021121 -0.034360804 -0.19352098 -0.19410783 0.23098281 -0.10401333 0.019923525 0.1876052 -0.30239883 0.32002378 -0.0015144357 0.0585157 0.04769087
945 -0.15766011 0.14855684 0.1766755 0.22105488 -0.15795782 0.044910286 0.052665625 0.29082423 0.23598349 0.2808048 0.0416683 0.31403843 0.043474864 -0.18406358 0.21014366 0.12218417 0.0734602 0.31639037 0.15656976 -0.34811613 0.37800667 -0.007031727 0.010959465 -0.17349997 -0.12163991 -0.25731766 -0.23222499 0.02098639 -0.3694585 -0.05505679 -0.21465375 0.0010277 -0.17593649 0.07946859 -0.13428368 -0.18514681 -0.11810724 -0.09211431 -0.16917923 0.12178267 -0.10100639 -0.045711666 -0.1165047 -0.08790567 -0.043037713 0.16906746 -0.2512142 0.104091495 0.050644055 0.19847617 0.02514528 -0.22578041 -0.08757894 -0.0059054415 -0.078774504 0.27963972 -0.22998257 -0.0292381 0.18917015 -0.018182384 -0.15015157 -0.06266992 0.34523365 -0.5239756 0.0854969 0.13935822 0.33845234 -0.2547295 -0.11288183 -0.02481849 0.12153527 0.055865977 -0.07778784 -0.038637176 -0.09675993 0.08107601 -0.15917067 0.043741688 -0.098281085 -0.16810326 0.07936334 -0.12772737 0.04685124 0.07517932 -0.108951636 0.00785225 0.046480678 -0.3861865 0.10786061 -0.2985819 0.07716716 0.11979272 -0.30436888 0.10080111 0.10448457 0.036382493 -0.051683784 -0.037328683 0.43979824 -0.21196862 0.0978186 0.11414711 -0.34110156 0.010710958 -0.068101384 0.06576134 -0.17924897 -0.03969756 -0.3036053 0.08435347 -0.0431483 -0.033631526 -0.338007 0.04704802 0.06259114 -0.024713008 0.17755733 0.04923773 0.14731658 -0.18171264 -0.17972456 -0.19022425 -0.02667871 -0.1953284 -0.50895554 -0.109596245 0.059739955 0.010542358
938 -0.20068492 0.16793263 -0.04717551 0.45443943 -0.2544181 0.20767796 0.34741357 -0.12514086 0.34803715 0.18308096 -0.03070272 -0.2092686 -0.13943368 0.24491887 0.24791378 -0.18546087 0.115406595 0.035865504 -0.103942566 -0.022863634 -0.06335392 -0.01914056 0.03648615 -0.16624309 -0.18930395 -0.1458151 -0.0038711722 -0.03153532 0.27225152 0.007177645 0.14953634 -0.007776244 -0.21368867 -0.15000069 0.09624506 -0.122726776 0.078560136 0.17082195 -0.20187032 -0.10848725 0.088879265 -0.15414535 0.23764767 0.107929006 0.4101007 0.19816288 0.00042844482 0.23088305 0.3598491 0.21449332 -0.2146124 -0.3739827 0.072781146 0.1145207 -0.14164978 0.16018505 0.018151721 -0.14756253 0.3381524 0.27780136 -0.051544413 0.33341068 0.16426982 -0.14058118 0.008517615 0.37312603 0.23901084 -0.3174659 -0.13030085 -0.18035573 0.13127433 -0.06704525 -0.028202139 -0.061993144 -0.07207375 0.0860517 -0.19298366 -0.17883052 0.14265499 0.01387305 -0.11802184 0.33712164 0.029403174 0.2819472 0.101962596 0.29188472 0.21873368 -0.23229407 0.0023629498 0.20970914 -0.25871387 -0.142751 -0.0009874374 0.21173635 0.023873884 0.099938825 0.34780186 -0.028846446 0.07798349 -0.02817865 0.05625293 0.21742547 -0.020014146 -0.058920246 0.05705596 0.21234041 -0.2546648 -0.0135071855 -0.08123407 -0.44347537 -0.34295645 0.10962953 0.05958184 0.06391976 -0.14477468 0.24880427 0.050857473 -0.19605678 -0.067472234 0.30591768 0.29452327 -0.1154723 -0.17262644 0.0024518047 -0.17077711 0.11721819 0.05077841 0.084635146
936 -0.09004544 -0.11259538 0.32958537 0.41841072 0.112178564 0.07954355 0.010145819 -0.22941731 -0.20254101 0.0900403 -0.012802371 0.14253 -0.1278337 0.24632548 -0.19527051 0.07064519 0.060565613 -0.033905372 -0.096060954 -0.021487197 -0.12030045 0.039545663 0.22214523 -0.0363585 -0.029118681 -0.48213235 -0.108516626 -0.21940143 0.043632798 -0.08406473 0.0364855 -0.35233292 -0.30054235 -0.1519222 -0.11684122 -0.38687468 -0.027141333 0.19981837 0.31845865 0.1906316 0.16948609 -0.14656869 0.09567173 -0.073455445 -0.17523432 0.08042075 -0.036151048 -0.09372814 -0.06777622 0.22378601 -0.054693647 -0.08643939 0.1715736 -0.44150954 0.24150519 0.0009430205 0.16360487 -0.2829396 0.17674804 0.063740425 0.21126334 0.011893496 0.3989726 -0.2964497 -0.09615126 0.3525764 0.048939694 -0.060627162 -0.22440216 0.11740315 0.20129398 -0.064879626 0.035736572 0.35821503 0.25977442 0.047953762 -0.17357837 -0.09802399 0.06656849 0.20237194 0.08878913 -0.009890192 -0.26224324 -0.082226634 -0.08397558 0.09016342 0.054391768 -0.044809725 -0.06083597 -0.4478324 0.12532197 -0.17475036 0.39829406 -0.47570178 0.049497582 -0.044347666 -0.12986599 -0.23967242 0.061607283 -0.10552009 0.29567072 -0.1620385 -0.19386238 -0.12120092 -0.19166666 0.117216155 -0.1346903 -0.46631894 -0.10889694 -0.3756655 0.088876784 -0.060672715 0.05512906 0.047250472 0.16701564 0.2160381 0.11000917 -0.22534138 -0.18261412 0.10561366 -0.17212838 0.092251964 -0.26002473 0.0053351605 0.055137023 -0.12946294 -0.21868914 -0.11268035
948 -0.17593944 -0.024776043 0.08169673 0.0557368 0.31838697 0.17684704 -0.31475338 -0.04770247 0.17003076 -0.15811314 -0.28931206 0.002126988 0.0945656 -0.19004822 0.2112794 -0.3755049 0.13376626 0.039175406 0.052611224 -0.18108846 0.1231398 -0.06699587 0.03601976 -0.24228097 -0.063365996 0.17266224 0.040322013 -0.18547615 -0.058548696 -0.24634317 0.41343886 -0.33364302 0.0115025975 -0.11110911 -0.018827416 0.05260384 -0.09004259 0.027273914 0.14183228 0.030345699 0.19153471 -0.033729315 -0.09950813 -0.059302993 0.12745261 -0.11657506 0.051354945 -0.0659396 0.02682453 -0.053670574 -0.15167612 0.029808154 -0.30286902 -0.0788891 -0.048518892 -0.02129217 -0.14038955 0.10543444 0.37815818 -0.11793943 0.16526757 0.28922525 0.22605228 -0.19411233 -0.15573533 0.11880118 0.23723346 0.118823126 -0.35927507 -0.21965621 0.013405138 0.0005492044 -0.4416805 0.11321811 -0.018638354 0.19610493 0.2406397 0.1204397 0.06315181 -0.14262351 0.19977783 -0.23527044 -0.003437351 0.10443514 -0.20050222 0.20330402 0.020313887 -0.06850619 0.051561024 0.24548516 0.015263806 0.027705507 -0.053693727 -0.22789234 0.12830992 -0.10065021 0.019114388 0.045248978 0.0030283146 -0.06342468 -0.17567842 0.18224347 -0.22459984 0.08822063 0.1013429 0.09177645 0.09631939 -0.22953323 0.05187889 -0.043342147 -0.0019159308 -0.07314221 -0.09102204 -0.18673317 0.13944632 -0.14803816 0.036843676 -0.020307936 0.013989376 0.23120837 0.08394561 0.0772342 0.2765151 0.038095698 0.05364014 -0.13100718 0.024496065 -0.0986366
947 -0.20218983 0.09287141 -0.005062786 0.029918257 0.14718778 0.116514094 -0.1480408 0.1698705 0.11973744 -0.16656658 -0.27414703 -0.052494988 0.24886188 -0.09905517 0.25068715 -0.08763163 -0.007544558 -0.038979955 -0.13864699 -0.18010963 0.35388798 0.038251564 -0.09187739 -0.07915571 0.046198074 0.04587593 -0.12886932 -0.07717907 0.1761731 -0.23260659 0.21052368 -0.14512642 0.040707164 -0.15840922 -0.1649223 -0.0661155 -0.2522278 -0.13627078 0.12256482 0.25498137 -0.049867257 0.036829557 -0.035328202 -0.020779071 0.17837457 0.041016933 0.31049597 -0.17563525 -0.07748697 -0.067365706 -0.18322477 -0.053428967 -0.241016 -0.042512637 0.15968828 -0.055785764 -0.07404728 0.08892919 0.25107056 0.12307919 0.045940734 0.31868657 0.18768428 -0.36558142 0.07625743 0.2956911 0.20053765 0.11491891 0.042440396 0.055789936 -0.09707066 -0.19965154 -0.3304448 -0.012140823 0.006026081 -0.02584039 0.16259661 0.23722114 -0.010789614 -0.08520229 0.108768865 -0.18322141 -0.09264033 0.053843945 0.038735535 0.19201145 0.124171704 0.025617942 0.022325467 0.23197018 -0.050914135 -0.13543674 0.004852156 -0.32269177 0.26932004 -0.09203836 -0.1317097 0.16232994 0.016186919 -0.063993126 0.08319268 -0.124783 -0.11178733 0.19078079 -0.031853106 0.07423959 -0.10927838 0.27417946 0.0568647 -0.1971223 0.0061667655 -0.35073408 0.08210129 -0.029491326 0.48849085 -0.07223287 0.01969349 -0.14842844 0.19990735 0.1756284 0.23398456 0.14203595 0.25103068 -0.052876815 0.10466557 0.036851868 0.056060374 0.08163153
946 -0.11656343 0.03628101 0.08896852 0.27629888 -0.03984018 0.067236304 -0.10446791 0.06599611 0.3598802 -0.17038913 -0.43657422 0.031400487 -0.16334039 -0.08806602 0.045245487 0.1133609 -0.04367238 -0.166775 -0.19826564 -0.36495057 -0.07303704 0.27266836 0.038948458 -0.23201656 0.23693186 -0.12664233 -0.16548225 -0.29415393 -0.087748885 -0.1202541 0.25010282 -0.326624 0.011157209 -0.22020286 -0.14821488 0.048783388 0.108000465 0.057322435 -0.12668304 -0.004960367 0.26350895 0.015439675 -0.16768225 0.29271412 -0.024699705 0.009175003 0.06018874 -0.1415566 0.17281574 -0.21148138 -0.18839207 0.1900854 -0.3078741 0.12590478 -0.052710917 0.0451956 -0.1809551 0.19115037 0.274743 -0.077150255 0.1282402 0.020143777 0.21643716 -0.224192 -0.15250519 0.2265317 0.3284704 0.12754603 -0.23420733 -0.011572417 -0.05686374 -0.03737049 -0.23953359 0.0712137 -0.056849297 -0.033750936 0.111588314 0.088159084 -0.0038010266 -0.04608819 0.23049 -0.2786713 -0.083417185 -0.0108336145 -0.12668143 0.050472036 0.1672449 -0.053640876 0.2400293 0.1653513 -0.12584853 0.04995739 -0.13930759 -0.22118737 0.32310832 0.052195445 0.09027646 0.06444131 -0.006642878 0.15212038 0.1476531 0.009106861 -0.100051224 -0.083232984 -0.29740834 0.14103183 0.16094868 0.41987574 0.15962225 -0.059149563 0.0755826 -0.2275475 -0.03494516 0.11967741 0.11356411 -0.08890031 0.049856726 -0.07569388 0.123594865 -0.09171774 0.1308584 0.10929539 0.15488403 -0.023121074 0.004355026 -0.043256905 0.041144095 -0.009747469
949 0.026539361 -0.07094944 -0.25232384 -0.15327317 -0.068405874 0.33803725 0.29031497 0.052771226 0.055675134 0.16333456 -0.42050242 0.15190394 0.2522493 0.047323056 0.5150954 -0.1534473 -0.32021457 -0.45570293 -0.1826729 0.3114422 0.08288525 -0.026191164 0.18303461 -0.07494549 -0.14599161 -0.13818498 -0.09919061 -0.3933968 -0.17861396 -0.21571098 0.21815555 -0.12929781 -0.13084157 0.12932591 0.42884842 0.14267582 -0.055915244 0.19390029 0.30305833 0.21980694 0.08020425 -0.094570845 -0.032152306 -0.038820833 -0.16996859 0.3052813 -0.2388908 -0.20805575 0.02485884 0.25078976 -0.16742077 0.38961998 -0.25634578 -0.041049402 -0.5977244 -0.011982298 0.18368013 -0.41160172 0.014366408 0.27467084 -0.19554335 0.050180294 0.23085761 -0.048903782 0.23744825 -0.21038935 0.2502499 0.040561993 0.20592685 -0.3057656 0.013162782 -0.023598215 -0.041071583 -0.18754975 0.04982955 0.048010297 -0.03479651 0.07941884 -0.022790583 -0.21822773 -0.12940973 0.0714016 -0.12976258 -0.1168766 0.0849054 0.3098367 0.1452944 -0.07926699 0.6022062 -0.0593635 0.043702587 0.14665838 0.37359068 -0.1764422 0.6668361 0.08589815 0.1997953 -0.17122865 0.12262131 -0.18656161 -0.0090841185 0.07798694 -0.35775185 -0.13567159 -0.060857445 -0.4547417 0.14427437 -0.28235832 0.10304045 -0.008821945 -0.16515522 -0.4118639 -0.10119173 -0.04981838 0.18092501 0.16326183 -0.018248528 -0.12533256 0.1250566 0.09662607 0.06995412 0.16972466 0.039315645 -0.11598826 -0.3082378 -0.20831542 0.087209076 0.13684258
939 -0.055940613 0.082760856 0.359482 -0.019721797 0.33695155 -0.20821992 0.07303933 0.16768216 -0.122629754 0.013413326 -0.6116949 0.34686643 -0.25304753 0.4383427 0.66983014 0.0006847057 -0.29993704 0.1840153 -0.14755586 -0.025927855 -0.17109202 0.009104233 -0.18718743 -0.2721739 0.13752244 0.17026262 -0.46885362 -0.17697723 -0.23390006 0.16213703 0.20306268 -0.52124536 0.1423313 0.0020230503 0.13395573 -0.09954928 0.06632384 -0.04214 0.1601214 -0.13131346 -0.4535166 -0.095700584 0.28136522 0.29245466 0.024686769 0.18920399 -0.09951272 0.004348653 -0.24568085 0.19362077 0.28829223 0.0059606475 0.3256899 0.2622692 0.058040444 0.118831195 -0.22145143 0.32950965 0.084796995 0.23570901 0.06567528 -0.11978304 -0.047231495 -0.29535407 -0.0041700997 0.47317675 0.0026791787 0.15098661 0.22636776 -0.19527294 -0.023723446 0.22477052 -0.144884 0.30476913 0.04140597 0.29221386 -0.18535551 -0.13953842 0.1740697 0.34729493 -0.08995355 0.54176515 -0.34405795 0.07411423 0.18071344 0.061441362 0.0713231 -0.106255054 0.2089479 -0.16790627 0.098574705 0.28951013 -0.25519526 -0.16934821 -0.05785407 -0.23117737 0.01148289 0.22969006 0.12223679 0.009308336 -0.22821753 0.3064779 -0.31241223 0.20125851 0.02446725 0.06813511 -0.42246202 -0.12988617 -0.064805076 0.38243115 -0.47564536 -0.06694481 0.01017739 -0.018429155 -0.04942654 0.105532184 -0.081591465 -0.5119758 0.20660977 -0.055235833 0.4430125 -0.06704946 0.27025402 -0.0740104 -0.055080034 0.079958074 0.17330958 -0.32797474
556 -0.4473701 0.4202446 0.7119335 0.86509746 0.023268944 0.34316793 -0.6479284 -0.7306988 0.49919906 -0.7278546 -0.8089672 1.0458194 -0.39318138 -0.9895591 1.6209745 0.32445085 0.6031844 -0.1679696 -0.040346794 0.0010484345 0.713658 0.18811792 0.6042552 0.20129272 1.2238002 0.47442153 0.093085 -0.3108265 -1.0876299 0.9520659 1.2390178 -1.0518029 0.35639754 0.61043316 -0.6910746 -0.20516476 0.6657399 -0.15386932 -0.05274752 -0.107773 0.16482268 -0.057044886 0.8201089 0.16738315 0.015867135 -1.5694318 -0.93925416 0.30846253 -0.80598956 0.24086533 -0.031445913 -0.097289056 -0.8597052 -0.15221193 -0.122189 -0.21123552 -0.14757095 0.43971202 -1.2132038 1.6859112 0.2648748 1.218517 0.41721255 -0.0889255 -0.7866484 -0.06682665 0.70704937 0.66910523 1.374918 0.48593146 -0.6756232 -0.37514436 -0.60879767 0.8752755 0.90365463 0.48718378 -0.9351168 0.2290518 -0.7174035 -0.8736864 -0.28298718 -0.8457918 0.38217843 -1.2687676 0.2628124 0.81609255 0.26014552 -0.4757126 0.20984347 -0.12836002 0.63598 0.9349159 -0.45023292 -0.68928814 -0.3574916 0.8582957 0.29023057 0.016276209 -0.65900666 0.67350817 -0.13285884 1.2000121 0.0016986575 -0.14999732 -0.7569552 0.3330218 -0.30936566 -0.22962384 -0.459593 -2.011789 0.059635494 -0.5327125 -0.16893168 0.48741007 0.9433749 0.713352 0.24021666 -0.038574494 0.78036684 0.64805233 0.4146917 -0.37783584 0.031127354 0.6161839 -0.44327974 -0.9429849 -0.52969646 1.3710203
883 -0.22558504 0.19373679 -0.11624371 0.29974484 0.084081486 -0.018139945 0.117736384 -0.09954207 0.026902452 0.3155098 -0.01977934 -0.066406496 0.061193164 -0.0013770052 0.14894785 0.0027688858 0.020132521 0.15066919 -0.014198854 0.101791225 -0.27172387 0.021629803 -0.08402706 -0.2764328 -0.16200456 0.29414102 -0.28773972 -0.18763302 0.001391392 -0.0785727 0.18296872 -0.06648749 -0.20832755 -0.08509424 -0.04512489 -0.14871502 -0.2229324 -0.1298771 0.28254387 0.19922565 -0.17130408 -0.22067936 -0.040744133 0.19812 -0.053466864 -0.020514213 0.27364355 -0.1421525 0.2106938 -0.15903589 -0.21720278 0.092066586 -0.3700318 -0.12701063 -0.20473298 0.12368896 0.27712026 0.40165567 0.056888193 0.14267123 0.40963787 -0.010338264 0.32031053 -0.100505054 -0.18622476 0.28534046 0.43807557 -0.032814752 0.012583638 -0.19586088 0.24012871 -0.0797176 0.2697389 0.18790233 -0.051571574 -0.022492975 0.014731051 0.05416106 -0.21750146 0.061516173 0.01164178 -0.030674376 -0.43330047 -0.105694 -0.07188593 -0.0835077 0.16535316 -0.16668852 0.09916339 -0.0036826485 0.040385034 -0.057386756 0.14598739 0.1816137 0.48163426 0.18420857 0.08673278 -0.09436492 0.112396635 0.028952057 -0.17092833 0.34515035 0.107641146 0.100659564 0.0327046 -0.029414536 0.14531836 0.062101882 -0.23115958 -0.29600874 -0.037285887 -0.4428445 0.14995304 -0.070567615 0.1277084 0.13780554 0.062208563 0.03630896 0.14151344 -0.059991296 -0.18476471 -0.116779245 -0.044515844 -0.090877436 -0.28654236 0.017932566 -0.24189244 -0.41775358
146 -0.022683337 0.056490667 0.11040445 0.2291991 0.01726992 -0.03536079 -0.104846224 -0.03439667 0.07086229 -0.012088549 -0.11228624 0.11988608 0.033449948 0.11719213 0.111990266 0.006934994 -0.06926061 0.04485411 -0.08237189 -0.11038716 0.065211125 0.13158758 -0.008446155 -0.024385994 0.05860161 0.03262261 -0.24796118 -0.16818246 0.110947564 0.03721181 0.1870807 -0.2427908 -0.14042167 -0.116003804 -0.076701134 0.00037605615 -0.014642333 0.07608739 0.05149195 0.070984595 0.01943665 -0.11087036 -0.049578648 0.026229993 0.027197624 0.014343896 -0.16549276 0.023952406 0.09536226 0.1538041 -0.00640026 -0.052974936 -0.060898867 0.033135947 -0.02379222 -0.025695292 0.027775569 0.08586574 0.19161707 -0.09202547 -0.003681446 0.034084883 0.07325681 -0.1526752 -0.12253579 0.23133391 0.13661769 -0.1541634 -0.029308507 0.11067867 -0.17967273 0.1458428 0.028051324 0.07791489 0.011408245 -0.019499797 0.03238785 -0.048236202 -0.11474717 -0.11442972 -0.052627366 0.15761432 0.028079323 0.06871731 -0.11805041 0.19409224 0.1277399 -0.13719063 -0.0015338956 -0.012417778 0.0028668114 -0.08705905 -0.016671197 -0.03347022 0.029991813 0.14322554 -0.1302947 -0.0025724403 0.01812163 0.085227974 -0.08764977 0.14567736 -0.18546784 0.17968182 -0.009656216 0.14205723 -0.17234562 -0.113935925 -0.14893727 -0.024500756 0.013505051 -0.32423043 0.019480137 0.009989272 -0.0708271 0.07972926 0.14100127 -0.17736761 0.049424477 0.07833544 0.07775355 0.05102737 0.039706845 -0.08349603 -0.16569032 -0.01973778 -0.047087215 -0.14031085
731 0.13556294 0.45172378 1.3736801 0.8727994 -0.17631015 -0.28781104 -0.58813006 0.19978529 0.33619606 -0.9926639 -1.0531815 1.0718338 -0.17608604 -0.20710334 2.0877216 -0.5513258 -0.9974591 -0.33084932 0.09361734 -0.90487677 -0.1560791 -1.163144 -0.75538665 -0.37891778 1.6577584 -0.13931265 0.10100006 0.7946968 0.27346626 0.57751656 1.9064 -0.68699473 0.42779472 0.27473673 -0.9855181 -0.49057385 0.3442077 -0.088086344 -0.306588 1.1425861 0.45445338 0.036267195 0.45831972 -0.89354634 -0.1102649 -0.8643973 -0.48776078 1.1493034 -0.6189853 -0.35871026 0.16738273 -0.5731584 -1.0697876 -0.1211143 -0.043991428 0.4843253 0.059424985 -0.9472446 -0.62104446 1.6197565 -0.06287241 0.55977774 -0.3622065 -0.9225377 -1.4366084 -0.33031648 1.3002002 0.15941171 0.35661393 -0.060855225 -0.1478986 -0.86222917 -0.6658377 1.2886904 1.6995361 0.29496837 -0.6916476 -0.6970041 -0.7287002 -0.0073064053 -0.04582728 -1.2691257 0.80072886 -0.6836045 0.14990447 -0.20410503 1.2728289 -0.16907918 0.280451 -0.04774355 0.25489518 0.9252113 -0.1873414 -0.6125419 0.06857432 1.0201077 -0.85050327 -0.41595402 0.09032092 0.32266334 -0.8450404 0.54838353 -0.15742098 0.23463467 -0.8089809 0.7952006 -0.62775683 0.10992962 -0.67054176 -2.5625908 0.20684718 0.10749329 0.5906641 0.5671961 0.111902244 0.7870269 -0.6980354 -1.0993458 0.36640516 0.7212006 1.2000874 -0.90186906 0.017830629 0.4647616 -1.0328242 -0.20433238 -1.3344318 0.058174934
89 -0.047129657 0.14005177 0.02696487 0.101357676 -0.03367264 0.042469025 0.14080782 0.091455504 0.117213145 0.0051680403 -0.23156331 -0.03000304 -0.01979165 -0.046726886 0.028785562 -0.014321638 -0.085582495 -0.041696176 0.029384388 -0.08839647 0.006921467 0.10187343 -0.06369905 -0.084857695 0.036277205 -0.011543078 -0.02126756 -0.04760736 0.014831763 -0.028393801 0.009711485 -0.09904643 -0.108079515 -0.10291056 0.14936249 -0.062820904 -0.060953986 -0.03446312 0.13042793 -0.015414821 0.06873315 0.010667474 -0.08919936 0.07520577 -0.020184187 -0.028515697 -0.0823492 -0.17264053 0.009689246 0.08122624 -0.08389257 -0.017944515 -0.18680064 -0.13785002 -0.028999105 0.10924736 -0.16052221 0.14433753 0.059291463 0.13362566 -0.089593016 -0.04914081 0.09299643 -0.15825023 -0.04410393 0.051992916 0.16875026 0.09558049 0.12718989 -0.01266822 -0.0685342 0.0864346 -0.056114506 0.09943005 0.06764267 0.09929863 0.043520987 -0.010328646 0.041220143 -0.119917326 0.013058208 -0.0029973658 -0.037339844 0.15037934 -0.12919067 0.14154483 0.10885811 -0.14555027 0.13500875 0.1846878 0.15305558 0.033768807 0.021091482 -0.0643755 0.21092208 0.044814117 -0.03373585 -0.07227189 0.22748356 0.014328679 0.0510996 0.120495684 -0.12938759 -0.031252768 -0.047444392 0.013624671 0.037805907 -0.11406727 -0.055124868 -0.08415493 -0.11807492 -0.2488427 -0.08137918 -0.23516963 0.1906748 0.015835308 -0.032929406 -0.011132184 0.064723216 0.10741133 -0.0071854056 0.05802177 -0.08066123 -0.12459162 -0.039858628 -0.09699999 0.022682676 0.047165237
151 -0.0409621 -0.05833936 -0.018276077 0.15793234 0.00293332 -0.12236924 0.030938 -0.046046823 0.058187954 0.044386286 -0.026999228 0.0432968 0.06989532 0.06526615 0.1968395 0.017859843 -0.04911214 -0.04862272 0.015851354 -0.073728435 -0.07433522 0.07321058 0.053064864 0.0068647764 0.024013774 0.0020709888 0.07905453 -0.07725213 0.11911847 0.15923443 0.07806534 -0.26709682 -0.07035482 -0.17221466 -0.07758728 -0.025506172 0.013598463 0.085613266 0.100533135 0.15181118 0.05615944 -0.088013254 -0.06857146 0.00967588 0.027564116 -0.039812483 -0.012797763 0.03633601 0.06916978 0.09621558 -0.15061633 -0.085104905 -0.121226095 -0.0555447 -0.043134715 0.03639107 0.01594328 0.11068842 0.30500755 0.08307487 0.03554551 0.06403845 0.12010192 -0.05095298 -0.09366358 0.10690751 0.1005762 -0.1274612 -0.056109082 0.056534246 -0.054690037 -0.0009328628 -0.1931228 0.07171909 0.05116647 0.020972136 -0.009939129 -0.041822758 0.08037788 0.023714682 -0.15004787 0.020406147 -0.08453562 0.001984487 -0.10827455 0.20964125 0.024338711 -0.22142717 -0.048316862 0.07012667 0.0029041136 -0.019827256 -0.016827364 -0.046130914 0.1087948 0.18634939 -0.083809346 0.020465977 0.0966009 0.022278497 -0.039861813 0.07095746 -0.13385674 0.0071385494 -0.06361394 0.13385145 -0.10201361 -0.033307306 -0.16265781 -0.06427177 -0.0004041917 -0.25832418 -0.038658977 -0.048344497 0.10612311 0.011548816 0.09271168 -0.11494423 -0.0016688672 0.023892043 0.1587868 0.12451805 -0.06328861 -0.07471639 -0.12355019 0.01490729 -0.07682396 0.04189985
480 -0.022223799 0.08081922 0.04502642 0.093438484 -0.012273419 0.011583259 0.0656333 -0.026287865 0.016921274 -0.027117591 -0.08031937 0.0955543 -0.0069574737 0.06444929 0.106908165 0.08009255 -0.058311947 -0.011985647 -0.06831035 -0.12177572 0.051718265 0.15855125 0.05547411 0.019296987 -0.06628626 0.008160582 0.036432438 -0.11012706 0.048060708 -0.031997498 0.19583565 -0.20418163 -0.13755095 -0.20777377 -0.049493816 -0.076317854 -0.07518137 -0.032226026 0.18068899 0.13152458 0.041359358 0.07401081 0.029956246 0.07291223 -0.015173009 -0.07144428 0.041279662 -0.16228381 0.07877788 0.1163092 -0.11160731 0.1145193 -0.20283876 -0.09004777 -0.042944904 0.020621177 -0.1136331 -0.0075079165 0.04281135 0.16919012 -0.00011323957 -0.092991374 0.17457734 0.05007179 -0.006256688 0.12215354 0.12964141 0.1511021 -0.021759864 -0.03642733 -0.17187957 0.107653216 -0.102941394 0.09870348 0.124047995 -0.0888615 -0.030167822 -0.13903843 0.064140715 -0.05543472 0.027011158 0.034897827 -0.03218186 0.13257436 -0.1931785 0.19905396 0.1907744 -0.16407819 0.043570902 0.13715577 0.01045243 -0.03540173 0.025495784 -0.06273629 0.09667508 0.15689002 -0.08799153 -0.15314746 0.1659774 0.023438925 0.043911338 0.14833423 -0.11883653 0.14486398 -0.09332272 -0.011536915 0.04932982 -0.08110394 -0.09810457 0.04918436 0.0049956483 -0.22114854 -0.009906799 -0.14523423 0.27027372 0.08227804 0.057199467 0.0007656109 -0.02807572 0.107959375 0.01867645 0.072191864 -0.12598002 -0.011087964 -0.16188297 -0.09264058 0.0103970105 0.068283096
287 -0.019163474 0.028873175 -0.043694474 0.18826663 -0.033101723 -0.041326817 0.008881571 0.013136114 0.11002356 0.054559093 -0.048257984 0.08443686 0.074261144 0.07324707 0.053704213 -0.016655536 -0.039408624 -0.037320442 -0.013205179 -0.16425782 -0.09971514 0.05618059 -0.04370765 -0.036909997 0.04962053 0.0737249 0.01109641 -0.004664191 0.10108516 0.08780582 0.026892487 -0.25577685 -0.060840834 -0.10780384 -0.019502169 -0.06492647 0.021003913 0.08571769 0.04601618 0.06864679 -0.07106016 -0.06620547 -0.011309293 0.022911625 0.09002939 -0.04535015 0.0073420894 0.025031727 0.19707462 0.1517864 -0.08800251 0.06810685 -0.136612 0.01042037 -0.06322543 0.0041280217 0.051411595 0.10898981 0.16915654 0.042025473 0.05618276 0.07861282 0.13723627 -0.11968191 -0.05538922 0.1286686 0.12146039 -0.08520922 -0.076157756 0.054996863 -0.07238233 -0.069530874 -0.140682 0.119376004 0.10982787 0.07448225 0.06497559 -0.009007032 0.08513993 -0.08548084 -0.17512324 0.008639715 -0.0119556645 0.039029744 -0.07892795 0.123127244 0.05244265 -0.16645811 -0.016874176 0.107278645 0.09109158 0.013274231 -0.053753752 -0.049219683 0.08573219 0.14363518 -0.0017270299 0.08096114 0.14850004 0.032560717 -0.046746537 0.11173466 -0.054182637 0.04829447 0.005112208 0.05838632 -0.1145927 0.036972012 -0.0998761 -0.12751119 -0.028282935 -0.1469049 0.0020403708 -0.10683232 0.097268604 -0.0045664334 0.057132613 -0.10666358 0.061135564 0.02072615 0.1055119 0.18135716 -0.031478353 -0.12244883 -0.07537539 -0.085985206 0.0066250428 0.14129388
420 -0.11992897 0.08753661 0.015519904 0.13002837 -0.012288846 0.012470098 0.07894184 0.0086922655 0.1101144 0.07424656 -0.11714035 -0.009642184 0.07719208 -0.033895656 0.10655383 -0.011253233 -0.08399609 0.0055915457 0.005561529 -0.15365483 -0.071566574 0.08189251 -0.07109975 -0.18981464 0.059808157 0.016812382 0.0057803816 -0.08861906 0.069283836 0.055057164 -0.03054598 -0.16746427 -0.11736926 -0.06046974 0.027342288 -0.08990992 -0.030117678 0.026136246 0.06713344 -0.031309154 -0.021262256 -0.114854895 -0.07063645 0.03252372 0.07078271 -0.039652113 0.008717942 0.0059204935 0.10783099 0.13298824 -0.03669252 -0.040808562 -0.10040149 -0.067244016 -0.040772848 0.05437034 0.008786955 0.23934275 0.16764574 0.07084148 -0.051816653 0.014807602 0.09231411 -0.24098375 -0.12267328 0.07248025 0.086171955 -0.13924155 -0.038909864 0.10487933 0.036389638 -0.009451241 -0.122295946 0.09699776 0.025132434 0.17810664 0.048368756 0.015660096 -0.018004544 -0.14808168 -0.15643862 -0.0076068407 -0.005340902 0.08063077 -0.025668485 0.18422046 0.056562956 -0.11339929 -0.0006412425 0.077967614 0.08762394 -0.043487616 -0.052803714 -0.06284893 0.11247842 0.058417007 -0.09630641 -0.0006377121 0.1463056 0.094964914 -0.011580666 0.019758811 -0.12865214 -0.031139387 -0.060262755 0.08655937 -0.081345335 -0.026271787 -0.07232918 -0.11396307 -0.04312112 -0.18764658 -0.023532994 -0.13870029 0.005664166 -0.025162872 0.033505604 -0.04089199 0.06361185 0.13876414 0.041008882 0.16120343 0.01034918 -0.14554031 -0.11849734 -0.039036464 -0.09596233 0.065774664
284 0.111419804 0.09779757 0.025496582 0.22570951 -0.0052870563 -0.010939383 0.15743017 0.021837102 0.09435404 0.09957257 -0.25257945 0.046640307 -0.0074812653 -0.07430316 0.058509603 -0.10427885 0.007356936 -0.00025422891 0.09099033 -0.04635025 -0.00859708 0.1383767 -0.08823267 -0.13303216 0.04917874 0.0065150815 -0.08653951 0.12906744 0.059704587 -0.007575966 0.07853927 -0.3230722 -0.22841427 -0.11174185 0.065729745 0.050642323 -0.017955095 -0.092856415 0.12895784 -0.014120486 -0.056966156 -0.037172873 -0.03687112 0.10016368 0.052587368 0.05843095 -0.059821717 -0.037384972 0.03336366 0.1665778 -0.08436494 0.10549803 -0.17606778 -0.09869049 -0.15755503 0.06617596 -0.10497237 0.0545372 0.15292396 0.095811665 -0.04176994 -0.05239517 0.2824691 -0.07555627 0.04099381 -0.029036142 0.059089098 0.024400836 -0.009135809 0.04939816 0.004978173 -0.061698783 -0.008963003 0.050054427 0.0643379 0.052215613 -0.028531706 -0.07083431 0.07347044 -0.042341504 -0.014685742 0.068209365 -0.045960784 0.15222071 -0.117111795 0.12402674 0.12696235 -0.18195702 0.04696393 0.11312166 -0.078706704 0.042180672 0.07722698 0.039545607 0.2668891 0.117314845 0.042544696 0.043403488 0.22040798 0.0860167 0.027697958 0.1392382 -0.13173926 0.053979013 0.027892688 0.06805842 -0.06199111 -0.06302094 -0.12490673 -0.048479754 -0.05696313 -0.21616246 -0.09735663 -0.22538258 0.07291774 0.083098754 -0.020878652 0.08113732 0.085152104 0.22220878 0.10075043 -0.0019943796 -0.051295638 -0.21260026 -0.15259586 -0.064225495 -0.120841086 0.12376142
619 -0.11353382 -0.06745326 0.022071974 0.14722702 -0.070649475 0.058810458 0.01928301 -0.010489861 0.034834497 0.06667312 -0.025145441 0.014934773 0.059247363 0.05980667 0.15192014 -0.047142476 -0.0060756807 -0.12024061 -0.139772 -0.1775412 -0.14111193 0.06730937 0.044838425 -0.14013408 -0.0029175363 0.016543852 0.05048908 -0.14685947 0.079735 0.033420656 0.18301605 -0.13499884 -0.11826236 -0.16523655 -0.043650787 0.0329518 -0.07343522 0.063814335 0.070488416 0.060789917 -0.025422864 -0.03909163 -0.023047702 0.06067979 0.053631093 -0.12286745 0.019730398 0.018161193 0.15328105 0.099583685 -0.022641867 -0.10820199 -0.21494912 -0.022339625 -0.056055658 0.0017813155 0.07720121 0.0966562 0.2213033 0.09092478 0.054471917 0.006749915 0.122134395 -0.14827353 -0.09011371 0.18203609 0.049237948 -0.20030367 -0.07541856 0.1355759 -0.100409016 0.081238315 -0.035448994 0.16768505 0.024253944 0.08472179 0.004774146 -0.075555876 0.017782187 -0.15877612 -0.11148311 -0.020418549 -0.097632326 0.098549075 -0.10360776 0.23755182 0.07453908 -0.20762917 -0.01689333 -0.006209817 0.033700727 0.028038973 -0.030558515 -0.14608045 0.08622539 0.088661656 -0.08870467 0.0011796851 0.032954168 0.025428448 -0.03628337 -0.0053011724 -0.16029778 0.10435458 -0.055363633 0.15245487 -0.029061235 -0.055167735 -0.13880478 -0.0462489 -0.026014322 -0.22788541 -0.011896412 -0.066640764 0.18406835 0.045605395 0.014578962 -0.16527632 -0.058044314 0.073109195 0.07311214 0.06574161 -0.07063768 -0.043770395 -0.025528735 0.014092178 -0.08873122 0.050657913
378 0.03280266 0.013938862 0.14260773 0.19259438 0.012030234 0.062243987 0.13919613 0.08974161 -0.025882337 -0.045239028 -0.13720524 0.014415563 -0.057723153 -0.032706313 0.020461865 -0.06417147 0.029894067 0.024734175 -0.019116655 -0.22766869 -0.10022128 0.0036616544 0.022719814 -0.11513645 -0.056305416 -0.06701681 -0.1104237 -0.124439806 -0.003839184 0.07533119 0.008415366 -0.09742341 -0.08777737 -0.058181573 -0.029945776 -0.14749207 -0.026812922 0.01279693 0.16063236 -0.012865393 0.028643645 -0.060881153 -0.031881407 0.05154746 -0.028533237 -0.06922988 -0.107639246 -0.025297565 0.040728148 -0.097920425 -0.13893774 -0.0529575 -0.042293258 -0.009319282 -0.07461648 0.147161 -0.099949576 0.18270575 0.18882793 0.07363363 0.040344346 0.009113126 0.14028743 -0.17007552 0.026433414 -0.029965838 -0.0232774 -0.09180253 0.0167659 0.04788243 0.08168778 -0.04599282 -0.008868626 0.13135207 0.07519256 0.062336933 0.02693689 -0.08014267 0.008069384 -0.07794239 0.0032601547 0.014064006 -0.011639795 0.06630998 -0.14108083 0.17863324 0.09360673 -0.1503326 0.068500996 -0.027131995 0.05436437 -0.0016536018 0.016376728 -0.12269704 0.044774976 0.17841667 -0.08436284 -0.044990573 -0.013099067 0.03322642 -0.012092734 0.1153441 -0.14006317 0.08441551 -0.10315543 0.1876292 -0.14501667 -0.057720598 -0.08694679 -0.013580651 -0.05099978 -0.20646577 -0.14280307 -0.04555138 0.13635048 0.11768805 0.0021868732 -0.07043852 -0.02020145 0.1442601 -0.033511274 0.14994238 0.0616447 -0.007536252 -0.1380527 0.052259378 -0.044190057 0.0051282663
19 -0.09153798 0.08002656 -0.029556822 0.17618822 -0.09065308 0.07694886 0.07281618 -0.002291659 0.031210331 0.16571856 -0.08718052 0.00025584243 0.058889568 0.019856982 0.12909286 -0.013418904 -0.16744003 -0.064648814 -0.076769374 -0.20788111 -0.076670565 0.11062998 -0.104481615 -0.11587432 0.052386217 0.013355828 0.07186869 0.016839666 0.024577353 -0.01692765 -0.078338735 -0.13430671 -0.14265382 0.029241666 -0.025211912 -0.085515454 0.053483132 0.097278714 0.08706445 0.028063586 0.07225723 -0.093458235 -0.07075146 0.0009006804 0.10258015 0.016235312 0.0077115316 0.027612112 0.16871539 0.14402819 -0.055469505 -0.024264911 -0.132043 -0.08262708 0.0145061165 0.10598698 0.024956219 0.28627837 0.13347442 0.005544275 0.072868206 -0.029492475 0.05354789 -0.24196613 -0.095534876 0.090162836 0.11380295 -0.06860022 -0.061115324 0.15161377 -0.04211647 0.0038201595 -0.017020324 0.11123701 0.087391436 0.16732381 0.035328258 -0.022613347 0.030235814 -0.17840827 -0.111490406 0.03128527 -0.058375902 0.11868623 -0.027468016 0.16738264 0.028301494 -0.0905559 0.013454466 0.0372097 0.06128261 -0.066087365 -0.032783 -0.078572474 0.10820871 0.16594207 -0.06976734 0.04028179 0.18491474 0.019461364 -0.019831724 0.104616925 -0.2313798 -0.058893688 -0.01980444 0.10092414 -0.0664343 0.049605705 -0.061880924 -0.14781643 -0.026357602 -0.22799814 -0.075402975 -0.11274321 -0.008852559 -0.035390817 -0.084736876 -0.080773965 0.09066699 0.13949063 0.12097438 0.10950515 -0.060409155 -0.15836243 0.0057331533 -0.05276586 -0.03456955 0.043436013
240 -0.2515485 0.14027612 -0.10496263 0.10772778 0.14803953 0.2463352 -0.075747445 0.065263 0.07163719 0.06987027 0.22449465 -0.060807645 -0.03497463 -0.029783634 0.20278539 0.023707015 0.0052688257 -0.050075196 0.022358892 -0.2936042 -0.19281003 0.12742051 -0.1600018 -0.1559835 -0.0034136872 -0.1773117 -0.10675874 -0.0968201 -0.021501554 0.0541739 0.007735995 -0.19595824 -0.1781942 -0.16113977 0.06190198 -0.057024486 -0.112722054 0.05303321 -0.01173505 0.03239202 -0.16588715 -0.18762912 -0.025310582 0.106063575 -0.023466865 -0.03765743 -0.13643952 -0.068239555 0.1942971 -0.19069345 0.015523482 -0.093437076 -0.38366467 -0.14991689 -0.18397546 -0.18348603 0.08082662 -0.04376883 0.042435344 0.07733732 -0.034160998 0.049490817 0.098513484 -0.20958748 0.0403371 0.21300423 0.045245074 -0.15530078 -0.15703475 -0.067445904 0.021466643 -0.18254322 -0.18542431 0.13121958 0.12731051 0.23667504 -0.09670833 0.20451498 0.11839092 -0.14531936 -0.095788516 -0.022814011 -0.090277314 0.27730903 -0.18965828 0.17750116 0.08294725 -0.19152564 -0.18834099 0.21027379 -0.13745925 0.07928982 0.13498329 0.05572921 0.090898454 0.11442687 -0.047802523 0.13865873 -0.09834988 -0.045557328 -0.15018119 0.3545122 -0.19071741 -0.13182771 0.16354838 0.076613724 -0.33162493 0.025127335 -0.015019025 0.078309774 -0.011019889 -0.24489376 0.23725793 -0.19999455 0.14419244 0.090919346 0.04955027 0.0014278737 0.011876766 -0.07779127 0.3125786 0.32822993 -0.01761792 0.04212225 0.15097184 -0.1644201 -0.08902022 0.04147711
657 0.046240464 0.09740699 0.08213312 0.15160446 -0.03196804 0.057288334 0.15802507 0.0074477927 0.12974644 -0.013303316 -0.23524119 0.019905629 -0.10045802 -0.071702145 0.017952034 0.020161878 -0.01287464 -0.0018496825 0.12564918 -0.01032081 0.038954414 0.10820344 -0.028606769 0.017155346 0.046373066 -0.03879603 -0.0635903 -0.006263464 -0.017925657 -0.047643684 0.015296341 -0.25556228 -0.17457937 -0.13002715 0.014044563 0.009006838 -0.03332059 -0.12854366 0.04215492 0.011078231 0.048330203 -0.05130017 -0.027783064 0.10519246 -0.025155948 0.027217833 -0.03413432 -0.05130841 -0.07590003 0.11820971 -0.15002309 0.08408575 -0.082283385 -0.14431624 -0.10210008 0.11451532 -0.2475037 0.18251409 0.102831446 0.14735249 -0.04563401 -0.17643811 0.21383832 -0.100791015 0.054240294 0.0042907717 0.1309308 0.116145164 -0.026639948 -0.005633297 -0.048420172 -0.05829686 -0.03585343 -0.04262819 0.1145204 0.009042935 -0.0098829735 -0.01970153 0.15425538 -0.08159018 -0.07256021 0.0013047121 0.05107656 0.07914486 -0.20854189 0.058283273 0.15994766 -0.115147464 0.10857989 0.15689942 0.07058143 0.040235907 0.10530354 -0.0045791417 0.19545883 0.15807633 -0.0064156605 -0.034109104 0.15394333 -0.03102223 0.04925103 0.22145584 -0.09420087 0.1364847 -0.033247 -0.03532147 -0.020576315 -0.1677478 -0.13560307 -0.04815562 -0.12141987 -0.23066667 -0.09709558 -0.1980394 0.13102227 0.021175018 0.01831032 0.04043435 0.05992067 0.20285498 0.08101034 0.17082144 0.05484017 -0.09003753 -0.12960759 -0.06057832 -0.053620774 0.040874016
345 -0.011940863 0.11856073 0.030797053 0.06376862 -0.020892583 -0.01438785 0.038916342 -0.021898845 0.0024003782 -0.0403084 -0.09709335 -0.014479705 0.008843274 -0.03383979 0.1473051 -0.054521654 -0.06531408 -0.17859355 -0.026079632 -0.14041258 -0.039380305 0.0942227 0.02764846 -0.065381356 -0.09706157 -0.0017994624 -0.029037427 -0.08023468 -0.03530685 0.05119384 0.08863536 -0.13396546 -0.17549835 -0.20426819 -0.017633174 -0.13099778 0.011335827 0.0014190064 0.24711116 0.08168577 0.04987046 0.0104783345 0.06652251 -0.032742605 -0.088813655 -0.05741483 -0.0019694846 -0.21916266 0.08814929 -0.060024414 -0.03544132 0.022004755 -0.1525385 -0.13875085 -0.073544405 0.007818185 -0.11462651 0.04375259 0.11438238 0.18521033 -0.0069183246 0.008689778 0.10680785 0.011374381 -0.068312876 0.08042235 0.14263378 0.14383769 0.07708841 -0.05104412 -0.15311226 0.011965676 -0.13805094 0.17850932 0.08467846 0.025959983 -0.06627385 -0.053999808 0.022197654 -0.053153895 0.080383874 0.11928597 -0.13952748 0.18898948 -0.16884881 0.12631921 0.11265011 -0.14558485 0.23270868 0.13139212 0.09571869 -0.037245102 0.10970427 -0.009080756 0.24115707 0.11217458 -0.047318913 -0.046158236 0.14573391 -0.044570226 0.073738895 0.05625434 -0.12302977 0.087564364 -0.12729846 0.06773949 0.019168468 -0.105931304 -0.04500751 -0.03382516 -0.03672084 -0.18080354 -0.13522758 -0.20280297 0.2888597 0.058453947 -0.1170066 -0.03801648 -0.046983145 0.15233491 0.022780316 0.05983451 -0.04010382 0.07737129 -0.07909067 -0.11929115 0.037363738 0.021940969
926 -0.038031664 0.061937552 0.012798201 0.17422558 0.08679484 -0.023008294 0.01979925 0.12530193 0.093624815 -0.015612481 -0.024378574 0.067898735 0.02881885 -0.011495123 0.015691085 0.002534987 -0.11385467 0.006955121 0.07202687 -0.11732471 -0.062212083 0.05185516 -0.0010917904 0.054678403 -0.020362655 -0.020252176 0.11294304 -0.07949933 0.086262144 0.015727876 -0.03923647 -0.2569497 -0.016419165 -0.11648564 -0.028155526 -0.09138141 0.08426232 0.06381458 0.05044431 0.029418051 -0.034337092 0.031725436 -0.048790492 0.06960504 0.03292235 0.017524814 0.038688675 -0.053275865 0.14864224 0.044901904 -0.17244157 0.1630633 -0.109760515 -0.061351225 0.049099624 0.015365007 -0.058605228 0.13424619 0.09968905 0.11228671 0.021745436 0.09459985 0.064895414 -0.06840156 -0.051519014 0.17229596 0.12822571 0.03085777 -0.02449266 -0.05593577 -0.026586367 0.029266294 -0.1709843 0.073956996 0.08546894 0.05177154 0.072285414 -0.00036040688 0.084017016 -0.15199268 -0.1396333 0.000773612 -0.057196848 0.0025027758 -0.10129879 0.085940465 0.04852217 -0.19036828 0.037565444 0.10176588 0.10576875 0.031524498 -0.08872338 -0.10737834 0.06634124 0.13056925 -0.09125001 0.055247765 0.1368609 0.029974187 -0.012601123 0.17979614 -0.0710561 0.103420995 -0.10917156 0.030456435 -0.11232681 0.02394824 -0.090617664 -0.16353485 0.005004826 -0.13198383 0.02575102 -0.106911905 0.13110933 -0.006714867 0.066546924 -0.05240274 0.034082748 0.02252384 0.06868542 0.25170806 0.004626849 -0.110175125 -0.11593546 -0.014090496 0.05990944 0.08407577
438 -0.106334284 0.17550904 0.12594 0.20106204 0.055005603 -0.068969525 -0.026485337 0.1389266 0.16178909 -0.07663917 -0.26354867 0.09555112 0.024322977 -0.07937685 0.14137976 -0.074868515 -0.116476685 0.026299194 -0.004712289 -0.08252468 -0.0012447153 0.06853392 -0.034817982 -0.09051508 0.07757742 -0.04710192 -0.34189552 -0.0718464 0.03708392 0.046330027 -0.059820127 -0.21903536 -0.039295938 -0.0610921 0.07093245 -0.15768006 0.0014945504 -0.0139515605 0.10711727 0.049118813 -0.014411351 -0.10614538 -0.12009963 0.04088982 0.023420075 -0.028428929 -0.15257625 -0.023049261 0.1319897 -0.016189743 -0.011369839 0.009807779 0.010290076 0.12811126 0.119654946 0.07058767 -0.06921178 0.11749297 0.13823141 -0.046291087 -0.08166441 0.10537268 -0.073333606 -0.24276988 -0.06864908 0.09761936 0.0851756 -0.026752656 0.08865223 0.04679198 -0.048721645 0.1503592 -0.054853603 0.012830769 0.12717365 0.06869251 0.10850799 0.0569276 -0.15595594 -0.11634478 -0.020089282 0.0563125 -0.053764533 0.01181275 -0.100887656 0.13179313 -0.032174654 0.0076985154 0.120163016 0.047735225 0.056839492 -0.05572144 -0.06670763 -0.14456894 -0.008554379 0.017407786 -0.07565342 0.014558783 0.011161996 0.083291814 0.020972155 0.18545002 -0.1718582 0.04272203 0.05024266 0.14148116 -0.18712795 -0.06423942 -0.035779864 -0.115639515 -0.0959388 -0.2872592 -0.073537 -0.13038327 -0.087129496 -0.020887963 0.021976575 -0.14310029 0.07071662 0.14256652 0.026546292 0.10701527 0.049057376 -0.042327125 -0.11610803 0.026743473 0.062550746 -0.0334735
863 -0.042024594 0.038726673 0.08272101 0.13401423 0.011735742 0.008737659 0.09747636 0.0046875193 0.22180308 0.102664776 -0.30850685 0.07217105 -0.023958988 -0.047535997 0.14489034 -0.07095658 -0.1326842 -0.030480549 -0.009797506 -0.035254244 0.043405965 0.16866626 -0.08619508 -0.26025715 0.11518853 0.057544213 -0.22674617 -0.13473399 0.13458557 -0.005990329 0.07612936 -0.33242428 -0.22447348 -0.23093426 0.10099448 -0.0735647 -0.026453754 0.02225374 -0.012682694 0.06881686 -0.00026705116 -6.511314e-05 -0.046855144 0.03348909 -0.0033711065 -0.0146898385 -0.2066363 -0.066946834 0.09053593 0.29189435 0.07382957 -0.040596303 -0.18848933 0.0770851 -0.04526529 0.040293332 0.041112944 0.028331922 0.038032666 0.13154218 -0.19144565 0.019214625 0.09054437 -0.12756976 -0.20968333 0.12885474 0.18553136 -0.044537496 0.1008269 0.111542284 -0.16047494 0.17017213 -0.028972078 -0.036750257 0.0882741 -0.005986902 -0.010394242 -0.012573177 -0.0072878427 -0.12133606 0.083273284 0.078262255 -0.15265144 0.22933693 -0.07669619 0.10797087 -0.0010475115 -0.11539843 0.15306108 0.1565941 -0.056978725 -0.020705646 0.0497867 -0.10917335 0.07115204 -0.016122172 0.06775356 0.0031845192 0.02880523 0.11206397 0.11747736 0.04770905 -0.24053793 0.089903876 0.16164854 -0.0076532997 -0.08470198 -0.17473905 -0.13564615 -0.008326389 -0.16956496 -0.301143 0.12395287 -0.20653152 -0.04043323 0.017610518 -0.054557085 -0.011929538 0.14136106 0.20430818 0.07323281 -0.018717095 -0.0140230805 -0.09808155 -0.15938732 -0.06474825 -0.01432389 -0.05113331
893 -0.035922855 0.1475044 0.07964818 0.04931385 0.17272668 -0.022074366 -0.04702265 0.09452368 0.12335376 -0.035859913 -0.24951155 0.025271023 -0.028455859 -0.08454206 0.06810406 -0.073039584 -0.09561046 0.00086296565 -0.00043599552 -0.080078185 0.08717826 0.124831796 -0.098262586 -0.108172655 0.042453643 -0.1262167 -0.2646232 -0.082466334 -0.048635688 -0.06585383 0.13026102 -0.19944638 -0.13778664 -0.09396155 0.22357723 -0.03401684 -0.060135435 0.008526571 0.13762347 0.054015033 0.08974288 0.030815419 -0.040146608 0.011221812 -0.05346175 0.04217619 -0.169529 -0.21129091 0.12705122 0.26677164 0.0035147099 -0.039964825 -0.01348699 -0.06738081 0.0932555 -0.07300826 -0.054691073 -0.0069027483 -0.004192837 0.0699059 -0.15106492 0.0644393 -0.0024920392 -0.16008987 -0.059713244 0.15548481 0.15056734 -0.03568238 0.2520857 -0.033938393 -0.11193174 0.21134888 0.004048907 -0.008550005 0.10596257 0.028983582 0.02061734 0.004954489 -0.06360166 -0.09996983 0.06890671 0.120213665 -0.04153879 0.14947324 -0.05545944 0.11354127 0.09481597 -0.12777062 0.26322046 0.21698739 0.05959597 -0.014686982 0.07725795 -0.04495312 0.06362332 -0.106763475 -0.029721681 -0.17520349 0.1020636 -0.012243188 0.05559635 0.19640198 -0.14638454 0.1856283 0.06011256 0.052957874 -0.051320754 -0.06782243 -0.23131943 -0.05547356 -0.16343448 -0.2970523 0.047098342 -0.26168555 -0.009304618 0.06137629 0.06542614 0.047990102 0.04535429 0.08855068 0.04910085 -0.082092464 0.01764636 -0.08734436 -0.10178442 -0.1479768 0.0598766 -0.022367658
479 -0.040016107 0.114580646 0.048833523 0.13457327 0.00024366062 -0.0006660522 0.04172596 0.092768475 0.061207347 0.014705414 -0.18153389 0.028164078 -0.088241145 0.011087049 0.11364022 0.00050232303 -0.08811964 -0.13119735 0.023208505 -0.061595414 -0.0752315 0.16154578 -0.012025436 -0.089809865 -0.012220439 0.014100925 0.058241658 0.00047930022 -0.07647171 -0.013926149 0.0356532 -0.15968928 -0.07388305 -0.16584753 0.03419383 -0.048184484 -0.049511757 -0.005697845 0.16589642 0.06745055 0.039146915 0.012728171 -0.044061616 -0.06862078 0.045313843 -0.008832481 0.007919803 -0.22695549 0.124285296 0.058912605 -0.060594127 0.082499966 -0.21319708 -0.05573519 -0.080581225 0.054928314 -0.08391097 0.073073514 0.06423262 0.13186306 -0.06629918 -0.015363662 0.10004535 -0.06645408 -0.046867218 0.102745235 0.13075715 0.13487814 0.06527666 -0.11274215 -0.076953106 0.0076605463 -0.15011847 0.079435214 0.10682005 0.100156315 0.041104924 0.10130949 0.096999496 -0.12346599 -0.01110855 0.022744419 -0.092934646 0.13712026 -0.12638576 0.106112055 0.12134251 -0.063379124 0.15221913 0.19122577 0.104092196 0.0046660914 0.012979554 -0.036063675 0.25360048 0.022407863 -0.07669197 -0.04695603 0.17129308 0.008344745 0.16103172 0.109000936 -0.11047298 0.016135136 -0.009987779 0.045994665 0.07399794 -0.094082616 -0.12528098 -0.07721461 -0.14348106 -0.11288772 0.0046850177 -0.25591668 0.27410442 -0.0026620692 -0.042114522 0.011623479 -0.035254575 0.09674673 0.0067983274 0.08649946 -0.060927983 -0.017814709 -0.053052265 -0.1485563 0.12433461 0.07003028
653 -0.056424435 0.013884405 0.073476866 0.15987879 -0.022141717 -0.019154731 -0.0007259746 0.044677 0.0149270985 -0.06490776 -0.024311032 0.0058410293 0.015845513 0.018044665 0.106688336 -0.03368358 -0.055399176 -0.14142567 -0.04023536 -0.20322163 -0.12519489 0.044436168 0.008137977 -0.095468156 -0.12963243 0.006243685 0.0052037416 -0.19330376 0.006636345 0.12960418 0.04698634 -0.10195296 -0.08311246 -0.090963066 -0.057930112 -0.14088336 0.012253861 0.12335311 0.22737738 -0.008620412 -0.008580539 -0.026316006 -0.016685965 0.009846911 0.0019008601 -0.06909 0.014424039 -0.049162064 0.11177652 -0.06873821 -0.124060094 0.02703458 -0.09600418 -0.047808 0.0024427162 0.10505944 -0.0646433 0.11775042 0.1915115 0.0688779 0.0033337427 0.12422811 0.0581752 -0.12695627 -0.025596011 0.10833883 0.07111872 -0.045083582 0.005293048 0.056213792 -0.09150144 0.021654317 -0.13668108 0.1530281 0.0026371237 0.038431436 -0.029363614 -0.063294604 -0.047659658 -0.12272289 -0.04794832 0.05483699 0.005315432 0.074120626 -0.13951662 0.22014087 0.08678509 -0.104225606 0.03328383 0.0038589314 0.15628116 0.029200159 0.024383297 -0.09507804 0.13320011 0.1322177 -0.15152189 -0.11111229 0.09318083 -0.012759379 0.003513131 0.03253283 -0.1455804 0.0829908 -0.1684797 0.15691946 -0.03082364 -0.063427374 -0.044990156 -0.022875678 0.0074919593 -0.17149287 0.0012748025 -0.076886885 0.13805878 -0.04556429 0.044843674 -0.10581199 -0.11155169 0.06557294 0.02106982 0.13601506 -0.035331212 0.07843491 -0.10231078 -0.020129038 -0.0092159165 0.04591556
144 0.048158918 0.1481263 -0.013196638 0.2548234 -0.04533013 0.030956445 0.044854708 -0.002482776 -0.027493022 0.13535711 -0.12144901 0.06666131 0.01301756 0.041964065 0.07390998 -0.12386732 -0.02739389 0.021934062 -0.07375774 -0.1089347 -0.059326038 0.05087373 -0.12897305 0.027235443 0.0493621 -0.1098844 -0.04966659 0.038989913 0.067550495 0.07400426 0.07983713 -0.22605833 -0.089536786 0.14399149 0.01861652 -0.04805939 -0.048936296 0.11273537 0.04728581 0.028409107 0.01032387 -0.049647942 -0.11266782 -0.028113838 0.061113548 0.14292763 -0.0674715 -0.026670516 0.12600666 0.21221456 -0.0056902873 0.003909558 -0.01765604 -0.11820222 -0.011126611 0.06735927 -0.015219215 0.14013352 0.1920455 0.018315524 0.027457394 -0.018509971 0.25446576 -0.19087996 0.09200438 0.015595703 0.09721734 -0.09514109 -0.053833086 0.14129472 0.05878887 -0.04749596 -0.037754 0.031776156 0.19975677 0.1547569 0.03126264 -0.0034254764 0.04601604 -0.041710272 -0.19074108 0.025569754 0.07920409 0.103226416 -0.042771123 0.12382061 0.04220391 -0.09566118 -0.06422658 0.104424596 0.033981953 -0.017328162 -0.09504661 0.0659703 0.071679875 0.038024314 0.07527026 0.02697934 0.20264292 -0.0051658573 -0.04049975 0.1492501 -0.1044405 0.029496284 -0.031173332 0.097536646 -0.12389808 0.051323816 -0.17757668 -0.12463493 0.0355576 -0.06545323 -0.086336516 -0.018108806 -0.031924784 0.088238165 0.04518522 -0.04808574 0.046252243 -0.020006834 0.16270329 -0.012366439 0.017314088 -0.1662749 -0.1681842 -0.02111805 -0.11503869 0.10736454
101 -0.04382673 0.1475427 -0.013224179 0.010963449 0.011457391 0.04460449 0.20202982 0.09494553 0.040810294 0.14823607 -0.21106517 0.0033839098 -0.02032818 -0.02730697 0.12501192 0.031920813 -0.19050425 -0.08747145 -0.0010200943 -0.12271585 0.050671887 0.15588027 -0.15242764 -0.16071324 -0.12097915 -0.043120623 0.031387195 -0.015515579 -0.010601085 -0.053467415 -0.047229983 -0.063047245 -0.22977494 -0.09347281 0.10694211 -0.18303457 -0.008056116 0.05388134 0.14875403 0.1459885 0.12500194 -0.02323398 -0.07115882 0.07642159 -0.013095239 0.031870473 -0.13078468 -0.14050758 -0.05246657 0.15073287 -0.020499019 0.027528305 -0.22116649 -0.09985721 0.066020384 0.14954329 -0.14845334 0.14740708 -0.010849612 0.11986114 -0.079993136 -0.021898707 0.07748783 -0.09807303 -0.11811574 0.16052395 0.2249275 0.11859942 0.05575531 -0.0072190226 -0.11005409 0.059507273 0.058928125 0.0852459 0.112820394 0.0024829672 0.06609577 -0.04642491 0.02608625 -0.15688393 -0.030059764 0.024223858 -0.055664293 0.16455619 -0.10541281 0.12184305 0.07615131 -0.08583773 0.18614176 0.11855366 0.109181695 0.0012829253 -0.0066471994 -0.01669822 0.21041054 0.11863684 0.0021668153 -0.06349974 0.20848349 -0.035995707 0.15500067 0.12256141 -0.14021799 -0.061657384 -0.03749199 -0.03971542 -0.021424303 -0.07099342 -0.026597414 -0.09954616 -0.17148772 -0.1505803 -0.07331406 -0.122459956 0.14739263 -0.06372574 -0.15736166 0.05576856 0.22011788 0.111404836 0.018879045 0.09979347 -0.025584226 -0.042675685 -0.04966107 -0.13615875 0.060474463 0.051786005
689 -0.49652928 1.2135125 -0.3621734 -0.121674486 -0.12607844 0.40627167 -0.3931996 0.31230214 -0.77109075 -1.001096 0.10651595 0.23327866 0.13498338 -0.12306194 0.56679755 0.031172255 0.36724633 0.645021 -0.36771157 0.29602703 -0.57953215 0.34093258 -0.061839633 0.72509307 0.44616306 0.7802952 -0.351396 0.16605611 -0.537758 0.12739515 -0.19563974 -0.30160686 0.2682834 -0.27124527 -0.41691884 -0.1474609 0.52733034 0.61925167 -0.13278288 0.5857426 0.4723341 0.32276487 0.03647591 0.34337577 -0.10209453 -0.47304332 -0.3059128 0.50445247 -0.7768904 0.7324114 -0.46653527 -0.26441875 -0.6800141 0.07329608 0.011307278 1.2359424 0.16264296 -0.26151228 0.16490294 1.199381 -0.072425276 -0.29681444 0.8883231 -0.2104633 0.5899909 -0.088233724 0.6036187 -0.9481995 -0.48570374 -0.18132836 -0.18531166 -0.00609131 0.055219326 -0.13803005 0.42878056 0.6175076 0.22452842 -0.6304634 -0.0022397684 -0.18124911 0.023956249 -0.059349585 0.39493 0.27827135 0.00014649147 0.1700111 0.4348235 -0.8817273 0.9204765 -0.82640374 -0.850886 -0.42913944 -0.5417216 -0.4763122 0.89373213 0.18844078 -0.17472187 0.29431814 0.3559968 0.6847689 0.2200882 0.7949614 0.22270595 0.26893896 0.55833215 0.20387545 0.24704933 -0.19729379 0.14965227 -0.7238019 0.5585156 0.5371051 0.6098125 -0.12699057 -0.23130712 -0.27936894 0.51822793 -0.267289 0.108074635 0.088093586 -0.250965 -0.029104916 0.7783371 0.23510796 -0.14856444 -0.30300868 0.20632261 0.6972553
584 -0.023369366 0.14859876 0.026385892 0.09786873 0.08908476 -0.05780849 0.05521089 0.026198978 0.083654165 0.064547665 -0.1028578 0.025068799 -0.088701695 -0.11188826 0.12515046 -0.106281385 0.014723518 -0.06172029 -0.031480227 -0.023775907 -0.08090506 0.046125587 0.030344777 -0.050282467 0.00584456 -0.048737567 0.053758282 0.013757227 -0.019720253 0.01869503 0.08262074 -0.17357183 -0.05743553 -0.092088036 0.14156634 -0.015186849 -0.01175342 0.13995549 0.17399973 0.077977724 -0.014324417 0.081319585 -0.029770477 0.016832279 -0.0109726675 0.05749407 0.08073133 -0.16342393 0.1358036 0.09500907 -0.08652936 0.0914037 -0.09426873 -0.112624876 0.022765763 -0.023411097 -0.11753359 0.065719 0.06231122 0.21864107 -0.058863327 0.032982312 0.083365105 -0.09878074 -0.06279082 0.080122866 0.13756758 0.06557581 0.13310882 -0.085534565 -0.074794166 -0.056089263 -0.13907517 0.04527661 0.09014364 0.017910138 0.020740226 0.025943529 -0.049216438 -0.16516618 -0.021875732 0.024226671 -0.21900149 0.15786384 -0.08656106 0.17148864 0.06968997 -0.004609915 0.18451837 0.13707475 0.12818106 0.08707851 0.06964335 -0.011508463 0.18430571 -0.0903366 -0.06748777 -0.12784669 0.20944718 0.0047573587 0.14853029 0.18263292 -0.15651844 0.049056374 -0.014479091 -0.07213207 0.11320518 -0.039555803 -0.19926327 -0.07195042 -0.12794647 -0.09145699 0.029797757 -0.2123519 0.25174052 -0.06152829 -0.037848864 0.0414927 -0.02319461 0.07446025 0.061882913 0.07526402 -0.059597965 -0.09463954 -0.06518177 -0.20268089 0.09034118 0.07846054
267 -0.078698285 0.054547712 0.007452433 0.18498823 -0.05886636 -0.013055476 0.03397504 0.053589568 0.19872017 0.06338681 -0.07617261 0.008286823 0.028502092 0.004657321 0.07461942 -0.08760857 -0.047586106 -0.09981911 -0.037589833 -0.07152086 -0.15859014 0.12477054 -0.0040804776 -0.19000672 0.066077836 0.12726218 0.030416088 -0.09990631 0.12993056 0.12143212 0.0033000032 -0.21981078 -0.036735285 -0.09182712 -0.02636444 -0.010299588 -0.0055949357 0.01058298 0.017617157 0.050494738 -0.08786234 -0.043059457 -0.1466266 -0.050652806 0.1540889 -0.11069251 0.040826652 0.015705293 0.20250961 0.049228795 0.00016715458 -0.019884456 -0.11553343 0.0840573 -0.08537261 0.0091354875 0.042642146 0.15665013 0.23694569 0.07950293 0.009570554 0.15846917 0.14166729 -0.21833275 -0.17005353 0.09855613 0.08917847 -0.09178975 -0.087308414 0.05901219 -0.024759727 -0.07134016 -0.15432219 0.1116712 0.09414816 0.15686576 0.05363331 -0.027548792 0.00068434415 -0.16864261 -0.12858903 -0.0062353164 -0.11578126 0.07073264 -0.07117773 0.18899654 0.0019261398 -0.0395294 -0.05662758 -0.0032942626 0.027208999 -0.027159408 -0.056943666 -0.055613417 0.19218783 0.04108556 -0.027797695 0.066062644 0.11245356 0.063694045 -0.011007367 0.09324531 -0.1691799 -0.026740815 0.10252099 0.07696006 -0.09753538 0.044626527 -0.12872392 -0.14654711 -0.11582968 -0.10880593 0.028865479 -0.14203787 0.19673786 -0.046896525 -0.004797872 -0.13537872 0.006995707 0.10702404 0.05528721 0.14163642 -0.049182247 -0.09467416 -0.02780652 -0.050452117 0.008942277 0.08540947
629 -0.03771264 0.04169309 0.09363796 0.12523952 0.06714735 -0.09454698 -0.059556495 0.017980386 0.008675987 -0.07313068 -0.10095773 0.04828109 0.034797017 0.047183264 0.114802964 -0.06408128 0.028222023 -0.04817067 -0.09131995 -0.22716875 -0.09332046 0.059026126 0.047688935 -0.08264362 -0.10603831 -0.027071126 0.0138923 -0.12907262 -0.015006326 0.08102663 -0.039594945 -0.17278872 -0.09162794 -0.16937152 -0.019026153 -0.05214408 -0.04911831 0.06544897 0.18234208 0.0375767 -0.007940296 -0.10711482 -0.029953605 -0.023655817 0.0075567868 -0.1333251 -0.023066072 -0.13768819 0.12234622 -0.04936034 -0.121400446 -0.004948028 -0.15880373 -0.047394153 -0.043536667 0.05952107 -0.12224025 0.10793622 0.19546111 0.06790254 0.07294568 0.09373884 -0.021103052 -0.042486526 -0.028603029 0.12856069 0.07586292 -0.06570567 0.036518477 0.090315044 0.007189022 0.04619768 -0.17355266 0.15265125 0.06397255 0.0475022 -0.044643994 -0.06743815 -0.0020213432 -0.11707164 -0.09965071 0.058084827 -0.11825265 0.017577183 -0.16006802 0.14508998 0.0910398 -0.20127472 0.07110901 -0.019167053 0.100934304 -0.019490348 0.04329118 -0.1317658 0.14545797 0.1295728 -0.18649969 -0.0800481 0.067877136 -0.014213828 -0.013387276 0.020207183 -0.102476105 0.08421439 -0.14669085 0.2075669 -0.05887947 -0.028834995 -0.060611006 -0.10525424 0.006508333 -0.18371649 -0.09839944 -0.053106118 0.20425855 0.022503149 -0.074558266 -0.07496987 0.011810827 0.11839139 -0.008394544 0.0814365 -0.027365748 0.018358398 -0.005966807 0.024749247 0.0010812895 0.076074995
15 -0.060996678 0.086884506 -0.0009837311 -0.056060363 0.012696437 0.13329312 0.06547842 0.10500141 0.018921915 5.417449e-06 -0.27265242 0.047387734 -0.05852554 -0.07290922 0.13165985 -0.008746553 -0.07988738 -0.005594691 0.05713631 -0.14793304 0.10446533 0.13268381 -0.04777597 -0.14883739 -0.0036472895 -0.014962593 -0.14004256 -0.024401229 -0.027514238 -0.08279177 0.07003323 -0.09491205 -0.18057549 -0.063121215 0.091722935 0.02270759 0.014244119 -0.0023713117 0.17761071 0.019063836 0.14949563 0.07765498 -0.08810728 0.16451189 -0.05282103 0.016586399 -0.07780828 -0.123711154 0.059160408 0.15322934 -0.057091746 0.0299133 -0.2419628 -0.09056507 -0.010555181 0.05514601 -0.0554545 0.12016153 0.093942806 0.124708086 -0.048008434 -0.08003965 0.09553309 -0.14617757 -0.10569236 0.11426727 0.13792895 0.06429385 0.072989605 -0.035464846 -0.12617722 0.10598125 -0.01890339 0.07845043 0.056472003 0.057317637 0.031597733 0.09415853 0.05806403 -0.08711795 -0.016911112 0.020401169 -0.06918503 0.125938 -0.17259705 0.11091355 0.18928654 -0.21324557 0.029513331 0.17509565 0.040689178 -0.041943245 0.028441487 -0.06213703 0.17694238 -0.01880017 -0.045460958 -0.14321855 0.18557237 0.009775169 0.20503846 0.13170263 -0.24807143 -0.005193117 -0.025071444 0.01406617 0.05016409 -0.0982372 -0.074831456 -0.084579885 -0.16010901 -0.26823747 -0.02021931 -0.21438229 0.1603288 0.028240126 -0.01192644 0.025369871 0.04208372 0.17822494 -0.06672168 0.0136017045 -0.05779195 -0.18229961 -0.01930377 -0.16241482 0.03743088 0.03662558
840 -0.020009669 -0.03953203 0.08218917 0.19530074 0.055292886 -0.02437845 0.065164514 0.0862192 0.109637246 0.06089701 -0.06425411 0.030525127 0.0007778706 0.03810564 0.06786671 -0.029390724 -0.14312847 0.025955679 0.022721412 -0.17925702 0.004843795 0.058155328 -3.0523184e-05 0.066969566 -0.11157759 0.06481435 0.09955445 -0.033002816 0.11027846 0.043414336 -0.07063849 -0.28557536 0.0030411682 -0.18723296 0.00820752 -0.1418572 0.03165322 0.09221684 0.115824476 0.08605815 -0.07345738 -0.07063584 -0.051430482 0.06402846 0.014452808 -0.12463285 0.030061437 0.01139072 0.082374945 0.10851664 -0.103788525 0.1659595 -0.08263731 -0.004059894 -0.06441969 -0.000490385 -0.06478738 0.17629714 0.054978926 0.19654381 -0.03267403 0.12240935 0.0697518 -0.03137776 -0.07727451 0.14696333 0.23032759 0.042442378 -0.036873005 0.009054261 -0.034416903 0.008039089 -0.1840438 0.017083846 -0.007057912 0.044841785 0.13921733 -0.058533985 0.072021 -0.09562901 -0.0899752 -0.023318928 0.067762665 0.03156701 -0.14960332 0.11985353 0.069609985 -0.13371441 -0.0038703452 0.08545208 0.17186822 0.018274311 -0.13533044 -0.1031009 0.06233404 0.21984638 -0.08879822 -0.0060115424 0.12813231 0.08034062 -0.0018284485 0.08331043 -0.046291523 0.014202107 -0.06537573 0.03667949 -0.1906965 0.0029124748 0.041401755 -0.07420312 -0.05125686 -0.12921283 0.03640467 -0.09534222 0.14239766 -0.07249041 0.064716145 -0.035403986 0.049871117 0.05224212 0.012606901 0.23698786 0.05362672 -0.06067881 -0.15614268 -0.10695885 0.0582709 0.1491207
485 -0.30037072 0.9631766 0.28536823 -0.47245768 -1.0807269 1.3979065 1.1001505 0.7841488 0.03538129 0.059098512 -0.7965566 1.1399066 -0.6631434 -0.0053816163 0.073555306 -0.2810803 0.46608436 -0.49582532 -0.66681784 0.49408776 -0.29025635 1.4244498 -0.27498755 -0.0893534 -0.10896035 0.36168242 0.70935047 -0.36033177 -0.83794457 -0.83328396 0.4648547 0.551235 0.03309238 -0.9853902 -0.15448664 -0.19440778 -0.1639775 0.752276 1.7681323 0.08316456 0.110410444 2.225105 0.091840096 0.4602582 -0.49975178 0.035742395 -0.58149475 -0.32861117 0.5739623 -0.09263089 -0.51849 0.41026536 -0.23775157 -0.67981213 0.50009036 -0.34175834 -0.14988394 -1.4505385 1.0978233 0.9262572 0.98305184 0.962742 -0.43233296 -0.5144006 0.47746247 0.8676933 1.2924199 0.15111239 -1.4213147 0.7980056 -0.12359407 0.30367488 -0.34604344 0.17006469 1.2811558 1.5505214 -1.0760262 1.0860019 -0.1302218 -0.09970754 0.8890338 -0.30967808 0.49231082 -0.26453632 0.13000011 0.031257197 0.15895216 -0.4399404 0.64947194 0.28527117 -1.3431093 -0.91902184 0.2170402 0.22745234 1.104605 -0.27076012 -0.36499423 0.32560614 0.49963322 0.9139184 -0.18076035 0.8005271 0.8364015 -0.5965359 0.11610297 -0.9317516 -1.8816739 -0.33191445 -0.9066066 0.8272952 0.2798591 -0.4880999 -0.29408666 0.2618537 -0.47179487 -0.7312618 0.19504657 -1.1909 0.18488233 1.5255486 0.46154267 0.8671369 0.9006871 -0.14799237 -0.6173421 -0.5975558 0.80259246 0.2612866
867 -0.17546172 0.756333 0.2238561 -0.5125885 -0.92234296 1.6293272 1.2630256 0.5961181 0.018852564 0.15019283 -0.90957606 1.1502675 -0.3487636 0.1955223 0.40471712 -0.45764178 0.22014388 -0.22463697 -0.71750474 0.627502 -0.31458104 1.4464688 -0.2721495 -0.07631272 0.048231058 0.47400725 0.7272313 -0.3844193 -0.7266345 -0.52222854 0.2945936 0.5178595 0.09215821 -0.9749199 -0.31095666 0.12292818 -0.2549935 0.69206274 1.6670816 0.25804505 0.18455261 2.1788194 0.6081481 0.31703085 -0.3556074 0.060252473 -0.4616879 -0.4896702 0.5798997 -0.15387921 -0.72045314 0.41888794 -0.37482664 -0.598515 0.34256148 -0.5730585 0.028542656 -1.5067724 1.2579445 0.8764599 1.0924547 0.9708733 -0.50054127 -0.86748123 0.5783594 0.9746605 1.4084266 0.2882212 -1.3084841 0.72682846 0.14883357 0.3044361 -0.16113447 0.23105453 1.10267 1.4921805 -1.3273649 1.3324621 -0.36084282 -0.014274141 0.90047294 -0.23434326 0.15261084 -0.34534922 0.18114258 0.06880294 -0.17627333 -0.36525455 0.6550834 0.3674022 -0.9655367 -0.77738446 0.115664795 0.17393439 1.0001364 -0.30003652 -0.4762287 0.43927518 0.45672825 0.7954041 -0.30360398 1.0310981 0.5159052 -0.7466069 -0.049705897 -1.0658063 -1.847289 -0.36983806 -1.1203319 0.7903348 0.3302299 -0.39893726 -0.04085066 0.421354 -0.5479911 -0.8662692 0.14577636 -1.0677685 0.105936654 1.3627894 0.3982167 0.7020474 0.641587 -0.0945616 -0.7076508 -0.5495876 1.1200334 0.16592535
374 -0.34556168 0.22217263 0.21215838 -0.22989897 -1.4316155 1.272481 1.2273904 0.37512282 0.49383456 0.18041894 -1.112095 1.3541287 -0.62537825 0.3284232 -0.07530605 -0.17261328 0.4485342 0.049153842 -0.41831788 0.7637871 -0.0919964 0.4502498 -0.009072486 0.056525316 -0.22546516 0.38893142 0.31342238 -0.15715821 -0.1367389 -0.3208628 0.27024886 0.45865318 0.14904551 -1.1356201 -0.21945226 0.2606066 -0.29243106 0.8488848 1.6728216 0.2470325 -0.08662844 2.1899478 0.46267876 0.50913775 -0.4214966 -0.056798067 -0.76364464 -0.27502584 0.16331899 -0.3434128 -0.4452385 0.49254602 -0.5245543 -0.7313993 0.57291234 -0.16339974 0.24857254 -0.7274304 0.7282454 0.59567344 1.0144607 1.3720375 -0.35896704 -0.2231484 0.36972702 1.1750828 1.366911 -0.6001348 -1.0749687 1.0122706 -0.31525758 0.23375863 0.089969166 -0.11790425 1.807582 1.7951044 -1.0716944 1.0939573 -0.36465368 -0.8785348 1.5421135 -0.041357998 0.14901021 -1.0645418 0.13300218 -0.012565253 0.74526644 -0.85196143 0.044328723 0.32861748 -0.71694475 -1.3263369 0.4218446 -0.5497363 1.1762149 -0.46888125 -0.29018047 0.5517955 0.58263975 0.8902216 -0.17802396 1.0439012 1.2640053 -0.6214769 0.015886573 -0.7057431 -1.1461748 -0.024913918 -1.442283 0.90893215 0.13594642 -0.25135982 -0.83236694 0.32763946 -0.40719873 -1.1605248 0.4756904 -1.0605277 -0.0700677 1.0971833 0.08144082 0.09517837 1.3984073 -0.51650196 -1.2654423 -0.48885286 0.7344813 0.6526472
268 -0.16532427 0.9271534 0.14822303 -0.36885148 -1.0457468 1.471363 0.8115808 0.92056936 0.23445311 0.051540706 -1.4968207 1.204352 -0.44975933 0.06350856 -0.08793117 -0.67900866 0.63730437 0.068692744 -0.1337209 1.1882392 -0.60713106 0.8477844 -0.2776763 -0.18774718 -0.09138076 0.15084562 0.65060693 -0.49660757 -0.31581518 -0.7229735 0.237702 0.3303482 -0.021038236 -0.648799 0.15171425 -0.18204376 -0.54542685 0.850708 1.5002651 0.019537512 -0.017257024 1.7002954 -0.10518778 0.3452464 -0.5429621 -0.54025763 -0.9998596 -0.60902685 0.45347193 -0.8111008 -0.65219927 0.4687431 -0.69681275 -0.76694095 0.2636169 -0.66143435 0.46208212 -1.0497423 0.7838322 0.9065011 0.43230128 0.78370386 -0.51096064 -0.30996752 0.24285433 1.3525764 1.3069258 -0.29777476 -0.99387735 1.0239273 0.008795496 0.06455879 0.22717093 0.1220439 1.2892988 1.5305085 -1.2074693 1.3948563 -0.19415887 -0.2530678 1.415705 -0.10026958 -0.19312935 -0.18622434 -0.038210645 0.18731059 0.42696792 -0.8445208 0.070428155 0.021460248 -0.91966903 -1.1973233 0.60195583 0.020230323 1.2104577 -0.31653276 -0.29855517 0.46179336 0.66164666 0.5429174 -0.55918133 1.240624 0.9909086 -0.5157552 0.049105953 -0.9747487 -1.5803457 -0.21088986 -1.2029114 1.1374067 0.20338182 -0.7564339 -0.38261175 0.45868784 -0.48964944 -1.1067652 0.16253893 -1.238302 -0.50472736 0.80512834 0.4329492 0.46644333 1.0424659 -0.29639584 -0.9454323 -0.7393521 0.98678374 0.5788481
958 -0.2513682 0.75921625 -0.5320477 -0.17094237 -0.11806238 -0.1188374 0.23233482 0.18065102 0.32169485 -0.16867326 -0.012006683 0.13337328 -0.2451306 0.5020565 0.3476411 0.31106213 0.46545035 0.41774604 -0.39796865 -0.29297587 -0.34903848 -0.051414754 -0.021576652 -0.3111699 -0.44158584 -0.118749365 -0.010427905 0.049816146 0.0015766631 0.08525722 0.32161668 0.26304826 -0.4436165 -0.3099184 0.7644784 -0.62801147 -0.5461578 -0.22966288 -0.19900556 -0.067412585 -0.11442877 -0.10837753 -0.13212879 -0.20571434 -0.09030697 -0.2201669 -0.22866058 -0.05561058 0.31690088 -0.084768996 0.11345785 -0.21173196 0.0063721477 -0.35052943 0.40611345 -0.4974735 -0.21983892 -0.52486265 -0.13146794 0.15340061 -0.07782774 0.2082397 0.84978986 -0.42510474 -0.24030909 -0.18202032 0.41139743 -0.6565233 -0.5679643 -0.20172298 0.10945207 -0.2938261 -0.4151715 0.060105287 -0.13061664 -0.01764595 -0.7050807 0.3045868 0.5271693 -0.28260893 -0.092775226 0.05464071 0.24916638 0.41004616 -0.33079132 0.13187456 -0.20264058 -0.27736637 -0.11648378 -0.054329384 -0.13243221 -0.10243489 0.47437862 0.13306044 -0.035823565 0.121598564 0.076206826 0.37620685 0.09872469 0.13292788 -0.14767253 0.67191267 -0.18144618 -0.17813672 0.039726425 0.52191365 -0.40745205 -0.33424613 0.28062633 0.19817913 0.3500914 -0.7659015 0.6464634 0.40170068 0.17940259 -0.07743489 0.18304755 -0.09458652 0.3452009 0.13351452 0.40410244 0.25155646 -0.11852951 -0.23885433 -0.1401206 -0.22330582 -0.040219523 -0.1572582
66 -0.0009947204 0.08258402 0.03864927 0.25262213 -0.042066894 -0.0026756702 0.07917752 -0.02861126 -0.0702275 0.13562992 -0.1732715 0.12655783 -0.014456761 0.06169027 0.11580444 -0.109239615 0.003583819 0.074805744 0.026449608 -0.16075 -0.060759548 0.03200625 -0.17473656 -0.07471827 -0.082718864 -0.09306336 -0.026574714 0.049706005 0.055355135 0.090003215 0.09203005 -0.10623109 -0.0932709 0.056037705 0.033889808 -0.07724192 -0.03980044 0.1717563 0.10556978 0.06834438 -0.07152343 -0.114060044 0.009654458 0.03691338 -0.001051006 0.042745274 -0.09143525 0.033965655 0.14925689 0.17176852 -0.06166568 -0.0528863 -0.03850705 0.00064894446 -0.03236351 0.1437055 -0.03898931 0.1223076 0.12452433 0.058769334 -0.0655719 0.012676278 0.2851209 -0.21225782 0.052944317 0.056332152 0.051294804 -0.05443851 -0.090135805 0.10857209 0.1126964 0.030878788 0.0034360194 0.041010972 0.106724255 0.09203088 -0.051205367 -0.09151916 0.022697074 -0.033493277 -0.18625858 -0.04849046 0.11622752 0.054829784 0.089353524 0.10713615 -0.0027655496 -0.01876642 -0.033439375 0.06258018 0.006668669 -0.030051976 0.003910126 0.05829957 0.042762958 0.10842946 0.11501643 0.0072999303 0.22112362 0.004704295 0.13012353 0.08956222 -0.083623484 0.040265273 -0.05120049 0.100594886 -0.18296139 0.039171763 -0.057270616 -0.116562985 -0.08997168 -0.04486931 -0.0170072 0.021014683 -0.07360159 0.0044629755 0.047737513 0.01696969 0.1864254 0.13762052 0.12497672 0.039196607 0.12045578 -0.1981765 -0.14125003 -0.10021101 -0.14869507 0.0838206
24 -0.07951291 0.01376414 0.018079199 0.17749205 0.018084291 0.12336277 0.12726729 0.037537843 0.02308351 -0.025586724 -0.14471243 0.026588958 -0.038642548 -0.06491319 -0.0054371664 0.0027889824 0.042759486 0.008057291 0.0008941679 -0.09895187 0.0075034555 0.047391105 0.12978832 -0.119538896 -0.07303507 -0.04221602 -0.09656254 -0.16877301 -0.0807363 -0.026552694 0.11427292 -0.13345487 -0.07246679 -0.10285475 -0.11320777 -0.13037337 0.03116512 -0.08344824 0.078508995 -0.0028069972 0.12627316 -0.117158554 -0.023500659 0.050355725 -0.08397449 -0.11057067 -0.009671497 -0.05938569 0.035587993 -0.06567136 -0.1359219 -0.12764013 0.00039779537 -0.041150007 0.009503573 0.21340396 -0.19157629 0.087614805 0.2606549 0.1183696 -0.0049941516 -0.1260908 0.18042028 -0.20000286 -0.0067364783 -0.010486053 0.017681519 -0.11731014 -0.0074067293 0.1419834 0.0057580452 0.092607364 0.08312078 0.10047893 0.11318507 0.050136708 0.015482394 -0.029492568 -0.015280119 -0.05357056 0.009256293 0.0009270374 -0.008389514 0.048436742 -0.16084197 0.14997907 0.10970519 -0.20573461 -0.04431828 0.029834779 0.071257465 0.071811244 0.042174347 -0.1894339 0.10897543 0.07885872 -0.13541241 -0.08705394 0.006181505 0.027443262 -0.006352519 0.15186937 -0.14775327 0.1243012 -0.14051649 0.16314283 -0.08866388 -0.14973675 -0.024115091 0.052912124 0.03060636 -0.32551068 -0.17799976 0.013813526 0.17068899 0.16031185 -0.004121818 -0.07645409 -0.038332395 0.04806938 -0.021754865 0.15697251 0.02624971 -0.013178263 -0.15833169 0.07689277 -0.14301993 0.0030439757
772 0.0634473 0.025261039 0.054105606 0.25059134 -0.07923794 -0.02577267 0.03616223 -0.049552217 -0.11282473 0.088982254 -0.049142294 0.11721596 -0.040138032 0.11913803 0.14143996 -0.12820573 0.014543421 0.0066060033 -0.19952706 -0.08707731 -0.114511944 -0.0060112257 0.024349738 0.05346988 -0.08610645 -0.050973102 0.03650361 -0.05619699 0.12386372 0.13381128 0.086438775 -0.17453638 -0.07325478 -0.06790741 -0.0037441673 -0.13452643 -0.05818144 0.24000883 0.20168698 0.13548724 -0.021002831 -0.13325931 -0.028754193 -0.033139184 -0.03623843 -0.010927243 -0.07666417 -0.0028401427 0.08819588 0.019848753 -0.025752049 -0.04707924 -0.09242089 -0.03865693 -0.10279989 0.091227464 0.024180047 -0.014081087 0.18938752 0.059939317 -0.0008248339 -0.02714412 0.2554155 -0.054268956 0.0987329 0.07821736 0.09595907 -0.12680659 -0.06452938 0.08378562 0.058289208 -0.0038568592 -0.05771215 0.20376356 0.011930278 -0.0144375805 -0.09633499 -0.13510226 0.08031697 -0.062433176 -0.18598942 -0.037137505 -0.034918897 0.03980197 -0.035451233 0.1334709 0.08767995 -0.056855094 -0.053933103 0.021167919 -0.025381787 0.016655842 0.035414726 0.10363418 0.029439194 0.2593606 0.13409196 -0.038327944 0.11263495 0.014173859 0.016516274 0.009753285 -0.04765999 0.07933349 -0.08620752 0.13584957 -0.19187906 0.034602445 -0.17029938 -0.022103477 -0.067451105 -0.058749825 0.0138387345 0.014350808 0.06742153 0.07721789 0.17960612 -0.033431496 -0.00085593446 0.038631804 0.24802925 0.0060926443 0.0738303 0.03047996 -0.19100894 -0.0686511 -0.16659573 -0.0041791364
82 -0.08997981 0.04873242 0.07516595 0.15700258 -0.022459319 0.12356401 0.053462252 0.1074605 0.092766486 -0.057922207 -0.14916691 0.043888554 -0.02162328 -0.0046758177 -0.019938137 -0.01259231 0.013255886 0.033810977 0.05160853 -0.2265632 -0.02142901 0.07595959 0.010391363 -0.08509429 -0.018014483 -0.027655875 -0.043749057 -0.123349056 -0.08758133 -0.071348704 0.028751703 -0.15693516 -0.0514263 0.00064389856 -0.04923619 -0.06119263 -0.011302991 -0.061813563 0.090574734 -0.14981215 0.074080445 -0.062889144 -0.053734772 0.08479305 -0.00030608103 -0.04985897 -0.07677613 -0.036550093 0.017349632 0.01385574 -0.11938811 -0.03690926 -0.11216933 -0.024674606 -0.075643145 0.075629905 -0.12804925 0.15427834 0.17430708 0.061073735 0.013216644 -0.06891151 0.15023433 -0.24716014 0.03588605 0.04222888 -0.004686728 -0.10055743 -0.023072094 0.086891055 0.009928126 0.11488498 0.060084894 0.08053393 0.08876102 0.18334956 0.12974244 0.0799862 -0.044814188 -0.119302586 -0.0945896 -0.05866654 0.029097345 0.08198516 -0.17962326 0.12804587 0.13087049 -0.18071567 0.010200531 0.12163964 0.096011415 0.052233923 -0.088994354 -0.11283821 -0.025642918 -0.001802346 -0.04769526 -0.06387368 -0.012206629 0.023007544 0.020708865 0.16103011 -0.07883044 0.10223932 -0.06565773 0.027774405 -0.11276035 -0.062035743 -0.036810443 0.0071934285 -0.033534028 -0.25246438 -0.10072253 -0.10679585 0.112346314 0.028304089 0.058443226 -0.0683656 0.032799456 0.13931784 -0.032906186 0.17479135 0.022774268 -0.15821323 -0.18689884 0.022903375 -0.09351859 0.088889435
174 -0.069707885 0.12358154 0.045093093 0.058068223 -0.03382311 0.010125125 0.11230541 0.053154834 0.16892265 -0.027970782 -0.18511076 0.052240692 -0.05792677 -0.057054322 0.15090156 0.043229513 -0.067184746 -0.10937045 0.014394731 0.08703258 -0.10361098 0.01885286 0.07828721 -0.11577562 0.07052094 -0.02870299 0.028395545 -0.07521611 0.00014895773 0.021774871 -0.003960442 -0.22433454 -0.15566184 -0.13895057 -0.03682141 -0.10963857 0.081786685 -0.038002923 0.13830917 0.09362714 0.015599182 0.07498359 -0.09375766 -0.06378846 0.0067670383 0.038428124 0.026772054 -0.1879856 0.083953604 0.043021247 -0.06978144 0.12144224 -0.15141946 -0.07881883 -0.015504564 -0.02546031 -0.17039275 0.08706869 0.16100428 0.17517664 -0.09046906 0.09537491 0.11265542 -0.12460284 -0.09717995 0.03759799 0.2288887 0.1587055 0.07008903 -0.1606544 -0.0810876 -0.02081769 -0.14834622 0.0015151736 0.10415762 0.053447485 -0.0069524413 0.05953185 0.027843326 -0.08521509 -0.01969525 -0.021568315 -0.19224711 0.08554957 -0.24605195 0.13204567 0.15139163 -0.008788179 0.11885635 0.22188555 0.045977965 0.04346382 0.039624915 -0.03381868 0.32260615 0.034122013 -0.015876332 0.025822463 0.14226612 -0.03553264 0.11258926 0.12556717 -0.09526009 -0.036489177 0.1081036 0.013239019 0.16272928 -0.13788156 -0.16251928 -0.08914418 -0.103444494 -0.16991928 -0.025680186 -0.23462902 0.28143573 -0.07345116 -0.091057636 0.026176007 0.005825132 0.12349674 0.033801075 0.15593188 -0.12804303 -0.01987064 -0.060675997 -0.047067102 0.09415945 0.10063983
551 -0.08615066 0.05817735 0.20184621 0.27106616 0.23139648 -0.10533943 -0.17165919 0.063756056 0.11314611 -0.043378636 -0.124748394 0.15934356 0.09881142 0.08370132 0.10565625 -0.012899527 -0.07310297 0.05939298 0.044745415 -0.102840565 0.0066185575 0.035271868 -0.024421703 -0.022499673 0.004223904 -0.0373868 -0.14717953 -0.14165278 0.13825987 -0.035658635 0.10417253 -0.25431922 0.030274404 -0.2789841 0.17488822 -0.14713155 0.014354244 0.10449613 0.04529188 0.083322674 -0.077015236 -0.017379304 0.010696175 0.051825702 -0.08508488 0.0009188737 -0.11158878 -0.05912174 0.19228281 0.28039363 -0.029262884 0.11087308 0.08374266 0.07431839 0.07542794 5.260881e-06 0.05951328 0.042837948 0.015495997 0.060753733 -0.030340508 0.16392459 -0.06356435 -0.07200213 0.012842389 0.1932248 0.22082536 -0.012686068 0.16671336 -0.088946216 -0.106189035 0.20504965 -0.17264171 0.028501784 -0.0010394362 0.052143417 0.096403725 0.012848507 -0.022900235 -0.059747085 -0.07527771 0.07097751 -0.033909436 0.037462898 -0.031669125 0.13092229 0.056331433 -0.08511487 0.113012016 0.073378034 0.07830775 -0.0049486626 -0.082217075 -0.052658945 -0.08688052 0.03888052 -0.034924466 -0.06965716 0.10414959 0.08324521 -0.05467293 0.16534358 -0.12020072 0.24042064 -0.012343666 0.0009932632 -0.17172939 0.07057446 -0.17631106 -0.09100388 -0.053999294 -0.1965221 0.20149672 -0.061815493 -0.08294159 0.034850392 0.17185739 -0.019850573 0.07865777 -0.049958427 0.079269394 0.12130005 0.15220933 0.008528539 -0.17361234 -0.13001783 0.024022551 0.023597004
510 0.021729078 0.18191034 0.05430155 0.07122671 -0.00085432903 -0.112574175 -0.012058923 -0.007844397 0.032070808 -0.03882281 -0.14317212 0.0015979449 -0.023755915 -0.042834435 0.122314245 -0.14091139 -0.093933016 -0.090172306 -0.09527727 0.0061653503 0.015713057 0.058922328 0.058770522 -0.071744256 -0.09090636 -0.060796276 -0.048056807 -0.044788707 -0.07368661 0.06532926 0.11444814 -0.15914895 -0.08434081 -0.19608293 0.043830194 -0.078639604 -0.013720995 0.08076996 0.2951762 0.18436114 0.025640776 0.06011527 0.035046995 -0.0377099 -0.072503135 -0.03487973 0.058920994 -0.24887142 0.16153267 -0.10807381 0.023092424 0.039753348 -0.016955532 -0.15950102 -0.060916923 0.052487396 -0.1481704 -0.037421945 0.13484436 0.21321166 -0.061915535 0.051545434 0.1307958 -0.039621394 -0.11586533 0.035325322 0.15367068 0.0892705 0.13308871 -0.116514914 -0.05582704 0.03530526 -0.26752278 0.099936314 0.07223211 -0.020392144 -0.15907384 -0.0823941 -0.10788063 -0.097040884 0.023212777 0.059022095 -0.13975184 0.16260989 -0.13464224 0.23088416 0.09923189 -0.092119835 0.11296101 0.060595218 0.092682526 -0.04042515 0.32309386 -0.052378684 0.24013777 0.018252404 -0.11048486 -0.18109018 0.18837212 -0.032909498 0.09236776 0.08041285 -0.21954998 0.0077060433 -0.022427319 0.06569431 0.081686966 -0.05358106 -0.18987392 -0.001315677 -0.03242449 -0.17955497 -0.11099109 -0.1698763 0.25382626 0.053435616 -0.08427433 0.037859906 -0.06312815 0.17173834 -0.0823316 -0.052524272 -0.051293712 0.00841747 -0.05056876 -0.09587792 0.057142634 0.048191182
699 -0.13987188 -0.018475512 0.03625317 0.122775 0.029859297 0.053541042 -0.06426081 0.090370394 0.12781224 -0.02469297 -0.019784236 0.054336134 -0.017514776 -0.0037818935 0.101122685 0.04038939 -0.02585757 -0.042770457 -0.032451943 -0.19257782 -0.11645074 0.045091398 0.008176875 -0.13327533 -0.08477331 -0.06499129 0.07152058 -0.08913459 0.00829267 -0.0044146213 0.09011717 -0.15187435 -0.042753726 -0.097687274 0.018035654 -0.042308785 0.01946213 0.0042102933 0.082081415 -0.031740203 0.03638938 0.017702702 -0.02919266 -0.011208836 -0.0044737295 -0.12361119 0.040264092 -0.03645041 0.17487383 0.0035190678 -0.13588421 0.03290959 -0.17141655 -0.010968317 -0.014324564 -0.01272789 -0.10948749 0.14094463 0.12901236 0.11419996 0.033916775 0.015102104 0.03146356 -0.12988982 -0.044954967 0.12989542 0.15537515 -0.004173335 -0.011041983 0.0602298 -0.05193924 0.11948065 -0.03530539 0.124261245 0.08511313 0.14190286 0.14282604 0.078974575 0.03467721 -0.23156416 -0.13373516 -0.028676553 -0.071810424 0.04122873 -0.097390264 0.15992579 0.14381623 -0.14913262 0.09869776 0.050714467 0.043465585 0.029531393 -0.095613725 -0.20505962 0.026884126 0.014213568 -0.07892696 -0.014122018 0.036796927 -0.016509553 0.036374163 0.11505751 -0.10198034 0.10466673 -0.06067607 0.009032393 -0.08349435 0.08647691 0.014256542 -0.062703356 -0.054923814 -0.14703946 0.00095351634 -0.11316512 0.1865095 -0.014049516 0.03287472 -0.09878124 -0.0075091897 0.05544296 0.004768377 0.2282353 -0.011512461 -0.042850103 -0.002649601 -0.00030107377 0.038900983 0.13095118
296 -0.071753964 0.13296163 -0.0028195288 0.10210221 0.032094464 -0.001234102 -0.03797835 0.12130335 0.16030341 -0.018106531 -0.14361009 -0.0033168145 0.009359956 -0.12696776 0.018690772 -0.03613077 -0.034147635 0.09168137 -0.019996421 -0.15153274 -0.0048266603 -0.020078111 -0.019167582 -0.11548325 -0.021720052 -0.051734224 -0.06980435 -0.08561639 0.11182612 0.057197765 -0.072138876 -0.12915023 0.12929954 0.020265767 0.13712949 -0.097254 -0.08376176 0.09464731 0.13076597 0.06094415 0.06614168 0.0034156127 -0.15745701 0.021269882 0.040611226 -0.051918045 0.051607694 -0.06658143 0.15710808 -0.002940092 -0.10278401 0.034444686 0.013648946 -0.16955872 0.1005302 0.07581046 -0.03917276 0.17065547 0.14846534 0.119298585 -0.06550796 0.15951586 0.09492245 -0.2784165 -0.12786779 0.007632278 0.04029798 -0.06900828 0.10329999 0.040764123 0.06380938 0.051656704 -0.20357038 0.05360097 0.071754076 0.12548783 0.02836765 0.04996498 -0.07335346 -0.11559942 -0.1701309 0.05376486 -0.0022302463 0.026896035 -0.11717129 0.16425957 0.00066769397 -0.09956622 0.07086651 0.0665639 0.094317175 0.051775496 0.007550133 -0.0831962 0.084280044 -0.07568578 -0.109810725 -0.15043807 0.16905023 0.055480003 0.07160071 0.22075334 -0.15921582 -0.06275267 -0.046968527 0.101441324 -0.04019279 0.019430118 -0.16776715 -0.06858511 -0.09786015 -0.10071947 -0.09663706 -0.09031065 0.06961461 0.0019555192 0.034863938 -0.029782485 0.11536821 0.16289976 -0.14151557 0.095773496 0.059274036 -0.12424247 -0.03843436 -0.018901989 0.01742469 0.048806816
656 -0.008148825 0.15995824 0.018685114 0.05919063 0.017269278 -0.04102126 -0.03965287 0.0683482 -0.049700517 0.055159293 -0.012165733 0.03283487 0.11879999 0.07188639 0.091883786 0.041187342 -0.052554835 0.010317635 -0.031560026 -0.13490625 -0.04130771 0.019367462 -0.056934018 0.10878227 -0.08400607 -0.11597345 0.026825476 -0.06756282 0.08653857 0.012200886 -0.019632883 -0.16751137 0.080205955 0.023744494 0.057261493 -0.13905412 -0.0049672294 0.18022251 0.12381386 0.1308577 0.032079622 -0.012611182 -0.0036977262 0.036172967 0.023525879 0.06877885 -0.026904128 -0.0077596237 0.2645855 0.09447871 -0.12573622 0.1372794 -0.020976488 -0.17226344 0.10106425 -0.009959406 0.02701597 0.13840976 0.0631799 0.08040777 0.048708584 0.07253895 0.061963882 -0.08312358 -0.012150959 0.16157539 0.25595886 0.09473937 -0.03160668 -0.027394872 -0.07183882 0.020701356 -0.18990254 0.088683456 0.13283932 0.07989491 0.0145959 -0.037751053 0.030200522 -0.10220188 -0.25906515 0.02782619 -0.050501954 0.056977186 -0.040416133 0.09493651 -0.006434447 -0.11598325 0.11614842 0.12404275 0.15044264 0.0047601713 -0.07426788 -0.053900734 0.0046624257 0.1440161 -0.11140532 -0.022382386 0.1956293 -0.01755778 -0.056469396 0.2287387 -0.07051342 0.10228834 -0.11050603 0.04513469 -0.08306164 0.107093245 -0.11924523 -0.1235672 -0.068139955 0.04412229 0.04344198 -0.12362848 0.12018353 -0.038587548 0.123711236 -0.03157869 -0.007555814 -0.05953889 0.094402626 0.06572221 0.029637774 -0.087857716 -0.04812906 -0.16018775 0.024020089 0.08921773
12 -0.051718917 0.006042265 0.11817948 0.11622592 0.092118375 -0.0032027657 -0.069479816 -0.038429487 0.006416315 -0.050301895 0.027435096 -0.015995609 0.07879843 0.067878336 0.15876295 -0.02904929 -0.06438322 -0.12053495 -0.047269676 -0.28590304 -0.085864864 0.06494679 0.07487409 -0.16609977 -0.21387874 -0.006247526 0.0145742 -0.22826466 -0.04274462 0.0237193 0.12340917 -0.18804297 -0.06926642 -0.1484323 -0.1643154 -0.10994377 0.0077850935 0.09466198 0.15156914 -0.028363151 -0.021365976 0.0028974167 0.07572396 0.062260505 -0.10028132 -0.15537865 0.1102973 -0.05923503 0.11253917 0.024983324 -0.03359991 -0.027150236 -0.11575719 -0.08011387 0.023975782 0.098862045 -0.0861204 0.011897136 0.18980931 0.049026363 0.085212536 0.09178398 0.058265243 -0.021497961 -0.04821659 0.06863575 0.0918378 0.014268073 0.0054916716 0.07623544 -0.056384485 0.06873891 -0.08366758 0.1924387 0.056134053 0.07727927 -0.056543548 -0.04377629 -0.07842138 -0.14093222 0.020512968 0.011426415 -0.13418145 0.11156843 -0.13550347 0.17001155 0.11039959 -0.263558 0.07574335 0.04505886 0.07012612 -0.028940197 0.049241 -0.14364564 0.11888759 0.020539928 -0.10908312 -0.10996502 -0.011512835 0.0064030928 0.04843804 0.029894961 -0.11383121 0.23064913 -0.18257053 0.16742846 -0.055242643 0.04658201 -0.06637024 0.007183369 0.085187584 -0.19218218 -0.056358583 -0.056081206 0.17625974 0.0891662 -0.01117693 -0.19440047 -0.04785536 0.119638614 -0.114266336 0.19421771 -0.03454577 0.00625761 -0.07556088 0.026135698 -0.0770353 0.032255705
916 -0.15623504 0.041643392 -0.013717264 0.19300653 0.0918811 0.025628276 -0.049386993 0.071837254 0.07330522 -0.0970978 -0.063817486 0.0817495 -0.026429337 0.006165289 0.10828263 0.027913915 -0.02985684 -0.07941564 -0.008904692 -0.17764823 -0.0999894 0.01967078 0.025102336 -0.11047408 -0.11683823 -0.04355406 0.0440793 -0.10463688 0.017671257 -0.049631808 0.013630317 -0.13236968 0.011378111 -0.10367171 -0.006914384 -0.06166543 0.057280052 -0.039621398 0.06926263 -0.053751055 0.0046258923 0.022483697 -0.015674295 0.04470692 0.0058620037 -0.16066551 0.020328982 -0.057156257 0.195803 -0.013072189 -0.090620756 0.050723985 -0.16086616 -0.08476995 0.025706561 -0.003686088 -0.033372328 0.123494394 0.15661803 0.1239553 0.013134503 0.07717834 0.092987545 -0.14713429 -0.03686563 0.14901672 0.15472119 0.015163037 0.00498137 0.0056528584 -0.09335648 0.14803308 -0.036711287 0.11338341 0.11352296 0.14678815 0.12411987 0.013265379 0.03510326 -0.18632619 -0.07286655 -0.0664775 -0.09747494 0.10463409 -0.114176065 0.1360496 0.06520836 -0.058718387 0.082056165 0.09251573 0.0589405 0.06491889 -0.16251789 -0.09370169 0.06643021 0.012795405 -0.09084205 -0.037483204 -0.033014238 0.004379174 -0.009394755 0.10119642 -0.070814766 0.062000513 -0.02147139 0.07932956 -0.056580912 0.013128492 -0.03879605 -0.03634413 -0.06071509 -0.21771921 0.04293674 -0.19421601 0.2045972 0.035995945 0.0017873823 -0.06880253 0.026749616 0.04710829 0.0054492666 0.20073628 -0.0063202158 -0.06370711 -0.05256957 0.025250461 0.054198388 0.09791407
875 0.058409058 0.053389452 0.24081627 0.27660564 0.13065292 -0.069819786 0.12973 0.07888574 0.14011768 -0.06577632 -0.2992772 0.23581703 -0.021573002 0.025927953 0.10227835 -0.04492023 -0.096360445 0.012031102 0.071423866 0.10616339 0.043816824 0.18318938 0.027360164 -0.09220789 0.017492492 0.045017213 -0.24377164 -0.15568845 0.09472678 -0.05340414 0.10420655 -0.42626876 -0.25039572 -0.2428834 0.018143535 -0.17080843 -0.0012686881 -0.11809617 0.1608072 0.09184317 -0.13575056 -0.010323301 0.09639964 0.09024209 -0.016245503 0.03120327 -0.1987552 -0.12231227 0.006946303 0.22865556 0.021057155 0.25959536 -0.13550448 0.24765117 -0.04345492 0.03542082 -0.087628596 -0.08780905 0.00021455521 0.076297425 -0.16752395 0.0041262885 0.00912951 0.0004005305 0.005778808 0.13020387 0.17265466 0.14845209 -0.019819254 -0.10257151 -0.11298011 0.1030533 -0.044426527 -0.06568685 0.1549476 -0.06098688 0.100623034 -0.030219033 0.0744206 -0.0640829 0.20693216 0.065793596 -0.062124487 0.09717292 -0.13220412 0.001877392 0.17134061 -0.06303906 0.24081647 0.103174835 -0.00039994146 0.02997886 0.06911191 0.013755693 -0.0011461641 0.09740192 0.0034774505 -0.043624505 0.01946611 0.08638917 0.040521435 0.17497835 -0.061096065 0.264016 0.122689895 -0.013889009 -0.082459554 -0.11144853 -0.08833346 -0.032687314 -0.098738484 -0.22558889 0.06856703 -0.2240364 0.085451916 0.15747954 0.09297744 0.07267058 0.08831568 0.0639785 0.13907477 0.069378406 0.031242179 0.0029728096 -0.28879184 -0.051791653 0.08513598 -0.0013830131
216 -0.10658032 0.12677361 0.10879453 0.07836078 0.05283922 0.045563955 0.08493693 0.07027404 0.049466025 0.008722655 -0.044672377 0.019197758 -0.022950612 -0.033630278 0.14714716 -0.06047926 -0.100067884 -0.13470812 -0.005625477 -0.15200688 -0.15274468 0.046871852 -0.04820595 -0.03868331 -0.13891205 -0.016060716 0.100138366 -0.040209435 0.035140347 0.012748815 -0.08361797 -0.0865972 -0.108153895 0.0034713047 -0.012061979 -0.17489754 0.04503529 0.07705385 0.11299847 0.034812376 0.030196836 -0.026588494 -0.13230292 -0.030489573 0.03285155 -0.049459185 0.025848178 -0.06928914 0.18703958 -0.0018905818 -0.0936715 0.123405606 -0.18664014 -0.043858714 0.042945698 -0.058878433 -0.009601711 0.15491275 0.09076996 0.042185273 0.020217687 0.065781325 0.0028785777 -0.093836285 0.0036399213 0.16351958 0.22316554 0.026542878 -0.052667394 0.040646385 -0.09955269 -0.045042086 -0.02971507 0.110991 0.14283788 0.13946903 0.123681016 -0.049928743 0.014299627 -0.24220085 -0.14027832 0.046636403 -0.14392795 0.039171636 -0.03736557 0.11392593 0.027035607 -0.07589805 0.117143095 0.023665871 0.13894233 -0.043173548 -0.1764018 -0.13902731 0.09241719 0.099384606 -0.13437125 0.054236565 0.1507567 -0.030811977 0.05003133 0.122581795 -0.17383172 0.0037949483 -0.08357946 0.07684587 -0.03259737 0.07409606 -0.010975057 -0.14522716 -0.030632267 -0.05782147 -0.030948682 -0.12282713 0.18508811 -0.06701602 -0.046197727 -0.08421477 0.06325334 -0.013549883 0.1086913 0.15307678 -0.048249576 -0.06046527 0.007746531 -0.017777635 0.035039064 0.025596282
233 -0.10692015 0.008792564 -0.032086316 0.023513367 0.12713197 0.065873355 -0.04843484 0.06053654 0.11411705 0.025018664 -0.13292687 0.13278338 0.069274835 0.033852167 0.1526297 0.08726247 -0.047842175 0.05120442 0.13813254 -0.099938996 0.08185495 -0.0069459523 0.013317998 0.052166715 -0.0061109443 -0.069722846 -0.047135532 -0.032878663 0.00036136401 -0.104441404 0.009612509 -0.21561755 -0.018469334 -0.09304573 -0.05777869 0.014589743 0.0027113063 -0.07582522 -0.06753167 0.02979547 0.060773324 -0.043481994 -0.051334076 0.19672786 0.09186422 -0.040231176 -0.012950187 -0.055717144 0.12618572 0.20432058 -0.13261203 0.029942183 -0.049413282 -0.12932123 0.10933645 0.038558908 -0.11482745 0.19928768 0.23126195 0.0516193 0.015292616 -0.04361145 0.18916781 -0.08177139 -0.0064028176 0.09930446 0.11789552 -0.00037540618 -0.011156863 0.035738043 0.0031113627 0.042836122 -0.11059397 0.017947923 0.0123124365 0.11991571 0.07218112 0.010505044 0.067592576 -0.085119955 -0.110359386 -0.09809163 0.059785474 0.095344804 -0.15719406 0.11588139 0.11595338 -0.26533237 0.036449205 0.17882124 0.08454608 -0.05129567 -0.09946199 -0.17696644 0.080205515 0.1565896 -0.20798662 -0.0005587238 0.15991034 0.10239284 -0.023053396 0.24639523 -0.11305947 0.12222273 -0.085121 0.055467237 -0.09330803 0.036548443 -0.032685693 -0.18637936 0.063541226 -0.28788623 -0.1284616 -0.07114484 0.002438334 0.038317878 0.101307616 -0.09530131 0.18740357 0.08647341 -0.013439973 0.21969184 0.072907165 -0.110077195 -0.11582304 -0.04985537 -0.054074597 0.087067224
135 -0.43298465 -0.06939426 -0.17211068 0.8306997 -0.5496232 0.15131067 0.45209956 -0.0587255 0.85498625 0.17372376 -0.5829842 0.951687 0.28924304 0.09562806 0.3058695 -0.16470745 -0.08868444 0.27356103 0.10599875 0.11439835 -0.027608164 0.7376581 0.11845961 -0.6320481 0.28452814 0.25911885 -0.23046811 -0.10074816 0.3245581 -0.52123266 0.12897271 0.6155391 -0.97108275 -0.034293473 0.20582895 0.0641554 0.80155414 1.2330896 0.54763114 -0.6976222 0.122445434 -0.73676807 0.8408767 0.3691109 0.167791 0.5096238 -0.1550723 -0.08617092 0.64137805 0.0037974422 0.21708746 -0.8276817 0.08325623 0.3159434 0.22520973 -0.41121727 -0.52523994 -0.17711383 0.45547014 0.38200697 -0.08996977 0.019584179 0.22720058 0.5436165 -0.33156902 -0.1803812 0.49736986 -0.45600277 0.46347857 0.08028594 0.7605366 -0.062397093 -0.02272259 -0.17643978 0.8543574 -0.1729599 -0.6134083 0.5484715 0.27085087 -0.5040649 -0.50711685 -0.24120075 0.551726 0.13810945 -0.087993726 0.45841992 -0.23580188 -0.58419055 -0.53221995 -0.46570694 -0.38262412 -0.53569764 -1.2038532 -0.42514592 0.5727317 -0.23450609 0.68692005 0.30988637 -0.4516358 0.31490022 -0.97055215 0.60062873 -0.44844776 0.25505406 -0.4661301 0.5687992 -0.11645259 -0.023585552 -0.47618797 -0.67345726 0.093728535 0.41248545 0.4868864 -0.70503676 0.82295024 -0.021113127 -0.061582312 -0.35683164 0.4668678 0.9978105 0.9244366 -0.41000322 -0.22459617 0.9365473 -0.3180871 -0.070111685 -0.511505 -0.064954884
