1149 128
1119 -0.028037174 -0.22237685 -0.2463286 0.14736827 0.18171708 -0.25739032 -0.14527127 -0.05976235 -0.03891763 0.21884772 0.064571224 -0.19830558 0.23985668 0.3839244 -0.095347084 0.17397799 0.24834047 -0.05258564 -0.15055513 0.079575114 -0.029244302 0.029356958 -0.02329127 -0.20081222 0.18139909 0.31293485 -0.11996665 -0.047587246 0.1263871 0.08629192 -0.3397563 0.06642823 0.17518616 -0.22517137 -0.10146327 -0.033421364 -0.04844611 -0.12443497 -0.09235349 0.03799135 0.15984964 -0.06445525 0.026520375 0.043130968 0.1870664 -0.025576994 -0.06674032 0.13289617 0.10949441 -0.10360933 -0.11228738 -0.0023063126 -0.19701457 -0.14261033 0.13258737 -0.061497334 0.03742445 -0.10374178 0.09455143 -0.14206079 -0.12174446 -0.10666271 -0.0645444 -0.043742787 0.09364091 -0.14152712 0.04139884 -0.109061144 0.081533775 0.22100395 0.039755806 -0.052810952 0.08512367 0.24077085 -0.013945184 -0.030245371 -0.12997411 -0.28075963 0.08251171 0.096002355 -0.09399953 -0.05340751 -0.07720133 0.009964099 0.21370687 0.07792137 0.07800761 -0.04733243 0.111992255 -0.109572016 0.14855799 0.15309876 0.09242266 0.06809139 0.06002635 0.001246336 -0.24514984 -0.14943592 -0.110525906 0.2964296 -0.14230326 0.053053208 -0.08089712 -0.11408131 -0.13923737 0.1690157 0.24544223 -0.028023995 -0.16429575 0.012929765 0.012824822 0.042223945 0.0714908 -0.058823634 0.18046373 -0.03981724 -0.0010680349 0.124297455 -0.023584774 0.025379026 0.05762003 -0.21400067 0.10301234 -0.1532462 0.033204354 0.11313115 -0.14476134 0.003295075
1125 -0.080115706 -0.18910486 -0.039479066 0.009182999 0.36440465 0.048077825 0.27483258 0.09182692 -0.10066387 0.021166561 -0.061519958 0.009421783 -0.32443184 0.23497851 0.14110664 0.09783278 -0.018259322 -0.19534418 -0.14689443 -0.036972217 0.11253096 -0.113417074 0.1440754 0.13608488 0.34626946 0.17864501 0.04902205 0.002389281 -0.04700741 0.047048714 -0.10514431 -0.27338132 0.19611824 -0.018642245 -0.1414675 -0.03399483 -0.109933704 -0.24459673 -0.23399778 -0.042811353 -0.0079833055 -0.15818208 0.20503822 0.17996661 0.020312421 -0.10250765 0.20101891 0.17540805 0.23648655 -0.12670046 -0.24267592 -0.13837127 -0.1031831 -0.008508341 0.086486936 -0.017232617 -0.053874876 -0.26528093 0.21911731 0.009145618 -0.24792038 0.10506569 0.106180154 0.22838576 -0.03973276 -0.15407416 -0.20460775 -0.15759984 0.06309506 -0.016139023 0.24475399 -0.0037171238 0.017664103 0.17342936 -0.34023076 -0.20011595 0.014825058 -0.17136028 -0.07488019 0.024030995 -0.2527605 -0.13934216 -0.06556561 -0.09593847 -0.09905561 -0.037697725 -0.10640541 0.042253908 -0.017886618 -0.03368903 0.006063202 0.06082348 -0.17989217 -0.2526016 -0.01631173 0.02921495 -0.08810672 0.052967995 0.033740144 -0.12099935 -0.2453638 -0.28461498 -0.20747046 0.059639726 -0.01698093 -0.05245911 0.17061295 0.013106759 -0.017368738 -0.065746166 -0.329195 0.071914494 -0.07228185 0.068700634 0.003703663 0.017899314 -0.12893991 0.060380153 -0.01626562 0.120964974 -0.06489318 -0.13933411 0.1828896 -0.07641057 -0.0028369855 0.08088936 -0.022710845 0.035934266
1116 -0.09490068 -0.23905127 0.06309026 0.26034883 0.11576529 -0.053188298 0.17421736 -0.08436146 -0.14468937 -0.024715941 0.14842281 -0.21250708 0.23547795 0.069721065 -0.00880025 0.00030961333 0.020057643 -0.13765806 -0.16309546 0.08094484 0.03917345 -0.1290416 0.18514644 -0.34930742 0.23632395 0.14440893 -0.06623916 -0.13976024 0.25028208 0.24333818 -0.101666026 -0.09113539 0.083486065 -0.122318655 0.19723368 0.07530561 -0.17503653 -0.07881355 -0.04925364 0.0025418093 -0.033913847 0.13823596 0.24503812 0.14189956 0.015364894 0.03062689 0.049655423 -0.12200831 -0.22385594 -0.008369283 0.16567256 -0.04798911 0.026968187 -0.021050828 0.0252777 -0.040284522 -0.11088829 -0.22128974 0.148435 0.0033089584 -0.09255403 -0.13870648 -0.011675311 -0.040996242 -0.078578375 -0.29398328 -0.051223587 0.10884004 -0.034462772 -0.015662856 0.048411954 0.03731893 -0.029405303 0.14747003 0.06057476 -0.019229105 0.035531994 -0.069147535 0.18120441 0.23351753 0.113608226 0.042817738 -0.044446226 -0.05849769 -0.23904485 -0.1701199 -0.05654957 0.06260017 -0.24590957 -0.15664822 -0.20611121 0.03207951 -0.029251905 -0.1885622 0.13353896 -0.030895814 -0.09460152 -0.15267675 -0.0076851393 0.1073463 -0.3265055 -0.21657501 -0.14640318 -0.23536617 0.09498249 -0.03515255 -0.129802 -0.123028114 -0.12853232 0.14709705 -0.1536782 0.10210482 0.24866158 -0.17846195 -0.20051041 0.2900278 0.002777053 0.14502974 -0.005184653 0.05642906 0.014698137 -0.1331261 0.0640159 0.028173253 -0.18129905 0.030249888 0.008840753 -0.04369833
1115 -0.23824804 0.06937603 -0.046121914 0.26602003 -0.02096596 0.15565915 -0.017776199 -0.19938387 -0.053518593 0.13320486 0.10133906 0.11336628 0.032381542 0.27770054 -0.02626971 0.10296217 0.13136066 -0.07396422 -0.21241987 -0.026085328 0.13199335 0.15355253 0.16974361 -0.1630032 0.2762057 0.037094165 0.092691906 0.057562105 0.10270194 0.19432409 -0.08594139 0.0028293296 -0.14314108 -0.06352924 -0.036757324 0.12613326 -0.11514794 -0.2068288 0.010496538 0.07157545 0.089439586 -0.24819306 0.01515486 -0.12981969 0.406888 0.07213983 -0.065823354 0.038827203 0.08831534 0.04323593 0.17824091 0.15261914 -0.12697703 0.18628897 0.13379744 -0.038299967 -0.08727193 0.011677115 0.1844621 0.02684209 0.01449881 -0.017351551 -0.21366082 0.09464952 -0.018395867 -0.08274001 -0.040660676 -0.20396753 -0.08216745 0.16194037 0.14570782 -0.06916555 -0.14138632 -0.0110263815 -0.014345365 -0.035933215 0.0030869604 -0.032715775 0.048534594 0.221646 -0.3822251 0.08485569 -0.052801993 0.009542098 -0.07048578 -0.09556083 0.05706897 -0.12234458 -0.16309753 -0.034755815 0.16987799 0.022434805 -0.14364299 -0.06330214 -0.15703735 -0.3309379 -0.0055879424 -0.07171815 0.04790479 0.091052175 -0.15384477 -0.2291327 -0.04042309 -0.06724828 -0.09913613 0.13885646 0.039114237 -0.039131436 -0.061043706 0.08276954 -0.19419847 -0.08410473 0.17478722 -0.08234159 -0.36157212 -0.047155984 0.026866123 0.030878223 -0.04507703 -0.06563248 0.08410057 -0.15021344 0.06607431 0.24123126 0.052212026 -0.23187658 0.05715386 -0.037215836
1134 -0.10290481 -0.33098257 -0.18279025 -0.091999754 0.049809564 0.018539367 -0.14070927 -0.006799618 -0.040409777 -0.09197897 0.04991077 0.16011736 0.19328886 0.24119973 -0.077540025 0.015374916 -0.0534621 -0.08427579 -0.12539299 0.19353683 0.07288858 -0.041932188 -0.23753518 -0.1052865 0.31592014 0.19396381 0.05979746 -0.033811525 0.06392283 0.110668555 -0.36359772 -0.016405795 0.11333157 0.0155124795 -0.089420915 0.08220512 0.06480476 -0.04627379 -0.018835295 -0.20962642 -0.056070883 -0.13566084 0.1010734 0.09674932 -0.06592325 0.13904808 0.2345889 0.20368628 0.18951869 0.09290491 0.23758927 -0.045758855 -0.023821192 0.03270963 -0.20570743 -0.13227001 -0.02276815 -0.055682376 0.08577884 -0.005620409 -0.030729178 -0.03493202 -0.23256506 0.04029182 0.0025918232 -0.20366037 -0.01110572 0.037903495 0.026115779 0.017784297 -0.078572005 -0.03607682 0.06793439 -0.018280823 -0.101695426 0.16668019 0.06987571 0.019042859 -0.059262834 -0.017694466 0.09966181 0.08855372 -0.20946728 0.0054888525 0.06166994 -0.11796804 -0.052898973 0.02007319 -0.10900549 -0.2642206 0.15138488 0.012912059 -0.2764241 0.15958886 0.11462289 -0.021156779 -0.029627098 0.030369632 -0.26619384 0.23015489 -0.21692991 -0.22029625 -0.12374888 -0.08826891 0.05352128 -0.0926466 -0.107314914 0.029211579 0.03162614 -0.11376342 0.041056827 -0.08730996 -0.03459712 -0.23728639 -0.2121394 -0.19913071 -0.059870847 0.07377996 0.26348305 -0.0055497196 -0.0086706495 -0.2921356 -0.16337903 0.30655342 0.07444156 0.04700963 0.14945884 -0.11337346
1117 0.108255185 -0.067798495 0.10665968 0.13236529 -0.024280354 -0.017532315 0.25666705 -0.27774572 0.051899448 -0.093521036 0.24179286 0.085125275 0.13860719 0.19623236 -0.009852873 0.09712213 0.12977497 -0.109824754 -0.11731817 0.050453253 0.0889711 0.13755278 -0.17937034 0.07500183 0.08372521 0.39392653 0.07193221 -0.051291913 0.021417012 0.12175105 -0.29228422 0.14471215 -0.06849095 0.06430032 0.18217085 -0.118233666 -0.039188977 0.17023619 -0.22724527 -0.11031605 -0.002629535 -0.026433205 0.0672262 0.1817095 0.06702049 0.0416861 0.13589828 -0.046977635 -0.021234026 0.04670591 0.21711327 -0.1965852 0.07177679 0.18205874 0.020164428 -0.24476701 0.06476383 -0.18311015 0.13402507 -0.14576235 -0.17109261 -0.01176417 -0.20621386 -0.10581913 -0.07083039 -0.07686347 -0.15631318 0.027853366 -0.115232915 -0.12704459 0.06896992 0.040058345 0.10631612 0.040159848 -0.0025782317 -0.34914586 0.076595105 -0.00560183 -0.004147714 0.056415398 -0.2264733 0.02114183 0.034666155 0.10778334 0.23295581 -0.05068859 -0.007643002 0.088480905 0.06166971 -0.04328744 -0.08761933 0.15393156 0.13804176 -0.08806457 -0.23407382 0.13245283 0.15331943 0.093298174 -0.08762892 0.10146867 -0.26801178 -0.12059926 -0.16933544 -0.21397763 -0.029375382 0.14129776 -0.087920375 0.048917897 0.015521866 0.2288433 -0.054413807 0.025599468 -0.105471514 -0.07643544 -0.21598902 -0.097356334 0.1263082 0.0028360458 -0.056955587 0.13182269 0.29393852 -0.25488257 0.1660136 -0.0037104606 -0.034764364 -0.13261306 0.26833722 0.040933482
1136 -0.1776687 -0.1481486 -0.10314073 0.13363151 0.11045135 0.13649182 0.0831904 -0.025068555 -0.083754696 -0.08175205 0.0024511225 -0.15961903 -0.10019986 0.031587165 0.08889427 -0.075788185 0.110755876 -0.17557523 -0.22691675 0.23386519 0.23470208 -0.14846323 -0.03290337 0.060048386 0.03391849 -0.035135373 -0.092763975 -0.079709746 0.12387642 0.16042712 -0.025172327 0.22007944 0.044352207 0.0021106843 0.015504643 -0.174886 -0.16667755 -0.124143034 -0.040386926 -0.38752195 0.093107276 -0.10717614 0.108662575 0.10242595 0.091702364 -0.066240646 0.041523702 0.0624105 -0.03505379 -0.32322752 -0.047345713 -0.04165539 -0.26462936 0.17276606 0.16012649 0.063166015 -0.13084093 -0.21443012 0.26125428 -0.18657228 0.11331567 -0.3575894 -0.022672428 -0.03118989 0.09956442 0.11534128 -0.2844284 -0.15541364 -0.14531158 -0.10316258 -0.03179702 0.12649201 -0.050700966 -0.032979578 -0.25836077 0.061497662 -0.06418356 -0.19930784 -0.0724451 0.041596677 -0.15228844 0.06389282 0.1552045 -0.017976386 0.18119255 -0.022687454 -0.06067295 -0.20128818 -0.14376755 -0.21306187 0.074268356 0.01655937 -0.07592278 0.009801367 0.1348233 0.045378186 0.018524589 -0.43497628 -0.1274603 0.22730413 -0.06429907 -0.35249338 0.104258016 -0.009016205 -0.07196119 0.104184896 -0.08352292 -0.084374666 0.10907626 0.021785662 -0.024751743 0.24459603 -0.19416672 -0.1649313 0.011576509 -0.1047271 0.3623332 -0.026746945 -0.1458754 0.069345556 0.3346654 -0.1009029 -0.019800594 0.104042634 -0.24670914 0.14868794 -0.25060472 -0.14011703
1107 -0.0025936386 -0.17608725 0.040282644 0.21955062 -0.0082555 0.03681117 -0.11548963 -0.027923528 -0.045636766 0.08343849 0.37719446 0.04851001 -0.19301786 0.08751323 -0.21260281 -0.07643656 0.29168314 -0.21666133 -0.16921413 -0.11823398 -0.017178454 -0.13084124 -0.051020086 -0.0002094114 0.27737474 0.14362755 0.08223163 -0.12475362 0.099644385 0.20389986 -0.19381131 -0.061592553 0.21813416 0.2824354 0.18802933 -0.06512454 0.3932051 -0.13374425 -0.0012146591 -0.099917024 -0.050373375 -0.12469809 0.108876035 0.009255281 0.2065305 0.22953765 -0.024918277 0.023256348 -0.16009057 -0.19133207 -0.11250957 -0.11730343 0.061690878 0.06181337 -0.1819159 0.07891111 0.11213515 0.0046501923 0.089240976 -0.116486646 0.004619645 -0.06402609 -0.051414732 -0.12733252 0.13119847 -0.00690656 0.091312855 0.12139743 -0.06398838 0.0671989 0.0942201 0.069280565 0.14194012 -0.14357823 -0.06627097 -0.16529822 -0.12740551 -0.052375168 0.12277777 -0.0424961 -0.0066735353 -0.2154058 0.05169286 0.2678593 -0.13028821 -0.05364931 -0.1576419 0.0075300024 0.010548713 -0.103043094 0.21889557 0.075372845 -0.31516343 -0.07424879 0.07952957 0.09946124 0.023925817 0.004419531 0.022524768 -0.07950993 -0.06800717 -0.10982006 -0.27740332 -0.0019861497 -0.2295899 0.10503554 0.09583101 0.016394416 -0.09628967 0.24530555 -0.09017072 -0.09796584 0.18788344 -0.1659482 0.043070428 -0.0994641 0.0013438099 0.22016798 -0.1011271 -0.046344247 -0.060927402 -0.16490088 -0.030631443 0.041662622 0.07055955 -0.028770978 -0.27140024 0.053985678
1138 -0.055614125 -0.2584612 -0.27596292 -0.0544346 -0.03575345 0.054025967 -0.23306666 0.21254969 0.21631421 0.12841642 0.04736099 -0.22902744 -0.08970371 -0.047670387 0.18126076 0.009934033 0.0007530855 -0.21799959 -0.22622982 -0.13717882 -0.09579847 0.11641351 -0.018401584 0.03838604 0.21253008 0.048994966 0.04048181 0.27970058 0.059525397 -0.012513103 -0.29576033 0.14021051 -0.052515257 0.06779641 -0.11723839 -0.15759474 -0.24150461 -0.1014388 -0.083218284 -0.088750005 -0.20760077 0.08411089 0.04686162 0.06368144 -0.006574701 -0.018194657 0.20807934 0.36785713 -0.11809526 -0.09211761 -0.06977339 -0.07938378 -0.1276558 -0.06094688 0.38315123 -0.14637877 -0.22387722 -0.07275997 0.23216349 -0.2952967 -0.15149204 -0.06289589 0.18443505 -0.16979428 0.087980144 -0.0046271244 -0.24761619 0.1335724 -0.21954447 0.048149988 -0.1532073 0.12979989 -0.12966868 -0.19790916 -0.29309165 -0.085362375 -0.062533736 -0.00907669 -0.021154454 0.17040685 -0.03801414 0.1591675 -0.04918844 -0.016223693 -0.20603327 -0.038403165 0.26194713 0.024421964 -0.1849399 -0.06947995 0.0426319 0.11598409 -0.36120406 -0.010149018 0.011804126 -0.014808986 -0.037940156 -0.07698192 -0.0112538785 0.16906397 -0.21457975 -0.20384523 -0.20475966 -0.19517536 -0.39464432 0.0818564 0.109808534 0.11731313 0.046367727 -0.19849844 -0.031551473 0.32347724 0.17964113 -0.12990959 -0.14827785 0.08355392 0.11529041 0.05568512 0.21593311 0.3395496 0.185357 0.026633548 0.19682339 -0.16518798 -0.1664543 0.019398915 -0.018318368 0.29135486
1112 0.0023143077 -0.15478949 0.097932674 0.25802112 0.12199873 0.21036533 -0.32999176 0.052467503 0.10836444 0.1661119 -0.25674233 0.17765687 -0.014481586 0.1193091 -0.09248456 0.076826915 -0.16967084 -0.09161074 -0.13392396 0.17928183 0.21384877 -0.18587807 0.022115363 -0.11537673 0.074665114 0.25256786 0.11872353 0.097604394 -0.03332546 0.06606546 -0.1471496 -0.27981508 0.17970021 -0.03410545 0.13489659 0.1001591 0.11315256 -0.017680792 -0.15818715 0.053886075 -0.24414907 0.10955351 0.045678433 0.17798553 0.11601028 0.21935241 0.19832939 0.1186548 -0.18871848 -0.13412467 -0.129199 0.037783172 -0.12520196 0.058306724 -0.028135793 -0.03047244 -0.24809544 -0.036031447 0.13353461 0.032571193 -0.13817106 -0.19275177 0.004110369 0.029457413 0.20682958 0.010629175 -0.12757559 0.17828168 0.009345996 -0.012303633 0.08726378 0.19164725 0.09670611 -0.04707796 -0.10678704 -0.025314584 -0.2290247 -0.422435 -0.060438734 -0.045007583 -0.3084659 -0.2876464 0.09121395 0.0067742416 -0.0037459182 0.28975105 0.18738054 0.12060663 -0.23299405 0.020090722 0.11342773 0.1095265 0.11616321 0.057193313 -0.1062363 -0.049772225 0.15003464 -0.050277762 0.0039987997 0.03533036 -0.12661071 -0.056282047 -0.224801 -0.1829936 0.035879705 0.16612524 0.07232422 0.0058323317 -0.13614322 0.019730521 -0.3340587 -0.105991 -0.12833583 -0.19805543 -0.15387557 0.11810752 -0.13083574 -0.08098196 0.012023849 0.31663328 0.014025134 0.11007425 -0.24090585 0.16575196 -0.15973236 0.045709647 0.057434745 0.12006258
1133 -0.11331328 -0.0201888 0.07095081 -0.069093 -0.01940054 0.11379488 -0.17736423 -0.06016861 -0.13548224 -0.01799395 0.01137052 -0.021481061 0.014026058 0.1747103 -0.019525712 0.043330885 0.19628122 0.014401767 -0.13609673 0.10132759 0.066707194 0.105051056 -0.07539022 -0.09996407 0.19055636 0.20993291 -0.24290283 -0.20797038 0.08474751 0.2740133 -0.26593006 0.38739246 0.047739517 -0.22910742 -0.017969143 -0.22509012 0.21668227 -0.003955794 0.1345667 -0.12220414 -0.13281931 0.18644325 0.085163295 0.04160983 -0.041546118 -0.06413789 0.08854777 0.22858728 -0.17037599 -0.0594423 -0.012386191 -0.049613755 0.08830207 -0.12360701 0.018424666 -0.0055254465 -0.029420668 -0.017763259 0.055541974 0.23131582 -0.23343177 0.07054546 -0.04014204 0.10734255 -0.08869021 0.057898235 -0.058104727 -0.17439374 -0.063345544 -0.1631948 -0.11385443 0.20078972 -0.11161876 -0.113470726 -0.22491772 -0.061425965 0.051692415 -0.03515076 -0.01459068 0.12554196 -0.26514292 -0.09795473 0.07211108 0.2788837 -0.062140573 -0.08851648 -0.031027807 0.007099572 0.021922264 0.016719673 -0.02396647 0.08948275 -0.15214287 -0.041092113 -0.072684005 0.043026313 -0.004185926 0.053908467 0.15474351 0.38611236 -0.22058679 -0.19478847 0.023749838 -0.01371508 0.0048299464 0.02817302 0.010795119 -0.15798242 -0.25868323 0.116637185 -0.25649422 0.0486949 -0.040223815 0.12782796 -0.060141698 0.08170253 -0.061556097 0.019180112 0.10827154 -0.19761132 -0.04063804 -0.15297925 -0.06895379 0.24448362 0.16836473 0.04516731 0.10621593 0.06295836
1118 0.0805316 -0.11135759 -0.26917148 0.26631963 -0.25274473 -0.04845226 0.025377827 -0.16183591 -0.16878487 -0.21286324 -0.21388252 -0.08239347 0.15381251 0.24936685 -0.16486794 0.20158896 -0.075975426 -0.17620565 -0.15169649 0.09055515 -0.035218164 -0.030686619 -0.067414604 0.049963467 0.2674937 0.11260173 0.038482428 0.14105473 0.10447886 0.12417322 -0.21133603 0.0039948933 0.10492188 0.042582657 -0.13035579 -0.11093609 0.25308192 -0.003128215 0.08996835 0.011715957 -0.013556693 -0.11204279 0.24688688 0.020704335 0.014634696 0.0061117797 0.05928527 0.014796962 0.21659294 0.022162266 0.29355547 0.002366232 -0.16867858 0.1036363 -0.10067535 0.06805204 -0.17754893 0.21410838 0.3068839 0.06954524 -0.08396935 -0.3272064 0.14234005 -0.050985433 0.12881716 0.043531056 -0.095068984 -0.056962103 0.00066173007 -0.10637055 -0.04842909 0.08793082 0.098897584 0.045264177 -0.12674828 -0.15327673 0.09214368 -0.14902042 -0.09633757 0.2557616 -0.25009578 0.20917071 0.0032002938 -0.061242934 -0.08336953 -0.047658503 0.042989425 0.13109204 -0.03355598 -0.051140208 0.19927828 0.03501594 -0.09685644 0.0983352 0.13154724 0.38927743 0.062353898 -0.02920266 0.0514747 0.016905751 -0.13460112 0.04226668 -0.18127544 0.14624828 0.001620786 -0.08434896 0.028838508 -0.17116244 0.099810004 0.048356574 -0.11901249 0.026838448 0.33810264 0.13666236 -0.29909265 -0.016458053 0.13723686 0.00054015464 0.055372655 -0.24062127 0.21072806 -0.007326217 0.16126806 0.091572955 -0.14446434 0.25512633 0.14451447 0.07049177
1111 0.08088521 -0.14525281 -0.20017287 0.12705225 -0.28003114 -0.14633203 0.04445602 -0.20578565 -0.1067966 0.16426718 -0.059404913 0.055762332 -0.08022598 0.1596063 -0.10122523 -0.1131874 0.112226814 0.015680246 -0.07187412 0.19869061 0.29308212 0.013166786 -0.074136645 -0.26721543 0.33808798 0.25191092 0.120119244 0.054283835 -0.024130955 0.12185954 -0.14385149 0.043719586 0.1531847 0.055370767 0.17857644 -0.07138442 -0.14457113 -0.03314058 0.10897839 -0.22054121 0.13846973 -0.19326624 0.07058919 0.071445405 0.120685376 -0.20280886 0.23869015 -0.025743265 -0.055570208 0.13188164 0.0018494093 -0.10364272 -0.08205812 0.27289733 -0.103877544 0.16930391 -0.18075852 0.14280266 0.095440544 0.04122212 0.029079078 -0.0038173725 -0.008597235 -0.11212674 -0.11237587 0.24389009 0.06229749 -0.10038247 -0.15497907 0.024582036 -0.0058605378 -0.01155538 0.07700283 -0.18014571 -0.008985375 -0.16655795 -0.11738251 0.09914861 -0.18953533 0.4085613 -0.11017468 -0.16910113 0.07005817 0.00311005 0.053354457 -0.048535675 -0.11551556 0.040136717 0.021028792 -0.09451427 -0.002336889 0.23777167 -0.14639066 -0.1714715 0.0022026945 0.0162141 0.042241126 -0.050047148 0.053016804 0.17096514 -0.20925215 -0.28473005 -0.061948873 -0.14232317 -0.0043505896 -0.106779605 0.060689595 -0.0001475027 -0.07468738 -0.11118002 0.06812335 -0.077374645 -0.032970823 -0.108534016 -0.062386725 0.06464261 0.16161874 -0.15641788 0.06455526 0.005474047 -0.06841044 -0.113400415 -0.04138793 -0.14053814 0.090400174 0.35624412 0.22482261 0.024388293
1121 -0.17222026 -0.107726716 -0.19837643 0.3424993 0.32095453 0.10136031 0.123147815 0.0990218 -0.14268327 0.075687066 -0.1906512 0.076023854 -0.084800094 0.07733058 -0.0469679 0.16100964 0.15207702 -0.06833188 -0.20432869 0.048152953 0.025047112 -0.026250161 -0.081117325 -0.13151476 -0.05906154 0.49157426 0.18826513 -0.042247526 0.2823925 0.1925788 0.050912388 0.085292295 0.06572371 -0.015020099 -0.1445743 -0.07272712 0.2228188 0.17461729 -0.16584994 -0.0063262247 0.21192823 0.029320851 0.07668676 -0.073444836 -0.13846892 -0.17004693 0.17931996 0.22199652 -0.12234431 -0.12269532 0.17643906 -0.056925606 0.0070257247 -0.13991043 0.1241938 0.03426223 -0.06971288 0.05645977 -0.05909277 0.015478129 0.12713121 0.06313049 -0.19608897 -0.05496931 -0.14598799 -0.02941642 0.032069072 0.002371929 -0.32746953 -0.05031867 -0.24047889 -0.04324165 0.016530145 -0.11534553 0.3019083 0.06816332 0.1650854 -0.08012228 0.16614321 -0.031303313 -0.1878744 0.031224774 -0.15385997 0.07896932 -0.080000244 -0.03319144 0.13592811 0.17449683 0.018175172 -0.013568102 -0.037997894 0.26618427 -0.0015417694 -0.20732608 -0.10772858 0.055824522 0.11914026 0.15659387 -0.030172667 0.07567369 -0.23776484 -0.29779583 -0.005160895 -0.05731128 -0.1513912 -0.0040764883 0.28169596 0.045421712 0.11510503 -0.18394494 -0.10166432 -0.005444799 0.25243717 0.01663342 -0.15370126 -0.20476805 0.12755468 -0.15764049 -0.14620912 -0.09389479 -0.03267183 -0.22663255 -0.036071222 0.084397055 -0.22297487 0.022512889 -0.05830738 -0.10425632
1114 0.06730374 -0.26467884 0.22102462 0.23965575 0.12843354 0.06856397 -0.14689523 -0.062231302 -0.21995686 -0.07153172 0.00073679024 0.026722563 0.13624825 0.03233848 -0.017106889 0.3016186 0.14513533 -0.23093213 -0.16032018 0.030945068 0.26010165 0.16607009 -0.1183554 0.21415089 0.16688047 0.0954265 0.14054036 0.14648238 0.38086715 0.09737763 -0.25109294 -0.1951556 -0.012198397 -0.09466105 -0.08863917 0.17119665 0.24591719 0.017038262 -0.007754231 0.15122771 -0.17830722 -0.072783336 0.12768422 -0.069276884 0.10956796 0.12632026 -0.007817366 0.18530516 -0.16790761 -0.13721824 -0.04975768 -0.44407934 -0.15673214 0.043876667 -0.024386078 0.2022039 0.061693516 -0.02064348 0.077507034 -0.065357916 0.15859795 0.009407999 0.13768578 -0.017781334 0.24349727 -0.09932265 -0.22057869 -0.044275913 0.03544611 -0.13076788 0.07297596 -0.01266619 -0.013068001 -0.013790844 0.04353332 0.036072727 0.08559734 0.10535873 -0.19163403 0.37849262 -0.0006292363 0.12733577 0.22231883 0.30386952 0.03113891 -0.052817523 0.041777387 -0.10914446 0.15893714 0.008555568 -0.088918954 0.18793945 -0.06034242 0.04279801 0.089730956 -0.09123574 -0.112066865 0.033394534 -0.00834481 0.14911914 -0.16772737 -0.004647172 0.015575314 -0.06257274 0.11430196 -0.029315267 0.09696964 -0.08906517 -0.15323067 -0.19368768 -0.18576944 -0.034201846 -0.10703049 -0.043949228 -0.12921076 0.08484561 0.074434206 -0.08267148 -0.1664538 0.1076521 -0.07721747 -0.035685733 0.049802143 -0.12170963 0.24888267 -0.09087555 0.08169367 -0.1664226
1126 -0.051681664 -0.2451477 -0.11902092 0.06786549 -0.041143376 -0.049201574 0.08812224 0.20732445 -0.13040061 0.11651283 -0.19645913 0.17222132 0.057082947 0.27697957 -0.09445631 0.03327651 0.031306483 -0.083153754 -0.17005007 0.28904918 0.24303801 0.24162486 0.04262679 0.028725885 0.07909751 -0.03494035 0.122873485 -0.006598514 0.09295729 0.15813234 -0.34554967 0.07623501 -0.04495573 -0.090482354 0.26948532 -0.07782517 0.072924875 0.032606333 -0.056291457 0.0013596426 -0.061006974 -0.042561118 0.10358132 -0.26181147 0.16542438 -0.04923529 0.1492688 0.016308555 0.0320318 -0.35975823 -0.09945745 0.09698029 0.2108239 -0.122480914 0.14634308 -0.093602374 0.1295833 -0.34555689 0.022382913 0.21577556 0.09906902 -0.009177199 -0.050898537 0.1291473 0.23394868 0.102423824 0.07914813 0.1077152 -0.2338997 -0.056235418 0.19890864 0.08010462 -0.20344004 0.17824028 0.010948503 -0.062732734 -0.19257732 -0.09944275 0.07878647 -0.03455708 -0.024780707 -0.051587638 0.13689929 0.07341917 0.015206183 -0.062313527 -0.077445 0.07699404 -0.10767274 -0.0026319416 0.08061545 0.13470325 -0.111147285 -0.40799525 0.15100478 0.046003614 0.07250695 -0.18759462 0.17442012 0.20527044 -0.12690637 0.048728272 -0.109321654 -0.0062182616 -0.071730934 0.011850815 0.09144856 0.051226072 -0.08902103 -0.2634449 0.24179606 0.010734914 0.19747649 -0.111536086 -0.028292747 0.033700336 0.047656655 0.21346526 0.28374073 0.1943698 0.29550442 -0.001681174 0.40631247 0.34098533 0.016128547 0.065326944 0.039692044 -0.039835308
1127 -0.19983378 -0.08347996 -0.035166647 0.18651764 -0.14346875 0.086803496 -0.06313777 -0.0025282893 -0.15504351 0.0670615 -0.19568166 0.14058295 -0.026721993 0.16919763 -0.11881182 0.16859421 0.14578134 0.19275431 -0.37543234 0.076829925 -0.21245497 0.14627084 -0.21661116 -0.037243024 0.27274585 -0.19226824 -0.010070138 0.013014858 -0.042195957 0.19996585 -0.16347083 -0.008384963 0.06497837 -0.01372657 -0.08456239 -0.050715514 0.15991366 0.16359153 -0.04944608 0.0054196813 0.13403201 -0.18819627 0.11312186 0.02686184 0.14160113 -0.28290248 0.14066844 -0.073646635 -0.083642885 -0.006407561 0.10342897 -0.06501465 0.045056757 0.049246673 0.18565097 -0.024162097 -0.12681884 -0.23579527 0.02939234 -0.104252316 -0.099372596 0.29887077 0.073418185 0.03904268 0.003477173 -0.2754107 -0.05186083 0.34360465 -0.14609566 0.07681518 -0.17541228 -0.10667151 -0.10769502 0.008731623 -0.1055305 -0.08604334 0.05710061 0.03755738 -0.021723254 0.076802105 -0.18125555 -0.010343362 0.05605035 0.39508727 0.22328004 -0.07891093 -0.111242 -0.18087351 0.054560818 -0.019156551 -0.041785497 -0.008813322 0.13894501 -0.09404544 -0.052466974 0.119314454 -0.06726935 0.07438925 0.07918326 0.16836508 -0.040913705 -0.22094946 -0.1665643 -0.046146624 0.034125224 0.0006757013 -0.09569786 0.1459657 -0.13643241 0.0675122 -0.09850583 -0.08990232 0.09339462 -0.3756178 -0.22684707 -0.014860083 -0.09261995 0.2203265 -0.3565509 -0.113471456 0.015232885 0.11910419 -0.33458963 -0.10890772 -0.09863644 0.13394046 0.004073142 -0.029524636
1110 -0.32505953 0.17804688 0.23762439 -0.055971432 -0.014077402 -0.29236135 0.09126523 -0.008278214 -0.118240744 0.18891719 -0.032515228 -0.07774893 -0.044134848 0.12962121 0.048573446 -0.002975027 0.3358025 -0.13460112 -0.0945319 -0.116167456 0.097509675 -0.22005355 -0.11205796 -0.08586354 -0.048930783 0.09254096 0.013671536 -0.04187392 0.14711563 0.06991683 -0.043260086 -0.12853532 0.12033812 -0.09926951 -0.0066630095 0.0347244 -0.013903095 0.036044415 -0.006911662 0.0264704 -0.01133527 -0.21493563 0.13503784 0.070742495 0.015846523 0.17369081 0.124866255 0.058247495 0.1002417 -0.075859465 -0.10800092 -0.073086664 0.04883338 0.34224218 0.04404688 0.025076447 -0.011874059 -0.06359685 0.07318022 0.117543936 0.05128342 0.080601916 -0.1795645 0.2853163 0.20524102 -0.014957019 -0.3743206 0.13559552 -0.082157835 0.14070731 -0.06847443 0.16908722 -0.06339603 0.093970515 0.020266734 0.015676858 -0.056162193 0.24621414 0.23808087 0.17063032 0.046968248 0.2780444 -0.14697191 0.26781467 0.14628513 0.19006735 -0.13702615 0.083643086 0.11850792 -0.27608034 -0.0625249 0.14425127 -0.07073934 0.021112755 0.028606143 0.116982095 0.27161458 0.2504023 0.19705836 0.36346185 -0.19979303 -0.048683666 -0.23417115 -0.058532763 -0.08441793 0.23903014 0.11783354 -0.14513573 -0.035920277 -0.01242584 -0.06415216 -0.21199527 0.16672045 0.12204836 -0.07766538 -0.16836771 0.14018857 -0.009924846 0.07431114 0.20170696 0.13772666 -0.008323138 -0.06619163 0.078609094 -0.095939286 0.22527128 -0.11683917 0.0117971
1128 -0.19298445 0.120528005 0.06608478 0.042240866 -0.04075299 0.15723492 -0.009567308 0.048397046 0.20546983 -0.020937933 0.0100698015 0.109396785 0.08001207 0.26721472 0.1585143 0.067661226 0.03411935 -0.16810243 -0.030754501 0.1788525 0.117833644 0.017009638 -0.04210309 -0.09530865 0.20894352 0.22419776 0.20500636 -0.11154028 0.04306022 0.16178323 -0.28334162 0.0052747843 0.12347211 -0.014964329 0.16933618 0.020040672 0.04480581 -0.16713181 0.10564129 0.20294622 -0.075772725 -0.019337773 0.15727553 -0.051653728 -0.014544326 0.09650838 0.10873403 0.13771552 0.032477304 -0.21832867 0.061548043 0.21878903 0.011692715 0.1305735 -0.03513496 0.10484955 -0.009781321 -0.41084018 0.08484767 -0.01220177 -0.02245869 -0.05944414 0.026616748 -0.044578735 0.10005789 -0.16120236 0.32012033 0.06566142 -0.1742695 0.15237683 -0.26838106 0.14431019 -0.006830638 0.04231593 0.10857473 -0.013511769 0.29138866 0.18179835 -0.22309826 -0.07086949 -0.28916228 -0.08978331 0.104172625 0.013096709 -0.14335567 0.037074402 -0.24733824 -0.022886384 0.22228678 -0.11272928 -0.0061028893 0.09431068 -0.032634247 -0.124521226 0.068999596 0.10809106 -0.031351313 -0.20195152 0.2768895 0.23469672 -0.36591145 0.0028000148 0.35089606 0.14096363 -0.17194207 0.18256263 -0.119620286 0.20612676 0.05574544 -0.008875678 -0.037971362 -0.17554052 0.024898263 -0.020455446 -0.019853907 -0.011249286 0.2499419 -0.019524183 0.065284155 0.1672178 -0.060542617 -0.2250346 -0.07569859 -0.24908035 -0.16024397 0.1895335 0.10033388 0.02788692
1113 0.1646502 -0.09600011 -0.08417807 0.19319609 0.020641314 -0.01541082 -0.011356791 -0.14985448 -0.087245025 0.27919626 -0.0874989 -0.20912652 -0.12078478 -0.19386353 0.04517086 0.07704871 0.007751707 -0.048383657 -0.045594525 0.1805053 0.05605208 0.1758231 -0.19137846 0.31088197 0.22914593 0.17834958 0.0021624528 -0.024667753 0.033152364 0.41938806 0.026547391 0.022574909 -0.08509566 0.09355017 0.14346962 0.18128552 0.044163525 -0.10234291 0.1291053 0.018900389 -0.098982535 -0.041952033 0.046219528 0.03470589 0.019280255 0.11032667 0.10653771 0.11376948 0.23547016 -0.34044823 0.018159376 0.07800706 -0.09841988 -0.11210934 -0.13823234 -0.13438906 0.097808994 -0.15463132 0.03986305 0.20639044 -0.15689507 0.057568666 -0.10171771 -0.031165777 0.037648898 0.12581787 0.0071168486 0.2520217 -0.16125794 0.3882847 -0.26644504 0.2279254 0.09598312 0.2838594 -0.3002724 0.01379383 0.04444313 -0.019401347 0.096549556 0.26077527 0.088640764 0.12946127 0.13501869 0.10906742 0.25691828 0.076851375 -0.15143117 0.23874277 -0.3041014 -0.053618804 -0.0099748885 0.13476416 -0.04488057 -0.122694656 -0.10899715 -0.09858979 -0.10959573 -0.09048978 -0.13495629 0.050901245 -0.07424674 -0.13759354 0.029305631 0.17945944 -0.10563797 0.064694196 0.110426486 -0.021425473 0.020287143 -0.048948195 -0.21274418 -0.14097698 0.06711576 0.055073034 -0.2757953 0.16569138 0.049523387 -0.062431358 -0.08492515 0.13861887 -0.07788017 -0.20883471 -0.24561264 0.04554465 0.039596226 0.014768347 0.06162913 0.0055633825
1108 -0.13951033 -0.025846941 0.017292079 -0.017068855 -0.056225102 0.034049153 0.1443567 0.08264153 0.011488376 0.18955176 -0.12607591 0.11058485 0.099914916 0.22827668 -0.17954962 -0.19599052 0.2916937 -0.13357803 -0.10256344 0.033943217 -0.040057372 0.24680234 -0.02266659 -0.27696398 -0.07405904 -0.02197708 0.06003321 -0.0327303 0.10044596 0.40943775 0.08721761 -0.17843567 -0.04768595 0.032655418 0.05819714 0.09972246 0.22778615 -0.009828263 -0.13244592 0.09980459 -0.068948686 -0.07341986 0.21546774 0.16909988 -0.072496854 -0.019562647 0.013603236 -0.041951485 -0.18300271 -0.038274553 -0.245429 -0.07010878 0.23337367 0.12691408 -0.0992501 -0.19121274 0.2398226 -0.18947552 0.18856068 0.024210196 0.088585004 0.01986431 0.067555465 0.42270976 0.0037989584 -0.17417367 -0.19908401 0.20307533 0.029186903 0.12809311 -0.103075944 0.106411986 0.12709975 -0.100924104 0.012132434 -0.19727156 -0.11008758 -0.020260528 -0.09686368 -0.0025704163 -0.17816083 0.10843562 0.13516395 0.2781235 0.022312453 0.032816127 0.051019922 0.09387085 -0.018226383 -0.15987545 0.161066 0.20044915 -0.16527843 0.044392314 -0.08263243 -0.18364331 -0.17968063 -0.12808366 -0.20091109 0.15143386 -0.33775237 0.2050129 -0.05646204 0.16063853 -0.023587765 -0.04905375 0.058940902 -0.33031476 0.21918707 -0.055676926 -0.14295916 0.38159913 0.07829986 -0.123905 -0.0155050475 -0.17380382 0.17351596 -0.11796007 -0.014649897 0.040343836 0.045061264 0.029366056 -0.14853549 -0.04374306 0.13869192 0.16861896 0.075609736 -0.11107974
1137 -0.41230583 0.21873502 -0.25207067 0.025049537 -0.124950305 -0.029073311 -0.17842625 0.04076603 -0.26221415 0.07698812 -0.049887635 -0.16117774 0.04605497 -0.24134436 -0.1441519 0.18024711 0.017288042 -0.015746318 -0.105806395 0.02721865 0.119589925 -0.16656487 0.021914553 -0.0038604224 -0.017018192 0.28670824 0.023768017 0.1579157 0.16324612 0.49788246 -0.017753525 -0.20838141 0.15149511 0.015804423 0.12263866 -0.07563408 0.36866957 -0.08329373 -0.37182492 0.025934886 0.06445609 -0.2954894 -0.1895862 0.043189343 -0.07763874 -0.1495411 -0.0016633441 -0.09375303 -0.26089987 0.08839058 0.0630273 -0.26149067 -0.16064171 0.17378835 -0.14110807 -0.10100668 0.16521604 -0.24013291 0.27533868 0.023965353 -0.05710464 0.11792021 -0.034102857 -0.06093183 0.16397196 -0.30459315 -0.027459351 0.01934005 0.04728038 0.10422506 0.1633575 -0.031068826 -0.019721465 -0.14934938 -0.087143034 -0.01335913 -0.11840207 0.07526219 0.2157668 -0.26185292 -0.29797417 0.07932132 0.044148058 0.051619004 -0.017935995 0.08980668 0.05451765 -0.025095241 -0.015179355 -0.25532043 -0.079197906 0.2754254 -0.11859279 0.07945751 -0.053925455 0.12030275 0.047617204 -0.15569039 0.18038557 0.12024667 -0.07415937 -0.11638124 -0.18016632 0.33432442 -0.12889239 -0.14086771 0.11973647 0.059349086 -0.05359413 -0.062253747 -0.013774802 0.047846653 -0.05681268 0.017843029 0.10884517 0.38343522 -0.09031734 0.023384368 -0.032992896 0.3951221 0.0028068766 -0.1964874 0.033520583 0.028991906 0.15225337 -0.040686283 0.2186068 -0.06877182
1131 -0.05096909 -0.15299428 -0.07607842 0.0834932 0.021644797 -0.06030321 -0.13251407 -0.20621322 -0.27137834 0.16871387 -0.06698713 0.1335114 -0.08919071 -0.054790445 -0.08786856 0.1664074 0.28133962 -0.18698278 -0.13925345 0.078861006 -0.061981022 0.4223612 -0.14261484 -0.006587834 0.2193928 -0.029822394 0.018501673 0.097071715 0.10487951 0.18733113 -0.027207183 -0.14733821 -0.26760665 -0.20935987 0.042491112 -0.014277295 -0.28511804 -0.20639981 -0.13806713 -0.0281318 -0.047336236 -0.19545494 0.081227675 0.23340338 -0.059116717 0.045815185 -0.008584838 -0.10630671 0.07031093 -0.3150103 -0.19216484 -0.038384527 0.058589034 -0.34733045 0.0077673863 -0.20226532 0.052133918 0.09806379 0.098511286 0.13658701 -0.002184264 -0.13620637 0.08379621 -0.09399526 0.05601236 0.10647232 -0.18054283 -0.0323015 -0.045051284 -0.02727245 0.037005275 0.09461761 0.22508867 -0.06719344 0.06210806 0.09170134 -0.048523564 -0.16229302 -0.06958619 -0.04614194 -0.24351303 -0.18696788 -0.03269238 -0.11731676 0.09105346 -0.32109448 -0.17615512 0.14615469 -0.0016305409 -0.040108964 0.025151744 0.30093202 -0.33731955 0.0210652 0.2061456 0.0049096094 0.3367902 0.12962607 0.10359101 0.40775168 -0.23066601 0.023412127 -0.027557222 0.057504456 -0.20280294 0.2032709 -0.41454247 0.2391833 0.10390089 0.12214568 -0.08011559 -0.05250466 0.06768139 0.20412901 -0.001900924 0.08349642 -0.014180253 0.010390923 -0.011773632 0.14327282 -0.02958195 0.11853153 -0.23820166 -0.060261272 -0.077206105 0.10848499 0.056595437 -0.018580444
1142 -0.09145675 -0.21803859 -0.21571732 0.086847536 0.21907158 0.0010586319 -0.013418139 -0.056255285 -0.19070579 -0.080987915 0.18033971 -0.00068266894 0.029552769 -0.046642277 0.0407802 0.10670164 0.0440457 0.025022017 -0.37461123 0.3645097 0.20105359 0.06514604 0.04268573 -0.1413706 0.06723853 0.34717023 -0.0542336 0.030853383 -0.023276469 0.27829596 0.023848321 0.05114315 0.072449245 -0.100134015 -0.05194286 -0.07351592 0.10345571 -0.32646322 -0.039079897 0.07023208 0.03649095 0.17674239 0.1453676 0.15614519 0.07288459 0.016233448 -0.06173922 -0.079693355 0.15264857 -0.008383218 -0.20511864 -0.043188352 0.17972152 0.37320548 -0.00047342267 0.22522716 -0.30252925 -0.03298872 -0.04432965 -0.10173575 0.007245592 0.0002710386 0.0905972 0.027366946 -0.0603104 0.14878845 -0.2242581 0.12611686 0.077069335 0.2041392 -0.28561643 0.2907407 -0.20474418 -0.073441826 0.04601184 -0.030796424 0.05663766 0.028092418 -0.14800446 0.06173417 0.07508919 0.121233106 -0.21118066 0.1412401 -0.07129889 -0.07956526 0.13433918 -0.08773996 0.25838467 -0.10031653 -0.04586023 0.11037262 0.2315785 -0.29932702 0.09090025 0.11242275 0.09432203 0.031042984 -0.06029425 0.1952463 -0.077106185 -0.09057304 -0.12209899 0.01567388 -0.29486156 0.05464945 0.02161001 0.2913469 0.10741691 -0.039505307 -0.11600066 -0.033536654 0.110747956 -0.20072348 0.050713744 -0.035901997 0.08941963 0.04839674 -0.10353085 -0.2711248 -0.062245384 -0.08569098 0.059847843 0.3616821 0.19337304 -0.14537746 0.43244374 0.15292165
1122 0.022653842 -0.13150027 -0.010098102 0.029027287 -0.090227045 0.022693768 -0.16029318 -0.08607741 -0.39953896 0.17633584 0.19563162 -0.031021565 -0.21258003 0.27381858 -0.093005516 0.18347843 -0.09079695 -0.025568644 0.11897732 -0.041158967 -0.07071444 -0.09036391 0.16463125 -0.094147034 -0.11792653 0.26985106 0.120877385 -0.17339547 0.08970294 0.3931626 -0.16677454 -0.20592879 -0.11859466 0.06562386 -0.25024256 -0.02725929 0.12134008 -0.03725511 -0.16709296 -0.03667633 -0.2764136 -0.025812078 -0.075397156 0.18099946 0.1382519 -0.3189812 0.23973054 0.09693365 -0.006939695 -0.2999509 0.0040647215 0.10296326 0.07400098 0.17808403 0.18379758 0.07205029 -0.13310912 -0.1092244 -0.090847366 0.08761199 0.100068 -0.06890701 -0.12238523 -0.016909067 0.108870454 -0.1912868 0.006178199 0.25285152 -0.07568727 -0.061222054 -0.17947517 -0.0066196765 -0.22193043 -0.034842636 -0.14110783 -0.13474482 -0.10884468 -0.32006165 -0.141337 0.192114 0.10434584 0.068309836 0.039658844 0.003120164 0.08166514 -0.12788989 0.11155934 -0.085416555 0.20367387 -0.09138296 -0.101028144 -0.08553632 -0.24234125 -0.09629957 -0.011468392 0.39272177 -0.09490321 -0.18804495 0.2573474 0.11382172 0.038539037 -0.14150724 0.08295496 0.008879566 -0.061335288 0.23791148 0.023285165 -0.13913526 -0.074895136 0.08608522 0.018842611 -0.15409847 0.1305077 -0.14650291 -0.12464234 -0.21932302 0.25908422 -0.20346841 0.1612847 0.014002234 -0.07945671 -0.014866254 -0.17896777 -0.0022325027 0.14525872 -0.107734144 0.3360548 -0.17590058
1132 -0.007974319 -0.13065644 0.0069191623 0.06990277 0.047433678 0.020907497 -0.17726728 0.014866658 -0.25605738 0.15531683 0.012939806 -0.10700638 -0.097436436 0.030484982 -0.38927662 0.20406494 0.088766664 -0.19998723 -0.21209218 0.107389554 0.11795041 -0.18631952 -0.087760314 -0.052181594 0.0779934 -0.06863174 0.017313423 -0.28134486 0.041792255 0.16476284 -0.14147933 -0.20223852 -0.18567142 -0.16044287 0.1711579 0.2547088 0.054357108 0.052310854 -0.07974376 0.1051542 -0.08555743 0.050659794 0.26893628 0.37454328 0.19487494 0.07996825 0.20886196 -0.012864376 0.08714392 -0.014866106 0.2408082 -0.09422531 -0.32174158 0.049629126 -0.16704705 -0.16156706 -0.27518758 -0.21689235 -0.21422148 0.2574548 0.107611366 -0.2576145 0.091031305 0.104316175 0.072862044 0.06886368 0.1071078 0.15135086 -0.21633703 -0.003727499 -0.05845892 -0.14593503 0.14460593 -0.14254007 -0.19138157 0.16874774 -0.15221635 0.16453414 0.042355027 0.015546207 -0.30064872 -0.12742746 -0.11745501 0.2945755 0.046426237 -0.039155897 -0.091067985 -0.20451432 0.09308493 -0.2684214 0.1605635 0.15352897 0.0677949 -0.021173615 -0.020282414 -0.078920126 -0.17267516 0.11204762 -0.013856926 -0.16815843 -0.3003799 -0.08731813 -0.14041938 0.038214516 -0.055126835 -0.15550196 0.007850706 -0.10929663 -0.03863262 -0.11732923 -0.16561855 0.08984478 -0.21841496 0.20530646 0.19278018 -0.037994146 -0.050054416 -0.14511459 -0.061506458 0.1507165 0.11070865 0.02375165 0.26649216 -0.054203417 -0.23502895 -0.18032818 0.16847664 0.51860917
1109 -0.016416358 0.062574476 -0.06749131 0.07587379 -0.084967 0.031357218 -0.04268343 -0.03377701 -0.019214444 0.13918014 -0.039530072 0.009870882 -0.01222616 0.16573147 0.116771586 0.10914784 -0.033893466 -0.028485704 -0.17627311 -0.16310754 -0.0031748281 -0.06866466 -0.18232873 -0.1941204 0.18725397 0.16943759 0.061737694 0.069722936 -0.33387044 0.2850215 -0.14043021 -0.057308678 0.09785432 -0.114948355 0.03965296 0.10652819 -0.10457694 -0.07047398 0.108687945 0.07584758 0.18893698 0.12233625 -0.047725327 0.09678683 -0.010206139 -0.18755798 -0.22912675 -0.009909876 0.037523206 -0.3164603 -0.08688536 -0.18425399 -0.19805698 -0.11883145 -0.26280093 0.20950678 0.08031065 0.083474614 -0.028553646 0.1657231 0.16875923 0.013588873 0.108731814 -0.17809296 0.20197256 -0.20123474 -0.29768723 0.20459513 -0.3504084 0.24216788 -0.022236224 0.1607559 -0.3296821 -0.07814049 0.12603363 -0.2042365 -0.29257464 -0.25607204 -0.20151025 -0.012408027 0.019260883 0.06633565 0.1792529 0.23652723 0.018480247 -0.1785832 -0.06630979 0.1629081 0.056764085 0.0952283 -0.13964918 0.04356901 -0.24395184 0.02591001 -0.057641085 0.10842186 0.18208323 0.12107749 0.25892612 -0.09908599 -0.4070816 -0.073504195 0.01785775 0.20476806 0.049151745 0.037586376 -0.15342383 -0.047276318 0.10761894 -0.17129958 -0.13457641 0.0016546231 0.04513831 -0.3876973 -0.026881794 -0.25388122 0.07683242 -0.06018905 0.041724503 -0.052812513 0.17764474 -0.5271998 -0.0066455533 0.23798193 -0.0322156 -0.021001488 0.051183023 0.10546394
1130 0.08511184 0.10774351 -0.0029592072 0.17911421 0.0012763002 -0.06807086 -0.1074561 0.17840561 -0.29317275 0.37104142 -0.09255448 0.23442677 0.13695483 0.27771676 0.08553174 0.09550572 0.31912127 -0.2321048 0.07145541 0.22846597 0.26877293 -0.15311514 -0.21953128 -0.12819825 0.2424465 0.19127715 0.03105326 0.13026251 0.09576373 0.45962805 -0.1414511 -0.115391955 0.07403207 -0.21974915 0.1261267 0.11740852 0.055577338 0.12916926 0.0008250528 -0.37436464 -0.13326342 0.070056565 0.20182534 -0.019693498 0.13476498 0.061779514 0.01323905 0.0963041 -0.04896801 0.11995304 0.1229702 0.043385155 0.03897881 0.003277674 -0.13220406 -0.016340965 -0.06409733 -0.22921802 -0.10929733 -0.09960374 -0.067098215 0.25496763 0.07587205 0.13359074 0.027817119 0.057429343 -0.15324384 -0.0852972 -0.014800604 0.034509763 -0.26508522 -0.18211173 0.007316106 -0.10049521 -0.02647527 -0.06998532 0.023348965 -0.13752103 0.19359884 0.108645 -0.09732878 0.03896188 0.19325848 0.011509475 0.062164105 -0.0500769 0.16275452 -0.108014464 0.026088798 0.08143344 -0.10964753 -0.27889335 -0.029837752 0.037964165 0.115514465 0.18405414 0.013165337 0.14880651 -0.07203499 -0.11430728 0.009490246 0.07462671 -0.18082325 0.3518508 -0.52129185 0.10904256 -0.2712596 0.124714874 -0.09589951 -0.02764109 -0.2605335 0.2080074 -0.09683626 -0.023704182 0.086888075 0.053277314 0.09010311 -0.122915685 0.13211353 0.1444195 -0.026270999 0.030931164 0.08080599 -0.013024543 -0.065546736 -0.1052631 0.13611573 -0.20345569
1129 -0.10778276 0.13388488 0.076521344 0.26502332 -0.022245016 0.03381331 -0.027097441 0.18243907 0.0056124604 0.17886186 -0.2158831 -0.10890259 0.012244529 -0.029303977 -0.18392462 0.013765307 0.2613282 -0.14235543 -0.267021 -0.033937335 -0.21365766 -0.34957182 -0.014663435 0.046847403 0.03290844 0.17076127 0.032198858 0.039700847 -0.15279283 0.3748061 -0.40804052 -0.12815613 -0.24474105 -0.04398769 -0.054963827 -0.09594883 -0.016009234 0.34051052 -0.10154973 0.16151024 -0.008518798 -0.328595 -0.0061203106 0.33466092 0.23165555 0.09163311 0.119141035 0.14130875 0.069342546 -0.3546584 -0.16435075 -0.048508693 -0.3025484 0.0056942967 -0.03923246 -0.0727831 -0.009369908 -0.2507837 0.26495072 -0.107007906 0.07122343 -0.018500194 0.005294382 -0.11514105 0.1548016 -0.20047213 -0.1131847 -0.10789883 0.01936116 0.20428354 -0.12677424 0.1973015 0.011531719 -0.18930909 0.16928586 0.02347989 -0.1128412 0.121930875 -0.24723399 0.10809238 -0.110538505 -0.23885716 0.065449625 -0.04691523 -0.28431758 -0.0062051257 -0.09111838 0.2148315 -0.03624286 -0.21545583 -0.037912723 -0.15757263 0.27402332 -0.22791828 0.16483486 0.10276352 0.05724015 0.39843208 -0.27166158 0.10485998 0.18300171 -0.06840067 -0.1569803 -0.0726944 -0.1534803 -0.024546254 0.08877387 -0.12174857 -0.1359255 0.052138947 -0.05834833 0.09227704 -0.02131155 0.041015364 0.0657897 0.14993632 0.042453084 0.14443994 0.18358569 -0.08017502 0.12670732 -0.24966504 -0.22044079 0.15588625 0.36814207 -0.18004143 0.11909475 -0.072852686
1124 0.06413703 0.19350262 -0.2534222 -0.13470998 -0.17630076 -0.0013428858 -0.042702306 0.26918903 -0.055518676 0.15106681 0.25382045 -0.16290505 0.09361843 0.32918543 -0.02179634 0.3076407 0.07406151 -0.15287855 -0.12198277 0.13033867 0.21266052 0.120599754 0.11647991 0.021133054 -0.26698118 -0.0042022155 0.18373506 0.19797462 0.030733304 0.31184804 0.05227602 -0.08669983 0.09452628 0.33444554 -0.114215635 0.017489176 -0.03396817 -0.084437154 0.05794832 -0.031895593 -0.06272302 -0.14971948 0.23662655 0.2885372 -0.06704915 -0.056669928 -0.06335446 -0.120282605 -0.073355965 -0.018008288 0.02680649 -0.23320535 0.04325124 0.16916957 0.047757674 -0.10783482 -0.051960357 -0.08978863 0.091049105 0.17608736 0.11373679 0.34895667 -0.024692371 -0.023285614 0.17354977 -0.012471997 -0.0026378022 0.005710612 -0.11221213 -0.034345146 -0.13269965 0.18383 -0.00055045006 -0.027951699 -0.050787117 0.007147428 0.083056785 -0.19006298 -0.1011681 0.27387288 -0.013808349 -0.04852625 0.16885926 0.10795988 -0.18254057 0.060924932 -0.0043198075 0.07182101 0.1912732 -0.21406291 0.14490218 0.12834327 0.072895736 -0.25072885 0.16002494 -0.03546009 -0.11510127 0.16316165 0.16808516 0.260988 -0.28469086 0.116326205 -0.3157961 0.038985074 -0.0069583934 0.009710459 -0.115763485 0.12461172 -0.28447768 -0.017521141 -0.14521572 -0.024917044 -0.10890089 0.049326316 -0.09210513 -0.21682808 -0.019106744 -0.034666996 -0.12369027 -0.0750857 -0.01541431 -0.14699614 -0.18915571 0.28620636 -0.40012845 0.025225624 -0.12076089 -0.22216928
1120 0.035286583 0.3064501 -0.043582164 -0.12394049 0.1605768 -0.06412974 -0.017183436 -0.17530325 -0.043417882 0.20940319 0.005646312 -0.03069356 -0.16276023 0.16804218 -0.19158073 0.41296554 0.022695553 -0.23301536 -0.04268002 0.039643027 0.007727933 -0.040414993 -0.19090278 -0.3611042 0.18329644 0.06877202 0.30919397 0.08390606 -0.05296031 0.24044915 0.054355517 -0.22590128 -0.19211265 -0.05413475 -0.02186718 0.16729148 0.089437425 -0.1340318 0.0725556 -0.05249303 -0.26864398 0.11374292 -0.15717836 0.12605025 -0.06301671 0.13784492 0.07153837 0.33052358 -0.10280342 -0.417885 -0.006257939 -0.21508059 0.09873587 -0.08343454 0.15303668 0.071487054 0.3137867 0.082393214 0.018185904 0.19904089 0.057474077 -0.05471188 -0.17101912 -0.13926467 -0.13941342 0.34712538 0.017566025 -0.13723193 0.19148374 0.058402345 -0.12231736 -0.16636884 -0.18926892 0.09655343 -0.09372824 -0.07276477 0.18111053 -0.01281424 0.054194745 0.105181776 -0.20110491 -0.029114269 -0.0799067 0.12258323 0.18349542 -0.014632716 -0.22291033 -0.068447694 -0.061770987 -0.15349726 0.045261253 0.107527316 -0.08107243 -0.28220263 0.24593747 0.0595689 0.005699302 0.04188261 -0.10564696 0.24546772 0.14994705 0.09878519 -0.21649334 0.036223873 -0.087136425 -0.11992543 -0.054114368 -0.0062075667 0.0013036566 0.0953986 -0.25075477 0.02144949 -0.015334065 -0.32074884 -0.17372464 0.193173 0.20542295 0.02726249 -0.08078481 0.17055467 0.23920608 0.0137168355 0.09836603 0.08811346 -0.14974234 0.37119186 0.02316535 0.13928826
1139 0.07579478 0.020543817 -0.17794165 0.30408075 -0.015466903 -0.43523365 0.23140316 -0.23483521 0.05604324 -0.21433271 -0.17974156 -0.09363437 -0.20729998 0.17110221 0.10073395 -0.0043725953 -0.01922261 0.16565736 0.059503507 0.15850213 -0.061993286 -0.10954659 -0.20328307 -0.32805791 0.11072086 -0.10964277 0.03975651 0.021811595 0.32650223 0.26569617 -0.23061614 0.20244789 -0.07107802 -0.08541645 -0.35805053 0.34773186 -0.04965332 -0.24495028 0.033435855 -0.07703149 -0.16511017 -0.15444621 0.016392078 0.17473213 0.01898773 0.09431763 0.06717708 0.071445376 -0.13466607 -0.07777592 -0.14684454 0.0013848484 -0.019038089 -0.06342109 0.03578319 -0.0788932 0.05495368 -0.31318623 0.23619159 0.045868542 0.06057671 -0.12148163 0.33482027 0.13114965 0.08521119 0.0891922 0.2795222 0.16797684 0.08367693 0.09047146 -0.21291193 0.19824995 -0.04908035 0.040114634 -0.08830587 -0.0484646 0.057633113 -0.04771723 -0.08068689 -0.021814508 -0.18037932 0.12413706 0.25756624 0.17875727 0.09936478 -0.270178 -0.018877974 0.15620826 0.042793207 0.022943214 0.2529305 0.062494107 -0.26588538 -0.11059414 -0.03408359 -0.052256487 0.2238685 0.24386364 0.12483338 0.14924365 -0.19456302 0.07695886 -0.21770458 -0.19476976 -0.03985983 0.1656001 0.17596385 0.24737477 0.14443728 0.061259996 0.030755585 0.17416865 -0.26185772 0.015738199 -0.010591535 0.08255379 0.120253615 -0.19027276 -0.16169465 0.3279912 0.002054652 -0.09180593 0.08899573 0.24010065 -0.091454074 -0.03982464 -0.16780818 -0.25370422
1123 -0.26844293 -0.045960166 -0.095468804 0.15598619 -0.1642309 -0.18179864 -0.0064198715 -0.20439224 0.11202549 0.3103346 -0.065573335 -0.16108048 0.114837654 0.033736683 0.083619945 0.13269107 0.028044859 -0.22510767 -0.60465753 0.25116828 0.17178042 -0.068320826 -0.006190172 0.09334973 0.06929484 0.12690744 0.326669 -0.16937672 0.2799062 0.081537366 -0.02237158 -0.021223526 -0.12351742 0.018512445 -0.2031339 0.0005781078 0.042059176 -0.11409209 -0.18221264 -0.06868699 0.004593776 0.12670821 -0.06599291 0.0936821 -0.026701227 0.0404359 0.13311574 -0.27825287 -0.04203999 -0.09875435 0.0033032424 -0.17377867 -0.16983022 0.009622906 0.1271795 -0.0052511916 0.119180776 -0.075005144 -0.1235231 0.40171522 -0.048587393 0.19036892 0.027249126 0.18313111 0.021179331 -0.19822112 0.12422105 -0.069333225 -0.065153055 0.0003752195 -0.10924317 0.26061615 -0.037928283 0.04643867 0.043802813 -0.41984853 -0.19690853 0.25054538 0.030173713 -0.012008095 -0.07396584 0.0084445495 -0.021613315 0.13090797 -0.049501255 0.05903102 0.1425247 -0.3492954 -0.007092511 -0.10206378 -0.036124475 0.116717584 -0.3067211 0.045927204 -0.117558055 0.33705083 0.02657625 0.21864842 -0.04536938 -0.061148427 -0.08198158 0.25071877 0.054046888 -0.06717881 -0.086951576 0.09890115 -0.04919044 0.09590721 -0.039802898 -0.09369859 -0.03973443 0.08049346 0.1386525 -0.4067055 0.19673924 0.106606215 0.035766594 -0.0903135 0.054467093 -0.4280988 0.015652549 -0.16384648 -0.2539817 0.10824019 -0.082155876 0.15018675 0.19302744 -0.19457947
1135 0.20474073 -0.23215143 -0.030610329 -0.049677387 0.12640628 -0.076482505 -0.3120492 -0.265703 0.090474404 0.35403523 0.08960558 0.14518233 -0.17409667 -0.13652742 -0.30723214 -0.017086858 0.31669387 -0.11663031 -0.22986329 -0.11080882 0.06892935 -0.1729844 0.1342667 -0.042165592 0.16713221 -0.15823306 0.049305037 -0.1675642 -0.13899991 0.16128096 -0.053865854 -0.09530184 0.009777972 0.08359488 0.21469931 -0.096869536 0.16273162 0.06604119 -0.010631906 0.025421236 -0.004537116 0.047675204 0.08104085 -0.010574061 -0.16697377 -0.13513358 0.01062591 0.11737884 0.2556873 0.031908397 0.05350219 -0.13563982 -0.11494322 0.18330906 0.07220572 -0.23657432 -0.17723137 -0.15426622 0.36756596 0.031786565 0.16451843 -0.20448357 -0.007436628 0.15041381 0.40573114 -0.040951554 0.13436873 -0.06713911 0.07655574 -0.17498265 -0.29899788 -0.057895914 0.042464375 0.16530143 0.120586134 0.11948665 -0.23787723 -0.16696833 -0.04206005 -0.23436734 -0.3544715 0.07313389 0.17990802 0.13515307 -0.013766643 -0.11918723 -0.039716396 0.064371355 0.041165013 -0.05087213 -0.2051389 0.11533185 0.052829806 -0.33818397 0.31139183 -0.12322137 0.010405343 0.15143211 0.09966087 -0.030278843 -0.11822396 0.18525632 -0.22762743 0.055128627 -0.2454983 0.22223887 -0.092913315 -0.16095996 -0.29695532 -0.33245558 -0.053576518 0.17872632 -0.15702204 -0.018404828 -0.48680824 0.12538141 -0.039921302 -0.020952847 -0.020944836 0.022052716 0.035242938 -0.34894747 -0.22761898 -0.013653672 -0.014953516 -0.03171043 0.047375713 0.0092366915
1140 -0.21473734 -0.2442509 0.08702801 -0.10861648 0.22110532 0.28673822 0.19546337 -0.1388813 -0.0006786055 0.12449686 0.106400356 0.0073504397 -0.25311357 0.0800747 0.10029439 0.18440378 -0.057380117 -0.059955444 -0.14198217 0.35534188 -0.065025195 -0.10480382 -0.3030779 0.0281023 0.11052571 0.36320117 0.13495633 0.11301731 -0.08930425 0.29831764 -0.014756088 0.0037602358 0.07666295 0.22709933 -0.065222695 -0.10717649 0.08903282 -0.16575333 -0.0709294 0.023616519 -0.035897978 -0.15149009 0.2972405 0.32532287 0.2921797 -0.26165456 -0.29820088 -0.09735048 -0.15295804 0.08085277 0.23805246 0.014628897 -0.19353476 0.2251257 0.015745115 0.045684308 -0.35291427 -0.11594181 -0.048107844 0.38439137 0.28396717 -0.062979594 0.072297916 -0.01044089 0.10800029 -0.18630315 0.18981907 -0.24238391 -0.14825001 0.0006698588 -0.38103452 0.11735707 0.12923425 -0.01579873 -0.10776818 -0.101221584 -0.10110163 -0.022872519 0.044615753 0.18181083 0.022350896 0.26232523 -0.30292243 0.03766168 0.011214197 0.06578168 0.081745364 0.25675544 -0.07781235 0.20273189 -0.3275574 0.025532067 -0.121050246 -0.088346146 -0.22042757 0.06501978 0.14424498 0.10006659 -0.06978621 0.34505045 -0.18606725 0.3295505 -0.056955695 -0.23655093 -0.110571325 0.0030647165 -0.057029326 0.16147912 -0.15005547 0.09811121 0.15836066 0.29771766 0.21181905 -0.21153916 0.0050525507 -0.14208451 0.062582634 0.06592667 0.06594814 -0.015945565 0.04687841 0.09901552 0.21331027 0.16891474 0.35024217 0.29597953 -0.17063119 -0.071079575
1143 -0.12657952 -0.08162654 -0.35754016 0.091681704 -0.16779035 0.06791301 0.080229595 0.107836604 -0.30780596 0.13646072 0.32746708 0.12566893 0.048940152 0.3194266 0.054776754 0.29545808 0.30673346 -0.027168775 -0.0024883056 -0.006467356 -0.30257714 0.1890867 0.013765224 -0.052540008 0.16554616 0.18439317 0.032609228 -0.2506974 0.10278843 0.10241888 0.20470196 -0.20258209 -0.013272255 -0.032245673 -0.20404065 0.1449463 -0.007961775 -0.024447072 -0.220092 -0.15261681 0.1564153 0.10930774 0.2259653 -0.09721579 -0.09162987 0.22698672 0.12884654 -0.01810463 -0.0639969 -0.3299257 -0.25751582 0.17004897 -0.24237621 -0.15958549 0.17903705 0.23931366 -0.028465822 -0.15545918 0.07070353 0.15142192 -0.3505766 -0.24366966 0.023236461 -0.25308403 0.22321507 0.041573036 0.19367793 -0.24444832 -0.07808545 0.11000599 -0.060774434 -0.009055447 -0.05762311 -0.19367336 -0.32881483 -0.009612484 0.027866345 0.30825636 -0.18651702 -0.23032336 0.19744068 0.13843428 -0.020751491 0.41225165 0.1832531 0.15787575 -0.020505045 0.14697823 0.13882744 -0.070872664 -0.15171596 -0.05036151 0.052995186 0.077271 0.001539858 -0.16748162 0.19656068 0.121085316 0.06654981 -0.17004779 -0.34904802 0.24666442 -0.29813105 -0.20364368 0.042802956 0.00067148486 -0.27996725 0.14155254 -0.053927004 -0.15484583 0.003027899 0.24243882 -0.2727978 -0.025034172 -0.22765188 0.27594233 0.3996629 -0.20738783 -0.08716463 -0.0024283575 -0.053018972 0.18341973 -0.02387738 0.26194158 -0.01808318 0.33080158 0.15338913 0.042495016
1141 -0.14723769 0.0019165623 -0.074625246 -0.053759478 -0.15650927 -0.18539059 -0.009872466 -0.06464907 -0.037695073 0.09284583 0.06907575 0.516524 -0.047875073 -0.07873754 0.0730772 0.13820562 0.15975825 0.17229034 -0.14623383 -0.04265844 0.048639286 -0.34426773 -0.33490062 -0.050483536 0.11499711 0.060560986 0.25213528 0.2947191 0.40395805 0.6674059 -0.3100451 -0.10311863 0.09113118 -0.017124796 0.028741717 -0.103974506 0.09568713 -0.017358279 0.030388478 -0.08074831 0.2820614 -0.1691377 0.06619379 0.31988168 0.035164766 0.21477741 0.2062666 0.041460086 0.16030988 -0.15284081 -0.28264886 -0.025736194 0.019086037 -0.021606429 0.14890444 -0.064539045 0.065796785 -0.20587897 -0.043088403 0.28731632 -0.17325242 -0.078111075 -0.15024635 -0.14761211 0.042017456 0.068051964 -0.13940631 -0.12683967 0.17962454 -0.23057958 -0.16008714 0.2718169 -0.05117369 -0.20620556 -0.028014027 0.32724744 0.18662198 0.006421557 -0.28729576 0.10076135 0.028350802 0.20364307 0.0057574986 0.025576375 0.16187589 -0.16207488 0.25323474 -0.038122967 0.06125653 0.042192128 -0.19141291 0.16088434 0.16710803 -0.15087658 -0.28118142 -0.12031096 -0.39118847 -0.10529301 0.11212863 -0.31045458 -0.109656736 0.3237871 0.00668278 0.103237405 0.028105035 0.08784011 -0.0217813 -0.116490364 -0.16225916 0.047823805 0.041668918 0.10215878 0.11559732 -0.103713706 0.008099944 -0.034723785 0.06250883 0.06511583 -0.013107094 -0.011575221 -0.07255081 -0.0971452 0.014699835 0.12913416 -0.4769848 0.03460175 0.11237485 0.14909081
1145 -0.17359838 -0.09480975 0.03287244 0.19180135 -0.007753544 0.13192074 0.09495589 0.40189683 0.03228244 0.42821974 -0.002190117 0.18345918 0.21124123 -0.25249603 -0.10231916 0.0014911767 0.22655131 0.08207506 -0.16409811 0.094040126 -0.053060457 -0.11376616 -0.31875527 -0.40169382 0.25627398 -0.007311698 0.011089186 0.06730047 -0.0016145548 0.16514958 -0.19763684 0.01543751 -0.14537606 0.03402852 -0.3935777 0.1114379 -0.07897651 0.01816114 -0.29959524 -0.054464314 -0.16852969 -0.2056471 0.16031267 -0.10359185 -0.027357996 -0.04762555 -0.23253933 -0.16138569 -0.18916336 -0.27543262 -0.049059477 -0.018928882 0.055332586 0.36058864 0.19173072 -0.25663337 0.087540485 0.04267593 0.026101254 -0.0011097108 -0.34693503 -0.14008975 -0.044154406 0.042919554 -0.1952193 0.25947776 0.03727503 0.029346203 -0.21627612 -0.20410694 -0.11055557 -0.007674701 0.24286832 0.34303334 -0.03655893 0.10321894 -0.05665407 -0.11055572 -0.39078635 0.00022633417 -0.071717754 0.1097564 -0.0047210497 0.05526662 0.34796244 0.2988498 -0.15014136 0.17836049 0.28561264 -0.43587443 -0.15854034 0.3982741 -0.41909352 -0.06101539 0.26317152 -0.09878628 0.0012710167 0.04059788 0.3344177 -0.1518612 0.19400424 0.17120269 -0.0049412274 0.050637804 0.06935373 -0.2572268 -0.10357722 0.16334204 -0.015788961 0.08974128 -0.32062584 -0.07735188 -0.21189943 -0.096822344 -0.19631124 0.16893268 0.24196921 -0.10673878 0.06259717 -0.0144292265 -0.078306764 -0.05695124 0.14306936 0.19305262 -0.11621139 -0.19333895 -0.12002897 0.27502435
1147 -0.326135 0.01049845 -0.19028851 0.2129156 -0.38019168 -0.2844606 0.16793326 -0.040899567 0.090505466 0.24867637 0.34473512 0.40731573 -0.06856223 -0.026180916 -0.12021928 0.21262616 0.2381176 -0.14062259 0.086685464 0.22028878 -0.10261053 -0.25605106 -0.67474765 0.13909304 -0.07354375 -0.5071014 0.12025035 -0.17494373 -0.10391035 0.26100615 0.34178138 -0.12553065 -0.04598967 0.019380378 -0.4188596 -0.041617535 -0.10774731 -0.04585358 -0.38260716 0.06909916 -0.1371968 0.0823439 0.15218341 -0.16729112 0.11541433 -0.053350285 -0.01655787 0.221977 -0.096577846 -0.23602106 -0.22869861 -0.24542062 0.19621104 0.22011273 -0.048024815 -0.12442164 0.11523007 0.030030208 0.18917054 0.0063319406 -0.06847901 -0.40299824 -0.26831487 -0.12959695 0.07540388 0.059406497 0.27078664 -0.20788188 -0.28467783 0.026458606 -0.110760786 0.052818265 -0.30197126 0.25752032 -0.18151554 0.3387991 -0.13584663 0.13286553 -0.027076386 0.31478545 -0.07338446 0.09604114 -0.033074297 -0.006591087 -0.023551397 0.22491622 0.03533095 0.24112085 0.21459177 0.32825422 -0.17430171 0.010048687 0.056322616 0.00024177323 0.28926384 0.35446465 0.19525047 -0.21068478 -0.20474927 0.01839485 -0.6453522 -0.107154466 0.006824123 0.075889826 -0.039783627 0.14747806 0.248488 0.07153099 0.08627583 -0.10852274 -0.34436074 0.077575706 -0.22088102 -0.23464707 0.1934483 0.20109907 -0.24674067 0.24972223 0.007183984 -0.0494743 -0.34499222 0.13764526 0.14003068 0.13678761 -0.13805331 -0.100982234 0.31702706 0.115570426
1144 -0.0019310135 0.02774766 -0.025119552 0.34586567 0.060635474 -0.19795418 -0.11056772 0.13895029 0.17395757 0.31464943 -0.42919442 0.08231484 -0.21851803 0.16597195 0.22576052 0.07831562 0.4017544 -0.07698713 0.12915531 -0.2878639 0.29324898 -0.024265528 0.022205785 -0.052271444 -0.04331659 -0.46001124 -0.056324016 0.09671036 0.5125677 -0.020180628 -0.123135604 0.121057466 0.10870871 0.2864866 0.13627124 -0.11871501 0.1670608 -0.29466543 -0.594572 -0.067928344 -0.12576097 -0.17485936 0.30432883 0.35415664 0.22809897 0.01514052 0.2573321 0.07314082 -0.01408005 -0.41906494 0.27056324 0.2945565 0.2270504 0.08968291 -0.10142786 -0.02887583 0.050711337 0.26938426 -0.0061922143 0.2675758 -0.20633896 -0.09981594 -0.46344793 -0.15524161 0.014977738 -0.07953054 0.07223051 0.14464013 -0.2097606 0.13689512 -0.58410406 0.23160928 -0.04292542 0.3256379 -0.21462923 0.0926125 -0.016712414 -0.020307682 -0.44879746 -0.108133055 -0.09973089 -0.124633834 -0.56562513 -0.013088098 -0.13168252 -0.0037480535 0.29862574 0.13827227 0.34168196 0.28623307 -0.10653098 0.20091279 0.07303961 0.42426038 0.14508733 -0.09858404 -0.14821894 0.15057975 -0.018204063 0.04101725 -0.1235333 -0.24069948 -0.2742538 0.5666295 0.19098881 -0.1858273 -0.25114796 0.10342834 -0.15643798 -0.0116553055 0.3297959 0.24702133 -0.1453387 -0.22313036 -0.09547405 0.57515574 0.19966632 0.10424053 -0.32257256 0.13510445 0.051466927 -0.36321515 -0.011945352 0.031555012 0.1638438 -0.27333927 0.051967237 -0.052483667
1146 -0.3205298 -0.41590828 -0.14858031 -0.0042625703 0.35673007 -0.47699147 -0.1603368 0.076014034 0.20810795 -0.09299718 -0.10721586 0.074407786 0.13861905 0.35597247 -0.036866236 -0.034816056 -0.036998555 -0.25317755 -0.1509634 0.38003245 -0.321365 0.08812908 0.14503023 0.0023458148 0.30479282 -0.4938616 -0.1252017 -0.07340554 0.0909083 0.20231074 0.1684172 0.085414656 -0.06389882 -0.029710678 -0.3265222 0.013067824 0.0403641 0.35472763 -0.8031984 -0.011456084 -0.017161995 -0.2792108 -0.078246005 0.22974691 -0.19223818 0.19677894 -0.009313753 0.19933839 -0.16059631 -0.10887566 -0.08789481 -0.2705821 -0.15990245 0.28640828 -0.034104586 0.2838758 0.28701282 0.055975523 -0.27755275 -0.049315933 0.0072045233 -0.14433381 -0.26162615 -0.3656532 0.13867678 0.3988262 0.2818118 0.08546907 -0.08551077 0.20379186 -0.18526757 0.008779886 0.4141961 0.06259639 -0.11813706 0.15499905 -0.023820018 0.06896185 -0.07847745 0.3694184 -0.062063664 0.17254117 0.22745116 -0.04426977 -0.007367572 -0.07030439 0.10038905 0.18342745 0.036332007 0.20025419 -0.2237709 -0.13728155 0.110353656 -0.18386589 -0.21189727 -0.12802564 -0.39749998 -0.08000784 0.5956065 -0.07474434 -0.37505975 -0.15094498 -0.18085742 0.513627 -0.38882884 0.11573243 -0.24320756 0.011032524 0.013267946 0.45227933 -0.11748839 -0.0013457937 -0.3021626 -0.2667832 -0.24285603 0.19993918 0.13451977 -0.2096333 0.3930161 -0.0023285658 -0.01379651 0.108177535 0.07955627 0.20615977 -0.012079096 0.05242939 -0.09223579 0.25774065
1148 -0.18529591 -0.3784243 0.34379995 0.08762833 0.29122788 -0.049094845 -0.03116765 -0.22249347 0.017245805 0.2074206 -0.26964182 0.34769556 0.27501273 0.58351874 0.22826326 -0.12607642 -0.13499103 -0.413426 -0.16586451 0.13183852 0.20175436 -0.0935357 -0.35757524 0.07549987 0.2659906 -0.118740834 0.21017607 0.21548179 -0.0065168696 0.4877367 0.08955807 -0.75306624 -0.17394207 0.58076686 -0.5441445 -0.41010106 0.33337876 -0.26517612 0.09212544 -0.4917982 -0.03649556 0.10517043 -0.22259109 0.3269729 0.3186217 -0.24191001 -0.62890357 0.26261622 0.0716891 0.10196716 0.21998191 0.2648705 -0.034709886 -0.0061111436 -0.06983423 -0.4841182 -0.24399574 -0.18989433 -0.107114434 -0.10972209 -0.42666063 -0.2539733 -0.38047314 -0.24078605 0.008990113 0.076411724 -0.017715478 0.3623333 0.1992593 0.33557478 -0.046748586 -0.17361492 -0.24256282 -0.5359018 -0.13920039 -0.124900445 0.12030478 0.24598473 -0.04102013 0.09108572 0.018476976 -0.07712735 0.30710924 0.33751893 -0.1339263 0.3319097 0.07342344 0.12533228 0.2749278 -0.25994706 -0.18036136 0.12392675 0.34199432 0.18999282 -0.12843348 -0.14201376 0.29376096 -0.3267166 0.6093682 0.25688004 0.13079374 -0.2601631 -0.25850663 -0.40792602 0.08321427 -0.081440926 -0.03175095 -0.19514519 0.38020486 -0.2989715 0.1884145 0.19990112 0.1325533 0.29694018 0.2377353 0.7995035 -0.28127813 -0.16807231 0.07395242 -0.43796408 0.23750529 -0.46402994 0.3117969 -0.047890928 -0.20479839 -0.28492582 -0.13722776 -0.35112754
761 0.00835891 -0.1348206 -0.049176976 0.007604167 0.115743056 -0.0053948816 -0.03323921 0.06469372 -0.054757886 0.11528038 -0.03167949 0.0019095929 0.0013346019 -0.07455173 0.0014715188 0.13746049 -0.07613725 -0.046219397 -0.18291375 0.111307345 0.048836164 -0.111737505 -0.026393257 -0.17323329 0.052014515 -0.15875599 -0.0830925 -0.015924206 0.119772576 0.09839026 -0.044043552 0.020277107 -0.048400044 0.060512293 0.032166235 -0.06677538 -0.079130575 0.047884326 0.054687515 -0.08465801 -0.06213596 -0.07297866 0.050500393 0.06901981 0.037705373 0.05233543 0.12309795 -0.0657519 -0.13521518 -0.107990935 0.08776962 0.05533861 -0.06252121 -0.037489396 -0.09466027 -0.031378217 0.08358137 -0.11944714 0.08044569 -0.068142325 -0.065011315 -0.004993964 -0.2066184 -0.088066205 0.055889387 -0.04975059 -0.11594692 0.013350455 0.064743094 0.15165348 0.0014228022 -0.084014185 -0.15583405 0.036318306 -0.13445589 0.011494763 -0.07270698 0.0017088235 -0.079813294 -0.015599733 -0.16807722 -0.016341612 -0.011224871 0.11538539 -0.054247912 -0.010557024 -0.026686238 0.13211644 0.07757452 0.037459817 0.025654674 0.1871903 -0.07095232 -0.028877068 -0.028453168 0.0404235 0.08587016 0.023662332 0.04176429 0.0360378 -0.075026274 -0.004079176 -0.16186121 -0.003299224 -0.047818184 0.121786766 0.09653501 0.077499956 0.018726435 -0.004614139 -0.13205265 0.035313006 0.036722723 -0.049630452 -0.052426223 -0.0032319801 0.16520461 -0.08230278 0.059805665 -0.15219113 -0.028159812 -0.0077777565 0.0696056 -0.027626166 -0.0077589904 0.0952398 0.05892199 0.05132952
781 0.041703057 -0.045477487 -0.08459559 0.10177892 0.02846927 -0.004865301 -0.028342258 -0.0082637295 0.016987894 0.13835952 0.06312651 0.026202837 0.11487939 0.01834126 0.021301677 0.04225033 -0.0869034 -0.11157135 -0.13360526 0.105394505 -0.049921423 -0.09873119 -0.112619884 -0.1387969 0.063752875 -0.01728549 0.0032612162 0.01611368 0.10056062 -0.005560397 0.032709565 0.010934804 -0.046429865 0.13424978 0.017536914 -0.03227488 0.0014217931 -0.10072315 -0.0814943 -0.026524734 -0.0885616 -0.09204649 0.077700816 0.12986514 0.11526453 -0.010173264 0.19681811 0.09037778 -0.11076135 -0.023506725 0.07297194 -0.09914293 -0.17638272 0.059158336 -0.07914668 -0.011512855 0.03857505 -0.18993863 0.04421015 -0.12597482 -0.02175503 0.060336098 -0.17627303 -0.06015853 -0.031765968 0.10479651 -0.1207659 0.02572772 0.049907647 0.020426784 -0.0053243353 0.103824064 -0.014758938 -0.0122364685 -0.12661177 0.060758278 -0.046635218 0.018479625 -0.0155259995 -0.10938986 -0.061581913 -0.059390455 -0.03783631 0.1030862 0.027193537 -0.04027971 -0.09645059 0.023759631 0.060439013 0.13175072 -0.16932932 0.06847342 -0.10798105 -0.05822653 0.03579649 0.004440661 0.05307467 -0.021522006 0.049714267 0.09195518 -0.13090684 0.10632938 -0.112079345 0.06133614 -0.03634475 0.040695477 0.09478882 0.027329812 -0.0024874299 -0.06864508 -0.11386955 0.11157012 0.11930629 0.07791875 -0.0651295 -0.06356167 0.14570078 -0.07952505 0.0240716 -0.08732112 0.030117355 -0.056714114 0.030027254 0.009673151 0.024027195 -0.008488439 0.08808542 0.10057619
1076 -0.03783946 -0.040380303 -0.03900464 0.059012424 -0.049638517 0.056974374 -0.002588196 -0.026700843 -0.016985755 0.2698372 0.04040871 0.040535014 -0.015303016 0.02561406 -0.020036323 -0.0042727203 -0.14066823 -0.18736671 -0.03777322 0.17654543 -0.092419915 0.076083176 -0.04524555 -0.0972956 -0.01757558 0.048477 0.07951019 0.06556378 0.141263 0.08697526 -0.006555163 0.06934834 0.048043367 -0.023998464 -0.04531935 -0.017956486 0.011248728 -0.108772136 0.044139177 0.16314556 0.02742423 -0.09317589 0.12344287 0.1294313 0.09168644 -0.064687066 0.2226659 -0.015234458 -0.052335937 -0.07961294 -0.028383883 -0.12381268 -0.0776641 0.04629924 -0.06817194 0.10030522 0.066052526 -0.15224446 -0.0010517556 -0.06481103 -0.020140108 -0.09446608 -0.108994216 0.0001773382 0.049140517 0.09992446 -0.1357752 0.046907533 -0.14035265 -0.053902265 0.0073736687 -0.025373911 -0.06050556 0.031650763 -0.08796612 0.0278947 0.08013671 -0.05107416 -0.053341642 -0.050998237 -0.16307889 0.012174307 -0.04513781 0.07960951 -0.013446542 -0.008993341 -0.10210691 0.07805539 -0.05709016 0.07588728 -0.043823194 0.008928327 -0.083319135 0.027333776 0.04714301 0.029650748 0.06713632 -0.008794474 0.01192066 0.025319641 -0.104755625 0.08977972 -0.13878109 -0.051787604 -0.06670008 0.044111665 0.054587726 0.06378004 -0.025213724 -0.023754854 -0.07554813 0.08738976 0.01246153 -0.049643222 -0.027429352 0.079965316 0.036058385 -0.011921862 0.11099887 -0.11891112 -0.011865499 -0.120378226 -0.021581316 0.048036903 0.0066560525 -0.00030891274 -0.028674552 0.03523474
376 0.039742798 -0.15812486 0.061764237 0.11867789 0.001343289 -0.085134864 -0.022102106 -0.06639839 0.0333608 0.14926794 0.0430901 -0.03221266 0.08298998 0.14977367 -0.07984677 -0.0465139 -0.16192403 -0.13199878 -0.26133376 0.09569898 0.062518254 -0.07613147 -0.07552619 -0.03608948 0.014811721 0.021162022 -0.08708911 0.069672845 -0.04573169 0.08814602 -0.04909364 0.0005732401 -0.036872435 0.06674347 -0.06449588 -0.081995435 0.011463271 -0.0065665836 0.005677346 -0.03429506 -0.04675915 -0.19192827 -0.14186786 0.060684253 -0.09458305 -0.14558375 0.05396724 0.0044527985 -0.057505246 -0.09685036 0.09735811 0.22334073 -0.022079393 0.08001764 -0.19184226 -0.09148488 0.05909881 -0.23706292 0.008550435 0.18694595 -0.12426529 -0.06337497 -0.07976681 -0.08518315 0.0030395337 0.018104635 -0.12618548 -0.09071347 -0.024099285 -0.03496147 0.029806467 0.018500471 -0.09497708 -0.008147545 -0.03252885 0.19607286 0.0060528824 0.020910643 -0.06825842 0.010474501 -0.05048064 0.04363371 0.013532268 0.063020945 -0.07207978 0.07575168 -0.031311 -0.005165616 0.13673635 0.11088769 -0.095930204 0.09709055 0.016573278 -0.056340285 0.008406859 -0.013516072 0.033437658 -0.02472609 -0.04908931 0.08929281 -0.20268287 -0.005534615 -0.29626897 0.055091307 -0.073779486 0.009513481 0.066580616 0.1305636 0.11422162 -0.05360463 -0.1371784 0.09351126 0.04870633 -0.15498799 -0.044051398 0.0996396 0.1538007 -0.16132812 -0.035304405 0.016983699 -0.036887348 -0.002833127 0.05468699 -0.085585654 0.02981211 -0.06135988 -0.111277826 0.06168406
1094 0.07330905 -0.10908139 -0.014456802 0.10144047 -0.054088738 -0.046255577 0.026000518 -0.09248911 0.09806342 0.1330081 0.039178718 0.018180411 0.071276665 0.0030155224 0.030732203 0.05157171 0.005660908 -0.09488142 -0.16183361 0.19307972 0.06638547 -0.115633056 -0.041954465 -0.11029283 0.09684434 0.009883759 -0.12719408 -0.06115335 0.0628949 0.12309313 0.0046148165 -0.04626543 0.07568762 -0.0116057275 -0.1581659 -0.0096809175 -0.004384208 -0.047799807 -0.027374886 -0.047362454 -0.032806475 -0.094362356 0.006090193 0.15885696 0.048300065 -0.024759926 0.16161688 0.06367778 -0.08515212 -0.13263246 0.17400701 -0.031756498 0.011345643 0.018918913 -0.06881519 -0.16569683 0.07980785 -0.117626175 -0.014520502 0.0021591026 0.029623104 0.039879333 -0.1422151 -0.074096195 0.08852132 -0.084344596 -0.06804333 -0.04730506 0.011057939 0.02914683 0.086951114 0.02578514 -0.112062745 0.054698117 -0.022657182 0.068627365 0.023463402 0.0062825875 -0.113676414 -0.10492416 -0.034858458 -0.060795188 0.03817097 0.09350618 -0.06637879 0.06533432 0.036876593 -0.0584858 0.042331737 0.17476512 -0.061020993 0.18250598 -0.11756116 -0.011667224 -0.06544371 -0.03476509 -0.06616915 0.06804692 0.056046363 0.08260454 -0.18594328 -0.0079203965 -0.17090747 0.06753598 -0.08542635 0.06347895 0.01090471 0.0033070866 -0.066207014 -0.00259205 0.011686251 0.032507736 0.04245306 0.093154706 -0.15117942 -0.051599853 0.18233995 -0.05029328 0.033091333 -0.09125665 -0.05670576 0.14263779 0.029752908 0.017230477 0.036352843 0.07263077 0.0129092345 0.018900793
356 -0.044040397 -0.14428464 -0.03002502 0.16406478 -0.016206667 0.0013374018 0.01371585 -0.026488941 -0.014033272 0.1782104 0.026431173 -0.05178095 -0.09441836 -0.13305466 0.01975698 -0.0262273 -0.11262813 -0.12740602 -0.22990845 0.13326946 0.042745117 -0.025095135 -0.012540088 -0.10560416 -0.009365104 0.0007609528 -0.06714529 -0.033802688 -0.023593977 0.1513952 0.015512839 -0.02742215 0.008563103 -0.009871005 -0.12418685 -0.02701582 -0.061439883 -0.047124475 0.072428145 0.046304386 0.024734441 -0.1736615 0.071191475 0.09201944 0.0076595135 0.025115175 0.22948997 0.017177064 -0.065323725 -0.010182235 0.15697166 -0.0070259334 0.013806885 -0.11178897 -0.030121928 -0.032603 0.08322836 -0.088733844 -0.00024600982 0.0673086 -0.06439624 -0.055875894 -0.12836345 0.010031403 0.08790331 0.0787856 -0.059917748 -0.10200102 -0.01018499 0.06359061 0.045106903 -0.037761122 -0.12361048 -0.02719123 -0.048297726 -0.07803812 0.038849737 0.031168377 -0.15810308 -0.06678841 -0.030790986 0.012088501 -0.01496298 0.1573947 -0.044859048 0.023191731 -0.07880558 0.044581827 0.035430804 0.04815773 -0.06459749 0.22850046 -0.013242272 0.048476044 0.014081608 0.023086729 0.008269901 -0.010500882 0.019010754 0.06689386 -0.082005955 -0.033030268 -0.148287 0.109777585 -0.15026939 0.15704319 0.091590635 0.048229434 -0.116912 -0.049309753 -0.04429941 0.00018354433 -0.008188474 -0.123218715 -0.127636 0.038425215 0.081093006 0.026769424 0.0022311367 -0.04563038 0.041892044 -0.0652159 0.12613273 -0.06526668 -0.09626923 0.06744447 -0.012886197 -0.074767694
975 0.04145159 0.019454569 0.044296566 -0.020846784 -0.051916122 -0.056002267 -0.047706272 -0.06446193 -0.09975942 0.12350988 0.037925005 0.0787859 -0.016858155 0.054871354 0.033678956 -0.1046775 -0.02019649 -0.09736859 -0.19333375 0.17689289 0.045454133 0.071707085 -0.04056965 -0.035408877 0.056727353 -0.039144896 -0.037549898 0.005433733 0.02965772 0.07469307 -0.10638596 -0.04870397 0.031676635 -0.06729627 -0.15107547 0.076055355 0.092400916 -0.094305046 -0.04748189 -0.07292123 0.033009756 -0.057650823 0.053741332 -0.016113028 0.08739605 -0.013799391 0.11701879 0.14508045 -0.1109175 -0.11169612 -0.023872973 -0.08654783 -0.19819994 0.19446166 0.08625199 -0.088257454 -0.04717421 -0.22737968 -0.09867483 0.0042616394 -0.07757331 0.022717202 -0.13376069 -0.19755688 0.01745371 -0.0019548342 -0.14702833 0.0062516443 -0.027885772 0.0672059 -0.08017536 0.09583847 -0.07744248 0.101699285 -0.075052984 -0.05455779 -0.00401893 -0.058227897 0.068731084 -0.032899942 -0.05517407 -0.07142846 -0.07345196 -0.012626859 -0.058139283 -0.06876101 -0.016352924 0.084115356 0.0018207215 0.13078898 -0.03306731 0.08650589 -0.12692475 -0.0984204 0.063050345 -0.0013089199 0.038915925 0.009961976 -0.005861076 0.107438676 -0.13486119 0.12839623 -0.12090813 0.034820314 0.03103475 0.055444602 0.04261529 -0.04511714 0.05043248 -0.012362151 0.013865175 0.025969053 0.06544853 0.072567664 -0.09097553 -0.04271519 0.12955405 -0.10703685 0.0050358237 -0.09353333 0.01080372 0.013309267 -0.07422043 -0.043432724 -0.050330117 0.023832746 0.062309187 0.12826821
842 -0.024967117 -0.06997698 -0.07068612 0.02828157 0.00787618 0.03790214 -0.028419113 0.011204603 -0.00641827 0.12509844 -0.009905634 -0.055123836 -0.048935417 0.06789138 -0.0338353 -0.00066114456 -0.08203706 -0.07171229 -0.236852 0.1752094 -0.057132766 -0.12581295 -0.12610246 -0.05719684 0.09002662 -0.08997056 -0.12311688 0.043485194 0.06282317 0.05920969 0.03907131 0.028469112 0.10136365 0.0766593 -0.032201968 0.05030984 0.11627182 -0.024590852 0.051416896 0.067551926 0.059315417 0.00204166 0.06073536 0.12591606 0.08249351 -0.023050658 0.27252385 0.0149810705 -0.1591477 -0.14285758 0.05304599 0.14777957 -0.085964195 0.019959163 -0.12117346 -0.07811873 0.10059709 -0.118158326 -0.018609343 0.0030220225 -0.06457507 -0.03231371 -0.108899765 -0.13607068 -0.0100046005 -0.057230666 -0.12267588 -0.107024275 0.02456533 -0.053891923 0.0490326 -0.03059759 -0.12350882 0.07979139 -0.05090543 0.12331126 -0.0460226 -0.11944071 -0.12786622 0.047188204 -0.12276868 0.004346075 -0.082758114 0.16403602 -0.040428057 -0.03544828 0.0016723676 -0.0052572037 0.009843018 0.13992193 -0.11738074 0.18168087 -0.08303305 -0.058545142 0.06722333 -0.076865084 0.013361475 0.08864877 0.037111748 0.16986172 -0.13046622 0.0825098 -0.10559957 0.05661992 -0.10953075 0.04541668 0.046529025 0.008462702 0.015129712 0.0060962304 -0.028208755 0.020317817 0.0010632336 0.0040147007 0.034865994 0.0026463128 0.14066982 -0.08108932 0.11115354 -0.03790967 -0.05888191 0.011728099 0.001388432 -0.08908016 -0.017100776 -0.0106454035 0.08571258 -0.02703293
1079 -0.019576425 -0.13903376 0.09407058 0.10901233 -0.007672834 -0.11432024 -0.0013607653 -0.13848856 0.027769318 0.08066717 0.064308345 -0.019772513 0.14413673 -0.014927133 0.001573193 0.19905084 -0.09780665 -0.10958534 -0.12362037 0.1255164 0.047269363 -0.09574893 -0.05316008 -0.023331149 -0.01709776 -0.06257672 -0.039613485 0.022789903 -0.017065194 -0.007417186 -0.07328605 -0.002087042 -0.04652262 0.21343702 -0.041182313 0.031053407 0.13849647 -0.14665091 -0.09661521 -0.032676402 0.12601645 -0.20558403 0.058925793 0.036357764 0.01497407 0.0013211443 0.1520422 0.0889371 -0.10565087 -0.0026524665 -0.08996954 0.17868774 -0.0999808 0.042815093 -0.107101806 -0.07800722 0.07036013 -0.2846541 -0.020480383 0.042606194 -0.13293181 0.0076454054 -0.14983714 -0.08129531 0.043522134 0.037070222 -0.19851495 0.043075114 -0.02789048 -0.021380963 -0.035408244 -0.08107526 -0.07844032 -0.10539594 0.036166698 0.16222057 0.047966275 -0.099245265 -0.08786049 -0.00995779 -0.19419278 -0.04536059 0.038160738 0.053425506 -0.041959085 0.049224343 0.014908819 -0.015075553 0.011790003 0.07239385 -0.12516385 -0.09309045 -0.19284898 -0.11073072 -0.00048875925 0.016713459 0.1016493 -0.0955694 0.019074943 0.104419395 -0.20650932 0.06603553 -0.18613559 0.0069706365 0.027775899 0.042397235 0.0663896 0.056664843 -0.11992604 -0.1399107 -0.15828004 0.16101237 0.024374172 -0.032062985 0.0057990397 0.053619288 0.22465993 -0.043927673 0.052609973 -0.08690707 0.055105355 -0.02544732 0.016486686 -0.042989895 0.09296129 0.04997557 -0.06324025 0.09728528
396 -0.0056132767 -0.06436716 -0.073566005 0.15191066 0.08200155 -0.034756344 0.010063019 0.047036428 -0.10742704 0.13684642 -0.013842895 0.007878029 0.08398534 -0.12400236 -0.024130158 0.010241597 -0.02632515 -0.15934257 -0.15994123 0.07008403 -0.0015621973 -0.16178828 -0.05760771 -0.07149482 0.017182585 -0.010890579 -0.19019236 0.088606015 0.048724826 0.097911686 0.0013615504 -0.1171546 0.018638285 -0.026029551 -0.11260404 -0.09898641 -0.055039454 -0.035005875 0.006375556 -0.016090387 -0.060939178 -0.002838136 -0.025105398 0.17489217 -0.017310673 0.14227302 0.14807892 -0.002641561 -0.10461201 -0.009784104 0.09744681 0.027883722 -0.089343525 -0.049497083 -0.013769817 -0.12842143 0.076416805 -0.16149603 0.07887818 -0.05279291 0.06131886 -0.019405494 -0.16377296 -0.054405916 0.169361 0.04195285 -0.014195443 -0.12989984 -0.0655628 0.04564442 -0.007367158 -0.022566505 -0.19930314 0.07740519 -0.014022834 -0.0120095555 0.032724917 -0.03491012 -0.21740165 -0.05550473 0.014024238 -0.04807711 -0.053107854 0.12035584 -0.011054482 0.025012786 -0.07449518 -0.025684297 0.09324656 0.15229425 -0.01603285 0.13009183 -0.06926466 -0.05519906 -0.13053969 0.05789427 -0.050262433 -0.041651364 0.052525472 0.04980059 -0.1711122 0.0029258197 -0.2511579 0.10856588 -0.050351743 0.08348247 0.09242887 0.065446585 -0.0051521575 0.011351376 -0.096419185 0.07166439 0.09805093 -0.029177576 -0.090216234 0.011812142 0.22083253 0.07910461 0.03237084 -0.12720662 -0.020240404 0.017686054 0.011619073 -0.09725995 0.011800913 0.05122079 0.06179581 -0.053195175
983 -0.03329508 -0.03945246 -0.089466 0.044223104 -0.106973484 -0.012261629 -0.12106205 -0.04626829 -0.11543686 0.099070646 -0.055147044 -0.01907942 -0.048762117 0.14416143 0.013412853 0.02748792 0.0007441182 -0.054312028 -0.07371515 0.05913652 -0.13846718 -0.016144905 0.022908337 -0.036386512 0.07675505 0.11448176 0.06305172 -0.0032021296 0.067377366 0.11313636 -0.11854087 -0.019939587 -0.059679653 -0.018488737 -0.062464282 -0.03812698 0.053641118 -0.1325247 0.039223038 0.076983914 -0.010765254 -0.0994954 0.11734013 0.0069461945 0.07502628 -0.01926806 0.024855494 -0.0048598503 -0.060889926 -0.07799409 -0.018604282 -0.14732732 -0.07279123 0.11399874 -0.016252272 0.05952975 0.040249296 -0.25873446 -0.14735638 -0.03511421 -0.13598429 -0.08004153 -0.051933415 0.0800709 -0.034344174 0.034563202 -0.07116255 0.0022394792 -0.07130816 0.02799562 0.001387992 0.08168213 -0.022689236 0.027910968 -0.1138375 0.11271635 0.081078805 -0.0031556448 0.021088956 -0.0091725625 -0.124141514 -0.04818607 -0.062179822 -0.087041035 -0.11232302 0.029778307 -0.06586503 0.0644352 0.0021540532 0.10817563 -0.028860485 0.20706743 -0.05857564 -0.0034414406 0.04660166 -0.056273222 0.16708006 0.03845044 -0.02947815 0.050627008 -0.024481835 0.034741238 -0.11623679 0.05087813 -0.03638781 0.0402801 0.05147491 -0.03917766 -0.03996476 -0.014360792 -0.028829208 0.1485886 0.04500692 -0.08094506 -0.13792546 -0.017364413 0.10091803 -0.08962709 -0.019313555 0.000115739305 0.08717702 -0.12072313 -0.033633348 -0.013891696 -0.16915111 0.024745509 0.06637725 -0.089513145
397 -0.0619975 -0.035335995 -0.13308215 0.12623326 0.06959302 0.013165481 -0.047482993 -0.11836941 0.026172765 0.2013143 0.07064526 -0.066758096 0.06760494 -0.05019146 0.048796877 0.003644838 -0.1074945 -0.08239022 -0.15039907 0.2153086 0.103291556 -0.13041234 -0.08310925 -0.06650121 0.001852358 0.021097373 -0.06272756 -0.021340411 0.07110264 0.035032146 0.008701436 -0.036574468 -0.027780334 0.120139755 -0.13676143 0.11059296 0.100471646 -0.029312404 -0.043562494 0.044935804 0.09901284 -0.1820822 0.16474684 0.05007835 0.05154925 -0.013304404 0.13064629 0.10401522 -0.105432615 -0.09011574 0.13815963 0.032179784 -0.06688246 -0.060298193 -0.08090069 -0.052637085 -0.007788256 -0.18944865 -0.08207419 -0.13022728 -0.016774695 0.07651217 -0.105881475 -0.11729945 -0.06099596 0.065156415 -0.19506362 -0.053217877 -0.03857563 -0.029074108 0.056421176 -0.023288382 -0.104171164 0.02865234 -0.07682211 0.0010426061 -0.05093884 -0.028040597 -0.18404502 -0.07227665 -0.08783438 -0.08466366 0.049466904 0.055594645 -0.03524112 0.006362444 -0.16794206 0.026318453 0.011017945 0.125575 -0.110920966 0.060647175 -0.054535758 -0.023713619 0.0215299 0.086448625 -0.0018984658 0.027348695 0.09884404 0.099389076 -0.13442628 0.18818113 -0.18969877 0.08413694 -0.10814902 0.090648495 0.09236421 -0.11476168 0.027751898 -0.1008609 -0.0086201895 0.16043869 0.03156863 -0.024202663 -0.1334462 -0.03542212 0.075546235 0.029772382 0.023277162 0.013752513 -0.001986805 0.019747827 0.048680827 0.01353305 -0.038955413 0.037269704 0.13733906 0.025975998
96 0.10942565 -0.052840814 0.023885438 0.11776447 -0.04769186 -0.072477244 -0.046713483 -0.18500923 0.0612889 0.15381874 0.026380124 0.017720181 0.043056708 0.09779952 -0.11423435 -0.0116842985 -0.083718844 -0.13961278 -0.19854307 0.10290791 0.121189795 -0.046652075 -0.06550994 0.0871627 0.036119673 0.027739998 -0.13691446 0.07641018 0.0120475665 0.16679773 -0.016603392 -0.06759164 0.05690085 0.016896823 -0.09029581 -0.031559512 -0.0088547 0.045197304 0.043994684 -0.1077298 0.0030464178 -0.14392379 -0.026814481 0.06755276 0.10058545 -0.09386534 0.11246025 0.07666158 -0.15333147 -0.14635846 0.06463294 0.18357363 -0.03416167 0.10795659 -0.030278517 -0.106065534 0.09440536 -0.27491742 -0.0482719 0.097814344 -0.07833178 -0.03522191 -0.032714054 -0.07427822 0.10202162 -0.0189254 -0.15588762 0.082637094 0.036893137 -0.07917457 0.046958026 -0.10148784 -0.093715295 -0.018141273 -0.029472342 0.0506502 0.06287805 0.037577823 -0.0997453 -0.06817888 -0.020830628 0.016905233 -0.12652342 -0.060076393 -0.036950935 0.01572539 0.1370626 0.09391387 0.23670416 0.21684934 -0.1395519 0.05182987 -0.09155379 -0.071918786 0.012255389 -0.035966817 -0.0074928403 -0.03718954 -0.02926317 0.11086265 -0.13285293 -0.012578208 -0.12905683 0.051311646 0.014961943 -0.008029567 0.039580826 0.06443971 0.0012361445 0.026783125 -0.20180692 0.09377553 -0.038349416 -0.06557324 -0.12080591 0.063155346 0.15275516 -0.15553467 0.071422584 -0.0563946 -0.0055766082 -0.003636859 -0.02746047 0.05672919 0.025355449 0.035962917 -0.12314332 0.15954125
338 0.022244725 -0.038536385 0.0503218 -0.0007885348 -0.05075342 -0.07054043 -0.08772901 -0.08042628 0.073585026 0.1325761 0.021556357 -0.09057866 0.044993386 0.08318185 -0.15449673 -0.031430576 -0.045395423 -0.11773107 -0.18775323 0.17825288 0.067090794 -0.051373214 -0.03291971 0.02192504 0.022126617 0.0589836 -0.06566713 0.05791713 -0.05561813 0.1827455 0.0017660635 -0.100026906 0.07560785 0.0034372357 -0.11196298 -0.055705495 0.03657534 0.0021547666 0.013056931 -0.16650483 -0.030438751 -0.17812097 -0.002115432 0.07673178 -0.048884585 -0.058777362 0.07332691 0.016835134 -0.052942324 -0.07160619 0.09315144 0.23577711 -0.052766263 -0.039959606 -0.10382684 -0.045718014 0.1436863 -0.21515168 -0.02202474 0.018978974 -0.12110763 -0.072670706 -0.07823522 -0.065228604 -0.013599922 -0.008696643 -0.09928532 -0.048235442 -0.025073746 -0.10324386 -0.01685961 -0.09448374 -0.11694364 0.024124265 -0.08290483 0.13062876 0.021563541 0.023570755 -0.06889509 -0.017027302 0.01697728 -0.01522524 -0.06601142 -0.011026036 -0.06768967 0.08419064 -0.011509181 0.056697857 0.20994449 0.22984883 -0.045530237 0.06814056 -0.15085557 -0.08974473 -0.053331576 -0.04440944 -0.044394273 0.0053561362 0.05051608 0.2014976 -0.17661302 -0.09883945 -0.20498043 0.0871243 0.01823361 0.10493281 0.08498005 0.24761823 0.08120396 -0.045169514 -0.19263414 0.17922795 -0.04114778 0.030779157 -0.1429763 0.12024485 0.18677934 -0.10313744 -0.0060914415 -0.069273114 0.14329718 -0.034594644 -0.0026918692 -0.05930257 0.032284707 -0.05491092 0.021334784 0.112545855
141 0.0018665219 -0.15768915 -0.008819687 0.06801809 -0.030721592 0.04571332 -0.052807145 -0.020722002 -0.064438455 0.13141863 0.15845339 -0.07982031 0.04509322 0.017223807 -0.0075447 -0.005654935 -0.077290624 -0.117584094 -0.085069455 0.111392446 -0.11809747 0.049085043 -0.17938595 -0.17401093 -0.028209249 0.055296343 -0.0014965277 0.007331196 0.122850545 0.12920198 -0.08986849 0.04681046 0.0033864204 0.059950277 -0.105208315 0.055400033 -0.10805811 -0.075173445 -0.08268963 0.028593503 -0.0027354355 -0.20531908 0.124359824 0.06835327 0.12510945 0.0287187 0.17194174 -0.0053726854 -0.09165968 -0.073606886 -0.03079964 -0.14047816 -0.07747115 0.05414655 -0.06539199 0.08877944 0.073767066 -0.004610656 -0.0010593764 0.025045393 -0.06955568 -0.019003171 -0.15881392 -0.0041881106 0.13430819 0.038283255 -0.10188133 0.100307345 0.105671674 -0.05241867 0.016324893 -0.017880037 -0.2256017 -0.0458282 -0.12737468 0.0021339033 0.054451555 0.02179927 0.042706545 -0.12258969 -0.19765493 0.0443274 -0.018124167 0.012267321 -0.01866919 0.034231994 -0.078202516 0.08746929 -0.01600035 0.0071246377 -0.11015505 0.11833557 0.006367006 0.019350918 0.054505583 -0.031823933 0.020552851 0.05052284 0.0987216 0.0049592005 -0.08649056 0.032045454 -0.048355676 0.017733743 -0.1053197 0.0032511551 0.1833638 0.077570975 -0.014249575 -0.137005 -0.09678237 0.09831583 0.06589652 0.027067622 -0.08376143 -0.005006659 0.088103935 -0.022330683 0.030732729 -0.16351044 0.092757076 -0.12877218 -0.02025912 -0.047660634 0.002840364 0.10144464 0.07225673 0.0013824934
584 0.06530313 -0.09627494 -0.06126957 0.07296008 0.020798396 0.1260166 0.06181226 0.066055916 -0.057892844 0.15165809 -0.013938748 0.011267837 -0.0069322977 -0.031613223 0.026054766 0.03210833 -0.124057285 -0.11760452 -0.13929985 0.08280024 -0.061537378 -0.13096552 -0.08452955 -0.0814844 0.11089767 -0.15010883 -0.10952039 0.092533104 0.04719714 0.1230503 0.011986501 -0.08309691 -0.042278167 -0.052013602 -0.004505994 -0.048474137 0.09812741 -0.002383358 0.02039227 -0.089772895 0.025431396 -0.013410834 -0.09210757 0.106642045 0.08153163 0.016903387 0.23586477 -0.042053636 -0.13211027 -0.097989 0.020552339 0.028820977 -0.029583862 -0.010654303 -0.090657346 -0.05336467 0.048719894 -0.10388259 0.0030555183 0.026384577 -0.060524177 0.0027342313 -0.08730498 -0.037246145 0.07534618 0.0589007 -0.12294254 -0.10876893 -0.11444962 0.055841994 -0.0039106603 -0.12674648 -0.057435542 0.06450265 -0.028906088 -0.01406144 0.070531495 -0.029271835 -0.12904525 -0.0627366 -0.09876981 0.01709545 -0.05699659 0.16759774 -0.15393923 0.029134894 0.017362557 0.02732148 0.033621483 0.095104255 -0.0058157737 0.1787946 -0.09204994 -0.121716306 0.07534934 -0.039132062 -0.015698133 -0.015181387 0.027862621 0.13709372 -0.23031582 -0.001180703 -0.2289888 0.016420811 -0.020274265 0.19155858 0.02286299 0.03971069 -0.03405441 0.08846643 0.04283429 0.007572314 -0.007611132 -0.021722471 -0.03957121 -0.024040356 0.17246081 -0.07787132 0.03308097 -0.12303637 -0.04555737 -0.123039305 -0.022958478 -0.13858661 0.013393782 -0.023035511 0.053578634 0.058079496
1038 -0.005036752 -0.13601895 -0.058030408 -0.020992376 -0.17369972 -0.040988553 -0.08382774 -0.014471788 -0.12945934 0.07914945 -0.07064504 0.03775187 -0.11230327 -0.02602246 0.09578026 -0.0018916423 0.005369486 -0.0151132 -0.15997577 0.12884402 0.019739227 -0.07662601 0.027844198 -0.07856195 0.09905359 -0.031201702 0.06384478 0.03054468 0.12909076 0.15888478 -0.03549051 0.09617861 -0.09202695 -0.025976855 -0.09883054 0.058495954 -0.032679297 -0.04382516 0.12564214 0.058198486 0.019403165 -0.033921525 -0.008866952 0.106106825 0.097544335 -0.07740911 0.13979745 0.021056872 0.0050533717 -0.087338574 0.058803085 -0.11043368 -0.15466635 -0.00745167 -0.088516146 -0.0041324333 0.071191 -0.10027363 0.055793047 0.0907029 -0.057510745 -0.028701643 -0.13256335 0.063017316 0.11399561 -0.041315865 -0.045862086 0.026419839 0.050507676 0.034596834 0.075996116 -0.09959006 0.09900673 0.027173882 -0.005134677 -0.019428195 0.055875108 -0.06552844 0.07426486 0.00073854416 -0.027608283 -0.04774821 -0.11165467 0.09728285 -0.121987775 0.108332984 -0.021838356 0.10647251 0.24385315 0.09624366 -0.0796842 0.15978676 0.024593342 -0.009305862 0.06334293 -0.14258753 0.09205132 -0.042186942 -0.065222085 0.10514071 -0.020801134 -0.13082486 -0.14493273 0.12876648 -0.071308315 0.14278641 -0.024853708 0.021346135 -0.018616697 0.051843375 -0.120376736 0.060463786 -0.011782106 -0.17163572 -0.09526004 0.039251227 0.15741286 -0.0629649 0.088828124 -0.035388153 0.11872403 -0.11222016 0.022578117 -0.09403722 -0.09223027 -0.04042161 0.018934749 0.010846678
26 0.10453638 -0.07912781 0.07519244 0.094411135 0.02563143 -0.07890813 -0.00080454606 -0.15825626 -0.058180414 0.21523714 -0.028543511 0.016844276 0.080562726 0.043500338 -0.029066242 0.03925389 -0.14580387 -0.0007808356 -0.12138905 0.14019394 0.14532822 0.00088767416 -0.09267643 -0.03361355 -0.0072190906 -0.05701136 -0.123087786 0.017871512 0.11320488 -0.010139255 -0.036582425 0.021877201 0.10623773 0.024479281 -0.16871007 -0.122443035 -0.045388084 0.020029953 0.03847414 -0.035828553 0.047773708 -0.16834822 -0.08606376 0.21868692 0.15057674 -0.070626035 0.098875865 -0.08078654 -0.08487198 -0.13607289 -0.0028933026 0.06497952 -0.049479246 0.005695346 -0.13349265 -0.09521296 0.035382554 -0.250813 0.071550734 -0.029687447 -0.11623602 -0.12870549 -0.09324715 -0.16171786 0.059891585 0.05469148 -0.04071168 -0.013774689 -0.02669863 0.0003572211 -0.026825976 -0.014099104 -0.07811582 0.008495436 -0.042662807 0.17002314 0.051393665 0.07720727 -0.065868445 -0.12697034 -0.074325494 0.03951658 -0.009109247 0.17002238 -0.0806917 0.06277695 -0.0035279025 0.11456488 0.099127725 0.020153744 -0.18729088 0.020119417 -0.12787607 -0.057842582 -0.04175229 -0.024614964 0.078002796 -0.07201744 -0.108265124 0.09425269 -0.19597173 -0.020886682 -0.19377239 0.1162013 -0.015618719 -0.031925 0.03721577 0.07815307 0.055667058 -0.09681095 -0.26604044 0.15430035 0.07350337 -0.04074429 -0.08043271 0.021655222 0.1585656 -0.041858945 0.12270378 -0.05048701 -0.046742044 0.023067687 0.030127604 -0.019705873 0.09844417 -0.0061469493 -0.06261027 0.11424414
778 0.0833619 -0.18756875 -0.11136464 0.14088194 0.052841343 0.0065131634 -0.045941833 -0.059931137 -0.065081775 0.1388976 0.032349534 -0.02003978 -0.052554555 0.023127224 -0.022447925 0.062220618 -0.06440349 -0.054141164 -0.20482644 0.2251595 0.055558275 -0.10668396 -0.030585466 -0.029940842 0.11277095 -0.08233244 -0.20625362 0.017650342 0.15125692 0.115216464 -0.044236414 -0.024362352 -0.0194761 0.09012349 -0.036177844 -0.100962855 -0.020565504 0.002949888 0.029467631 0.079200335 -0.102043636 -0.11156165 0.07190302 0.044106226 0.058069833 0.08582495 0.10777295 0.01152213 -0.2405403 0.014909972 0.01790351 0.025271801 0.04102347 -0.04429921 -0.10502344 -0.119590335 0.11153801 -0.14159049 -0.018864825 -0.013661288 -0.017815879 0.011148154 -0.18578592 -0.07865352 0.15048508 -0.04755107 -0.08962798 -0.12227889 0.060244635 0.17809576 0.04933766 0.0016822503 -0.12734728 0.02866938 0.11863957 0.0014302729 0.027864816 0.0031325354 -0.09505438 -0.016065167 -0.110452004 0.05831564 -0.05119366 0.12821035 -0.05775184 0.06763588 -0.020447558 -0.03281919 -0.037124176 0.14608379 -0.03823654 0.15687388 -0.033513688 0.034028538 -0.07026803 0.09574369 -0.018197246 0.06231799 0.044049647 -0.02175326 -0.12768915 -0.036645073 -0.19180788 0.13071896 0.031837165 -0.005173047 -0.002584001 0.10789233 0.06931266 -0.13026495 -0.030154424 0.035519715 -0.019826002 -0.010174601 -0.10077804 -0.07275616 0.25413468 -0.035171382 0.0067666774 -0.030637888 -0.021981204 0.018359192 0.028266458 0.017220797 0.00065127487 0.1409477 0.0156142935 0.10671995
306 -0.1429801 -0.14445189 -0.08460493 0.13434266 -0.097726755 0.07423727 -0.045007896 -0.09236488 -0.0005615748 0.16498145 0.09344451 0.015724143 -0.1172757 -0.010721955 0.05993631 0.04577664 -0.06712057 -0.17031047 -0.15467244 0.1538029 -0.10363118 -0.011344312 -0.06084402 -0.17941573 -0.03238957 0.116620935 -0.04950855 0.018164666 0.07006241 0.09239932 -0.065776035 0.03695702 -0.04418833 -0.010862545 -0.11428852 0.0655811 -0.021409944 -0.04303881 -0.022715826 0.08812054 -0.03673726 -0.14412475 0.15031943 0.08875802 0.017866023 0.07752844 0.15412964 0.0118595 -0.106278546 -0.018806329 0.10775786 -0.035254225 -0.013541492 -0.038710807 -0.076193266 0.005729525 0.0014802533 -0.11860566 -0.074168846 0.032984197 0.00043150366 -0.0038464318 -0.04957199 0.024397582 0.099528834 0.091619074 -0.15372552 -0.05812444 -0.032731447 -0.030497417 -0.044795983 -0.05471891 -0.15407707 -0.03608786 -0.043314762 0.014872708 0.08057564 0.01055624 -0.14022882 -0.031853575 -0.13683626 0.020630945 -0.005766789 0.055555604 -0.011561298 0.024929766 -0.10171768 -0.014924257 -0.07801401 0.049879115 -0.10326023 0.14565119 0.026154494 0.039310113 0.09113891 0.04925068 0.018327625 -0.13466898 0.0662286 0.031152021 -0.06056873 0.07678814 -0.12944716 0.050234064 -0.1417227 0.11472418 0.08217359 -0.04396719 -0.13922842 -0.067842014 0.010624638 0.09855539 0.025334155 0.019412661 -0.041770283 0.058868572 0.00637816 -0.027608525 -0.012077964 -0.0382353 0.05140296 -0.08601958 0.02278229 -0.05099851 0.016434412 0.042540308 -0.09198041 -0.06792315
254 0.009214665 -0.20729624 -0.041278698 0.13316555 -0.08902044 0.08334559 0.017046325 0.042518962 -0.01154992 0.075676315 0.02116338 -0.03063396 -0.036591917 0.04820197 0.03376796 -0.017813882 -0.09799186 -0.116397955 -0.13808383 0.057747833 -0.106636554 -0.03824682 -0.14038931 -0.09061914 -0.07359902 0.030036187 0.063756794 -0.043367635 0.06739073 0.07869149 0.027270515 0.011435384 -0.010321854 -0.020080872 0.018588506 -0.10211338 -0.09628635 -0.026736721 0.08479897 0.16327544 -0.039637268 -0.0853276 -0.03558067 0.22003378 0.030183086 0.029737594 0.19009407 -0.05149234 -0.064588666 -0.08666392 0.07049908 0.03204032 -0.048159856 0.066504836 -0.10691998 -0.057007458 0.06971653 -0.062632166 -0.05029503 0.05188591 -0.11744594 -0.09445901 -0.13017122 -0.012128726 0.110609405 -0.0127131315 -0.02458534 -0.018472051 0.066793285 0.06124951 0.004941436 -0.06129643 -0.17146747 0.028230626 -0.16743696 0.16751644 -0.057060685 -0.015203763 -0.041632436 -0.03645325 -0.10740296 0.024870869 0.004554368 -0.009466773 0.028244177 -0.023883477 -0.021785576 0.07509164 0.07157871 0.12537365 -0.0070947898 0.15915963 -0.0906235 -0.018870022 -0.047054958 -0.039539795 -0.045938857 0.06919661 0.10737125 0.12952793 -0.053291954 -0.06824214 -0.3062303 0.062114425 -0.06623621 0.12725347 -0.026423942 0.055338386 -0.039950676 -0.08290876 -0.26331383 0.028724384 0.019194458 -0.0758537 0.0146673145 0.024886789 0.20381613 -0.08138838 0.003655774 -0.12544446 -0.003646218 -0.1284072 0.16503073 -0.02360305 0.00514724 0.060706694 -0.078956835 -0.22599633
561 -0.0057748887 -0.07658344 -0.167573 0.15529439 0.12735711 -0.03248345 -0.029042037 -0.03727466 -0.0795277 0.19131444 0.0913875 0.040093407 0.005643026 -0.073997386 0.06647805 -0.000296932 -0.07818722 -0.1540731 -0.08023095 0.10020941 0.044161137 -0.1420467 -0.08619832 -0.20827012 0.0022595245 -0.07599804 -0.009285684 -0.06575612 0.072888024 0.084613465 0.029798826 -0.096809044 0.015896196 0.049256116 0.04551483 0.024123108 0.0084315585 -0.11008339 0.00027067456 0.03935372 -0.029507875 -0.13877341 0.051454384 -0.028881684 0.07278949 0.060532298 0.16573426 0.055345472 -0.13115864 -0.024371024 0.14211588 -0.015025066 -0.12577154 -0.00012205957 0.009557863 -0.11284906 -0.004229073 -0.25778335 -0.044974424 -0.032388095 0.0883603 0.04118644 -0.07652975 -0.08595418 0.035315983 0.14108287 -0.16509826 -0.15740372 -0.026149904 0.11650929 0.027844407 0.033008408 -0.1000051 0.033958863 -0.021819727 -0.010872806 0.007493798 0.02435857 -0.1454696 0.0612423 -0.10165118 -0.0760868 0.08133152 0.043883488 -0.046983387 -0.09073289 -0.08028321 0.0441162 0.011064527 0.13880257 -0.024500977 0.071853235 -0.023391902 0.033682242 -0.038988683 0.10280713 -0.05580799 -0.042346917 0.112034716 0.1841096 -0.08905556 0.0831396 -0.15905243 0.07185655 -0.0703286 0.16073881 0.101863205 0.024041418 0.080030575 -0.06659805 -0.036770824 0.06915132 0.049911305 -0.0024751388 -0.09490968 -0.13336715 0.07903961 0.006598804 -0.033542592 -0.05705569 0.029491933 0.014695475 -0.039869756 0.0061911014 0.09519762 0.06134824 0.07174437 0.08087049
723 -0.0031710058 -0.035705473 -0.0789849 0.11706882 -0.021063305 0.015961323 -0.022612717 -0.05848014 -0.0532087 0.045437492 -0.007470453 0.038037546 0.021078706 0.012511691 0.1380954 -0.0040421183 0.016704863 0.06407255 -0.2037955 0.14163607 0.035286885 -0.083388515 -0.024961889 0.03799201 0.081613995 -0.0071914876 -0.18024556 -0.0068984474 0.06436681 0.05012292 -0.005372819 -0.0063763508 -0.020468764 0.16016759 -0.08897044 0.02467234 0.08139914 0.05037695 -0.03056832 0.039038196 0.06271537 -0.043359473 0.07379715 0.14301886 -0.015497285 0.07185224 0.04958841 0.18614367 -0.038450725 -0.17058115 0.03160424 -0.015786204 -0.13528442 0.22140357 -0.15148792 -0.06437035 0.10765436 -0.13945122 -0.08667064 0.047022253 -0.06421263 0.0044003944 -0.12645084 -0.03666761 0.03498193 -0.12701608 -0.10540688 0.021580106 -0.033468787 0.04109842 0.029968243 -0.07664284 -0.11601315 0.062085025 -0.09938622 0.12168225 -0.07223126 -0.09725375 -0.0247822 -0.04158357 -0.15152773 -0.095755786 0.0040366547 -0.013505127 -0.102731906 -0.008060151 0.008229658 0.072234765 0.10073114 0.13800408 -0.027730884 0.08275078 -0.14878167 -0.06023573 -0.02907673 -0.052826624 0.072973356 0.057579827 0.023729686 0.18155588 -0.1374359 0.00095214695 -0.19060971 -0.020121243 -0.13123582 0.05506453 -0.06679611 -0.049060326 -0.10154103 0.04472182 -0.012176934 0.056079656 0.009034574 -0.0805124 -0.006230845 0.015231919 0.2751559 -0.13284363 0.06579166 -0.060277384 0.05262513 -0.0057681645 0.03701076 -0.18083927 -0.10562656 0.011299863 0.10211214 -0.01036816
